{"model_data": {"model": "SimpleRNN", "input_size": 1, "skip": 1, "output_size": 1, "unit_type": "LSTM", "num_layers": 1, "hidden_size": 64, "bias_fl": true}, "state_dict": {"rec.weight_ih_l0": [[-1.6286259889602661], [-0.7836228609085083], [-0.8870031237602234], [0.7530769109725952], [-1.226565957069397], [-0.9221842288970947], [0.7421309351921082], [1.1686015129089355], [-0.30977046489715576], [-0.1388118416070938], [-1.0858101844787598], [0.10330839455127716], [-1.2304822206497192], [0.03664828836917877], [-0.27384695410728455], [-0.34585505723953247], [-0.45059826970100403], [0.821556031703949], [0.02251073718070984], [-0.053275223821401596], [0.35676059126853943], [-0.18773755431175232], [-0.08679094910621643], [0.41976410150527954], [-0.6465604305267334], [0.06785441935062408], [0.5435460805892944], [-0.05754602700471878], [-0.13199551403522491], [1.20760178565979], [0.2598826289176941], [0.7324515581130981], [-0.6443755626678467], [-0.3620607852935791], [-0.9295142292976379], [0.7288724780082703], [-0.27188390493392944], [1.2782063484191895], [-0.5858901739120483], [0.6394950151443481], [1.617637276649475], [0.8893486261367798], [0.8273294568061829], [0.4353426694869995], [1.7235417366027832], [0.6297490000724792], [0.10666731745004654], [-0.2797958552837372], [0.8435217142105103], [-0.7031559348106384], [-0.6550241112709045], [0.5596791505813599], [-0.898504376411438], [-0.36403682827949524], [-0.8988974690437317], [-0.20573948323726654], [0.5765384435653687], [-1.218748688697815], [-0.4905948340892792], [-0.8322423696517944], [-0.5789685249328613], [0.12393911182880402], [0.9483793377876282], [0.523887038230896], [-1.2149988412857056], [-1.2107980251312256], [0.7264732718467712], [0.5303650498390198], [-0.11558020114898682], [-1.7427042722702026], [1.2630200386047363], [1.2120535373687744], [-0.12296560406684875], [-0.6248085498809814], [-0.6824391484260559], [0.18394866585731506], [-0.9831141233444214], [-0.5999609231948853], [-1.1328073740005493], [-0.17259590327739716], [-1.3821967840194702], [0.28673553466796875], [-0.5309514403343201], [-0.2862432897090912], [0.6249619126319885], [0.11233021318912506], [-0.4273238182067871], [0.21613538265228271], [-0.3368224501609802], [-0.7982308864593506], [1.05636465549469], [0.06343606859445572], [-0.5931600332260132], [0.904370129108429], [1.2401455640792847], [1.7776647806167603], [-0.21850238740444183], [-0.6444565653800964], [-0.5464898347854614], [0.8393282294273376], [-0.13917765021324158], [2.3156485557556152], [-0.06974317878484726], [0.7081327438354492], [1.9828991889953613], [1.0621991157531738], [1.6671841144561768], [0.780241072177887], [1.2161740064620972], [-0.544241189956665], [-0.298134446144104], [0.21858346462249756], [0.7254930734634399], [-0.7913103103637695], [-0.4432262182235718], [0.011123129166662693], [-1.0961213111877441], [-0.29959607124328613], [-0.8122601509094238], [-0.19426095485687256], [0.16055645048618317], [-1.3355451822280884], [-0.1413087248802185], [-0.7897584438323975], [-0.007461687549948692], [0.19506612420082092], [0.450265109539032], [0.3130348324775696], [-2.3717026710510254], [-3.5837807655334473], [1.1462507247924805], [-2.0311875343322754], [-1.302964687347412], [-1.0291389226913452], [1.0607784986495972], [1.4827890396118164], [-0.14542655646800995], [-0.8018394112586975], [-0.2878345251083374], [-0.4071404039859772], [-1.6114643812179565], [-0.6475820541381836], [0.5746334195137024], [5.467759609222412], [-0.5411391854286194], [-3.2456564903259277], [4.795365810394287], [-1.015146017074585], [0.5703197121620178], [-0.7792067527770996], [-0.9179863929748535], [-1.0229078531265259], [1.5274927616119385], [0.6526663303375244], [1.9335911273956299], [-2.5698893070220947], [-2.231064796447754], [0.6475244760513306], [-1.531636118888855], [-6.956278324127197], [1.4055202007293701], [-0.16198615729808807], [2.1197242736816406], [0.793681263923645], [1.5349138975143433], [-2.9258627891540527], [1.1765484809875488], [-1.9416238069534302], [-2.584510087966919], [0.6122441291809082], [1.4087580442428589], [-3.1362287998199463], [-2.112518787384033], [0.8427221179008484], [1.1353998184204102], [-2.6797068119049072], [-3.048013687133789], [0.9402557015419006], [2.1015076637268066], [-1.0045666694641113], [-0.8346187472343445], [-0.24121752381324768], [-1.9005171060562134], [-0.4599594175815582], [-0.5495453476905823], [0.4805465340614319], [0.5179631114006042], [-0.06831857562065125], [-0.6143714785575867], [-1.453376054763794], [0.7745963335037231], [1.0985770225524902], [-1.2834298610687256], [-0.7619977593421936], [-0.3584645092487335], [0.6652593612670898], [-1.1667979955673218], [-0.8799794316291809], [0.7422460317611694], [0.9247400164604187], [-0.3553270697593689], [-0.1839238703250885], [-0.9244365096092224], [0.32378193736076355], [-1.372460126876831], [0.19411924481391907], [-0.8153551816940308], [-0.4582744538784027], [-0.9266906976699829], [0.7288325428962708], [0.3276340365409851], [-0.7640945315361023], [0.35696232318878174], [-0.06481751054525375], [0.12426085025072098], [1.0037871599197388], [-0.1453149914741516], [-1.0538320541381836], [-0.13144710659980774], [0.1388096809387207], [0.20039638876914978], [2.29306697845459], [0.4514273703098297], [0.5504724383354187], [-0.3603432774543762], [-0.38351553678512573], [-1.1541874408721924], [0.7992464303970337], [-0.2726966440677643], [1.3295191526412964], [-0.2824496328830719], [1.0737639665603638], [-1.290101408958435], [1.177135944366455], [1.016658067703247], [0.7252915501594543], [1.977636694908142], [0.8938689827919006], [0.27727991342544556], [-0.674096405506134], [0.7451758980751038], [-0.6485567688941956], [-0.7326443195343018], [0.8892598748207092], [-1.3126784563064575], [-0.8219889998435974], [-0.6489880681037903], [-0.2810700833797455], [-0.0924452468752861], [-0.9271392822265625], [-0.3409945070743561], [-1.3409253358840942], [-0.20380841195583344], [0.19517917931079865], [1.0443493127822876], [0.7028679251670837]], "rec.weight_hh_l0": [[0.042656537145376205, 0.1057288646697998, 0.11529283970594406, -0.28913766145706177, 0.46104392409324646, 0.25713086128234863, 0.5397222638130188, -0.7595070004463196, -0.10947153717279434, 0.36989229917526245, 0.2598598897457123, 0.4658370912075043, 0.5482534766197205, 0.7159453630447388, 0.32838547229766846, -0.6361637115478516, -0.7348964810371399, -0.009439866058528423, -0.26195529103279114, 0.355778306722641, -0.07248637825250626, 0.09918810427188873, 0.1086006760597229, -0.1767566055059433, -0.34931662678718567, -0.12788203358650208, -0.07650193572044373, 0.029063072055578232, -0.029750637710094452, 0.8888463973999023, -0.3067183196544647, 0.09813330322504044, -0.22364580631256104, -0.10079531371593475, -0.743140459060669, 0.8116933703422546, -0.14605265855789185, 0.26580047607421875, -0.35027366876602173, -0.40728306770324707, 0.35711905360221863, 0.16141334176063538, -0.29451361298561096, 0.29076552391052246, 0.04462871700525284, -1.2976876497268677, -0.22991248965263367, 2.3230719566345215, 0.5045507550239563, 0.09307040274143219, -0.22449232637882233, 0.20474979281425476, 0.22096750140190125, 0.7169424295425415, 0.014183525927364826, 0.45128747820854187, -0.08016059547662735, -0.4235847294330597, 0.14016371965408325, -0.48770901560783386, 0.7084461450576782, 0.29949524998664856, 0.2648264169692993, -0.10485030710697174], [0.1006334200501442, -0.06760746240615845, -0.5561071038246155, -0.38087865710258484, 0.14135299623012543, -0.3767702281475067, 0.7565042972564697, 0.014906679280102253, -0.14960558712482452, -0.3085196912288666, 0.024349462240934372, 0.1177390068769455, -1.0397133827209473, 0.2978779971599579, 0.6568998694419861, 0.6580156683921814, -0.28069040179252625, 0.1932717114686966, -0.2569851577281952, -0.03187476098537445, 0.04261181131005287, 0.1424822211265564, -0.34083500504493713, -0.26454225182533264, -0.041388727724552155, -0.1200442984700203, -0.384914755821228, -0.10128792375326157, -0.21998529136180878, 0.6943165063858032, -0.01417715847492218, -0.03541400656104088, -0.9985877871513367, -0.5014883279800415, 0.4231668710708618, 1.4295029640197754, 0.3158701956272125, 1.056530237197876, 0.21145334839820862, -0.3999071419239044, -0.49522995948791504, 0.6045204401016235, -0.4458218216896057, -0.8943721652030945, -0.3289962410926819, -1.0580718517303467, 0.2149699181318283, 0.23894114792346954, -0.23597928881645203, -0.053945884108543396, -0.12598860263824463, 0.24999980628490448, -0.2892029583454132, -0.24363060295581818, 0.10172572731971741, -0.7368519902229309, 0.17976397275924683, 0.16427385807037354, -0.027800437062978745, 0.3793419897556305, 0.40546226501464844, 0.10343058407306671, 0.410077303647995, 0.5508949756622314], [0.30100905895233154, -0.053225208073854446, 0.5302499532699585, 0.27957022190093994, -0.2924254536628723, 0.22932884097099304, 0.2966155409812927, -0.5030571818351746, -0.1920744627714157, 0.11489973962306976, 0.19237512350082397, 0.4778726398944855, 0.44744670391082764, 0.34846147894859314, 0.3964434862136841, -0.37875306606292725, 0.22496645152568817, 0.5430618524551392, -0.45577165484428406, 0.2468157410621643, 0.13759301602840424, -0.03649348020553589, -0.09379466623067856, 0.04636571556329727, 0.08218216896057129, -0.0743570625782013, -1.1471120119094849, 0.642441987991333, 0.20569457113742828, -0.4834744334220886, 0.0011227387003600597, 0.8106728792190552, -0.9195622801780701, -0.29646244645118713, -0.049700021743774414, -0.2591954171657562, -0.5012290477752686, 0.425076961517334, 0.020152250304818153, -0.12219059467315674, 0.04050171747803688, 0.16001039743423462, -0.359544575214386, 0.40059536695480347, 0.24101261794567108, -0.22919878363609314, -0.12186718732118607, 0.11038874089717865, -0.24738191068172455, -0.19298093020915985, -0.6167435646057129, -0.14048033952713013, 0.19773335754871368, 0.23737558722496033, 0.3503989279270172, -0.00012239882198628038, 0.04771410673856735, 0.3724135458469391, -0.12904393672943115, 0.4681016504764557, -0.08481161296367645, 0.29090258479118347, -0.90965735912323, -0.6312140226364136], [-0.11759033054113388, 0.17464831471443176, -0.04183345288038254, 0.020995385944843292, 0.09323514252901077, -0.2845054864883423, 0.07691682875156403, -0.3699720799922943, -0.42351576685905457, -0.46081358194351196, -0.25358375906944275, 0.23316603899002075, -0.2347705364227295, 0.8688411116600037, 0.4602036476135254, 0.20215684175491333, -0.18768280744552612, -0.10981027781963348, -0.044844288378953934, 0.03877822682261467, -0.10978808999061584, 0.001860567950643599, -0.582979142665863, -0.2641911804676056, 0.1548203080892563, -0.1530560702085495, -0.5596234798431396, -0.25088316202163696, -0.2986766993999481, 0.44107526540756226, 0.07787486165761948, 0.010706452652812004, 0.2824414372444153, -0.4467618763446808, 0.07677294313907623, 0.3153674304485321, 0.1845349222421646, 0.5402224659919739, -0.15939733386039734, 0.06942309439182281, 0.11481904238462448, 0.5267384648323059, -0.11086712032556534, -0.032835621386766434, 0.2234496921300888, -0.14225052297115326, 0.06213513761758804, 0.32398533821105957, -0.057044848799705505, -0.10939672589302063, 0.07909154146909714, 0.17345929145812988, -0.20843817293643951, 0.3819783627986908, -0.10663396865129471, -0.15092195570468903, -0.06078905239701271, 0.21383342146873474, 0.08239775896072388, 0.1745811104774475, -0.15913605690002441, -0.21602055430412292, 0.3580886423587799, 0.17430371046066284], [0.29409095644950867, 0.5943202972412109, 0.0817364826798439, -0.7059012651443481, 0.3361136019229889, 0.33120834827423096, -0.7003692388534546, 0.4480903148651123, 0.5255187153816223, 0.7631299495697021, 0.4156247079372406, 0.39567995071411133, -0.618461549282074, 0.007960432209074497, -0.4433605372905731, -0.33851709961891174, 0.3469434976577759, -0.01732002943754196, -0.3442888855934143, -0.406974732875824, -0.27113208174705505, -0.09199383109807968, -0.005214009899646044, -0.3446834087371826, -0.8066258430480957, 0.15195350348949432, 0.23466086387634277, 0.12392900139093399, 0.6820252537727356, -0.34798043966293335, 0.1997843235731125, -0.17130497097969055, -0.19379587471485138, 0.060763243585824966, 0.1639750897884369, -1.0681818723678589, -0.5635614395141602, -0.43102917075157166, 0.09949877113103867, -0.40443184971809387, 0.2997319996356964, -0.7821957468986511, 0.27987241744995117, -0.33900341391563416, -0.5801093578338623, -0.21720893681049347, -0.2992866337299347, -0.39857882261276245, -0.3675355315208435, 0.8229792714118958, 1.0201526880264282, -0.12608550488948822, 0.2029382735490799, -0.5641371607780457, -0.4947431683540344, -0.31669169664382935, -0.432849258184433, -0.42870432138442993, -0.7235403060913086, -0.3629186451435089, 0.10525960475206375, 0.8676539063453674, 0.20904263854026794, -0.7662741541862488], [0.25987911224365234, 0.4306172728538513, 0.10944869369268417, 0.12159629911184311, 0.18247105181217194, 0.13701796531677246, -0.028336968272924423, -0.36486655473709106, -0.3781331479549408, 0.15379859507083893, 0.04541721194982529, 0.33628416061401367, -0.03148973360657692, -0.17192913591861725, 0.2505621910095215, -0.4980800151824951, -0.7226004600524902, 0.320088267326355, -0.5563422441482544, 0.13995635509490967, 0.19910463690757751, 0.22835177183151245, -0.3084072768688202, 0.09421773254871368, 0.5014916062355042, -0.09889759123325348, -0.3399266302585602, -0.12783710658550262, 0.08184242993593216, -0.3941026031970978, 0.9874368906021118, 0.5125581622123718, 0.43599551916122437, -0.5115861892700195, -0.04306066036224365, -0.11293833702802658, 0.05629441514611244, 0.3264939486980438, 0.2738242447376251, 0.04187814146280289, 0.8669962286949158, -0.014403695240616798, -0.07738485932350159, 0.373086541891098, -0.028192399069666862, 0.06874492019414902, 0.09266199171543121, 0.523672878742218, 0.5292607545852661, -0.31335464119911194, 0.08693846315145493, 0.059233132749795914, 0.06747821718454361, 0.809201717376709, 0.4879723787307739, 0.17425031960010529, 0.27542465925216675, 0.5542136430740356, -0.15717074275016785, -0.47154250741004944, -0.1644165813922882, 0.375240683555603, 0.3007712960243225, 0.04707618057727814], [-0.891017735004425, 0.15569455921649933, 0.1201043650507927, -0.2561316192150116, 0.6058705449104309, 0.041370753198862076, 0.06023941561579704, -0.917870819568634, 0.05059061571955681, -0.34974026679992676, 0.23422423005104065, 0.018865760415792465, -0.4999063014984131, 0.26469334959983826, 0.45887094736099243, 0.03070087544620037, 0.5629355907440186, 0.8595423102378845, -0.5844502449035645, 0.18425142765045166, 0.17386893928050995, -0.3928758203983307, -0.9003872275352478, 0.09722824394702911, -0.1578684151172638, -0.7230205535888672, -1.0100703239440918, -0.2749325931072235, 0.10410509258508682, 0.5268515348434448, 1.2960453033447266, 0.7116601467132568, 0.2419392615556717, -0.26342928409576416, 0.6323097348213196, 0.4546881914138794, 0.18671654164791107, 1.1510000228881836, 0.8194714784622192, -0.16010667383670807, 0.4635569751262665, 0.40185803174972534, -0.41454434394836426, -0.15064266324043274, -0.18537765741348267, -0.6826217174530029, -0.04438166320323944, -0.6115700602531433, -0.21329571306705475, -0.25354593992233276, 0.17390161752700806, -0.11246434599161148, 0.40100231766700745, 0.0663389265537262, 0.40799254179000854, -0.45443814992904663, 0.11663679778575897, 0.11071351170539856, -0.20230816304683685, 0.29541468620300293, -0.12258248776197433, -0.05373024567961693, 0.03120148926973343, -0.03847484663128853], [0.014383530244231224, 1.0457080602645874, 0.013441070914268494, -0.08126606792211533, -0.3516174256801605, 0.304970920085907, -0.8331571817398071, 0.19684745371341705, -0.2626529037952423, -0.12993530929088593, -0.06301996111869812, 0.17305560410022736, -0.17414529621601105, 0.3377862274646759, -0.3282523453235626, 0.21428455412387848, 0.42371436953544617, -0.820326030254364, -0.22596889734268188, 0.23894216120243073, -0.04210063815116882, -0.055319737643003464, 0.3130944073200226, -0.22069652378559113, -0.31939688324928284, 0.4684359133243561, 0.24565598368644714, -0.5029619932174683, 0.18979503214359283, 0.3722686171531677, -0.8823551535606384, 0.3186585307121277, 0.7247512936592102, -0.04217134043574333, -0.2603602409362793, 1.1841590404510498, 0.14546296000480652, 0.40190044045448303, 0.09114448726177216, 0.263846755027771, 0.751434326171875, -0.052878838032484055, 0.15698610246181488, -0.542911171913147, -1.2323501110076904, 0.6119562983512878, -0.04638371989130974, -0.15696850419044495, 0.27962490916252136, 0.0903148278594017, 0.9334521293640137, -0.06833774596452713, -0.290483295917511, -0.294680118560791, -0.558716356754303, 0.6234959959983826, 0.2478133738040924, -0.8995835781097412, 0.279253214597702, -0.7237315773963928, 0.6731184124946594, -0.07083156704902649, 0.8166147470474243, 1.350366234779358], [-0.4604460299015045, 0.06489964574575424, 0.053818486630916595, 0.12040247768163681, -0.09120228886604309, -0.3282761573791504, -0.19714201986789703, -0.37567800283432007, -0.1514739692211151, 0.31291836500167847, -0.2030305713415146, -0.03205281123518944, -0.5499064326286316, 0.8425151705741882, 0.26180970668792725, 0.1583147794008255, -0.12603579461574554, 0.2957322895526886, 0.15365692973136902, 0.1581893116235733, 0.059936463832855225, 0.2056514471769333, -0.12823165953159332, 0.08765126764774323, 0.09966631978750229, -0.17510753870010376, -0.46837154030799866, -0.07976176589727402, -0.44405123591423035, 0.1968207061290741, 0.2068873792886734, -0.0400356762111187, 0.0945439413189888, -0.20939335227012634, 0.16753935813903809, 0.1599918156862259, 0.2657630443572998, 0.4146125316619873, 0.2541433870792389, 0.0066559091210365295, 0.039421580731868744, 0.1597609519958496, -0.3175981640815735, -0.12782004475593567, 0.15479034185409546, 0.35985061526298523, 0.44034773111343384, -0.12258649617433548, 0.15158051252365112, -0.059340834617614746, 0.17973484098911285, 0.13619254529476166, -0.3577229082584381, 0.4249233305454254, -0.05390528216958046, 0.14791563153266907, 0.03842679411172867, 0.18838894367218018, 0.2669866681098938, 0.006991405505686998, -0.42876002192497253, 0.4821014702320099, 0.20514371991157532, 0.0772012248635292], [-0.40928974747657776, -0.08420709520578384, -0.2912498712539673, 0.5190759897232056, 0.19428659975528717, -0.13441693782806396, 0.06297583132982254, -0.19088254868984222, -0.3106500506401062, -0.07906044274568558, -0.46904176473617554, -0.01756514422595501, -0.029765276238322258, -0.12726591527462006, 0.3226949870586395, 0.2442937046289444, 0.13265925645828247, 0.4086652398109436, 0.10839281976222992, 0.23956838250160217, 0.4760458767414093, 0.08104346692562103, 0.24676978588104248, 0.05276641249656677, -0.0688297376036644, -0.31019827723503113, -0.4507249593734741, 0.025676686316728592, 0.057734884321689606, -0.002436155453324318, 0.3844324052333832, 0.10572841763496399, 0.28037112951278687, -0.3497934937477112, 0.0766974538564682, -0.20289009809494019, 0.03337883576750755, 0.293181449174881, 0.4210183620452881, 0.38713082671165466, -0.02919873781502247, 0.05218067020177841, 0.04938126727938652, 0.38599514961242676, 0.6658469438552856, 0.20390500128269196, 0.32950183749198914, 0.1414368599653244, 0.06308264285326004, -0.6779828667640686, 0.02215413749217987, 0.009422911331057549, -0.32063350081443787, 0.41231080889701843, 0.2173765003681183, 0.36164581775665283, 0.3089737594127655, -0.041759345680475235, 0.7463548183441162, 0.3111542761325836, -0.5651159286499023, 0.36016303300857544, -0.06274164468050003, 0.053219497203826904], [-0.15314415097236633, -0.020538467913866043, 0.02353810891509056, -0.07167375832796097, 0.18103674054145813, -0.06518303602933884, 0.1254439502954483, 0.13171502947807312, -0.07743119448423386, 0.33763056993484497, -0.01457352377474308, -0.31075319647789, 0.0700598880648613, -0.08766637742519379, 0.28749439120292664, -0.17475742101669312, 0.25133851170539856, 0.22307156026363373, -0.5177872180938721, 0.021264096722006798, 0.005412066355347633, 0.10501033812761307, -0.3737303912639618, 0.038076210767030716, 0.2577647566795349, -0.6416528224945068, -0.7904936671257019, -0.43035829067230225, -0.22367927432060242, -0.3673107326030731, 0.6101042032241821, 0.36660346388816833, 0.3282764256000519, 0.029484005644917488, -0.09821531921625137, -0.08987083286046982, 0.4450240731239319, 0.8166631460189819, -0.29569798707962036, 0.07090310007333755, 0.8943583965301514, 0.5304776430130005, -0.7286016345024109, -0.013810324482619762, 0.08638565987348557, -0.013078762218356133, 0.20509696006774902, -0.11517085134983063, 0.3800918161869049, -0.2008102983236313, 0.07772418856620789, 0.07153202593326569, 0.013959266245365143, 0.052504561841487885, 0.12890048325061798, 0.39843568205833435, -0.03550912067294121, 0.5122665762901306, 0.3169585168361664, -0.31874150037765503, -0.16573521494865417, -0.3087364733219147, 0.621752917766571, 0.3273477554321289], [-0.3457184135913849, 0.11206625401973724, 0.4176411032676697, 0.23121754825115204, 0.21338476240634918, -0.08893327414989471, -0.11773432791233063, -0.11807091534137726, 0.28293517231941223, 0.4209013879299164, -0.07312417030334473, 0.19064021110534668, -0.2193111628293991, -0.12235401570796967, -0.19522720575332642, 0.13220098614692688, -0.6747013926506042, -0.07639836519956589, 0.025054290890693665, -0.08374406397342682, 0.2590045630931854, 0.6454521417617798, 0.3071635365486145, 0.34481796622276306, -0.060275934636592865, 0.2953225374221802, -0.15920913219451904, -0.019290046766400337, 0.059634968638420105, -0.12001369148492813, 0.06624821573495865, -0.17628014087677002, 0.2836460471153259, -0.08388780057430267, -0.08112535625696182, -0.261557936668396, -0.19524256885051727, 0.4617078900337219, -0.23127475380897522, 0.43178874254226685, 0.14293354749679565, -0.3356642723083496, 0.01917446032166481, 0.1649698168039322, 0.37445783615112305, 0.4389059841632843, 0.3154385983943939, 0.3194677531719208, 0.32929080724716187, -0.13226452469825745, 0.08083683997392654, 0.6051876544952393, -0.4802410304546356, 0.7873291373252869, -0.5664087533950806, 0.017937306314706802, 0.004302360117435455, -0.11786102503538132, 0.40210580825805664, -0.08044475317001343, -0.1922096163034439, 0.17448116838932037, -0.14292342960834503, -0.013802641071379185], [-0.04609031230211258, 0.6877855062484741, 0.053984422236680984, -0.21686825156211853, -0.008668671362102032, 0.25592461228370667, -0.9923819899559021, 0.2161087542772293, 0.1675187051296234, 0.04077503830194473, 0.05978044494986534, 0.5384246110916138, 0.0004940344952046871, -0.1675320714712143, -0.058669835329055786, -0.4116920530796051, 0.41069936752319336, -0.08003534376621246, 0.07992026209831238, 0.08406084775924683, -0.07072536647319794, -0.12242402881383896, -0.16710171103477478, -0.1950681209564209, -0.3453367054462433, 0.5198132395744324, 0.15072090923786163, 0.1976139098405838, 0.09140454977750778, 0.09025496989488602, -0.06957880407571793, 0.005427410826086998, -0.24991656839847565, 0.08864355832338333, -0.04594330117106438, -0.7743946313858032, -0.23264791071414948, -0.19084997475147247, 0.33583083748817444, 0.01228089164942503, 0.35536354780197144, -0.32236260175704956, 0.5015923380851746, 0.13552230596542358, -0.2275107055902481, 0.4523402452468872, -0.14822299778461456, -0.6379640102386475, -0.14981891214847565, 0.1529093086719513, 0.1858372688293457, -0.06343000382184982, 0.20798897743225098, -0.4827946424484253, -0.0909179225564003, -0.4562535285949707, -0.33290737867355347, 0.036150410771369934, 0.006033628713339567, 0.06967605650424957, -0.5333943367004395, 0.2788580656051636, 0.008841301314532757, -0.01678217202425003], [-0.23912756145000458, -0.22195160388946533, -0.829173743724823, 0.6600105166435242, -0.120880626142025, -0.421409010887146, 0.27683910727500916, -0.17048805952072144, -0.6455162763595581, -0.16131697595119476, -0.36132025718688965, -0.45536333322525024, 0.1033240482211113, -0.03638844937086105, 0.366328626871109, 0.14432181417942047, -0.25473862886428833, -0.331321120262146, 0.30972474813461304, 0.682165265083313, 0.7318882346153259, 0.7652127742767334, -0.0918235331773758, 0.24784095585346222, 0.03753601759672165, -0.03355417773127556, -0.12726697325706482, -0.5795449018478394, -0.28601598739624023, 0.1774398535490036, 0.01414469350129366, -0.08181681483983994, 0.283445805311203, -0.12526492774486542, -0.14694154262542725, 0.22790955007076263, 0.20431029796600342, 0.8329156637191772, 0.02932397648692131, 0.7275791168212891, 0.08767414093017578, 0.34734129905700684, -0.3271416127681732, -0.15479020774364471, 0.2287174016237259, 0.2964497208595276, 0.3655564785003662, 0.06409192830324173, 0.29130372405052185, -0.7211517095565796, 0.1073337122797966, 0.5638387799263, -0.4597400724887848, 0.35682183504104614, -0.04694070294499397, 0.7196193933486938, 0.8126519322395325, 0.12847718596458435, 1.0743404626846313, 0.11925223469734192, -0.3808034062385559, -0.3215613067150116, 0.363400936126709, 0.7675282955169678], [-0.4274689257144928, -0.06741629540920258, -0.30614474415779114, -0.2973617911338806, -0.7495010495185852, -0.21846860647201538, -0.42171230912208557, 0.5391605496406555, 0.08896154910326004, 0.2214283049106598, -0.0734822005033493, -0.02695038728415966, -0.8460119366645813, 0.19545477628707886, -0.36344850063323975, 0.04722273349761963, 0.2675977945327759, 0.1727205067873001, 0.13765949010849, 0.05675097182393074, 0.26896703243255615, 0.30435606837272644, -0.184224933385849, 0.17923812568187714, -0.09309492260217667, 0.6510028839111328, -0.07219306379556656, 0.5566771030426025, -0.23515695333480835, -0.4126656949520111, 0.2915070950984955, 0.06428509205579758, -0.38041961193084717, -0.25366777181625366, 0.11579285562038422, 0.3579946458339691, -0.16129207611083984, 0.6648622751235962, 0.23546460270881653, -0.19759874045848846, 0.2302173227071762, 0.04278803989291191, -0.08743489533662796, -0.13595153391361237, 0.7952528595924377, 0.26418420672416687, 0.8278859853744507, -0.2193417102098465, -0.014368939213454723, -0.22937266528606415, 0.538704514503479, 0.2967015206813812, -0.2918545603752136, 0.16568222641944885, 0.4597901403903961, -0.2918933033943176, 0.0034088734537363052, 0.5782555341720581, 0.34265202283859253, 0.5309494733810425, -0.5375170111656189, -0.13165123760700226, -0.015735585242509842, 0.4060479402542114], [0.0005453286576084793, 0.002482534619048238, 0.1360817551612854, -0.1948547214269638, -0.07304444909095764, 0.059909578412771225, 0.06009620055556297, -0.21328724920749664, -0.23628903925418854, -0.16678516566753387, 0.2202964574098587, -0.31333041191101074, 0.11493590474128723, -0.1813616007566452, 0.2956291735172272, -0.045801207423210144, 0.014998889528214931, -0.0746120736002922, -0.04560096934437752, 0.18972671031951904, 0.12788209319114685, -0.105909064412117, -0.35024380683898926, -0.1780611276626587, 0.2475825548171997, -0.48748359084129333, 0.07194556295871735, -0.04956613853573799, -0.03044714778661728, 0.3146173059940338, -0.2282138466835022, -0.01598675735294819, -0.3020942807197571, -0.4152124226093292, 0.32608890533447266, 0.3637602925300598, -0.007455377373844385, 0.15351048111915588, -0.06193085387349129, -0.05911276489496231, 0.04004443809390068, 0.25984063744544983, 0.2751387655735016, -0.06236547976732254, 0.11777902394533157, -0.3996962308883667, -0.2497159093618393, 0.40933355689048767, -0.2243228405714035, -0.09480971843004227, -0.2030814290046692, -0.09621097147464752, 0.198654904961586, 0.4422394633293152, -0.025465672835707664, -0.15835794806480408, 0.16804496943950653, 0.41444629430770874, 0.04700866714119911, 0.15406306087970734, 0.44186264276504517, -0.06529927998781204, -0.10466549545526505, -0.5118617415428162], [-0.4791927635669708, -0.5234509110450745, -0.08096734434366226, 0.36784571409225464, 0.2285480946302414, -0.8402458429336548, 0.3504221737384796, -0.44150015711784363, -0.4348188638687134, -0.19011838734149933, -0.5707867741584778, 0.08228372782468796, -0.25681814551353455, 0.9093605279922485, 0.13713522255420685, 0.3468805253505707, -0.41973793506622314, -0.03856388106942177, 0.47858208417892456, 0.33893924951553345, 0.33182451128959656, 0.3500154912471771, -0.06675847619771957, 0.34541359543800354, 0.04392288252711296, 0.052823007106781006, -0.38767626881599426, -0.7753537893295288, -0.5169306993484497, -0.29369789361953735, -0.8709554076194763, -0.1931941658258438, -0.012668697163462639, -0.5071535110473633, 0.2674981653690338, -0.17728033661842346, -0.05664960667490959, 0.2433711588382721, -0.6095581650733948, 0.3748874068260193, -0.1952631026506424, 0.6560611128807068, -0.1604018658399582, -0.3863047957420349, 1.1774955987930298, 0.12188997119665146, 0.3157338798046112, 0.3649615943431854, -0.30932506918907166, -0.379184752702713, 0.34720578789711, 0.40365883708000183, -0.7598907351493835, -0.19614970684051514, -0.6114857792854309, 0.344998300075531, 0.2677880823612213, 0.48894792795181274, 0.4147486388683319, 0.49418994784355164, -0.5139074325561523, 0.2928313612937927, 1.4329333305358887, 0.3842006027698517], [-0.6132228970527649, 0.34780222177505493, -0.650846004486084, -0.0931890532374382, 0.15693335235118866, -0.34257009625434875, -0.3780381977558136, -0.25519809126853943, 0.13784752786159515, -0.09893231093883514, -0.5207281112670898, 0.004507625009864569, 0.07778307050466537, -0.4434947371482849, 0.06715402752161026, 0.9029906988143921, -0.4005759656429291, 0.20551228523254395, -0.2564520835876465, 0.2919238209724426, 0.1728024184703827, 0.030781574547290802, -0.7563584446907043, -0.17819830775260925, -0.2340642660856247, -0.2576598525047302, 0.1583041101694107, 0.1212199330329895, 0.21706004440784454, 0.6359730362892151, -0.21491698920726776, 0.09792868047952652, 0.6143507361412048, -0.6577990651130676, 0.218428373336792, 0.573531448841095, -0.08005845546722412, 0.636142373085022, -0.0009707490680739284, 0.17263776063919067, 0.05437033623456955, -0.08743555098772049, 0.025762565433979034, -0.41102704405784607, -0.3711254596710205, -0.3183709979057312, -0.008443824015557766, -0.30094200372695923, -0.31818345189094543, -0.17746113240718842, -0.6073243021965027, -0.20286108553409576, -0.6202300786972046, 0.1794656366109848, -0.2684263288974762, -0.33772018551826477, 0.34552761912345886, -0.006950413342565298, 0.1919763684272766, 0.12154649943113327, 0.16196218132972717, 0.21062380075454712, 0.23849733173847198, 0.37651681900024414], [0.2454158365726471, 0.6460862159729004, -0.5202134251594543, -0.6982815265655518, 0.3403581976890564, 0.5899009704589844, 1.2947874069213867, 0.7933666706085205, -0.7241382598876953, -0.425022691488266, 1.0154324769973755, 0.3557626008987427, 0.9538180828094482, 0.010433699935674667, 1.2312812805175781, -0.5910567045211792, 0.33011823892593384, 0.3291098177433014, -0.5212560892105103, 0.10369414836168289, -0.10135780274868011, -0.627265989780426, -0.4840162992477417, -1.036515235900879, -0.5405520796775818, -0.16616421937942505, -0.2878652811050415, 0.6872901916503906, 0.4540844261646271, 1.9742008447647095, 0.4328003227710724, 0.3293915390968323, 0.14465001225471497, -0.5175559520721436, 0.17304754257202148, 0.274424284696579, 0.3202931582927704, 0.901131808757782, -1.3263132572174072, -0.9099228978157043, -1.68412446975708, 0.13506272435188293, 0.12768763303756714, -0.845225989818573, -0.9942091703414917, -1.263830304145813, 0.14947009086608887, 0.4177986681461334, -0.4921956956386566, -0.2551036775112152, -1.5876562595367432, -0.8122850060462952, 1.4392141103744507, -0.053608331829309464, 0.014486309140920639, -1.5594935417175293, 0.35875204205513, 0.22006821632385254, -0.6629923582077026, 0.6236092448234558, -0.3938356041908264, 0.24729590117931366, -0.8579297065734863, 0.5792583227157593], [0.3524113893508911, -0.31178054213523865, -0.5903910994529724, 0.046982359141111374, 0.02559228055179119, -0.28498685359954834, -0.3112611174583435, 0.2958541512489319, 0.01693294197320938, 0.06116872653365135, -0.580228865146637, -0.11059838533401489, 0.42774564027786255, 0.33741623163223267, 0.7087888717651367, -0.26336339116096497, 0.13586115837097168, -0.04610677808523178, 0.30377718806266785, -0.28832194209098816, -0.35794320702552795, -0.28605425357818604, -0.04152607545256615, -0.6825469732284546, -0.35341182351112366, -0.5853273272514343, 0.11387012898921967, -0.16724708676338196, -0.14883072674274445, -0.01707843877375126, 0.014347751624882221, 0.2523942291736603, 0.055268943309783936, 0.15911588072776794, 0.19257423281669617, 0.08556896448135376, 0.3212565779685974, 0.10362377762794495, -0.02859398163855076, 0.07873517274856567, -0.3358196020126343, -0.5541679263114929, 0.43946579098701477, 0.030072595924139023, -0.003080458613112569, -0.4505881369113922, -0.4146568179130554, 0.19891974329948425, -0.14713004231452942, -0.07250330597162247, -0.08001431077718735, -0.29676491022109985, 0.25457867980003357, 0.3161003291606903, -0.47257792949676514, -0.5755221843719482, -0.3475232422351837, 0.19568654894828796, 0.03175871819257736, 0.33038145303726196, -0.12866723537445068, -0.13601867854595184, 0.006638082209974527, -0.6293536424636841], [-0.18819887936115265, 0.4792636036872864, 0.3000115752220154, 0.11536889523267746, 0.4283403754234314, 0.2739655673503876, -0.4284839928150177, 0.5509482622146606, -0.213435098528862, 0.6360639929771423, 0.6951034069061279, 0.1036217212677002, 0.1802179515361786, 0.14797860383987427, 0.41955670714378357, -0.36648228764533997, 0.0005963069852441549, 0.5077521800994873, -0.3194296956062317, -0.1815965324640274, 0.24303001165390015, -0.2190132588148117, -0.4310811460018158, -0.3261658847332001, -0.9826991558074951, -0.5616450309753418, -0.38928720355033875, 0.0907418504357338, 0.36315566301345825, -0.9656885266304016, -0.39729976654052734, 0.22686176002025604, 0.6141304969787598, 0.45307624340057373, 0.16231392323970795, -0.4222753942012787, -0.24765433371067047, -0.0375765822827816, 0.18814730644226074, 0.5208821296691895, 0.16011680662631989, -0.1447470486164093, 0.12733502686023712, 0.32594922184944153, 0.07011336088180542, -0.042795147746801376, -0.19994309544563293, -0.2566271126270294, 0.20230801403522491, -0.16886498034000397, 0.18316437304019928, -0.2526692748069763, 0.43629273772239685, 0.004393605515360832, -0.5762221813201904, 0.028933007270097733, 0.01143735647201538, -0.38872021436691284, 0.2109711468219757, -1.0319172143936157, -0.7168001532554626, 0.18527859449386597, -0.11183438450098038, -0.036208152770996094], [-0.2102554589509964, 0.2665007412433624, 0.46509042382240295, 0.36409664154052734, -0.25548022985458374, 0.14031042158603668, -0.5726955533027649, -0.4248923063278198, 0.18703924119472504, 0.39867421984672546, -0.04383378103375435, -0.24086491763591766, -0.33705276250839233, 0.31442007422447205, -0.06360848248004913, -0.552445113658905, -0.10772644728422165, 0.5050910115242004, -0.28987056016921997, -0.29247817397117615, 0.035296447575092316, 0.16130833327770233, -0.29713693261146545, 0.08723816275596619, 0.02052992582321167, -0.08865529298782349, -0.6813603639602661, 0.30217665433883667, 0.35486653447151184, -1.1425790786743164, 0.25468578934669495, 0.3676193058490753, 0.2757159471511841, 0.38363510370254517, -0.27712583541870117, -1.3795671463012695, -0.12123952805995941, 0.5956340432167053, -0.06759051233530045, 0.04360947757959366, 0.0998266413807869, -0.05246226489543915, -0.5016728043556213, 0.5002455711364746, 0.45720651745796204, 0.6594105958938599, 0.05211479961872101, -0.35056445002555847, 0.18095681071281433, -0.20969964563846588, 0.4105157256126404, 0.00692890165373683, 0.23126520216464996, 0.3897416293621063, -0.08422626554965973, -0.520646870136261, 0.05965298041701317, 0.2713531255722046, 0.28597205877304077, -0.08419939875602722, -0.660646915435791, 0.400025874376297, -0.8454199433326721, -0.45875048637390137], [0.09970882534980774, -0.1115725189447403, -0.6750270128250122, 0.6316573023796082, 0.026092123240232468, -0.08629289269447327, 0.15725697576999664, 0.029348289594054222, -0.11227448284626007, -0.16310416162014008, -0.3847629427909851, 0.34727850556373596, 0.31704801321029663, 0.47252020239830017, 0.26560115814208984, -0.37984248995780945, 0.9288337230682373, -0.3803030848503113, 0.4670972228050232, 0.05089639872312546, 0.35801225900650024, 0.16057389974594116, 0.4017975926399231, 0.030863137915730476, -0.5751962661743164, 0.2884153127670288, 0.44151392579078674, -0.11276666820049286, -0.1748497039079666, -0.16920870542526245, -0.3184639513492584, -0.851224958896637, -0.5959909558296204, 0.09893180429935455, -0.2147243618965149, -0.7318342328071594, -0.1951977014541626, -0.12216007709503174, 0.008083184249699116, 0.6831536293029785, -0.5810904502868652, -0.0692938044667244, 0.7640888094902039, 0.370704710483551, 1.7281813621520996, 1.317639946937561, 0.20448631048202515, 0.5649406909942627, 0.08114300668239594, -0.40546444058418274, 0.10919199883937836, -0.023589376360177994, 0.059970270842313766, -0.18357795476913452, 0.474756121635437, -0.6726157069206238, 0.14550647139549255, -0.012356771156191826, 0.2900221347808838, 0.1895027607679367, 0.22564218938350677, -0.3644942045211792, 0.4550846219062805, 0.05836297571659088], [1.1085689067840576, 0.09568621963262558, -0.6038771867752075, 0.07863123714923859, -0.677294909954071, 0.0071970997378230095, -0.14719563722610474, -0.13543175160884857, -0.3388121426105499, -0.1109054684638977, -0.20811796188354492, 0.40868958830833435, 0.20040588080883026, 0.7486921548843384, 0.2977498471736908, 0.10978002101182938, -0.9498921036720276, -0.31736817955970764, 0.22247175872325897, 0.2899008095264435, -0.0607064925134182, 0.05816711112856865, 0.5607284903526306, -0.028435584157705307, -0.3351261615753174, -0.01063537783920765, 0.4484533965587616, 0.01852167397737503, -0.07731718569993973, 0.38589051365852356, 0.19771604239940643, 0.047304727137088776, -0.7048713564872742, -0.055910561233758926, 0.23990558087825775, 0.14008565247058868, -0.20211423933506012, 0.2586648762226105, -0.8273033499717712, 0.36621975898742676, -0.03150598332285881, -0.16189782321453094, 0.13260634243488312, -0.48172834515571594, -0.2826232612133026, 0.049278374761343, -0.2605995833873749, 1.5813000202178955, 0.15848027169704437, 0.0892426148056984, 0.27172157168388367, 0.1758621335029602, -0.09094753861427307, 0.3009083867073059, -0.22318145632743835, -0.012468880042433739, -0.0408979170024395, -0.7771124839782715, 0.020961228758096695, -0.22003710269927979, 1.1872715950012207, -0.19394464790821075, 0.5990913510322571, 0.38219770789146423], [0.08142809569835663, 0.07592131197452545, -1.0334244966506958, 0.5336422920227051, 0.5703691840171814, -0.2787115275859833, 0.5666846036911011, -0.608844518661499, -0.4237399101257324, 0.12327650934457779, 0.04752795398235321, 0.01528270822018385, 0.6523196697235107, -0.6623898148536682, 0.2890583276748657, -0.3263705372810364, -0.025887303054332733, 0.15085017681121826, 0.2921740710735321, -0.0010950180003419518, 0.1513451337814331, 0.16322317719459534, 0.7550240755081177, 0.17739985883235931, -0.5068417191505432, -0.12553128600120544, -0.660112738609314, 0.0773855522274971, 0.0697212964296341, -0.2660152316093445, 0.66937255859375, -0.3642541170120239, 0.9362116456031799, -0.20953084528446198, 0.07212845981121063, -0.6445693373680115, -0.13760577142238617, -0.2633891701698303, -0.9637514352798462, 0.9864622354507446, -0.37385907769203186, -0.6137456297874451, 0.0882035568356514, 0.8886823058128357, 0.5224633812904358, -0.241664856672287, 0.18567493557929993, -0.33105847239494324, 0.29547247290611267, -0.44231662154197693, 0.14547660946846008, 0.17343422770500183, 0.0273056048899889, 0.5125115513801575, 0.19652986526489258, 0.2412462830543518, 0.3689267039299011, -0.555994987487793, 0.27702152729034424, -0.1313171535730362, -2.6996705532073975, 0.3045009970664978, 0.18803076446056366, -0.514428436756134], [-0.1441979706287384, -0.0010694001102820039, -0.6072543859481812, -0.19548597931861877, 0.05225463584065437, -0.3015052378177643, 0.3248614966869354, 0.07526446878910065, -0.28033798933029175, -0.645471453666687, -0.5792264342308044, 0.4408988058567047, -0.6587850451469421, 0.3250635266304016, -0.012732292525470257, -0.0092146722599864, -0.3261701464653015, -0.30367982387542725, 0.13694053888320923, 0.3883267939090729, 0.2679630517959595, 0.6435924768447876, -0.5767022967338562, 0.1726655662059784, 0.3258437514305115, 0.4505173861980438, -0.3475154638290405, 0.18338580429553986, -0.13202792406082153, 0.4584806263446808, -0.4116448760032654, 0.0834675207734108, -0.3630906343460083, -0.5908844470977783, -0.24007435142993927, 0.11746590584516525, 0.062315016984939575, 0.05298340693116188, -0.40142008662223816, -0.02420973777770996, 0.17062295973300934, 0.2443346083164215, -0.05274176225066185, -0.08834275603294373, 0.06456582993268967, 0.31366848945617676, 0.3363836407661438, -0.37199798226356506, 0.14627225697040558, -0.23533478379249573, 0.4873625636100769, 0.5773932337760925, -0.7257906198501587, 0.43602409958839417, 0.1227472722530365, 0.08731869608163834, 0.6850337386131287, 0.3513602614402771, 0.16014054417610168, 0.37128549814224243, -0.5345866084098816, -0.17568445205688477, 0.4615432918071747, 0.17183084785938263], [-0.846174955368042, 0.205552875995636, -0.037537720054388046, -0.577028214931488, -0.19285814464092255, -0.23225121200084686, 0.9223071932792664, 1.829337477684021, -0.2051769644021988, 0.2525419294834137, -0.08354736119508743, 0.4263170063495636, -0.8940303921699524, 0.11046269536018372, 0.013337240554392338, 0.3927482068538666, -0.52609783411026, -0.227426677942276, 0.01844390295445919, 0.0314188152551651, -0.19516398012638092, 0.15336671471595764, -1.2138164043426514, -0.01766461879014969, 0.1777900606393814, 0.30132266879081726, 0.31615397334098816, -0.42451778054237366, 0.16821889579296112, 0.17822697758674622, -0.32814905047416687, -0.14846472442150116, 0.2623056173324585, -0.4923272728919983, 0.15910659730434418, -0.46665939688682556, 0.11077141761779785, 0.12352331727743149, 0.34990838170051575, -0.5841387510299683, 0.30795320868492126, 0.5913046002388, -0.10673613101243973, -1.0477408170700073, -0.9568395614624023, 0.18183660507202148, 0.14573918282985687, -0.19321641325950623, -0.05398505553603172, -0.0016591253224760294, 1.0927987098693848, 0.175181582570076, -0.006401999853551388, 1.0425894260406494, -0.19341275095939636, -0.30243033170700073, 0.402103066444397, 0.20332756638526917, -0.11028484255075455, -0.040327295660972595, -0.7283161878585815, -0.2435699999332428, 0.7268741130828857, 0.3143858015537262], [0.12154144048690796, 0.3686513602733612, -0.5724315047264099, -0.20387481153011322, 0.21419845521450043, 0.1711897850036621, 0.3818191885948181, -0.6810547113418579, -0.41948240995407104, -0.2397535741329193, 0.10465539991855621, 0.11302944272756577, -0.20004121959209442, -0.20865783095359802, 0.3245873749256134, 0.026534274220466614, -0.40487000346183777, 0.37192201614379883, -0.1300698220729828, 0.45516014099121094, 0.32655537128448486, 0.2699942886829376, -0.6292533874511719, -0.09904602915048599, 0.19747553765773773, -0.30742794275283813, -0.4570232331752777, -0.12731021642684937, -0.04437177628278732, 0.23389331996440887, 0.2892971634864807, 0.27364206314086914, -0.02717670612037182, -0.6731660962104797, -0.14354208111763, -0.0035396709572523832, 0.2994711399078369, 0.15284453332424164, -0.2894679605960846, -0.1807374805212021, 0.05437711998820305, 0.43640756607055664, -0.2819289565086365, -0.16028089821338654, 0.5033503770828247, -0.27424356341362, 0.33734330534935, 0.42745888233184814, -0.03766721859574318, -0.5071484446525574, -1.4034545421600342, -0.014141291379928589, 0.13072600960731506, 0.8148694634437561, 0.6828294396400452, -0.16559159755706787, 0.6861052513122559, 0.6688538193702698, -0.08215771615505219, 0.48293644189834595, -0.5740736126899719, -0.14317888021469116, -0.15089379251003265, 0.37912675738334656], [-0.2703930139541626, -0.10746194422245026, -0.6720743179321289, 0.25020137429237366, 0.5068550705909729, -0.05629030242562294, -0.24513563513755798, -0.2548358738422394, 0.025877878069877625, 0.24518398940563202, -0.14080823957920074, -0.02921079657971859, -0.22520668804645538, -0.789044201374054, 0.33821338415145874, -0.06991387903690338, -0.4755707383155823, 0.7354381680488586, -0.16523730754852295, 0.12437491863965988, 0.17321158945560455, 0.17374123632907867, 0.08877647668123245, 0.34440720081329346, 0.0341004878282547, -0.1858658343553543, -0.2862388491630554, -0.08396557718515396, 0.382529079914093, -0.22201265394687653, 0.7042021155357361, 0.5184460282325745, 0.6978592276573181, -0.10967352986335754, -0.18803656101226807, -0.24515824019908905, -0.36030614376068115, 0.8619389533996582, -0.10899407416582108, 0.3864559233188629, 0.22571425139904022, -0.2896575629711151, -0.456704318523407, 0.579246461391449, 0.021696794778108597, -0.11830306798219681, 0.1950581669807434, -0.3796361982822418, 0.2772428095340729, -0.1140519380569458, -0.2724701762199402, 0.26244866847991943, -0.08896588534116745, 0.071971595287323, -0.1245587170124054, 0.24249586462974548, 0.15047529339790344, -0.2138647884130478, 0.33488425612449646, -0.02023354545235634, -0.04812499135732651, 0.5150757431983948, 0.06160654127597809, 0.09580376744270325], [-1.3269693851470947, -0.04829433187842369, 0.5643746256828308, -0.038957126438617706, 1.4868119955062866, -0.18284499645233154, 0.19573727250099182, -0.5366438627243042, 0.3013225197792053, 0.8854143619537354, -0.09638197720050812, 0.5596660375595093, 0.4536290466785431, -0.20287668704986572, -0.015207295306026936, 0.6832721829414368, -0.012311048805713654, -0.3616466820240021, -0.22999192774295807, -0.21447186172008514, -0.2468961626291275, -0.11895594745874405, -0.9026810526847839, -0.13443979620933533, -0.27401819825172424, -0.0700358897447586, 0.4779062569141388, -0.8902708888053894, -0.2667182385921478, -0.8523557782173157, -0.35663139820098877, -0.169433131814003, 0.6143457889556885, -0.05030474439263344, -0.44040346145629883, -0.8799729943275452, -0.30440425872802734, 0.40099087357521057, 0.9410737752914429, -0.28429555892944336, 0.5459226369857788, -0.5972859263420105, -0.3841192126274109, -0.4140796661376953, -0.18463300168514252, -0.9358992576599121, -0.6862978339195251, -0.11250985413789749, 0.05091645196080208, 0.42285865545272827, 0.3350231945514679, 0.10811136662960052, -0.42420369386672974, 0.1329125612974167, -1.1503640413284302, 0.6088358759880066, 0.09109807014465332, -0.15608017146587372, 0.07086130976676941, -0.13816942274570465, -1.5276944637298584, 0.10878042876720428, -0.24885879456996918, 0.5637087225914001], [-0.8436376452445984, -0.007837127894163132, -0.4485182762145996, 0.026978081092238426, 0.4084131717681885, -0.7424185276031494, 1.119848370552063, -0.4518348276615143, -0.28204700350761414, -0.06688472628593445, -0.2883172035217285, -0.29709771275520325, -0.48841163516044617, -0.008572118356823921, 0.6585755944252014, 0.26440173387527466, -0.2035997062921524, -0.2944304645061493, -0.3050883412361145, 0.3977409899234772, 0.6659042835235596, 0.5289311408996582, -0.20125693082809448, 0.37091341614723206, 0.10854116827249527, -0.3729398548603058, -0.015345241874456406, -0.8355809450149536, 0.10516966879367828, 0.9746042490005493, 0.31358984112739563, 0.2914997637271881, 0.5173754096031189, -0.2799813747406006, 0.2729417085647583, 1.2720046043395996, 0.8292502164840698, 0.4076899588108063, 0.42741358280181885, 0.48848775029182434, 0.3554457724094391, 0.8728077411651611, -0.39478859305381775, -0.060550954192876816, 0.05397845059633255, -0.46956905722618103, 0.5868257880210876, 0.18906055390834808, 0.29189470410346985, -0.5535107851028442, -0.43588367104530334, 0.4634414315223694, -0.6577907204627991, 0.9618065357208252, -0.885932207107544, 0.25454771518707275, 0.8290840983390808, 0.21771247684955597, 0.5068398118019104, -0.5596000552177429, 0.10888045281171799, -0.4525063633918762, 0.70794278383255, 0.6409989595413208], [-0.1573229283094406, 0.14650893211364746, -0.9134018421173096, -0.2693963050842285, -0.13341592252254486, 0.16349710524082184, 0.35948044061660767, 1.4300283193588257, 0.02220907062292099, -0.32243403792381287, 0.10538771748542786, 0.535729169845581, -0.4375750720500946, 0.7133435606956482, 0.12254717200994492, 0.2196897566318512, -1.256644606590271, -0.010793252848088741, -0.12014596164226532, 0.07315254956483841, 0.014528119005262852, -0.2677990794181824, -0.13219983875751495, -0.3078945279121399, -0.6021040081977844, 0.08179921656847, 0.432475745677948, 0.37424561381340027, 0.3565013110637665, 0.20735527575016022, -0.6010138392448425, -0.1453867405653, -0.2693867087364197, -0.1333560347557068, -0.5049375891685486, -0.4263932406902313, -0.21742573380470276, 0.060119714587926865, 0.3395482897758484, -0.3956357538700104, -0.6030752062797546, 0.20890754461288452, 0.2534533441066742, -0.5744743943214417, -1.054316520690918, 0.03101961687207222, 0.37207403779029846, 0.13883303105831146, -0.3568909168243408, -0.03887910768389702, -0.12525366246700287, -0.5130652189254761, 0.11444015800952911, 0.4699840247631073, -0.19835937023162842, -0.4540334641933441, 0.11764642596244812, 0.06561986356973648, -0.46529048681259155, 0.4215115010738373, -0.20311664044857025, 0.20114831626415253, 0.00037515247822739184, 0.6899480819702148], [0.22474686801433563, -0.2145065814256668, 0.13039512932300568, -0.3562100827693939, -0.2999120354652405, 0.4378305673599243, -0.22735151648521423, 0.294861763715744, 0.37046340107917786, 0.4642925560474396, 0.17137405276298523, 0.17317529022693634, 0.12941062450408936, 1.011194109916687, -0.18337678909301758, -0.3147457540035248, 0.1379721760749817, -0.17240333557128906, 0.35370829701423645, -0.5811295509338379, -0.32859301567077637, -0.3494911193847656, 0.31734248995780945, -0.5216336250305176, -0.49194803833961487, 0.07364443689584732, 0.5200715661048889, -0.07496555149555206, 0.24977535009384155, -0.05070934817194939, -0.06782304495573044, -0.2333679348230362, -0.14189369976520538, 0.2589937448501587, 0.023415857926011086, -0.5428726077079773, -0.40198224782943726, -0.5588240027427673, 0.21852217614650726, -0.5966920256614685, -0.4917556643486023, -0.16289834678173065, 0.6220609545707703, -0.3067823052406311, 0.035036567598581314, -0.07951117306947708, -0.11525246500968933, -0.06808295100927353, -0.3977268636226654, 0.5877794623374939, -0.2517302930355072, -0.220611572265625, 0.5784386992454529, -0.1798313856124878, 0.15469111502170563, -0.5486937761306763, -0.32941609621047974, 0.23778805136680603, -0.32593756914138794, 0.029584800824522972, 0.15643015503883362, -0.04954228177666664, -0.3783257007598877, -0.19521771371364594], [0.787762463092804, -0.06760940700769424, -0.6899561285972595, 0.23451942205429077, -0.31594395637512207, -0.19874456524848938, -0.5622334480285645, -0.4919293224811554, -0.14764690399169922, 0.1885344535112381, -0.38218769431114197, 0.15999050438404083, 0.06450210511684418, 0.4969285726547241, -0.04955866187810898, -0.20401377975940704, 0.040856391191482544, -0.15710248053073883, 0.33639249205589294, -0.08472348004579544, -0.1353456676006317, -0.05402347072958946, 0.40086114406585693, -0.22849974036216736, -0.4410945773124695, 0.044948775321245193, -0.6722750663757324, 0.3017961084842682, -0.02948649227619171, -0.622124195098877, -0.11465926468372345, -0.16136117279529572, -0.539085865020752, 0.17770157754421234, 0.21230165660381317, 0.07024020701646805, 0.0031928664539009333, 0.41226664185523987, 0.20974993705749512, 0.23360708355903625, -0.1810697764158249, -0.011780446395277977, -0.16561658680438995, 0.3900052011013031, 0.9469412565231323, 0.6170641779899597, 0.038094304502010345, -0.6010109186172485, 0.19092944264411926, -0.21600410342216492, -0.11481237411499023, -0.4017338454723358, -0.015922121703624725, -0.4274601936340332, 0.1778772622346878, 0.07532519102096558, -0.13444499671459198, -0.10558441281318665, 0.12130240350961685, 0.19422811269760132, -0.5061578750610352, 0.06520526111125946, -0.4458348751068115, 0.01007896102964878], [0.5402683615684509, 0.02949272282421589, -0.8321962952613831, 0.22700956463813782, 0.5204002857208252, 0.052970293909311295, -0.3873727023601532, -0.2538602948188782, -0.5043803453445435, -0.03718362748622894, -0.38785460591316223, 0.44758954644203186, 0.6303614974021912, 0.17184138298034668, 0.2693385183811188, -0.3858396112918854, -0.19253747165203094, 0.11859839409589767, -0.017749041318893433, 0.02120109833776951, 0.09534071385860443, 0.15890561044216156, 0.283909410238266, -0.15884266793727875, -0.8474991917610168, -0.1318574845790863, -0.2823582887649536, 0.1662357747554779, 0.18516789376735687, 0.10780423134565353, 0.44854414463043213, 0.3424604535102844, 0.3507913649082184, -0.14819875359535217, -0.002014509169384837, 0.11133687943220139, -0.11905024945735931, 0.2556381821632385, -1.2756364345550537, 0.4927094876766205, 0.5673297047615051, -0.2531391978263855, 0.2276666909456253, 0.139068141579628, 0.2016926109790802, 0.2638658583164215, 0.2017279863357544, 0.21338331699371338, 0.15591920912265778, -0.28336095809936523, 0.3418571949005127, 0.12161002308130264, -0.18854668736457825, 0.12312076985836029, 0.2641313076019287, -0.21840472519397736, 0.14027436077594757, -0.4870607256889343, 0.2593369781970978, 0.2534613609313965, -0.6679863929748535, 0.1810309737920761, -0.1689501851797104, 0.15219348669052124], [-1.1809108257293701, 0.23623521625995636, -0.396325021982193, 0.34958258271217346, 1.0783185958862305, -0.41298964619636536, 0.37362435460090637, -0.14917391538619995, -0.14152251183986664, 0.41020289063453674, 0.04626638442277908, 0.1267213672399521, 0.11532726883888245, -0.8654385209083557, 0.5746964812278748, 0.06388097256422043, -0.5433191657066345, -0.07751099020242691, 0.015642642974853516, 0.20665942132472992, 0.0390094630420208, 0.13492229580879211, -0.08299814909696579, -0.09177619218826294, -0.06642886251211166, -0.006971454247832298, 0.1464875191450119, -0.18400849401950836, 0.21411676704883575, -0.14583607017993927, -0.0015737982466816902, 0.24579522013664246, 1.6242209672927856, -0.2832402288913727, 0.2893235981464386, -0.061247318983078, -0.14023271203041077, 0.17103397846221924, -0.3905535638332367, 0.43589329719543457, 0.3055039644241333, -0.4017530381679535, 0.06855009496212006, 0.5982735753059387, -0.101430244743824, -0.2905498147010803, 0.5002743601799011, 0.07805150747299194, 0.7219852209091187, -0.2585975229740143, 0.6981533765792847, 0.1438419073820114, -0.24050916731357574, 1.3964965343475342, -0.5832914710044861, 0.4824104905128479, 0.17583121359348297, -0.2663884162902832, 0.3826679289340973, 0.40192073583602905, -1.0265896320343018, 0.26748526096343994, -0.24779562652111053, -0.11318172514438629], [-0.2364744395017624, -0.21853025257587433, -0.8675606846809387, 0.11006071418523788, 0.4949340224266052, -0.1991434246301651, -0.43054601550102234, -0.39205196499824524, -0.32697248458862305, 0.17953838407993317, -0.33101144433021545, 0.05391768366098404, -0.11083262413740158, -0.35219624638557434, 0.42667829990386963, 0.4103540778160095, -0.07825643569231033, 0.31252214312553406, -0.008373532444238663, -0.018416348844766617, 0.3304572105407715, 0.15156355500221252, -0.2523237466812134, -0.10091324150562286, -0.23897534608840942, -0.39676398038864136, -0.5401925444602966, -0.34263378381729126, -0.34209513664245605, -0.09425637871026993, 0.6762365698814392, -0.03055008500814438, 0.27204063534736633, -0.25314241647720337, 0.3283507823944092, -0.24250592291355133, 0.2180386781692505, 1.151953935623169, 0.013843733817338943, 0.29473283886909485, 0.6532424688339233, 0.1985209435224533, 0.5233141779899597, 0.05396973341703415, 0.07896532118320465, -0.19986416399478912, 0.10781204700469971, 0.3936854600906372, -0.2331969290971756, -0.2100793570280075, 0.08560054004192352, 0.13880442082881927, -0.13402216136455536, 0.8213185667991638, -0.15956854820251465, -0.5266562700271606, 0.1584172546863556, 0.25006407499313354, 0.06307850778102875, 0.25992217659950256, -0.030913714319467545, 0.4096810221672058, 0.4731486737728119, 0.18812598288059235], [-0.8502056002616882, -1.5981571674346924, -0.5894330739974976, -0.5964728593826294, -0.1999090015888214, -0.6182505488395691, 0.9229468107223511, -0.15003332495689392, -0.24249395728111267, -0.5317395329475403, -0.11255571246147156, -0.3129620850086212, 0.3388758897781372, -0.03365137428045273, -0.10538984090089798, 0.7740181088447571, 0.6359748244285583, -1.163974642753601, 1.4946571588516235, -0.5357963442802429, 0.43683183193206787, 0.35562795400619507, 0.07492392510175705, -0.6046999096870422, 0.9374542236328125, 1.0264283418655396, 0.4650929868221283, -0.8041057586669922, -1.5641307830810547, 0.11993721127510071, -0.9811603426933289, -1.7862064838409424, 0.24049842357635498, 0.03378019854426384, 1.121396780014038, 0.9930707812309265, 0.7807362079620361, -1.2097753286361694, 0.771068274974823, -0.3230944871902466, -2.0243377685546875, 0.06975238770246506, 1.4596918821334839, -0.0590963289141655, -0.12553715705871582, -0.06002923846244812, 0.495464026927948, -0.2503924071788788, -0.8235762715339661, -0.635432243347168, -0.5876288414001465, -0.1381698101758957, 0.011733944527804852, -0.10688601434230804, 0.3303784132003784, -0.5564080476760864, 0.8203814029693604, -0.06085250899195671, -0.1718839854001999, 1.7066854238510132, -0.3399331867694855, -1.659522294998169, 0.7347816824913025, 0.3990587294101715], [-0.07471881806850433, -0.4540584683418274, 0.46391090750694275, 0.12963683903217316, 0.5177397727966309, -0.35591357946395874, -0.5284213423728943, -0.5999374389648438, -0.3000034987926483, -0.20132862031459808, 0.06743751466274261, 0.12648606300354004, -0.122250035405159, 0.20611032843589783, 0.17405158281326294, -0.2142588347196579, 1.1601003408432007, 0.4483602046966553, 0.11393818259239197, -0.03148738667368889, 0.15430234372615814, -0.06964560598134995, -0.15681815147399902, -0.057418424636125565, 0.17973347008228302, -0.42077088356018066, -0.34645193815231323, -0.2706831991672516, -0.19026218354701996, -1.021174430847168, 0.2748534083366394, 0.0251277144998312, -0.24251332879066467, 0.040659334510564804, 0.8776074051856995, 0.1620827168226242, 0.27601358294487, -0.027063850313425064, -0.42589235305786133, 0.06103605777025223, 0.4015921354293823, 0.2621608376502991, -0.2125854790210724, 0.11621110886335373, 1.0825624465942383, 0.3640461564064026, -0.08718588203191757, 0.4156632721424103, -0.2094823569059372, -0.17792095243930817, 0.3322186768054962, 0.06149125471711159, 0.23798170685768127, -0.6055338978767395, -0.6719882488250732, -0.21969127655029297, 0.13299070298671722, -0.11535097658634186, 0.31638142466545105, 0.24254652857780457, -0.12264954298734665, 0.18111039698123932, -0.10864408314228058, -0.17813827097415924], [-0.5790551900863647, 0.07479390501976013, 0.2054079920053482, 0.20708508789539337, 0.007364442106336355, -0.3132364749908447, -0.1426672637462616, -0.7733831405639648, -0.36174270510673523, -0.38070496916770935, -0.23300504684448242, 0.2167799323797226, -0.6664824485778809, 0.7131339907646179, 0.05769718065857887, 0.056154947727918625, -0.9113094806671143, 0.017358429729938507, -0.16460421681404114, 0.2874150276184082, 0.0267882589250803, -0.003223487874493003, -1.2148889303207397, -0.04623030871152878, 0.31018468737602234, 0.13963228464126587, -0.7641273140907288, 0.06733950972557068, -0.11191033571958542, 0.21574480831623077, 0.375260591506958, 0.19125235080718994, 0.2631871700286865, -0.17021514475345612, 0.27723759412765503, 0.1095031127333641, 0.1482953280210495, 0.46097537875175476, -0.08715728670358658, 0.15617582201957703, 0.24166342616081238, 0.38433805108070374, -0.35182997584342957, 0.12290939688682556, 0.37327349185943604, -0.05013725906610489, 0.3434060215950012, 0.052250269800424576, 0.13180729746818542, -0.034408651292324066, -0.1516871452331543, 0.08497227728366852, -0.17315712571144104, 0.29163384437561035, 0.14314399659633636, -0.19195716083049774, -0.060905903577804565, 0.9797657132148743, 0.12568238377571106, 0.10100414603948593, 0.08061464875936508, 0.08381795883178711, 0.235173761844635, 0.07114695012569427], [-0.5365703105926514, -1.4389468431472778, 0.0505848228931427, -0.37604057788848877, 0.361726313829422, -1.0891854763031006, 0.7693712711334229, -0.3658016324043274, -0.5528571605682373, -0.13512006402015686, -0.505327045917511, -0.6550968289375305, -0.11167903244495392, -0.15764224529266357, 0.9441339373588562, 0.5760648846626282, 0.48655179142951965, -1.2107943296432495, 2.350393533706665, -0.3366323709487915, 0.33316147327423096, -0.07401005923748016, -0.17532140016555786, -0.4785744547843933, 0.43190598487854004, 0.2443498969078064, 0.631380558013916, -1.2421714067459106, -1.3118706941604614, 0.5772556662559509, -1.2384306192398071, -1.9082016944885254, 0.04081125929951668, -0.08685219287872314, 0.781004786491394, 0.5615515112876892, 0.7781484723091125, -1.1625558137893677, 0.06473751366138458, -0.32876428961753845, -2.5095906257629395, 0.5961856245994568, 1.210308313369751, -0.29092442989349365, 0.25657492876052856, -0.18524169921875, 0.33749279379844666, -1.5511096715927124, -0.7598416209220886, -0.23939643800258636, -0.34027761220932007, -0.0724947527050972, 0.34332773089408875, 0.5246995687484741, 0.02873855084180832, -0.41801875829696655, 0.13624043762683868, 0.785059928894043, -0.06284315884113312, 0.8796064257621765, 0.32082054018974304, -1.6823540925979614, -0.3602921664714813, -0.24668513238430023], [-0.9398167133331299, -0.636269211769104, 0.7378318905830383, -0.05517515912652016, -0.0009123028139583766, 0.12120595574378967, 0.5900023579597473, -0.4712303578853607, 0.14843489229679108, 0.6279270648956299, 0.4600936770439148, 0.07687170803546906, -0.5832221508026123, -0.542741060256958, 0.3331608474254608, 0.09626749157905579, 0.2129855901002884, 0.26846885681152344, -0.522285521030426, -0.1662675440311432, 0.07649076730012894, -0.1649729460477829, 0.22799642384052277, -0.4225276708602905, -0.31274595856666565, -0.16641254723072052, -0.2838168442249298, -0.3817603290081024, 0.001541287754662335, 0.3599678575992584, 0.4917410910129547, -0.13577616214752197, 0.7062788009643555, 0.03615814074873924, 0.19532379508018494, -0.3431444466114044, 0.08889112621545792, 0.5869570374488831, -0.029031110927462578, -0.25623783469200134, 0.38072922825813293, 0.1159542053937912, -0.4019717276096344, -0.04735110327601433, -0.43570539355278015, -0.5465554594993591, 0.2562018930912018, -0.06408456712961197, 0.3980366289615631, -0.01920689456164837, -0.04913245141506195, 0.09510298818349838, -0.0014378279447555542, 0.7675929069519043, -0.1918531209230423, 0.0774785727262497, -0.1549205482006073, 0.13748861849308014, 0.36608415842056274, 0.1693478226661682, -1.392886757850647, 0.16409434378147125, 0.5732618570327759, 0.1440252959728241], [-0.30677518248558044, -0.3532826900482178, -0.16871009767055511, 0.025285745039582253, 0.039804115891456604, -0.2168634682893753, -0.3538413941860199, -0.2384748011827469, -0.3112487196922302, 0.19794198870658875, -0.08745567500591278, 0.1653524488210678, 0.2743785083293915, -0.2974591851234436, 0.050975196063518524, -0.063040591776371, 0.05942588672041893, 0.26983073353767395, -0.023120339959859848, -0.06081604212522507, 0.2577323913574219, 0.26296958327293396, 0.010340582579374313, -0.19480541348457336, 0.05490327998995781, 0.11485350131988525, 0.0560460202395916, -0.09952230751514435, -0.13737711310386658, 0.49656179547309875, 0.9032382965087891, 0.07284197211265564, 0.742311954498291, 0.021804045885801315, 0.5602454543113708, -0.16690023243427277, 0.5679221749305725, -0.10339689999818802, -0.33114781975746155, 0.265880823135376, -0.0730537697672844, 0.12541557848453522, 0.37650683522224426, -0.05191001296043396, 0.804257333278656, 0.2564517557621002, 0.11157108098268509, -0.6850160956382751, -0.11873118579387665, -0.058737508952617645, -0.165262833237648, 0.13930779695510864, -0.11610045284032822, -0.03144770488142967, 0.032803021371364594, -0.21101009845733643, -0.032695651054382324, -0.07418420910835266, 0.1299898624420166, -0.12378734350204468, 0.5279895067214966, -0.3186497986316681, 0.337207168340683, 0.005862454418092966], [-0.19345201551914215, -0.057522617280483246, 0.6662223935127258, -0.16002030670642853, -0.2589310109615326, 0.025799818336963654, -0.12082327157258987, -0.5012273192405701, -0.12322860956192017, -0.3198128640651703, 0.1517535150051117, 0.32021471858024597, -0.36905860900878906, 0.2577497661113739, 0.042283520102500916, -0.04152486473321915, -0.4244166910648346, -0.20014521479606628, -0.14427396655082703, -0.19063353538513184, -0.18237242102622986, -0.0982065349817276, -0.44696325063705444, -0.2562498450279236, -0.0686701089143753, -0.12597110867500305, -0.09368252009153366, 0.4838539958000183, -0.08064564317464828, 0.2513517141342163, 0.18388666212558746, -0.016488326713442802, -0.5417687892913818, 0.1701861172914505, 0.1682789921760559, -0.5801794528961182, -0.2988000512123108, 0.18036727607250214, -0.31414133310317993, -0.36092838644981384, 0.04575469717383385, -0.3495117425918579, -0.044197577983140945, -0.05968533083796501, 0.02540767751634121, -0.6110371351242065, -0.35841214656829834, 0.40027692914009094, -0.2514142692089081, 0.1808585375547409, 0.05432821437716484, -0.1413426548242569, 0.4455203413963318, 0.1476908028125763, -0.2887324392795563, -0.30094704031944275, -0.15895691514015198, 0.31234657764434814, -0.0722973495721817, 0.11223069578409195, 0.8609844446182251, -0.2823124825954437, 0.03367161750793457, -0.4846349060535431], [-0.17469069361686707, -0.10881154239177704, 0.08094394207000732, 0.008349509909749031, -0.430271178483963, 0.20546568930149078, 0.22587044537067413, 0.2687547504901886, -0.06979387998580933, 0.0053580161184072495, -0.01634417660534382, 0.34354367852211, -0.14041635394096375, 0.5851489305496216, -0.03452211990952492, 0.4292532801628113, -0.18618440628051758, -0.6331350803375244, -0.08752057701349258, 0.0875849723815918, -0.042037948966026306, -0.13671332597732544, -0.198970228433609, -0.3702000677585602, -0.21851804852485657, 0.17154543101787567, 0.1430889368057251, -0.23670755326747894, -0.22269389033317566, 0.1828782707452774, -0.29301750659942627, -0.049466077238321304, 0.1715080738067627, 0.14566762745380402, 0.1066252812743187, -0.4094676673412323, 0.1346442997455597, 0.3787335753440857, -0.1604812890291214, -0.031206166371703148, -0.015092686749994755, 0.3652927577495575, -0.008743120357394218, -0.5003297328948975, 0.5251291990280151, 0.08673825860023499, -0.12744782865047455, -0.03523360937833786, 0.2495519518852234, -0.09303408116102219, -0.011686272919178009, 0.15281614661216736, -0.32412734627723694, -0.2698909640312195, -0.25808924436569214, 0.4510267972946167, 0.10248279571533203, 0.12020743638277054, 0.06140837073326111, -0.1907626986503601, -0.3930167257785797, -0.16198362410068512, 0.34650009870529175, 0.6678637266159058], [-0.09821103513240814, -0.34395748376846313, -0.008519093506038189, -0.4159410297870636, -0.7471023797988892, -0.23632021248340607, 0.31695330142974854, 0.12763650715351105, 0.10230503231287003, 0.03085455670952797, 0.11022783815860748, -0.07579847425222397, 0.22754332423210144, -0.6415335536003113, 0.1840454339981079, 0.5871687531471252, -0.106206014752388, -0.6966632008552551, 0.39288032054901123, -0.27835071086883545, -0.15326249599456787, -0.35283899307250977, -0.4072651267051697, -0.290742963552475, 0.3046846091747284, -0.1015850305557251, 0.509297788143158, -0.8732893466949463, -0.25538551807403564, -0.05706765130162239, -0.7403289675712585, -0.6531012058258057, 0.5482230186462402, -0.037628233432769775, -0.028053143993020058, 0.26864245533943176, 0.4684869945049286, -0.7964937090873718, -0.10479779541492462, -0.4149111211299896, -0.277965784072876, 0.5322256088256836, -0.4472203254699707, -0.9857174754142761, -0.2800942063331604, -0.4427731931209564, -0.4116097688674927, -0.24001358449459076, -0.27567362785339355, 0.17477616667747498, 0.06640132516622543, -0.03371492400765419, 0.11630797386169434, -0.10191866010427475, -0.3784197270870209, 1.3395389318466187, 0.1307668387889862, 0.04667924344539642, -0.07073179632425308, -0.08783525228500366, -0.23943732678890228, -0.6739227175712585, 0.8835521340370178, 0.38410186767578125], [0.11382319778203964, 0.0691886767745018, 0.09754862636327744, 0.07995805889368057, -0.2412380427122116, -0.002868105424568057, 0.011344962753355503, -0.3014488220214844, -0.01860031671822071, 0.01417867373675108, 0.26672476530075073, 0.1389693319797516, 0.07065664231777191, 0.6059346199035645, 0.25076839327812195, 0.22731010615825653, -0.057151082903146744, -0.32972452044487, -0.3421778678894043, 0.18716871738433838, 0.30275675654411316, 0.03372618556022644, -0.33050215244293213, -0.06532803177833557, 0.3205661177635193, -0.3208504319190979, 0.06385423243045807, 0.05527185648679733, -0.23607201874256134, 0.10509566962718964, 0.008653820492327213, -0.2945420444011688, -0.1610947698354721, -0.2720494568347931, 0.017029963433742523, 0.17949312925338745, 0.17302846908569336, -0.2691560983657837, 0.39608603715896606, 0.07711375504732132, 0.1018327847123146, -0.05584180727601051, 0.1782255321741104, -0.07855905592441559, 0.2693319022655487, 0.07909250259399414, 0.030778460204601288, -0.34260812401771545, -0.28849539160728455, -0.165628582239151, -0.39455533027648926, 0.05551251769065857, -0.10770327597856522, -0.012930972501635551, -0.1580716222524643, 0.1838691234588623, 0.04282044619321823, 0.2976512014865875, 0.17267392575740814, 0.022093478590250015, -0.08792996406555176, -0.0935942605137825, 0.25221824645996094, -0.20513223111629486], [0.6015943884849548, -0.05010708048939705, 0.8921148180961609, -0.26190420985221863, 0.15095481276512146, 0.2718421518802643, -0.51848304271698, 1.0053868293762207, 0.7141578793525696, 0.39522749185562134, 0.9468936324119568, 0.0870770514011383, 0.33785805106163025, 0.16299614310264587, 0.5932511687278748, -0.45704442262649536, 0.19034379720687866, 0.2521685063838959, -0.18681830167770386, -0.3050633370876312, -0.3434664011001587, -0.27958768606185913, 0.6524859070777893, -0.5322407484054565, 0.2800976634025574, -0.48477834463119507, -0.5389536619186401, -0.032111745327711105, 0.452175498008728, 1.4348918199539185, -0.0064494069665670395, 0.5246535539627075, -0.6529017090797424, 0.4221121072769165, 0.026287192478775978, 1.1428334712982178, 0.12871116399765015, 0.7589994668960571, 0.46214279532432556, -0.40824639797210693, 1.167711853981018, 0.18649405241012573, -0.7826999425888062, 0.1364372819662094, -0.6894224286079407, -0.6301935911178589, -0.6274815201759338, 1.0073508024215698, 0.20911990106105804, 0.23008714616298676, 0.35912832617759705, -0.28151988983154297, 0.1828848272562027, -0.8361990451812744, -0.8354220390319824, 0.2668832242488861, -0.15350863337516785, -1.147581934928894, 0.10354986041784286, -0.3249914050102234, 0.6795438528060913, 0.5298828482627869, 1.19242525100708, 0.15364167094230652], [-0.10764124244451523, -0.2756313681602478, -0.2123478502035141, 0.13666102290153503, -0.30282583832740784, -0.15362639725208282, 0.2533656060695648, -0.5325610041618347, -0.18974362313747406, 0.14126946032047272, -0.0843544602394104, 0.13432642817497253, 0.2535732090473175, 0.4211425185203552, 0.35258564352989197, -0.1744539886713028, -0.1509174108505249, -0.35040733218193054, 0.1976095587015152, -0.046315401792526245, 0.05308889225125313, -0.019120141863822937, 0.38912832736968994, 0.05871886387467384, -0.09351562708616257, -0.16322478652000427, -0.1787237673997879, -0.23351818323135376, -0.034952614456415176, -0.3922532796859741, 0.08758673071861267, -0.3482990562915802, 0.22372151911258698, -0.07733556628227234, 0.4698921740055084, 0.08405934274196625, 0.1683715134859085, -0.019655141979455948, -0.2754855155944824, 0.3607337176799774, -0.29195863008499146, 0.06604501605033875, 0.3355516493320465, 0.1533447951078415, 0.4398014545440674, 0.08485664427280426, 0.18872632086277008, 0.10084827989339828, 0.047207072377204895, 0.08215885609388351, 0.30001863837242126, 0.11043417453765869, -0.21098949015140533, -0.01636187545955181, -0.9402310848236084, -0.039501022547483444, 0.09010403603315353, -0.08898984640836716, 0.039712075144052505, 0.0574895516037941, -0.4449387490749359, -0.2430068403482437, 0.11636275053024292, 0.1426321268081665], [0.19449497759342194, 0.29304248094558716, -0.4191609025001526, -0.14041319489479065, -0.36922815442085266, -0.09987270832061768, -0.4587646424770355, 0.38441765308380127, -0.0026686021592468023, 0.3738681674003601, -0.01532016322016716, 0.04127674549818039, 0.2258232831954956, -0.11630778014659882, -0.055037714540958405, 0.12896479666233063, -0.23716941475868225, -0.4754076898097992, 0.2339814007282257, -0.3096190392971039, 0.2703227698802948, -0.17893105745315552, 0.39826932549476624, -0.3067099452018738, -0.36381587386131287, 0.020093541592359543, 0.2527961730957031, -0.20789551734924316, -0.3104865550994873, 0.16979724168777466, -0.38444387912750244, -0.28085529804229736, -0.4489840567111969, 0.16929171979427338, 0.24570441246032715, -0.12202170491218567, 0.046234339475631714, -0.45109468698501587, -0.5299748778343201, 0.021815450862050056, -0.39693155884742737, 0.07691992819309235, 0.3413824439048767, -0.06121256202459335, -0.2352549135684967, 0.19425037503242493, -0.14385360479354858, 0.12406033277511597, 0.007071257568895817, 0.31166261434555054, 0.16059480607509613, -0.14119376242160797, 0.0832226574420929, 0.1813507080078125, -0.25895264744758606, 0.10494347661733627, -0.47768089175224304, -0.4167976975440979, -0.01460019126534462, -0.501635730266571, 0.21429026126861572, -0.43873330950737, -0.10470956563949585, -0.26477405428886414], [0.3216044306755066, -0.06861039996147156, -0.8060969114303589, -0.2051400989294052, -0.27149999141693115, -0.17118823528289795, 0.00482463464140892, -0.305159330368042, -0.2887383997440338, -0.5104665160179138, -0.5931510925292969, 0.9559546709060669, -0.8258678913116455, -0.21604427695274353, -0.10907893627882004, -0.049878865480422974, -0.10478736460208893, -0.40338408946990967, 0.47086042165756226, 0.349132239818573, 0.16755108535289764, 0.5278075337409973, -0.5993115305900574, 0.26689258217811584, 0.7704471349716187, 0.6585911512374878, 0.4505045711994171, 0.05274723097681999, -0.34208646416664124, 0.3894733786582947, -0.3170821964740753, 0.009127686731517315, -0.5910895466804504, -1.017498254776001, 0.07321500778198242, 0.6861991286277771, 0.38802146911621094, -0.09470508247613907, -0.7933624982833862, 0.24822984635829926, -0.1901264488697052, -0.2304503619670868, 0.3334551751613617, -0.23298683762550354, -0.5047670602798462, 0.6101896166801453, -0.01596974767744541, 0.2635613977909088, -0.0449429489672184, 0.09865369647741318, 0.5636767148971558, 0.7735325694084167, -0.6806812286376953, 0.8693954348564148, -0.4247876703739166, -0.4269944429397583, 0.10129009187221527, 0.019717484712600708, -0.2245209813117981, 0.3955395817756653, 0.7094189524650574, -0.3207061290740967, 0.3547857403755188, 0.32517582178115845], [-0.10995806753635406, 0.34682154655456543, 0.11258254200220108, 0.291799396276474, -0.6235241293907166, -0.24901676177978516, 0.27983447909355164, 0.29582613706588745, 0.0918489471077919, -0.0033231012057513, 0.05417106673121452, -0.34107083082199097, -0.632735013961792, 0.45429855585098267, -0.20089833438396454, 0.4924595355987549, -0.2514122426509857, -0.058827854692935944, -0.12672460079193115, 0.17824004590511322, 0.21704784035682678, 0.04992248862981796, -0.022393960505723953, 0.4945281147956848, 0.3089219331741333, -0.04086703062057495, -0.22246751189231873, -0.3960139751434326, 0.13935203850269318, -0.21157385408878326, -0.015497849322855473, 0.23915603756904602, -0.4048627018928528, -0.46314284205436707, -0.2123890072107315, -0.28574758768081665, 0.15707674622535706, 0.3788491487503052, 0.5276682376861572, 0.014680536463856697, 0.48690444231033325, -0.23656035959720612, -0.3599678874015808, -0.19377419352531433, -0.07593096792697906, -0.23628570139408112, 0.26075249910354614, 0.032810650765895844, 0.4461686909198761, -0.042951300740242004, 0.5294036865234375, 0.08471564203500748, -0.8528397679328918, 0.3674295246601105, -0.004588805139064789, 0.3490203619003296, 0.2654590904712677, -0.3644123375415802, -0.13638350367546082, -0.17690923810005188, -0.3313220739364624, -0.2126537263393402, 0.06489396840333939, 0.31154823303222656], [-1.017457365989685, 0.18765418231487274, -0.02189140021800995, 0.3289012610912323, -0.18959861993789673, -0.5729117393493652, -0.06485565751791, -0.9870689511299133, -0.3210754096508026, 0.27679896354675293, -0.6298858523368835, -0.13584989309310913, -0.5366679430007935, -0.282065212726593, 0.17760345339775085, -0.3204714357852936, -0.623359203338623, 0.39783042669296265, -0.1745513379573822, 0.13146503269672394, 0.07272502034902573, -0.017020950093865395, -0.13925723731517792, 0.09721717983484268, -0.3795919716358185, -0.2760545313358307, -0.5936551690101624, -0.057599011808633804, 0.028125138953328133, -0.5717901587486267, 0.6541018486022949, 0.013181292451918125, 0.5054397583007812, -0.1620977520942688, 0.12058669328689575, 0.10395824164152145, 0.03387108072638512, 0.1400042027235031, 0.09023711830377579, 0.3525736331939697, 0.14273670315742493, 0.3288181722164154, -0.28935176134109497, 0.266635924577713, 0.6352102756500244, 0.4677637815475464, 0.17679843306541443, -0.363131046295166, 0.01372424978762865, -0.22637516260147095, -0.05038179084658623, 0.0845813974738121, -0.2331857830286026, 0.056030888110399246, 0.5667181611061096, 0.10847657173871994, 0.14317798614501953, -0.052733950316905975, 0.2896587550640106, 0.8307016491889954, -0.24752943217754364, 0.8150332570075989, 0.17703843116760254, 0.1939454972743988], [-0.17827826738357544, -0.41757944226264954, -0.29200229048728943, 0.44535958766937256, -0.157052144408226, -0.35977625846862793, 0.30649805068969727, -0.25101590156555176, -0.3637002408504486, -0.3858417570590973, -0.5838640332221985, -0.010357902385294437, -0.08556381613016129, 0.7148951888084412, 0.36511850357055664, -0.31294959783554077, -0.6598915457725525, -0.20561403036117554, 0.2630051076412201, 0.7275028824806213, 0.49199560284614563, 0.43184494972229004, -0.15090693533420563, 0.5123277902603149, 0.11077704280614853, 0.10071122646331787, 0.01522925216704607, -0.18967416882514954, -0.26877424120903015, -0.45798903703689575, -0.045018211007118225, 0.21566863358020782, 0.17002946138381958, -0.3507036864757538, -0.3699883818626404, 0.15702760219573975, 0.17092977464199066, 0.3807244598865509, -0.01094010192900896, 0.40531888604164124, 0.06915423274040222, 0.5022161602973938, -0.1786961555480957, 0.158880352973938, 0.15834632515907288, 0.4920075535774231, 0.21221280097961426, 0.22038887441158295, 0.26631960272789, -0.22980648279190063, 0.4946860074996948, 0.45406877994537354, -0.42497462034225464, -0.06367801129817963, -0.07082074880599976, 0.5456510782241821, 0.2219594120979309, 0.1629428118467331, 0.4481016993522644, 0.28432154655456543, -0.22703297436237335, -0.26691997051239014, 0.38356056809425354, 0.3897409737110138], [-0.48364371061325073, 0.03537552431225777, -0.0032199439592659473, -0.11199580132961273, 0.6473124623298645, -0.036045875400304794, 0.19423846900463104, 0.08991832286119461, -0.2737664580345154, 0.1681506186723709, 0.03840884193778038, 0.6031465530395508, 0.18410220742225647, -0.28252923488616943, 0.13117307424545288, -0.302298903465271, -0.03293317183852196, -0.21975015103816986, -0.3100973665714264, 0.3938325345516205, 0.29043519496917725, 0.6054956912994385, -0.2277277410030365, 0.01788291707634926, -0.49623024463653564, 0.21881669759750366, 0.18640747666358948, -0.6144506335258484, 0.18864528834819794, -0.09461111575365067, -0.4496183395385742, 0.2371978759765625, 0.6152756214141846, -0.569132924079895, -0.2346874177455902, -0.3925277292728424, -0.06305499374866486, -0.03783400356769562, 0.014809652231633663, -0.060173142701387405, 0.3760451376438141, 0.08174054324626923, 0.10376667976379395, -0.14700409770011902, -0.3207353353500366, 0.13256509602069855, -0.09002524614334106, 0.16805744171142578, 0.008198032155632973, -0.21815219521522522, 0.7201693058013916, 0.47344210743904114, -0.5528472661972046, 0.32624492049217224, -0.5195996761322021, 0.09173419326543808, 0.36468225717544556, -0.31292542815208435, 0.19717547297477722, -0.07421097904443741, -0.019583875313401222, 0.28984197974205017, 0.18901170790195465, 0.41944098472595215], [-0.22545364499092102, -0.14270813763141632, -0.19906780123710632, 0.11764518916606903, 0.10929051041603088, -0.5755977034568787, 0.27289730310440063, -0.4624910354614258, -0.09864283353090286, -0.3009277880191803, -0.8840920329093933, 0.0563204288482666, 0.30587655305862427, 0.18739984929561615, 0.20815126597881317, 0.07309839129447937, 0.13305900990962982, -0.0474395677447319, 0.5299383997917175, 0.23205222189426422, 0.12204097956418991, -0.01573212444782257, -0.09850713610649109, 0.1191059947013855, 0.25630131363868713, 0.05956129729747772, -0.42879045009613037, 0.49309074878692627, -0.8045230507850647, -0.3557782471179962, 0.22927576303482056, 0.1089126467704773, -0.34937232732772827, -0.19087642431259155, 0.1573280245065689, 0.002346309367567301, 0.35341212153434753, 0.19249333441257477, 0.12387843430042267, 0.23572401702404022, -0.3353145718574524, 0.03383195400238037, 0.08931207656860352, 0.007391229271888733, 0.24804535508155823, -0.26268160343170166, -0.1945592164993286, -0.08980530500411987, -0.4229457974433899, -0.24653840065002441, -0.29757726192474365, -0.05898569896817207, 0.09477008879184723, 0.25520578026771545, 0.17482884228229523, -0.24167481064796448, 0.38009902834892273, 0.7110028266906738, 0.025528326630592346, 1.300328016281128, -0.22267045080661774, -0.35863688588142395, -0.24780642986297607, -0.4580264389514923], [-0.32060694694519043, 0.16112637519836426, -0.6216432452201843, 0.12673509120941162, 0.34819355607032776, -0.5904194712638855, -0.489229679107666, 0.21911951899528503, 0.4174368679523468, 0.554222583770752, -0.44902870059013367, 0.30052006244659424, 0.43095526099205017, -0.14286567270755768, 0.7140256762504578, 0.18249349296092987, -0.36417779326438904, 0.00072137062670663, 0.05945926159620285, -0.7073443531990051, -0.13658294081687927, -0.448583722114563, 0.1193048506975174, -0.8292117714881897, -0.8529804348945618, -0.20775675773620605, 0.24581460654735565, -0.6404685378074646, -0.1431511491537094, 0.029348867014050484, -0.27014976739883423, -0.3081904947757721, 0.001161918044090271, 0.49519404768943787, 0.7665236592292786, -0.18544688820838928, 0.6715632081031799, 0.0703316479921341, 0.36989691853523254, 0.45360687375068665, -0.21484334766864777, -0.48257172107696533, -0.00560724688693881, -0.006384662818163633, -0.2780481278896332, -0.06098724156618118, -0.8553480505943298, -0.04581959918141365, -0.19673308730125427, 0.310238242149353, -0.1456720232963562, -0.18696674704551697, 0.4240802526473999, 0.34306639432907104, -0.9212923049926758, -0.318606436252594, -0.12090045213699341, -0.4156876504421234, -0.04566480219364166, -0.5772615075111389, -0.26818516850471497, -0.22266767919063568, -0.013648376800119877, -0.2880799472332001], [0.8019219636917114, 0.15877045691013336, -0.42488759756088257, 0.36463478207588196, 0.7357227802276611, 0.27928438782691956, -0.09980297833681107, -0.6531515717506409, -0.2461780309677124, 0.3255048096179962, -0.4290584623813629, -0.2520158290863037, 0.34673506021499634, -0.332923948764801, -0.5944782495498657, -0.5436983704566956, 0.4634687304496765, 0.2551323473453522, 0.1821928769350052, 0.19946171343326569, 0.2365749031305313, 0.287435919046402, 0.19984321296215057, 0.553253173828125, -1.0064646005630493, 0.23627200722694397, -0.01608671247959137, 0.45380011200904846, -0.22549830377101898, 0.24948842823505402, 0.2082090973854065, -0.44936734437942505, -0.3447214663028717, -0.010660621337592602, -0.42990878224372864, 0.02917345054447651, -0.5944666862487793, 0.10890183597803116, -0.1819899082183838, 0.4858470559120178, -0.13520167768001556, 0.25367456674575806, 0.10456237941980362, 0.8490285277366638, 1.3527638912200928, 0.17241527140140533, 0.5094959139823914, 1.2841778993606567, 0.1192871630191803, -0.1440979242324829, -0.4630049467086792, 0.20231720805168152, -0.3869628310203552, -0.2941594421863556, 0.35163167119026184, -0.024300361052155495, -0.2650076150894165, -0.8434495329856873, 0.6105021834373474, -0.14094842970371246, -0.08601471036672592, 0.033727023750543594, -0.21200180053710938, -0.15651167929172516], [0.5956372022628784, 0.5523270964622498, 0.3046150207519531, 0.03462955728173256, -0.30628880858421326, 0.6089868545532227, -0.2518669664859772, 0.36306285858154297, -0.2706257402896881, 0.1858357936143875, 0.43459782004356384, 0.131170853972435, -0.03347417712211609, 0.3852787911891937, -0.03391096368432045, -0.6546381115913391, -0.19203676283359528, 0.11291121691465378, -0.5341593623161316, -0.1616619974374771, -0.2105238437652588, -0.34339407086372375, -0.21910960972309113, 0.2040063440799713, -0.5581902861595154, -0.023501936346292496, 0.008574896492064, 0.13319940865039825, 0.3773430585861206, 0.3440520465373993, -0.025480706244707108, 0.35732758045196533, -0.31401318311691284, -0.007111881393939257, -0.8437536954879761, -0.44400882720947266, -0.339309424161911, 0.19081322848796844, -0.2898200750350952, -0.17215166985988617, 0.44216904044151306, 0.4689275622367859, -0.2903522551059723, -0.6937988996505737, -0.4640258848667145, -0.29726642370224, 0.23056189715862274, 0.5970383286476135, 0.40620583295822144, 0.12310674041509628, 0.6224441528320312, 0.18140994012355804, -0.10337143391370773, -0.2793313264846802, -0.02345438301563263, 0.41900205612182617, 0.061774227768182755, -0.30470582842826843, 0.1524050384759903, -0.5079564452171326, 0.3595265746116638, -0.1887602061033249, 0.046683866530656815, 0.3435240089893341], [0.7110075950622559, 0.11179459095001221, 0.794389545917511, 0.3386019766330719, -0.46422919631004333, 0.11745737493038177, -0.3746967017650604, 0.44193291664123535, -0.02708234079182148, 0.3709343671798706, 0.20635783672332764, -0.1702905148267746, 0.6421028971672058, 0.6034571528434753, 0.022263534367084503, -0.30795300006866455, 0.46386006474494934, 0.19358444213867188, -0.10620257258415222, -0.09229668229818344, -0.043316107243299484, 0.007995689287781715, 0.5676096081733704, 0.09960661083459854, -0.23074424266815186, -0.11038331687450409, 0.4478752911090851, 0.028748799115419388, -0.3842087388038635, -0.5442572832107544, -0.5706971883773804, 0.1445237249135971, -0.30466434359550476, 0.1217837780714035, -0.28365617990493774, -0.17924149334430695, -0.18227896094322205, 0.2991807162761688, -0.7477598190307617, 0.018094521015882492, 0.4830264449119568, 0.4719431400299072, -0.4237908720970154, 0.23123954236507416, 0.6010415554046631, -0.046559568494558334, 0.205846905708313, 0.6686468124389648, 0.34883439540863037, 0.05356048420071602, -0.13327568769454956, -0.018967673182487488, 0.04276569187641144, 0.032257650047540665, -0.1319631040096283, 0.5813277959823608, -0.2039376199245453, 0.2369205355644226, 0.1448124647140503, 0.20248891413211823, 0.000882974243722856, -0.021445272490382195, -0.20934627950191498, 0.048723526298999786], [0.09275860339403152, 0.5559209585189819, -0.4450394809246063, -0.12302131950855255, 0.9574861526489258, -0.39628836512565613, -1.6595491170883179, -1.4150298833847046, -0.09680835902690887, -0.08237019181251526, 0.210455060005188, 0.47526684403419495, -0.041520267724990845, 0.03646531701087952, 0.8361006379127502, -0.01540372334420681, 0.12168370932340622, -0.1198599562048912, 0.23203857243061066, 0.026928460225462914, -0.16637197136878967, -0.17246396839618683, -0.10603180527687073, -0.271887868642807, -0.12380511313676834, -0.18214720487594604, -0.42961937189102173, 0.04472880810499191, -0.10790430009365082, 1.0953693389892578, -0.3536531627178192, 0.3948783278465271, 0.1886044293642044, 0.3602628707885742, 0.4497297704219818, 0.16181285679340363, -0.11543939262628555, 0.131413072347641, -0.7504761815071106, 0.05122431367635727, -0.005114507861435413, 0.30016711354255676, 0.041427627205848694, 0.4882144629955292, 0.4404096305370331, -0.1942663937807083, -0.14105334877967834, -0.035458680242300034, -0.2726558446884155, 0.036265045404434204, -0.42662209272384644, -0.24676565825939178, 0.7677963376045227, 0.43626803159713745, -0.32563817501068115, -0.9870802760124207, -0.1773701161146164, 0.37930968403816223, -0.04081517085433006, 0.1893192082643509, 0.3126995265483856, 0.29196321964263916, -0.12663781642913818, -1.233259677886963], [-0.027144908905029297, 0.15698300302028656, -0.725729763507843, -0.11010166257619858, 0.6653509140014648, -0.02278025634586811, 0.123820461332798, -0.5394653081893921, -0.07225421816110611, 0.2557448148727417, -0.1662316918373108, 0.15145625174045563, -0.9322665929794312, -0.9335706830024719, -0.03960767388343811, 0.2950151264667511, -0.16194035112857819, 0.5108514428138733, -0.139658123254776, -0.013587072491645813, 0.057576026767492294, 0.620542585849762, -0.30443906784057617, 0.4133746325969696, 0.12378766387701035, -0.11233687400817871, -0.523303747177124, -0.031273894011974335, 0.17674723267555237, 0.06357566267251968, 0.385463148355484, 0.33206722140312195, -0.007712768390774727, -0.4248318672180176, -0.19888442754745483, -0.0023473920300602913, -0.3501034677028656, 0.8236837983131409, -0.05049191042780876, 0.16087955236434937, -0.17997603118419647, -0.18690481781959534, -0.5849850177764893, -0.1081603616476059, 0.14473742246627808, -0.2735317349433899, 0.3829142451286316, -0.46875765919685364, -0.24109570682048798, -0.2009396106004715, -0.48094233870506287, 0.6167035102844238, -0.4214988946914673, -0.06365665793418884, 0.06529219448566437, -0.5297605991363525, 0.5214918851852417, 0.45829540491104126, -0.1359100192785263, 0.42589280009269714, 0.2540975511074066, 0.1688055843114853, -0.5833524465560913, 0.26169919967651367], [0.24332602322101593, -0.648409903049469, -0.9393548369407654, -0.5580344200134277, -0.9059930443763733, -0.47085538506507874, 0.37535548210144043, 0.9369363188743591, -0.2881333827972412, -0.3082500994205475, -0.31864917278289795, 0.5448063015937805, 0.10245206952095032, -0.27056020498275757, 0.3853773772716522, 0.37556397914886475, 0.45697399973869324, -0.22831816971302032, 0.4087919294834137, -0.13022233545780182, 0.08678371459245682, 0.04943830519914627, -0.1151551827788353, -0.6959236264228821, 0.7720938324928284, 0.11666934937238693, 0.18141046166419983, -0.07731456309556961, -0.49776849150657654, -0.3064723014831543, 0.479698121547699, -0.6596007943153381, 0.30882853269577026, -0.1773584634065628, 1.4641880989074707, 0.40565043687820435, 0.9768330454826355, -0.12807407975196838, -0.051174528896808624, -0.4868747293949127, -0.8087315559387207, 0.3641864061355591, 0.6716351509094238, -0.6156937479972839, -1.1227904558181763, 0.4488486349582672, 0.1430933028459549, -0.7321517467498779, -1.3792858123779297, -0.008377828635275364, -0.6888270974159241, -0.28023257851600647, 0.27876126766204834, 0.17300008237361908, 0.1513858288526535, -1.1882271766662598, 0.0024024557787925005, -0.3775583505630493, -0.4289690852165222, 1.2940499782562256, -0.965406596660614, 0.4272732436656952, 1.4535871744155884, -0.19804732501506805], [-0.21330928802490234, 0.057044368237257004, 0.5385591387748718, 0.02856428734958172, -0.14009162783622742, -0.37902912497520447, -0.0660877451300621, -1.1034308671951294, 0.11123213917016983, 0.26374301314353943, -0.04394681751728058, -0.036926522850990295, -0.9791630506515503, -0.33235910534858704, -0.029042450711131096, 0.1578836441040039, 0.4399494528770447, 0.0788862332701683, -0.03867906704545021, -0.139919713139534, 0.160498708486557, -0.08480620384216309, -0.13907231390476227, -0.32241979241371155, 0.44877809286117554, 0.028680987656116486, -0.4673203229904175, -0.5190901756286621, -0.34316951036453247, -0.46002089977264404, 0.10282059758901596, 0.06163093447685242, 0.30214130878448486, 0.21224817633628845, 0.6671459674835205, 0.3887985348701477, 0.47570228576660156, 0.09739366173744202, 0.18345648050308228, -0.16136492788791656, 0.14393092691898346, 0.06407050043344498, -0.015698296949267387, 0.31599220633506775, 1.2322484254837036, 0.5225732326507568, -0.07698472589254379, -0.30111292004585266, -0.29044878482818604, -0.03208710998296738, -0.6801334619522095, 0.10072623193264008, 0.00019914945005439222, -0.17186298966407776, 0.34228193759918213, -0.07554499804973602, 0.09013750404119492, 0.9045476317405701, 0.08652587234973907, 0.2905212938785553, 0.3215058147907257, -0.2043832242488861, -0.36019229888916016, 0.023419132456183434], [-0.06124149262905121, 0.3195042610168457, -0.42683836817741394, 0.03294970840215683, -0.0021701084915548563, 0.08403977006673813, 0.09618441760540009, -1.364659070968628, -0.07370245456695557, 0.1970549374818802, -0.10745967924594879, 0.4335426390171051, 0.10771797597408295, 0.8235898017883301, 0.04744856804609299, -0.5247635841369629, -0.1822313368320465, 0.2527341842651367, -0.17372116446495056, 0.28784283995628357, -0.011060738004744053, -0.06863806396722794, 0.32468000054359436, -0.04438619688153267, -0.17597435414791107, -0.14704494178295135, -0.14197877049446106, 0.4389037787914276, 0.06302403658628464, 0.3868638277053833, -0.11836255341768265, 0.0870361179113388, -0.515708863735199, 0.07302078604698181, -0.7124150991439819, -0.27326133847236633, -0.28031685948371887, 0.17781688272953033, -0.4625556170940399, -0.061407994478940964, 0.39337602257728577, -0.0007465504459105432, -0.1231180727481842, 0.6958428025245667, 0.3530891537666321, -0.22397533059120178, -0.24725915491580963, 0.6894035935401917, 0.5224683880805969, -0.1374169886112213, -0.41832810640335083, 0.05622327700257301, 0.006724563892930746, 0.2700292766094208, 0.4529294967651367, 0.15322868525981903, -0.04986852407455444, -0.2864203155040741, 0.11542340368032455, -0.20373837649822235, 0.9289514422416687, 0.5584819316864014, 0.4738323986530304, 0.005111782345920801], [0.326135516166687, -0.33996424078941345, -0.5448474884033203, -0.19411395490169525, 0.24015025794506073, -0.290203720331192, 0.7137147784233093, -0.1549159437417984, 0.00515343714505434, -0.4504055082798004, -0.23238104581832886, 0.07927592098712921, -0.1705593764781952, 0.15764270722866058, 0.38819077610969543, 0.4275875687599182, -0.7593869566917419, 0.19857452809810638, -0.06913325935602188, -0.1373276561498642, -0.06881631165742874, 0.2058420479297638, -0.2578671872615814, 0.05148915573954582, 0.0957878977060318, -0.07930444180965424, -0.2855914831161499, 0.017486127093434334, -0.17902761697769165, 0.40071454644203186, 0.17225360870361328, -0.1738533079624176, -0.8158759474754333, -0.32907864451408386, 0.20169498026371002, 1.3110045194625854, 0.11140792071819305, 0.7607277631759644, 0.1796456277370453, 0.07398992776870728, -0.31395143270492554, 0.6096096038818359, -0.23125708103179932, -0.1872408241033554, -0.16731441020965576, -0.7880329489707947, -0.17071034014225006, 1.324628233909607, -0.18032129108905792, -0.06946834176778793, -0.006154980044811964, 0.07260498404502869, -0.26144465804100037, -0.5055486559867859, 0.32375580072402954, -0.13052898645401, 0.19806450605392456, -0.006416360381990671, 0.14557130634784698, 0.2871282994747162, 0.4081653654575348, -0.06206901744008064, 0.3759094178676605, -0.14252425730228424], [0.19567899405956268, -0.23771701753139496, 0.32409000396728516, -0.07104408740997314, -0.433148592710495, 0.16990263760089874, 0.45514172315597534, -0.31720638275146484, -0.08280519396066666, 0.04436919465661049, 0.4155777394771576, 0.3150095045566559, 0.042657215148210526, 0.5401163697242737, 0.07301703840494156, 0.08629018068313599, 0.11638985574245453, 0.6111101508140564, -0.5278865694999695, -0.013445617631077766, 0.13381385803222656, -0.016943708062171936, -0.3270760178565979, -0.14359933137893677, 0.0808916836977005, -0.0904262587428093, -0.6987862586975098, 0.18453209102153778, 0.03138440474867821, -0.27247533202171326, -0.8199361562728882, 0.4786290228366852, -0.3828277885913849, -0.2500825822353363, -0.04125504195690155, 0.11723790317773819, -0.7418963313102722, 0.5251118540763855, 0.3118640184402466, -0.14070561528205872, 0.025738483294844627, 0.1710362434387207, -0.22655628621578217, -0.2385042905807495, -0.542183518409729, -0.30046457052230835, -0.3859410881996155, -0.49271658062934875, -0.5428813099861145, -0.1591259092092514, -0.5278517007827759, -0.2517796456813812, 0.21222706139087677, 0.3909333050251007, 0.05930790305137634, 0.13443446159362793, 0.05866321548819542, 0.7531819939613342, -0.3051551580429077, 0.6319267153739929, 0.21510106325149536, 0.30088579654693604, -0.7164679169654846, -0.44018319249153137], [-0.32389673590660095, 0.23696459829807281, -0.0969918817281723, 0.25338464975357056, 0.17323972284793854, -0.19964520633220673, 0.1877487152814865, -0.6116151213645935, -0.2906203269958496, -0.23576080799102783, -0.28968149423599243, 0.1374991089105606, -0.2313878983259201, 0.7114601135253906, 0.5398550629615784, 0.10866647958755493, -0.32756704092025757, 0.0986524447798729, -0.1907401829957962, 0.3262639045715332, 0.07788513600826263, 0.15708763897418976, -0.6382678747177124, -0.0029599079862236977, -0.054163411259651184, -0.19854886829853058, -0.6275306940078735, -0.12284399569034576, -0.09109564125537872, 0.07179660350084305, 0.12787319719791412, 0.08413458615541458, 0.2597167491912842, -0.15383194386959076, -0.17850527167320251, 0.14216706156730652, 0.37013494968414307, 0.4539335072040558, 0.12256459146738052, 0.26272517442703247, 0.20890606939792633, 0.4150615930557251, -0.1950492113828659, 0.05077323690056801, 0.36023110151290894, -0.15441472828388214, -0.17198942601680756, 0.3592020869255066, 0.013033474795520306, -0.15578080713748932, -0.152835413813591, 0.21208253502845764, -0.2021716833114624, 0.29221221804618835, -0.26504597067832947, -0.06699026376008987, 0.2287541776895523, 0.021970238536596298, 0.12438348680734634, -0.10360397398471832, 0.010753171518445015, 0.011384580284357071, 0.16804929077625275, 0.2820761799812317], [-0.15168821811676025, -0.20190490782260895, -0.1492866724729538, -0.2937222123146057, -0.5168485045433044, -0.4098343253135681, 0.40746450424194336, 0.3838813900947571, -0.12104331701993942, 0.4777594208717346, -0.30381473898887634, 0.09249641001224518, -0.20058242976665497, 0.09458409249782562, -0.004114196170121431, 0.24399453401565552, 0.39211809635162354, -0.4498617351055145, 0.24277068674564362, -0.13092944025993347, 0.05643077194690704, 0.07634969055652618, 0.05316886678338051, -0.009874303825199604, 0.15146930515766144, 0.6360943913459778, 0.12013806402683258, -0.7774043679237366, 0.0869104266166687, -0.11316822469234467, -0.046467412263154984, -0.30537402629852295, 0.01605834625661373, -0.09358130395412445, 0.15458838641643524, -0.6122486591339111, 0.16427050530910492, 0.0017220813315361738, -0.2424389123916626, 0.09253200143575668, -0.08329741656780243, -0.11496952176094055, 0.1330689936876297, -0.21878835558891296, -0.33165833353996277, 0.22964969277381897, -0.27071475982666016, -1.216638445854187, -0.02313549816608429, 0.09302043914794922, 0.5310248136520386, -0.0034347111359238625, -0.10717814415693283, -0.636204183101654, -0.5956524014472961, -0.451928049325943, 0.15503756701946259, 0.21038851141929626, -0.05722671374678612, -0.1750076562166214, -1.2106035947799683, 0.05955035611987114, 0.6349377036094666, -0.10295554995536804], [0.5029889345169067, 0.753717303276062, -0.01996701955795288, 0.10281781852245331, 0.3237479627132416, 0.13241495192050934, -0.5205696225166321, 0.08826284855604172, -0.07164250314235687, 0.027979345992207527, 0.08001001924276352, 0.21914835274219513, 0.06592657417058945, -0.10544069856405258, 0.36581724882125854, -1.2434054613113403, -0.8143832087516785, 0.35454317927360535, -0.13752570748329163, 0.10132172703742981, -0.39392492175102234, -0.09999783337116241, 0.4908298850059509, 0.06556921452283859, 0.6908919215202332, -0.3448237478733063, -0.14644871652126312, -0.044782377779483795, 0.18493662774562836, 0.06749874353408813, 1.4669740200042725, 1.3102613687515259, 0.0673944354057312, -0.06773042678833008, 0.08482860773801804, -0.11742061376571655, 0.11905616521835327, 0.48597416281700134, 0.1274127960205078, 