{"model_data": {"model": "SimpleRNN", "input_size": 1, "skip": 1, "output_size": 1, "unit_type": "LSTM", "num_layers": 1, "hidden_size": 64, "bias_fl": true}, "state_dict": {"rec.weight_ih_l0": [[-1.9488916397094727], [-0.7880703806877136], [-0.8715487718582153], [0.7662817239761353], [-1.2323377132415771], [-0.895052969455719], [0.7232521772384644], [1.1623899936676025], [-0.33702102303504944], [0.07188612222671509], [-1.202408790588379], [0.3010108470916748], [-1.1806955337524414], [0.06558207422494888], [-0.054579611867666245], [-0.3206741213798523], [-0.6361042261123657], [0.8830974102020264], [-0.06465321779251099], [-0.1796606183052063], [0.340961217880249], [-0.2346198707818985], [-0.1506786197423935], [0.5629210472106934], [-0.671589195728302], [0.266735315322876], [0.6532381772994995], [-0.09389397501945496], [-0.4374835789203644], [1.2766541242599487], [0.17980214953422546], [0.8275243043899536], [-0.7684224247932434], [-0.3837224245071411], [-1.091686725616455], [0.8536369800567627], [-0.5494260787963867], [1.4715360403060913], [-0.678054690361023], [0.6255261898040771], [1.9018040895462036], [1.090372920036316], [0.8499244451522827], [0.4370034337043762], [1.9626985788345337], [0.6499493718147278], [0.16087070107460022], [-0.31066980957984924], [0.9208101630210876], [-0.6076990962028503], [-0.5686224699020386], [0.6826727390289307], [-1.0359013080596924], [-0.3365961015224457], [-0.9910339117050171], [-0.16468824446201324], [0.5520530939102173], [-1.3302485942840576], [-0.39796286821365356], [-0.7525779008865356], [-0.7312009930610657], [-0.11342137306928635], [1.1219284534454346], [0.46997278928756714], [-1.3424768447875977], [-1.425471305847168], [0.8357294201850891], [0.5837180018424988], [-0.04433479905128479], [-1.717877745628357], [1.3187041282653809], [1.175008773803711], [-0.18988926708698273], [-0.5429404973983765], [-0.6980774998664856], [0.36566630005836487], [-0.9237105846405029], [-0.7098346948623657], [-1.083081603050232], [-0.15173180401325226], [-1.5074336528778076], [0.33047419786453247], [-0.6078181862831116], [-0.1378319263458252], [0.635497510433197], [0.11511820554733276], [-0.3351828455924988], [0.37513628602027893], [-0.46895429491996765], [-0.7316844463348389], [1.1036386489868164], [0.03745727986097336], [-1.1700079441070557], [0.8918231129646301], [1.177203893661499], [1.9924967288970947], [-0.24421919882297516], [-0.7084187269210815], [-0.680188775062561], [0.8526934385299683], [-0.20937009155750275], [2.560938596725464], [0.12356526404619217], [0.6950207352638245], [2.2715682983398438], [1.1174942255020142], [1.6972445249557495], [0.7929954528808594], [1.3068323135375977], [-0.4666120707988739], [-0.2971997857093811], [0.3821316659450531], [0.7691491842269897], [-0.7623165845870972], [-0.3423205316066742], [0.12860259413719177], [-1.1706682443618774], [-0.22815804183483124], [-0.856296718120575], [-0.17474280297756195], [0.16429713368415833], [-1.4326889514923096], [-0.24059940874576569], [-0.7310019731521606], [0.16900277137756348], [0.06358809769153595], [0.5036713480949402], [0.26244881749153137], [-2.4251983165740967], [-3.919053792953491], [1.1883702278137207], [-2.2211971282958984], [-1.3341296911239624], [-0.7212269306182861], [1.1771740913391113], [1.561004400253296], [-0.14677515625953674], [-0.8345736861228943], [-0.29023823142051697], [-0.10767762362957001], [-1.6606823205947876], [-0.27481725811958313], [0.2684464752674103], [6.0748701095581055], [-0.5785763263702393], [-3.3019495010375977], [5.331789970397949], [-0.9664120674133301], [0.4945560693740845], [-0.915179967880249], [-0.9429200887680054], [-0.894104540348053], [1.477597713470459], [0.869560182094574], [2.049896478652954], [-2.3927361965179443], [-2.135514974594116], [0.615876317024231], [-1.4104430675506592], [-7.674649238586426], [1.4812853336334229], [-0.2923346757888794], [2.196436643600464], [0.7524887919425964], [1.6447560787200928], [-3.2889957427978516], [1.1995415687561035], [-2.0166220664978027], [-3.1145598888397217], [0.6778225898742676], [1.4443951845169067], [-3.392761707305908], [-2.1809208393096924], [0.919549822807312], [1.2431626319885254], [-2.8511877059936523], [-3.1156790256500244], [1.0356627702713013], [2.296154499053955], [-0.8807962536811829], [-0.825538694858551], [-0.3676491379737854], [-1.9644681215286255], [-0.449074387550354], [-0.5884189009666443], [0.5165001153945923], [0.42516595125198364], [-0.031209217384457588], [-0.6809152960777283], [-1.4347212314605713], [0.7466226816177368], [1.119333267211914], [-1.3289995193481445], [-0.8344995379447937], [-0.3214912414550781], [0.6788120865821838], [-1.1690126657485962], [-0.8657894134521484], [0.7732890248298645], [0.9478344321250916], [-0.3752976357936859], [0.023838840425014496], [-0.9578886032104492], [0.5403161644935608], [-1.2818920612335205], [0.08220554888248444], [-0.7564664483070374], [-0.45331087708473206], [-0.8836211562156677], [0.7851136326789856], [0.24323853850364685], [-0.7743722796440125], [0.3200668394565582], [-0.09625593572854996], [0.1262124925851822], [1.0261262655258179], [-0.35164114832878113], [-1.0068470239639282], [-0.12219604849815369], [0.12868355214595795], [0.10352758318185806], [2.349473237991333], [0.4883769154548645], [0.5996396541595459], [-0.44290244579315186], [-0.3962908685207367], [-1.3277647495269775], [0.7112504243850708], [-0.5421041250228882], [1.4021612405776978], [-0.11534827947616577], [1.075329303741455], [-1.2445176839828491], [1.4918627738952637], [1.0056434869766235], [0.69834965467453], [2.2762017250061035], [1.0026428699493408], [0.3689923882484436], [-0.691984236240387], [0.7750291228294373], [-0.6763182878494263], [-0.5763187408447266], [0.8789780735969543], [-1.3577802181243896], [-0.8563719987869263], [-0.6800612211227417], [-0.4015381634235382], [-0.1186915934085846], [-1.0595390796661377], [-0.375800222158432], [-1.262039065361023], [-0.2197733074426651], [0.058609843254089355], [1.2263249158859253], [0.6581005454063416]], "rec.weight_hh_l0": [[0.09534590691328049, 0.09780178964138031, 0.18745183944702148, -0.2983990013599396, 0.3954034149646759, 0.16055521368980408, 0.6220173239707947, -0.7867721319198608, -0.008760419674217701, 0.3002285063266754, 0.2098277360200882, 0.4637776017189026, 0.6309808492660522, 0.8344008922576904, 0.43589556217193604, -0.6662172079086304, -0.7510151863098145, -0.08712678402662277, -0.11829418689012527, 0.35355257987976074, -0.08008812367916107, 0.09424401074647903, 0.13187088072299957, -0.17900854349136353, -0.27600404620170593, -0.16172772645950317, -0.08981160074472427, 0.027312055230140686, -0.17352135479450226, 0.8378666639328003, -1.4941773414611816, 0.05570043995976448, -0.32964155077934265, -0.035945553332567215, -0.7572634816169739, 0.735856831073761, -0.008609305135905743, 0.17372556030750275, -0.5656352639198303, -0.42513832449913025, 0.22776369750499725, -0.03085627593100071, -0.19738054275512695, 0.3731091618537903, 0.018933355808258057, -1.1859291791915894, -0.20200982689857483, 2.575237989425659, 0.45462751388549805, 0.11395253241062164, -0.23513086140155792, 0.20673994719982147, 0.20443397760391235, 0.9837883114814758, -0.022975485771894455, 0.3836328387260437, -0.0936342403292656, -0.4414758086204529, 0.12411767244338989, -0.4631984829902649, 0.7566574215888977, 0.14810432493686676, 0.054476045072078705, -0.19928796589374542], [0.09869200736284256, -0.07144100964069366, -0.6216360330581665, -0.38442519307136536, 0.11310291290283203, -0.42340993881225586, 0.8461862802505493, 0.0007979309884831309, -0.2317095696926117, -0.2307787537574768, 0.001842785277403891, 0.0622602216899395, -1.2086645364761353, 0.33941972255706787, 0.6352947950363159, 0.697502613067627, -0.21700404584407806, 0.23085452616214752, -0.3180793821811676, 0.00707277562469244, 0.07060866802930832, 0.17388063669204712, -0.40309780836105347, -0.261218786239624, -0.09759082645177841, -0.13769571483135223, -0.40195250511169434, -0.0682690292596817, -0.22763335704803467, 0.6967366933822632, -0.8287981152534485, -0.025431865826249123, -1.0576517581939697, -0.532335638999939, 0.41107821464538574, 1.4805470705032349, 0.3725643754005432, 1.1600857973098755, 0.3354392349720001, -0.41721612215042114, -0.47229140996932983, 0.6063064932823181, -0.5335798263549805, -0.9228290915489197, -0.31767740845680237, -1.1473565101623535, 0.22991913557052612, 0.1256934106349945, -0.23686152696609497, -0.08365749567747116, -0.15032556653022766, 0.27793392539024353, -0.3510454595088959, -0.2807784676551819, 0.10741780698299408, -0.7087933421134949, 0.20914961397647858, 0.14173533022403717, 0.0033702540677040815, 0.39196649193763733, 0.3917277753353119, 0.2236224114894867, 0.568027675151825, 0.6646144986152649], [0.2762461304664612, -0.027355656027793884, 0.5726375579833984, 0.1926790028810501, -0.1739768534898758, 0.30273568630218506, 0.36341920495033264, -0.44617462158203125, -0.379280149936676, -0.08996736258268356, 0.2773898243904114, 0.6929971575737, 0.4055505096912384, 0.259628564119339, 0.2796851396560669, -0.4500455856323242, 0.37045738101005554, 0.6933178901672363, -0.6281332969665527, 0.2248803973197937, 0.09861472249031067, -0.07004515081644058, -0.10209214687347412, 0.04142720252275467, -0.019375689327716827, 0.01870540715754032, -1.2097128629684448, 0.8158258199691772, 0.39829742908477783, -0.8252253532409668, 0.2014116793870926, 0.8716775178909302, -0.6555715799331665, -0.30334392189979553, 0.004060613457113504, -0.557231068611145, -0.6957902908325195, 0.4824436902999878, -0.2649647295475006, -0.1389443576335907, 0.009771369397640228, -0.1886598914861679, -0.4964948892593384, 0.45102405548095703, 0.2124280035495758, -0.21798042953014374, -0.1134718582034111, 0.002396958414465189, -0.2505435347557068, -0.14664477109909058, -0.4466136395931244, -0.17491097748279572, 0.23159806430339813, 0.24108220636844635, 0.15792329609394073, -0.02935674972832203, 0.020200641825795174, 0.34926384687423706, -0.1689804345369339, 0.470902681350708, -0.03871632739901543, 0.472657173871994, -1.0058997869491577, -0.5763639807701111], [-0.17686963081359863, 0.18546879291534424, -0.04507245495915413, 0.037119392305612564, 0.1054467037320137, -0.3257903456687927, 0.10061278194189072, -0.4459417462348938, -0.5262098908424377, -0.5761170387268066, -0.3171366751194, 0.25660258531570435, -0.3030641973018646, 0.8510424494743347, 0.4351192116737366, 0.18780244886875153, -0.24394986033439636, -0.09398238360881805, -0.06803076714277267, 0.2161630243062973, -0.0032930332235991955, 0.13613474369049072, -0.758169412612915, -0.1798705905675888, 0.10590282082557678, -0.08061020076274872, -0.6276997327804565, -0.22575457394123077, -0.31883877515792847, 0.41530299186706543, 0.22521626949310303, 0.057615362107753754, 0.37201473116874695, -0.5509358644485474, 0.04529860243201256, 0.31150364875793457, 0.2296404391527176, 0.5846894979476929, -0.1564672291278839, 0.11353759467601776, 0.1222875788807869, 0.6159586310386658, -0.16936492919921875, -0.010816256515681744, 0.2608400583267212, -0.09388578683137894, 0.1272706389427185, 0.26748600602149963, -0.06716468185186386, -0.2313452959060669, 0.05512182042002678, 0.26986706256866455, -0.3012639284133911, 0.44928860664367676, -0.11684077233076096, -0.1426078975200653, 0.08463925868272781, 0.2715992331504822, 0.19184552133083344, 0.21877028048038483, -0.2164129912853241, -0.2210768759250641, 0.341262549161911, 0.2723677158355713], [0.17450100183486938, 0.5894700884819031, 0.09462575614452362, -0.6241900324821472, 0.3319240212440491, 0.26570045948028564, -0.7487542033195496, 0.4372521638870239, 0.49546846747398376, 0.7668169140815735, 0.30301907658576965, 0.689182698726654, -0.6620859503746033, -0.025243695825338364, -0.33194175362586975, -0.344711035490036, 0.3865548074245453, 0.06544014811515808, -0.3953875005245209, -0.1931058168411255, -0.012968477793037891, 0.18779504299163818, -0.02386847324669361, -0.2079797387123108, -0.8011080622673035, 0.13702024519443512, 0.17241814732551575, 0.06432957947254181, 0.6298837661743164, -0.4767553210258484, 0.3568606972694397, -0.11724712699651718, -0.10412684082984924, -0.08653978258371353, 0.1912405639886856, -0.8925010561943054, -0.5875415802001953, -0.3188428580760956, 0.2849009931087494, -0.32851335406303406, 0.4111427664756775, -0.8080537915229797, 0.2478460669517517, -0.34320178627967834, -0.6163747906684875, -0.15370741486549377, -0.15662622451782227, -0.4404139816761017, -0.42279425263404846, 0.578940212726593, 1.2167989015579224, 0.14192457497119904, -0.01586097478866577, -0.5091772675514221, -0.5039277076721191, -0.31580841541290283, -0.1937008947134018, -0.4289546012878418, -0.46904271841049194, -0.3399229049682617, 0.32130300998687744, 0.9374845623970032, 0.3194025158882141, -0.6840491890907288], [0.26003995537757874, 0.5422600507736206, 0.09342938661575317, 0.07028010487556458, 0.15552033483982086, 0.11526034027338028, 0.007904036901891232, -0.44417381286621094, -0.453971803188324, 0.14448608458042145, -0.007029484957456589, 0.4107206165790558, -0.1054968312382698, -0.15472020208835602, 0.3187383711338043, -0.5278930068016052, -0.8282968997955322, 0.2802499532699585, -0.5757825970649719, 0.18171453475952148, 0.23732884228229523, 0.2585684359073639, -0.29372361302375793, 0.0775936171412468, 0.5650158524513245, -0.1588093638420105, -0.4124393165111542, -0.14626017212867737, 0.05532499775290489, -0.2728118598461151, 1.1322805881500244, 0.5788730978965759, 0.47450166940689087, -0.5360214710235596, -0.057952314615249634, 0.12081429362297058, 0.17480841279029846, 0.4226294755935669, 0.4386415183544159, 0.0793907642364502, 0.8421041369438171, 0.0649167150259018, -0.148656964302063, 0.32338279485702515, -0.1954217255115509, 0.13876278698444366, 0.09708525985479355, 0.50578773021698, 0.6163876056671143, -0.39425042271614075, 0.005609346088021994, 0.06828552484512329, 0.01652660220861435, 0.9168969392776489, 0.5271005034446716, 0.1999673992395401, 0.3217242658138275, 0.4459725320339203, -0.08361603319644928, -0.6247629523277283, -0.07387787103652954, 0.45061421394348145, 0.41033586859703064, 0.1737527847290039], [-0.7974968552589417, 0.07058469206094742, 0.23051762580871582, -0.2555810809135437, 0.521553099155426, 0.04154784604907036, -0.03536669909954071, -0.9810967445373535, 0.15106242895126343, -0.38224712014198303, 0.3045854866504669, -0.0646427646279335, -0.5333325266838074, 0.30022120475769043, 0.4675864577293396, 0.03471450135111809, 0.524944007396698, 0.9585527777671814, -0.6710270643234253, 0.17098067700862885, 0.16151559352874756, -0.41621100902557373, -1.0851751565933228, 0.09110536426305771, 0.010744432918727398, -0.8063474893569946, -1.0081182718276978, -0.32098087668418884, 0.012663304805755615, 0.577602207660675, 1.1147829294204712, 0.7550496459007263, 0.13836981356143951, -0.2976570725440979, 0.7402268052101135, 0.5339882969856262, 0.3118741810321808, 1.1939984560012817, 0.8490813374519348, -0.30200135707855225, 0.47471681237220764, 0.3548022508621216, -0.5283136963844299, -0.2108599692583084, -0.1569816917181015, -0.7341921329498291, -0.21831569075584412, -0.5571063160896301, -0.4680884778499603, -0.20810644328594208, 0.21193575859069824, -0.1341143399477005, 0.4132344722747803, 0.035845689475536346, 0.44881659746170044, -0.40281474590301514, 0.11443401873111725, 0.18393175303936005, -0.2315223217010498, 0.266019344329834, -0.13836298882961273, -0.1299915909767151, -0.10154698044061661, -0.13136330246925354], [0.03435057774186134, 1.1061842441558838, -0.11884511262178421, 0.01668458618223667, -0.36411339044570923, 0.2323780655860901, -0.8540070652961731, 0.1400703340768814, -0.3369436264038086, -0.1653423309326172, -0.14084996283054352, 0.17372266948223114, -0.15895873308181763, 0.3023800551891327, -0.2460363805294037, 0.2167150229215622, 0.47500139474868774, -0.8649709820747375, -0.17823843657970428, 0.32073551416397095, 0.016375765204429626, 0.017344189807772636, 0.42010554671287537, -0.1770545244216919, -0.3339391350746155, 0.40528222918510437, 0.24692262709140778, -0.5412865281105042, 0.1146184429526329, 0.36782965064048767, -0.3385375440120697, 0.31927764415740967, 0.9286216497421265, -0.11561959981918335, -0.15316589176654816, 1.2420934438705444, 0.26846662163734436, 0.4422987401485443, 0.06930198520421982, 0.42540863156318665, 0.7084137201309204, -0.17671486735343933, 0.12004044651985168, -0.5210487842559814, -1.3063992261886597, 0.7165471315383911, -0.012005050666630268, -0.479358434677124, 0.36745211482048035, 0.01253834180533886, 0.9239093661308289, -0.06857775896787643, -0.33480143547058105, -0.3700334429740906, -0.5015698671340942, 0.791365921497345, 0.31521132588386536, -0.9501770734786987, 0.349735289812088, -0.7381309270858765, 0.5249695181846619, -0.159133180975914, 0.8088380098342896, 1.6056647300720215], [-0.4974389374256134, 0.08774757385253906, -0.015062445774674416, 0.26200631260871887, -0.05247974768280983, -0.42607569694519043, -0.1371525228023529, -0.5202935934066772, -0.21248078346252441, 0.452711820602417, -0.2832026183605194, -0.02786346524953842, -0.5602627992630005, 0.9774861335754395, 0.2675125300884247, 0.1695593148469925, -0.13725145161151886, 0.43390896916389465, 0.1666041910648346, 0.29029300808906555, 0.18779370188713074, 0.33735063672065735, -0.22699052095413208, 0.14428924024105072, 0.14432808756828308, -0.2734989523887634, -0.6017494797706604, -0.016397245228290558, -0.43875187635421753, 0.13416458666324615, 0.1547464281320572, -0.01289578340947628, 0.24508386850357056, -0.27556562423706055, 0.2541663348674774, 0.08765161782503128, 0.2762375771999359, 0.4736541211605072, 0.2949995994567871, 0.10579436272382736, 0.05765070766210556, 0.051736462861299515, -0.36035916209220886, -0.12049086391925812, 0.2030283510684967, 0.37743744254112244, 0.4729836583137512, -0.13285094499588013, 0.1466432809829712, -0.21538366377353668, 0.1722973734140396, 0.18745139241218567, -0.45212385058403015, 0.5107679963111877, -0.13416795432567596, 0.1601191610097885, 0.18699026107788086, 0.23658163845539093, 0.40009140968322754, 0.031336843967437744, -0.5084448456764221, 0.5587356686592102, 0.2065538614988327, 0.24214182794094086], [-0.4675009250640869, -0.16417749226093292, -0.33232957124710083, 0.47659802436828613, 0.2693435251712799, -0.2011522650718689, 0.1360587626695633, -0.27607035636901855, -0.4136269688606262, -0.12992015480995178, -0.492151141166687, -0.033962637186050415, 0.03954030200839043, -0.32108548283576965, 0.3953976631164551, 0.3293101489543915, 0.108340322971344, 0.295793354511261, 0.19259227812290192, 0.27921900153160095, 0.4852678179740906, 0.03414937108755112, 0.21809743344783783, -0.08032391965389252, -0.06601518392562866, -0.36806777119636536, -0.5345548987388611, 0.002737916773185134, -0.01852450519800186, -0.06750493496656418, 0.23436321318149567, 0.0303768552839756, 0.3574822247028351, -0.29690659046173096, 0.2558099031448364, -0.34675395488739014, 0.04983026906847954, 0.26409316062927246, 0.3595627546310425, 0.41260504722595215, -0.05552424490451813, 0.13496504724025726, 0.13831529021263123, 0.26307055354118347, 0.4789060354232788, 0.2685619592666626, 0.33055782318115234, 0.15685433149337769, -0.01623941957950592, -0.7607050538063049, -0.016252823173999786, -0.04343302547931671, -0.2843688428401947, 0.5018420219421387, 0.16119757294654846, 0.306075781583786, 0.23455223441123962, -0.08730489015579224, 0.8249497413635254, 0.2358049750328064, -0.6272539496421814, 0.2975391745567322, 0.0945996418595314, 0.06106218323111534], [-0.12019307166337967, 0.0048697530291974545, 0.03941193222999573, -0.07901236414909363, 0.10156327486038208, -0.06338348984718323, 0.11852290481328964, 0.17292548716068268, -0.08550675213336945, 0.36413300037384033, -0.04401739314198494, -0.3730854392051697, -0.024243127554655075, -0.014653283171355724, 0.3868878185749054, -0.2986033856868744, 0.38654470443725586, 0.3753192722797394, -0.5722249150276184, 0.013450725935399532, 0.012006538920104504, 0.10317060351371765, -0.23376406729221344, 0.029510989785194397, 0.2506774365901947, -0.7704744338989258, -0.8972446322441101, -0.49764570593833923, -0.2881632149219513, -0.4718935787677765, 0.2978557348251343, 0.4355948269367218, 0.2825453281402588, 0.036053821444511414, -0.09478139877319336, -0.05108829215168953, 0.4504562020301819, 0.9008967876434326, -0.23548711836338043, 0.06682217121124268, 0.9250363707542419, 0.8182435631752014, -0.7830135226249695, 0.0003310020547360182, 0.10907343775033951, 0.03392215818166733, 0.1957801878452301, -0.010812127031385899, 0.38448330760002136, -0.21250946819782257, 0.06731903553009033, 0.06822986155748367, 0.020130028948187828, 0.0520813874900341, 0.1214224100112915, 0.40152353048324585, -0.03687092661857605, 0.520662784576416, 0.3270496428012848, -0.3015580475330353, -0.040990088135004044, -0.3745574951171875, 0.643591582775116, 0.37778472900390625], [-0.42164361476898193, -0.08193247765302658, 0.4271092712879181, 0.2770957350730896, 0.16550157964229584, -0.19410261511802673, -0.13262821733951569, -0.10186503827571869, 0.2324085831642151, 0.34927231073379517, -0.16187219321727753, 0.2674626410007477, -0.2013547420501709, -0.0975029468536377, -0.04873945564031601, 0.10914108157157898, -0.7510021328926086, -0.18334132432937622, 0.09831497818231583, -0.05827372893691063, 0.30312076210975647, 0.7312158942222595, 0.30663418769836426, 0.29146066308021545, -0.08989851921796799, 0.2565898597240448, -0.14141805469989777, -0.15840405225753784, 0.024026602506637573, -0.052628349512815475, 0.22755061089992523, -0.16351467370986938, 0.22247891128063202, -0.009723044000566006, -0.07546146959066391, -0.23190952837467194, -0.11888983100652695, 0.43402475118637085, -0.19606651365756989, 0.5403110980987549, 0.04298638924956322, -0.18996605277061462, 0.11358610540628433, 0.1502910852432251, 0.2586463987827301, 0.5997534394264221, 0.269148588180542, 0.22089414298534393, 0.359878271818161, -0.1651817113161087, 0.14166490733623505, 0.8153632283210754, -0.40997523069381714, 1.0213048458099365, -0.5819999575614929, 0.138082355260849, -0.007338440045714378, -0.20710302889347076, 0.4655834436416626, -0.1605110466480255, -0.29023313522338867, 0.22646167874336243, -0.22352418303489685, 0.09596335142850876], [-0.13776902854442596, 0.7309485077857971, 0.1331469863653183, -0.11138647794723511, 0.15279656648635864, 0.26794207096099854, -1.170078158378601, 0.020499739795923233, -0.00021167022350709885, -0.014676462858915329, 0.0497460700571537, 0.5363049507141113, 0.04268438369035721, -0.07427998632192612, 0.09602438658475876, -0.4668408930301666, 0.4556329548358917, -0.02148081548511982, 0.007699039299041033, 0.1406724750995636, 0.017479045316576958, -0.02973266877233982, -0.3450123071670532, -0.22071042656898499, -0.2764538824558258, 0.4089686870574951, -0.004333562683314085, 0.16892102360725403, 0.1818460077047348, -0.0346076600253582, 0.3122237026691437, 0.24309493601322174, -0.20026741921901703, 0.005983452778309584, 0.04737916588783264, -0.8511403799057007, -0.42031577229499817, -0.03880585730075836, 0.21775704622268677, 0.2044171392917633, 0.428559273481369, -0.6367015838623047, 0.4743330180644989, 0.2108655720949173, -0.35827717185020447, 0.3593410551548004, -0.19121874868869781, -0.8522987365722656, -0.16115644574165344, -0.016657717525959015, 0.17877021431922913, 0.002677511889487505, 0.182832270860672, -0.5474632382392883, -0.3621332347393036, -0.530106246471405, -0.2525516748428345, 0.07749173045158386, 0.12795399129390717, 0.07840529084205627, -0.49225491285324097, 0.3821900188922882, 0.09896879643201828, 0.01998821087181568], [-0.25046050548553467, -0.23840978741645813, -0.9011029601097107, 0.8002026081085205, -0.11866175383329391, -0.4206863343715668, 0.23451071977615356, -0.13429541885852814, -0.6126841306686401, 0.08916248381137848, -0.33410611748695374, -0.6706758141517639, 0.10323795676231384, 0.22835074365139008, 0.563318133354187, 0.14687250554561615, -0.21949055790901184, -0.29535627365112305, 0.3003254532814026, 0.6363798975944519, 0.6495229601860046, 0.6067997813224792, -0.12239944189786911, 0.11124096065759659, -0.016823144629597664, -0.276414155960083, -0.13196498155593872, -0.7093437314033508, -0.2291683703660965, 0.16951081156730652, -0.05753660202026367, -0.08815575391054153, 0.3134618401527405, -0.078745536506176, -0.07781023532152176, 0.20287838578224182, 0.16709789633750916, 0.8329989314079285, 0.0700482502579689, 0.8736963272094727, 0.10467378795146942, 0.22569403052330017, -0.34778815507888794, -0.15509818494319916, 0.19539859890937805, 0.2834324836730957, 0.2705574631690979, 0.02095235511660576, 0.2990783751010895, -0.7029721140861511, -0.029717272147536278, 0.35989439487457275, -0.4491138756275177, 0.31419846415519714, -0.18128365278244019, 0.782875657081604, 0.7787330746650696, 0.09350218623876572, 1.0720887184143066, 0.09660658985376358, -0.32904332876205444, -0.1764935702085495, 0.37919652462005615, 0.7803325653076172], [-0.5425606966018677, -0.11779600381851196, -0.32910922169685364, -0.41800811886787415, -0.8375463485717773, -0.2016436904668808, -0.3668109178543091, 0.49412134289741516, -0.07465171068906784, 0.09201397746801376, -0.14484478533267975, -0.010101334191858768, -0.9600926041603088, 0.28227367997169495, -0.41817235946655273, 0.07676813006401062, 0.31668779253959656, 0.029704079031944275, 0.20465826988220215, 0.14951273798942566, 0.3347322642803192, 0.3498171865940094, -0.2710503935813904, 0.2428814023733139, -0.04257846623659134, 0.7047870755195618, -0.06569325178861618, 0.6214269995689392, -0.2783196270465851, -0.3680603504180908, 0.22128832340240479, 0.031605739146471024, -0.4674011766910553, -0.32335755228996277, 0.1625966578722, 0.40460607409477234, -0.02150881290435791, 0.6670362949371338, 0.38520747423171997, -0.27441513538360596, 0.1388300657272339, 0.14906752109527588, -0.17691031098365784, -0.19908635318279266, 0.721468985080719, 0.283562034368515, 0.9725512266159058, -0.48009517788887024, -0.028150510042905807, -0.30031901597976685, 0.5267579555511475, 0.3283473551273346, -0.33320489525794983, 0.07961652427911758, 0.5011336803436279, -0.3289983570575714, 0.07190324366092682, 0.709956705570221, 0.4009036421775818, 0.5769726037979126, -0.5493292212486267, -0.19042551517486572, 0.09596942365169525, 0.5540388226509094], [0.0007169300224632025, -0.07372336089611053, 0.13859565556049347, -0.1964837908744812, -0.05919243395328522, 0.03137765824794769, 0.06633996963500977, -0.20015567541122437, -0.21449904143810272, 0.011490806005895138, 0.24076654016971588, -0.21664901077747345, 0.06491793692111969, -0.11834902316331863, 0.445944219827652, -0.011771056801080704, 0.06249656900763512, -0.05045514181256294, -0.032690804451704025, 0.1894044280052185, 0.12938721477985382, -0.11978486180305481, -0.29317158460617065, -0.1915598064661026, 0.29847028851509094, -0.5687748193740845, 0.08834105730056763, -0.11400862038135529, -0.007549433968961239, 0.2549322545528412, -0.46581628918647766, -0.054502297192811966, -0.2369127720594406, -0.4386112093925476, 0.37684518098831177, 0.3751419186592102, -0.14656905829906464, 0.12988238036632538, -0.12774266302585602, -0.0706157386302948, 0.019493425264954567, 0.4456450045108795, 0.26959338784217834, -0.10814322531223297, 0.1547127664089203, -0.45975005626678467, -0.30241742730140686, 0.2513902187347412, -0.30656933784484863, -0.067581407725811, -0.19536763429641724, -0.09614701569080353, 0.15424101054668427, 0.5143880844116211, -0.3283117413520813, -0.21348467469215393, 0.1693306267261505, 0.4033236801624298, 0.053421199321746826, 0.20159539580345154, 0.46808311343193054, 0.021661918610334396, -0.08666744083166122, -0.6354697346687317], [-0.8164857625961304, -0.41903555393218994, -0.27861499786376953, 0.4265824556350708, 0.3091496229171753, -0.8776777386665344, 0.407137006521225, -0.5517268776893616, -0.5300096869468689, -0.12661850452423096, -0.6998597979545593, 0.21100986003875732, -0.3915645480155945, 0.90158611536026, 0.23601658642292023, 0.20243555307388306, -0.4756717085838318, 0.01197325624525547, 0.4631654918193817, 0.4436105787754059, 0.4489869475364685, 0.46370959281921387, -0.07731805741786957, 0.4592020809650421, 0.3665778636932373, 0.1444069892168045, -0.4639528691768646, -0.9333583116531372, -0.5147650837898254, -0.35549652576446533, -0.5848419666290283, -0.09063936769962311, -0.0322427824139595, -0.6679542064666748, 0.47126805782318115, -0.17207980155944824, -0.199434295296669, 0.378371000289917, -0.7219343185424805, 0.4995661675930023, -0.37852227687835693, 0.6771643757820129, -0.09172574430704117, -0.27270692586898804, 1.206634283065796, 0.15114286541938782, 0.4259982407093048, 0.1933140605688095, -0.35695427656173706, -0.4868946969509125, 0.46071377396583557, 0.64239901304245, -0.8806363940238953, -0.11966171860694885, -0.6750971078872681, 0.32402753829956055, 0.3781393766403198, 0.4772460162639618, 0.5341711044311523, 0.4541797935962677, -0.7452720403671265, 0.4448908567428589, 1.2392410039901733, 0.3925328254699707], [-0.5246352553367615, 0.3279460370540619, -0.7603873610496521, 0.010006697848439217, 0.20479704439640045, -0.48206865787506104, -0.49695396423339844, -0.17684440314769745, 0.27419519424438477, 0.2806459069252014, -0.6314519047737122, -0.15263116359710693, 0.17689383029937744, -0.3835241496562958, 0.18663667142391205, 1.0654667615890503, -0.4013962745666504, 0.07082178443670273, -0.2187790721654892, 0.2746303975582123, 0.19976770877838135, 0.06753578782081604, -0.6009602546691895, -0.1735832393169403, -0.23614449799060822, -0.27701377868652344, 0.3566027581691742, 0.0318540595471859, 0.1919219046831131, 0.7296091914176941, -0.21342501044273376, 0.08168341964483261, 0.637536346912384, -0.7176883816719055, 0.18541976809501648, 0.5563626289367676, -0.11921045184135437, 0.6031752228736877, -0.16414517164230347, 0.2743805944919586, 0.00942600890994072, -0.4491133689880371, 0.2344130575656891, -0.5837910771369934, -0.40937092900276184, -0.3399829566478729, 0.03874502331018448, -0.3343484699726105, -0.32007965445518494, -0.15852509438991547, -0.6819241642951965, -0.16018536686897278, -0.7171764969825745, 0.19690817594528198, -0.2917250394821167, -0.3094460070133209, 0.3317400813102722, 0.0907539576292038, 0.19221125543117523, 0.18374088406562805, 0.07482798397541046, 0.09952304512262344, 0.18253830075263977, 0.34140893816947937], [0.2599800229072571, 0.5544868111610413, -0.37610796093940735, -0.7104799747467041, 0.5476838946342468, 0.583821177482605, 1.1304054260253906, 0.6572147011756897, -0.6251146197319031, -0.37490928173065186, 1.011542797088623, 0.5143294334411621, 1.136871337890625, 0.006071395706385374, 1.3094676733016968, -0.6762323379516602, 0.2565423548221588, 0.3614342212677002, -0.5345699787139893, 0.1261425018310547, -0.04294915869832039, -0.5871737003326416, -0.5170772671699524, -1.1223771572113037, -0.40533432364463806, -0.23118862509727478, -0.3712694048881531, 0.7495102882385254, 0.6104044914245605, 1.7829811573028564, -0.0925198420882225, 0.40428847074508667, 0.36536988615989685, -0.5070770978927612, 0.15911425650119781, 0.14539022743701935, 0.4151647090911865, 0.9694547653198242, -1.4124186038970947, -0.8905688524246216, -1.7875304222106934, -0.07197688519954681, 0.14323276281356812, -0.7401118278503418, -1.0008107423782349, -1.223557710647583, 0.14960728585720062, 0.3732021450996399, -0.44433730840682983, -0.3008391857147217, -1.6248561143875122, -0.7726336121559143, 1.413420557975769, 0.05636034533381462, -0.1279628723859787, -1.6005836725234985, 0.40053126215934753, 0.2989051043987274, -0.6161268353462219, 0.6539319157600403, -0.413802832365036, 0.4270368814468384, -1.1205880641937256, 0.5215049386024475], [0.49167367815971375, -0.3438917398452759, -0.5352117419242859, 0.10896202176809311, -0.04091325402259827, -0.27693861722946167, -0.3168315589427948, 0.31577497720718384, -0.0365598127245903, 0.08975385129451752, -0.503855288028717, -0.1979188621044159, 0.3029320538043976, 0.3253248929977417, 0.6153831481933594, -0.29404255747795105, 0.04558052495121956, 0.006355580873787403, 0.17272517085075378, -0.34155815839767456, -0.2930886447429657, -0.17559173703193665, 0.0071946741081774235, -0.5996782779693604, -0.2548253536224365, -0.534386396408081, 0.13628920912742615, -0.12969209253787994, -0.18524016439914703, 0.0038653637748211622, 0.15110966563224792, 0.190107062458992, -0.00027373668854124844, 0.1139129251241684, 0.2060585469007492, 0.09798870980739594, 0.37971505522727966, 0.10191766172647476, -0.04281604662537575, 0.08011149615049362, -0.3845618665218353, -0.5457163453102112, 0.3871035873889923, -0.015078859403729439, 0.17734713852405548, -0.7281677722930908, -0.31453877687454224, 0.3163408637046814, -0.1178605705499649, -0.04933425411581993, -0.11584099382162094, -0.2945556044578552, 0.18214556574821472, 0.26042675971984863, -0.405646413564682, -0.5377135276794434, -0.3097158372402191, 0.31477949023246765, 0.059414200484752655, 0.465041846036911, -0.17451369762420654, -0.21633373200893402, 0.1588708460330963, -0.6980300545692444], [-0.1971808522939682, 0.6481412053108215, 0.6726935505867004, 0.22975268959999084, 0.26606282591819763, 0.29832276701927185, -0.6908588409423828, 0.5130322575569153, -0.20897625386714935, 0.7140877842903137, 0.8412443995475769, 0.0846959799528122, -0.05468342825770378, 0.1941058486700058, 0.47540614008903503, -0.38561198115348816, -0.2143670916557312, 0.5664960741996765, -0.4203239679336548, -0.14035822451114655, 0.26815134286880493, -0.18071167171001434, -0.48428434133529663, -0.3373091518878937, -1.0962194204330444, -0.5634081363677979, -0.3995964527130127, 0.02029424160718918, 0.5205227732658386, -0.91634601354599, 0.42794930934906006, 0.29445481300354004, 0.7014440894126892, 0.44629913568496704, -0.035705938935279846, -0.5338121056556702, -0.3064214885234833, 0.024662764742970467, 0.18457092344760895, 0.6171770691871643, 0.3181344270706177, -0.3313749134540558, 0.06022212281823158, 0.3505397140979767, 0.06888724863529205, -0.0297386534512043, -0.2776837944984436, -0.47590288519859314, 0.2819954752922058, -0.21429716050624847, 0.1783846914768219, -0.27469685673713684, 0.3845411539077759, 0.029419487342238426, -0.7062212228775024, 0.19392898678779602, 0.048137933015823364, -0.37626761198043823, 0.24464498460292816, -1.232432246208191, -0.6205604076385498, 0.20790474116802216, -0.09157099574804306, 0.0897836685180664], [-0.29750657081604004, 0.350771427154541, 0.422349750995636, 0.5084972977638245, -0.1951393038034439, 0.08528050780296326, -0.3458346426486969, -0.4876832664012909, 0.12179064750671387, 0.6168286204338074, -0.028433404862880707, -0.2699703574180603, -0.257569283246994, 0.16667582094669342, -0.030395127832889557, -0.5874359011650085, -0.3504125773906708, 0.5980370044708252, -0.3307259678840637, -0.2620948255062103, 0.08536369353532791, 0.27957621216773987, -0.31597083806991577, 0.17268985509872437, -0.13159050047397614, -0.17054972052574158, -0.7368757128715515, 0.2633987367153168, 0.4135652482509613, -1.3387889862060547, -0.009453733451664448, 0.4335278570652008, 0.5284688472747803, 0.3781310021877289, -0.3829024136066437, -1.5398964881896973, -0.13202950358390808, 0.6570181250572205, -0.11176139861345291, 0.11849778890609741, 0.1523265838623047, -0.1438567191362381, -0.5851720571517944, 0.5505496263504028, 0.5317597985267639, 0.6556121110916138, 0.0861506462097168, -0.3128504157066345, 0.1974269598722458, -0.2696163058280945, 0.4171629548072815, 0.018968356773257256, 0.20810195803642273, 0.534709632396698, -0.0498119555413723, -0.6252831220626831, 0.0998421162366867, 0.34163734316825867, 0.34123876690864563, -0.06834574043750763, -1.149338960647583, 0.4683985114097595, -0.99934983253479, -0.5604298114776611], [-0.10970737785100937, -0.08492055535316467, -0.6189365983009338, 0.6370172500610352, -0.06434307992458344, -0.13607987761497498, 0.17428308725357056, -0.07291223853826523, 0.0008344912203028798, -0.13352170586585999, -0.4643797278404236, 0.3877097964286804, 0.27102968096733093, 0.5139608979225159, 0.27011075615882874, -0.3570055365562439, 0.777452826499939, -0.34308984875679016, 0.4929288625717163, 0.09530537575483322, 0.41987746953964233, 0.22002558410167694, 0.4168088138103485, 0.11388327926397324, -0.7350858449935913, 0.36618947982788086, 0.4659911096096039, -0.04642605409026146, -0.23832625150680542, -0.14267073571681976, -0.11890039592981339, -0.9173851609230042, -0.7954113483428955, 0.1291312277317047, -0.2780650854110718, -0.9858574867248535, -0.19528880715370178, -0.13170640170574188, 0.11542508006095886, 0.6057945489883423, -0.5402534008026123, -0.24970892071723938, 0.9097256660461426, 0.43723464012145996, 1.8699358701705933, 1.3183155059814453, 0.28879326581954956, 0.7041119337081909, 0.06933140009641647, -0.44950535893440247, 0.0961894690990448, 0.06969928741455078, 0.04403580352663994, -0.056874316185712814, 0.47001713514328003, -0.757821261882782, 0.17732791602611542, 0.02723466232419014, 0.33897408843040466, 0.2642151415348053, 0.294281005859375, -0.45179638266563416, 0.4663776755332947, 0.05876561999320984], [0.8609373569488525, 0.027875324711203575, -0.5437634587287903, -0.1151755079627037, -0.738264799118042, 0.19965645670890808, -0.051453158259391785, -0.11255238205194473, -0.4992803931236267, -0.3319697380065918, -0.14853931963443756, 0.4309246838092804, 0.1807178407907486, 0.7469172477722168, 0.20112621784210205, 0.11200517416000366, -1.0704219341278076, -0.5795289874076843, 0.23409706354141235, 0.3690556585788727, -0.0024763387627899647, 0.1451328843832016, 0.3050287067890167, 0.10242349654436111, -0.4850670397281647, 0.1218869537115097, 0.5606361031532288, 0.11388274282217026, -0.047640085220336914, 0.6097751259803772, 0.2557936906814575, -0.010627602227032185, -0.7491153478622437, -0.11452814191579819, 0.200236514210701, -0.007487000431865454, -0.22264382243156433, 0.29745349287986755, -0.8738968372344971, 0.19412338733673096, -0.080558180809021, -0.12226680666208267, 0.0494021475315094, -0.6607509851455688, -0.561988353729248, 0.12388885021209717, -0.1318926364183426, 1.745735764503479, 0.2674485743045807, 0.09955433011054993, 0.32072827219963074, 0.24904368817806244, -0.15175515413284302, 0.5732414126396179, -0.11589138954877853, 0.16969646513462067, 0.012156118638813496, -0.984609067440033, 0.03172215819358826, -0.3827100098133087, 1.172577142715454, -0.3004510998725891, 0.784899890422821, 0.5121245384216309], [0.16587823629379272, -0.03123229369521141, -1.0340880155563354, 0.4623383581638336, 0.3428855538368225, -0.2660004794597626, 0.7380281686782837, -0.6335455775260925, -0.3478430211544037, 0.036107663065195084, -0.10308605432510376, -0.1231127604842186, 0.5245926976203918, -0.5629645586013794, 0.08982116729021072, -0.2525207996368408, -0.023620495572686195, -0.10718153417110443, 0.3449219763278961, 0.06673053652048111, 0.2638304829597473, 0.27986907958984375, 1.1133227348327637, 0.28412070870399475, -0.3316856324672699, 0.07495171576738358, -0.35836783051490784, 0.2451617270708084, -0.21531377732753754, -0.09191391617059708, 0.682379961013794, -0.5600019097328186, 0.7824634909629822, -0.36401739716529846, 0.18656562268733978, -0.5267494916915894, -0.004359791520982981, -0.3435772955417633, -0.894504725933075, 0.9550920724868774, -0.49841389060020447, -0.9158755540847778, 0.25468909740448, 0.8259173631668091, 0.6943730711936951, -0.6042299270629883, 0.3849630653858185, -0.2108778953552246, 0.32663384079933167, -0.4069066643714905, -0.1692022979259491, 0.28793400526046753, -0.12133946269750595, 0.8208487629890442, 0.4160064160823822, 0.26473838090896606, 0.453427255153656, -0.2995356321334839, 0.27665504813194275, -0.01752089522778988, -2.707051992416382, 0.030515871942043304, 0.22441452741622925, -0.597928524017334], [-0.45737168192863464, -0.0069405511021614075, -0.6714206337928772, -0.13710986077785492, -0.006620163097977638, -0.3672464191913605, 0.43417543172836304, 0.0018262903904542327, -0.39193329215049744, -0.6853041648864746, -0.7032119631767273, 0.33159366250038147, -0.6363397240638733, 0.33370858430862427, -0.04721428081393242, -0.01955382525920868, -0.48509690165519714, -0.3797794580459595, 0.1511537730693817, 0.4504421651363373, 0.34595590829849243, 0.7177670001983643, -0.8328701257705688, 0.2281208485364914, 0.11968076974153519, 0.4081079661846161, -0.4140598773956299, 0.13802151381969452, -0.2074338048696518, 0.4690430760383606, -0.08207462728023529, 0.10564591735601425, -0.2874329686164856, -0.6870836615562439, -0.2897232174873352, 0.09150218218564987, 0.1424359679222107, 0.11096011847257614, -0.312358021736145, 0.031207678839564323, 0.17575189471244812, 0.35444897413253784, -0.14661669731140137, -0.06099739670753479, -0.040687255561351776, 0.404161661863327, 0.4229862093925476, -0.4003509283065796, 0.20474404096603394, -0.3438805937767029, 0.4779052436351776, 0.6603327393531799, -0.800332248210907, 0.4938184320926666, 0.16371013224124908, 0.13323622941970825, 0.7522335052490234, 0.4869411289691925, 0.24872131645679474, 0.34769734740257263, -0.6832854151725769, -0.27701470255851746, 0.5651404857635498, 0.21464237570762634], [-0.9188163876533508, 0.14588691294193268, -0.04733990505337715, -0.3823867738246918, -0.31892475485801697, -0.2596144676208496, 1.2620030641555786, 2.045536756515503, -0.2629961669445038, 0.39087915420532227, 0.01928202249109745, 0.24188163876533508, -1.0099854469299316, 0.16923849284648895, 0.06762707978487015, 0.3828762173652649, -0.5394082069396973, -0.16668957471847534, 0.019407328218221664, 0.08572980016469955, -0.15490397810935974, 0.16443414986133575, -1.2727532386779785, 0.012358185835182667, 0.22612284123897552, 0.21734528243541718, 0.3248051404953003, -0.4333348870277405, 0.32729268074035645, 0.17435701191425323, -0.7228924036026001, -0.13244082033634186, 0.16851237416267395, -0.5059647560119629, 0.07565172761678696, -0.5654574036598206, 0.13641266524791718, 0.13306574523448944, 0.39569124579429626, -0.5661205649375916, 0.23176509141921997, 1.108160376548767, -0.18047504127025604, -1.1177122592926025, -0.8796823024749756, 0.28494811058044434, 0.10913711041212082, -0.26250219345092773, 0.010949735529720783, -0.056043289601802826, 1.1024718284606934, 0.17258016765117645, 0.0023013995960354805, 0.9645712971687317, -0.2009311467409134, -0.2942126989364624, 0.4599078893661499, 0.1794995814561844, -0.054271019995212555, -0.09166117757558823, -1.011626958847046, -0.1840364784002304, 0.7256296873092651, 0.35094499588012695], [0.03247566893696785, 0.41218531131744385, -0.645034909248352, -0.19057270884513855, 0.23115994036197662, 0.19274836778640747, 0.32989850640296936, -0.8666372895240784, -0.5557677149772644, -0.1962524950504303, 0.072300024330616, 0.005052267108112574, -0.22659561038017273, -0.35786134004592896, 0.30390796065330505, 0.0233918447047472, -0.5500480532646179, 0.5155975222587585, -0.17227236926555634, 0.4806476831436157, 0.3508602976799011, 0.31797805428504944, -0.8499789834022522, -0.14909625053405762, 0.0322309285402298, -0.3272114098072052, -0.465810626745224, -0.11031834781169891, 0.0747714713215828, 0.15253646671772003, 0.49287280440330505, 0.35603010654449463, -0.03370384871959686, -0.6971510648727417, -0.23310822248458862, -0.2937430143356323, 0.23959589004516602, 0.20485788583755493, -0.11971065402030945, -0.21841922402381897, 0.024000154808163643, 0.38379019498825073, -0.3817344307899475, -0.1902114450931549, 0.5333389639854431, -0.21900980174541473, 0.3518238365650177, 0.3122219145298004, 0.008176843635737896, -0.563542902469635, -1.4868396520614624, -0.02759363502264023, 0.08671517670154572, 0.9965723752975464, 0.5965287685394287, -0.16869768500328064, 0.7061058878898621, 0.6720671057701111, -0.0461803674697876, 0.4738563895225525, -0.6563102006912231, -0.1612672209739685, -0.18383069336414337, 0.4006926119327545], [-0.028844820335507393, -0.07903958857059479, -0.7876087427139282, 0.24419356882572174, 0.44298452138900757, -0.0036187018267810345, -0.2647656798362732, -0.20060472190380096, 0.006926649250090122, 0.4998190104961395, -0.14400644600391388, -0.020008089020848274, -0.31535670161247253, -0.7608012557029724, 0.2561891973018646, -0.26122453808784485, -0.5829360485076904, 0.7605114579200745, -0.20236219465732574, 0.12490900605916977, 0.21893492341041565, 0.22250166535377502, 0.30813461542129517, 0.4079848825931549, 0.3753253221511841, -0.07238337397575378, -0.1877003312110901, -0.00520172156393528, 0.38157784938812256, -0.1761665642261505, 0.8068370223045349, 0.5766512751579285, 0.619659960269928, -0.13869601488113403, -0.28238314390182495, -0.08068433403968811, -0.3238540589809418, 0.9419212937355042, -0.0956505835056305, 0.38850975036621094, 0.1761265993118286, -0.26408958435058594, -0.40698060393333435, 0.6469655632972717, 0.20567603409290314, -0.14813977479934692, 0.24526549875736237, -0.2737520933151245, 0.5050352811813354, -0.09414661675691605, -0.42365550994873047, 0.3170122504234314, -0.12959961593151093, 0.12747062742710114, -0.0902702733874321, 0.24104826152324677, 0.1628929078578949, -0.02845589444041252, 0.31993693113327026, -0.09962043911218643, 0.03937763348221779, 0.4191371500492096, -0.004992604721337557, 0.09459459781646729], [-1.1652319431304932, -0.08078845590353012, 0.582122802734375, -0.11844368278980255, 1.504905104637146, -0.2313787043094635, 0.46875616908073425, -0.32066822052001953, 0.3438339829444885, 0.8960779905319214, -0.004739970900118351, 0.6859281063079834, 0.5066942572593689, -0.19165633618831635, -0.12084130942821503, 0.7159719467163086, 0.13402849435806274, -0.37003788352012634, -0.2197868824005127, -0.21473141014575958, -0.23294490575790405, -0.0953165665268898, -0.8133631944656372, -0.1385956108570099, -0.29510825872421265, 0.06897028535604477, 0.49738138914108276, -0.7910980582237244, -0.3114371597766876, -0.9636247158050537, -0.621120035648346, -0.10135018080472946, 0.5458769798278809, -0.1052335724234581, -0.5166065692901611, -0.8414023518562317, -0.30724039673805237, 0.4170733392238617, 0.8852919936180115, -0.3594640791416168, 0.521563708782196, -0.30703333020210266, -0.3802814483642578, -0.4261813759803772, -0.1432000696659088, -1.0351622104644775, -0.7240980863571167, -0.3734883964061737, -0.026484493166208267, 0.4574532210826874, 0.4741930663585663, 0.16677746176719666, -0.5031339526176453, 0.03146766871213913, -1.2296390533447266, 0.6725233197212219, 0.09015648066997528, -0.09950939565896988, 0.05353214591741562, -0.11679867655038834, -1.5397924184799194, 0.07372681051492691, -0.33389198780059814, 0.5620739459991455], [-0.7637520432472229, 0.12939807772636414, -0.6384910345077515, 0.5327680706977844, 0.46673399209976196, -0.9606862664222717, 1.3403600454330444, -0.41815146803855896, -0.5118401050567627, 0.006617210805416107, -0.573797345161438, -0.3179962635040283, -0.4081059396266937, 0.08689600974321365, 0.6687355637550354, 0.24922412633895874, -0.23602290451526642, -0.17565986514091492, -0.20854119956493378, 0.7233865261077881, 1.0368568897247314, 0.871418297290802, -0.11430476605892181, 0.6864961385726929, 0.06297795474529266, -0.4094310402870178, 0.016919434070587158, -0.7916973829269409, -0.013654212467372417, 0.7605060935020447, 0.39931055903434753, 0.21578095853328705, 0.6261723041534424, -0.47667548060417175, -0.04093357175588608, 1.2615559101104736, 0.6932055354118347, 0.4061949551105499, 0.6031562089920044, 0.8493762016296387, 0.2920931875705719, 0.8898797631263733, -0.33597904443740845, -0.007993103936314583, 0.1840488761663437, -0.26149269938468933, 0.8002272248268127, 0.08926770091056824, 0.31513145565986633, -0.7860944867134094, -0.29024049639701843, 0.742073655128479, -0.8786875009536743, 1.0325281620025635, -0.8046932220458984, 0.35593289136886597, 1.1538381576538086, 0.09945026785135269, 0.7848833203315735, -0.4933164417743683, -0.26892364025115967, -0.4603217840194702, 0.6756386160850525, 0.950455367565155], [-0.005371148232370615, 0.13351067900657654, -0.9881241321563721, -0.22509993612766266, -0.14343133568763733, 0.06670111417770386, 0.5464563369750977, 1.8066737651824951, 0.04097316414117813, -0.2534794211387634, 0.04817629233002663, 0.5223830938339233, -0.6073427796363831, 0.8140894770622253, 0.17996710538864136, 0.27869364619255066, -1.4168095588684082, 0.04877915605902672, -0.09435447305440903, 0.11092563718557358, 0.028487730771303177, -0.23834870755672455, -0.07445266097784042, -0.27977362275123596, -0.7605496048927307, -0.026489736512303352, 0.5148906111717224, 0.38348937034606934, 0.4276057779788971, 0.1020449697971344, -0.9562661647796631, -0.20162566006183624, -0.07441961020231247, -0.10711433738470078, -0.522851824760437, -0.5409260392189026, -0.29989200830459595, 0.013399025425314903, 0.30403000116348267, -0.33536484837532043, -0.7252073287963867, 0.24022172391414642, 0.37398308515548706, -0.6037778854370117, -1.2577508687973022, 0.01643083617091179, 0.4225212335586548, 0.20990604162216187, -0.31800538301467896, -0.05903542414307594, -0.10742583125829697, -0.5143064856529236, 0.03380802273750305, 0.6262951493263245, -0.3279152512550354, -0.4797704517841339, 0.13674402236938477, -0.0724119246006012, -0.4415847957134247, 0.4112998843193054, -0.2623918354511261, 0.19966526329517365, 0.08648091554641724, 0.7917198538780212], [0.27305835485458374, -0.17556293308734894, 0.07430276274681091, -0.32122182846069336, -0.2417927235364914, 0.41208505630493164, -0.25764819979667664, 0.2580930292606354, 0.3901634216308594, 0.44268134236335754, 0.12998659908771515, 0.14596810936927795, 0.15405604243278503, 1.0402711629867554, -0.18894918262958527, -0.46532225608825684, 0.11266596615314484, -0.15561199188232422, 0.34425508975982666, -0.5304706692695618, -0.24221621453762054, -0.24792583286762238, 0.3265916109085083, -0.4424686133861542, -0.5423215627670288, 0.06044383347034454, 0.46660736203193665, 0.004776897374540567, 0.2475278377532959, -0.12857113778591156, 0.08322693407535553, -0.13914532959461212, -0.07037920504808426, 0.2059466540813446, -0.011070403270423412, -0.5808328986167908, -0.4285508096218109, -0.44738975167274475, 0.20449618995189667, -0.5778220891952515, -0.44662198424339294, -0.21574415266513824, 0.6325334310531616, -0.11411523073911667, 0.10746321082115173, -0.0034049474634230137, 0.025034494698047638, -0.11803629994392395, -0.35838890075683594, 0.5111300945281982, -0.3164937198162079, -0.1383536159992218, 0.45974481105804443, -0.14409515261650085, 0.11074600368738174, -0.5072274804115295, -0.27072691917419434, 0.3357561528682709, -0.24680225551128387, 0.10031206905841827, 0.2456056922674179, -0.05312648415565491, -0.5750350952148438, -0.14970433712005615], [0.7837550640106201, 0.02239817939698696, -0.711697518825531, 0.14693257212638855, -0.3712305426597595, -0.12131202220916748, -0.6279197335243225, -0.5877273082733154, -0.24742518365383148, 0.1888912469148636, -0.3744560182094574, 0.08533255010843277, -0.018913686275482178, 0.43807196617126465, -0.12652310729026794, -0.21135179698467255, 0.029189467430114746, -0.16189154982566833, 0.28116247057914734, -0.06054103374481201, -0.1527947634458542, -0.04367140308022499, 0.3640604317188263, -0.23713921010494232, -0.36280444264411926, 0.10648497194051743, -0.7117729783058167, 0.4267254173755646, -0.012087808921933174, -0.59842848777771, 0.030837081372737885, -0.1832178682088852, -0.4119322597980499, 0.19780494272708893, 0.13632415235042572, 0.12922123074531555, -0.05222385749220848, 0.40053489804267883, 0.2568431794643402, 0.1349433958530426, -0.09669884294271469, 0.04091829061508179, -0.1881055235862732, 0.4530988335609436, 0.9358041286468506, 0.6079342365264893, 0.09875728189945221, -0.8241668343544006, 0.18013609945774078, -0.23107081651687622, -0.23810607194900513, -0.43159690499305725, 0.002975394716486335, -0.4331494867801666, 0.19322974979877472, 0.14549997448921204, -0.1272452026605606, -0.021555067971348763, 0.10680858790874481, 0.26130154728889465, -0.492504745721817, 0.01702895015478134, -0.4025826156139374, -0.04333914443850517], [0.8055362105369568, -0.06760924309492111, -0.6759046912193298, 0.22630232572555542, 0.5599607825279236, -0.023629453033208847, -0.42054077982902527, -0.1587180197238922, -0.4837896525859833, -0.02653471753001213, -0.490304172039032, 0.38803133368492126, 0.7935802340507507, 0.17626766860485077, 0.2505185902118683, -0.32500264048576355, -0.43267807364463806, 0.0723213404417038, -0.027611520141363144, 0.04296477884054184, 0.14101354777812958, 0.24643927812576294, 0.34645161032676697, -0.044426921755075455, -0.7917081117630005, -0.09978575259447098, -0.20196983218193054, 0.09318358451128006, 0.05758941173553467, 0.06745388358831406, -0.3364034593105316, 0.33569034934043884, 0.43599748611450195, -0.13484205305576324, -0.04282452166080475, 0.11067590862512589, -0.04645572975277901, 0.26738956570625305, -1.3846772909164429, 0.5526039004325867, 0.6924184560775757, -0.2824110686779022, 0.4331989288330078, 0.13569842278957367, 0.09693915396928787, 0.6490856409072876, 0.31241509318351746, 0.24206796288490295, 0.19788512587547302, -0.24553516507148743, 0.3961929678916931, 0.13144712150096893, -0.1557638943195343, 0.2697933614253998, 0.2710361182689667, -0.2002391219139099, 0.15452934801578522, -0.5299822688102722, 0.23732469975948334, 0.08593899756669998, -0.8235719203948975, 0.009974655695259571, -0.25865232944488525, 0.029902571812272072], [-1.0346312522888184, 0.17624054849147797, -0.45112892985343933, 0.4112474322319031, 0.9388067126274109, -0.3982963263988495, 0.5418775677680969, -0.10064216703176498, -0.13616546988487244, 0.44924092292785645, -0.05240631103515625, 0.18004709482192993, -0.011250750161707401, -0.6824050545692444, 0.6772615909576416, 0.14005838334560394, -0.2918429374694824, -0.22444871068000793, 0.10699593275785446, 0.30495762825012207, 0.11080503463745117, 0.23105639219284058, 0.07145895808935165, -0.04705760255455971, 0.1445438116788864, 0.013682967983186245, 0.24744835495948792, -0.21331705152988434, 0.08367697149515152, 0.010714355856180191, -0.6359070539474487, 0.18586327135562897, 1.572446346282959, -0.39556702971458435, 0.32503336668014526, 0.1479463279247284, -0.049673307687044144, 0.12206552177667618, -0.4159589409828186, 0.46850183606147766, 0.2272275984287262, -0.0498117096722126, 0.10655366629362106, 0.5008270740509033, -0.17449535429477692, -0.22839237749576569, 0.5903673768043518, 0.022890090942382812, 0.7773500084877014, -0.294964462518692, 0.675666868686676, 0.23063154518604279, -0.3151894509792328, 1.6509686708450317, -0.5435243248939514, 0.6316822171211243, 0.24523985385894775, -0.3718920946121216, 0.4197917580604553, 0.24608302116394043, -0.9857549667358398, 0.21577408909797668, -0.160064697265625, -0.027441931888461113], [-0.16746054589748383, -0.2628723680973053, -0.9826945662498474, 0.10180770605802536, 0.5565091371536255, -0.2368568629026413, -0.4741554260253906, -0.32603564858436584, -0.3517855107784271, 0.14159078896045685, -0.3924659490585327, 0.1535361409187317, -0.1307385116815567, -0.28964555263519287, 0.4923844039440155, 0.44126686453819275, -0.017664270475506783, 0.35193756222724915, -0.123843714594841, -0.030647171661257744, 0.3397723138332367, 0.15584313869476318, -0.2848348617553711, -0.11399590224027634, -0.12618514895439148, -0.3807918131351471, -0.40320757031440735, -0.38435736298561096, -0.4151032567024231, -0.1617262214422226, 0.7916350960731506, 0.020743412896990776, 0.20093341171741486, -0.2282828688621521, 0.2747889757156372, -0.2528732419013977, 0.2651776969432831, 1.5294222831726074, -0.08526940643787384, 0.3122219145298004, 0.7191882729530334, 0.33455559611320496, 0.6752285957336426, -0.03179927170276642, 0.11815100908279419, -0.10601789504289627, 0.1408836841583252, 0.5228429436683655, -0.3949648439884186, -0.2038325071334839, 0.1770664006471634, 0.17843368649482727, -0.14320635795593262, 0.9647184610366821, -0.2676551938056946, -0.6035748720169067, 0.14590688049793243, 0.2279430478811264, 0.06851761043071747, 0.3460927903652191, 0.07771561294794083, 0.41608941555023193, 0.4576256275177002, 0.1324320286512375], [-0.8839505314826965, -1.6158095598220825, -0.6687461137771606, -0.5944681763648987, -0.2571602463722229, -0.6327083110809326, 0.7822016477584839, -0.20667751133441925, -0.22560013830661774, -0.7416749596595764, -0.15656772255897522, -0.15253111720085144, 0.14800633490085602, 0.008664409630000591, -0.3498579263687134, 0.7175586223602295, 0.6232560873031616, -1.190900206565857, 1.6040736436843872, -0.5146327614784241, 0.4533064365386963, 0.3802618682384491, -0.08762208372354507, -0.5719140768051147, 0.8315029740333557, 1.218637466430664, 0.435019314289093, -0.7155886292457581, -1.636836051940918, 0.17810635268688202, -0.7345655560493469, -1.9709199666976929, 0.18354108929634094, 0.01728050224483013, 1.218485713005066, 1.0122967958450317, 0.8395576477050781, -1.31220281124115, 0.8570053577423096, -0.3187001943588257, -2.1109931468963623, 0.07156150043010712, 1.6058025360107422, 0.09572974592447281, -0.09045901149511337, -0.05201171338558197, 0.5316161513328552, -0.4358455538749695, -1.0833203792572021, -0.6511381268501282, -0.3858065605163574, -0.10879754275083542, 0.005373619496822357, -0.08944540470838547, 0.3862312138080597, -0.655887246131897, 0.8345984816551208, -0.034748513251543045, -0.1642165333032608, 1.7933298349380493, -0.3229442834854126, -1.7585564851760864, 0.6973587274551392, 0.33924296498298645], [-0.1279086321592331, -0.5122256875038147, 0.3987905979156494, 0.1741984784603119, 0.6782335042953491, -0.36293622851371765, -0.6908136606216431, -0.6007353067398071, -0.11576204746961594, -0.1267154961824417, 0.050788529217243195, 0.37134915590286255, -0.0793939009308815, 0.2890019416809082, 0.16413640975952148, -0.30915337800979614, 1.4692682027816772, 0.5418257117271423, 0.07692749798297882, 0.0281490758061409, 0.267070472240448, 0.05917404219508171, -0.03865088149905205, 0.12007954716682434, 0.6660211682319641, -0.1883801370859146, -0.37766435742378235, -0.31195297837257385, -0.15105170011520386, -1.2865815162658691, 0.4750640392303467, 0.0811980739235878, -0.3444283604621887, -0.10902084410190582, 1.1358062028884888, 0.10972227901220322, 0.10888126492500305, 0.028298355638980865, -0.40794676542282104, 0.21662235260009766, 0.35348477959632874, 0.028956642374396324, -0.19491241872310638, 0.1762918382883072, 1.0602606534957886, 0.29707416892051697, 0.05807246267795563, 0.41202759742736816, -0.25540900230407715, -0.2151019275188446, 0.39083990454673767, 0.32199904322624207, 0.1863289177417755, -0.5009636282920837, -0.8363873362541199, -0.47890305519104004, 0.21731777489185333, -0.07826555520296097, 0.3742177188396454, 0.27072983980178833, -0.27258527278900146, 0.1694854497909546, -0.26411062479019165, -0.22891968488693237], [-0.5780969262123108, 0.09175797551870346, 0.19269131124019623, 0.15657445788383484, 0.03317764773964882, -0.3176406919956207, -0.16312164068222046, -0.8892850875854492, -0.45835891366004944, -0.6657119989395142, -0.28288784623146057, 0.290678471326828, -0.815610945224762, 0.7014937996864319, -0.03204813972115517, 0.029547417536377907, -0.976786196231842, 0.09616555273532867, -0.19724814593791962, 0.3320982754230499, 0.06329677253961563, 0.047885168343782425, -1.4557716846466064, -0.001740321866236627, 0.3455067276954651, 0.24019703269004822, -0.8500258922576904, 0.08782409131526947, -0.128291055560112, 0.19189932942390442, 0.6763244271278381, 0.24607248604297638, 0.35121873021125793, -0.2154247760772705, 0.3211299479007721, 0.10143078118562698, 0.19911843538284302, 0.4992750287055969, -0.06507404148578644, 0.1590801626443863, 0.24529796838760376, 0.4767741560935974, -0.4087529182434082, 0.16536501049995422, 0.44716739654541016, -0.09331589192152023, 0.4099206328392029, -0.020153919234871864, 0.11329392343759537, -0.09808112680912018, -0.13051597774028778, 0.11721151322126389, -0.19024381041526794, 0.3357791006565094, 0.1880602389574051, -0.2231019288301468, -0.022645412012934685, 1.1032297611236572, 0.1683136522769928, 0.12729915976524353, 0.15131621062755585, 0.10245716571807861, 0.2096681147813797, 0.11588695645332336], [-0.7311444878578186, -1.3952956199645996, 0.07362435758113861, -0.3371884226799011, 0.20530003309249878, -1.2256721258163452, 0.7240938544273376, -0.263436883687973, -0.5965409874916077, -0.1435484141111374, -0.5869935750961304, -0.8354277610778809, -0.3677242398262024, -0.23930814862251282, 0.8945654034614563, 0.6378511786460876, 0.3993038237094879, -1.2574883699417114, 2.437798023223877, -0.30205151438713074, 0.3636668622493744, -0.045857254415750504, -0.18286506831645966, -0.44174107909202576, 0.2220587134361267, 0.2690942585468292, 0.6466363668441772, -1.2416367530822754, -1.3581724166870117, 0.5265129804611206, -1.992215633392334, -1.8359225988388062, 0.09480945765972137, -0.09588804841041565, 0.7371427416801453, 0.5508636236190796, 0.8482873439788818, -1.0575124025344849, 0.20299585163593292, -0.3022187650203705, -2.603886842727661, 0.6668822765350342, 1.1395822763442993, -0.3352486789226532, 0.34540653228759766, -0.19354093074798584, 0.37456515431404114, -1.8503550291061401, -0.8559927940368652, -0.26454469561576843, -0.4971584677696228, -0.05970562621951103, 0.3140561878681183, 0.6586095690727234, 0.07313557714223862, -0.44466063380241394, 0.16528840363025665, 0.9183456301689148, -0.03604290634393692, 0.8900089859962463, 0.2885536551475525, -1.7608773708343506, -0.4800301790237427, -0.20190143585205078], [-0.9077418446540833, -0.41090551018714905, 1.0060590505599976, -0.14299963414669037, 0.013991325162351131, -0.005501410458236933, 0.9014459848403931, -0.41539281606674194, 0.0298845786601305, 0.774115800857544, 0.5179543495178223, -0.059234824031591415, -0.9284718632698059, -0.5851556658744812, 0.3486592769622803, 0.09086310863494873, 0.349568247795105, 0.566262423992157, -0.8343154191970825, -0.21273429691791534, 0.03829837962985039, -0.20069056749343872, 0.08433642238378525, -0.4856342375278473, -0.18078869581222534, -0.15672306716442108, -0.42490726709365845, -0.28140997886657715, 0.14135263860225677, 0.23329997062683105, 0.6682535409927368, 0.023064538836479187, 0.7140776515007019, -0.03681302070617676, 0.18120957911014557, -0.290056049823761, 0.10938560217618942, 0.608736515045166, -0.037119414657354355, -0.41255050897598267, 0.34920668601989746, 0.011335666291415691, -0.5472447872161865, -0.25371861457824707, -0.13877926766872406, -0.5683780908584595, 0.25096163153648376, -0.24614447355270386, 0.27688947319984436, 0.059542905539274216, -0.06223933398723602, 0.05200371518731117, 0.0945717915892601, 0.6300848126411438, -0.15497545897960663, 0.21919383108615875, -0.19021740555763245, 0.33965247869491577, 0.28691941499710083, 0.22917264699935913, -1.6977100372314453, 0.2812429964542389, 0.5492976903915405, 0.1464931219816208], [-0.29817554354667664, -0.37268972396850586, -0.2115989476442337, 0.05191944167017937, -0.1861433982849121, -0.25491613149642944, -0.3043525815010071, -0.17444318532943726, -0.29362595081329346, 0.1971270740032196, -0.1377958506345749, 0.03969419747591019, 0.16566181182861328, -0.23267555236816406, 0.005572108551859856, -0.06764388084411621, -0.13291706144809723, 0.17342552542686462, 0.007303740829229355, -0.05832646042108536, 0.2960532307624817, 0.30710554122924805, -0.006678268779069185, -0.1599346548318863, 0.1368565708398819, 0.06630565226078033, 0.11411280930042267, -0.16005107760429382, -0.27171391248703003, 0.6098432540893555, 0.7101952433586121, 0.04928796738386154, 0.6345985531806946, 0.023779593408107758, 0.6166963577270508, -0.10314953327178955, 0.6732010245323181, -0.12105701863765717, -0.16061460971832275, 0.30181699991226196, -0.15608447790145874, 0.4761124849319458, 0.39973077178001404, -0.06571558862924576, 0.7811398506164551, 0.26096421480178833, 0.15258590877056122, -0.6753406524658203, -0.12148775160312653, -0.08224110305309296, -0.23452532291412354, 0.180416077375412, -0.10390499234199524, 0.035192955285310745, 0.20363250374794006, -0.203339084982872, -0.030560776591300964, 0.010430297814309597, 0.15380020439624786, -0.162958025932312, 0.6914698481559753, -0.48234882950782776, 0.3734056055545807, -0.06390096992254257], [-0.16441954672336578, -0.05180274695158005, 0.8080629110336304, -0.13439206779003143, -0.3798414170742035, 0.008564986288547516, -0.23587468266487122, -0.44916534423828125, -0.10073743760585785, -0.2201066017150879, 0.15807056427001953, 0.2011977583169937, -0.573649525642395, 0.31921786069869995, 0.06694649159908295, -0.03761164844036102, -0.5221954584121704, -0.22752994298934937, -0.17827679216861725, -0.15268276631832123, -0.15388920903205872, -0.09717629849910736, -0.5627318620681763, -0.25372403860092163, -0.07078094780445099, -0.20494359731674194, -0.07643937319517136, 0.4467458724975586, -0.085657998919487, 0.3345717787742615, -0.09103287011384964, -0.015653450042009354, -0.6339923739433289, 0.17236238718032837, 0.12731420993804932, -0.44725295901298523, -0.17919568717479706, 0.1840338259935379, -0.26265570521354675, -0.39333194494247437, 0.07912888377904892, -0.3388647437095642, -0.07509245723485947, -0.09446974098682404, 0.029275545850396156, -0.5616349577903748, -0.452483594417572, 0.4018217623233795, -0.2931363880634308, 0.15880106389522552, 0.01807660050690174, -0.15307870507240295, 0.44662368297576904, 0.1871485412120819, -0.1590433120727539, -0.2952565550804138, -0.12077098339796066, 0.3376252353191376, -0.037093568593263626, 0.13615673780441284, 1.0046452283859253, -0.32438185811042786, 0.09185612201690674, -0.49533548951148987], [0.037261851131916046, -0.10761212557554245, -0.043833427131175995, 0.09124434739351273, -0.48952388763427734, 0.17599669098854065, 0.37719398736953735, 0.3639429807662964, -0.0892561823129654, 0.03206826373934746, -0.01472717896103859, 0.3044845461845398, -0.0911610797047615, 0.6127504110336304, 0.033327698707580566, 0.5413044691085815, -0.18869619071483612, -0.7684590220451355, -0.09752810001373291, 0.10341077297925949, 0.05173787102103233, -0.04114149883389473, -0.005781977437436581, -0.3161540925502777, -0.13486453890800476, 0.20474785566329956, 0.26448220014572144, -0.35032424330711365, -0.31130486726760864, 0.13396605849266052, -0.42887648940086365, -0.08011731505393982, 0.21748143434524536, 0.19413430988788605, 0.12310412526130676, -0.2961406707763672, 0.3217783272266388, 0.27831244468688965, -0.21768426895141602, 0.062318265438079834, 0.001779738231562078, 0.10695698112249374, 0.12296100705862045, -0.6375572681427002, 0.4866127669811249, 0.32721036672592163, -0.1129080280661583, -0.14047569036483765, 0.5541088581085205, -0.06856604665517807, 0.09840762615203857, 0.2379734069108963, -0.2977851331233978, -0.22455699741840363, -0.16882994771003723, 0.5752767324447632, 0.09664718061685562, 0.2800580859184265, 0.06237567216157913, -0.337344765663147, -0.6401199698448181, -0.32736971974372864, 0.3076874315738678, 0.6778677105903625], [-0.03761637583374977, -0.39996105432510376, -0.018567318096756935, -0.4399246275424957, -0.7741842865943909, -0.28774529695510864, 0.32044872641563416, 0.2502838969230652, 0.026679249480366707, 0.06971030682325363, 0.1254955232143402, 0.012764092534780502, 0.34464436769485474, -0.601035475730896, 0.2264852672815323, 0.647375226020813, 0.07390207052230835, -0.8468065857887268, 0.4859531819820404, -0.29846957325935364, -0.1474473923444748, -0.3443281054496765, -0.39152562618255615, -0.3220517635345459, 0.4546453654766083, -0.08679533004760742, 0.48422718048095703, -1.00370454788208, -0.34359613060951233, -0.08238536864519119, -1.1916471719741821, -0.6947645545005798, 0.48659852147102356, -0.0640702024102211, 0.08266262710094452, 0.2388325035572052, 0.40826162695884705, -0.8388659954071045, 0.02715621143579483, -0.41892480850219727, -0.3972660005092621, 0.5666738152503967, -0.42438358068466187, -1.0183087587356567, -0.19681313633918762, -0.3782656788825989, -0.43122994899749756, -0.24064499139785767, -0.29192855954170227, 0.1824597418308258, 0.1818430870771408, -0.017071247100830078, 0.10000067204236984, -0.13590458035469055, -0.43540751934051514, 1.4676491022109985, 0.10708162188529968, 0.028434934094548225, -0.0691799446940422, -0.09696240723133087, -0.22196340560913086, -0.7361730337142944, 0.8728472590446472, 0.5048717260360718], [-0.025962140411138535, 0.12839044630527496, 0.1730363965034485, -0.011980803683400154, -0.2948925197124481, 0.034071099013090134, 0.1022188663482666, -0.2992759644985199, -0.059277258813381195, -0.21125024557113647, 0.30087798833847046, 0.17788264155387878, 0.07109928131103516, 0.5830127596855164, 0.09275481104850769, 0.25773370265960693, -0.08721393346786499, -0.3327822983264923, -0.4054992198944092, 0.23917892575263977, 0.32553696632385254, 0.06671272963285446, -0.3278154730796814, 0.01457007322460413, 0.26268622279167175, -0.21677429974079132, 0.10332142561674118, 0.19372916221618652, -0.2052067220211029, 0.05690618231892586, -0.2403826266527176, -0.3317684531211853, -0.04665566235780716, -0.3678929805755615, -0.02528299018740654, 0.043583448976278305, 0.14283816516399384, -0.3138280212879181, 0.32116079330444336, -0.03331786394119263, 0.17557843029499054, -0.06447318941354752, 0.11848849803209305, -0.11033293604850769, 0.41261181235313416, 0.14185579121112823, 0.05565440654754639, -0.4645541310310364, -0.4490889310836792, -0.14297662675380707, -0.3795825242996216, 0.09988459944725037, -0.151651993393898, 0.05526640638709068, -0.07311613112688065, 0.26536825299263, 0.07646957039833069, 0.46627867221832275, 0.1571919173002243, 0.1934320479631424, -0.15768809616565704, -0.17611339688301086, 0.12531040608882904, -0.256801962852478], [0.5835790038108826, 0.1502237766981125, 0.9989740252494812, -0.4290178418159485, 0.34703919291496277, 0.3729311525821686, -0.44081979990005493, 1.1490907669067383, 0.778032124042511, 0.3636922538280487, 1.2934688329696655, 0.15737126767635345, 0.27989840507507324, -0.04721163213253021, 0.45863771438598633, -0.42388173937797546, 0.08455337584018707, 0.184845432639122, -0.33679279685020447, -0.4025537669658661, -0.41998815536499023, -0.32709500193595886, 0.6043189764022827, -0.6214430332183838, 0.5615894198417664, -0.3591459393501282, -0.33754369616508484, -0.007125934585928917, 0.5970635414123535, 1.3136276006698608, -0.3885236978530884, 0.5223096609115601, -0.5638412833213806, 0.33004504442214966, 0.0811159685254097, 0.8957083821296692, 0.0526885911822319, 0.8134679198265076, 0.0824042558670044, -0.5312783718109131, 1.2299593687057495, 0.3354039490222931, -0.7481528520584106, 0.1214362159371376, -1.005779504776001, -0.5301976799964905, -0.735161304473877, 1.3158910274505615, 0.12591999769210815, 0.33315056562423706, 0.547311007976532, -0.3258746564388275, 0.09333381801843643, -0.6172962784767151, -0.94134920835495, 0.41435664892196655, -0.23153088986873627, -1.2873936891555786, 0.031310003250837326, -0.23064684867858887, 0.7993433475494385, 0.5641153454780579, 1.0541479587554932, 0.24067272245883942], [-0.1797674000263214, -0.28445154428482056, -0.18787133693695068, 0.18812021613121033, -0.27987411618232727, -0.16492104530334473, 0.25460508465766907, -0.6991580724716187, -0.1839171051979065, 0.18328140676021576, -0.1109604611992836, 0.11505909264087677, 0.1712915003299713, 0.4761432111263275, 0.36436134576797485, -0.18083555996418, -0.09682996571063995, -0.24677035212516785, 0.1978725641965866, -0.0005129694472998381, 0.09990530461072922, 0.029185770079493523, 0.2998390197753906, 0.13169711828231812, -0.10712282359600067, -0.2544544041156769, -0.44445186853408813, -0.2634851336479187, -0.03114478476345539, -0.42645350098609924, 0.3440273702144623, -0.3304242789745331, 0.44217485189437866, -0.10542067140340805, 0.5874574184417725, 0.11508852988481522, 0.17612463235855103, 0.06015913560986519, -0.5205695033073425, 0.4057644307613373, -0.2504677176475525, 0.23717840015888214, 0.23359200358390808, 0.2080186903476715, 0.27763569355010986, 0.1434141993522644, 0.21843187510967255, -0.03197832405567169, 0.011655286885797977, 0.0249588992446661, 0.24276986718177795, 0.1558438092470169, -0.23730996251106262, 0.04408204182982445, -1.0933098793029785, -0.004822274204343557, 0.14059670269489288, -0.036064982414245605, 0.08700478076934814, 0.07143773138523102, -0.5219605565071106, -0.17827175557613373, 0.11273650825023651, 0.13370098173618317], [0.05339933931827545, 0.3456648588180542, -0.25924399495124817, -0.19812236726284027, -0.4725712239742279, -0.06294812262058258, -0.39338669180870056, 0.5054968595504761, -0.08619214594364166, 0.32995620369911194, 0.05737215280532837, 0.11503344029188156, 0.14851094782352448, -0.16976086795330048, -0.11401589214801788, 0.2345326691865921, -0.2571554481983185, -0.562449038028717, 0.17744530737400055, -0.16829267144203186, 0.3124498426914215, -0.13320817053318024, 0.30145689845085144, -0.24580872058868408, -0.21760593354701996, 0.08176042139530182, 0.35790327191352844, -0.17698220908641815, -0.3285734951496124, 0.13809601962566376, -0.4983973801136017, -0.36943668127059937, -0.4617629945278168, 0.10801801085472107, 0.2976364493370056, -0.22825543582439423, 0.09374664723873138, -0.49263113737106323, -0.42962637543678284, -0.05287979543209076, -0.46545106172561646, 0.3121532201766968, 0.2990237772464752, -0.19179251790046692, -0.29117491841316223, 0.13579228520393372, -0.1163855791091919, 0.02732083573937416, -0.2056182473897934, 0.3746408224105835, 0.275094598531723, -0.09359662234783173, 0.08005248010158539, 0.19753481447696686, -0.21256212890148163, 0.06816970556974411, -0.41968822479248047, -0.2944028675556183, -0.07807517796754837, -0.438931405544281, 0.2785358428955078, -0.4870285391807556, 0.0066393339075148106, -0.2679014205932617], [0.37482839822769165, -0.14577817916870117, -0.7895444631576538, -0.2899073660373688, -0.35166558623313904, -0.06509173661470413, -0.047545719891786575, -0.2794942557811737, -0.3600849211215973, -0.6484212279319763, -0.7058179378509521, 0.9773369431495667, -0.9692553877830505, -0.05487823858857155, -0.21000459790229797, 0.009723340161144733, -0.1069895550608635, -0.5632194876670837, 0.5242213010787964, 0.43324601650238037, 0.22207611799240112, 0.6239067912101746, -0.413807213306427, 0.34586024284362793, 1.0997061729431152, 0.8069113492965698, 0.5095816254615784, 0.013940046541392803, -0.42229944467544556, 0.5360127091407776, -0.7527604699134827, -0.02737581729888916, -0.7255132794380188, -1.159619927406311, 0.07655751705169678, 0.753606915473938, 0.4353862404823303, -0.07846873253583908, -0.8315401077270508, 0.17607742547988892, -0.30947425961494446, 0.002064577303826809, 0.40842950344085693, -0.19292181730270386, -0.46901047229766846, 0.5762717723846436, 0.15890993177890778, 0.2372468113899231, -0.0509541779756546, 0.09102949500083923, 0.5776390433311462, 0.9363142251968384, -0.724624752998352, 1.0269209146499634, -0.3098888695240021, -0.24951742589473724, 0.16329459846019745, 0.1125718429684639, -0.22227850556373596, 0.4530476927757263, 0.7314205765724182, -0.3713783919811249, 0.31122836470603943, 0.348764568567276], [-0.11040889471769333, 0.24241821467876434, -0.03625739365816116, 0.12148843705654144, -0.6418810486793518, -0.09035974740982056, 0.26405179500579834, 0.34645599126815796, 0.13867497444152832, -0.15514633059501648, 0.04600124433636665, -0.33447253704071045, -0.7311539053916931, 0.4006521999835968, -0.35828280448913574, 0.5812714099884033, -0.31358790397644043, -0.21270060539245605, -0.05732063949108124, 0.2612263560295105, 0.24891328811645508, 0.0844850093126297, 0.03285509720444679, 0.55185866355896, 0.26007986068725586, 0.16349542140960693, -0.07348718494176865, -0.30756932497024536, 0.08096715062856674, -0.1599840670824051, -0.11960480362176895, 0.11281827837228775, -0.3690263330936432, -0.5387334227561951, -0.19008153676986694, -0.2643144428730011, 0.1160198450088501, 0.29791077971458435, 0.5577652454376221, -0.1758630871772766, 0.4289773106575012, -0.18274518847465515, -0.3330390751361847, -0.2626101076602936, -0.18407222628593445, -0.10582694411277771, 0.3849503695964813, -0.01270096842199564, 0.43410593271255493, 0.028150977566838264, 0.5499294400215149, 0.23679347336292267, -0.8527301549911499, 0.3921528458595276, 0.04460136219859123, 0.24872328341007233, 0.29787477850914, -0.4180479943752289, -0.20545700192451477, -0.13749709725379944, -0.2662789821624756, -0.2379513382911682, 0.18667538464069366, 0.2775226831436157], [-0.8155485391616821, 0.2784091532230377, -0.07227738201618195, 0.33534136414527893, -0.2721327841281891, -0.5000501275062561, -0.07803299278020859, -1.0398529767990112, -0.3681109845638275, 0.2781076729297638, -0.654997706413269, -0.2515283226966858, -0.5714569687843323, -0.19578617811203003, 0.17856191098690033, -0.37765857577323914, -0.7223653793334961, 0.39350560307502747, -0.24294526875019073, 0.16299936175346375, 0.07233180105686188, -0.009413463063538074, 0.012058310210704803, 0.1273544877767563, -0.6162715554237366, -0.28710702061653137, -0.5936244130134583, -0.08859313279390335, 0.10857854783535004, -0.5390512347221375, 0.5357244610786438, 0.012478080578148365, 0.38579612970352173, -0.16343674063682556, -0.11714372038841248, 0.1843937784433365, -0.01338630635291338, 0.16800329089164734, 0.028972454369068146, 0.39619317650794983, 0.18224726617336273, 0.2665679156780243, -0.2982875406742096, 0.3242171108722687, 0.6840245723724365, 0.45253628492355347, 0.17293517291545868, -0.12334240972995758, 0.07630601525306702, -0.23845842480659485, -0.13338102400302887, 0.09422318637371063, -0.2572246491909027, 0.010373610071837902, 0.5361505746841431, 0.13659976422786713, 0.17409135401248932, -0.20300889015197754, 0.2982153296470642, 0.8598394393920898, -0.10855221003293991, 0.8840125799179077, 0.2372783124446869, 0.2838314175605774], [-0.20834378898143768, -0.4998767673969269, -0.39071744680404663, 0.5382086038589478, -0.1574128270149231, -0.3860464096069336, 0.37921684980392456, -0.20541055500507355, -0.4295339584350586, -0.27176433801651, -0.6470282077789307, 0.04798349365592003, -0.0899944007396698, 0.7410103678703308, 0.46300777792930603, -0.28734636306762695, -0.770289421081543, -0.2724173963069916, 0.33671262860298157, 0.794446587562561, 0.5660188794136047, 0.5061271786689758, -0.12118140608072281, 0.5992593765258789, 0.10422104597091675, 0.09925644099712372, 0.1025761067867279, -0.23697607219219208, -0.3209154009819031, -0.4541195034980774, 0.31017908453941345, 0.16368988156318665, 0.19820767641067505, -0.39986103773117065, -0.3700416088104248, 0.19127848744392395, 0.18884144723415375, 0.3489474356174469, -0.00830735731869936, 0.5202054381370544, -0.017100727185606956, 0.5926759243011475, -0.09287647157907486, 0.14015214145183563, 0.06090065464377403, 0.5822498202323914, 0.29804328083992004, 0.1945458948612213, 0.25590455532073975, -0.28165143728256226, 0.5697428584098816, 0.52263343334198, -0.47615599632263184, 0.027996225282549858, -0.09778401255607605, 0.6635324358940125, 0.29382961988449097, 0.1306496262550354, 0.521277129650116, 0.2705629765987396, -0.37756678462028503, -0.2860402762889862, 0.4057697653770447, 0.4250641167163849], [-0.5656761527061462, -0.023574315011501312, 0.0487796775996685, -0.2517527937889099, 0.6003548502922058, 0.04860927537083626, 0.21154679358005524, 0.01881226897239685, -0.3859066963195801, 0.02729642018675804, 0.08132248371839523, 0.6416825652122498, 0.12984243035316467, -0.3072565495967865, 0.06777369976043701, -0.37206003069877625, 0.030500922352075577, -0.25647082924842834, -0.3664490580558777, 0.4863985776901245, 0.40599122643470764, 0.7538623213768005, -0.207777202129364, 0.030178027227520943, -0.594794511795044, 0.3512238562107086, 0.1328231692314148, -0.5722476243972778, 0.21819236874580383, 0.0096775833517313, -0.25262659788131714, 0.23825527727603912, 0.5018936991691589, -0.7239609956741333, -0.30336663126945496, -0.35094860196113586, -0.13656628131866455, 0.022883769124746323, 0.040533557534217834, -0.15200117230415344, 0.5527716875076294, 0.22827161848545074, 0.01350865326821804, -0.10228043049573898, -0.2735045552253723, 0.06291784346103668, 0.03319920599460602, 0.16147872805595398, -0.0208443570882082, -0.2768646776676178, 0.6915495991706848, 0.6430169939994812, -0.6706879734992981, 0.4076266288757324, -0.4772385060787201, 0.13914774358272552, 0.45601391792297363, -0.39286983013153076, 0.2545856237411499, -0.06346418708562851, 0.08661789447069168, 0.31054186820983887, 0.1700371950864792, 0.4347492754459381], [-0.1912907063961029, -0.04708709567785263, -0.1807514876127243, 0.15885747969150543, 0.049513742327690125, -0.7301251292228699, 0.4631349444389343, -0.47612830996513367, -0.11182422190904617, -0.3899659812450409, -1.0364247560501099, 0.15247362852096558, 0.40586137771606445, 0.20639568567276, 0.24422161281108856, 0.11289604008197784, -0.19200094044208527, -0.06283716857433319, 0.5893272161483765, 0.2676093876361847, 0.1456870287656784, 0.017144575715065002, -0.01811199076473713, 0.13351628184318542, 0.11527795344591141, 0.1450948417186737, -0.46311137080192566, 0.4831126630306244, -1.0343464612960815, -0.4219244718551636, 0.23441947996616364, 0.04527178406715393, -0.431597501039505, -0.2599627673625946, 0.25826892256736755, 0.09702447056770325, 0.5774686336517334, 0.1601218730211258, 0.4837090075016022, 0.31387242674827576, -0.4336607754230499, -0.10604941099882126, 0.12457051873207092, -0.04869486391544342, 0.19960416853427887, -0.17985455691814423, -0.15461474657058716, -0.026419196277856827, -0.5111144781112671, -0.28170910477638245, -0.34252625703811646, -0.026022544130682945, 0.1255936473608017, 0.32736262679100037, 0.2118697613477707, -0.2114095240831375, 0.41192910075187683, 0.9702582359313965, 0.039024319499731064, 1.4481691122055054, -0.3417896628379822, -0.5331619381904602, -0.3975653350353241, -0.47628670930862427], [-0.18442052602767944, 0.12202870100736618, -0.6738156676292419, 0.19394047558307648, 0.29968830943107605, -0.6536457538604736, -0.5175999999046326, 0.2716870903968811, 0.37318387627601624, 0.7090622186660767, -0.48223787546157837, 0.10875362902879715, 0.4138355553150177, -0.18597841262817383, 0.7203531861305237, 0.22069625556468964, -0.6309565305709839, -0.04205087199807167, 0.04771661013364792, -0.8349326252937317, -0.12998169660568237, -0.3409266173839569, 0.17509686946868896, -0.7844229936599731, -0.7523022890090942, -0.19130082428455353, 0.22698821127414703, -0.7797852158546448, -0.2535560429096222, 0.09982692450284958, -0.24394474923610687, -0.32447177171707153, -0.061979908496141434, 0.5597690343856812, 0.9125476479530334, -0.05623534694314003, 0.7735148668289185, 0.04894201457500458, 0.3827555477619171, 0.5263511538505554, -0.28939762711524963, -0.38266322016716003, 0.04946007579565048, 0.02529778517782688, -0.17470517754554749, -0.2538517713546753, -0.831644594669342, 0.1239272877573967, -0.23073634505271912, 0.3256075978279114, -0.2670779824256897, -0.13518348336219788, 0.3538689613342285, 0.625393271446228, -0.8547261357307434, -0.25714030861854553, -0.16051164269447327, -0.3640476167201996, -0.058872245252132416, -0.5590308904647827, -0.42711183428764343, -0.327942818403244, -0.06666796654462814, -0.40315940976142883], [1.000577449798584, 0.1530964970588684, -0.3640325963497162, 0.4017786681652069, 0.7603071928024292, 0.303436815738678, -0.09368150681257248, -0.682390570640564, -0.30305513739585876, 0.3858744204044342, -0.4288899600505829, -0.19969581067562103, 0.4321112334728241, -0.2872768044471741, -0.567168116569519, -0.5765035152435303, 0.4405367374420166, 0.23437020182609558, 0.19685880839824677, 0.18819303810596466, 0.2835111618041992, 0.3310675323009491, 0.355713814496994, 0.6266870498657227, -1.0160610675811768, 0.2584795355796814, -0.02687075361609459, 0.5099717974662781, -0.26839861273765564, 0.2916141748428345, 0.34338298439979553, -0.4820338487625122, -0.4034867584705353, -0.0542481392621994, -0.5698723196983337, 0.1795729547739029, -0.6048077940940857, 0.08351943641901016, -0.18186445534229279, 0.535727322101593, -0.17979185283184052, 0.21828040480613708, 0.14795413613319397, 0.8656617999076843, 1.398980736732483, 0.1125343069434166, 0.5632927417755127, 1.2887113094329834, 0.1083342581987381, -0.13673269748687744, -0.4724886417388916, 0.27277690172195435, -0.4035250246524811, -0.4559739828109741, 0.3823569416999817, -0.04815986379981041, -0.2716962397098541, -0.9573423266410828, 0.6114888191223145, -0.2252470850944519, -0.035585977137088776, -0.010801038704812527, -0.2408260554075241, -0.19435696303844452], [0.35702818632125854, 0.48120975494384766, 0.3991633653640747, -0.06665023416280746, -0.3898821771144867, 0.7469879984855652, -0.11248080432415009, 0.5524455308914185, -0.3112986385822296, 0.06657608598470688, 0.3908449411392212, 0.22904741764068604, -0.18562209606170654, 0.21756988763809204, -0.13748885691165924, -0.5901463627815247, -0.25619110465049744, 0.026837559416890144, -0.4822220504283905, -0.005025157239288092, -0.11181626468896866, -0.21400697529315948, -0.2893178462982178, 0.3179340362548828, -0.5379778742790222, 0.050365690141916275, 0.21155688166618347, 0.16538195312023163, 0.316069096326828, 0.21336689591407776, 0.11004584282636642, 0.331230491399765, -0.3749373257160187, -0.15150126814842224, -0.8237497210502625, -0.4927358329296112, -0.22656981647014618, 0.22182749211788177, -0.18589305877685547, -0.2826535105705261, 0.38313695788383484, 0.6212741732597351, -0.3252266049385071, -0.8779375553131104, -0.5508912801742554, -0.13030242919921875, 0.3532605469226837, 0.384126752614975, 0.31841182708740234, 0.1747150868177414, 0.7567377090454102, 0.3098014295101166, -0.230876162648201, -0.3172546923160553, 0.04786192253232002, 0.46211326122283936, 0.16147756576538086, -0.27851009368896484, 0.06142446771264076, -0.5041000843048096, 0.2614298462867737, -0.24037891626358032, 0.2280540019273758, 0.6935430765151978], [0.5038006901741028, -0.029710881412029266, 0.9609565138816833, 0.37473076581954956, -0.4777224659919739, 0.12697836756706238, -0.3303360342979431, 0.4017225205898285, -0.05918009579181671, 0.2756476402282715, 0.2744811177253723, -0.1401243805885315, 0.825276792049408, 0.5829312205314636, 0.0602656751871109, -0.26932623982429504, 0.605053186416626, 0.12416847795248032, -0.07425141334533691, -0.09087767452001572, -0.008811475709080696, 0.04598676413297653, 0.6369500756263733, 0.1438160091638565, -0.32088369131088257, -0.1495584398508072, 0.5128675103187561, -0.007165227085351944, -0.3601006865501404, -0.5461429357528687, 0.027800491079688072, 0.02764648012816906, -0.33549317717552185, 0.06521952897310257, -0.3606765568256378, -0.34825482964515686, -0.16631858050823212, 0.22008727490901947, -0.3897227644920349, -0.008486485108733177, 0.5148018002510071, 0.44634366035461426, -0.4663245379924774, 0.184984490275383, 0.5597677230834961, -0.07404184341430664, 0.2032393217086792, 0.6304304599761963, 0.3281639814376831, 0.05041715130209923, -0.08291477710008621, 0.03370337933301926, 0.020903373137116432, -0.025939252227544785, -0.14646030962467194, 0.7930037379264832, -0.1979086548089981, 0.3127444088459015, 0.1576295793056488, 0.20698726177215576, -0.26033106446266174, -0.09534410387277603, -0.1181994378566742, 0.11388296633958817], [0.1779850423336029, 0.6497313976287842, -0.4176664650440216, -0.047546036541461945, 0.8800779581069946, -0.40758827328681946, -1.5597255229949951, -1.5212194919586182, -0.14405407011508942, -0.06982947885990143, 0.2891280949115753, 0.299520879983902, -0.10337939858436584, 0.1311984807252884, 0.8116539120674133, -0.11379671841859818, 0.034731730818748474, 0.05474601686000824, 0.0726185068488121, 0.05495217442512512, -0.128745436668396, -0.18652872741222382, -0.09861987829208374, -0.24750420451164246, -0.07420916855335236, -0.19979356229305267, -0.6306253671646118, 0.07065008580684662, -0.11315465718507767, 1.16184663772583, -0.6408071517944336, 0.4790996313095093, 0.21258999407291412, 0.3929745852947235, 0.3811351954936981, 0.18180640041828156, -0.05002070218324661, 0.2539924681186676, -0.8558530211448669, 0.07243287563323975, 0.13479067385196686, 0.6543063521385193, -0.07924334704875946, 0.5852664113044739, 0.8314553499221802, -0.34477970004081726, -0.1959817260503769, 0.21536821126937866, -0.2168113738298416, -0.06276198476552963, -0.5671175122261047, -0.3826083838939667, 0.8190555572509766, 0.4978906512260437, -0.20910735428333282, -1.0365638732910156, -0.13903504610061646, 0.5106834769248962, 0.03889990597963333, 0.1660337895154953, 0.27642396092414856, 0.15142370760440826, -0.19682691991329193, -1.339913010597229], [0.09298351407051086, 0.14695987105369568, -0.814322829246521, -0.09715738147497177, 0.5997381210327148, -0.044908639043569565, 0.2049684226512909, -0.4443439841270447, -0.031477559357881546, 0.3429931402206421, -0.21925897896289825, 0.35566893219947815, -0.9598999619483948, -0.9653490781784058, -0.18455636501312256, 0.24800460040569305, -0.16860657930374146, 0.4990859627723694, -0.10826709121465683, 0.0030764443799853325, 0.10180674493312836, 0.6694620251655579, -0.192312091588974, 0.4721848666667938, 0.19458788633346558, 0.11078973859548569, -0.32645899057388306, 0.031486380845308304, 0.12255045771598816, 0.02932126447558403, 0.10688118636608124, 0.2666349411010742, -0.07586410641670227, -0.4657854437828064, -0.37313637137413025, 0.0692928209900856, -0.42719829082489014, 0.8044993877410889, -0.03498678654432297, 0.17110465466976166, -0.20753228664398193, -0.07558626681566238, -0.4786817729473114, -0.22826489806175232, 0.26304179430007935, -0.27963730692863464, 0.4573919177055359, -0.3263082206249237, -0.24187618494033813, -0.20500822365283966, -0.336111456155777, 0.6943469047546387, -0.48315125703811646, 0.02748778834939003, 0.07378284633159637, -0.452790766954422, 0.5473433136940002, 0.520153284072876, -0.12634365260601044, 0.44599053263664246, 0.2996845841407776, 0.13148699700832367, -0.5551161170005798, 0.2630976736545563], [0.14680154621601105, -0.6345775723457336, -0.9060541987419128, -0.5009381175041199, -1.0231927633285522, -0.49732738733291626, 0.3057721257209778, 0.9218112826347351, -0.26433828473091125, -0.2743094265460968, -0.3216133713722229, 0.3544031083583832, 0.08737996965646744, -0.21176671981811523, 0.4250752031803131, 0.4483092129230499, 0.5777777433395386, -0.31246417760849, 0.35285916924476624, -0.15226253867149353, 0.07025409489870071, 0.036470960825681686, -0.05751080811023712, -0.7345882654190063, 0.8558171987533569, 0.0030309867579489946, 0.18173488974571228, -0.08350516110658646, -0.5437428951263428, -0.2582414746284485, 0.09452801942825317, -0.5850155353546143, 0.38543373346328735, -0.18368317186832428, 1.5565146207809448, 0.47382548451423645, 1.3783358335494995, -0.050048064440488815, 0.12932750582695007, -0.4723614454269409, -0.8411591649055481, 0.47475680708885193, 0.6237977743148804, -0.6865319609642029, -1.2286549806594849, 0.34122830629348755, 0.10549929738044739, -0.7709383368492126, -1.483554720878601, -0.038197752088308334, -1.0124242305755615, -0.32656922936439514, 0.31494373083114624, 0.09754562377929688, 0.11068189889192581, -1.2788275480270386, -0.00711088115349412, -0.20806850492954254, -0.42319461703300476, 1.4376426935195923, -0.9206333756446838, 0.4880080819129944, 1.4742660522460938, -0.1347450166940689], [-0.12201132625341415, 0.11453951150178909, 0.5640920996665955, 0.08111441880464554, -0.16716384887695312, -0.44297873973846436, -0.11608844995498657, -1.2610056400299072, 0.11537877470254898, 0.24055950343608856, -0.08519832789897919, -0.11491651833057404, -1.0122803449630737, -0.25667813420295715, 0.041934650391340256, 0.13075843453407288, 0.6068388819694519, 0.1592583954334259, -0.02561882510781288, -0.1583288311958313, 0.18661463260650635, -0.05843425914645195, 0.04355982691049576, -0.37923532724380493, 0.5351483225822449, -0.0027750618755817413, -0.5704761147499084, -0.5610613226890564, -0.4249492883682251, -0.510184109210968, -0.20825207233428955, 0.11840526759624481, 0.17149849236011505, 0.1889224499464035, 0.7912728190422058, 0.33213678002357483, 0.5264492034912109, 0.09733203053474426, 0.2930084466934204, -0.10533959418535233, 0.1396166980266571, 0.03025706298649311, -0.018160764127969742, 0.3052592873573303, 1.2861742973327637, 0.49468281865119934, -0.06007247790694237, -0.3527103364467621, -0.3071761429309845, -0.07722757756710052, -0.8208250403404236, 0.11964762210845947, 0.0024762910325080156, -0.2928127348423004, 0.2557007074356079, -0.16377471387386322, 0.07888859510421753, 0.9894079566001892, 0.10304402559995651, 0.36663103103637695, 0.4880560040473938, -0.2679789662361145, -0.37118566036224365, 0.07423735409975052], [-0.09821601212024689, 0.35256320238113403, -0.3724629878997803, -0.022993389517068863, -0.09115345776081085, 0.07320115715265274, 0.17293907701969147, -1.4451333284378052, -0.10584422200918198, 0.22557015717029572, -0.12135506421327591, 0.3807213306427002, 0.0860074907541275, 0.916096031665802, 0.01444646529853344, -0.5435327887535095, -0.04934188723564148, 0.1681884229183197, -0.08152832090854645, 0.2407342493534088, -0.07131034135818481, -0.1264680176973343, 0.39271461963653564, -0.08059895038604736, -0.1793510615825653, -0.11728750914335251, -0.09896526485681534, 0.5085662007331848, 0.024592269212007523, 0.3179449737071991, -1.1818642616271973, 0.056874316185712814, -0.6257320046424866, 0.08705049008131027, -0.67821204662323, -0.5168854594230652, -0.20296581089496613, 0.05396489053964615, -0.7971335649490356, -0.13722221553325653, 0.29102033376693726, -0.1554582715034485, -0.022352511063218117, 0.7821862101554871, 0.3466799557209015, -0.17997072637081146, -0.23991630971431732, 0.9118038415908813, 0.49172550439834595, -0.06599061191082001, -0.44191643595695496, 0.005034380126744509, 0.028609193861484528, 0.389434814453125, 0.5224509239196777, 0.03810827434062958, -0.10615048557519913, -0.2625992000102997, 0.04285857081413269, -0.20508748292922974, 1.0744093656539917, 0.5189840197563171, 0.27049487829208374, -0.1795719712972641], [0.37385621666908264, -0.3290256857872009, -0.5548205971717834, -0.3159061074256897, 0.19029487669467926, -0.30359748005867004, 0.7747949361801147, -0.16253525018692017, -0.0037719174288213253, -0.47651612758636475, -0.22564269602298737, 0.09216713160276413, -0.24883079528808594, 0.2108587622642517, 0.30364710092544556, 0.47896435856819153, -0.7780782580375671, 0.22092251479625702, -0.1231439933180809, -0.1019044816493988, -0.03481273725628853, 0.26012203097343445, -0.33247193694114685, 0.08448226749897003, 0.12843069434165955, 0.04260183498263359, -0.24122008681297302, 0.08479220420122147, -0.23786717653274536, 0.39488622546195984, -0.48772627115249634, -0.18768902122974396, -0.8975427746772766, -0.40235480666160583, 0.07703889906406403, 1.3745043277740479, 0.11038561165332794, 0.7956184148788452, 0.16394951939582825, -0.06750095635652542, -0.2947236895561218, 0.6088309288024902, -0.314145028591156, -0.1761881560087204, -0.15326814353466034, -0.9231106638908386, -0.12014330923557281, 1.5158640146255493, -0.2509647309780121, -0.059198133647441864, 0.017864540219306946, 0.1290861964225769, -0.32123827934265137, -0.48725730180740356, 0.3692561089992523, -0.050125427544116974, 0.22156064212322235, 0.05478956177830696, 0.14124080538749695, 0.3112998604774475, 0.46260082721710205, -0.12743480503559113, 0.4865301549434662, -0.14412562549114227], [0.04066029191017151, -0.28098738193511963, 0.3090953528881073, -0.11019997298717499, -0.37748461961746216, 0.20356698334217072, 0.5058936476707458, -0.20924112200737, -0.2988591194152832, 0.12810631096363068, 0.42095619440078735, 0.5618188381195068, -0.09301251918077469, 0.36929839849472046, -0.08166011422872543, 0.10825160145759583, 0.30739858746528625, 0.7836883664131165, -0.5873478651046753, -0.0043554846197366714, 0.12427590787410736, -0.02272665873169899, -0.3255564570426941, -0.11108239740133286, -0.07277818769216537, 0.07004954665899277, -0.6378936767578125, 0.3830665647983551, 0.15344920754432678, -0.4480244219303131, -0.5818362236022949, 0.4091512858867645, -0.17973782122135162, -0.31513726711273193, 0.10123229026794434, -0.11213937401771545, -0.9204245805740356, 0.5744403600692749, 0.16962838172912598, -0.13987162709236145, 0.03435635194182396, -0.020175421610474586, -0.3060050904750824, -0.3182915151119232, -0.6543932557106018, -0.2520616352558136, -0.3327851891517639, -0.8109310865402222, -0.5766860842704773, -0.13504883646965027, -0.3395461440086365, -0.2480900138616562, 0.20608189702033997, 0.38813871145248413, -0.03487174212932587, 0.04378816485404968, 0.05014371499419212, 0.7274974584579468, -0.31838467717170715, 0.6964325308799744, 0.25228241086006165, 0.46856406331062317, -0.6440088748931885, -0.342038631439209], [-0.3900434374809265, 0.21214166283607483, -0.09992939978837967, 0.17405074834823608, 0.16102144122123718, -0.21389639377593994, 0.225009948015213, -0.643759548664093, -0.31712403893470764, -0.3800557851791382, -0.3568655550479889, 0.18144449591636658, -0.34649643301963806, 0.7696546316146851, 0.46825364232063293, 0.10347234457731247, -0.3707564175128937, 0.018116911873221397, -0.19429638981819153, 0.48467254638671875, 0.17945946753025055, 0.26994335651397705, -0.8334664702415466, 0.07029133290052414, -0.10348045080900192, -0.11323755234479904, -0.6688742637634277, -0.06855674088001251, -0.12197001278400421, 0.001072104088962078, -0.013818689621984959, 0.1070723608136177, 0.33172607421875, -0.23732686042785645, -0.2416343241930008, 0.09618300199508667, 0.4038170576095581, 0.4873228669166565, 0.15402008593082428, 0.22898486256599426, 0.21038933098316193, 0.46453914046287537, -0.2592896819114685, 0.05001581460237503, 0.3018723428249359, -0.09004518389701843, -0.10161513090133667, 0.2255135327577591, -0.012896036729216576, -0.2636646032333374, -0.10601194947957993, 0.30425986647605896, -0.28067347407341003, 0.3254287838935852, -0.2758570909500122, -0.03649549186229706, 0.3766133487224579, 0.11752885580062866, 0.20828215777873993, -0.04483867436647415, -0.029000289738178253, 0.03415893763303757, 0.19850566983222961, 0.3924730718135834], [-0.23477418720722198, -0.29103317856788635, -0.13717657327651978, -0.24988749623298645, -0.509152889251709, -0.5800970792770386, 0.46261900663375854, 0.4324781000614166, -0.12763816118240356, 0.44619154930114746, -0.3261496424674988, 0.3132171630859375, -0.1957598179578781, 0.03655322268605232, 0.16760125756263733, 0.24319098889827728, 0.41787460446357727, -0.4175584316253662, 0.2513537108898163, -0.08852779865264893, 0.09822164475917816, 0.13714435696601868, 0.04238748922944069, -0.02174057625234127, 0.1641596555709839, 0.562761664390564, 0.04163454845547676, -0.8542236685752869, 0.06362924724817276, -0.1902475655078888, 0.14745472371578217, -0.30884668231010437, -0.002274150960147381, -0.20918868482112885, 0.18014836311340332, -0.6457130908966064, 0.11273230612277985, 0.04347725585103035, -0.1698271483182907, 0.18171466886997223, -0.1221134290099144, 0.02738284505903721, 0.20196327567100525, -0.25973451137542725, -0.3878079056739807, 0.32910478115081787, -0.18537451326847076, -1.235978364944458, -0.10287048667669296, 0.05637062340974808, 0.6651286482810974, 0.11634916067123413, -0.20587773621082306, -0.7087830305099487, -0.6572425365447998, -0.5115498304367065, 0.18938106298446655, 0.29581624269485474, -0.0013615671778097749, -0.1109696626663208, -1.1623170375823975, 0.1801009178161621, 0.6756102442741394, -0.01862170360982418], [0.4268099367618561, 0.919989287853241, -0.04696754738688469, 0.0753159448504448, 0.3956184387207031, 0.13429413735866547, -0.4990999102592468, 0.12107626348733902, -0.07506442815065384, 0.15110595524311066, 0.042575541883707047, 0.21754984557628632, -0.011036192066967487, -0.17137907445430756, 0.3385729491710663, -1.3637629747390747, -0.8358178734779358, 0.35972291231155396, -0.12707242369651794, 0.10772068798542023, -0.3810056447982788, -0.08968750387430191, 0.5025426745414734, 0.05918433517217636, 0.7553205490112305, -0.34817296266555786, -0.18051744997501373, -0.005016224458813667, 0.22631004452705383, 0.05763654783368111, 1.162649154663086, 1.4924266338348389, 0.11116891354322433, -0.08129805326461792, 0.2683277130126953, 0.10898861289024353, 0.2074471414089203, 0.5829067230224609, 0.05101831629872322, 0.17212310433387756, 0.6527672410011292, -0.3093060553073883, -0.388202428817749, 0.7840048670768738, -0.26517024636268616, -0.060021184384822845, -0.4129768908023834, 0.10707024484872818, 1.017605185508728,