{"model_data": {"model": "SimpleRNN", "input_size": 1, "skip": 1, "output_size": 1, "unit_type": "GRU", "num_layers": 1, "hidden_size": 32, "bias_fl": true}, "state_dict": {"rec.weight_ih_l0": [[-0.3320445120334625], [2.264631986618042], [0.6600009202957153], [-1.608491063117981], [1.2009763717651367], [-0.5546930432319641], [-0.8365383744239807], [1.6414618492126465], [0.8967151045799255], [1.1618746519088745], [-0.06092299520969391], [0.2989598512649536], [0.5083920955657959], [1.0805402994155884], [0.615632176399231], [0.6696410179138184], [0.440154492855072], [-0.6683661937713623], [-0.23467634618282318], [-0.1551809310913086], [-0.38105010986328125], [0.1183926984667778], [-0.7441960573196411], [0.042448680847883224], [0.6756430268287659], [-0.16142800450325012], [-0.5372306108474731], [-0.2546127438545227], [-0.3410017192363739], [0.7087737917900085], [-1.392050862312317], [0.7421916127204895], [0.13178816437721252], [-0.8332163095474243], [-0.8666871786117554], [1.1772135496139526], [0.852713406085968], [2.1278178691864014], [0.7347344160079956], [0.054461147636175156], [0.16732433438301086], [0.5757722854614258], [0.5539122223854065], [0.5513307452201843], [-0.589328408241272], [-0.24735260009765625], [-0.3871096074581146], [-0.5824118256568909], [-1.6184526681900024], [-1.9878888130187988], [-1.012407898902893], [-0.9086424708366394], [-2.2542014122009277], [1.2123523950576782], [-0.8724883794784546], [0.830173909664154], [-1.5598877668380737], [0.13157041370868683], [0.5175237059593201], [-0.3212921917438507], [0.6695494651794434], [0.11339108645915985], [-2.1512246131896973], [-0.819137692451477], [0.7143937945365906], [-1.8808674812316895], [-1.3602142333984375], [1.7211905717849731], [-0.9705373048782349], [-3.439192295074463], [-0.8040605187416077], [0.888027012348175], [2.3549203872680664], [0.7203702926635742], [0.5080279111862183], [0.012597320601344109], [0.030150441452860832], [-0.26217153668403625], [-0.3491506576538086], [-0.0810793861746788], [0.441632479429245], [1.5361438989639282], [0.0247347429394722], [0.4974218010902405], [-1.354660153388977], [-0.08754920214414597], [-5.182541847229004], [0.07909469306468964], [-1.928105115890503], [-0.21024304628372192], [1.0523468255996704], [0.24048803746700287], [-0.08821874111890793], [-0.35716232657432556], [1.1687443256378174], [0.8379245400428772]], "rec.weight_hh_l0": [[0.8159560561180115, -0.07257480919361115, 0.07865431904792786, 0.4877412021160126, 0.13174526393413544, 0.46039140224456787, -0.3472382128238678, 0.5483862161636353, 0.070220947265625, -0.33679109811782837, -0.11603747308254242, -0.22766073048114777, -0.27392250299453735, -0.46475765109062195, 1.261623740196228, -0.07041946798563004, -0.52073073387146, -0.8709325194358826, 1.0431102514266968, -0.5254655480384827, -0.03741447627544403, -0.32903358340263367, -0.2187039852142334, -0.9803173542022705, -0.34072983264923096, 0.043773502111434937, 0.08849059045314789, 0.16429796814918518, 0.08497809618711472, -0.3904147744178772, 0.17830251157283783, -0.5820196270942688], [0.022964969277381897, -0.9672892093658447, -0.4816780984401703, 0.2286081165075302, -0.28034237027168274, -1.875583291053772, -0.6648015379905701, 0.6805383563041687, 1.0240496397018433, 0.22729845345020294, 0.32467979192733765, -0.3994928002357483, 0.01665041781961918, -0.14925912022590637, -0.8546891212463379, 0.5332579016685486, -0.12524864077568054, 0.30895572900772095, 0.057018596678972244, -0.47754010558128357, -0.19759614765644073, 0.4576724171638489, -0.22639426589012146, 0.6673135757446289, -1.0693126916885376, 0.2000841647386551, 0.681731104850769, 0.5425885915756226, -0.2520231008529663, 0.005257385317236185, 0.3832850158214569, 0.07215362787246704], [0.18264135718345642, -0.11937645077705383, 0.034001968801021576, 0.31637027859687805, -0.053932324051856995, -0.2055344134569168, -0.1869034469127655, -0.4087671637535095, 0.2450428307056427, 0.15692253410816193, -0.03719653561711311, 0.05515500158071518, 0.3044508695602417, 0.025851808488368988, -0.511203944683075, -0.1859973967075348, 0.17963279783725739, 0.3490866422653198, 0.22657597064971924, 0.02190927229821682, -0.3267277181148529, -0.537275493144989, -0.5303529500961304, -0.13393741846084595, -0.31253141164779663, 0.3937491178512573, -0.045212507247924805, -0.06089877709746361, -0.2656470239162445, -0.3140110969543457, 0.5189027786254883, -0.6708707213401794], [-1.007797360420227, 0.2713378965854645, 0.0953761413693428, 0.6428511142730713, 0.09452985972166061, 0.5955069065093994, 0.08193209767341614, -0.5935682058334351, -0.17227235436439514, 0.08829417824745178, 0.04181002080440521, -0.046790849417448044, -0.42417803406715393, 0.28345561027526855, 0.6966167688369751, 0.32081925868988037, 0.09151865541934967, 0.11886467039585114, -0.5878732800483704, -0.014461705461144447, 0.1452336311340332, -0.07647009938955307, -0.29390308260917664, -0.2631474733352661, 0.12010987102985382, -0.7173588871955872, -0.0976966843008995, -0.8370006084442139, 0.3395187258720398, 0.07274752110242844, 0.14478790760040283, 0.37823909521102905], [-0.1289522349834442, -0.9849897623062134, -0.5118909478187561, -0.0757230594754219, -1.0605753660202026, -0.5417987704277039, -0.3259410262107849, 0.25175759196281433, 0.805498480796814, 0.6194981932640076, 0.8849874138832092, 0.2869107127189636, 0.23495328426361084, -0.5174884796142578, -1.2096511125564575, 0.9845626354217529, -0.09004934132099152, 0.07796421647071838, -0.16331128776073456, -0.690125584602356, 0.35220763087272644, -0.048194993287324905, -0.13999079167842865, 0.1738361418247223, -0.5625368356704712, 0.2668988108634949, 0.678195059299469, -0.9495641589164734, -0.15264400839805603, 0.07013977319002151, 1.2809141874313354, -0.2805301249027252], [0.26508137583732605, 0.21949221193790436, -0.059743594378232956, 0.4466770589351654, 0.2351079136133194, 0.13813672959804535, 0.005116506479680538, 0.17936411499977112, 0.049598101526498795, -0.23129211366176605, -0.027260689064860344, 0.276276171207428, 0.22815044224262238, 0.337746262550354, 0.49144062399864197, -1.017828345298767, 0.12318816035985947, 0.8643089532852173, -0.2262176275253296, 0.3279598653316498, -1.0364508628845215, -0.2936282455921173, -0.3564012944698334, -0.8742153644561768, -0.18997111916542053, 0.9791125655174255, 0.0033274744637310505, 0.13819286227226257, -0.07353034615516663, -0.36600515246391296, 0.11497008800506592, 0.3574034869670868], [-0.5231844782829285, 0.3594231903553009, 0.1462293267250061, 0.005598495714366436, 0.331960529088974, 1.182847023010254, 0.6686269044876099, -0.8767198920249939, -0.5206149816513062, 0.019282182678580284, -0.6299516558647156, 0.05195481702685356, -0.05328744649887085, 0.35534241795539856, -0.3898472785949707, -0.1312103569507599, 0.299434095621109, -0.0008338467450812459, -0.18144269287586212, 0.07095550745725632, 0.5868166089057922, -0.17488588392734528, -0.10634570568799973, -0.29021045565605164, 0.9009369015693665, 0.23192307353019714, -0.05835000053048134, -0.2056395560503006, 0.21707795560359955, 0.01703975535929203, -0.11000645160675049, -0.4435229003429413], [-0.09708776324987411, -0.25998231768608093, -0.29774487018585205, 1.3811664581298828, 0.05129177123308182, -1.2605725526809692, -0.20441493391990662, 0.19231237471103668, -0.0007347232312895358, -0.025230323895812035, 0.46255624294281006, 0.18131192028522491, 0.11535608023405075, 0.21919013559818268, 0.6441584825515747, 0.22251704335212708, 0.31568676233291626, 0.3756903111934662, -0.2506050765514374, 0.21262161433696747, -0.8314927220344543, 0.09365412592887878, -0.47352051734924316, -0.4310820996761322, 0.013129542581737041, -0.13184495270252228, 0.38412579894065857, -0.04283786192536354, 0.2316185086965561, -0.5382353067398071, 0.19568467140197754, 0.9224286675453186], [-0.3680623471736908, -0.025650523602962494, -0.2588585615158081, 0.2601648271083832, 0.025434566661715508, -0.49155065417289734, -0.14561696350574493, -0.3657231628894806, 0.38038554787635803, 0.10718581825494766, 0.28307318687438965, 0.11032066494226456, 0.2954416275024414, 0.225749209523201, 0.0033470774069428444, -0.07487358897924423, 0.20443479716777802, 0.17534051835536957, -0.0036359757650643587, -0.012546802870929241, -0.12738123536109924, -0.13960158824920654, -0.4126385450363159, 0.1783447563648224, -0.22013349831104279, 0.40364983677864075, 0.24497832357883453, -0.5576290488243103, -0.22973966598510742, -0.34776315093040466, 0.19268254935741425, -0.5867760181427002], [-0.15544727444648743, -0.6240513920783997, -1.0289846658706665, 0.7816005945205688, -0.6608460545539856, 0.16142556071281433, -0.17734290659427643, -0.3017856776714325, 1.2089475393295288, -0.5331717133522034, 0.5862011909484863, 0.9437692165374756, -0.464038223028183, 0.42692047357559204, 0.22300191223621368, 1.174116849899292, 0.10936467349529266, -0.413575142621994, -0.9943825602531433, -0.3961876332759857, -0.1823422908782959, 0.5434308052062988, -0.020730653777718544, -0.40034034848213196, -0.1723783165216446, -0.7085545659065247, 1.4198518991470337, 0.09442019462585449, 0.9482006430625916, -0.3184838891029358, 0.12855397164821625, -0.7955335378646851], [0.2658235728740692, 0.052756842225790024, -0.3701514005661011, 0.7026981711387634, 0.07640846073627472, -0.042528267949819565, -0.08491478860378265, 0.3613194525241852, 0.093347929418087, -0.3440534770488739, 0.2584683299064636, 0.11304213851690292, -0.11661256104707718, 0.12333083897829056, -0.056400448083877563, -0.48161742091178894, 0.26841169595718384, 0.02820163406431675, 0.4804040491580963, 0.051762498915195465, -0.107982337474823, -0.24135945737361908, -0.7092344760894775, -0.3808058202266693, -0.1546066850423813, 0.7413598895072937, -0.02790345810353756, 0.21320359408855438, 0.0779711976647377, 0.03699035197496414, -0.2709047496318817, -1.3887826204299927], [-0.2966879606246948, -0.040390659123659134, -0.23877647519111633, 0.34017202258110046, -0.3251326084136963, -0.8520238995552063, -0.4336559474468231, -0.16645614802837372, 0.30634698271751404, 0.15259961783885956, 0.25875675678253174, 0.001371882390230894, -0.07928619533777237, 0.3552999198436737, -0.8190086483955383, 0.24570173025131226, 0.08670514822006226, 0.3678174614906311, -0.3196536600589752, -0.1961345225572586, -0.4700213074684143, -0.6216379404067993, -0.3695853054523468, -0.17673465609550476, -0.33858203887939453, 0.03117023967206478, 0.24220575392246246, -0.6385889649391174, -0.22860831022262573, -0.03182205185294151, 0.21835099160671234, 0.2612394690513611], [0.6169881820678711, -0.10634089261293411, 0.011506712064146996, 0.036825455725193024, -0.1366964727640152, -0.05258949473500252, -0.5515246391296387, 0.11710820347070694, 0.025651635602116585, -0.16566747426986694, 0.10987197607755661, -0.01935461163520813, -0.37561705708503723, -0.46545082330703735, -0.7286931276321411, 0.9561388492584229, 0.06882338970899582, -0.049323778599500656, -0.11554508656263351, 0.1691405475139618, 0.18807688355445862, 0.4018438160419464, 0.25465500354766846, -0.07562240213155746, -0.3360559046268463, -0.6295440196990967, -0.10135968774557114, 0.1737111359834671, 0.48036840558052063, 0.1437297761440277, 0.08406288921833038, 0.9820166230201721], [-0.6501688957214355, 0.024398522451519966, -0.33439159393310547, 0.38769659399986267, -0.3506539463996887, -0.7068681120872498, -0.1158546507358551, -0.09388121217489243, 0.2453468292951584, 0.26663434505462646, 0.20419232547283173, 0.3771282434463501, 0.010678830556571484, 0.4041227102279663, 0.27427172660827637, 1.2990821599960327, 0.29345569014549255, 0.40951406955718994, -0.3823266625404358, -0.4756261706352234, -0.0622008740901947, 0.20478752255439758, -0.2578667998313904, -0.1029699370265007, -0.22276261448860168, 0.34144890308380127, 0.4714418053627014, -0.6123879551887512, 0.46006837487220764, -0.195914164185524, 0.35493409633636475, 0.025384925305843353], [0.5684590339660645, 0.08492226153612137, -0.1725509911775589, -0.5987215638160706, 0.08666931092739105, 0.4546605348587036, -0.04499616473913193, 0.5406343340873718, 0.18951651453971863, 0.358570396900177, -0.28839248418807983, 0.43517830967903137, 0.4528704285621643, -0.06925475597381592, 0.17044168710708618, -0.2974512577056885, -0.4823816418647766, 0.06548336148262024, 0.026711326092481613, 0.33053797483444214, -0.3180494010448456, 0.12432684749364853, -0.12622418999671936, -0.4221862852573395, 0.2911325991153717, 1.1025340557098389, 0.36781153082847595, 0.42991021275520325, 0.015506517142057419, -0.12837538123130798, 0.03124626725912094, -1.7233086824417114], [0.5180206298828125, 0.24824178218841553, -0.018655406311154366, 1.0410699844360352, 0.09447464346885681, -0.37933221459388733, 0.2094714343547821, 0.39321914315223694, -0.06917104870080948, 0.0185246542096138, 0.29271480441093445, 0.466096431016922, -0.2271893471479416, 0.1838291585445404, 0.44233769178390503, 0.27490419149398804, 0.061254262924194336, -0.04326071962714195, -0.3555687367916107, 0.2363409548997879, -0.1859707534313202, -0.37396904826164246, 0.2208118587732315, 0.6388131976127625, 0.12285458296537399, -0.19989551603794098, -0.026753069832921028, -0.026016054674983025, 0.40620937943458557, 0.20082779228687286, 0.4549868702888489, 2.5832643508911133], [-0.41872093081474304, 0.06628606468439102, -0.8656240105628967, 1.3527119159698486, 0.04005303978919983, -0.31712210178375244, -0.3322462737560272, -0.13233739137649536, 0.3392616808414459, 0.5900145769119263, 0.42409083247184753, 0.3907242715358734, -0.08863957226276398, 0.7472898364067078, -0.33980002999305725, 0.014105869457125664, 0.33644112944602966, 0.5063294172286987, -0.17332185804843903, 0.08220633119344711, -1.0329828262329102, 0.15225739777088165, -1.131442904472351, -0.9366557002067566, -0.5347469449043274, 0.0005605719052255154, 0.7487800717353821, -0.28489285707473755, 0.2748934030532837, -0.09393247216939926, 0.3852691948413849, 0.25964877009391785], [-0.05666252225637436, 0.05702986940741539, 0.42399492859840393, 0.7097034454345703, 0.6409161686897278, 0.468899130821228, -0.07405262440443039, -0.01532865408807993, -0.4662476181983948, -0.8307345509529114, -0.3398047089576721, 0.011793161742389202, 0.1727215200662613, -0.6197265386581421, 0.5076329708099365, -0.5041542649269104, -0.4298134744167328, -0.43861615657806396, 0.21386468410491943, 0.025028757750988007, -0.3175574541091919, -0.581644594669342, -0.05463046953082085, -0.29652586579322815, -0.07685689628124237, -0.03994951769709587, 0.21257223188877106, 0.5768786668777466, 0.20511554181575775, 0.08247564733028412, -0.2660125195980072, -0.05567255988717079], [0.722575306892395, -0.14037752151489258, -0.07235178351402283, -0.04482781141996384, -0.03113989531993866, 0.42680343985557556, 0.19816654920578003, 0.40698158740997314, -0.2661736011505127, -0.1957218050956726, -0.43748578429222107, -0.1049327552318573, -0.268604576587677, -0.685677170753479, 0.4503069519996643, -0.10621398687362671, -0.1909988820552826, -0.39590781927108765, -0.2227306067943573, -0.1083640456199646, 0.17144456505775452, -0.019588638097047806, 0.02513335831463337, 0.3404790461063385, 0.39985719323158264, -0.16858351230621338, -0.07368263602256775, 0.7966576218605042, -0.16263899207115173, 0.13301269710063934, -0.29144924879074097, 0.6965655088424683], [0.7378999590873718, 0.28759393095970154, 0.670839250087738, -0.026135945692658424, 0.5175366997718811, 0.1478283852338791, -0.1903982162475586, 0.14451594650745392, -0.5297120213508606, -0.14656883478164673, -0.5055500864982605, -0.7351565957069397, -0.2010469287633896, -0.9295879006385803, 0.9518877863883972, -0.6492769122123718, -0.7352749705314636, 0.10697796195745468, 0.9995952248573303, -0.2895304560661316, -0.2962256669998169, -0.3408884108066559, 0.3372189700603485, -0.2239382565021515, 0.19738471508026123, 0.01389402523636818, -0.25079965591430664, 0.46903887391090393, 0.5891578197479248, 0.3217012286186218, -0.8598246574401855, -0.13203927874565125], [0.29733574390411377, 0.2741318941116333, 0.14180758595466614, 0.40078258514404297, 0.23905490338802338, 0.10213375091552734, 0.23989179730415344, -0.06089228019118309, -0.3572978377342224, 0.11023016273975372, -0.3067898154258728, 0.11944058537483215, -0.17920610308647156, 0.29750514030456543, -0.0805329978466034, 0.06688191741704941, -0.03333621844649315, 0.46246960759162903, -0.5610539317131042, 0.17618347704410553, -0.18474110960960388, -0.07089653611183167, 0.16111266613006592, -1.2857787609100342, 0.27276527881622314, 0.8063191771507263, -0.13508808612823486, -0.11188340932130814, 0.37440210580825806, -0.20008695125579834, 0.033041395246982574, 1.0780867338180542], [-0.319804310798645, 0.16880740225315094, 0.19049860537052155, -0.048395268619060516, 0.07912726700305939, 0.2668004035949707, -0.13275828957557678, -0.25285977125167847, -0.24387460947036743, -0.027972960844635963, -0.3350554406642914, -0.015245652757585049, -0.3309447169303894, 0.07951465994119644, -0.46393856406211853, 0.7058084607124329, -0.3094584345817566, -0.13402974605560303, -0.8621935248374939, -0.07857409119606018, 0.39951950311660767, 0.5056123733520508, 0.22847981750965118, -0.6750274300575256, 0.3157331347465515, -0.05762734264135361, 0.3419087529182434, -0.3947600722312927, 0.624164342880249, 0.6185593605041504, 0.002490221755579114, 1.0206997394561768], [0.09703898429870605, 0.35610049962997437, -0.050463177263736725, 0.5703480839729309, 0.1023450642824173, -0.23491956293582916, 0.0035213264636695385, 0.295987993478775, -0.07104308903217316, -0.2823852300643921, 0.2265312373638153, -0.09212250262498856, -0.22132228314876556, -0.2273498922586441, 0.30721864104270935, -0.07384790480136871, 0.054164230823516846, 0.5589405298233032, -0.3594527840614319, 0.04496774077415466, -0.6673336625099182, -0.1307094395160675, -0.5387399196624756, 0.3540410101413727, 0.3709685504436493, 0.11771154403686523, -0.2651340961456299, 0.14720630645751953, 0.36841100454330444, -0.4089474081993103, -0.3486930727958679, -0.16428245604038239], [0.34072256088256836, -0.25626495480537415, -0.26445794105529785, 0.19334329664707184, -0.25342506170272827, 0.143174409866333, 0.11360391229391098, 0.49056899547576904, 0.019262855872511864, -0.14480777084827423, -0.051612429320812225, -0.08282504230737686, -0.01412734854966402, -0.03453148528933525, 0.4831046462059021, 0.6842796802520752, -0.135804682970047, -0.6272081732749939, 0.11840971559286118, -0.011770211160182953, 0.012946282513439655, 0.5131949782371521, 0.00643161078915, -0.2774707078933716, -0.2529718577861786, -0.785173773765564, -0.06010096147656441, 0.11545130610466003, -0.1197507232427597, -0.024470144882798195, -0.09521998465061188, -0.0860636904835701], [0.4401588439941406, -0.1288803517818451, 0.23963138461112976, -0.604384183883667, 0.12810714542865753, -0.33059194684028625, 0.16999004781246185, 0.2305442839860916, 0.1804012656211853, -0.1179308295249939, -0.4706626832485199, -0.4491809010505676, 0.04246162623167038, -0.693317174911499, -0.24529771506786346, -0.061440300196409225, 0.04179678484797478, -0.27603501081466675, 0.5890390276908875, -0.32042765617370605, 0.10767819732427597, -0.12897852063179016, 0.0048490553162992, 0.4793335497379303, 0.1862427443265915, -0.6206926107406616, 0.2557019591331482, 0.9755344986915588, -0.002979528158903122, 0.009500342421233654, -0.6150857210159302, 0.008658329024910927], [0.47483742237091064, 0.19502438604831696, 0.46390026807785034, -0.016774054616689682, -0.12113803625106812, 0.8613492250442505, -0.03351476415991783, -0.27052465081214905, -0.21208703517913818, -0.5065261125564575, -0.2306382954120636, -0.015778129920363426, -0.4977352023124695, 0.794665515422821, 0.5601142644882202, 0.186943918466568, -0.2634695768356323, -0.3580127954483032, -0.24575687944889069, -0.17685924470424652, 0.5546932220458984, 0.13831956684589386, 0.24562419950962067, 0.1492539942264557, 0.5289908647537231, 0.054399389773607254, 0.06211385503411293, -0.36889487504959106, 0.366232305765152, 0.21113266050815582, -0.29762598872184753, 1.2024123668670654], [-0.36597028374671936, 0.3373340368270874, 0.34334811568260193, -0.3815074861049652, -0.09898887574672699, 0.3170095384120941, 0.3225802183151245, -0.48992013931274414, -0.5009139776229858, -0.4604426324367523, -0.34137046337127686, -0.22505460679531097, 0.027300335466861725, -0.01145215518772602, 0.334944486618042, 0.053640350699424744, -0.33813217282295227, -0.436165452003479, -0.5214042067527771, -0.015596766024827957, 0.2258804887533188, -0.40599730610847473, 0.33701637387275696, 0.6124860048294067, 0.5661860704421997, 0.24594712257385254, -0.5089337229728699, -0.08778286725282669, 0.014362785033881664, 0.12199605256319046, -0.3488157391548157, -0.03222280740737915], [-0.07475513219833374, 0.20436590909957886, -0.26524579524993896, 0.4097190201282501, 0.11219510436058044, -0.1554202139377594, -0.2995201349258423, 0.41306111216545105, 0.03599601238965988, -0.33775195479393005, 1.3162665367126465, 0.07363100349903107, -0.3500481843948364, -0.22080987691879272, -0.44145089387893677, -0.7204908728599548, 0.17297708988189697, -0.09188159555196762, 0.40880724787712097, -0.4974500238895416, -0.13585840165615082, -0.20703186094760895, -0.4759770929813385, -0.2194461077451706, -0.3823001980781555, -0.3276784420013428, -0.06199294328689575, 0.6756688356399536, 0.7462874054908752, -0.940680980682373, -0.1994718313217163, -0.9466062188148499], [0.2853827178478241, -0.015018344856798649, -0.01610811986029148, 0.4460020959377289, -0.5230204463005066, 0.2913782000541687, -0.2293320596218109, 0.6198984384536743, 0.10008861869573593, -0.41115984320640564, -0.29584670066833496, 0.6115575432777405, 0.055093392729759216, 0.19239607453346252, -0.4636799097061157, 0.6637305021286011, -0.06453868001699448, -0.0876428559422493, 0.13783854246139526, -0.4288336932659149, 0.37942829728126526, 0.6019021272659302, 0.31322380900382996, -0.3822518587112427, -0.33291593194007874, -0.2712005376815796, 0.13114723563194275, 0.282876193523407, 0.39183852076530457, 0.4432012736797333, -0.41473832726478577, 0.6214210391044617], [0.27315980195999146, -0.28190740942955017, -0.25521424412727356, -0.3041093945503235, -0.4147711992263794, -0.5227866768836975, -0.22613991796970367, 0.10807005316019058, 0.10110409557819366, 0.09306298196315765, 0.09070904552936554, 0.25520792603492737, 0.4132947325706482, -0.2618328034877777, -0.08518346399068832, 0.7706101536750793, -0.03726329281926155, 0.0900021642446518, -0.12028668820858002, -0.1713370382785797, -0.21545971930027008, 0.5051969289779663, -0.04557662829756737, -1.1256544589996338, -0.5950155258178711, 0.3001142144203186, 0.6945724487304688, 0.07432475686073303, -0.14754441380500793, 0.12077905237674713, 0.19016240537166595, -0.10329820960760117], [-0.07197514921426773, 0.3638518452644348, 0.5117244720458984, -0.7667074799537659, 0.3615019917488098, 0.8542103171348572, 0.5286322832107544, 0.6834439635276794, -0.4730473458766937, -0.38115963339805603, -0.2733912467956543, -0.6773597598075867, 0.003886889899149537, -1.1216520071029663, -0.16560231149196625, -1.218546986579895, -0.4714110493659973, 0.10846321284770966, 0.6856428980827332, 0.10836222767829895, 0.3578393757343292, -0.14728094637393951, 0.7406631708145142, 0.561549961566925, 0.05227406322956085, -0.45181548595428467, -0.5448408722877502, 0.7630603313446045, 0.24187052249908447, 0.3882981538772583, -0.5836439728736877, 1.0768113136291504], [-0.9404256939888, 0.1258954405784607, 0.40430885553359985, -0.7738123536109924, -0.5447837114334106, -0.1206376850605011, 0.32213765382766724, -0.2915233075618744, 0.3433057963848114, 0.5046742558479309, 0.4471883177757263, 0.6527870297431946, 0.979099452495575, 0.2924864590167999, -2.313021659851074, 0.1382543295621872, 0.1779111921787262, 0.9271655082702637, -0.25210040807724, -0.09989649802446365, -0.4886508882045746, -0.7701245546340942, 0.5859405994415283, 0.20397160947322845, 0.7808815240859985, 1.0845988988876343, -0.22269444167613983, -0.09258487820625305, -0.6590986847877502, -0.31623974442481995, 1.1471803188323975, 2.2513227462768555], [-4.196796894073486, -0.15537790954113007, -0.7494977712631226, 1.6242997646331787, 0.33447515964508057, -0.6841540932655334, 0.6273401379585266, -1.2914619445800781, 0.15885405242443085, -0.4815932810306549, -0.6462389826774597, -0.6190287470817566, -0.5796193480491638, 0.8052594661712646, 0.5643584132194519, -1.032752275466919, -0.023046934977173805, -0.501126766204834, -0.6787069439888, 0.27735435962677, 2.145695447921753, -1.714608907699585, -0.6236057877540588, 0.01291082426905632, 0.5339319705963135, 0.3769654631614685, 0.9536794424057007, -0.6045789122581482, -1.0661464929580688, -0.43699750304222107, 0.933631420135498, -1.4214550256729126], [-0.6527491807937622, 1.5116982460021973, 0.09162118285894394, 0.22435656189918518, 0.7967194318771362, 0.35295093059539795, -0.42986613512039185, -0.5245891809463501, -0.9074820280075073, 0.11991920322179794, -0.23755225539207458, 0.4386719763278961, 0.5955153703689575, 0.6570290327072144, 1.526585578918457, -0.46321457624435425, 0.24641022086143494, 0.2280099093914032, -0.028423825278878212, -0.12034080177545547, -0.552550733089447, -0.30741265416145325, -0.06361640989780426, 0.003137073712423444, 0.27817487716674805, 0.885107159614563, -0.20186515152454376, -0.4468013346195221, 0.2203214317560196, -1.3817390203475952, 0.04690040647983551, 0.23920482397079468], [-0.3201218843460083, 0.27808868885040283, -0.3274085819721222, -0.3643604516983032, 0.7856926918029785, 0.6430749297142029, 0.81670743227005, -1.0909298658370972, 0.05334503948688507, 0.5181713700294495, 1.1369881629943848, 0.3105909526348114, -0.08978546410799026, -0.6715017557144165, 0.03040500171482563, -0.061905208975076675, 0.5533155202865601, 0.04229559004306793, -1.4583351612091064, 0.35848602652549744, 0.4197728931903839, -0.2572392523288727, -0.534551739692688, 1.2243430614471436, 0.16896726191043854, -0.3508441746234894, 0.3192693591117859, -1.5609151124954224, -1.3476295471191406, -1.0046082735061646, 0.8356605768203735, 0.5637683272361755], [0.05537564307451248, 0.5440083742141724, 0.09774840623140335, 0.6328765749931335, 1.4673460721969604, -0.6792638301849365, 0.6321493983268738, -0.32411062717437744, -0.40677666664123535, -0.043153103440999985, -0.09455312788486481, 0.09671404212713242, 0.20571143925189972, 0.34504637122154236, 1.4061698913574219, -0.6882885694503784, -0.1132376492023468, 1.22475266456604, -0.036780934780836105, 0.6439194679260254, -1.0072928667068481, -1.0850037336349487, 0.24755634367465973, 0.029936594888567924, 1.0643088817596436, 1.017163872718811, -0.5597805976867676, -0.6889769434928894, 0.4248616099357605, -0.32325509190559387, 0.4402497112751007, -0.09336639195680618], [-0.8968514204025269, -1.6524211168289185, -2.2643377780914307, 0.09863095730543137, 0.5198026895523071, -1.02651047706604, -0.7675495743751526, -0.789645791053772, 2.6036887168884277, 2.069575071334839, 0.904540479183197, 1.1725478172302246, 1.7371246814727783, 2.547434091567993, 0.2909506559371948, 0.5840177536010742, 2.6405229568481445, -0.4115940034389496, -0.6917721033096313, 0.11304188519716263, 0.11490961909294128, 0.0678243339061737, -0.8405324220657349, -0.11162247508764267, -0.525625467300415, 0.26948654651641846, 1.6866424083709717, -1.9316459894180298, -0.9867362380027771, 0.2455524206161499, 1.0058586597442627, -3.362344741821289], [0.05303731560707092, 0.24550025165081024, -0.019414719194173813, 0.8202004432678223, 0.9621232151985168, -0.4208999574184418, 1.2981806993484497, -0.29177218675613403, -0.5003764033317566, 1.176802635192871, 1.4947556257247925, -0.2189759612083435, -0.9812865853309631, 0.5779628753662109, -0.003838624805212021, -0.7250308394432068, 0.14607150852680206, 0.9684865474700928, -0.20318621397018433, 1.084325909614563, -0.5127236843109131, -1.044408917427063, -0.4829877018928528, 0.32772186398506165, 0.6838752031326294, 0.3030702471733093, -0.4527233839035034, -0.556205689907074, -0.798092782497406, -0.7304481267929077, 0.08705335110425949, -0.5291093587875366], [0.10582977533340454, 1.1128716468811035, 0.08537044376134872, 1.1881277561187744, 1.3536748886108398, 0.3414742946624756, 0.0213911235332489, -0.26391297578811646, -0.5733011960983276, 0.4152132272720337, -0.10026486963033676, 0.2141427844762802, -0.44925230741500854, 0.33018848299980164, 0.29048821330070496, -0.5048201680183411, 0.06737319380044937, 0.8223799467086792, -0.04636562988162041, 0.6226220726966858, -0.5227469205856323, -1.242668628692627, -0.2915308177471161, 0.17913638055324554, 0.634768009185791, 0.8121723532676697, -0.15773946046829224, 0.29333093762397766, 0.051335498690605164, -0.18717287480831146, 0.44188162684440613, 0.5194950103759766], [-0.38369134068489075, 0.31950148940086365, -0.7106969356536865, 1.1936876773834229, 0.4115787744522095, -0.1334192454814911, -0.016473405063152313, -0.02915066108107567, -0.14410465955734253, -0.5230432152748108, 0.9861165881156921, 1.0662081241607666, 0.3203529715538025, 0.4022151827812195, -0.6158915758132935, -3.3744521141052246, 0.6550790667533875, 1.0261621475219727, -0.045915283262729645, 2.278805732727051, -1.3479067087173462, -0.795930027961731, -0.7594530582427979, -0.9210901260375977, 0.4599255919456482, 1.2191438674926758, 0.09825602173805237, 0.6592370271682739, -1.0384013652801514, -2.079638719558716, 0.8685495853424072, 0.7397513389587402], [-0.07302447408437729, 0.5229408144950867, -0.24134810268878937, -0.33807888627052307, 0.1800568401813507, 0.5150623321533203, -0.45041343569755554, -0.1557774692773819, 0.46515896916389465, 0.251239538192749, -0.3515090048313141, -0.0049491217359900475, -0.076447494328022, 0.6159416437149048, 0.9382361173629761, 0.37280264496803284, -0.1396999955177307, -0.38109153509140015, -0.9339843392372131, 0.09419547766447067, 0.41610726714134216, 0.05400588735938072, -0.14931492507457733, 0.298862487077713, -0.439392626285553, -0.20982244610786438, 0.782541811466217, -0.7504048347473145, -1.2639193534851074, -0.8384370803833008, 0.5710583329200745, 0.07991725206375122], [-0.5348511338233948, 0.2578325569629669, 0.9089639782905579, -0.33226051926612854, 1.0844722986221313, -1.1444907188415527, 1.3778512477874756, 0.3454085886478424, -1.0943472385406494, -0.4371784031391144, -1.4391188621520996, -1.3334581851959229, -1.7824642658233643, -0.9673178791999817, 0.69155353307724, -1.8528025150299072, -0.9856573939323425, 0.29322534799575806, 0.630788266658783, 0.33058854937553406, -0.7972466945648193, -2.0081257820129395, -0.3798949122428894, 0.3139568269252777, 0.4616803228855133, -0.4635658860206604, -1.172330617904663, -0.17850859463214874, -1.4754008054733276, 0.035978395491838455, -0.7649787068367004, 0.2073804885149002], [1.8775100708007812, 0.39070069789886475, -0.5314326882362366, 0.3343471884727478, 0.38645830750465393, 0.10829660296440125, 0.7739872932434082, 0.1168869286775589, 0.06399252265691757, -0.1951756328344345, -2.818584442138672, 0.6083268523216248, 0.853447675704956, 0.8553062677383423, 3.25246524810791, 0.7473831176757812, -0.9190744161605835, 0.07612963020801544, -2.925893545150757, 0.03762540966272354, -0.698686957359314, -0.06674852967262268, 0.5471372008323669, 0.4619690775871277, 0.4791940450668335, 0.20118071138858795, -0.42059290409088135, -3.625950813293457, 0.08803579956293106, -0.4344680905342102, 0.45580706000328064, 1.179175853729248], [0.513113260269165, 0.18886473774909973, 0.2918468713760376, -0.4128821790218353, -0.26766055822372437, -0.12104380875825882, -0.39599838852882385, -0.3130781352519989, 0.173583522439003, -0.7182407975196838, -0.6940137147903442, -0.4653962552547455, 0.40937045216560364, -0.5790234804153442, 0.04322813078761101, 0.39611563086509705, -0.5896827578544617, 0.28681376576423645, 0.04331982135772705, 0.03670242801308632, 0.01480987761169672, 0.6105677485466003, 0.3282938003540039, 0.11927007883787155, -0.5282782912254333, -0.35429468750953674, -0.04788488149642944, 0.12830539047718048, -0.2775197923183441, 0.1134532243013382, -0.3035556375980377, 0.060629673302173615], [0.1350013017654419, 2.005985736846924, 0.9106830954551697, -0.7722547650337219, 0.06141362711787224, 0.36709773540496826, 0.3035679757595062, 1.0284301042556763, -1.1862428188323975, -1.0678521394729614, -0.6241202354431152, -0.49865779280662537, -0.5923526883125305, 0.01921689696609974, 0.6884592175483704, -0.24487487971782684, -1.3584636449813843, -0.6108917593955994, 1.6201082468032837, -1.1081708669662476, 0.359828919172287, 0.10785938799381256, 0.5684992074966431, -0.0976957157254219, 0.008391153067350388, 0.1479591429233551, -0.717606782913208, 0.4912254810333252, 0.3630398213863373, 0.35202106833457947, -1.0395249128341675, 0.06187602877616882], [-3.0635194778442383, -1.6606003046035767, -1.6277047395706177, -0.7921772003173828, 0.15995411574840546, -0.35340309143066406, -0.2898256480693817, -1.1992696523666382, 1.6898332834243774, 1.404876470565796, 1.2542815208435059, 1.307466745376587, 1.8039122819900513, 2.4338526725769043, -0.7365789413452148, 0.04668404161930084, 1.6327253580093384, 0.4279162287712097, -1.0583001375198364, 0.042083822190761566, 1.0471423864364624, 1.7137696743011475, -0.4450555443763733, -0.29933980107307434, 0.3688622713088989, 0.558418333530426, 1.7910343408584595, -1.5182263851165771, -0.6942673921585083, 0.5525657534599304, 1.6218842267990112, -0.28953853249549866], [1.020822286605835, 1.2875279188156128, 1.0810084342956543, -1.2683871984481812, -0.6108969449996948, 0.9123634696006775, -0.17734654247760773, 0.7384100556373596, -1.764110803604126, -1.1893415451049805, -1.437150478363037, -1.179998517036438, 0.9431396722793579, -0.5028044581413269, 1.2915102243423462, -0.5953728556632996, -1.2826168537139893, -1.4106061458587646, 1.3905357122421265, -0.20349882543087006, 0.3632834851741791, 0.8953641057014465, 0.7495791912078857, 0.4102923572063446, -0.0010729619534686208, 0.39041534066200256, -0.9473591446876526, 1.2829245328903198, 0.5671074390411377, 0.42511746287345886, -1.1791678667068481, 0.691340982913971], [0.17164894938468933, 0.21476322412490845, -0.505329430103302, 0.9136067032814026, -0.16698291897773743, -0.1033468171954155, -0.5231019258499146, -0.19417721033096313, -0.17469234764575958, 0.2648332118988037, 0.6496483087539673, -0.5632002353668213, -0.5730741620063782, 1.8599501848220825, 1.5685603618621826, -0.43972861766815186, 0.2389499843120575, -0.25211408734321594, 0.7355778217315674, -0.25496357679367065, 0.021162569522857666, 0.4631664454936981, -0.5902519822120667, 0.23787203431129456, 0.27209803462028503, -0.5072881579399109, 0.13141970336437225, -1.6465063095092773, -0.010395750403404236, -0.041908808052539825, 0.2661406099796295, -1.1551920175552368], [0.22117194533348083, 1.9633567333221436, 1.1689097881317139, -1.713196039199829, 0.4483664631843567, 1.6623351573944092, 0.9971438646316528, 0.33676648139953613, -1.825921654701233, -1.604552984237671, -1.8867267370224, -0.5787698030471802, 1.1863740682601929, -1.2917639017105103, 1.0090646743774414, -0.7333617210388184, -0.6750490069389343, -0.5297232270240784, 1.3860888481140137, 0.425386518239975, 1.0549283027648926, -0.34439143538475037, 0.8600280284881592, 0.7068082094192505, 1.0996521711349487, 0.830947995185852, -1.2339385747909546, 0.6895492672920227, -0.4677419066429138, 0.09491334855556488, -1.3855568170547485, 0.0351821631193161], [-0.5305137634277344, -0.1281651109457016, -0.46658414602279663, 0.5831249952316284, 0.17823661863803864, 0.9044350385665894, -0.041753385215997696, -0.5929802060127258, 0.4709501266479492, 1.0055932998657227, -0.41480669379234314, 0.9533722996711731, 0.7161343097686768, 0.562502920627594, 0.646329402923584, -0.1001514196395874, 0.37874212861061096, 0.2442999631166458, -0.540932297706604, -0.20900893211364746, 1.3506536483764648, 0.23798097670078278, 0.35310664772987366, -0.4854527711868286, 0.7576501369476318, 0.1430547833442688, 0.7387909293174744, -1.8409905433654785, -0.6256929039955139, 0.23127180337905884, 0.710642397403717, -0.777083694934845], [-0.4725404977798462, 0.3869085907936096, -0.29061704874038696, 0.34003376960754395, 0.7367866635322571, 0.5916325449943542, 0.8167188167572021, -0.41047152876853943, -0.18399547040462494, 0.04646668955683708, -0.1563446819782257, -0.01108528207987547, 0.139987513422966, 1.1087883710861206, 1.3998682498931885, -0.6990889310836792, -0.01395890861749649, 0.05460024252533913, -0.7926508784294128, 0.367570698261261, 0.5712819695472717, -0.3083699345588684, -0.1271517425775528, -0.5342450737953186, 1.1079150438308716, 0.8250586986541748, -0.3147696852684021, -2.486236333847046, -0.8517867922782898, 0.3868553936481476, 0.55781489610672, -0.5853186249732971], [-1.542342185974121, -0.5503081679344177, -1.1430169343948364, 0.6998686194419861, 0.2784002125263214, 0.19205035269260406, 0.11211399734020233, -2.284543514251709, 0.5138520002365112, 1.5637643337249756, 0.1308000236749649, 0.29218220710754395, 1.4996669292449951, 2.4848921298980713, 0.6176152229309082, 0.09132177382707596, 1.2352217435836792, 0.21708202362060547, -0.1289551854133606, 0.37242159247398376, -0.17247076332569122, -0.6032680869102478, -0.5787714719772339, -0.5260880589485168, 0.8935982584953308, 0.5820441246032715, 0.6439914107322693, -2.8187379837036133, -1.1924041509628296, -0.5547152757644653, 1.2619696855545044, -0.8324893712997437], [-1.4749568700790405, 0.041106294840574265, -0.8277091383934021, -0.08367015421390533, 0.3185039460659027, 1.022635579109192, 0.1751185804605484, -1.3905909061431885, 0.41792914271354675, 0.7889041304588318, 0.2350722849369049, 1.038984775543213, 0.772764265537262, -0.20231471955776215, 0.9068210124969482, -0.41301366686820984, 0.6756802797317505, 0.3009346127510071, -0.2876044511795044, -0.2139693945646286, 0.29471537470817566, -0.2207328826189041, -0.14574258029460907, 0.02034200355410576, 0.4561598598957062, 0.07453577220439911, 0.6140647530555725, -1.7291676998138428, -1.3433526754379272, -0.7685025334358215, 0.8166736960411072, -0.7825132608413696], [-0.8900744915008545, 0.10258994996547699, -0.16286420822143555, 0.4831114113330841, -0.23369932174682617, -0.4194797873497009, -1.5636366605758667, -0.37086236476898193, 0.4966622591018677, -0.28184670209884644, -0.108772873878479, -0.40859001874923706, -0.1670282930135727, -0.0699576735496521, 0.4679313898086548, 0.24617014825344086, -0.9367218613624573, -0.6092302799224854, 0.07340212166309357, -0.47456562519073486, 0.5085957050323486, 0.33163613080978394, 0.3245037794113159, 0.8095170855522156, -0.8786096572875977, 0.7183386087417603, 1.1469956636428833, 0.17483563721179962, -0.16373278200626373, 0.4581547975540161, 0.36748844385147095, 0.045885540544986725], [-0.5193004012107849, 1.1426382064819336, 0.3727800250053406, -0.4783570170402527, 0.6387715935707092, 0.8170620203018188, 0.9301873445510864, -0.4005562663078308, -0.9078100323677063, -0.024449370801448822, 0.20657354593276978, 0.23476967215538025, 0.414085328578949, 0.6027950048446655, 0.479841023683548, 0.11715593189001083, 0.31430137157440186, 0.08649639040231705, -0.6793218851089478, 0.08730758726596832, 0.2609788775444031, 0.8511067628860474, 0.31191232800483704, -0.1519933044910431, 0.9905358552932739, 1.0586532354354858, -0.0865451842546463, -1.127755045890808, -0.43128278851509094, -0.3820074498653412, 0.1427597999572754, -0.2541111409664154], [0.4301535487174988, -0.5859658122062683, -0.4923802614212036, -0.4663833975791931, -1.0141173601150513, -0.08464517444372177, -1.6688884496688843, 0.43771618604660034, 0.8208048939704895, -0.05065060406923294, 0.25842031836509705, -0.18330858647823334, -0.42543551325798035, 0.4127751588821411, -0.279908686876297, 0.6148867607116699, -0.8914395570755005, -1.22119140625, 0.33283916115760803, -1.0566848516464233, 0.5615739226341248, 1.5386505126953125, -0.40220069885253906, 0.7312761545181274, -1.2297563552856445, -0.6795124411582947, 1.4888510704040527, 0.3049611747264862, 0.5362593531608582, 0.8854454755783081, 0.30908989906311035, 0.0555315725505352], [-0.7174537181854248, -0.14922961592674255, -0.430921345949173, -0.08127596229314804, 0.7149884104728699, 0.5088247060775757, -0.04878189042210579, -1.0087881088256836, 0.4805508852005005, 0.4095008373260498, 0.19374796748161316, 0.7055582404136658, 0.5385243892669678, 0.1265038698911667, 1.2980928421020508, -0.40433114767074585, -0.07935643941164017, -0.3466280698776245, -0.6997154951095581, 0.5453400015830994, 0.17713996767997742, -0.08973189443349838, -0.12872973084449768, -0.27545222640037537, 0.17350520193576813, 0.6495323181152344, 0.5772905945777893, -0.8144761919975281, -1.2265565395355225, -0.5089476704597473, 0.6503921747207642, -0.756153404712677], [0.7554775476455688, 1.4937610626220703, 0.7406187057495117, -0.4296768605709076, -0.2602902352809906, -0.14235395193099976, 0.17299766838550568, 1.1368296146392822, -1.2495750188827515, -0.9524950981140137, -0.40366968512535095, -0.7772133350372314, -0.1902543306350708, -0.9886479377746582, 0.30204153060913086, 0.07592110335826874, -1.4005931615829468, -0.3433617353439331, 1.030105710029602, -0.44775843620300293, 0.07340307533740997, 0.06801610440015793, 0.006954003591090441, 1.0087776184082031, -0.4760410189628601, 0.275947242975235, -0.9126103520393372, 0.9342098832130432, -0.31032460927963257, 0.1308746188879013, -1.17328941822052, 0.6052367687225342], [-0.0350860059261322, 0.3127973973751068, -0.2378029227256775, 0.14026831090450287, 0.4384268522262573, -0.06646890193223953, -0.9118155241012573, -0.3673001527786255, 0.11562908440828323, 0.21978047490119934, 0.6951085329055786, 0.2059195637702942, 0.34878745675086975, 0.36769846081733704, 0.4480651617050171, 0.2738744020462036, 0.36422988772392273, 0.2976877689361572, -0.45142871141433716, 0.2122374027967453, -0.2519172132015228, 0.04437924921512604, 0.1130651906132698, 0.6122975945472717, -0.39044755697250366, 0.5816888809204102, 0.7070571780204773, -0.052462853491306305, -0.3036435544490814, -0.3934743404388428, 0.5336154699325562, 0.07118988037109375], [0.5833812952041626, 0.651197075843811, 0.3905197083950043, 0.19551058113574982, 0.07029522210359573, 0.096828393638134, -1.134226679801941, -0.07241442054510117, -0.6036739349365234, -0.266792893409729, -0.7197917699813843, -0.46454229950904846, 0.007142303511500359, -0.07967427372932434, -0.4865177571773529, 0.4283330738544464, -0.759697675704956, -0.3426291048526764, 0.3440510332584381, -0.1584923267364502, 0.07624965161085129, 0.8032402992248535, 0.9241736531257629, 0.4739188551902771, -0.513895571231842, 0.017893556505441666, 0.27651578187942505, -0.6058031916618347, 0.11481030285358429, 1.3044514656066895, -0.8339781165122986, -0.14352206885814667], [-1.3120741844177246, -0.6933916211128235, -0.7557775378227234, 1.4331943988800049, 0.8177335858345032, -1.1791795492172241, 0.41963061690330505, -0.7134167551994324, 0.7792989015579224, 0.21928152441978455, 1.1779474020004272, 1.0853544473648071, 0.9972123503684998, 1.3242892026901245, 1.2680672407150269, -0.26185494661331177, 1.2466624975204468, 0.8940464854240417, -1.4053598642349243, 0.8948985934257507, -0.9892153739929199, -1.8610892295837402, -1.1062418222427368, 1.205804705619812, 0.6372377872467041, 0.24413345754146576, 0.37050992250442505, -1.2861847877502441, -0.938673198223114, -1.2356690168380737, 0.7757901549339294, -0.11466354131698608], [-1.3373957872390747, -0.44745534658432007, -0.6829392313957214, 0.030992398038506508, 0.27343642711639404, 0.01836111955344677, 0.029463671147823334, -0.864387035369873, 0.415732741355896, 0.4706345200538635, -0.23908598721027374, 0.674252986907959, 1.3880939483642578, 0.8858842253684998, 0.5448554158210754, -0.17386673390865326, 0.5313918590545654, 0.03328242897987366, -0.05351623147726059, 0.08301670849323273, 0.08440657705068588, 0.008715465664863586, 0.27363020181655884, 0.13658596575260162, 0.7236189246177673, 0.7263873815536499, 0.50971519947052, -0.8255951404571533, -0.6805656552314758, 0.3507641553878784, 0.7780745029449463, -1.4406522512435913], [-0.6496424078941345, 2.8421714305877686, 2.0377140045166016, -2.6478915214538574, 1.189721703529358, 1.6977806091308594, 1.964043378829956, -0.7667940855026245, -2.1811141967773438, -0.6818193197250366, -1.5312318801879883, -0.8055689930915833, 0.7832702398300171, 0.34501373767852783, 0.19873517751693726, -1.4318746328353882, -0.14656905829906464, -0.997169554233551, 1.6367696523666382, 1.1775991916656494, 0.7988429069519043, -1.4051110744476318, 1.5665843486785889, 0.2658170461654663, 1.9351319074630737, 0.7714441418647766, -1.772264838218689, 0.08387676626443863, -0.8914511203765869, -0.0377749465405941, -1.6776074171066284, 0.5501339435577393], [-1.8120789527893066, -1.8887364864349365, -1.5510313510894775, -0.21115165948867798, -0.392965704202652, 0.34413036704063416, -0.4703153073787689, -0.9366563558578491, 1.8587766885757446, 1.0934478044509888, 0.11838895827531815, 1.2969380617141724, 1.4866679906845093, 2.068892240524292, 0.857049286365509, 1.1222565174102783, 1.2701714038848877, -0.7257184982299805, -1.1604481935501099, -0.7638551592826843, 0.7847445011138916, 0.3760479986667633, 0.19467294216156006, -0.6178446412086487, 0.7147111892700195, -0.34481680393218994, 2.514981985092163, -1.607826828956604, -0.11106705665588379, 0.47966906428337097, 1.3442144393920898, -2.409071207046509], [-0.6544309854507446, 0.22873282432556152, 0.11547008156776428, 0.5151472687721252, 0.22732895612716675, 0.07845702767372131, 0.032550256699323654, -0.2203439623117447, 0.26337897777557373, -0.024008719250559807, -0.029648909345269203, 0.19246849417686462, -0.19280706346035004, 0.3488469421863556, 0.477931946516037, 0.09846075624227524, -0.004097886383533478, 0.16249839961528778, -0.24026034772396088, -0.08931753039360046, 0.13062776625156403, 0.08497054874897003, -0.022639822214841843, -0.3458792269229889, 0.08671228587627411, 0.3470795452594757, 0.06870650500059128, 1.4445459783019032e-05, 0.2060185670852661, -0.1756266951560974, -0.39777588844299316, -0.8985788822174072], [0.0051500676199793816, 0.5518820285797119, 0.4906506836414337, -0.2873917520046234, -0.018916189670562744, 1.314792275428772, 0.3566606342792511, -0.34951144456863403, -0.5971629619598389, -0.08177202194929123, -0.18089616298675537, 0.01680789701640606, -0.11619176715612411, 0.21735338866710663, -0.21257629990577698, 0.041756052523851395, 0.11047600954771042, -0.40799278020858765, -0.3008287847042084, 0.07273241132497787, 0.39404183626174927, 0.05830709636211395, 0.6308330297470093, -0.27392488718032837, 0.7152701616287231, 0.37000516057014465, -0.6095193028450012, -0.45687156915664673, 0.2827512323856354, 0.25378480553627014, -0.18520691990852356, -0.03464178368449211], [0.08100611716508865, 0.2559865713119507, -0.19837185740470886, 0.07882358878850937, 0.03476748242974281, 0.41874903440475464, 0.09227398782968521, 0.16903947293758392, -0.21937385201454163, 0.25043579936027527, 0.2278885543346405, 0.111665278673172, -0.07057897746562958, 0.21640358865261078, -0.15192380547523499, 0.03923223167657852, 0.024122612550854683, 0.43324029445648193, -0.1575133204460144, -0.2648405134677887, -0.04857911542057991, -0.0365263856947422, 0.22004400193691254, 0.07924548536539078, 0.04691915586590767, 0.14334724843502045, -0.23156176507472992, -0.35124507546424866, 0.1283990740776062, -0.01874048262834549, 0.0020901369862258434, 0.21035729348659515], [-0.18933141231536865, 0.16190996766090393, 0.11945224553346634, 0.32950177788734436, -0.24554774165153503, 0.2876872718334198, -0.22153262794017792, -0.008680603466928005, 0.11861065775156021, -0.22345523536205292, -0.4164879322052002, 0.1330767124891281, -0.3533153831958771, 0.1480545699596405, 0.3644227385520935, 0.12234265357255936, -0.03930072858929634, -0.3307558000087738, 0.23238369822502136, -0.27516812086105347, 0.21199920773506165, 0.0382656566798687, -0.18580394983291626, -0.10004532337188721, -0.03308992087841034, -0.5342516899108887, 0.24935390055179596, -0.054135631769895554, 0.40863069891929626, 0.1716585010290146, -0.3477185070514679, -0.3296445310115814], [0.2890506684780121, 0.869160532951355, 0.45099347829818726, -1.0161229372024536, 0.2155071496963501, 1.0572401285171509, 0.36673566699028015, -0.277548611164093, -0.8653643131256104, -0.03171151876449585, -0.5298144221305847, -0.25599032640457153, 0.13231436908245087, 0.5017307996749878, 0.09130565822124481, 0.03263983502984047, 0.06108269840478897, -0.002409219741821289, 0.07106178253889084, 0.18818368017673492, 0.9758985638618469, 0.33843928575515747, 1.0507670640945435, 0.14838461577892303, 0.5096549391746521, 0.8977622389793396, -0.37267693877220154, -0.06848280131816864, 0.05509306117892265, 0.5188614726066589, -0.2845441997051239, 0.1473238170146942], [0.21397309005260468, -0.01652398332953453, -0.03325440362095833, -0.2937135398387909, -0.08760638535022736, 0.5834318399429321, 0.138308584690094, 0.21887126564979553, 0.0034724497236311436, -0.007912209257483482, 0.1364656686782837, 0.0036162463948130608, -0.2272246778011322, 0.08896781504154205, 0.27776044607162476, 0.015544109046459198, -0.23143699765205383, -0.06886833906173706, -0.01070368941873312, -0.16312912106513977, -0.16810667514801025, 0.005894352216273546, 0.14165055751800537, -0.4356641471385956, 0.08313794434070587, 0.07310919463634491, -0.054218679666519165, 0.0526299849152565, -0.15990212559700012, 0.1425027698278427, -0.13103854656219482, 0.11626448482275009], [-0.10801912844181061, -0.10030058771371841, 0.12044266611337662, -0.26482123136520386, -0.017251484096050262, 0.2669104337692261, 0.10246756672859192, -0.15632759034633636, -0.021933479234576225, 0.2982158362865448, 0.32483935356140137, -0.10938010364770889, -0.0713983103632927, -0.12348354607820511, -0.5640790462493896, -0.05332816392183304, -0.04219027981162071, -0.014844086952507496, -0.0481259822845459, 0.05804009363055229, 0.1642603725194931, -0.0805925652384758, 0.03125074878334999, 0.49067968130111694, 0.08446978777647018, 0.24984119832515717, -0.2617909610271454, 0.17052264511585236, -0.1300196498632431, -0.12060002982616425, -0.07994627952575684, -0.020337790250778198], [0.39399856328964233, 0.0834474191069603, -0.05062952637672424, 0.2255273163318634, -0.004208337049931288, -0.5047292709350586, 0.04564029723405838, -0.07019312679767609, -0.16900791227817535, 0.10368101298809052, -0.08068367093801498, 0.2106103003025055, -0.15288479626178741, -0.2950073778629303, 0.4672798216342926, -0.5094517469406128, -0.22485783696174622, 0.014527756720781326, -0.07938043028116226, 0.05736431106925011, -0.21553267538547516, 0.2695496082305908, -0.1895298957824707, -0.06322626769542694, 0.02940765768289566, 0.22155402600765228, -0.23772133886814117, 0.3887258470058441, 0.3005810081958771, -0.04260848090052605, -0.16354277729988098, -0.7540807723999023], [-0.10270813852548599, -0.3910945653915405, -0.05499748885631561, 0.14120548963546753, -0.12688328325748444, -1.1121445894241333, -0.12211193144321442, -0.1427619904279709, 0.1819881647825241, -0.025484558194875717, -0.020681938156485558, 0.22758515179157257, -0.009827707894146442, 0.031833503395318985, 0.06270540505647659, -0.5424493551254272, 0.38098710775375366, 0.28169330954551697, 0.2689007520675659, -0.06986122578382492, -0.38514429330825806, -0.30622756481170654, -0.627251148223877, -0.02741878665983677, -0.21046055853366852, -0.4312495291233063, 0.3434213697910309, 0.003261495614424348, -0.4584956765174866, -0.24469093978405, 0.06746044754981995, 0.05191265419125557], [-0.47643670439720154, 0.048495616763830185, -0.07771634310483932, 0.30974340438842773, 0.04870674014091492, -0.17169499397277832, 0.12363496422767639, -0.2665841579437256, 0.25945350527763367, -0.9105940461158752, -0.5001149773597717, 0.3713517189025879, -0.11094428598880768, -0.0669548287987709, -0.15934178233146667, -0.011325273662805557, 0.438090443611145, 0.2680736780166626, -0.13272854685783386, 0.053357288241386414, 0.06217729300260544, 0.36010879278182983, 0.05327024683356285, -0.6017065048217773, 0.13619786500930786, -0.18325835466384888, -0.08435860276222229, -0.10619955509901047, 0.29352566599845886, 0.28008368611335754, 0.5099484324455261, 0.1875702291727066], [0.044647954404354095, 0.004193627741187811, 0.04336627200245857, -0.40374666452407837, -0.2506263852119446, -0.15634775161743164, 0.2863819897174835, -0.14891307055950165, -0.011083826422691345, -0.14755487442016602, -0.1177404522895813, 0.10183648020029068, 0.29120007157325745, -0.17136918008327484, -0.08696915209293365, 0.05245209485292435, -0.03838956356048584, 0.010737739503383636, -0.06222706288099289, 0.1906186044216156, 0.05150284618139267, 0.1813015192747116, 0.03665599972009659, 0.7681381702423096, 0.014003990218043327, 0.3571591377258301, 0.07366619259119034, 0.12557901442050934, 0.058443065732717514, 0.038115493953228, -0.1969851851463318, -0.09434530138969421], [-0.04471268132328987, 0.10835979133844376, -0.1895216852426529, 0.2241867333650589, -0.41187143325805664, 0.09595132619142532, -0.1301858127117157, -0.028575347736477852, 0.2797457277774811, -0.24973821640014648, 0.049993183463811874, 0.03262724727392197, -0.17648617923259735, -0.06383253633975983, -0.338661253452301, 0.45760810375213623, 0.06635362654924393, -0.16776321828365326, 0.24211083352565765, 0.09584162384271622, 0.01634112000465393, 0.017891671508550644, -0.16703547537326813, -0.38217613101005554, -0.0746539980173111, -0.18078018724918365, 0.31546419858932495, 0.31109336018562317, 0.1209733784198761, 0.0053621623665094376, 0.023598026484251022, -0.06071384996175766], [0.35784074664115906, -0.17296376824378967, -0.10043258219957352, -0.061041347682476044, -0.1405441164970398, 0.05300004780292511, -0.3526190221309662, 0.044252023100852966, 0.340320885181427, -0.17677439749240875, -0.20336079597473145, 0.13090693950653076, -0.3435593843460083, -0.20801670849323273, 0.02699824422597885, 0.0012621729401871562, 0.060069359838962555, -0.06600826978683472, 0.4259589612483978, -0.001097117899917066, -0.005810611415654421, 0.07827714085578918, -0.12307993322610855, -0.8415370583534241, -0.22013239562511444, 0.26908278465270996, -0.0006633782759308815, 0.16318906843662262, -0.11627659201622009, 0.09478381276130676, -0.14822736382484436, 0.04454253986477852], [0.07589422911405563, -0.046010229736566544, -0.2505866587162018, 0.8333125114440918, -0.012078153900802135, -0.04185584932565689, -0.0312647745013237, 0.13912974298000336, 0.10996544361114502, 0.10498959571123123, -0.48465055227279663, -0.014245505444705486, -0.3420453369617462, -0.20537859201431274, 0.9076991677284241, -0.009820127859711647, -0.4470389187335968, -0.232243612408638, -0.11301252245903015, -0.16241586208343506, -0.07330849021673203, -0.2504805624485016, 0.05071742460131645, -0.2321983128786087, 0.047324974089860916, -0.16224385797977448, 0.12159222364425659, -0.25551897287368774, 0.12938277423381805, -0.0638028085231781, 0.3279710114002228, 0.03585854545235634], [0.09877435863018036, 0.094460628926754, 0.1908676028251648, 0.2870102524757385, -0.015001805499196053, 0.02588227391242981, 0.12165890634059906, 0.03012087009847164, 0.06395497918128967, 0.5286229848861694, 0.15657348930835724, 0.3725167512893677, 0.1048886626958847, 0.4155289828777313, -0.22773754596710205, -0.2665098309516907, -0.0003980716282967478, 0.1172570288181305, 0.5168537497520447, -0.06615939736366272, 0.10104594379663467, -0.3527577519416809, -0.002974600763991475, -1.0526437759399414, -0.08847475051879883, 0.29455894231796265, -0.23436351120471954, 0.38273414969444275, 0.05358840152621269, -0.05088232830166817, -0.14162501692771912, 0.15387874841690063], [0.00848094467073679, -0.044632431119680405, -0.16572123765945435, -0.05475320294499397, -0.18487979471683502, 0.5620967745780945, 0.11876307427883148, -0.39778921008110046, 0.08663217723369598, 0.13188816606998444, -0.3271218240261078, 0.2361353039741516, -0.04096156358718872, 0.21630561351776123, 0.5338323712348938, -0.2235223799943924, 0.03912763670086861, -0.5597033500671387, -0.16490469872951508, -0.12140762060880661, 0.11863862723112106, -0.48223137855529785, -0.10878897458314896, 0.38498586416244507, 0.18309453129768372, -0.3649805188179016, 0.1198602020740509, -0.22152858972549438, 0.21108002960681915, -0.10278628021478653, -0.11047157645225525, 0.10184371471405029], [0.0007859659381210804, -0.13306710124015808, -0.03562792018055916, 0.12163534760475159, -0.17358478903770447, -0.14586438238620758, -0.3236980140209198, 0.10265006870031357, 0.010618921369314194, -0.018758416175842285, 0.3479744493961334, 0.10377009212970734, 0.2188621461391449, -0.22300414741039276, -0.1936323195695877, 0.11659079045057297, 0.0925997942686081, -0.09580735862255096, 0.014990754425525665, 0.29870399832725525, -0.05011649802327156, 0.021860258653759956, -0.2337450385093689, 0.7438556551933289, 0.048453353345394135, 0.03314489498734474, 0.29261401295661926, -0.1179291382431984, -0.2119733691215515, -0.11020743101835251, -0.07439690828323364, 0.046941597014665604], [-0.011191286146640778, 0.35969337821006775, -0.11662991344928741, 0.011965185403823853, -0.03270699828863144, -0.44250279664993286, 0.0511789433658123, 0.08004684001207352, 0.10762405395507812, 0.3065853416919708, -0.18473868072032928, 0.14079050719738007, 0.07477428764104843, 0.11451274156570435, -0.6789097189903259, 0.14047764241695404, 0.1363556832075119, 0.5071260929107666, 0.21925294399261475, -0.15799443423748016, 0.15939676761627197, 0.19035378098487854, -0.12741994857788086, 0.020583612844347954, 0.5332810282707214, 0.07115419954061508, -0.11282051354646683, -0.023347606882452965, 0.07186765223741531, 0.19165457785129547, 0.28000202775001526, 0.24716752767562866], [-0.00713377445936203, 0.35359251499176025, 0.15579886734485626, 0.22325876355171204, 0.1333073377609253, -0.44799473881721497, -0.2044842392206192, 0.046897366642951965, 0.029627326875925064, -0.011529169045388699, 0.1310797482728958, -0.21865005791187286, 0.03757818043231964, 0.17528869211673737, -0.09369593858718872, -0.2896479666233063, -0.10832250863313675, 0.2530045211315155, 0.30197957158088684, -0.18293355405330658, -0.17591184377670288, -0.34500852227211, -0.35533592104911804, -0.2561687231063843, -0.34131500124931335, 0.5227289199829102, -0.2169925570487976, -0.28205767273902893, 0.14731402695178986, -0.08704022318124771, 0.11612053215503693, -0.18506960570812225], [0.12451600283384323, 0.08840873092412949, 0.2807866930961609, -0.0902014970779419, -0.12462722510099411, 0.02275630459189415, 0.26901620626449585, -0.3174606263637543, -0.2405872344970703, 0.0976976603269577, -0.15550485253334045, -0.047210291028022766, 0.502995491027832, -0.1746339052915573, 0.24327482283115387, 0.07262708246707916, 0.044758141040802, -0.005745214410126209, 0.12956564128398895, 0.15455658733844757, 0.13743658363819122, 0.07027801126241684, 0.24835382401943207, 0.5890841484069824, 0.24993057548999786, 0.7546243667602539, 0.11815687268972397, 0.0792151466012001, 0.13588564097881317, 0.205439954996109, -0.5536566376686096, -0.3087482154369354], [-0.17605023086071014, -0.1921636015176773, -0.07572334259748459, -0.4013111889362335, 0.07621702551841736, 0.3229016661643982, -0.03357463702559471, 0.11823200434446335, -0.04825364053249359, 0.09760396927595139, 0.08284005522727966, -0.10106438398361206, -0.1734921634197235, -0.36871272325515747, 0.13000041246414185, -0.11200257390737534, 0.048839230090379715, 0.010459214448928833, -0.11759796738624573, -0.1712879091501236, -0.3166852593421936, -0.08182307332754135, -0.15911875665187836, -0.11105956137180328, -0.11857394129037857, -0.10728047788143158, 0.036729633808135986, 0.034838415682315826, -0.18220734596252441, 0.13137586414813995, 0.22397969663143158, -0.2544946074485779], [-0.010963835753500462, -0.10276207327842712, 0.15745992958545685, -0.37828415632247925, -0.1402885913848877, 0.0584917813539505, 0.18307824432849884, 0.2933972179889679, 0.1678602397441864, -0.43652668595314026, -0.06551553308963776, -0.04493292048573494, -0.14168216288089752, 0.05942666530609131, 0.46809613704681396, 0.05646078288555145, -0.10651525110006332, -0.18100906908512115, -0.05298970267176628, -0.18614637851715088, 0.2435673028230667, -0.1049337312579155, 0.31684038043022156, 0.05970928072929382, 0.2092052847146988, 0.23372410237789154, 0.4054269790649414, -0.0272383876144886, 0.148437038064003, 0.11748954653739929, 0.2658018469810486, -0.7408314347267151], [-0.10732937604188919, 0.21144159138202667, -0.14613310992717743, -0.34525856375694275, 0.12189842760562897, 0.9314513802528381, -0.030687734484672546, -0.05006978288292885, 0.027336932718753815, -0.2170092612504959, 0.134186252951622, 0.07873283326625824, 0.17843106389045715, 0.19056417047977448, -0.2770463824272156, -0.03244924172759056, 0.02028520777821541, -0.21326053142547607, -0.20941096544265747, 0.0600910522043705, -0.09549842029809952, 0.026064302772283554, 0.45763829350471497, -0.08468128740787506, 0.4414929151535034, 0.5459259152412415, -0.1426781862974167, -0.0057462770491838455, -0.09709028899669647, 0.1388469636440277, 0.1346919685602188, -0.04827175661921501], [-0.05960525944828987, -0.16046170890331268, 0.3733622133731842, -0.04876264929771423, 0.08167609572410583, 0.43079322576522827, 0.22138230502605438, -0.16671700775623322, -0.22645871341228485, -0.12422921508550644, -0.04028358682990074, -0.0017376195173710585, -0.6747204661369324, -0.004495352040976286, -0.32143715023994446, 0.03132406249642372, 0.1315722018480301, 0.026751171797513962, -0.1639455109834671, -0.1612040102481842, 0.20543891191482544, -0.17435568571090698, 0.13702720403671265, -0.0882239043712616, 0.2970864772796631, -0.9515732526779175, -0.18111927807331085, -0.0993397906422615, 0.3049660921096802, 0.26268237829208374, -0.024787794798612595, 0.08023346215486526], [-0.12274311482906342, 0.3477228879928589, 0.11887025833129883, -0.4147106409072876, -0.23656263947486877, 0.5090907216072083, -0.044210754334926605, -0.1140228658914566, -0.06421816349029541, -0.22223202884197235, 0.057739391922950745, 0.041047602891922, 0.06209781393408775, 0.0025555340107530355, -0.2547549903392792, -0.05561172217130661, -0.10150064527988434, -0.2803780436515808, 0.0916222557425499, -0.07192517071962357, 0.17262941598892212, 0.10046898573637009, 0.2750558853149414, -0.23566146194934845, 0.2941427230834961, 0.17477460205554962, -0.10829497128725052, -0.3246394097805023, 0.02008412964642048, 0.24192699790000916, 0.20859704911708832, -0.014059610664844513], [-0.027208955958485603, 0.23883654177188873, -0.12531013786792755, 0.19655318558216095, -0.016785798594355583, -0.01435835100710392, -0.32985836267471313, -0.0345054529607296, 0.028403596952557564, 0.21937713027000427, 0.1361190676689148, 0.04117823764681816, -0.0011968833860009909, 0.008014783263206482, 0.009816101752221584, 0.0059583173133432865, -0.15406925976276398, -0.002846377668902278, -0.07004452496767044, -0.2246869057416916, 0.08361423760652542, 0.022722264751791954, 0.1681062877178192, -1.4256327152252197, -0.10798852145671844, 0.12376804649829865, 0.13198044896125793, 0.17729033529758453, 0.1777314692735672, 0.13075751066207886, 0.032532356679439545, 0.01822597160935402], [0.04716430604457855, -0.6404200792312622, -0.16315144300460815, 0.2998048961162567, -0.29558542370796204, -0.3128645420074463, -0.46758079528808594, 0.19176483154296875, 0.5410398244857788, -0.09681280702352524, -0.12157279253005981, 0.12968307733535767, -0.03898748755455017, 0.026199806481599808, -0.045983292162418365, -0.24768714606761932, 0.010700211860239506, 0.2293577939271927, 0.2088453322649002, -0.2141462117433548, -0.032420456409454346, 0.12733328342437744, -1.0649027824401855, -0.06444942951202393, -0.20589672029018402, -0.4379769265651703, 0.4651080071926117, -0.039779383689165115, -0.18164430558681488, -0.2997264862060547, 0.22308476269245148, -0.05860993638634682], [0.3402445614337921, 0.32958608865737915, 0.1090291365981102, 0.029571659862995148, 0.13544611632823944, -0.8944132924079895, -0.024489620700478554, 0.40757444500923157, -0.08565027266740799, -0.07050551474094391, 0.09466531127691269, 0.1620754450559616, 0.2923223376274109, -0.29385414719581604, -0.6757251620292664, -0.06763192266225815, -0.18495525419712067, 0.3457387685775757, 0.28202784061431885, 0.042309992015361786, -0.31988173723220825, 0.024393556639552116, -0.31897106766700745, -0.1711350679397583, -0.08394638448953629, 0.47120794653892517, 0.09459694474935532, 0.03897107020020485, 0.21694625914096832, 0.06828004121780396, -0.37085968255996704, 0.2909618318080902], [-0.23032502830028534, 0.45226070284843445, -0.14341317117214203, 0.4172782897949219, -0.08874928206205368, 0.2580130994319916, -0.22810418903827667, -0.06839191913604736, -0.10205081105232239, -0.27804622054100037, -0.2990790903568268, 0.01241602934896946, -0.3600805401802063, 0.1085272952914238, -0.06770601868629456, -0.14215147495269775, -0.0008458351367153227, -0.2644491493701935, 0.14198026061058044, -0.28626182675361633, -0.09794918447732925, 0.1050766110420227, 0.3137175142765045, -0.5646840333938599, 0.37944692373275757, -0.4653301537036896, 0.4045649468898773, -0.22659502923488617, 0.0435422882437706, 0.20764175057411194, -0.26175418496131897, -0.1967475712299347], [-0.14549772441387177, 0.08888765424489975, 0.22893255949020386, -0.38509270548820496, 0.002015028614550829, 0.39389270544052124, 0.18771088123321533, -0.3316723704338074, 0.10414770245552063, 0.22204288840293884, -0.2549787163734436, -0.2314784824848175, -0.12386340647935867, -0.005096853245049715, -0.16498440504074097, -0.0012537764851003885, -0.024253493174910545, -0.34260910749435425, 0.012257523834705353, -0.31563812494277954, 0.3654794991016388, -0.0034567839466035366, 0.38466373085975647, -0.37423190474510193, 0.3094787895679474, -0.10606025159358978, 0.3087490499019623, -0.3556418716907501, -0.08664868026971817, 0.0948413610458374, 0.0627143457531929, -0.03711327910423279], [0.4203016459941864, -0.41848766803741455, -0.21622852981090546, 0.29385581612586975, -0.041340481489896774, -0.40598759055137634, -0.15159454941749573, 0.06342246383428574, 0.6404179334640503, 0.3350462317466736, 0.13721328973770142, 0.19150280952453613, -0.13321959972381592, 0.04902157559990883, 0.057519372552633286, -0.021564703434705734, -0.0990898534655571, 0.054686762392520905, 0.22438044846057892, 0.34104618430137634, -0.4033493101596832, -0.3160434365272522, -0.3078630566596985, 0.6034934520721436, -0.5005549788475037, -0.1402474343776703, 0.3225061595439911, 0.14507754147052765, -0.13496820628643036, 0.1429244428873062, 0.02651340141892433, -0.06063854694366455], [-0.547202467918396, 0.4548207223415375, -0.18669432401657104, 0.3400169312953949, -0.13933828473091125, 0.17646214365959167, -0.2149098515510559, -0.14541581273078918, 0.2535015344619751, 0.5904512405395508, 0.28076836466789246, 0.859088659286499, 0.6918343305587769, 1.2989133596420288, 0.21863576769828796, 0.3387954831123352, 0.14533185958862305, 0.06456944346427917, -0.25672003626823425, -0.13829173147678375, 0.0011107217287644744, -0.08808024972677231, 0.24810944497585297, 0.055256497114896774, 0.14138467609882355, -0.2532593607902527, -0.08964096754789352, -0.22126053273677826, -0.06092577427625656, -0.04274372756481171, -0.2343386858701706, -1.1156266927719116]], "rec.bias_ih_l0": [-0.30044305324554443, 0.4268895089626312, -0.12512914836406708, -0.7190870046615601, 0.25339117646217346, -1.2120052576065063, -0.4385054111480713, -0.596118152141571, 0.0869511291384697, -0.040184386074543, -0.5071697235107422, -0.24630245566368103, 0.07629693299531937, -0.09582865983247757, -0.0868372842669487, -0.35334426164627075, -0.29774320125579834, -0.4798857569694519, -0.07656144350767136, 0.0707114189863205, -0.62472003698349, 0.02388131245970726, -0.4411344528198242, 0.00858732033520937, 0.37810882925987244, 0.040541164577007294, 0.2937089800834656, -0.1140277236700058, 0.39328762888908386, -0.03634818643331528, 0.48471394181251526, 0.20526431500911713, -0.9656246304512024, -0.4400891363620758, -0.33391937613487244, -0.20882867276668549, -0.3112422525882721, -0.27791908383369446, -0.26420775055885315, -1.0741859674453735, -0.04000137001276016, -0.1500617116689682, -0.8964337706565857, 0.5813167095184326, 0.5606108903884888, -0.1877668797969818, 0.6055614352226257, 0.08170944452285767, 0.13383127748966217, -0.3718671202659607, -0.2675033509731293, -0.6846364736557007, -0.5567683577537537, 0.10791164636611938, -0.05159986391663551, 0.8087164759635925, -0.4711730480194092, 0.8342952728271484, 0.020294437184929848, 0.22459813952445984, -0.9451257586479187, -0.20095045864582062, 0.015166180208325386, 0.08843298256397247, 0.1260034590959549, 0.19125540554523468, 0.07978328317403793, -0.0740465447306633, -0.08854320645332336, -0.00805441290140152, -0.0882788822054863, 0.07231183350086212, -0.17921239137649536, 0.001503467676229775, 0.007977351546287537, -0.15395447611808777, -0.14108356833457947, 0.06900481134653091, 0.11914461106061935, 0.030843719840049744, -0.02986178919672966, -0.06677072495222092, 0.20706847310066223, -0.06569413840770721, 0.03261757269501686, -0.011476942338049412, -0.00886845774948597, -0.0616338811814785, -0.08437402546405792, -0.04984840005636215, 0.0910063236951828, 0.04231874272227287, -0.03672163560986519, 0.07241469621658325, -0.05611400678753853, 0.07293173670768738], "rec.bias_hh_l0": [-0.3154240846633911, 0.4054209291934967, -0.12339948117733002, -0.7045878767967224, 0.49773913621902466, -0.936525285243988, -0.5030287504196167, -0.41759443283081055, 0.09707404673099518, 0.030272813513875008, -0.683513343334198, 0.08943049609661102, -0.089456707239151, -0.05543125793337822, -0.37498679757118225, -0.42874985933303833, -0.12118661403656006, -0.2472383826971054, 0.037862397730350494, -0.10653252899646759, -0.4930882453918457, -0.20847392082214355, -0.5350329875946045, 0.02273579128086567, 0.038317594677209854, 0.2871292233467102, 0.2240256518125534, 0.010247878730297089, 0.15638327598571777, -0.031016405671834946, 0.4857822060585022, 0.163991317152977, -1.1229829788208008, -0.36620205640792847, -0.2864537537097931, -0.1727648377418518, -0.3219580054283142, -0.2747695744037628, -0.0525529645383358, -1.10250985622406, -0.11835910379886627, -0.32018357515335083, -0.895889937877655, 0.6033846139907837, 0.5677305459976196, -0.05156068876385689, 0.721934974193573, 0.2578287720680237, 0.07561665028333664, -0.2522517144680023, -0.20801499485969543, -0.531369686126709, -0.555053174495697, 0.2704367935657501, -0.21363705396652222, 0.6932363510131836, -0.3129028379917145, 0.8027689456939697, -0.06372302025556564, 0.30796244740486145, -0.9781394004821777, -0.0709255263209343, 0.0800807848572731, 0.04085169732570648, -0.024315960705280304, -0.058724842965602875, 0.061443477869033813, -0.16472244262695312, 0.024609258398413658, -0.12795232236385345, -0.118131622672081, 0.0845855325460434, 0.037379514425992966, -0.15111026167869568, -0.11285023391246796, -0.21265430748462677, -0.02758219838142395, -0.2417658120393753, -0.1486874520778656, -0.09417985379695892, -0.23040010035037994, -0.011782282963395119, 0.013906902633607388, -0.15655826032161713, -0.0475706048309803, 0.1918378472328186, 0.1782737672328949, 0.11331698298454285, -0.11847233027219772, -0.09330900758504868, -0.14226482808589935, 0.1894487887620926, 0.06328125298023224, 0.06055738404393196, 0.0875081717967987, 0.20627467334270477], "lin.weight": [[-0.30128780007362366, 0.030527984723448753, -0.06891072541475296, -0.018904047086834908, -0.1852477788925171, 0.011901592835783958, 0.2006911337375641, -0.1701117902994156, 0.033337514847517014, -0.18774382770061493, -0.17144739627838135, -0.3222852349281311, -0.055754709988832474, 0.07807540148496628, 0.04776245355606079, 0.034331392496824265, 0.04576396197080612, -0.2918473184108734, -0.014466984197497368, 0.038371872156858444, 0.24648776650428772, -0.21969828009605408, 0.047068092972040176, -0.034875962883234024, -0.09569983929395676, 0.02776392363011837, -0.05912913754582405, 0.1546572893857956, 0.09580681473016739, 0.001131362863816321, 0.19297972321510315, -0.14987656474113464]], "lin.bias": [-0.08961369842290878]}}