{"model_data": {"model": "SimpleRNN", "input_size": 1, "skip": 1, "output_size": 1, "unit_type": "GRU", "num_layers": 1, "hidden_size": 32, "bias_fl": true}, "state_dict": {"rec.weight_ih_l0": [[-0.6162216067314148], [2.272515296936035], [0.8585302233695984], [-1.9479382038116455], [1.9949766397476196], [-0.4600960612297058], [-0.9745033979415894], [1.6605467796325684], [0.9231078028678894], [1.7875138521194458], [-0.09072719514369965], [0.3508363366127014], [0.4826430082321167], [1.0606681108474731], [0.4747862219810486], [0.6968370676040649], [0.348258912563324], [-0.6964400410652161], [-0.3022240400314331], [-0.1325410008430481], [-0.22811079025268555], [0.08280965685844421], [-0.7209486365318298], [0.048705488443374634], [0.7180299162864685], [-0.09238263964653015], [-0.5899628400802612], [0.057733967900276184], [-0.3661198616027832], [0.5713616609573364], [-1.5435177087783813], [0.9555225968360901], [0.5599578022956848], [-1.1466727256774902], [-0.8211504220962524], [1.2555289268493652], [1.5026649236679077], [1.9504097700119019], [0.44814518094062805], [-0.0752955749630928], [0.20746536552906036], [0.10722313076257706], [1.0514975786209106], [0.6492888331413269], [-0.561504065990448], [-0.11439714580774307], [-0.2837478816509247], [-1.3597171306610107], [-1.948341727256775], [-2.293057918548584], [-0.9825718402862549], [-0.8218258023262024], [-2.38065505027771], [1.3194890022277832], [-0.8208903074264526], [0.807843029499054], [-1.7286690473556519], [0.16184461116790771], [0.4570673108100891], [-0.9522724151611328], [0.6671006083488464], [-0.26441431045532227], [-2.631406545639038], [-0.8110067844390869], [0.8440601825714111], [-2.0063655376434326], [-1.379103660583496], [1.7827494144439697], [-0.952570378780365], [-3.8541431427001953], [-0.7978348135948181], [0.9481150507926941], [2.8505423069000244], [0.8738275170326233], [0.6490201354026794], [0.012304539792239666], [0.24295663833618164], [-0.1062123253941536], [-0.4395354390144348], [0.009489352814853191], [0.4494316875934601], [1.593711495399475], [0.037436969578266144], [0.5194842219352722], [-1.367486834526062], [-0.09262213110923767], [-6.3079752922058105], [0.15035602450370789], [-1.9859755039215088], [-0.24060583114624023], [1.0809496641159058], [0.25160878896713257], [-0.15665867924690247], [-0.34018805623054504], [1.0515499114990234], [0.8990277051925659]], "rec.weight_hh_l0": [[0.9166404008865356, -0.13725289702415466, 0.16927960515022278, 0.39239364862442017, 0.2150176465511322, 0.5592018365859985, -0.3607575595378876, 0.660921573638916, 0.077581986784935, -0.4658101499080658, -0.3989556133747101, -0.36512842774391174, -0.1973879337310791, -0.2610883116722107, 1.062178611755371, -0.11845369637012482, -0.540229082107544, -1.0789744853973389, 1.2676022052764893, -0.6224024295806885, -0.09381208568811417, -0.3540925681591034, -0.07639382034540176, -1.0699138641357422, -0.4271315932273865, -0.0660027489066124, 0.083633191883564, 0.38190963864326477, 0.1559200882911682, -0.3779855966567993, 0.20051589608192444, -0.7601506114006042], [-0.010701233521103859, -0.9670480489730835, -0.5045662522315979, 0.25860530138015747, -0.287381649017334, -1.9167935848236084, -0.67214035987854, 0.6371847987174988, 1.0320777893066406, 0.32882949709892273, 0.38846632838249207, -0.3775371015071869, 0.030854422599077225, -0.16589681804180145, -0.894794762134552, 0.5188266038894653, -0.04966244101524353, 0.32784292101860046, -0.016913048923015594, -0.4711911380290985, -0.19718138873577118, 0.4626815915107727, -0.25467726588249207, 0.7167905569076538, -1.0530362129211426, 0.31777241826057434, 0.6691849827766418, 0.40288180112838745, -0.07250960916280746, -0.043754879385232925, 0.44554004073143005, 0.022152721881866455], [0.7941285371780396, -0.13095375895500183, 0.0859275609254837, 0.5673024654388428, 0.12547601759433746, -0.3285120129585266, -0.20112299919128418, -0.4172431230545044, 0.275023877620697, 0.21515516936779022, -0.4298342168331146, 0.06814178079366684, 0.3424304127693176, -0.217318594455719, -0.7291073203086853, -0.49540644884109497, -0.01588779129087925, 0.658711314201355, 0.11354018747806549, 0.028464745730161667, -0.48696932196617126, -0.5729912519454956, -0.6045590043067932, -0.2131875902414322, -0.27104252576828003, 0.4906868636608124, -0.051029812544584274, -0.10567407310009003, -0.21082153916358948, -0.2482781559228897, 0.9096249341964722, -1.3532257080078125], [-0.9560484290122986, 0.08304127305746078, 0.09072019159793854, 0.6299821734428406, 0.1711808294057846, 0.9507420063018799, 0.12686997652053833, -1.003138542175293, 0.006231347098946571, -0.14519275724887848, 0.36409544944763184, -0.012704985216259956, -0.4476403295993805, 0.15957701206207275, 0.9134238958358765, 0.38402941823005676, -0.05923058092594147, 0.12849648296833038, -0.7799541354179382, -0.12263526022434235, 0.313872754573822, 0.016080273315310478, -0.2652347981929779, -0.2789326310157776, 0.14926426112651825, -0.7533182501792908, -0.06166588142514229, -0.7624294757843018, 0.12548761069774628, 0.06107063218951225, -0.101861871778965, 0.1691645234823227], [0.6472402215003967, -1.1227502822875977, -0.6885602474212646, 0.13212434947490692, -1.2658787965774536, -0.46490830183029175, -0.5082324743270874, 0.19261060655117035, 1.0258394479751587, 0.7811120748519897, 0.9448089599609375, 0.47264546155929565, 0.3113669157028198, -0.6812224984169006, -1.0231139659881592, 1.6661596298217773, -0.3953721523284912, -0.4564190208911896, -0.14073847234249115, -0.757504940032959, 0.45457419753074646, -0.04472498595714569, -0.21034865081310272, 0.1259215772151947, -0.6514617204666138, 0.4794822633266449, 0.7538810968399048, -1.2877143621444702, 0.1015014499425888, 0.5489020347595215, 1.878365397453308, -0.5264517068862915], [0.31759846210479736, 0.2837408185005188, -0.07594437152147293, 0.616081178188324, 0.161485955119133, -0.00892655085772276, -0.027017228305339813, 0.1091640368103981, 0.03084510937333107, -0.28370776772499084, 0.11103710532188416, 0.38423892855644226, 0.17749343812465668, 0.43784987926483154, 0.5924639701843262, -1.0701383352279663, 0.0783514603972435, 1.1032754182815552, -0.2928047478199005, 0.26609885692596436, -1.146549105644226, -0.34542813897132874, -0.435552716255188, -1.041893482208252, -0.16294056177139282, 1.1553229093551636, 0.004915646743029356, 0.24783006310462952, 0.022117871791124344, -0.511087954044342, -0.0013968137791380286, 0.44690847396850586], [-0.4892973303794861, 0.33312955498695374, 0.15631508827209473, 0.03948410600423813, 0.36015400290489197, 1.4301819801330566, 0.5738604664802551, -0.929021418094635, -0.45750898122787476, -0.38467565178871155, -1.0085021257400513, 0.17612378299236298, 0.018247058615088463, 0.09137992560863495, -0.9056791663169861, -0.19685694575309753, 0.2747211158275604, 0.09305708110332489, -0.3251531422138214, -0.03147948160767555, 0.42724138498306274, -0.03988255560398102, -0.19653961062431335, -0.49286144971847534, 0.9063700437545776, 0.28524041175842285, 0.035921093076467514, -0.02566106803715229, 0.3395029902458191, -0.005735071375966072, -0.26082882285118103, -0.25453925132751465], [-0.6877986192703247, -0.3868352174758911, -0.23853152990341187, 1.430962085723877, 0.08807691186666489, -1.3310829401016235, -0.07653013616800308, 0.12425247579813004, -0.07502495497465134, 0.05231952294707298, 0.7122949957847595, 0.06748339533805847, 0.1302337795495987, 0.7696698904037476, 0.4496507942676544, -0.04953303933143616, 0.4642195999622345, 0.39574602246284485, -0.32769355177879333, 0.3489302396774292, -0.9261234402656555, -0.022273654118180275, -0.5609392523765564, -0.4655342698097229, -0.01686793752014637, -0.08087664842605591, 0.4547062814235687, 0.11850610375404358, 0.15117426216602325, -0.6363851428031921, 0.29964479804039, 1.2847133874893188], [-0.5103282332420349, -0.04660794138908386, -0.2943253517150879, 0.33748292922973633, 0.07315042614936829, -0.5511491894721985, -0.14645496010780334, -0.4864165782928467, 0.40220391750335693, 0.21353179216384888, 0.4226332902908325, 0.13542670011520386, 0.34613534808158875, 0.2136925607919693, 0.02254890650510788, -0.1511223167181015, 0.2956600487232208, 0.27235180139541626, -0.16566231846809387, 0.023906564339995384, -0.20193731784820557, -0.09407039731740952, -0.47029733657836914, 0.2260812371969223, -0.21488843858242035, 0.5251673460006714, 0.23152612149715424, -0.686599612236023, -0.2852267920970917, -0.5083373785018921, 0.24150002002716064, -0.8186062574386597], [-0.24033628404140472, -1.0458074808120728, -1.3196321725845337, 1.1713494062423706, -1.172208547592163, 0.20840074121952057, 0.04882938042283058, -0.28124862909317017, 1.4566036462783813, -0.41250190138816833, 0.937554121017456, 0.8989449143409729, -0.4716055989265442, 0.8474020957946777, 0.2764991223812103, 1.5205613374710083, 0.2836780250072479, -0.2867013216018677, -1.1376858949661255, -0.3661976754665375, -0.5921301245689392, 0.5166254043579102, -0.040754567831754684, -0.42908769845962524, -0.1928459256887436, -0.8443793058395386, 1.4885083436965942, 0.03151974454522133, 0.739506721496582, -0.03987996652722359, 0.09225194156169891, -0.5572652220726013], [0.5753844976425171, 0.07310178875923157, -0.3638768494129181, 0.5512871742248535, 0.2862326204776764, -0.1431332230567932, -0.087574802339077, 0.20504148304462433, 0.1907871812582016, 0.35845881700515747, 0.4748874604701996, 0.13569606840610504, -0.28246939182281494, 0.05340391397476196, -0.2859615683555603, -0.7712018489837646, 0.25665706396102905, 0.39519667625427246, 0.5190733671188354, 0.023844294250011444, 0.1848725527524948, -0.4102556109428406, -0.8661070466041565, -0.30436941981315613, -0.08760523051023483, 0.6638231873512268, 0.055931296199560165, 0.13409873843193054, -0.02574429102241993, -0.08814731240272522, -0.07898768782615662, -1.0250163078308105], [-0.672124445438385, -0.032001521438360214, -0.3309169113636017, 0.4142794907093048, -0.34370627999305725, -1.0555357933044434, -0.5789985060691833, -0.26891520619392395, 0.3248789608478546, 0.11570069938898087, 0.15684859454631805, -0.03183766081929207, -0.1775672733783722, 0.44926702976226807, -0.8958527445793152, 0.22085991501808167, -0.01269513089209795, 0.4248899221420288, -0.3139221966266632, -0.20759864151477814, -0.6579296588897705, -0.8018751740455627, -0.43098700046539307, -0.22862417995929718, -0.3709318935871124, 0.11209341138601303, 0.2782615125179291, -1.0416871309280396, -0.1701298952102661, 0.09390624612569809, 0.1465136706829071, 0.4155617356300354], [1.0481995344161987, -0.08749637007713318, 0.018323643133044243, -0.02088598534464836, -0.18549200892448425, -0.019302818924188614, -0.5072437524795532, -0.05893299728631973, 0.018591759726405144, -0.30233314633369446, 0.0026085381396114826, 0.0021760258823633194, -0.4399856925010681, -0.39497947692871094, -0.9998356103897095, 1.2477364540100098, 0.04393640160560608, -0.08473964035511017, -0.14048656821250916, 0.281938761472702, 0.18395216763019562, 0.46617498993873596, 0.27033570408821106, -0.0256656426936388, -0.34441938996315, -0.9003787040710449, -0.09345801919698715, 0.1477191150188446, 0.445599764585495, 0.15897038578987122, 0.04635905101895332, 1.0562529563903809], [-1.0918803215026855, -0.10948464274406433, -0.49499526619911194, 0.3490883708000183, -0.36306941509246826, -0.660953164100647, -0.0038666308391839266, -0.19318747520446777, 0.4163950979709625, 0.3573598563671112, 0.27588698267936707, 0.2788424491882324, -0.06898273527622223, -0.11229880154132843, 0.0676594227552414, 1.9738272428512573, 0.5437986850738525, 0.30777257680892944, -0.5633710622787476, -0.4416142702102661, 0.09545303881168365, 0.17036932706832886, -0.2954399585723877, 0.020800350233912468, -0.2440098524093628, 0.1962270438671112, 0.4504879415035248, -0.3928871154785156, 0.02005949057638645, -0.37902483344078064, 0.15808749198913574, 0.16755886375904083], [0.8085631728172302, 0.17116479575634003, -0.49740445613861084, -0.52696293592453, 0.16437169909477234, 0.5714216232299805, -0.09392588585615158, 0.8837853670120239, 0.24123218655586243, 0.36667004227638245, -0.5475055575370789, 0.36418211460113525, 0.44188177585601807, -0.2464504987001419, 0.2849331498146057, -0.44604068994522095, -0.5756065249443054, 0.06983377784490585, -0.015180293470621109, 0.32726433873176575, -0.28351107239723206, 0.16051815450191498, -0.09507864713668823, -0.5009188055992126, 0.13178211450576782, 1.1215461492538452, 0.32311272621154785, 0.5396065711975098, -0.0018485089531168342, -0.2067549228668213, -0.18595513701438904, -1.973764181137085], [0.4017218053340912, 0.24584446847438812, -0.06491004675626755, 1.529921054840088, 0.3134361207485199, -0.3675121068954468, 0.4721321761608124, 0.40197253227233887, -0.1447754055261612, -0.037302035838365555, 0.6470248103141785, 0.4727511405944824, -0.053877249360084534, -0.46243077516555786, 0.21465115249156952, 0.7469097971916199, 0.18298651278018951, -0.08413130789995193, -0.5023530721664429, 0.19857165217399597, -0.27119749784469604, -0.7614532709121704, 0.1674639731645584, 0.5957601070404053, 0.35458505153656006, -0.12252606451511383, -0.09847120940685272, -0.09744693338871002, 0.448001891374588, 0.4045902192592621, 0.5433527231216431, 3.151895761489868], [-0.6087128520011902, 0.1639743149280548, -0.8785480856895447, 1.4133491516113281, 0.023570187389850616, -0.26898300647735596, -0.26748794317245483, -0.1349163055419922, 0.31271806359291077, 1.1199313402175903, 0.35943442583084106, 0.42321401834487915, -0.15743255615234375, 0.5851446986198425, -0.45433029532432556, -0.1913204789161682, 0.3010570704936981, 0.6358605027198792, -0.34542742371559143, 0.23796482384204865, -1.0933257341384888, 0.15166085958480835, -1.0776174068450928, -1.0812088251113892, -0.4518786072731018, 0.06733565032482147, 0.7268795967102051, -0.3690471947193146, 0.34669408202171326, -0.02995571494102478, 0.40548980236053467, 0.2665063142776489], [0.057040024548769, 0.08112116903066635, 0.49074968695640564, 0.6762812733650208, 0.9567183256149292, 0.5354080200195312, 0.07030002027750015, -0.16091521084308624, -0.5074217319488525, -0.4435383081436157, -0.4316992461681366, 0.0741209089756012, 0.20184406638145447, -0.7179203033447266, 0.5771744251251221, -0.5156631469726562, -0.4631132483482361, -0.3966861367225647, -0.04981369897723198, 0.052694398909807205, -0.2854737341403961, -0.6507441401481628, 0.04060816764831543, -0.4355483651161194, -0.034012336283922195, 0.07529187947511673, 0.3268967568874359, 0.6199718713760376, 0.23022529482841492, 0.10214591771364212, -0.06195686385035515, -0.050744883716106415], [0.6257496476173401, -0.1331562101840973, -0.04912637919187546, -0.1032847985625267, -0.03353659436106682, 0.5158605575561523, 0.2563737630844116, 0.3733046054840088, -0.2887110412120819, -0.1906113177537918, -0.5752653479576111, -0.095877505838871, -0.290983110666275, -0.9492413997650146, 0.3558560609817505, -0.013602890074253082, 0.02607337012887001, -0.5010877251625061, -0.28260868787765503, -0.11627915501594543, 0.3427674174308777, 0.05014822259545326, -0.05309537798166275, 0.32638242840766907, 0.41917654871940613, -0.23809313774108887, -0.03691985830664635, 0.8528937697410583, -0.1378631889820099, 0.11843518912792206, -0.4566638767719269, 0.7257802486419678], [0.8788871169090271, 0.2915346920490265, 0.7562580108642578, 0.023750722408294678, 0.8278775215148926, 0.038899559527635574, -0.25511324405670166, 0.31179118156433105, -0.627386212348938, -0.11508315056562424, -0.8142427802085876, -0.6802316904067993, -0.2537544369697571, -1.0742605924606323, 0.8873175382614136, -0.5990346670150757, -0.6893700957298279, 0.12741656601428986, 1.0541281700134277, -0.31981003284454346, -0.3876715898513794, -0.34121817350387573, 0.23904725909233093, -0.28315839171409607, 0.16823060810565948, -0.10507157444953918, -0.22599738836288452, 0.5348864197731018, 0.7109653949737549, 0.28333398699760437, -1.3643003702163696, -0.07518324255943298], [0.5386803150177002, 0.29494285583496094, 0.20209012925624847, 0.43139731884002686, 0.503929615020752, 0.07799398899078369, 0.20263966917991638, -0.18589651584625244, -0.3964725732803345, -0.013648254796862602, -0.06447090208530426, 0.1489904224872589, -0.24488933384418488, 0.8704401850700378, -0.2816909849643707, 0.15924912691116333, 0.009900662116706371, 0.5792563557624817, -0.6756381988525391, 0.11400750279426575, -0.21291407942771912, -0.5537669658660889, 0.177303284406662, -1.3448935747146606, 0.31807637214660645, 0.9799234867095947, -0.1781848669052124, -0.2961793541908264, 0.5089231729507446, -0.21677587926387787, 0.5159672498703003, 1.9091650247573853], [-0.6298946142196655, 0.17165912687778473, 0.14597174525260925, -0.17641475796699524, -0.02770661562681198, 0.4559144973754883, 0.06304404884576797, -0.4984661042690277, -0.30998119711875916, 0.025508249178528786, 0.278687447309494, -0.027785712853074074, -0.3017387092113495, 0.43646004796028137, -0.39970093965530396, 0.9410048127174377, -0.08258600533008575, -0.16954664885997772, -0.9685564041137695, 0.2676762044429779, 0.48592886328697205, 0.5707269310951233, 0.2710416913032532, -0.8674441576004028, 0.48822352290153503, 0.21707454323768616, 0.37323814630508423, -0.5813055634498596, 0.6155074834823608, 0.667400062084198, -0.04185014218091965, 1.2537132501602173], [0.1655511111021042, 0.36305901408195496, -0.03315916284918785, 0.7573543190956116, 0.1746337115764618, -0.41392940282821655, -0.12712906301021576, 0.34136253595352173, -0.035295531153678894, -0.37744802236557007, 0.2953712046146393, -0.09897392988204956, -0.34010133147239685, -0.2615523338317871, 0.8617803454399109, -0.07936771959066391, -0.1580539345741272, 0.8012330532073975, -0.4841839373111725, -0.016403963789343834, -0.8361337780952454, -0.18209177255630493, -0.7389569878578186, 0.4745822250843048, 0.40969938039779663, 0.16292424499988556, -0.26194167137145996, 0.1822030395269394, 0.40333202481269836, -0.49942901730537415, -0.35843169689178467, -0.0654907077550888], [0.4578140079975128, -0.2505658268928528, -0.31313568353652954, 0.20795153081417084, -0.2922157049179077, 0.13611555099487305, 0.07520709931850433, 0.5155845284461975, 0.03331288322806358, -0.13231810927391052, -0.050236765295267105, -0.054801858961582184, -0.04301020875573158, -0.0387587770819664, 0.6389467716217041, 0.6735771894454956, -0.19518712162971497, -0.5356321930885315, 0.11932414025068283, -0.013098080642521381, -0.02549700066447258, 0.598050057888031, 0.01945522055029869, -0.3689397871494293, -0.2727070152759552, -0.8667776584625244, -0.03316548466682434, 0.056319404393434525, -0.11519447714090347, -0.07225735485553741, -0.09187795221805573, -0.06646274030208588], [0.5836220979690552, -0.0895695686340332, 0.5838214755058289, -0.5922913551330566, 0.3418557047843933, -0.2928546667098999, 0.23563803732395172, 0.3336354196071625, 0.16932612657546997, -0.05089421942830086, -0.6228392720222473, -0.5204383730888367, -0.05974239856004715, -0.6872075200080872, -0.23556068539619446, -0.07395903021097183, -0.005792566109448671, -0.24548426270484924, 0.7645953297615051, -0.3460160493850708, 0.1650109738111496, -0.26000502705574036, -0.04729285091161728, 0.492812842130661, 0.287638396024704, -0.7436528205871582, 0.2442604899406433, 1.3222390413284302, -0.01625669002532959, -0.08808350563049316, -1.0072555541992188, 0.01699143275618553], [0.7127042412757874, 0.3448382019996643, 0.5924994945526123, -0.18776091933250427, -0.2028152495622635, 0.9896450638771057, -0.03981466963887215, -0.12397465854883194, -0.37604793906211853, -0.4799432158470154, -0.018241120502352715, 0.04516122117638588, -0.5095053315162659, 0.8292391896247864, 0.37037110328674316, 0.04352378100156784, -0.17146845161914825, -0.2417624145746231, -0.23365336656570435, -0.20940865576267242, 0.49465054273605347, 0.27159827947616577, 0.2265477478504181, 0.14703154563903809, 0.6338421106338501, 0.054721180349588394, 0.06878184527158737, -0.2666022479534149, 0.40598002076148987, 0.2348535805940628, -0.2986156642436981, 1.2976055145263672], [-0.4299987256526947, 0.34949684143066406, 0.4243817627429962, -0.4393174648284912, 0.00029436068143695593, 0.37071114778518677, 0.412441223859787, -0.5304601788520813, -0.5395820140838623, -0.6688980460166931, -0.35026898980140686, -0.2688315510749817, 0.04287680983543396, 0.059597279876470566, 0.519626259803772, -0.009393531829118729, -0.35026535391807556, -0.5059568881988525, -0.6772760152816772, 0.13943584263324738, 0.2856823205947876, -0.5133406519889832, 0.36726903915405273, 0.8187958598136902, 0.6174710988998413, 0.35322752594947815, -0.5546677708625793, -0.18238021433353424, 0.061665840446949005, 0.12072253227233887, -0.4029906392097473, 0.09575380384922028], [-0.09179012477397919, 0.25151029229164124, -0.29179850220680237, 0.3718856871128082, 0.18427783250808716, -0.2997000217437744, -0.32888832688331604, 0.5022560954093933, -0.001480749691836536, -0.35411468148231506, 1.4908959865570068, 0.013108573853969574, -0.3828304708003998, 0.1481722742319107, -0.8212119936943054, -0.9930922985076904, 0.40999263525009155, -0.016178185120224953, 0.4466738998889923, -0.548915684223175, -0.2852487564086914, -0.336612731218338, -0.7863717079162598, -0.18047872185707092, -0.4771798849105835, -0.3271011710166931, 0.010991835966706276, 0.8701211810112, 0.715531051158905, -0.9967228174209595, -0.13867491483688354, -0.9543070793151855], [0.6822401285171509, -0.01890586130321026, -0.057556379586458206, 0.5048105120658875, -0.6271030902862549, 0.29348912835121155, -0.23829792439937592, 0.6465238332748413, 0.10383959114551544, -0.1670810729265213, -0.2196296900510788, 0.6968998908996582, -0.016007551923394203, -0.0026509270537644625, -0.5251644849777222, 0.8038874864578247, -0.0668959766626358, -0.1899995505809784, 0.11627279967069626, -0.45883509516716003, 0.39995113015174866, 0.8489011526107788, 0.24784861505031586, -0.49251577258110046, -0.35778921842575073, -0.3826596736907959, 0.16845034062862396, 0.3680188059806824, 0.4129846394062042, 0.5015528798103333, -0.32008451223373413, 0.6274351477622986], [0.12544244527816772, -0.3103373646736145, -0.3303080201148987, -0.2334872931241989, -0.47228917479515076, -0.4793893098831177, -0.24664665758609772, 0.006495829671621323, 0.12276936322450638, 0.2303861528635025, 0.06127459555864334, 0.3643221855163574, 0.46765437722206116, -0.5619210004806519, -0.13032467663288116, 0.9412082433700562, -0.06375797092914581, -0.08138673007488251, -0.22776943445205688, -0.09368464350700378, 0.006979645695537329, 0.6010424494743347, -0.008137581869959831, -1.550168514251709, -0.5775794386863708, 0.47486966848373413, 0.8222066164016724, -0.10581792145967484, -0.15198838710784912, 0.10110282152891159, 0.2835251986980438, -0.46488475799560547], [-0.06875511258840561, 0.5392912030220032, 0.6424615383148193, -0.47482216358184814, 0.8214073181152344, 0.8330811262130737, 0.7562686800956726, 1.0920742750167847, -0.6131057739257812, -0.09478568285703659, -0.5139732360839844, -0.9400066137313843, -0.09501296281814575, -1.4619957208633423, -0.26737692952156067, -1.907975673675537, -0.4921378493309021, 0.4065189063549042, 0.7737893462181091, -0.01551566831767559, 0.2669670283794403, -0.31766679883003235, 0.717386782169342, 0.7053600549697876, 0.10438493639230728, -0.48680222034454346, -0.8789263963699341, 0.8307924866676331, 0.29552456736564636, 0.3842761218547821, -0.6092391014099121, 1.1776399612426758], [-0.8094697594642639, 0.047014497220516205, 0.4188965857028961, -0.6069387793540955, -0.8287796378135681, 0.023651497438549995, 0.4459666907787323, -0.37356624007225037, 0.2682006359100342, 0.38690751791000366, 0.6004168391227722, 0.7681800723075867, 0.9509710669517517, 0.33722659945487976, -2.8982276916503906, 0.7861992120742798, 0.21605217456817627, 0.9811498522758484, -0.5197255611419678, 0.04850340262055397, -0.784153938293457, -0.17194902896881104, 0.6223474144935608, 0.337196409702301, 0.8177071809768677, 0.9535823464393616, -0.12203101068735123, -0.17276684939861298, -0.24648898839950562, 0.12503434717655182, 1.2769570350646973, 2.6391429901123047], [-4.56145715713501, -0.22746659815311432, -0.7103094458580017, 1.7722258567810059, 0.3418372869491577, -0.7026066184043884, 0.4947415292263031, -1.0672696828842163, 0.12409524619579315, -1.2732958793640137, -0.6816431879997253, -1.003280758857727, -0.8013505339622498, -0.13973593711853027, 0.08940599113702774, -1.0074182748794556, -0.27545166015625, -0.9757992625236511, -0.7346044182777405, 0.326017826795578, 2.223013162612915, -2.3388562202453613, -0.6564972400665283, -0.2542824447154999, 0.5146806240081787, 0.5326460003852844, 1.0417382717132568, -0.18118822574615479, -1.084531545639038, -0.12972334027290344, 1.1059926748275757, -1.56138014793396], [-1.0052953958511353, 1.4623138904571533, 0.04417424276471138, 0.3403761684894562, 0.7914893627166748, 0.3854754865169525, -0.9600423574447632, -0.641124427318573, -0.9134584069252014, -0.05930062755942345, -0.0537048764526844, 0.490894079208374, 0.5537592768669128, 0.5856205821037292, 1.6142160892486572, -0.2585292458534241, 0.34696805477142334, 0.018680712208151817, -0.08523566275835037, -0.16405819356441498, -0.480060875415802, -0.3220862150192261, 0.10357539355754852, 0.33885326981544495, 0.32788941264152527, 0.8262134790420532, -0.1529710292816162, -0.5308011174201965, 0.3860974907875061, -1.4976249933242798, 0.057656899094581604, 0.5568758845329285], [-0.058171749114990234, 0.11720644682645798, -0.361508846282959, -0.18821988999843597, 0.892324686050415, 0.5878334045410156, 0.8997803330421448, -1.2426551580429077, 0.08868271857500076, 0.39296871423721313, 1.9749863147735596, 0.4293307363986969, -0.26010406017303467, -1.40481436252594, -0.10418003052473068, 0.26137304306030273, 0.7013315558433533, -0.07944515347480774, -1.391661524772644, 0.40781641006469727, 0.7984057664871216, -0.7191431522369385, -0.7201903462409973, 1.3142560720443726, 0.15070007741451263, -0.3859155476093292, 0.3075249493122101, -1.4639874696731567, -1.3604621887207031, -1.1488176584243774, 0.8558961749076843, 0.651254415512085], [0.12679539620876312, 0.5513927340507507, 0.07941882312297821, 0.723199188709259, 1.4702141284942627, -0.6392390131950378, 0.5256881713867188, -0.3627440631389618, -0.40723907947540283, 0.07375713437795639, 0.7638132572174072, 0.1079099029302597, 0.16685986518859863, 0.2654667794704437, 1.284445881843567, -0.6466415524482727, 0.008014814928174019, 1.2253034114837646, 0.011048320680856705, 0.6433170437812805, -1.28721022605896, -1.5494301319122314, 0.21212519705295563, 0.0884300246834755, 1.0921950340270996, 1.0909708738327026, -0.5925509929656982, -0.9768437743186951, 0.6337792277336121, -0.2965865135192871, 0.4049356281757355, -0.1649724394083023], [-0.5845896601676941, -1.6765981912612915, -2.808717966079712, 0.3900308310985565, 0.8716160655021667, -1.324692726135254, -1.1450788974761963, -0.7967009544372559, 3.2401070594787598, 2.3522660732269287, 1.6265559196472168, 1.207902431488037, 1.59238600730896, 2.613516092300415, 0.3229614496231079, 1.1185303926467896, 3.3285164833068848, -0.41678813099861145, -0.6839047074317932, 0.01562333945184946, -0.1674136519432068, 0.04127003252506256, -1.0216870307922363, 0.23839446902275085, -0.733454167842865, 0.0591350682079792, 1.5317091941833496, -2.4041500091552734, -1.1089082956314087, 0.40626415610313416, 0.8448848724365234, -2.616729497909546], [-0.14039012789726257, 0.15838228166103363, -0.08461837470531464, 0.780301034450531, 0.8343650698661804, -0.38613831996917725, 1.2403846979141235, -0.23006919026374817, -0.47135403752326965, 1.1084789037704468, 1.7148678302764893, -0.283772349357605, -1.0036321878433228, 0.5981674194335938, 0.245217964053154, -0.7391258478164673, 0.18268778920173645, 0.640836238861084, -0.07519027590751648, 0.8944698572158813, -0.28974032402038574, -1.2896403074264526, -0.5835375189781189, 0.3462834060192108, 0.43649259209632874, 0.22240318357944489, -0.45081835985183716, -0.422943115234375, -0.8135354518890381, -0.9326940774917603, 0.21056140959262848, -0.19345542788505554], [0.1636217087507248, 1.1131095886230469, 0.073945052921772, 1.2171385288238525, 1.3089531660079956, 0.40201810002326965, -0.16782210767269135, -0.23123395442962646, -0.6176466345787048, 0.679784893989563, 0.24211421608924866, 0.21459168195724487, -0.4780392348766327, 0.025880010798573494, 0.32522711157798767, -0.7402070164680481, 0.20322676002979279, 0.7108032703399658, 0.021452171728014946, 0.666043221950531, -0.3357864320278168, -1.638946294784546, -0.3393324315547943, 0.23964616656303406, 0.6485304236412048, 0.9407216310501099, -0.18395192921161652, 0.41732853651046753, 0.10787951946258545, -0.22167310118675232, 0.40798047184944153, 0.6978797912597656], [-0.5875386595726013, 0.349986732006073, -0.6639207005500793, 1.1394463777542114, 0.20104122161865234, 0.0012194939190521836, -0.00858917087316513, 0.14587262272834778, -0.1496606022119522, -0.8921390175819397, 1.460566759109497, 1.3192174434661865, -0.021991625428199768, 0.6314921975135803, -1.152559518814087, -3.27437686920166, 0.8016972541809082, 0.9234511852264404, -0.059925757348537445, 2.8903262615203857, -1.3469752073287964, -0.4126420021057129, -0.5998667478561401, -0.4134373664855957, 0.4869711697101593, 0.9190055727958679, 0.1501838117837906, 0.5252289175987244, -1.0604474544525146, -2.2609713077545166, 0.6615549325942993, 0.5055078864097595], [-0.2734297513961792, 0.504999041557312, -0.15893323719501495, -0.4063563346862793, 0.17737498879432678, 0.7133308053016663, -0.3939898908138275, -0.12158866971731186, 0.4474804401397705, -0.12946811318397522, -0.2804532051086426, -0.018530406057834625, -0.12358206510543823, 0.4313417971134186, 0.8034060001373291, 0.39801210165023804, -0.31081271171569824, -0.6019676923751831, -0.8859163522720337, 0.04132898896932602, 0.5552088618278503, -0.013934660702943802, -0.10679525136947632, 0.26547783613204956, -0.5100374817848206, -0.26559892296791077, 0.7913902401924133, -0.7491704821586609, -1.283217191696167, -1.020516037940979, 0.6154820322990417, 0.15879157185554504], [-1.2196044921875, 0.2300718128681183, 0.9465778470039368, -0.4361719489097595, 1.1092678308486938, -1.0706133842468262, 1.2785269021987915, 0.05855802819132805, -1.1677043437957764, -0.9290050268173218, -1.8168003559112549, -1.1769388914108276, -1.5903695821762085, -1.3874852657318115, -0.21351779997348785, -1.6735167503356934, -0.493575781583786, -0.014960098080337048, 0.8069478273391724, 0.35346344113349915, -0.30700403451919556, -2.3243229389190674, -0.35415053367614746, 0.2726019024848938, 0.44351503252983093, -0.4715278744697571, -1.0977118015289307, -0.15036675333976746, -1.4469636678695679, -0.09793978929519653, -1.0022058486938477, -0.04845355078577995], [2.933051347732544, 0.3405382037162781, -0.6027873754501343, 0.020489199087023735, 0.6012876629829407, 0.04210149124264717, 0.8841243386268616, 0.21034564077854156, 0.1324152946472168, -0.04472394287586212, -2.532282829284668, 0.8364793658256531, 1.0155202150344849, 1.5486817359924316, 3.2588605880737305, 0.5898224711418152, -1.4093117713928223, 0.4216921627521515, -2.97469162940979, -0.09964873641729355, -0.6873790621757507, 0.29507946968078613, 0.556089460849762, 0.40110132098197937, 0.5252460837364197, 0.29880985617637634, -0.291043221950531, -3.320148229598999, -0.15827974677085876, -0.3179352879524231, 1.0603052377700806, 2.091371536254883], [0.590090274810791, 0.14397020637989044, 0.3778904378414154, -0.005178731866180897, -0.1608102023601532, -0.13416926562786102, -0.7774296402931213, -0.6261600255966187, 0.008169594220817089, -0.6797502636909485, -0.6867850422859192, -0.41026026010513306, 0.23012539744377136, -0.4801531136035919, -0.3691810071468353, 0.19183918833732605, -0.7299557328224182, 0.15355561673641205, 0.04192326217889786, 0.06959123909473419, -0.396518737077713, 0.6888849139213562, 0.4178471565246582, -0.12796691060066223, -0.6736512780189514, -0.4466116726398468, -0.06979449838399887, 0.013855134136974812, -0.23543576896190643, -0.08726152032613754, -0.08419105410575867, 0.21741119027137756], [0.17853927612304688, 2.059497594833374, 0.9183152318000793, -0.7569306492805481, 0.06834810227155685, 0.34602370858192444, 0.2814381718635559, 1.1838116645812988, -1.2236177921295166, -1.0154459476470947, -0.5562732219696045, -0.5523303747177124, -0.708350419998169, -0.035514120012521744, 0.8536770343780518, -0.125182643532753, -1.4057159423828125, -0.6433041095733643, 1.6133272647857666, -1.1624565124511719, 0.37012404203414917, 0.13084444403648376, 0.5803573131561279, -0.02539895661175251, 0.00239179958589375, 0.11558602005243301, -0.7754493355751038, 0.5003530979156494, 0.5914068818092346, 0.4201536774635315, -0.9376504421234131, 0.16226886212825775], [-2.755087375640869, -1.7147952318191528, -1.5218236446380615, -0.37344780564308167, 0.1820925623178482, -0.34291836619377136, -0.4949808716773987, -0.8771506547927856, 1.5389975309371948, 1.5669060945510864, 0.7645488381385803, 1.2363814115524292, 1.6823115348815918, 2.6314380168914795, -0.759183943271637, -0.07416098564863205, 1.5279104709625244, 0.44784918427467346, -1.1039074659347534, -0.03946132957935333, 0.8385953903198242, 2.757159948348999, -0.38021108508110046, -0.10301276296377182, 0.3608494699001312, 0.4650074243545532, 2.043994426727295, -1.290797472000122, -0.4339469373226166, 0.6536134481430054, 1.8880354166030884, -0.2882094979286194], [0.719887375831604, 1.2606697082519531, 1.0225296020507812, -1.0137536525726318, -1.2106894254684448, 0.5591643452644348, -0.5323383212089539, 0.9803977012634277, -1.8324203491210938, -1.224450945854187, -1.1078863143920898, -1.3894320726394653, 0.8010239005088806, -1.7140283584594727, 0.5592963695526123, -0.5667119026184082, -0.8313577771186829, -1.431420087814331, 1.68216872215271, -0.39821574091911316, 0.4463876783847809, 1.034484624862671, 0.5091949701309204, 0.5135475397109985, -0.5135018229484558, 0.24646437168121338, -0.8917919397354126, 1.6521345376968384, 0.8319460153579712, 0.7630779147148132, -1.7448503971099854, 0.27027466893196106], [0.06863686442375183, 0.2177382856607437, -0.07847361266613007, 0.8247934579849243, -0.5681445598602295, 0.29324018955230713, -0.8452877402305603, -0.4270135164260864, -0.025964975357055664, 0.2173149436712265, 0.6748854517936707, -0.8077733516693115, -1.2377794981002808, 2.297203779220581, 1.75019371509552, -0.7346873879432678, -0.45497798919677734, -0.48570799827575684, 1.0991138219833374, -1.4323585033416748, 0.8038503527641296, 1.006813883781433, -0.23825670778751373, 0.27032583951950073, -0.26131683588027954, -0.962562620639801, 0.6796815395355225, -1.6164665222167969, 0.20500358939170837, -0.014484372921288013, -0.3685394823551178, -0.881947934627533], [0.3755212426185608, 1.8665341138839722, 1.0163369178771973, -1.8034952878952026, 0.32417160272598267, 1.7240304946899414, 0.9651975035667419, 0.8120558261871338, -1.5542932748794556, -1.9895257949829102, -3.153029441833496, -0.6222609877586365, 1.0377103090286255, -1.9105522632598877, 0.8104798197746277, -0.9315739870071411, -0.6940290331840515, -0.6573499441146851, 2.00553822517395, 0.18490390479564667, 1.4014135599136353, -0.3338191509246826, 0.5941131114959717, 0.8590071201324463, 0.20896080136299133, 0.7325852513313293, -1.0938711166381836, 1.2284423112869263, -0.4863695502281189, 0.08147943764925003, -1.7874183654785156, -0.25064292550086975], [0.008179061114788055, -0.11964374035596848, -0.3257651627063751, 0.7293366193771362, -0.06361480057239532, 1.1118160486221313, -0.37431007623672485, -0.2836645245552063, 0.49245190620422363, 1.2039904594421387, -0.4543457627296448, 1.2545599937438965, 0.5976248979568481, 0.8031913042068481, 0.6897042393684387, -0.09378702193498611, 0.331104576587677, 0.4354498088359833, -0.8743829727172852, -0.5199740529060364, 1.2853718996047974, 0.15162339806556702, 0.7001612782478333, -0.5754021406173706, 0.7762988209724426, 0.09962031245231628, 0.921074628829956, -1.9009891748428345, -0.5027031302452087, 0.32790642976760864, 0.4970037639141083, -0.5627079606056213], [-0.3742881715297699, 0.3771672248840332, -0.33486407995224, 0.27956631779670715, 0.6553466320037842, 0.5975174903869629, 0.8909000754356384, -0.4009692370891571, -0.1878201961517334, -0.007619961630553007, 0.10636996477842331, 0.028669893741607666, 0.38461190462112427, 0.867347776889801, 1.7084152698516846, -0.7860603332519531, -0.1835699826478958, 0.04410267248749733, -1.2595936059951782, 0.4191837012767792, 0.46524158120155334, -0.06771519780158997, -0.06469826400279999, -0.5663487911224365, 1.1222844123840332, 1.3187308311462402, -0.3347037136554718, -2.6479458808898926, -1.522450566291809, 0.4363459646701813, 0.8648920059204102, -0.48222386837005615], [-1.1897672414779663, -0.5898552536964417, -1.1178791522979736, 0.8263719081878662, 0.22426234185695648, 0.19657687842845917, 0.10532329976558685, -2.8553600311279297, 0.5694568753242493, 2.423840284347534, 0.5194214582443237, 0.6214877963066101, 1.7759824991226196, 2.5865137577056885, 0.87986159324646, 0.5184433460235596, 1.3284432888031006, 0.4537658989429474, -0.19255106151103973, 0.48072582483291626, -0.1299966722726822, -0.40685978531837463, -0.6261249780654907, -0.6569623351097107, 0.8991973996162415, 0.640313982963562, 0.6473990082740784, -3.2362630367279053, -1.2694885730743408, -0.5227190256118774, 1.155318260192871, -0.5260482430458069], [-1.8507301807403564, 0.07155479490756989, -0.9867188334465027, 0.06926767528057098, 0.09829635918140411, 0.9828073382377625, -0.1545373499393463, -1.2802306413650513, 0.45748209953308105, 0.47658807039260864, -0.049858178943395615, 1.2512620687484741, 0.5464318990707397, 0.12175846844911575, 1.1709227561950684, -0.1032830998301506, 0.7380935549736023, 0.2602510452270508, -0.48830533027648926, -0.6384483575820923, 0.34027788043022156, -0.23636583983898163, -0.26019251346588135, 0.17335522174835205, 0.3253520429134369, -0.04574761167168617, 0.813096821308136, -1.7756808996200562, -1.2785210609436035, -0.891029953956604, 0.4925370514392853, -0.4419330060482025], [-1.1634044647216797, 0.1094633936882019, -0.058544497936964035, 0.5227087736129761, -0.19614268839359283, -0.37232157588005066, -1.4609401226043701, -0.45927515625953674, 0.5631226897239685, -0.41138824820518494, 0.004050614777952433, -0.36162441968917847, -0.086586594581604, -0.1507539004087448, 0.4236947000026703, 0.4150436520576477, -1.1248118877410889, -0.5677407383918762, 0.1567479819059372, -0.4504247009754181, 0.38383954763412476, 0.2313190996646881, 0.45996755361557007, 0.9876537919044495, -0.9263837337493896, 0.7936584949493408, 1.1032755374908447, 0.02210402302443981, -0.41285455226898193, 0.314203143119812, 0.2668142318725586, 0.009128817357122898], [-0.6331130266189575, 1.1585694551467896, 0.36916497349739075, -0.516584575176239, 0.5831946730613708, 0.7714197039604187, 1.0359045267105103, -0.41341638565063477, -0.9048144221305847, -0.05283854529261589, 0.38989540934562683, 0.1967850625514984, 0.29867708683013916, 0.5430989861488342, 0.45529815554618835, 0.027566734701395035, 0.3300477862358093, 0.04460364207625389, -0.6144073009490967, -0.10464528203010559, 0.4560299813747406, 1.0156384706497192, 0.30226829648017883, -0.018961910158395767, 0.941500723361969, 1.039113163948059, -0.13087768852710724, -1.2569212913513184, -0.3982754051685333, -0.47418609261512756, 0.24335645139217377, -0.4624200463294983], [0.45355507731437683, -0.6323426365852356, -0.46071285009384155, -0.5887805223464966, -0.9713293313980103, -0.08122092485427856, -1.6667507886886597, 0.4013167917728424, 0.8354373574256897, -0.04035291448235512, 0.2358102947473526, -0.17250140011310577, -0.3370438516139984, 0.4401085078716278, -0.20271410048007965, 0.4892544448375702, -0.8523374795913696, -1.3953155279159546, 0.33437755703926086, -1.1042768955230713, 0.6267214417457581, 1.6588149070739746, -0.40831270813941956, 0.7796609997749329, -1.23110830783844, -0.7145906090736389, 1.4936137199401855, 0.31101828813552856, 0.5429350733757019, 0.8896999359130859, 0.28188058733940125, 0.1050044447183609], [-0.6608135104179382, -0.16188451647758484, -0.341065913438797, -0.15617190301418304, 0.800938069820404, 0.6036806106567383, 0.03136326000094414, -0.9933443665504456, 0.4774559438228607, 0.13255783915519714, 0.0220568235963583, 0.7193612456321716, 0.5396232008934021, -0.06313231587409973, 1.5132176876068115, -0.21932977437973022, -0.11483771353960037, -0.4982888400554657, -0.5318399667739868, 0.7785103917121887, 0.05299912765622139, -0.2261153608560562, -0.09070844948291779, -0.08888466656208038, 0.133120596408844, 0.51214599609375, 0.5113880038261414, -0.68964022397995, -1.2006193399429321, -0.6650788187980652, 0.636079728603363, -0.5034055709838867], [0.8162538409233093, 1.5211460590362549, 0.7345428466796875, -0.42284244298934937, -0.2462751865386963, -0.18095341324806213, 0.17038755118846893, 1.3186115026474, -1.2721967697143555, -0.9388005137443542, -0.3923608958721161, -0.8227342963218689, -0.22618675231933594, -0.906938910484314, 0.5273427367210388, 0.07032038271427155, -1.4452849626541138, -0.35828208923339844, 1.0296796560287476, -0.44530802965164185, 0.03481502830982208, 0.10806679725646973, 0.01765173114836216, 1.0799521207809448, -0.49665316939353943, 0.349459707736969, -0.9649612903594971, 1.1180468797683716, -0.35962653160095215, 0.11878333240747452, -1.0900336503982544, 0.5560921430587769], [0.03944117948412895, 0.2778078019618988, -0.21883490681648254, 0.18143245577812195, 0.5221173763275146, -0.0755636915564537, -0.9836431741714478, -0.5175138115882874, 0.0036123900208622217, 0.2816474437713623, 0.9319139122962952, 0.2645910680294037, 0.4196629822254181, 0.6634230613708496, 0.3554922342300415, 0.33714932203292847, 0.5318901538848877, 0.22098036110401154, -0.45143160223960876, 0.3030555248260498, -0.06510486453771591, 0.140687495470047, 0.15349891781806946, 0.756400465965271, -0.1675497591495514, 0.7283992767333984, 0.7215944528579712, 0.07565603405237198, -0.1423896700143814, -0.34996768832206726, 0.6438294053077698, -0.025762934237718582], [0.9101483225822449, 0.6181709170341492, 0.3270729184150696, 0.3028665781021118, 0.5464984178543091, -0.16101720929145813, -1.2064443826675415, -0.12304379791021347, -0.7371891140937805, -0.6147873401641846, -0.9167724251747131, -0.5138491988182068, -0.062485892325639725, 0.1267719715833664, -0.570094645023346, 0.5209450721740723, -0.8056184649467468, -0.4813002943992615, 0.3331511914730072, -0.04556681588292122, 0.7128173112869263, 0.8787263035774231, 1.0660661458969116, 0.5734986066818237, -0.5068404674530029, 0.11707969009876251, 0.24535173177719116, -0.45029667019844055, 0.121832937002182, 1.3626790046691895, -0.9445714354515076, -0.7654907703399658], [-1.734065055847168, -0.7337368130683899, -0.7274585366249084, 1.4400802850723267, 0.8666258454322815, -1.1905059814453125, 0.45129692554473877, -0.8785459995269775, 0.8193215727806091, 0.05876743048429489, 1.0858877897262573, 1.1397820711135864, 1.0359807014465332, 1.2317787408828735, 1.4035249948501587, -4.206788798910566e-05, 1.3148845434188843, 0.8978019952774048, -1.458869457244873, 0.8797680735588074, -0.9864012598991394, -2.329928159713745, -1.1355547904968262, 1.3471959829330444, 0.5958139300346375, 0.16344457864761353, 0.3834243416786194, -1.3336931467056274, -0.9901833534240723, -1.3037649393081665, 0.756536602973938, -0.29739049077033997], [-1.4267630577087402, -0.49383431673049927, -0.6598436236381531, -0.04868987202644348, 0.279697448015213, 0.13066743314266205, 0.058100514113903046, -0.9623044729232788, 0.44995900988578796, 0.12626297771930695, -0.2687864303588867, 0.7268965840339661, 1.4571373462677002, 0.6568312048912048, 0.5359957814216614, -0.1279793381690979, 0.5691818594932556, 0.016943328082561493, 0.008633325807750225, 0.07376891374588013, 0.1584641933441162, -0.07978993654251099, 0.23961761593818665, 0.2527962028980255, 0.6770892143249512, 0.7416290044784546, 0.5186558365821838, -0.9766244888305664, -0.7183722853660583, 0.25862324237823486, 0.7353756427764893, -1.5029561519622803], [-0.9248266220092773, 2.8929765224456787, 2.2436599731445312, -3.1240532398223877, 1.3703252077102661, 1.783231496810913, 1.9853383302688599, -0.9210719466209412, -2.373483419418335, -0.40513864159584045, -1.8613818883895874, -1.0524861812591553, 0.8911643624305725, 0.43402835726737976, 0.4361597001552582, -2.0487265586853027, -0.3448432981967926, -1.188751459121704, 1.8808435201644897, 1.3620604276657104, 1.2304027080535889, -1.4540902376174927, 1.7064591646194458, 0.3518220782279968, 2.026319742202759, 0.9185926914215088, -1.8989237546920776, 0.28097623586654663, -0.9734991192817688, 0.009310666471719742, -1.306992769241333, 0.48363232612609863], [-2.0370378494262695, -1.9583536386489868, -1.5668437480926514, -0.22309677302837372, -0.3948419392108917, 0.26422685384750366, -0.49245360493659973, -1.0629640817642212, 1.8682829141616821, 0.8729751110076904, 0.25515326857566833, 1.3164622783660889, 1.5327653884887695, 2.0527780055999756, 0.9439286589622498, 1.4999154806137085, 1.342820644378662, -1.0400023460388184, -1.2283653020858765, -1.16116464138031, 0.9700613021850586, 0.3653185963630676, 0.07668376713991165, -0.4262778162956238, 0.6516883969306946, -0.2853281497955322, 2.630934953689575, -1.6204041242599487, -0.1740114688873291, 0.40849795937538147, 1.3633999824523926, -2.4559431076049805], [-0.9954626560211182, 0.3353146016597748, 0.12393536418676376, 0.5483387112617493, 0.29824748635292053, 0.12031348794698715, -0.08734150975942612, -0.39405518770217896, 0.3662544786930084, 0.15384851396083832, -0.120577871799469, 0.257361501455307, -0.09525179117918015, 0.28872767090797424, 0.6410433053970337, -0.10301384329795837, -0.020638639107346535, 0.11197558790445328, -0.28886839747428894, -0.11537132412195206, 0.25254011154174805, -0.03572428971529007, 0.05667474493384361, -0.26921647787094116, 0.03849349543452263, 0.4614420533180237, 0.055841490626335144, 0.00154938327614218, 0.30065739154815674, -0.07364202290773392, -0.4639204740524292, -1.277296781539917], [-0.04000760614871979, 0.5370978713035583, 0.6696710586547852, -0.3277266025543213, -0.008282773196697235, 1.485143780708313, 0.3569437861442566, -0.3713546097278595, -0.7728095650672913, -0.10002586990594864, -0.10223659873008728, -0.019918590784072876, -0.14779388904571533, 0.17921331524848938, -0.18826355040073395, 0.04506772756576538, 0.10036949813365936, -0.46340039372444153, -0.30305731296539307, 0.07978882640600204, 0.46160268783569336, 0.08937318623065948, 0.7517993450164795, -0.2887830436229706, 0.7389779686927795, 0.39934518933296204, -0.688137948513031, -0.5341956615447998, 0.2977856397628784, 0.32374680042266846, -0.18740582466125488, 0.00885026901960373], [-0.21599125862121582, 0.24669069051742554, -0.3114364743232727, 0.09603077173233032, -0.029799511656165123, 0.40203729271888733, 0.05052516981959343, 0.3098895251750946, -0.21853618323802948, 0.41889727115631104, 0.6264120936393738, 0.08762965351343155, -0.04873768240213394, 0.4819244146347046, -0.06172711029648781, 0.11581968516111374, 0.07897799462080002, 0.532392680644989, -0.10981075465679169, -0.3143376410007477, -0.2446463257074356, -0.06604664772748947, 0.28096187114715576, 0.1636890470981598, 0.04149241000413895, 0.21840830147266388, -0.2463374137878418, -0.4506538510322571, 0.04375050589442253, -0.0793939158320427, 0.0341031551361084, 0.5271665453910828], [-0.31851309537887573, 0.1653442531824112, 0.16178207099437714, 0.31957003474235535, -0.28655922412872314, 0.33762896060943604, -0.2786545753479004, -0.04915915057063103, 0.12864485383033752, -0.2828092575073242, -0.3471609055995941, 0.10311798751354218, -0.4189651608467102, 0.27649983763694763, 0.6030496954917908, 0.13194523751735687, -0.10113883018493652, -0.3914817273616791, 0.2882557213306427, -0.38161271810531616, 0.3559070825576782, 0.18058420717716217, -0.13184627890586853, -0.1373743861913681, -0.1286723017692566, -0.6501363515853882, 0.25346311926841736, -0.0681285411119461, 0.3997655212879181, 0.20385737717151642, -0.3462999165058136, -0.3590472340583801], [0.4064159691333771, 0.683552622795105, 0.4614056646823883, -1.191947102546692, 0.1150345429778099, 1.0619111061096191, 0.24191772937774658, -0.28615784645080566, -0.7673918604850769, 0.13759656250476837, -0.6947649717330933, -0.28340646624565125, 0.11251973360776901, 0.7875636219978333, 0.0804380252957344, -0.015207297168672085, 0.2491196244955063, -0.0011125111486762762, 0.12854115664958954, 0.09470183402299881, 0.8695750832557678, 0.3477247655391693, 1.0280711650848389, 0.2666642963886261, 0.3781018853187561, 0.9021639823913574, -0.4079248011112213, -0.091192826628685, -0.2087412029504776, 0.568064272403717, 0.26901668310165405, 0.2321327179670334], [0.2533804476261139, -0.01926000788807869, -0.0967831015586853, -0.3203052282333374, -0.13957639038562775, 0.4836873710155487, 0.11395803093910217, 0.24784782528877258, 0.0011515163350850344, 0.04071567952632904, 0.3048968017101288, 0.021822530776262283, -0.25302889943122864, 0.23762260377407074, 0.4375959634780884, -0.08363133668899536, -0.31072941422462463, 0.000420008524088189, 0.007079785224050283, -0.253522127866745, -0.12406501173973083, 0.015257200226187706, 0.2481740564107895, -0.5535888671875, 0.06171049922704697, 0.14916576445102692, -0.042028918862342834, 0.0743696317076683, -0.20967042446136475, 0.17324040830135345, -0.06771654635667801, 0.24601589143276215], [-0.4124469757080078, -0.0508149191737175, 0.14166194200515747, -0.32875487208366394, 0.03220914676785469, 0.3408766984939575, 0.2073022723197937, -0.2403532862663269, -0.04110153764486313, 0.25343945622444153, 0.30930814146995544, -0.1631649285554886, -0.07272917777299881, -0.29498928785324097, -0.6499242186546326, -0.10525169968605042, -0.20164431631565094, 0.011643991805613041, -0.019394520670175552, 0.08318085968494415, 0.13613177835941315, -0.09739647805690765, 0.018949361518025398, 0.7307703495025635, 0.10631176084280014, 0.2915586531162262, -0.3101584315299988, 0.184329554438591, -0.22636157274246216, -0.16023850440979004, -0.16120503842830658, 0.039846375584602356], [0.49203938245773315, 0.1905631124973297, -0.20291149616241455, 0.24877846240997314, -0.0536317452788353, -0.5662011504173279, 0.04485827684402466, -0.0026870868168771267, -0.15955117344856262, 0.07119444012641907, -0.02144596166908741, 0.29567307233810425, -0.10190647840499878, -0.1946762204170227, 0.5613886117935181, -0.8090617656707764, -0.3094150424003601, -0.1296190619468689, -0.15784481167793274, 0.102745920419693, -0.23188036680221558, 0.28986260294914246, -0.1196858361363411, -0.02243352122604847, 0.03869107365608215, 0.45304301381111145, -0.3267928659915924, 0.5031123757362366, 0.36299383640289307, -0.11445698142051697, -0.23990146815776825, -1.0499142408370972], [-0.20074471831321716, -0.4321676790714264, -0.08967471867799759, 0.14891241490840912, -0.09991462528705597, -1.5050551891326904, -0.10057532787322998, -0.1406261920928955, 0.23161868751049042, 0.043793365359306335, -0.07742748409509659, 0.19220761954784393, 0.038343243300914764, -0.010704883374273777, -0.07022792845964432, -0.5726534724235535, 0.5341498255729675, 0.31349900364875793, 0.2717229723930359, -0.08228440582752228, -0.4144054055213928, -0.2974480092525482, -0.9747911691665649, -0.018875744193792343, -0.24960309267044067, -0.5291152596473694, 0.355289489030838, 0.06381669640541077, -0.526631236076355, -0.26872795820236206, 0.051184382289648056, -0.03149079531431198], [-0.43875470757484436, 0.06953129172325134, -0.21163007616996765, 0.3044250011444092, 0.08474815636873245, -0.16316749155521393, 0.0864645466208458, -0.39505356550216675, 0.3841821551322937, -0.9178389310836792, -0.603398323059082, 0.41403183341026306, -0.29894647002220154, -0.12091179937124252, -0.3296419382095337, -0.10277815163135529, 0.42830052971839905, 0.3367792069911957, -0.31630462408065796, 0.15844468772411346, 0.10529249161481857, 0.38215503096580505, -0.052841801196336746, -0.7917537689208984, 0.13443683087825775, -0.3359895646572113, -0.10983482003211975, -0.21684442460536957, 0.3627944886684418, 0.31960758566856384, 0.49483636021614075, 0.38230857253074646], [0.19362379610538483, 0.038268737494945526, 0.02616608329117298, -0.3880062699317932, -0.467620849609375, -0.06181296706199646, 0.30832332372665405, -0.18898425996303558, -0.008055858314037323, -0.25530529022216797, -0.18479786813259125, 0.10640223324298859, 0.3770988881587982, 0.19654600322246552, 0.1669115573167801, -0.00235760142095387, -0.08520689606666565, -0.10269037634134293, -0.11405141651630402, 0.25733625888824463, -0.16352052986621857, 0.15392303466796875, 0.09671545028686523, 0.9442657828330994, -0.028424043208360672, 0.5276744365692139, -0.012193615548312664, 0.14987114071846008, 0.053745511919260025, 0.06414046138525009, -0.25652873516082764, -0.4117533266544342], [-0.039200808852910995, 0.11351334303617477, -0.20923051238059998, 0.16231046617031097, -0.4842917323112488, 0.1161106750369072, -0.17105020582675934, -0.08463077247142792, 0.2888244688510895, -0.3711049258708954, -0.007085422519594431, -0.02156553976237774, -0.25419753789901733, -0.0009590669651515782, -0.37829354405403137, 0.3501494824886322, 0.01344562042504549, -0.35095736384391785, 0.2887996435165405, 0.11164267361164093, -0.008582848124206066, -0.013527446426451206, -0.16926859319210052, -0.47609904408454895, -0.09461166709661484, -0.28752583265304565, 0.35774916410446167, 0.2533169090747833, 0.12990343570709229, 0.10373181849718094, 0.07822747528553009, -0.07682660967111588], [0.3111382722854614, -0.11472253501415253, -0.10635802894830704, -0.0775146633386612, -0.21365167200565338, 0.01309891976416111, -0.4371843636035919, -0.009689835831522942, 0.3745095729827881, -0.08386256545782089, -0.3073287308216095, 0.061332251876592636, -0.45991653203964233, -0.4099724590778351, 0.07812261581420898, 0.14981257915496826, 0.007218274287879467, -0.12028314173221588, 0.4472509026527405, -0.18813014030456543, 0.10001331567764282, 0.021244633942842484, -0.09897522628307343, -0.9147940278053284, -0.25893059372901917, 0.2725200653076172, -0.07166924327611923, 0.2425195574760437, -0.15886642038822174, 0.22847864031791687, -0.1820671707391739, 0.05822483077645302], [-0.14226508140563965, -0.054315049201250076, -0.23501475155353546, 0.7998771071434021, 0.0782722607254982, -0.12088127434253693, -0.1354149878025055, 0.161067396402359, -0.03101155534386635, 0.08924107253551483, -0.747856616973877, -0.016952410340309143, -0.4147820472717285, -0.22482383251190186, 1.1782277822494507, -0.11544276773929596, -1.0142370462417603, -0.16474610567092896, -0.06922101974487305, -0.20213603973388672, -0.00480914069339633, -0.3245290219783783, 0.07449346035718918, -0.27625447511672974, 0.0573895126581192, -0.254181832075119, 0.15547600388526917, -0.3167472779750824, 0.045515138655900955, -0.09249785542488098, 0.5298685431480408, 0.01865055039525032], [0.00505018699914217, 0.11878466606140137, 0.2775450646877289, 0.22750024497509003, -0.0239395909011364, -0.00960133969783783, 0.09256090968847275, -0.015479388646781445, 0.04651765525341034, 0.5632319450378418, 0.16429470479488373, 0.491237074136734, 0.10465992242097855, 0.7492865920066833, -0.3595312237739563, -0.22692176699638367, 0.012752669863402843, 0.14424151182174683, 0.5484735369682312, -0.13286665081977844, 0.0734197273850441, -0.3442784249782562, -0.04543021321296692, -1.1899162530899048, -0.09200536459684372, 0.2949710190296173, -0.17734070122241974, 0.39425480365753174, 0.12506073713302612, -0.0955299437046051, 0.00474488316103816, 0.32295098900794983], [-0.2827441990375519, -0.03362626954913139, -0.17859302461147308, -0.010842529125511646, -0.168351411819458, 0.7253129482269287, 0.3135075271129608, -0.8633768558502197, 0.13288982212543488, 0.09872028231620789, -0.44140300154685974, 0.19326412677764893, 0.00796498078852892, 0.20324672758579254, 0.877568244934082, -0.3983527421951294, -0.03697030246257782, -0.717938244342804, 0.06673921644687653, -0.07654973119497299, 0.3023289740085602, -1.061061978340149, -0.22166113555431366, 0.3623757064342499, 0.16281215846538544, -0.32078665494918823, 0.11744225025177002, 0.12472697347402573, 0.06743928790092468, -0.08977793157100677, -0.48643943667411804, 0.2300274521112442], [0.03761817514896393, -0.08674520254135132, -0.03798563778400421, 0.11164557933807373, -0.2917792797088623, -0.1408638060092926, -0.319882333278656, 0.23953388631343842, -0.005738117732107639, -0.21091073751449585, 0.5111878514289856, 0.04604875296354294, 0.19111616909503937, -0.2884644865989685, -0.06723783910274506, 0.034657690674066544, 0.02260727994143963, -0.1122293621301651, 0.076377734541893, 0.4827539026737213, -0.058736857026815414, 0.03278137743473053, -0.2326509803533554, 0.8317275643348694, 0.049872998148202896, 0.15981632471084595, 0.18735714256763458, -0.03798496723175049, -0.2164478898048401, -0.09134399890899658, -0.3053308427333832, 0.077718585729599], [-0.04160529747605324, 0.45400527119636536, -0.09362980723381042, 0.04129001870751381, -0.041785839945077896, -0.4750409424304962, 0.10042913258075714, 0.053695522248744965, 0.10206686705350876, 0.4219634234905243, -0.15235315263271332, 0.12276856601238251, -0.021587777882814407, 0.14250044524669647, -0.8758492469787598, 0.42343783378601074, 0.13698729872703552, 0.47676026821136475, 0.15787670016288757, -0.20569676160812378, 0.18573375046253204, 0.20307286083698273, -0.2722727060317993, 0.08662804961204529, 0.6869844794273376, 0.12939028441905975, -0.12883548438549042, -0.14097097516059875, 0.11849602311849594, 0.2271730899810791, 0.4534335136413574, 0.29557913541793823], [0.006227297242730856, 0.36371541023254395, 0.15495389699935913, 0.26683899760246277, 0.17948414385318756, -0.5232032537460327, -0.23391978442668915, -0.03608471155166626, 0.04388813674449921, 0.05642002075910568, 0.3536229133605957, -0.2362571358680725, -0.013479480519890785, 0.43045005202293396, -0.02859247289597988, -0.3786449432373047, -0.17721335589885712, 0.31337565183639526, 0.23401916027069092, -0.21097487211227417, -0.2332497090101242, -0.4490918517112732, -0.352684885263443, -0.2658720910549164, -0.3545815050601959, 0.7127543091773987, -0.2232522815465927, -0.4747661352157593, 0.22746685147285461, -0.006879615131765604, 0.22905808687210083, -0.13852524757385254], [0.09083718061447144, 0.11636777967214584, 0.40442848205566406, -0.1602441668510437, -0.06473962217569351, 0.06235165894031525, 0.27119722962379456, -0.3499774634838104, -0.25640490651130676, 0.06888953596353531, -0.23809486627578735, -0.08981917798519135, 0.601895809173584, -0.09642691165208817, 0.24612972140312195, -0.015890927985310555, -0.1746041625738144, 0.006066545844078064, 0.18258275091648102, 0.15380984544754028, 0.18457664549350739, 0.07527735829353333, 0.22841808199882507, 0.8897290825843811, 0.2634134888648987, 0.915621817111969, 0.21677479147911072, 0.08263485878705978, 0.13228563964366913, 0.2082703709602356, -0.6067346334457397, -0.3257412314414978], [-0.12320315092802048, -0.2636236250400543, -0.14317624270915985, -0.4682900607585907, 0.23744146525859833, 0.3718421459197998, 0.0277094729244709, 0.2616117298603058, -0.05171355977654457, 0.1548241227865219, 0.11104858666658401, -0.08979524672031403, -0.0719776526093483, -0.5616947412490845, 0.18074369430541992, -0.3347499370574951, 0.05031080171465874, 0.11448489129543304, -0.11534526944160461, -0.17059002816677094, -0.37763312458992004, 0.02252908982336521, -0.3543509840965271, -0.22604532539844513, -0.21787096560001373, 0.009634535759687424, 0.09088118374347687, 0.2230219542980194, -0.2362176924943924, 0.08063264191150665, 0.002126885112375021, -0.3955666124820709], [-0.0299680158495903, -0.1111501157283783, 0.09912272542715073, -0.3898898959159851, -0.21098439395427704, 0.11282727122306824, 0.3186458647251129, 0.5464725494384766, 0.20514044165611267, -0.7524650692939758, 0.04230049252510071, 0.026348082348704338, -0.15644104778766632, -0.0018310088198632002, 0.47326892614364624, 0.15170961618423462, -0.07555785030126572, -0.262078195810318, -0.028240220621228218, -0.2533477246761322, 0.375413179397583, -0.06510455906391144, 0.3480182886123657, 0.02712804451584816, 0.14421279728412628, 0.3410186469554901, 0.42093032598495483, -0.061512481421232224, 0.2198522388935089, 0.13619114458560944, 0.4159145653247833, -0.8172791600227356], [-0.06172550097107887, 0.199673131108284, -0.199003666639328, -0.3670452833175659, 0.1219436302781105, 1.005222201347351, -0.057150281965732574, -0.10751562565565109, 0.025537194684147835, -0.21471007168293, 0.1453811377286911, 0.12439373880624771, 0.2800643742084503, 0.3095329999923706, -0.2960200011730194, -0.18876871466636658, -0.008845867589116096, -0.23502574861049652, -0.2283165156841278, 0.1239715963602066, -0.1662970781326294, 0.0035986588336527348, 0.7285197973251343, -0.0969698503613472, 0.46373704075813293, 0.6409528255462646, -0.15062570571899414, -0.0460522435605526, -0.09078753739595413, 0.1373143047094345, 0.20530571043491364, 0.02118680253624916], [-0.048588450998067856, -0.2084963470697403, 0.41002964973449707, 0.0010712011717259884, 0.10863926261663437, 0.4497920274734497, 0.24125583469867706, -0.14626319706439972, -0.26604920625686646, -0.07820484787225723, -0.06079525873064995, -0.0024425573647022247, -0.70904541015625, -0.05470644310116768, -0.32464808225631714, 0.03435429558157921, 0.13657744228839874, 0.03956190496683121, -0.16841129958629608, -0.18303172290325165, 0.18382182717323303, -0.23399822413921356, 0.14650698006153107, -0.1572210192680359, 0.3280932605266571, -1.0483624935150146, -0.16275256872177124, -0.08406313508749008, 0.3809988498687744, 0.351534903049469, -0.09908715635538101, 0.09663915634155273], [-0.01630457118153572, 0.3588097095489502, 0.11029483377933502, -0.47157782316207886, -0.27801594138145447, 0.5665157437324524, -0.06064486876130104, -0.11005058884620667, -0.07136194407939911, -0.3163191080093384, 0.18995003402233124, 0.06745108217000961, 0.05738934874534607, -0.06387265026569366, -0.36363738775253296, -0.05554351955652237, -0.2043565958738327, -0.3739064931869507, 0.12954716384410858, -0.07830818742513657, 0.07158540189266205, 0.11235952377319336, 0.3209761679172516, -0.261701762676239, 0.29145655035972595, 0.19418981671333313, -0.09458725899457932, -0.39440542459487915, 0.021478800103068352, 0.38748082518577576, 0.264394074678421, 0.040928445756435394], [-0.06123170629143715, 0.24261118471622467, -0.1671770215034485, 0.22556480765342712, -0.02806328982114792, -0.03835739195346832, -0.3901427090167999, -0.07429534941911697, 0.01669900305569172, 0.2448982298374176, 0.023353420197963715, 0.08156633377075195, -0.04513418301939964, -0.0033530425280332565, -0.03089917078614235, -0.044230859726667404, -0.06832914799451828, -0.009012437425553799, -0.10499115288257599, -0.29562535881996155, 0.09060901403427124, 0.0222458653151989, 0.17722134292125702, -1.673965573310852, -0.1321585774421692, 0.13022872805595398, 0.1565013825893402, 0.19727927446365356, 0.2222924530506134, 0.13811644911766052, 0.018973274156451225, -0.0074516786262393], [-0.11119145900011063, -0.7653206586837769, -0.12564921379089355, 0.37651559710502625, -0.40612244606018066, -0.3422614336013794, -0.5381575226783752, 0.20511086285114288, 0.6096239686012268, -0.10145702213048935, -0.04223238676786423, 0.12496381998062134, -0.06811156868934631, -0.026044847443699837, -0.24632158875465393, -0.2987300753593445, 0.10292254388332367, 0.28759196400642395, 0.20792002975940704, -0.29455751180648804, 0.009340171702206135, 0.1378803551197052, -1.1611647605895996, -0.17868101596832275, -0.21287119388580322, -0.5213236808776855, 0.5216832756996155, -0.025895684957504272, -0.16904878616333008, -0.29460379481315613, 0.29304373264312744, -0.04086550697684288], [0.4432149827480316, 0.40067631006240845, 0.26308131217956543, 0.11596325039863586, 0.09928231686353683, -1.1032902002334595, -0.04644623398780823, 0.4368216395378113, -0.0955030545592308, 0.0034374448005110025, 0.01555084902793169, 0.14353203773498535, 0.1719733029603958, -0.28397056460380554, -0.5818814039230347, -0.051653359085321426, -0.25449174642562866, 0.35571256279945374, 0.3953051269054413, -0.07904595136642456, -0.3166598081588745, 0.07359150797128677, -0.49443426728248596, -0.25693950057029724, -0.048744041472673416, 0.44580525159835815, 0.13637711107730865, 0.06131594255566597, 0.42464086413383484, 0.03808644413948059, -0.5186952948570251, 0.39583897590637207], [-0.19905227422714233, 0.4651051163673401, -0.09986859560012817, 0.26448899507522583, -0.10552791506052017, 0.29203757643699646, -0.27392345666885376, -0.03953690081834793, -0.13708707690238953, -0.32886016368865967, -0.09430298954248428, -0.035667285323143005, -0.3884017765522003, 0.1404007375240326, -0.098081074655056, -0.1375301629304886, -0.0034599928185343742, -0.3202964663505554, 0.21556705236434937, -0.42352283000946045, -0.09254003316164017, 0.12000879645347595, 0.3816163241863251, -0.7070738077163696, 0.3738749027252197, -0.5538586378097534, 0.41457006335258484, -0.24523361027240753, 0.06334158778190613, 0.21613693237304688, -0.30711236596107483, -0.14144392311573029], [-0.190554678440094, 0.0313221774995327, 0.24831555783748627, -0.4421192407608032, 0.04692499339580536, 0.47151580452919006, 0.25466659665107727, -0.3332078456878662, 0.1037481352686882, 0.12792661786079407, -0.20495645701885223, -0.2533684968948364, -0.15606071054935455, 0.0976940244436264, -0.18218481540679932, 0.09734667092561722, -0.02582663856446743, -0.39970386028289795, -0.04429176077246666, -0.5123969912528992, 0.4047878384590149, -0.024364765733480453, 0.48355570435523987, -0.46581408381462097, 0.3152613639831543, -0.20618028938770294, 0.317841500043869, -0.4377933442592621, -0.0761350616812706, 0.12289842218160629, 0.17596077919006348, 0.1099267303943634], [0.37087202072143555, -0.25351986289024353, -0.2017746865749359, 0.1533273160457611, -0.02717643231153488, -0.48960602283477783, -0.16125278174877167, 0.06597860157489777, 0.6940999627113342, 0.6693364977836609, -0.0577276274561882, 0.05915474146604538, -0.0061628851108253, 0.1610063910484314, 0.17436322569847107, -0.17032434046268463, -0.391761839389801, 0.028051242232322693, 0.21035031974315643, 0.3920997977256775, -0.32756754755973816, -0.3705560863018036, -0.16217324137687683, 0.6442968845367432, -0.43239930272102356, -0.12921448051929474, 0.2726178467273712, 0.13691747188568115, -0.1524294763803482, 0.28093746304512024, 0.5245968699455261, 0.26475948095321655], [-0.5127862691879272, 0.4719510078430176, -0.4393727779388428, 0.33104732632637024, -0.12322951853275299, 0.14634858071804047, -0.20601873099803925, 0.05055548995733261, 0.3782084286212921, 0.9670789837837219, 0.2939807176589966, 1.1024998426437378, 0.8398281931877136, 1.3605525493621826, 0.46120867133140564, 0.43863949179649353, 0.2500368654727936, 0.0611848309636116, -0.2935042083263397, -0.13243797421455383, 0.14010483026504517, -0.051645565778017044, 0.35748612880706787, -0.041334256529808044, 0.24088147282600403, -0.21872246265411377, -0.1313020884990692, -0.18308661878108978, -0.19309544563293457, 0.06971694529056549, -0.13164092600345612, -0.9733847975730896]], "rec.bias_ih_l0": [-0.3494409918785095, 0.45808643102645874, -0.2944667339324951, -0.8714686632156372, 0.29920485615730286, -1.4389532804489136, -0.6127080917358398, -0.7632560729980469, 0.07110844552516937, -0.02930539846420288, -0.5033348798751831, -0.2875169515609741, 0.024612341076135635, -0.07609555870294571, -0.09622934460639954, -0.5160496234893799, -0.4451799988746643, -0.5691812634468079, -0.21407407522201538, 0.05905529111623764, -0.8854553699493408, -0.04061996564269066, -0.641100287437439, -0.03917815536260605, 0.32947900891304016, 0.05784815549850464, 0.29246267676353455, -0.2646878659725189, 0.37459689378738403, -0.10030382126569748, 0.3875632584095001, 0.22729788720607758, -0.8832640051841736, -0.42247113585472107, -0.3707181215286255, -0.207310751080513, 0.06240968778729439, -0.1341891884803772, -0.18471021950244904, -1.1242570877075195, 0.004788856953382492, -0.1327352076768875, -1.0496259927749634, 0.6412888169288635, 0.6326729655265808, 0.06196216121315956, 0.9631778597831726, 0.03301742672920227, 0.3796418011188507, -0.3443557024002075, -0.22947822511196136, -0.6259195804595947, -0.48769181966781616, 0.11937367171049118, 0.013498797081410885, 0.8856850862503052, -0.38560721278190613, 0.9385974407196045, 0.0167942326515913, 0.21520128846168518, -0.8913170695304871, -0.14801298081874847, 0.02845725417137146, 0.15941832959651947, 0.13011178374290466, 0.22811105847358704, 0.0500013493001461, -0.09536366909742355, -0.0771753340959549, -0.013548576273024082, -0.08451142907142639, 0.0854213610291481, -0.19768401980400085, 0.033585865050554276, 0.015891652554273605, -0.14410646259784698, -0.15831661224365234, 0.0895635262131691, 0.13953490555286407, 0.03424718230962753, 0.03601473197340965, -0.09708621352910995, 0.19531510770320892, -0.03283953666687012, 0.04352067783474922, 0.01240160595625639, -0.010656614787876606, -0.06367190927267075, -0.12251020222902298, -0.07769071310758591, 0.12231548130512238, 0.02064809575676918, -0.058663226664066315, 0.05675187706947327, -0.030938297510147095, 0.10140971094369888], "rec.bias_hh_l0": [-0.3644220232963562, 0.4366178512573242, -0.29273685812950134, -0.8569695353507996, 0.54354327917099, -1.1634645462036133, -0.6772305965423584, -0.584729015827179, 0.08123134821653366, 0.041151877492666245, -0.6796777844429016, 0.04821433499455452, -0.14114272594451904, -0.03569928929209709, -0.384379506111145, -0.5914598107337952, -0.2686304450035095, -0.3365272879600525, -0.09965036064386368, -0.11818999797105789, -0.7538251876831055, -0.27297481894493103, -0.734997034072876, -0.025029627606272697, -0.01031368039548397, 0.3044382333755493, 0.22277843952178955, -0.1404118686914444, 0.13769234716892242, -0.09497198462486267, 0.38863152265548706, 0.18602488934993744, -1.0406469106674194, -0.34858405590057373, -0.32325249910354614, -0.17124691605567932, 0.05169522017240524, -0.13103999197483063, 0.026945170015096664, -1.152580976486206, -0.07356955856084824, -0.3028574585914612, -1.0490838289260864, 0.6633567214012146, 0.6397926211357117, 0.19816938042640686, 1.0795570611953735, 0.20913995802402496, 0.32142773270606995, -0.22474025189876556, -0.16999153792858124, -0.4726577401161194, -0.48597636818885803, 0.28190189599990845, -0.14853928983211517, 0.7702049612998962, -0.22733792662620544, 0.9070711135864258, -0.06722342222929001, 0.2985629737377167, -0.9243307113647461, -0.017989646643400192, 0.09337097406387329, 0.11183549463748932, 0.013542918488383293, -0.04545152187347412, 0.0740506649017334, -0.19129495322704315, 0.12647509574890137, -0.1775090992450714, -0.14236150681972504, 0.11653727293014526, 0.03955409303307533, -0.22186480462551117, -0.1144360601902008, -0.218997985124588, -0.03945809602737427, -0.26508766412734985, -0.20267918705940247, -0.11400457471609116, -0.21367532014846802, -0.042288534343242645, 0.04651310667395592, -0.17619489133358002, -0.08534805476665497, 0.2209431231021881, 0.17492534220218658, 0.10519229620695114, -0.16819365322589874, -0.12086347490549088, -0.15760809183120728, 0.2393227517604828, 0.03442643955349922, 0.0735788345336914, 0.20031718909740448, 0.18476377427577972], "lin.weight": [[-0.2595891058444977, 0.014652657322585583, -0.13139599561691284, -0.016338961198925972, -0.2157413214445114, 0.03211201727390289, 0.14591562747955322, -0.17000190913677216, 0.06352144479751587, -0.20121808350086212, -0.1597699522972107, -0.35689884424209595, -0.07762507349252701, 0.08108936250209808, -0.006864327006042004, 0.053928062319755554, 0.02988852746784687, -0.30662640929222107, -0.01836763508617878, 0.0791175439953804, 0.25224071741104126, -0.20355676114559174, 0.032714396715164185, -0.049243099987506866, -0.09091419726610184, 0.04126264154911041, -0.07916347682476044, 0.09837494790554047, 0.08258675038814545, 0.06443890929222107, 0.21637555956840515, -0.1458294540643692]], "lin.bias": [-0.09172728657722473]}}