{"model_data": {"model": "RecNet", "skip": 0}, "blocks": {"0": {"block_type": "GRU", "input_size": 1, "output_size": 1, "hidden_size": 32}}, "training_info": {"current_epoch": 490, "training_losses": [0.5036812270326273, 0.4785399296647543, 0.4781283279518028, 0.4773624209904826, 0.4738396741933637, 0.33189272140334186, 0.29914792416641467, 0.29086500442550556, 0.28705070344368355, 0.2820007270564894, 0.2687431624183407, 0.23811184515716968, 0.1811280538291707, 0.14808022001056706, 0.13330130129689713, 0.1358140869332211, 0.13295127036557958, 0.12583075665759963, 0.12909736792109425, 0.12344274487249651, 0.12392312212085184, 0.1238000587403, 0.1193536097582962, 0.12076829955610749, 0.1211755407139562, 0.12039058036231376, 0.12069560502740473, 0.11952631058800335, 0.12420161524424692, 0.11913889728172064, 0.11475370143382967, 0.11467842924009478, 0.11390189724284913, 0.11567097552144875, 0.11437954405903239, 0.11095429170731601, 0.11015219384707604, 0.11336755576579793, 0.11308102089573037, 0.11169153933304472, 0.11020216670540439, 0.10754129897754686, 0.10922979250816363, 0.11044818759811195, 0.11160074129047526, 0.11030669748637971, 0.10937764274875646, 0.1080308160321279, 0.10498654400905617, 0.10500709183344784, 0.10747661491154463, 0.10677611744998919, 0.10589038123461333, 0.10150306315657187, 0.10280104653982373, 0.10390757237766665, 0.1033395434270141, 0.10661728199958412, 0.10081591265421215, 0.10246312995622683, 0.10249291623446655, 0.10071387024620523, 0.09949781674915902, 0.09758535558478784, 0.09768608873468132, 0.0939470873419921, 0.09477264708657931, 0.09358383742971468, 0.0908450798808851, 0.09052926073358818, 0.08952038492644568, 0.09066905611642186, 0.08801077854480935, 0.08882246358779732, 0.09104566712101751, 0.08818786043383468, 0.08752822783449062, 0.08778974574131818, 0.0857861153660463, 0.0850728977072452, 0.0932472104920292, 0.08674755387685518, 0.0842673626861402, 0.08437689507452699, 0.08536955298154385, 0.08595495071116978, 0.08624147867493624, 0.17528756802853246, 0.08081974201630075, 0.08013972463449101, 0.07930440393687746, 0.08042964234633684, 0.0793571244114889, 0.07857136881317603, 0.08109376004401159, 0.0779223245411337, 0.07568928343243896, 0.07910721186645231, 0.07745378466274636, 0.07477340718138625, 0.07656955567200656, 0.07433997664612704, 0.07407256158359057, 0.07221814476909093, 0.07213970578529619, 0.07315878980406017, 0.07224391797230904, 0.07072133563350064, 0.0736402669806614, 0.06920440515878236, 0.07384220149984899, 0.07942586105510399, 0.07167237336360303, 0.07360234126363964, 0.07705773460352187, 0.06896363567960048, 0.07230478727754641, 0.06793222437588523, 0.06974599411251482, 0.06944040663830645, 0.07059245949078884, 0.07716623469038153, 0.07237389035426178, 0.0700792602638339, 0.07069651598062413, 0.06950722926888954, 0.07323120740943818, 0.07340068847557844, 0.06981575633278238, 0.07325120206148207, 0.07214638234612036, 0.07103949294776304, 0.07357342545148708, 0.07152396563875986, 0.07287345506710471, 0.07445259979176155, 0.07027530399840567, 0.07053212668178241, 0.07339917897101636, 0.06889882666216074, 0.07375065274778514, 0.0703467960626661, 0.07320496325332722, 0.07272588298656046, 0.07372690158497008, 0.07008074475875632, 0.06769656224248857, 0.0670377050326871, 0.07656592451483497, 0.10775375117051912, 0.1077846869608605, 0.10050571763089725, 0.09636029679110492, 0.09634941967821062, 0.09706259237045978, 0.09532815033219175, 0.09988977741933877, 0.09781049730183632, 0.09320789749746199, 0.08199727758402367, 0.08283195749844434, 0.0744887660650609, 0.07143202629061295, 0.07036465679767069, 0.07158714649872248, 0.07083722783929923, 0.0679067681851954, 0.07085559522890329, 0.0693616253269425, 0.06802295365177288, 0.06916762547047398, 0.06665011748441725, 0.07225857580129007, 0.06686580411835827, 0.06416736134364234, 0.06773713062360108, 0.08119644739290142, 0.06669009367439462, 0.06712807162797879, 0.06539222655527584, 0.06535794412983316, 0.06663775356946054, 0.06411681240484988, 0.06269201278601859, 0.06627807591122563, 0.06582386256195606, 0.06001365706687432, 0.06482543961096603, 0.06989204788024163, 0.06212903524132131, 0.06444707668277545, 0.06262895189128913, 0.06260120962117496, 0.06147974995932506, 0.06267306007529524, 0.062229198727200376, 0.06390832500024277, 0.06292481191286986, 0.06584229207198536, 0.0601389395048866, 0.06127874131387028, 0.061198527830979454, 0.05944524805496944, 0.05998329688226443, 0.06592051367057704, 0.06188748503865843, 0.06190009406078365, 0.0595542219884742, 0.061284399927025314, 0.06375084381381219, 0.059081644811607034, 0.05806521968250827, 0.05825768531808122, 0.057518016014780314, 0.05978013110020525, 0.059286663973970054, 0.06265146286807374, 0.061106490881436264, 0.06015208505650426, 0.05772810595642243, 0.058418350112805904, 0.0626635661971598, 0.05973239108774957, 0.061247277131013876, 0.05867756848138841, 0.05488427537916737, 0.06122292385908303, 0.05625893582299642, 0.057319695123943026, 0.062162053828768736, 0.06403910037577637, 0.059227284059146214, 0.05569586308987497, 0.060060554428945305, 0.060072506058283834, 0.057728412334335504, 0.05642698433963799, 0.058497154256691816, 0.05722843095744875, 0.05656163476395433, 0.05848135611393139, 0.05412061868973269, 0.05578870775613499, 0.0737812238376491, 0.07126899886961009, 0.05585760403085839, 0.053674145740783434, 0.05573157605098246, 0.054188625037355664, 0.05377471285521405, 0.054977748511274425, 0.05543320118782243, 0.05474691753360358, 0.05429346162777443, 0.053949902895475174, 0.05479411362041416, 0.05401180252771485, 0.054621764117029396, 0.054446794240820155, 0.05772797439501366, 0.055435582677918406, 0.05393876456474135, 0.054842823705115874, 0.052937203316719514, 0.051022760415836775, 0.060135900916821965, 0.0531634923354904, 0.0566276266245631, 0.05748557263392615, 0.05756223260715313, 0.054264499642583834, 0.05232638594779101, 0.05759650147399055, 0.05992897218335177, 0.0552057980124343, 0.056363880365191917, 0.055230430309213215, 0.053148066067112636, 0.05433104913258417, 0.055655535534266144, 0.05401499997280151, 0.05206548904867044, 0.05133588915061834, 0.05514632713944687, 0.05179930382783149, 0.05278953937995067, 0.052902222069754416, 0.05122302976957003, 0.052377650641243556, 0.05621107357445282, 0.0569575753927763, 0.05139671092816666, 0.11900886693703276, 0.08681276655459605, 0.0494064292265707, 0.0529248647137799, 0.05375064482501189, 0.050783107250735364, 0.05232905136880937, 0.05084711264262532, 0.054150884490242454, 0.05186656789624362, 0.0503996655453819, 0.052540763713685525, 0.05409390623560295, 0.051795554422930656, 0.0512509937005045, 0.05058142064477909, 0.05008997225396141, 0.052246744430007104, 0.05085666359752998, 0.05281680337207804, 0.05075605524486147, 0.050115763407817426, 0.05282717079601505, 0.05116667707946587, 0.050886972526136734, 0.05029238803106566, 0.05438203539082465, 0.05586947605025942, 0.05169114024172743, 0.05010742059600383, 0.05530307431366634, 0.05206218507902866, 0.053752102004666506, 0.053769882904462434, 0.05055170963433655, 0.050971461378352394, 0.052805376958779314, 0.051125593719302434, 0.05303379574748265, 0.05031125409250426, 0.05042733494857591, 0.05108896184821505, 0.04709880688082572, 0.05530441152657588, 0.05023174583549044, 0.04859462163755789, 0.050102312223647125, 0.04806386529431715, 0.050170827542080895, 0.047561429271643814, 0.04977191722492215, 0.04773218600629744, 0.0501954283643901, 0.047824172360532276, 0.051192582206945725, 0.04850514680328598, 0.0487081823075287, 0.04880598471983784, 0.050366338611544145, 0.05075690025681412, 0.05459633902888504, 0.04801807528385869, 0.05150192100010425, 0.047809291095775246, 0.048968103681025756, 0.04952199711137778, 0.05106477260396079, 0.049312288612853014, 0.052279491358521314, 0.04826451290108553, 0.04982609713945972, 0.04856357129151606, 0.04783636261860223, 0.048118023431630096, 0.049354275951597394, 0.04994395469895914, 0.04769504738989734, 0.04850883422987899, 0.04747553313961374, 0.048001698160834314, 0.04840146754142622, 0.052139051834593046, 0.04926031238441779, 0.045474864350474604, 0.050286714906816354, 0.048937944828399596, 0.049795090910289205, 0.049270370058933054, 0.052512787804068, 0.051144685366420785, 0.04792035262511631, 0.048701818790528685, 0.044453245297364594, 0.04997897781310724, 0.04771632905565686, 0.04760243657329303, 0.050452693867460874, 0.05254971174003146, 0.04877125516582233, 0.047704849603839895, 0.046181440554474575, 0.04814680066116928, 0.048449130015230026, 0.04508593629035713, 0.055972838874108026, 0.049465282989496547, 0.0476497114460625, 0.04526885966588924, 0.04738787123510107, 0.05214355133213828, 0.048073610209243056, 0.04926521964250252, 0.04744840949749597, 0.04658943729009479, 0.0472060156254364, 0.046318938160411924, 0.04861952092909775, 0.04716631124255719, 0.049766883647141893, 0.04971886311760534, 0.048060780329109695, 0.045801063447694794, 0.04787861534345943, 0.04858412360772491, 0.051616265765064714, 0.04857645484213657, 0.05200215458398225, 0.049248721754456604, 0.05051087178350367, 0.049126569952743206, 0.04536298068554757, 0.04687673082671963, 0.04842330541691513, 0.046384499858847114, 0.0472663471160771, 0.04696377407602193, 0.046759955092127645, 0.05168282269657431, 0.04649695111045542, 0.04775803686609468, 0.04587464756634716, 0.04739816504826938, 0.0494424111100954, 0.048678458229844256, 0.044103187986637475, 0.047864334722799426, 0.04672535371289334, 0.04496324347942921, 0.0480004616653208, 0.047100283674194256, 0.04562137087401873, 0.04706779402807694, 0.04674968621905216, 0.046332902161634285, 0.0467049628254268, 0.046088043183039926, 0.047113966665460506, 0.04590940653110624, 0.05129376830769001, 0.04816153090501614, 0.04554033880545334, 0.04571309529680323, 0.0455545445483831, 0.04691631841025763, 0.04603541103742002, 0.04601894925777837, 0.04582691028133614, 0.04477106592188553, 0.04642813622213706, 0.046994494581171734, 0.04652290393646757, 0.04974140042239534, 0.047778568812645965, 0.04590577469660912, 0.048420617287349595, 0.04570407347523837, 0.04637732355879596, 0.04797360635900796, 0.04590655820649842, 0.04579788387916352, 0.04499600418426048, 0.046485045949728895, 0.044351882735182604, 0.04503770677717523, 0.04950124052558822, 0.04672337636387871, 0.046207813286016884, 0.04927957724241613, 0.045766783727018485, 0.04617200988683512, 0.048542647858380104, 0.04450774363804512, 0.05131130205322202, 0.047531642372018436, 0.05095774539770533, 0.045809326058422986, 0.05043652303541055, 0.04642768595790997], "validation_losses": [0.456172376871109, 0.3019554615020752, 0.1511174589395523, 0.16016735136508942, 0.08641546964645386, 0.1459759622812271, 0.10026777535676956, 0.10612893104553223, 0.10748770087957382, 0.0840427502989769, 0.10893351584672928, 0.08864222466945648, 0.08133149892091751, 0.08193584531545639, 0.10837970674037933, 0.07641813904047012, 0.08314699679613113, 0.09858705848455429, 0.14932864904403687, 0.11336390674114227, 0.07879797369241714, 0.0999482050538063, 0.15197621285915375, 0.06362764537334442, 0.0726018026471138, 0.13890326023101807, 0.08989434689283371, 0.09601159393787384, 0.16218997538089752, 0.08196385949850082, 0.07917225360870361, 0.07355897128582001, 0.09843838214874268, 0.08438146859407425, 0.07174081355333328, 0.05762242153286934, 0.1415175050497055, 0.05224645882844925, 0.057969141751527786, 0.06909496337175369, 0.14344832301139832, 0.06872215121984482, 0.05182689055800438, 0.07637491822242737, 0.06557320803403854, 0.16018542647361755, 0.09168503433465958, 0.2107679694890976, 0.06591152399778366, 0.054144371300935745, 0.11229437589645386, 0.07302147150039673, 0.05593370273709297, 0.05269468575716019, 0.13118195533752441, 0.07468423992395401, 0.08658650517463684, 0.23484431207180023, 0.05916180834174156, 0.10067736357450485, 0.06082563102245331, 0.06559394299983978, 0.07882776856422424, 0.05584709346294403, 0.05360205098986626, 0.057419415563344955, 0.050078384578228, 0.0850793719291687, 0.06795588880777359, 0.05936823785305023, 0.055120788514614105, 0.09351174533367157, 0.05776640772819519, 0.05449480190873146, 0.052691973745822906, 0.05818863958120346, 0.09066209197044373, 0.09227132797241211, 0.056538429111242294, 0.10987576097249985, 0.05356570705771446, 0.08450037986040115, 0.13851548731327057, 0.1731698215007782, 0.11539626121520996, 0.0907001942396164, 0.19071942567825317, 0.061299532651901245, 0.047270338982343674, 0.06027350574731827, 0.08590162545442581, 0.07531256973743439, 0.05554038658738136, 0.05968546122312546, 0.10226341336965561, 0.05465685576200485, 0.2778622508049011, 0.047186680138111115], "train_epoch_av": 15.36698055267334, "val_epoch_av": 31.651867985725403, "total_time": 2.9332838237285612, "best_val_loss": 0.047186680138111115}, "state_dict": {"layers.block_1.rec.weight_ih_l0": [[0.6317763328552246], [-0.024491293355822563], [-0.6686968207359314], [0.6000934839248657], [0.931721568107605], [1.8875385522842407], [0.6260214447975159], [0.1179349422454834], [-0.4121337831020355], [-0.5476728081703186], [-1.5987485647201538], [-0.3745369017124176], [-0.8349138498306274], [0.731435239315033], [-0.5683293342590332], [0.4053856134414673], [-0.861463725566864], [0.331128865480423], [-0.512371838092804], [-0.16626761853694916], [0.21769021451473236], [-0.6406005024909973], [0.18708176910877228], [-0.4339864253997803], [-0.38415250182151794], [-0.7649813890457153], [0.1591366082429886], [1.9088590145111084], [0.40009400248527527], [-0.06684740632772446], [0.3679785132408142], [0.8938149213790894], [0.43353715538978577], [0.6110696196556091], [1.5529416799545288], [-0.5450480580329895], [-0.4025009274482727], [-0.688594400882721], [-0.9918693900108337], [-0.4161200225353241], [-2.053677558898926], [4.665565013885498], [0.05603910982608795], [-1.19868803024292], [1.1542330980300903], [1.528733491897583], [0.8405792117118835], [-0.02929467335343361], [0.5248439908027649], [0.7903792262077332], [-1.438214659690857], [-0.6275867819786072], [0.36344096064567566], [-1.6209805011749268], [-0.6829074025154114], [-1.0313115119934082], [-2.1810052394866943], [-0.9764019846916199], [0.5058258175849915], [0.6598576307296753], [3.5783021450042725], [-0.44909346103668213], [-2.2508387565612793], [-0.08924370259046555], [1.2181051969528198], [-0.19827769696712494], [1.9102691411972046], [0.5404922962188721], [0.9463024139404297], [0.9455956220626831], [-0.4809974730014801], [-0.3639483153820038], [0.18789468705654144], [1.5789052248001099], [-0.06296622008085251], [0.3723393976688385], [-1.8972136974334717], [-0.3768812417984009], [-2.342693567276001], [0.3306751847267151], [-0.1440390795469284], [-0.7492172718048096], [0.48991432785987854], [0.5010430216789246], [-0.3235156834125519], [0.4437720477581024], [1.3087663650512695], [0.8823196291923523], [-0.4912070631980896], [0.025822581723332405], [-0.08543233573436737], [1.5375359058380127], [-0.9682762622833252], [-0.024529101327061653], [1.0260716676712036], [0.6507748365402222]], "layers.block_1.rec.weight_hh_l0": [[-0.733668863773346, 0.400829017162323, 0.5636898875236511, -0.06547714024782181, 0.13199439644813538, 1.647925615310669, -0.25617721676826477, 0.36308160424232483, 0.06908954679965973, 0.5362799167633057, -0.04627158120274544, -0.1621764600276947, 0.33445531129837036, 0.4517894983291626, 0.23977670073509216, -0.3291882574558258, 0.3930072784423828, -1.2398499250411987, -0.03697627782821655, 0.2909713089466095, -0.043368011713027954, -0.20493893325328827, -1.011293888092041, -0.4315715730190277, -0.6224721074104309, -0.2083858996629715, -0.06177917495369911, 0.021958423778414726, 0.6986880302429199, 0.19855274260044098, 0.024340856820344925, 0.07085799425840378], [0.005133870057761669, 0.2143305093050003, -0.021493012085556984, 0.13951224088668823, -0.2403745800256729, 0.026306692510843277, -0.08182468265295029, -0.022977687418460846, -0.2091563493013382, 0.18819062411785126, -0.2701365053653717, 0.4844217300415039, -0.19284428656101227, 0.05135519430041313, 0.0022364158648997545, -0.017895808443427086, -0.37699267268180847, -0.1620655506849289, -0.005889920983463526, -0.057212747633457184, 0.1894843429327011, 0.35257065296173096, 0.8073098659515381, 0.001422486500814557, 0.04593474045395851, -0.0071082571521401405, 0.1590593159198761, 0.005925784818828106, -0.03524230048060417, -0.27667883038520813, -0.0640968456864357, 0.03048078343272209], [-0.45834195613861084, -0.2806963324546814, -0.08319711685180664, 1.0339611768722534, -0.6816791892051697, 2.7606277465820312, -1.5378159284591675, 1.3375475406646729, -1.4424517154693604, 0.3300292193889618, 0.5616575479507446, -0.9365803599357605, 0.3384186625480652, -0.5324085354804993, 1.4265695810317993, 0.5191791653633118, 0.381462961435318, -1.414576530456543, -0.468078076839447, 0.7135189771652222, -0.9171589612960815, -0.3131869435310364, -0.48150020837783813, 0.3889310657978058, 0.8526264429092407, 2.964846611022949, 0.982072651386261, -0.640091598033905, -0.6094366312026978, -3.6761081218719482, -0.09197075664997101, -0.21537074446678162], [0.24462726712226868, 0.43425077199935913, 0.060166675597429276, 0.23829695582389832, 0.06163983419537544, 0.32625889778137207, -0.12231609225273132, 0.8407841920852661, 0.3210212290287018, 0.6216297745704651, -0.017954356968402863, 0.13963909447193146, 0.07276469469070435, 0.045382432639598846, -0.03484746813774109, 0.6680122017860413, 0.18609322607517242, -0.4869076907634735, 0.3467480540275574, 0.6416305303573608, -0.33093908429145813, -0.10667204111814499, 0.025351129472255707, 0.09135156124830246, -0.11585789173841476, 0.5494629740715027, -0.11305878311395645, 0.18142563104629517, -0.8122225403785706, -0.39075571298599243, 0.23983821272850037, -0.17447727918624878], [0.6476309895515442, -0.3712807297706604, 0.13501600921154022, 0.14868387579917908, 0.22356243431568146, 0.5271649956703186, -0.2308272123336792, -0.6279630661010742, -0.03787948936223984, 0.8308058381080627, 0.020289380103349686, 0.30865347385406494, -0.49025505781173706, -0.023360250517725945, -0.09730105847120285, 0.007616889197379351, -0.6296711564064026, -0.4123735725879669, 0.016402684152126312, -0.04084588959813118, 0.026469647884368896, 0.09323613345623016, 0.596809983253479, -0.10093585401773453, 0.6276953816413879, 0.9138259887695312, 0.17127260565757751, 0.3814121186733246, -0.18711046874523163, -0.1559174656867981, 0.04811198264360428, 0.06917490810155869], [0.44111204147338867, 0.06958457082509995, 0.31279829144477844, 0.18672093749046326, 0.20933128893375397, 0.18180763721466064, 0.13757599890232086, -0.37269580364227295, -0.09268540889024734, 0.6739887595176697, -0.2971799969673157, -0.07719936966896057, -0.40461933612823486, 0.31824997067451477, -0.11051658540964127, -0.2972000241279602, 0.08637779206037521, -0.4451894164085388, 0.9170323014259338, -0.44682610034942627, 0.16414335370063782, 0.057592567056417465, -0.09730790555477142, 0.566888689994812, -0.5473811030387878, 0.39675959944725037, -0.31654709577560425, 0.5938025116920471, 0.15796972811222076, 0.009989049285650253, 0.1494074910879135, 0.21164226531982422], [0.0411989688873291, -0.0593639612197876, -0.11640883982181549, 0.14580021798610687, 0.02608906477689743, -0.4202580749988556, 0.22179509699344635, -0.15728335082530975, -0.08958470076322556, 0.45582979917526245, -0.24305784702301025, -0.2308141440153122, -0.1656637042760849, 0.22139506042003632, 0.01762537471950054, 0.3619563579559326, 0.27575844526290894, -0.16875800490379333, -0.023077229037880898, -0.18554982542991638, 0.5249168276786804, 0.21052153408527374, 0.32152611017227173, -0.05042382702231407, -0.36863240599632263, 0.5516868829727173, -0.014203302562236786, -0.05982068553566933, 0.3096984624862671, 0.2996568977832794, 0.07334408909082413, -0.185794860124588], [-0.14138945937156677, -0.5172481536865234, 0.011816070415079594, -0.022658543661236763, 0.027508415281772614, 0.14983247220516205, -0.17691050469875336, 0.07495301961898804, -0.010321112349629402, 0.2951052486896515, -0.046094901859760284, -0.05992314964532852, 0.007919332012534142, -0.3141152560710907, -0.13208875060081482, -0.15813231468200684, 0.3381079435348511, -0.14852724969387054, 0.1273936778306961, -0.4620157480239868, -0.0785784125328064, -0.7562431693077087, -0.1629483550786972, -0.08144969493150711, 0.052543461322784424, -0.09107747673988342, 1.1137195825576782, -0.025911852717399597, 0.44885751605033875, 0.2599380910396576, -0.12336394190788269, 0.2065735012292862], [0.20763933658599854, -0.2179223895072937, -0.02327115461230278, -0.23928838968276978, -0.18743732571601868, -0.10026858747005463, -0.04203192517161369, -0.05305439606308937, 0.3009784519672394, -0.11424919962882996, -0.07302764803171158, -0.2920525372028351, 0.15275396406650543, -0.08792305737733841, -0.17011059820652008, -0.5086492896080017, -0.05401625484228134, 0.02034412883222103, -0.1927742063999176, -0.12118630856275558, -0.08197346329689026, -0.024335598573088646, -0.18709337711334229, 0.10031003504991531, 0.27765536308288574, 0.021854311227798462, 0.27048835158348083, 0.16945283114910126, -0.2025357037782669, -0.7745669484138489, 0.18498434126377106, -0.30480462312698364], [-0.14643187820911407, 0.33018869161605835, -0.0909484475851059, 0.029970474541187286, -0.7394384741783142, -0.0029111234471201897, 0.2914244532585144, 0.23020344972610474, -0.3303520977497101, -0.5827805399894714, 0.4417048990726471, -0.31681743264198303, 1.1548823118209839, 0.3005563020706177, 0.754159688949585, 0.12577126920223236, 0.3252386152744293, -0.15063594281673431, -1.091833472251892, 0.13500618934631348, -0.4570208489894867, -0.20804888010025024, -1.1551185846328735, -0.5801461935043335, -0.7595338225364685, -0.19299793243408203, 0.3218555450439453, -0.8695237040519714, -0.15213312208652496, -0.3376891613006592, -0.6684938073158264, 1.3461363315582275], [-0.6837082505226135, -0.679428219795227, -0.4651411175727844, 0.19910438358783722, -0.5436074733734131, -0.2446567416191101, -0.17737935483455658, 0.3709455728530884, -0.10580965876579285, -0.549951434135437, 0.22642412781715393, -0.09949806332588196, 0.5723192095756531, 0.0347481369972229, 0.19959622621536255, 0.012491663917899132, -0.10494811832904816, 0.0718957707285881, -0.6039474606513977, 0.29683807492256165, 0.08916275948286057, -0.12211858481168747, -0.09587621688842773, -0.5377441048622131, 0.4354105591773987, -0.05421004816889763, 0.19490157067775726, -0.8072558641433716, -0.020494412630796432, -0.1858852207660675, -0.9452632069587708, 0.1696922481060028], [-0.31763529777526855, -0.2956874966621399, -0.13147933781147003, 0.40780243277549744, -0.06763186305761337, 0.11429580301046371, -0.34297579526901245, 0.14533191919326782, 0.3265652656555176, -0.6852374076843262, 0.14638067781925201, -0.21286417543888092, -0.1186528280377388, -0.3758094310760498, 0.02757076732814312, 0.018232010304927826, 0.22991961240768433, -0.20172561705112457, 0.06091564893722534, 0.04779608175158501, -0.2945476472377777, -0.13415370881557465, -0.46027225255966187, 0.3657001852989197, -0.18599815666675568, -0.16414058208465576, 0.42718279361724854, 0.309272438287735, -0.23521451652050018, 0.029621586203575134, -0.07689663022756577, 0.01758768782019615], [-0.27677667140960693, 0.000925165310036391, -0.08122602105140686, -0.16169767081737518, -0.3127903938293457, -0.11021232604980469, -0.002912511583417654, -0.37632137537002563, -0.2297636866569519, 0.2590397894382477, 0.3640187680721283, 0.13317693769931793, 0.5453569889068604, 0.1205916702747345, 0.11096081137657166, -0.23045769333839417, -0.3641052544116974, -0.11452387273311615, -0.45800065994262695, -0.1597064584493637, -0.10085736960172653, -0.12444786727428436, -0.14256617426872253, -0.5544780492782593, 0.21008612215518951, 0.36546793580055237, 0.30074167251586914, -0.35205790400505066, 0.09793666750192642, 0.01402495801448822, -0.3283824920654297, 0.19378407299518585], [0.3472730815410614, -0.3435434103012085, -0.8013980984687805, 0.5635972023010254, 0.3899625539779663, 0.10076617449522018, -0.2697787880897522, 0.0908285453915596, 0.32446861267089844, 1.2456111907958984, 0.26996123790740967, 0.46516039967536926, -0.5936169624328613, -0.5388648509979248, 0.21833904087543488, 0.30822452902793884, -0.07831886410713196, -0.574046790599823, -0.13961349427700043, 0.47757604718208313, 0.4811357855796814, -0.21190527081489563, 0.6760399341583252, 0.037963055074214935, 0.10918859392404556, 0.14700248837471008, 0.12083427608013153, 0.3750828206539154, -0.772156834602356, 0.3116411566734314, 0.09824775904417038, 0.7757354974746704], [-0.26894494891166687, -0.1561669409275055, 0.702293336391449, 0.33423951268196106, 0.5711233615875244, 0.5279380679130554, -0.3873186707496643, 0.024392182007431984, 0.18127337098121643, -0.08952867984771729, 0.06516236066818237, 0.3104584813117981, -0.5978980660438538, -0.3204830586910248, -0.6007276773452759, 0.2533474266529083, -0.9418577551841736, -0.34245842695236206, -0.2196294218301773, -0.340899258852005, -0.15892158448696136, -0.2650216817855835, -0.440713107585907, -0.0362849198281765, 0.8661921620368958, 1.086031198501587, 0.3952038586139679, 0.15646831691265106, 0.35073786973953247, 0.2736876308917999, -0.024997472763061523, -0.437357634305954], [-0.3032226860523224, -0.24197517335414886, -0.2631210386753082, 0.5300760865211487, 0.3561623692512512, -0.151028573513031, -0.3469294607639313, -0.43148577213287354, 0.34271734952926636, 0.007870090194046497, 0.35494744777679443, 0.9737412333488464, -0.16607756912708282, -0.4494144916534424, -0.17883548140525818, 0.048785820603370667, -0.09061671793460846, -0.34331658482551575, -0.28478479385375977, 0.09575444459915161, -0.7360193133354187, -0.3044865131378174, 0.9927434921264648, -0.0521869994699955, 0.3577650189399719, -0.08810137212276459, 0.24251313507556915, 0.01476545725017786, -0.4269188940525055, -0.31988584995269775, 0.22233524918556213, -0.04672282561659813], [-0.3575304448604584, 0.009604891762137413, 0.3298179507255554, -0.15600340068340302, 0.27483946084976196, -0.49969562888145447, 0.01669648103415966, 0.5446671843528748, -0.14675521850585938, -0.041202250868082047, 0.008362467400729656, 0.019269324839115143, -0.2733783721923828, -0.1354788839817047, 0.23382511734962463, 0.37380558252334595, 0.4040832817554474, 0.4818938672542572, -0.04737148433923721, 0.11194872111082077, -0.028342461213469505, -0.028499621897935867, -0.2707805931568146, 0.13343745470046997, -0.04840829223394394, -0.4104035198688507, -0.2815389037132263, 0.07254980504512787, 0.14089561998844147, -0.29169487953186035, 0.1227579414844513, -0.3547326624393463], [-0.2598283886909485, -0.10833108425140381, 0.13123594224452972, -0.12282472848892212, -0.0018983589252457023, -0.24917249381542206, 0.02792481705546379, -0.3659861087799072, -0.06116155907511711, -0.12096729129552841, 0.18407365679740906, 0.3519130051136017, 0.12546618282794952, 0.4360192120075226, 0.0692821517586708, -0.12453674525022507, 0.3962586224079132, 0.1126149594783783, -0.4761370122432709, -0.01917187310755253, -0.0009588528191670775, 0.06142343953251839, 0.04697621241211891, -0.5752280950546265, -0.9030025601387024, 0.06545355170965195, -0.017695657908916473, -0.37114426493644714, 0.18206217885017395, 0.18571455776691437, -0.4082384705543518, 0.7061578631401062], [-0.3418804705142975, -0.0975472703576088, 0.26994773745536804, 0.06999632716178894, 0.4483659267425537, 0.22174803912639618, -0.10047999024391174, -0.25199514627456665, 0.07677944749593735, -0.08703865110874176, 0.12222044169902802, 0.35218995809555054, -0.48201897740364075, 0.041805487126111984, 0.04952787607908249, -0.26462727785110474, 0.258373498916626, 0.03816841170191765, -0.4116764962673187, 0.14565391838550568, -0.3319041132926941, 0.16493764519691467, -0.12503910064697266, -0.26840588450431824, 0.05231150612235069, 0.027130858972668648, -0.08267198503017426, 0.2740684747695923, -0.011460750363767147, -0.0702112689614296, 0.2803177833557129, 0.0025387390051037073], [0.4847029447555542, 0.007789337541908026, 0.5006082653999329, 0.5585776567459106, 0.17133913934230804, 0.7098180055618286, -0.45858803391456604, -0.4625193476676941, 0.06833740323781967, 0.8002644777297974, 0.6315392851829529, 0.2734687328338623, 0.03137240931391716, 0.0063823675736784935, -0.18556223809719086, -0.2923995554447174, -0.045563288033008575, -0.5427019596099854, 0.592418372631073, 1.174852967262268, -0.5418581962585449, -0.49450236558914185, -0.11680545657873154, -0.2631271183490753, 0.21317805349826813, 1.2942134141921997, 0.2123933583498001, 0.07899545878171921, -0.4007631242275238, 0.13442964851856232, -0.23680119216442108, 0.06745690107345581], [-0.2292911410331726, 0.0008652785909362137, -0.27551743388175964, 0.23812316358089447, -0.08578323572874069, -0.41031980514526367, 0.33811405301094055, -0.654093861579895, -0.41457945108413696, -0.1454758197069168, -0.037218816578388214, 0.16699464619159698, -0.05523607134819031, 0.10474254190921783, 0.24148735404014587, 0.2863585352897644, 0.3286350667476654, 0.1279999315738678, -0.12450648099184036, -0.48329365253448486, 0.3700045943260193, -0.3667188286781311, 0.13370005786418915, -0.29914918541908264, -0.3033977746963501, -0.3297557830810547, -0.07693076878786087, -0.20118482410907745, 0.8146418929100037, 0.07179255038499832, -0.3003942668437958, 0.34966063499450684], [0.09430170804262161, 0.5637567639350891, -0.08795230835676193, -0.37972700595855713, -0.01848471909761429, -0.08825938403606415, 0.3492366373538971, -0.0308492761105299, -0.40483516454696655, 0.25935113430023193, -0.14952807128429413, -0.5102257132530212, 0.16443581879138947, 0.7502195239067078, 0.12054724246263504, -0.16162338852882385, 0.10797596722841263, 0.37908002734184265, 0.04522020369768143, -0.06809157878160477, 0.404697448015213, 0.3267878592014313, 0.1348777860403061, -0.2390912026166916, -0.24192292988300323, 0.1275172084569931, -0.3991343677043915, 0.13482694327831268, 0.2625526487827301, -0.14592976868152618, -0.07945959270000458, -0.1824113428592682], [-0.48004961013793945, -0.09121763706207275, -0.35759320855140686, 0.09206382185220718, -0.2748667895793915, -0.3679715394973755, -0.07106486707925797, 0.011633978225290775, -0.5612135529518127, 0.2904972732067108, -0.06456945091485977, 0.1795216202735901, 0.3476816415786743, 0.38471338152885437, 0.5850608348846436, -0.39569514989852905, -0.16768518090248108, 0.028856882825493813, -0.08087503165006638, 0.5272438526153564, -0.09931498765945435, -0.1756579577922821, -0.1302880197763443, -0.24084922671318054, -0.23227167129516602, 0.08123059570789337, -0.20530647039413452, -0.14860746264457703, 1.0542453527450562, 0.12349551171064377, -0.40445375442504883, 0.480364054441452], [-0.10980072617530823, -0.2141982913017273, -0.0039995405822992325, 0.18344837427139282, 0.5694223642349243, 0.4092910587787628, -0.5801001787185669, 0.5547537803649902, 0.4381811022758484, -0.1087147668004036, 0.4475288987159729, -0.1836351603269577, -0.5532087683677673, -0.5911180377006531, 0.2052561491727829, 0.07540223747491837, 0.11224749684333801, -0.21539446711540222, -0.15637095272541046, 0.1392398178577423, -0.2029779553413391, -0.15152715146541595, -0.5583022236824036, 0.3822561204433441, -0.23229794204235077, 0.32769250869750977, 0.4249822199344635, -0.0029793265275657177, -0.5192826390266418, -0.2336455136537552, 0.8461306691169739, -0.04476190730929375], [-0.07514169067144394, 0.12370564043521881, -0.07975148409605026, 0.03876030445098877, 0.11577653884887695, -0.41961923241615295, 0.1426936835050583, 0.5075471997261047, 0.460592657327652, -0.04086218774318695, 0.3062010407447815, -0.3255377411842346, -0.3681165277957916, -0.27496790885925293, 0.14893467724323273, 0.3332550823688507, 0.2562754452228546, 0.48488256335258484, -0.15166063606739044, 0.1304706484079361, -0.07557018846273422, 0.30936843156814575, -0.4724039137363434, -0.04674781486392021, -0.0392320454120636, 0.5501360893249512, -0.10747779160737991, 0.06765472143888474, -0.550112247467041, -0.21488043665885925, -0.17070764303207397, -0.0808039978146553], [-0.9009001851081848, -0.8827962279319763, -0.18205538392066956, 0.16045622527599335, -0.6962164044380188, -0.7359327077865601, 0.39779773354530334, 1.2030516862869263, -0.939274251461029, -0.42878666520118713, 0.6101067066192627, -0.37224486470222473, 0.9318081140518188, -0.9025106430053711, 0.4922585189342499, 1.4789438247680664, -0.9379091858863831, 0.4009528160095215, -0.18776284158229828, 0.8969297409057617, 0.20864401757717133, -0.7767807245254517, -1.098794937133789, -0.6464465856552124, 1.101032018661499, 0.2761649191379547, 0.6539441347122192, -1.1128402948379517, 0.4704897999763489, -1.2256900072097778, -0.5771602988243103, -0.5820614695549011], [0.09428432583808899, 0.09122510254383087, -0.06543087214231491, -0.21484144032001495, 0.020464589819312096, 0.03844241425395012, -0.2869011461734772, -0.3117583394050598, -0.02082669548690319, 0.21083900332450867, 0.10492008924484253, -0.2351941019296646, 0.008893652819097042, -0.04975743219256401, -0.25985822081565857, -0.2828594148159027, 0.062173131853342056, -0.11981001496315002, -0.2184075266122818, 0.03388405218720436, 0.5481626391410828, 0.16171301901340485, 0.9516976475715637, 0.10033820569515228, 0.025683248415589333, 0.17676296830177307, -0.03959093615412712, 0.08110139518976212, 0.027603788301348686, -0.13990657031536102, 0.18929333984851837, 0.010919498279690742], [0.40275681018829346, -0.19890561699867249, -0.21148346364498138, -0.1415061503648758, -0.35734981298446655, 0.6739959120750427, 0.08240219950675964, -0.11838120222091675, 0.03163370490074158, 0.6105721592903137, 0.014056753367185593, -0.5635601282119751, -0.28420472145080566, 0.005030239466577768, 0.19914619624614716, 0.2051556557416916, 0.23699761927127838, -0.30145373940467834, 0.12278609722852707, 0.21806661784648895, -0.04512224346399307, 0.2768773138523102, -0.33469828963279724, -0.3132553994655609, -0.9826698899269104, 0.8003752827644348, 0.491218239068985, 0.46617308259010315, -0.45696014165878296, -0.24161066114902496, -0.5593841075897217, 0.5070157647132874], [-0.06763911992311478, -0.04882071167230606, -0.052341900765895844, -0.013308316469192505, -0.4749279022216797, -0.13843242824077606, -0.012721640057861805, 0.22634483873844147, -0.479787677526474, 0.27465227246284485, -0.14407873153686523, -0.08601454645395279, 0.8251742124557495, -0.06796257942914963, 0.5162695050239563, 0.6572600603103638, 0.3003116846084595, -0.2600943148136139, -0.2249700129032135, -0.36382821202278137, -0.016752351075410843, -0.018411708995699883, -0.19193130731582642, -0.1534520983695984, -0.39865484833717346, -0.173309326171875, 0.22150322794914246, -0.45262548327445984, 0.40691667795181274, 0.2346397340297699, -0.12529417872428894, 0.15434424579143524], [-0.3996751308441162, 0.031133262440562248, -0.0012856950052082539, 0.23511570692062378, 0.7648531198501587, 0.4832686483860016, -0.41088202595710754, 0.3502956032752991, 0.3465065658092499, 0.6676054000854492, -0.16068151593208313, 0.025934405624866486, -0.6692835092544556, -0.34371066093444824, -0.40668466687202454, 0.06586416810750961, 0.9856962561607361, -0.3568387031555176, 0.38515281677246094, 0.2508189082145691, -0.19911782443523407, -0.2617422342300415, -0.9082303643226624, 0.21259166300296783, 0.48920953273773193, 0.05192817002534866, -0.000618593068793416, 0.7451381087303162, 0.005614990368485451, -0.0949823260307312, 0.3936869204044342, 0.054197002202272415], [0.40796777606010437, -0.32563939690589905, 0.04535600170493126, 0.09638626128435135, 0.33425742387771606, 0.16307641565799713, -0.15873681008815765, 0.3599739372730255, 0.398102343082428, 0.20466527342796326, 0.14461344480514526, -0.20982030034065247, -0.5953685641288757, -0.6379819512367249, -0.13128799200057983, 0.39386945962905884, -0.21382828056812286, -0.09924104064702988, -0.12140659987926483, 0.00473041320219636, -0.24742817878723145, 0.0818757489323616, -0.3685794174671173, 0.6103085279464722, 0.3724112808704376, 0.09862568974494934, 0.040446650236845016, 0.7596052885055542, -0.533190906047821, 0.05022444203495979, 0.8416151404380798, -0.3251247704029083], [-0.05586839094758034, 0.24573910236358643, -0.48311448097229004, 0.23566460609436035, 0.6859226226806641, -0.5715201497077942, -0.16250503063201904, -0.2856031060218811, 0.4728708863258362, 0.7858041524887085, -0.24322575330734253, -0.13431523740291595, -0.646256685256958, -0.4972652494907379, -0.24948126077651978, -0.06870333105325699, -0.17516501247882843, 0.12877042591571808, -0.08679323643445969, -0.2633158564567566, 0.24783818423748016, 0.3371823728084564, 1.4143041372299194, 0.5814467668533325, 0.19175229966640472, 0.34949085116386414, -0.44188418984413147, 0.24183711409568787, -0.8806723356246948, -0.15225744247436523, 0.6317418217658997, -0.3621691167354584], [0.8844590187072754, -2.3001699447631836, 1.6075329780578613, -0.14934013783931732, -1.6545495986938477, -0.8063321709632874, -0.5090669393539429, -1.0766854286193848, 1.0686062574386597, -1.6035269498825073, 1.9227659702301025, -4.6644511222839355, -0.45235544443130493, -1.366652250289917, 1.9693645238876343, -0.7848069071769714, -4.265896797180176, 0.4059261977672577, -3.594611644744873, 0.022875960916280746, 1.3642548322677612, -0.5080484747886658, -1.0895295143127441, -0.012034003622829914, 2.758272171020508, 3.4996392726898193, 1.4945807456970215, -4.076186656951904, -3.526460886001587, 0.13717865943908691, 0.8243744969367981, -2.1805996894836426], [0.414316862821579, -0.19727732241153717, -0.17515358328819275, 0.32928580045700073, 0.6706483960151672, -0.1093924418091774, -0.48944395780563354, 0.7349193096160889, 0.884738564491272, -0.2096121460199356, 0.07173764705657959, 0.8837701678276062, -0.36659538745880127, -0.2755231261253357, -0.07949396222829819, 0.8481020331382751, -0.006079534534364939, -0.7222109436988831, -1.1309109926223755, -0.07846073061227798, -0.3287617266178131, -0.1964460164308548, -0.7490753531455994, -0.8773230910301208, -0.704834520816803, -0.08008617907762527, 0.3186790943145752, 0.49617162346839905, -0.1314208209514618, 0.5491310358047485, -0.26713666319847107, -0.1878919005393982], [1.2350857257843018, 3.372889280319214, 3.4239838123321533, -0.2281981259584427, 1.850066900253296, 1.502577781677246, 0.46094217896461487, 0.3812066316604614, 0.0563703291118145, -0.17045821249485016, -1.059407114982605, -0.04448116198182106, -2.3074655532836914, 1.6604418754577637, -0.9373796582221985, -0.5153603553771973, 1.3368914127349854, -0.28945305943489075, 4.311233043670654, -0.9894238114356995, 0.16734373569488525, 0.2076909840106964, -0.8933514952659607, 0.12295886874198914, -1.7173402309417725, 0.01856754720211029, -0.7082090377807617, 0.619759738445282, 0.5754685401916504, 0.6233327984809875, 0.28416430950164795, 0.6985999345779419], [0.6410408616065979, -0.004792499355971813, 0.40975987911224365, 0.04452332481741905, -0.812286376953125, 0.21691925823688507, -1.3575172424316406, -0.2611786723136902, -0.10641114413738251, -0.7036678194999695, 0.24388891458511353, -0.5608914494514465, 0.4013708829879761, -0.5807260274887085, -0.7587544918060303, -0.5112065672874451, -0.8535601496696472, -0.6234153509140015, -0.4977400302886963, -0.05597299337387085, 0.36020320653915405, 0.4877729117870331, 0.10576915740966797, 0.1771439164876938, -1.8904016017913818, -1.148782730102539, -0.24230651557445526, -0.41230684518814087, 0.21057629585266113, 0.29444772005081177, -0.3958142399787903, -0.26176759600639343], [-0.5060560703277588, 0.29838234186172485, 0.5787315368652344, -0.001283910358324647, 0.26009923219680786, -0.7791681885719299, 0.05436136946082115, 0.27817481756210327, 0.40486618876457214, -1.3669089078903198, -0.3475862145423889, 0.5862665772438049, -0.26821276545524597, -0.23767752945423126, -0.7702519297599792, 0.13765141367912292, 0.1390945315361023, 0.3086722791194916, -0.3842812180519104, 0.004576175939291716, -0.0894545316696167, -0.013104747049510479, 0.4825941026210785, 0.1521768569946289, -0.09154733270406723, 0.13266560435295105, -0.0025352074299007654, -1.0783357620239258, -0.324006587266922, 0.04290859401226044, -0.28872165083885193, -0.13216522336006165], [1.1850694417953491, 0.14901848137378693, -0.25857773423194885, -0.7373733520507812, -0.9448176026344299, -0.023275651037693024, 0.22310730814933777, -0.1907968372106552, -0.11208117753267288, -0.5652934312820435, 0.03476250171661377, -0.610863208770752, 0.3262312114238739, -0.24193398654460907, 0.13586321473121643, -0.04941922798752785, -0.6945317387580872, 1.7004987001419067, -0.026266900822520256, 0.3647208511829376, -0.21441133320331573, 0.25250446796417236, -0.33706825971603394, -0.3597564101219177, -1.5719883441925049, -0.37211912870407104, 0.14343014359474182, -0.8090277910232544, -0.28490516543388367, 0.21241649985313416, -0.7855119705200195, 0.3922569155693054], [-0.21554718911647797, 0.7081347107887268, -0.19146807491779327, -0.8232296109199524, -0.9089468121528625, -1.60055673122406, 0.17560607194900513, -0.3000965714454651, -1.7522612810134888, -1.430216670036316, -0.4594532251358032, -0.43455058336257935, 0.8160983324050903, 0.6086768507957458, 0.1373056322336197, -0.36951744556427, -0.8968912363052368, -0.402584046125412, 0.02473226562142372, -0.6872792840003967, -0.19068089127540588, 0.12903153896331787, 1.0269582271575928, -0.06777995079755783, -0.6633980870246887, -1.3821940422058105, -0.2009851336479187, -1.2807928323745728, 1.8801459074020386, 1.1781429052352905, -0.6531665921211243, -0.27315157651901245], [-0.3153197765350342, -0.19843290746212006, 0.25451982021331787, 1.7667443752288818, -0.9654424786567688, 0.44808000326156616, -1.1757524013519287, 0.32520297169685364, 0.18041561543941498, -0.40829434990882874, 1.4829115867614746, 1.008288860321045, 0.5959193110466003, -2.219202756881714, 0.2853512763977051, 0.38605546951293945, -1.1509876251220703, -0.5761928558349609, -0.6843347549438477, 0.178721085190773, -2.306112289428711, -0.827312171459198, -0.4044017493724823, -0.6369611024856567, 1.1250149011611938, 0.7360134124755859, 0.3874853253364563, -0.11858893930912018, -0.3515405058860779, -0.16266034543514252, -0.584816038608551, -0.2753905951976776], [1.197584867477417, -0.04732367396354675, -0.6846921443939209, 0.21756811439990997, -0.641372799873352, -0.6236691474914551, 0.20678189396858215, -0.39410093426704407, -0.5004351139068604, 0.14944371581077576, 0.1650669276714325, 0.35247960686683655, 0.2969251275062561, 1.0553303956985474, 1.6780270338058472, 0.09809086471796036, -1.3122074604034424, 0.5790442228317261, -1.0041725635528564, 0.5277339816093445, 0.11796870082616806, 0.09283114969730377, -0.08121181279420853, 0.5312997698783875, 0.23240667581558228, 1.5140966176986694, -0.3436710834503174, -1.4093290567398071, 0.8233698606491089, 0.03120279870927334, -0.6277151107788086, -0.024058600887656212], [0.9642852544784546, 0.9110658764839172, 1.0315982103347778, -0.13900329172611237, -0.5737329721450806, 1.3444324731826782, 0.6888870596885681, 0.10366248339414597, 1.4728325605392456, 4.123336315155029, 0.8974537253379822, -1.4158071279525757, -0.7916682958602905, 1.7509021759033203, 0.028173206374049187, -0.15460830926895142, 2.5685019493103027, -1.0206828117370605, 0.8068061470985413, -0.053320541977882385, -0.5177137851715088, 0.12002497911453247, -1.7507253885269165, -1.324416160583496, -5.410637855529785, 1.464227557182312, -0.8173025250434875, -0.8115646243095398, -0.6515815854072571, -0.2378845363855362, -1.9810080528259277, 1.4259676933288574], [-0.3140227496623993, -1.0055692195892334, -0.47643136978149414, -0.11363748461008072, -2.521430253982544, -0.574553906917572, 1.1832213401794434, 0.09993938356637955, -1.9181585311889648, -0.6924806833267212, 0.6217790842056274, -0.6103525161743164, 2.811814785003662, -0.8333271145820618, 2.758375644683838, 0.8383085131645203, -2.3682351112365723, 0.9634617567062378, -0.826832115650177, -0.20384615659713745, 0.4934523403644562, -0.9362935423851013, 0.8395107984542847, -1.6441344022750854, 1.6997157335281372, -1.0984989404678345, 0.9544454216957092, -0.9700477123260498, 0.4809621572494507, -0.012798819690942764, -1.1989232301712036, -0.18383905291557312], [-1.1551498174667358, -1.236613392829895, -0.39867570996284485, 0.5436066389083862, -1.693648338317871, -0.15425416827201843, -0.45723339915275574, -1.4437867403030396, -0.09227880090475082, -0.8238867521286011, 0.8316238522529602, -0.3010419011116028, 1.0649112462997437, -0.49440523982048035, 0.3574640452861786, -0.09264817833900452, -2.171224594116211, -0.006257429253309965, -0.8804307579994202, 0.15871459245681763, 0.16869232058525085, -1.283907413482666, 2.074608564376831, -1.597786545753479, 2.1876678466796875, -0.8356995582580566, 0.8790881037712097, -1.100102186203003, -0.023292578756809235, 0.38147467374801636, -1.9528300762176514, 1.2020775079727173], [0.8254366517066956, -0.059342216700315475, 0.033959925174713135, -0.3269975483417511, -0.5825320482254028, -0.6946417689323425, 0.6456333994865417, -0.48106613755226135, -0.44263532757759094, -0.46404415369033813, -0.27645033597946167, 0.44043734669685364, 0.5007136464118958, 0.3520980477333069, 0.2915092408657074, -0.27731823921203613, -1.0783600807189941, 0.5209166407585144, 0.0494069829583168, 0.14780674874782562, 0.46655601263046265, 0.2956407070159912, 0.9197957515716553, -0.3123626410961151, -0.4725080132484436, -0.5142713785171509, -0.25622308254241943, -0.5867404937744141, 0.4976298213005066, -0.05495208874344826, -0.4430020749568939, -0.35589921474456787], [0.43457943201065063, 1.0056787729263306, -1.0098989009857178, 0.14252109825611115, -0.20343424379825592, -2.1856167316436768, 0.5218636989593506, -1.8042856454849243, -0.7557252645492554, 0.12289341539144516, -1.302950143814087, 0.38809216022491455, 0.30203577876091003, 1.2546919584274292, -1.308664083480835, -0.6234007477760315, -1.7398672103881836, 0.8889029026031494, -0.9105273485183716, -1.7328557968139648, 2.7694461345672607, 0.8953332901000977, 3.3455820083618164, 1.4396828413009644, -1.0349396467208862, 0.1767701357603073, -1.556658387184143, -1.4402610063552856, 1.398903250694275, 0.3715374171733856, -0.6741359829902649, -1.9491411447525024], [0.9668809771537781, 0.9200015068054199, 1.0709253549575806, -0.3276287913322449, 0.8970093727111816, -0.3619016706943512, 0.4287734031677246, -0.5517772436141968, 0.3481625020503998, -0.216673344373703, -1.1800888776779175, 0.1536731868982315, -0.9419212937355042, 0.5663624405860901, -0.8178195357322693, -0.3958333432674408, -0.7364959716796875, 0.4521980583667755, 1.5843123197555542, -0.876000702381134, 0.3839663863182068, 0.8578906059265137, 1.7653319835662842, 1.0243079662322998, -0.05202454328536987, -0.9673418402671814, -0.8067047595977783, 0.21713829040527344, 0.30563053488731384, 2.063734292984009, 1.281224250793457, -1.5103635787963867], [-1.2144465446472168, -0.09731680154800415, -0.3441784083843231, 1.7522845268249512, -0.06619079411029816, 0.5836449265480042, -1.2682957649230957, 1.3484196662902832, 0.7993711829185486, 1.0059484243392944, 1.2587794065475464, 1.0071958303451538, 0.0076776836067438126, -1.1276288032531738, 0.656368613243103, 1.5245141983032227, 0.30174344778060913, -0.704036295413971, -0.9568698406219482, 1.24602472782135, -1.126786708831787, -1.433813214302063, -0.4259999096393585, -0.2485797256231308, 0.6265203356742859, 1.226872444152832, 1.1778932809829712, 0.07152099907398224, -0.6187844276428223, 0.1666349470615387, -0.3188859522342682, 0.49627992510795593], [0.5989152789115906, -0.11916856467723846, -0.5973975658416748, -1.6566565036773682, -1.379751205444336, -0.906083881855011, 0.4762383699417114, 0.9219279885292053, -0.7396385669708252, -1.0092692375183105, 0.3584386706352234, -3.0203583240509033, 1.9695415496826172, 0.38106876611709595, 0.2805044651031494, 0.0686040073633194, 2.4641404151916504, 0.9882559776306152, -0.20611627399921417, -0.5500748157501221, -0.985740065574646, 0.40186408162117004, -0.4476681351661682, 0.4845651686191559, -1.8987292051315308, -1.5970364809036255, -0.0736752450466156, -1.0259473323822021, 0.2556632161140442, -0.14562995731830597, -0.6902350783348083, 0.2964972257614136], [0.2224261462688446, -0.020750688388943672, -0.3124237060546875, -0.35800209641456604, -0.7380992770195007, -0.7299780249595642, -0.19180098176002502, 0.1028703898191452, -1.1327282190322876, -0.5075057148933411, -0.11772383749485016, -0.7653014659881592, 0.8507388234138489, -0.0461900532245636, 0.025784144178032875, -0.19001060724258423, 0.06759713590145111, 0.0848863273859024, 0.12064085155725479, -0.20405395328998566, 0.09843625873327255, 0.1545523703098297, 0.5743118524551392, 0.3444303870201111, -1.2140522003173828, -0.9824665188789368, -0.1330336332321167, -0.7961739897727966, -0.003361388109624386, 0.19185645878314972, -0.15265090763568878, 0.5706484913825989], [0.05673668161034584, -1.7473196983337402, -0.4131855070590973, -0.4557609260082245, -1.3411452770233154, -2.2088398933410645, 0.6138768792152405, -0.06615427881479263, 0.8238998055458069, -1.516085147857666, 2.532883644104004, -2.1135764122009277, 0.5987759232521057, -1.4140428304672241, -0.9700756669044495, 0.421491414308548, -0.725128710269928, 2.6981279850006104, -0.7939427495002747, 0.6890365481376648, 1.7160217761993408, 1.1984740495681763, 4.862493991851807, -0.07117390632629395, -1.0390042066574097, 0.0685768872499466, 0.18128609657287598, -1.504327654838562, -0.6161199808120728, -0.003268615575507283, -1.0854324102401733, -1.3164924383163452], [-0.10092771798372269, -2.136568307876587, -0.7482625246047974, 0.6004455089569092, -2.9096946716308594, -0.16998496651649475, 0.279632031917572, 0.6164234280586243, -1.0382496118545532, 0.653630793094635, 1.1097503900527954, -0.3624507784843445, 1.0278489589691162, -2.7045984268188477, 0.4639441967010498, 0.8651185631752014, -1.6368744373321533, 0.141853928565979, 0.18839889764785767, 0.6657455563545227, -0.4814147353172302, -1.2411428689956665, 0.7421342730522156, -0.9551025032997131, 1.531157374382019, 0.34078535437583923, 1.4053010940551758, -1.8607819080352783, -0.9649983644485474, 0.12434467673301697, -1.8883265256881714, 0.6767094135284424], [0.502112627029419, -0.7326677441596985, 0.23093777894973755, -0.6462613940238953, 0.04697126895189285, -1.9900336265563965, 0.8351728320121765, -1.7403745651245117, -1.0122802257537842, -0.5375857353210449, -0.3434012532234192, -0.3233989477157593, -0.5907171964645386, -0.09910229593515396, -1.63398277759552, -0.044920582324266434, -0.6867547631263733, 2.08705997467041, 1.456120491027832, -0.2930391728878021, 2.8213961124420166, 1.2354916334152222, 1.9597322940826416, 1.3119453191757202, 0.38898617029190063, -0.1495557278394699, 0.2559822201728821, -0.6648405194282532, 0.4394211173057556, 0.15174634754657745, 0.3432193398475647, -2.3263723850250244], [-0.6741908192634583, -0.19834618270397186, 0.8598964810371399, 0.7396124005317688, -0.4999196529388428, 0.22565434873104095, -0.1475086510181427, -0.26705577969551086, -0.6168744564056396, -0.4186192750930786, 0.3991524279117584, 0.5583714246749878, 0.02949148416519165, 0.722510576248169, 0.028561633080244064, -0.044961296021938324, -1.0828027725219727, -0.09536105394363403, -0.975122332572937, -0.3382638990879059, -0.30753031373023987, -0.1363964080810547, 0.7935534715652466, -0.037724703550338745, 0.1774880737066269, 0.4291273355484009, 0.23643054068088531, -1.178792953491211, -0.08661455661058426, -0.5146217346191406, -0.3244786560535431, 1.073927402496338], [2.1762070655822754, -0.580138623714447, 1.2681884765625, -0.5859505534172058, -0.26766130328178406, 1.1453163623809814, 1.2159348726272583, -1.506487488746643, -1.5849586725234985, 1.0170198678970337, -0.9080786108970642, -0.21391208469867706, -0.21225878596305847, 1.0963128805160522, -0.5345779657363892, -0.8176228404045105, -0.8633900880813599, 0.29960617423057556, 1.7551237344741821, -0.45154738426208496, 1.7047957181930542, 0.6754288077354431, 0.6936436891555786, -0.8535546660423279, 0.8504227995872498, 1.1953085660934448, 0.0532272607088089, 0.7749121785163879, 1.2884918451309204, 1.3564258813858032, -0.4591180682182312, 0.9510482549667358], [0.42573779821395874, 0.6138699650764465, 0.8084100484848022, -0.377450555562973, 0.19860972464084625, -0.42866751551628113, 0.2573840618133545, 0.1997154802083969, 0.25524523854255676, -1.4494503736495972, -0.43625539541244507, -0.2978094816207886, -0.39540955424308777, 0.16753721237182617, 0.2395748794078827, 0.6488975286483765, -0.13501133024692535, 0.1712338626384735, -0.4971178472042084, -1.2981775999069214, 0.3530515432357788, 0.40886804461479187, 0.14988279342651367, 0.8009893894195557, -0.6259437799453735, -0.6503990888595581, 0.04329328238964081, -0.4513308107852936, 0.48072290420532227, -0.48114243149757385, 0.6246550679206848, -0.5226078033447266], [-0.6416056752204895, -0.985041081905365, -3.5979013442993164, -0.5470587015151978, 0.3292348086833954, -1.0682744979858398, -0.13137191534042358, -0.08760966360569, -0.7641897797584534, -3.1058688163757324, 0.18202067911624908, -1.0658611059188843, -2.771343231201172, -0.396079957485199, -1.1627506017684937, 0.11017399281263351, -3.8479645252227783, 1.9188129901885986, 0.2936372458934784, 0.2014145702123642, 2.266202211380005, 0.9660307765007019, 0.853365421295166, 2.095801591873169, 6.347458362579346, 4.792635917663574, -0.4350644052028656, -1.1370104551315308, -0.12765908241271973, -0.530841052532196, 0.5658212900161743, -3.1243903636932373], [-1.0477546453475952, 0.38550683856010437, 1.6818792819976807, 0.469748318195343, 0.863035261631012, -0.7263672947883606, -0.4706670343875885, -1.183963656425476, 1.4063704013824463, -0.49638500809669495, -0.5120473504066467, 0.7951983213424683, -1.5295534133911133, 0.22434689104557037, -1.2709394693374634, -0.15136072039604187, 1.4628114700317383, 0.3173636198043823, -0.4496444761753082, -0.8325949907302856, 0.20828410983085632, -0.03570634126663208, -0.6935044527053833, -0.19056501984596252, 0.09316294640302658, 1.9355168342590332, -0.03280801698565483, 0.9592269659042358, -0.46199408173561096, 0.7485732436180115, -0.3210298418998718, 0.25443965196609497], [-0.8178964853286743, -0.525983452796936, 0.9905545115470886, 0.7119572758674622, 0.031539157032966614, 0.19132956862449646, -0.3305138051509857, 0.07120092213153839, 1.2306127548217773, -0.036340873688459396, 0.6628704071044922, 0.8591018915176392, -0.5927608609199524, -0.4688932001590729, -0.2374095469713211, 0.3670447766780853, -0.2087603658437729, -0.8432207107543945, 0.164498969912529, 0.6914079189300537, -0.37229666113853455, -0.8602614998817444, -1.7387263774871826, 0.27045145630836487, 0.12613996863365173, 0.7714715003967285, 0.3522195518016815, -0.1723262369632721, -0.4483802318572998, 0.3378616273403168, 0.11263296753168106, 0.5598846077919006], [0.8389374613761902, -0.059307731688022614, 0.3643139600753784, -0.5314871668815613, 0.18789418041706085, 0.152374267578125, 0.31490013003349304, -0.32456114888191223, 0.08785926550626755, 0.30336716771125793, -0.8142715692520142, 0.7001277208328247, -0.2028484344482422, 0.041422124952077866, -1.36618971824646, 0.1510203331708908, -0.2695523500442505, 0.8383138179779053, 0.8335304856300354, 0.07866965979337692, 0.6264663338661194, 0.4776274561882019, 1.1401481628417969, 0.5036682486534119, 0.12050936371088028, 0.14560586214065552, -0.4138334393501282, 1.2482564449310303, 0.7237638235092163, -0.4019317328929901, 0.661067545413971, -0.8472703695297241], [1.0924195051193237, -0.16788797080516815, -0.466947078704834, -0.1832774430513382, -1.1173830032348633, -1.1652841567993164, 0.6604616045951843, -1.2452943325042725, 0.2605924606323242, -0.45210912823677063, -1.0563105344772339, -0.8599397540092468, -0.07009449601173401, 0.196889266371727, -1.7565677165985107, -0.2672366201877594, -1.687118649482727, 1.4644989967346191, -1.09394109249115, -0.11187757551670074, 1.1302194595336914, 0.9790130257606506, 2.466320037841797, 0.10440880060195923, -1.6795721054077148, -0.18078865110874176, -0.28046172857284546, -0.2859187126159668, 0.49460411071777344, 0.1456323266029358, -1.4725611209869385, -1.208235740661621], [-0.40801742672920227, -1.0340235233306885, -0.33783236145973206, 0.5260639190673828, -1.3044592142105103, -0.7804312109947205, 0.3596959710121155, -0.22610634565353394, -0.8654442429542542, -0.6539562940597534, 0.8168987035751343, 0.056821487843990326, 1.3471428155899048, -1.313301682472229, 0.05637349188327789, -0.1332111805677414, -3.07967472076416, 1.557943344116211, -0.9822903275489807, 1.141784429550171, 0.268697053194046, -0.8869181871414185, 2.1392366886138916, -1.5696296691894531, 2.392402172088623, -0.211529940366745, 0.7706009745597839, -0.749993085861206, -0.5324473977088928, 0.19834358990192413, -2.072237730026245, 0.30201593041419983], [-0.2852891981601715, 0.5943284630775452, 0.5803050398826599, 0.20195843279361725, 0.03755280375480652, -0.3006172776222229, 0.22972913086414337, 0.4287010431289673, 0.38121408224105835, -1.240859866142273, 0.018443694338202477, 0.6284569501876831, -0.2329152375459671, 0.03918582201004028, 0.16094256937503815, 0.6433910131454468, -0.3970199525356293, 0.12500469386577606, -0.341291606426239, -0.19061990082263947, -0.1061643660068512, -0.2371269166469574, -0.3047221601009369, 0.467209130525589, 0.2494927942752838, 0.5235368013381958, 0.14739929139614105, -2.382639169692993, -0.01932264119386673, -0.37924647331237793, -0.34619542956352234, -0.06426894664764404], [0.8676726222038269, 0.27608951926231384, -0.5381438136100769, 0.014430513605475426, -0.7582204937934875, 0.7200719118118286, 0.34187185764312744, -1.5530292987823486, -0.6445702910423279, -0.11296048015356064, -0.33427953720092773, 0.25887590646743774, 0.7198999524116516, 1.440873622894287, 1.3582090139389038, -0.6166583299636841, -0.23594292998313904, 0.9752466082572937, -0.5861921310424805, -0.784734308719635, 0.42772597074508667, 0.8354126214981079, 2.4257748126983643, -0.03182490915060043, -2.8374407291412354, -2.0163278579711914, -0.5095819234848022, -1.1745444536209106, -0.38493987917900085, -0.3428215980529785, -0.24630333483219147, 0.8854902982711792], [-0.7347909808158875, -0.10819880664348602, 0.11500312387943268, 0.04894179478287697, -0.20595493912696838, 0.45054617524147034, -0.13038550317287445, 0.3060195744037628, -0.2029079794883728, -0.0471811443567276, 0.17358791828155518, 0.3071712255477905, 0.03239359334111214, -0.18914856016635895, -0.060835134238004684, 0.1159406304359436, 0.07704928517341614, 0.16432586312294006, -0.5527369379997253, 0.25476008653640747, 0.1412602812051773, -0.07249187678098679, 0.10256308317184448, -0.26712483167648315, 0.512047529220581, -0.08902791142463684, 0.07281160354614258, 0.00777472136542201, -1.0499860048294067, -0.2610968053340912, 0.2881356477737427, -0.02169373258948326], [0.32189086079597473, -0.36234721541404724, 0.5469776391983032, -0.07886140793561935, 0.1588480919599533, 0.22976723313331604, -0.20245018601417542, 0.5079380869865417, 0.16402499377727509, -0.10197927802801132, 0.14154379069805145, -0.13760940730571747, -0.24016056954860687, -0.16172346472740173, 0.03928543999791145, 0.37019532918930054, 0.08935359120368958, -0.013546745292842388, -0.1566229611635208, 0.02877984009683132, -0.021581150591373444, -0.31009724736213684, -0.1169741079211235, -0.17592304944992065, 0.27763915061950684, 0.2080507129430771, -0.03638632223010063, 0.030930761247873306, -0.1540396362543106, -0.054416216909885406, -0.008088476024568081, 0.43736642599105835], [-0.15944713354110718, 0.6564511656761169, 1.126745343208313, 0.22549813985824585, 3.6437594890594482, 0.4799494445323944, -0.5524941682815552, 0.521364688873291, 1.7213773727416992, -0.9520583748817444, -0.19457373023033142, 0.3500399887561798, -3.161790609359741, -0.3543809950351715, -0.5895225405693054, 0.3080507516860962, -0.3162955343723297, -0.40564706921577454, 0.005627013742923737, -0.28695496916770935, -0.29625535011291504, 0.0252788458019495, -0.034146618098020554, 2.457291841506958, 0.8181694746017456, 0.5925517082214355, -0.2327151894569397, 1.8705663681030273, -0.4767835736274719, -0.13262194395065308, 2.306610584259033, -0.6547938585281372], [0.1573130488395691, 0.27026674151420593, 0.061702385544776917, 0.6040827035903931, -0.004565561190247536, -0.02172907628118992, -0.15469273924827576, -0.3714226186275482, -0.173662930727005, 0.3575111925601959, 0.06674809753894806, 0.6675464510917664, -0.18424181640148163, 0.12637265026569366, 0.11936409771442413, -0.388103723526001, -0.34491920471191406, -0.3887231945991516, 0.0938519611954689, 0.18816572427749634, 0.20156323909759521, 0.09138640761375427, 0.7191862463951111, -0.018763134256005287, 0.12031760066747665, 0.30577290058135986, -0.17971743643283844, 0.0164447333663702, 0.04954163357615471, 0.5657994747161865, -0.17868173122406006, 0.3049520254135132], [0.09376580268144608, 0.08831316977739334, 0.0850222185254097, 0.17184430360794067, 0.10703247040510178, 0.24555248022079468, -0.24360890686511993, 0.20737507939338684, 0.20233336091041565, -0.013794340193271637, -0.07983666658401489, -0.07102267444133759, -0.49426886439323425, -0.1634093075990677, -0.3324930667877197, 0.15523108839988708, -0.0017658870201557875, -0.2841425836086273, 0.016948675736784935, -0.2221798300743103, 0.14447489380836487, 0.16142137348651886, -0.0243112500756979, 0.324097216129303, 0.36654046177864075, 0.1825897991657257, 0.045191653072834015, 0.25901496410369873, -0.08844831585884094, 0.13328488171100616, 0.29642900824546814, -0.09852593392133713], [0.3798178434371948, 0.10402285307645798, 0.03116307407617569, 0.13005568087100983, -0.12890736758708954, 0.033985819667577744, -0.056611668318510056, 0.47780466079711914, 0.10123500227928162, 0.12985366582870483, 0.1756502091884613, -0.06077750399708748, -0.026304984465241432, -0.13148145377635956, 0.18188431859016418, 0.5758142471313477, 0.00048735557356849313, 0.07683082669973373, 0.2823832035064697, 0.1692885011434555, -0.3145817816257477, -0.010008134879171848, -0.05234616622328758, -0.09586301445960999, 0.2388986349105835, 0.19097572565078735, -0.1052015870809555, 0.14414070546627045, -0.4443843960762024, -0.001738155260682106, 0.17950119078159332, -0.09028004854917526], [0.150527685880661, -0.18897028267383575, 0.16729848086833954, -0.023182889446616173, -0.26066166162490845, -0.09357473254203796, 0.195809468626976, -0.3932828903198242, 0.06282764673233032, 0.12203406542539597, -0.2791816294193268, 0.10243608057498932, 0.12802675366401672, 0.18803316354751587, 0.052536383271217346, -0.37051281332969666, -0.2879328727722168, 0.14181357622146606, 0.0764373242855072, -0.13038289546966553, 0.30665722489356995, 0.21119536459445953, 0.045412320643663406, 0.23951400816440582, 0.20170848071575165, -0.1300826072692871, 0.07394248247146606, -0.01301650982350111, -0.028118444606661797, -0.1381566971540451, -0.08093378692865372, 0.17271456122398376], [-0.03977581486105919, 0.0801575556397438, -0.3520401418209076, 0.006909944582730532, -1.074565052986145, 0.015744993463158607, 0.04575429856777191, 0.4012962877750397, -0.10372103750705719, -0.18490533530712128, -0.06277471780776978, -0.1317308247089386, 0.8997066617012024, -0.08343762159347534, 0.22131739556789398, 0.6632503271102905, -0.0786692202091217, 0.25883540511131287, -0.3807952404022217, 0.06753756105899811, -0.09179233759641647, 0.07289138436317444, -0.9656925797462463, -0.5455382466316223, -0.05021786317229271, -0.47023096680641174, -0.1870339959859848, -0.6413373351097107, -0.30358952283859253, 0.11421430855989456, -0.8930726647377014, 0.3409123420715332], [-0.22269196808338165, -0.013749958015978336, 0.02153000794351101, -0.06404708325862885, -0.005333951208740473, 0.031139006838202477, -0.0982791855931282, 0.43960729241371155, 0.11341695487499237, -0.001281942706555128, 0.036845527589321136, -0.07062738388776779, -0.298427551984787, -0.38380756974220276, -0.08283590525388718, 0.5458095073699951, 0.2175077646970749, -0.05657891929149628, -0.25966760516166687, -0.3019397258758545, -0.07155486941337585, -0.28155985474586487, -0.27257728576660156, 0.04196229577064514, -0.2050316482782364, -0.03455628827214241, 0.08218736946582794, -0.10268999636173248, -0.3184601068496704, 0.24537043273448944, 0.07897932827472687, 0.1409301459789276], [0.30770358443260193, 0.11229468137025833, 0.27424633502960205, 0.03242276608943939, -0.1244962215423584, -0.06684838235378265, 0.2501264810562134, -0.1274578869342804, -0.2644844651222229, -0.6694929003715515, -0.01212774682790041, -0.0768088549375534, 0.15250654518604279, 0.04436732456088066, 0.18056218326091766, -0.30233100056648254, 0.0626746341586113, -0.15576569736003876, 0.23036232590675354, 0.3005172610282898, 0.34277933835983276, -0.08888182044029236, 0.4973900020122528, -0.37136104702949524, -0.7490614056587219, -0.0678282082080841, 0.12196571379899979, -0.10936982184648514, 0.01266469992697239, -0.23165614902973175, -0.13088898360729218, 0.3191620707511902], [-0.7057333588600159, 0.03728553280234337, -0.06791850924491882, 0.19578030705451965, -0.08816629648208618, -0.1655569225549698, -0.09390928596258163, 0.6029903292655945, 0.24214373528957367, -0.4058048129081726, 0.0913425087928772, 0.43532708287239075, 0.34624335169792175, -0.11293314397335052, 0.05218062922358513, -0.04176132380962372, -0.05613052472472191, -0.3394131362438202, -0.020292583853006363, 0.20100617408752441, -0.2082376480102539, -0.2943040132522583, -0.3973544239997864, -0.08105982840061188, 0.17201203107833862, 0.4607236981391907, -0.04681950435042381, -0.17805935442447662, 0.10078508406877518, 0.10098544508218765, -0.2758903205394745, 0.07017824798822403], [-0.14630630612373352, 0.18681600689888, 0.019501222297549248, 0.23286078870296478, 0.24107739329338074, -0.23649635910987854, 0.30361929535865784, -0.6647793650627136, -0.438544362783432, 0.22055111825466156, 0.04189635440707207, 0.1686982959508896, -0.42401328682899475, 0.36836689710617065, -0.07279578596353531, -0.7658862471580505, 0.29277727007865906, -0.324729859828949, 0.17568667232990265, 0.169825941324234, 0.008857366628944874, -0.17900264263153076, 0.24511626362800598, -0.26840612292289734, -0.21720854938030243, 0.36204949021339417, 0.12452292442321777, 0.21224087476730347, 0.3063637912273407, 0.26041606068611145, -0.2597897946834564, 0.11881525069475174], [-0.13932126760482788, 0.14720775187015533, -0.07876589894294739, -0.17076869308948517, -0.10872095078229904, -0.3329089879989624, 0.05138413608074188, -0.21835073828697205, -0.32854127883911133, -0.22313015162944794, 0.012211275286972523, 0.13554556667804718, 0.5019208192825317, 0.23131875693798065, 0.1686180979013443, -0.34636053442955017, -0.04475513473153114, 0.09025996178388596, -0.0726906880736351, 0.04784718528389931, 0.07130283117294312, -0.03697854280471802, 0.023785529658198357, -0.5367564558982849, -0.011449686251580715, 0.11703647673130035, -0.009976156055927277, -0.2178604155778885, 0.267564058303833, 0.1429230123758316, -0.590401291847229, 0.09433068335056305], [-0.19094444811344147, 0.2173559069633484, 0.11523067951202393, -0.032600369304418564, -0.2085612714290619, -0.07777774333953857, 0.02610854059457779, -0.5764199495315552, -0.2753685414791107, -0.21627967059612274, -0.14937596023082733, -0.17794105410575867, 0.1627921760082245, 0.11863355338573456, 0.21681368350982666, -0.6972143054008484, 0.09041637182235718, 0.25654107332229614, 0.11571023613214493, -0.2850562632083893, 0.32783469557762146, -0.014778749085962772, -0.17069406807422638, -0.37211811542510986, 0.3024596571922302, 0.2378293126821518, -0.03498652204871178, -0.2029610425233841, 0.1306593418121338, 0.18850374221801758, -0.13031134009361267, -0.056076884269714355], [-0.12634441256523132, 0.0959261879324913, 0.02014852501451969, -0.191791370511055, -0.027175355702638626, -0.15501053631305695, 0.08556174486875534, -0.021643994376063347, -0.259721577167511, -0.5374386310577393, -0.03877359628677368, -0.1928188055753708, 0.3844447135925293, 0.4377361536026001, 0.38835152983665466, -0.3996323049068451, -0.05901052802801132, 0.1374415159225464, -0.12334349006414413, 0.2770213186740875, -0.07860682904720306, -0.0429629422724247, -0.2893819808959961, -0.12940599024295807, 0.08803576231002808, -0.04631622135639191, -0.0012211754219606519, -0.45663687586784363, 0.35908016562461853, -0.06273331493139267, -0.13533556461334229, -0.08775338530540466], [0.43596962094306946, 0.41845399141311646, 0.03453078493475914, -0.19767241179943085, -0.5227358937263489, -0.1717672049999237, 0.10996540635824203, 0.5401188135147095, -0.6084197759628296, 0.2174864113330841, 0.12382309883832932, -0.3169323801994324, 0.5259413123130798, -0.15415146946907043, 0.8046643137931824, 0.6256555914878845, 0.08873423933982849, 0.00966717954725027, 0.16294975578784943, 0.045897673815488815, 0.056545332074165344, -0.1320449262857437, -0.2118573933839798, 0.3413975238800049, -0.21016117930412292, 0.19285614788532257, 0.029803458601236343, 0.022425591945648193, -0.1718713641166687, -0.42815807461738586, -0.15967974066734314, 0.002107457024976611], [-0.1826302707195282, -0.00791613757610321, 0.20808036625385284, -0.08949138969182968, -0.06288798153400421, -0.09364011883735657, -0.16614843904972076, 0.27773138880729675, 0.3837777078151703, -0.15693920850753784, -0.03210000693798065, -0.06235271319746971, 0.239742711186409, -0.28797560930252075, 0.04677813500165939, 0.5451846122741699, -0.17411412298679352, -0.07727757841348648, -0.007359354291111231, -0.12558822333812714, -0.27418744564056396, -0.37488120794296265, -0.24410493671894073, -0.16604186594486237, 0.10992968827486038, -0.1130334809422493, 0.14558745920658112, -0.017388852313160896, -0.07095299661159515, -0.05412698909640312, 0.08678970485925674, 0.2169560045003891], [0.31277579069137573, -0.19679409265518188, -0.14243946969509125, -0.143883615732193, 0.006076921243220568, -0.2595052123069763, 0.0667516365647316, -0.34754443168640137, 0.08010122179985046, 0.3564559519290924, 0.108303502202034, 0.23699046671390533, 0.10617542266845703, -0.009764307178556919, -0.07762080430984497, -0.3201841413974762, 0.0499015636742115, 0.02502421848475933, 0.20326898992061615, 0.19789241254329681, 0.21645276248455048, -0.07248340547084808, 0.13140453398227692, 0.233707457780838, -0.1274356245994568, -0.13054846227169037, 0.0883433073759079, 0.09924362599849701, -0.0671897828578949, 0.055100150406360626, 0.20366361737251282, -0.12980711460113525], [-0.46993517875671387, -0.04490644484758377, 0.19763711094856262, -0.08494848757982254, -0.07300857454538345, 0.12845997512340546, 0.10760553926229477, -0.15404948592185974, 0.10843474417924881, 0.10714876651763916, 0.08854124695062637, -0.055548202246427536, -0.11545613408088684, -0.20251137018203735, -0.11468661576509476, -0.08920277655124664, 0.2615297734737396, 0.14119471609592438, -0.30047711730003357, 0.3942776322364807, -0.13846056163311005, 0.001761624589562416, -0.14732308685779572, 0.13696451485157013, 0.05535668507218361, -0.08167888969182968, 0.4510119557380676, 0.17737004160881042, -0.17324914038181305, 0.0037307508755475283, 0.20739346742630005, -0.05246104300022125], [0.12009744346141815, -0.18407709896564484, -0.212088480591774, 0.2688661813735962, 0.21451051533222198, 0.36451342701911926, -0.20788806676864624, 0.3079891800880432, -0.24461306631565094, 0.4963124096393585, 0.018336156383156776, 0.10443980991840363, 0.08971739560365677, 0.19027981162071228, -0.05493424832820892, -0.5892083644866943, -0.43761783838272095, -0.047922272235155106, 0.2191220223903656, 0.7910857200622559, 0.18678224086761475, 0.022549159824848175, 0.554286003112793, -0.15146856009960175, 0.19648633897304535, 0.8401706218719482, 0.5557781457901001, 0.033233825117349625, -0.06936724483966827, 0.017197327688336372, -0.3653787076473236, -0.13435010612010956], [0.2647821307182312, 0.006021726876497269, -0.19268013536930084, -0.22885988652706146, 0.0266509260982275, -0.26705533266067505, 0.325066477060318, -0.5976685285568237, -0.21223390102386475, 0.863102376461029, -0.4160131812095642, -0.07873662561178207, -0.22915887832641602, 0.5414527058601379, -0.22941027581691742, -0.43185707926750183, -0.5382429957389832, -0.047763340175151825, 0.11512260138988495, -0.44684821367263794, 0.7270529866218567, 0.37194696068763733, 0.6711689829826355, 0.25990939140319824, 0.3283832371234894, 0.12502655386924744, -0.06754954904317856, 0.05065787211060524, 0.08192940056324005, -0.04670783132314682, 0.11016600579023361, -0.0834391713142395], [-0.035900749266147614, -0.12476468086242676, -0.21252894401550293, -0.018246501684188843, -0.0655369982123375, -0.09431923180818558, -0.12139709293842316, -0.08952927589416504, 0.08822371810674667, -0.0013567482819780707, 0.04799201712012291, 0.09482880681753159, 0.027399195358157158, -0.3222217857837677, -0.1155131608247757, 0.16507558524608612, 0.22589410841464996, -0.021052071824669838, -0.23016342520713806, -0.011905352585017681, 0.029572483152151108, 0.046681422740221024, -0.08474867790937424, 0.0025099818594753742, -0.03901151940226555, 0.10378071665763855, 0.1215188130736351, -0.057988688349723816, -0.38946282863616943, 0.176644429564476, 0.1488560140132904, -0.012072348035871983], [0.04706570878624916, -0.09285241365432739, -0.33953601121902466, 0.1386602222919464, 0.30020833015441895, -0.08880352973937988, -0.08421436697244644, -0.3253907561302185, 0.03066357783973217, 0.24989841878414154, -0.22415253520011902, 0.0999547690153122, -0.35699188709259033, 0.4913718104362488, -0.259843111038208, -0.6500311493873596, -0.12389707565307617, 0.06911138445138931, -0.007643716875463724, -0.29403334856033325, 0.011037872172892094, 0.10409562289714813, 0.3102978765964508, 0.26471033692359924, -0.13177961111068726, -0.09539606422185898, -0.08343522995710373, 0.37728428840637207, 0.07364249229431152, -0.14463025331497192, 0.15778584778308868, 0.2112317830324173], [-0.23445387184619904, -0.027618661522865295, -0.11569897085428238, 0.2176363468170166, 0.1394943743944168, -0.015269736759364605, -0.33655473589897156, 0.485685259103775, 0.3841712772846222, -0.172979936003685, 0.02686976082623005, -0.1256362348794937, -0.32994282245635986, -0.28314757347106934, -0.06899580359458923, 0.5487446188926697, 0.30140814185142517, -0.3545081317424774, -0.16748148202896118, 0.16345137357711792, -0.17343245446681976, 0.01630594953894615, -0.44386985898017883, 0.09194756299257278, -0.07847461104393005, 0.11628009378910065, -0.056573253124952316, -0.20941543579101562, -0.1628226935863495, -0.21755766868591309, 0.15945546329021454, -0.015127585269510746], [0.07130073010921478, -0.26703116297721863, -0.030045801773667336, 0.061335477977991104, -0.06648734211921692, -0.17860271036624908, -0.11514164507389069, -0.1952301412820816, -0.36701658368110657, -0.37684500217437744, -0.08887958526611328, -0.026818467304110527, -0.3629353940486908, 0.21463412046432495, -0.1669038087129593, -0.25369277596473694, -0.4399474561214447, 0.1818435937166214, 0.0472601056098938, 0.12109002470970154, 0.18488067388534546, 0.4483623802661896, 0.030600985512137413, 0.15546873211860657, -0.4066197872161865, 0.23234622180461884, 0.15105557441711426, -0.0073598637245595455, 0.049162473529577255, 0.2773168087005615, 0.013365047052502632, -0.34109461307525635], [0.7577834725379944, 0.07695067673921585, 0.35015958547592163, 0.13848528265953064, 0.39101219177246094, 0.5128529667854309, -0.23860858380794525, 0.5972203612327576, -0.10111817717552185, 0.33477047085762024, 0.28829124569892883, 0.22629311680793762, -0.8321936726570129, -0.1506887972354889, -0.2068132907152176, 0.19064266979694366, -0.05062263831496239, -0.11897929757833481, -0.13994303345680237, 0.49527740478515625, -0.1670396476984024, -0.027145903557538986, 0.3595748841762543, 0.3506000339984894, -0.293321430683136, 0.11253717541694641, -0.24137350916862488, 0.5808615684509277, -0.39376112818717957, -0.2569233179092407, 1.009434461593628, -0.012302654795348644], [0.40861454606056213, 0.21872082352638245, 0.00648183049634099, -0.0007813840638846159, -0.09926209598779678, -0.042832233011722565, -0.014988357201218605, -0.03801220282912254, -0.35898739099502563, 0.031199520453810692, 0.003353186883032322, -0.014322110451757908, -0.07044969499111176, 0.33122527599334717, -0.021302271634340286, -0.3447771966457367, -0.17522327601909637, 0.5092719197273254, 0.027066970244050026, 0.4067297577857971, 0.43195825815200806, 0.10406173020601273, 0.6228392720222473, -0.0701044574379921, -0.4630300998687744, -0.06947048008441925, -0.18021422624588013, -0.14508786797523499, 0.30670472979545593, 0.37598541378974915, -0.242712140083313, 0.17282076179981232], [-0.0771610215306282, -0.03301378712058067, -0.17125463485717773, 0.1463557779788971, 0.007549626752734184, 0.2863021492958069, -0.08268000185489655, 0.04343879967927933, 0.0648074597120285, 0.08058805018663406, 0.12664398550987244, -0.04870647192001343, -0.7142010927200317, -0.19390331208705902, -0.29764026403427124, 0.35866865515708923, 0.32307490706443787, -0.4225499629974365, -0.0189476627856493, 0.005580656696110964, -0.24409255385398865, 0.002094743773341179, -0.4251425862312317, 0.4953363835811615, -0.44947972893714905, 0.07214071601629257, -0.0025182904209941626, -0.1566777229309082, -0.3499438166618347, -0.18623755872249603, -0.17220883071422577, 0.04940970614552498], [-0.35548198223114014, 0.10470516234636307, 0.1437075138092041, -0.12894190847873688, -0.10475726425647736, -0.07176671922206879, 0.18701185286045074, -0.32461920380592346, -0.3835182785987854, 0.045996811240911484, -0.31194454431533813, -0.03658677637577057, 0.14612382650375366, 0.33618107438087463, 0.26068225502967834, -0.6445313096046448, 0.11571628600358963, -0.15226717293262482, 0.20650702714920044, -0.34724554419517517, 0.14558732509613037, -0.07570232450962067, -0.4971429407596588, -0.11567340046167374, 0.11985660344362259, -0.06261719018220901, -0.14244389533996582, 0.016575615853071213, 0.4741206765174866, -0.0759332999587059, -0.24544627964496613, -0.169584259390831], [-0.16681380569934845, -0.21876530349254608, -0.11757642775774002, 0.015201822854578495, 0.27049070596694946, -0.28993573784828186, 0.010072003118693829, -0.41322416067123413, -0.3505516052246094, 0.0919182300567627, -0.1593688428401947, -0.004122093785554171, -0.25262725353240967, -0.07679593563079834, 0.3967805504798889, -0.6829679608345032, 0.16180160641670227, 0.048814691603183746, 0.027712389826774597, 0.07666558027267456, 0.005076449830085039, 0.04798327386379242, 0.3051851987838745, -0.61220383644104, -0.5026379227638245, -0.6023584008216858, -0.19292905926704407, 0.460525780916214, 0.13132207095623016, -0.15642377734184265, -0.2034817785024643, 0.11479242146015167], [-0.08913062512874603, 0.0005245826905593276, -0.06416359543800354, -0.03127209097146988, 0.1650695651769638, 0.41278231143951416, -0.27431604266166687, 0.42494723200798035, 0.2892153263092041, -0.0759342685341835, 0.13077440857887268, 0.010078394785523415, -0.033198051154613495, -0.33280980587005615, -0.11360082775354385, 0.47393813729286194, -0.10735569149255753, -0.3861980140209198, -0.11958946287631989, -0.10140325874090195, -0.21615616977214813, 0.02403179369866848, -0.22208227217197418, 0.12988078594207764, 0.171563059091568, 0.03686106950044632, 0.09978605061769485, -0.05772324651479721, -0.12783999741077423, -0.13692769408226013, 0.4739554524421692, -0.09662331640720367], [-0.06369217485189438, 0.013090800493955612, 0.27784252166748047, 0.04585259035229683, -0.18829551339149475, 0.29658275842666626, 0.2271774262189865, -0.2102319896221161, -0.6607887148857117, 0.09751817584037781, -0.1565266102552414, -0.12259452790021896, 0.565156877040863, 0.43418729305267334, 0.03558800742030144, -0.1501597762107849, -0.2123468667268753, -0.1540614515542984, -0.017898328602313995, -0.05566377565264702, 0.07847049832344055, -0.13525857031345367, -0.06544278562068939, -0.6917714476585388, 0.7020095586776733, 0.0029858534689992666, -0.028417104855179787, 0.3504752814769745, 0.24274992942810059, -0.021268514916300774, -0.5883551239967346, -0.08127284795045853]], "layers.block_1.rec.bias_ih_l0": [0.10243447124958038, 0.1737700253725052, 0.5490978360176086, 0.011738279834389687, -0.17619529366493225, 0.15678900480270386, -0.030039623379707336, 0.4165100157260895, 0.10842329263687134, 0.007087839301675558, -0.005288565997034311, 0.2387452870607376, -0.17437195777893066, 0.1897510290145874, 0.4191930592060089, 0.38289889693260193, -0.12221353501081467, -0.15906444191932678, -0.04147663339972496, 0.40832948684692383, 0.361714243888855, -0.2487485557794571, 0.22365644574165344, 0.1075081005692482, -0.030910441651940346, 0.2988620698451996, -0.040811605751514435, -0.02602170594036579, -0.013547404669225216, 0.25973933935165405, -0.038223687559366226, -0.15839843451976776, -0.8889946341514587, 0.33929622173309326, -0.6565455794334412, -0.39755183458328247, -0.0889408141374588, -0.021597493439912796, -0.33631324768066406, 1.137434959411621, -1.2916691303253174, -0.12087909132242203, 0.5257936120033264, 0.7711832523345947, 0.002310485579073429, -0.34350165724754333, -0.45017343759536743, 2.079314708709717, -0.051579248160123825, 0.11026515811681747, -0.4527391791343689, 0.9261913895606995, -0.21470661461353302, -0.2685120701789856, -0.2266235500574112, -0.7286487221717834, -0.46195682883262634, 0.13221880793571472, 0.6727661490440369, -0.170420840382576, 0.10176820307970047, 0.5035601258277893, 0.039431676268577576, -1.1595515012741089, -0.17913657426834106, -0.08692125231027603, -0.19508174061775208, 0.4420071542263031, 0.06545574218034744, 0.11072055250406265, -0.24620983004570007, -0.07907266169786453, 0.32832062244415283, -0.10466020554304123, 0.31859874725341797, 0.2695752680301666, -0.20178264379501343, -0.2839140295982361, -0.013182980939745903, 0.08447480946779251, 0.03004467859864235, -0.22666937112808228, -0.37357041239738464, 0.04491089656949043, -0.26425817608833313, -0.13632400333881378, -0.3389683961868286, 0.0352555513381958, -0.03167932108044624, -0.1378963589668274, 0.06518533080816269, -0.1499856561422348, -0.09721188992261887, -0.1938343644142151, -0.0020990960765630007, 0.17772097885608673], "layers.block_1.rec.bias_hh_l0": [-0.005387893412262201, -0.09575837850570679, 0.7179485559463501, -0.03411468490958214, -0.09574099630117416, -0.1011037677526474, -0.04397225007414818, 0.42864790558815, 0.12344618886709213, 0.0009212496806867421, 0.28433525562286377, 0.3345288038253784, -0.14843115210533142, 0.28020864725112915, 0.19257201254367828, 0.3337019681930542, -0.044603604823350906, 0.03268670290708542, -0.14488238096237183, 0.33872663974761963, 0.09320080280303955, -0.2859417796134949, 0.1950656920671463, 0.25764212012290955, -0.06914877146482468, 0.35962921380996704, 0.06423839926719666, -0.1858464479446411, -0.014863433316349983, 0.24640825390815735, -0.12141028046607971, -0.06409326940774918, -0.9121576547622681, 0.46229106187820435, -0.6134138107299805, -0.35129836201667786, 0.2093484103679657, 0.1439315527677536, -0.27468833327293396, 1.0814862251281738, -1.4036113023757935, -0.2874641418457031, 0.4140847325325012, 0.47594910860061646, -0.11688892543315887, -0.3559832274913788, -0.5104865431785583, 2.110872507095337, -0.08322965353727341, -0.18527419865131378, -0.4608743488788605, 1.0710746049880981, 0.0329161174595356, -0.29826053977012634, -0.254820317029953, -0.6825435757637024, -0.7843682765960693, 0.21416324377059937, 0.6071597337722778, -0.20778022706508636, -0.02998785488307476, 0.5091137290000916, 0.22205457091331482, -1.0925376415252686, -0.33185669779777527, 0.10574720054864883, 0.17192526161670685, 0.11701454967260361, 0.2201041877269745, 0.12508153915405273, -0.26096490025520325, -0.10465721040964127, 0.140917107462883, -0.02188722975552082, 0.432217001914978, 0.16848163306713104, 0.03822648525238037, -0.099565289914608, -0.13194991648197174, -0.04286833480000496, 0.31746548414230347, -0.34026142954826355, -0.37802770733833313, 0.026590770110487938, -0.35156285762786865, -0.27538248896598816, 0.03063383512198925, 0.07115443050861359, -0.08215932548046112, -0.22762376070022583, 0.09967786818742752, 0.12711983919143677, -0.1656787097454071, -0.1394183337688446, 0.20695777237415314, -0.008382794447243214], "layers.block_1.lin.weight": [[0.08420056849718094, -0.43214094638824463, 0.20844082534313202, -0.16005469858646393, -0.050645358860492706, 0.19392681121826172, 0.22500565648078918, 0.06302894651889801, -0.021948322653770447, -0.2883322238922119, 0.03721468523144722, -0.042264487594366074, 0.012638977728784084, -0.21517126262187958, 0.02239745669066906, 0.013217072933912277, 0.3396693766117096, -0.03771752864122391, -0.3220001757144928, 0.047204311937093735, 0.0789114460349083, -0.18580202758312225, -0.1843000203371048, -0.223118856549263, 0.6314918398857117, -0.0030082850717008114, 0.036295086145401, 0.02450605295598507, -0.060910921543836594, -0.029975881800055504, -0.029309533536434174, 0.028816312551498413]]}}