{"model_data": {"model": "RecNet", "skip": 0}, "blocks": {"0": {"block_type": "GRU", "input_size": 1, "output_size": 1, "hidden_size": 32}}, "training_info": {"current_epoch": 500, "training_losses": [0.5036812270326273, 0.4785399296647543, 0.4781283279518028, 0.4773624209904826, 0.4738396741933637, 0.33189272140334186, 0.29914792416641467, 0.29086500442550556, 0.28705070344368355, 0.2820007270564894, 0.2687431624183407, 0.23811184515716968, 0.1811280538291707, 0.14808022001056706, 0.13330130129689713, 0.1358140869332211, 0.13295127036557958, 0.12583075665759963, 0.12909736792109425, 0.12344274487249651, 0.12392312212085184, 0.1238000587403, 0.1193536097582962, 0.12076829955610749, 0.1211755407139562, 0.12039058036231376, 0.12069560502740473, 0.11952631058800335, 0.12420161524424692, 0.11913889728172064, 0.11475370143382967, 0.11467842924009478, 0.11390189724284913, 0.11567097552144875, 0.11437954405903239, 0.11095429170731601, 0.11015219384707604, 0.11336755576579793, 0.11308102089573037, 0.11169153933304472, 0.11020216670540439, 0.10754129897754686, 0.10922979250816363, 0.11044818759811195, 0.11160074129047526, 0.11030669748637971, 0.10937764274875646, 0.1080308160321279, 0.10498654400905617, 0.10500709183344784, 0.10747661491154463, 0.10677611744998919, 0.10589038123461333, 0.10150306315657187, 0.10280104653982373, 0.10390757237766665, 0.1033395434270141, 0.10661728199958412, 0.10081591265421215, 0.10246312995622683, 0.10249291623446655, 0.10071387024620523, 0.09949781674915902, 0.09758535558478784, 0.09768608873468132, 0.0939470873419921, 0.09477264708657931, 0.09358383742971468, 0.0908450798808851, 0.09052926073358818, 0.08952038492644568, 0.09066905611642186, 0.08801077854480935, 0.08882246358779732, 0.09104566712101751, 0.08818786043383468, 0.08752822783449062, 0.08778974574131818, 0.0857861153660463, 0.0850728977072452, 0.0932472104920292, 0.08674755387685518, 0.0842673626861402, 0.08437689507452699, 0.08536955298154385, 0.08595495071116978, 0.08624147867493624, 0.17528756802853246, 0.08081974201630075, 0.08013972463449101, 0.07930440393687746, 0.08042964234633684, 0.0793571244114889, 0.07857136881317603, 0.08109376004401159, 0.0779223245411337, 0.07568928343243896, 0.07910721186645231, 0.07745378466274636, 0.07477340718138625, 0.07656955567200656, 0.07433997664612704, 0.07407256158359057, 0.07221814476909093, 0.07213970578529619, 0.07315878980406017, 0.07224391797230904, 0.07072133563350064, 0.0736402669806614, 0.06920440515878236, 0.07384220149984899, 0.07942586105510399, 0.07167237336360303, 0.07360234126363964, 0.07705773460352187, 0.06896363567960048, 0.07230478727754641, 0.06793222437588523, 0.06974599411251482, 0.06944040663830645, 0.07059245949078884, 0.07716623469038153, 0.07237389035426178, 0.0700792602638339, 0.07069651598062413, 0.06950722926888954, 0.07323120740943818, 0.07340068847557844, 0.06981575633278238, 0.07325120206148207, 0.07214638234612036, 0.07103949294776304, 0.07357342545148708, 0.07152396563875986, 0.07287345506710471, 0.07445259979176155, 0.07027530399840567, 0.07053212668178241, 0.07339917897101636, 0.06889882666216074, 0.07375065274778514, 0.0703467960626661, 0.07320496325332722, 0.07272588298656046, 0.07372690158497008, 0.07008074475875632, 0.06769656224248857, 0.0670377050326871, 0.07656592451483497, 0.10775375117051912, 0.1077846869608605, 0.10050571763089725, 0.09636029679110492, 0.09634941967821062, 0.09706259237045978, 0.09532815033219175, 0.09988977741933877, 0.09781049730183632, 0.09320789749746199, 0.08199727758402367, 0.08283195749844434, 0.0744887660650609, 0.07143202629061295, 0.07036465679767069, 0.07158714649872248, 0.07083722783929923, 0.0679067681851954, 0.07085559522890329, 0.0693616253269425, 0.06802295365177288, 0.06916762547047398, 0.06665011748441725, 0.07225857580129007, 0.06686580411835827, 0.06416736134364234, 0.06773713062360108, 0.08119644739290142, 0.06669009367439462, 0.06712807162797879, 0.06539222655527584, 0.06535794412983316, 0.06663775356946054, 0.06411681240484988, 0.06269201278601859, 0.06627807591122563, 0.06582386256195606, 0.06001365706687432, 0.06482543961096603, 0.06989204788024163, 0.06212903524132131, 0.06444707668277545, 0.06262895189128913, 0.06260120962117496, 0.06147974995932506, 0.06267306007529524, 0.062229198727200376, 0.06390832500024277, 0.06292481191286986, 0.06584229207198536, 0.0601389395048866, 0.06127874131387028, 0.061198527830979454, 0.05944524805496944, 0.05998329688226443, 0.06592051367057704, 0.06188748503865843, 0.06190009406078365, 0.0595542219884742, 0.061284399927025314, 0.06375084381381219, 0.059081644811607034, 0.05806521968250827, 0.05825768531808122, 0.057518016014780314, 0.05978013110020525, 0.059286663973970054, 0.06265146286807374, 0.061106490881436264, 0.06015208505650426, 0.05772810595642243, 0.058418350112805904, 0.0626635661971598, 0.05973239108774957, 0.061247277131013876, 0.05867756848138841, 0.05488427537916737, 0.06122292385908303, 0.05625893582299642, 0.057319695123943026, 0.062162053828768736, 0.06403910037577637, 0.059227284059146214, 0.05569586308987497, 0.060060554428945305, 0.060072506058283834, 0.057728412334335504, 0.05642698433963799, 0.058497154256691816, 0.05722843095744875, 0.05656163476395433, 0.05848135611393139, 0.05412061868973269, 0.05578870775613499, 0.0737812238376491, 0.07126899886961009, 0.05585760403085839, 0.053674145740783434, 0.05573157605098246, 0.054188625037355664, 0.05377471285521405, 0.054977748511274425, 0.05543320118782243, 0.05474691753360358, 0.05429346162777443, 0.053949902895475174, 0.05479411362041416, 0.05401180252771485, 0.054621764117029396, 0.054446794240820155, 0.05772797439501366, 0.055435582677918406, 0.05393876456474135, 0.054842823705115874, 0.052937203316719514, 0.051022760415836775, 0.060135900916821965, 0.0531634923354904, 0.0566276266245631, 0.05748557263392615, 0.05756223260715313, 0.054264499642583834, 0.05232638594779101, 0.05759650147399055, 0.05992897218335177, 0.0552057980124343, 0.056363880365191917, 0.055230430309213215, 0.053148066067112636, 0.05433104913258417, 0.055655535534266144, 0.05401499997280151, 0.05206548904867044, 0.05133588915061834, 0.05514632713944687, 0.05179930382783149, 0.05278953937995067, 0.052902222069754416, 0.05122302976957003, 0.052377650641243556, 0.05621107357445282, 0.0569575753927763, 0.05139671092816666, 0.11900886693703276, 0.08681276655459605, 0.0494064292265707, 0.0529248647137799, 0.05375064482501189, 0.050783107250735364, 0.05232905136880937, 0.05084711264262532, 0.054150884490242454, 0.05186656789624362, 0.0503996655453819, 0.052540763713685525, 0.05409390623560295, 0.051795554422930656, 0.0512509937005045, 0.05058142064477909, 0.05008997225396141, 0.052246744430007104, 0.05085666359752998, 0.05281680337207804, 0.05075605524486147, 0.050115763407817426, 0.05282717079601505, 0.05116667707946587, 0.050886972526136734, 0.05029238803106566, 0.05438203539082465, 0.05586947605025942, 0.05169114024172743, 0.05010742059600383, 0.05530307431366634, 0.05206218507902866, 0.053752102004666506, 0.053769882904462434, 0.05055170963433655, 0.050971461378352394, 0.052805376958779314, 0.051125593719302434, 0.05303379574748265, 0.05031125409250426, 0.05042733494857591, 0.05108896184821505, 0.04709880688082572, 0.05530441152657588, 0.05023174583549044, 0.04859462163755789, 0.050102312223647125, 0.04806386529431715, 0.050170827542080895, 0.047561429271643814, 0.04977191722492215, 0.04773218600629744, 0.0501954283643901, 0.047824172360532276, 0.051192582206945725, 0.04850514680328598, 0.0487081823075287, 0.04880598471983784, 0.050366338611544145, 0.05075690025681412, 0.05459633902888504, 0.04801807528385869, 0.05150192100010425, 0.047809291095775246, 0.048968103681025756, 0.04952199711137778, 0.05106477260396079, 0.049312288612853014, 0.052279491358521314, 0.04826451290108553, 0.04982609713945972, 0.04856357129151606, 0.04783636261860223, 0.048118023431630096, 0.049354275951597394, 0.04994395469895914, 0.04769504738989734, 0.04850883422987899, 0.04747553313961374, 0.048001698160834314, 0.04840146754142622, 0.052139051834593046, 0.04926031238441779, 0.045474864350474604, 0.050286714906816354, 0.048937944828399596, 0.049795090910289205, 0.049270370058933054, 0.052512787804068, 0.051144685366420785, 0.04792035262511631, 0.048701818790528685, 0.044453245297364594, 0.04997897781310724, 0.04771632905565686, 0.04760243657329303, 0.050452693867460874, 0.05254971174003146, 0.04877125516582233, 0.047704849603839895, 0.046181440554474575, 0.04814680066116928, 0.048449130015230026, 0.04508593629035713, 0.055972838874108026, 0.049465282989496547, 0.0476497114460625, 0.04526885966588924, 0.04738787123510107, 0.05214355133213828, 0.048073610209243056, 0.04926521964250252, 0.04744840949749597, 0.04658943729009479, 0.0472060156254364, 0.046318938160411924, 0.04861952092909775, 0.04716631124255719, 0.049766883647141893, 0.04971886311760534, 0.048060780329109695, 0.045801063447694794, 0.04787861534345943, 0.04858412360772491, 0.051616265765064714, 0.04857645484213657, 0.05200215458398225, 0.049248721754456604, 0.05051087178350367, 0.049126569952743206, 0.04536298068554757, 0.04687673082671963, 0.04842330541691513, 0.046384499858847114, 0.0472663471160771, 0.04696377407602193, 0.046759955092127645, 0.05168282269657431, 0.04649695111045542, 0.04775803686609468, 0.04587464756634716, 0.04739816504826938, 0.0494424111100954, 0.048678458229844256, 0.044103187986637475, 0.047864334722799426, 0.04672535371289334, 0.04496324347942921, 0.0480004616653208, 0.047100283674194256, 0.04562137087401873, 0.04706779402807694, 0.04674968621905216, 0.046332902161634285, 0.0467049628254268, 0.046088043183039926, 0.047113966665460506, 0.04590940653110624, 0.05129376830769001, 0.04816153090501614, 0.04554033880545334, 0.04571309529680323, 0.0455545445483831, 0.04691631841025763, 0.04603541103742002, 0.04601894925777837, 0.04582691028133614, 0.04477106592188553, 0.04642813622213706, 0.046994494581171734, 0.04652290393646757, 0.04974140042239534, 0.047778568812645965, 0.04590577469660912, 0.048420617287349595, 0.04570407347523837, 0.04637732355879596, 0.04797360635900796, 0.04590655820649842, 0.04579788387916352, 0.04499600418426048, 0.046485045949728895, 0.044351882735182604, 0.04503770677717523, 0.04950124052558822, 0.04672337636387871, 0.046207813286016884, 0.04927957724241613, 0.045766783727018485, 0.04617200988683512, 0.048542647858380104, 0.04450774363804512, 0.05131130205322202, 0.047531642372018436, 0.05095774539770533, 0.045809326058422986, 0.05043652303541055, 0.04642768595790997, 0.04813227588582976, 0.044116111012635295, 0.04626214906555153, 0.048390757194236404, 0.043504360892398695, 0.04405768009283665, 0.04770724304238118, 0.04442129805744564, 0.04436349561861292, 0.04418178778232451], "validation_losses": [0.456172376871109, 0.3019554615020752, 0.1511174589395523, 0.16016735136508942, 0.08641546964645386, 0.1459759622812271, 0.10026777535676956, 0.10612893104553223, 0.10748770087957382, 0.0840427502989769, 0.10893351584672928, 0.08864222466945648, 0.08133149892091751, 0.08193584531545639, 0.10837970674037933, 0.07641813904047012, 0.08314699679613113, 0.09858705848455429, 0.14932864904403687, 0.11336390674114227, 0.07879797369241714, 0.0999482050538063, 0.15197621285915375, 0.06362764537334442, 0.0726018026471138, 0.13890326023101807, 0.08989434689283371, 0.09601159393787384, 0.16218997538089752, 0.08196385949850082, 0.07917225360870361, 0.07355897128582001, 0.09843838214874268, 0.08438146859407425, 0.07174081355333328, 0.05762242153286934, 0.1415175050497055, 0.05224645882844925, 0.057969141751527786, 0.06909496337175369, 0.14344832301139832, 0.06872215121984482, 0.05182689055800438, 0.07637491822242737, 0.06557320803403854, 0.16018542647361755, 0.09168503433465958, 0.2107679694890976, 0.06591152399778366, 0.054144371300935745, 0.11229437589645386, 0.07302147150039673, 0.05593370273709297, 0.05269468575716019, 0.13118195533752441, 0.07468423992395401, 0.08658650517463684, 0.23484431207180023, 0.05916180834174156, 0.10067736357450485, 0.06082563102245331, 0.06559394299983978, 0.07882776856422424, 0.05584709346294403, 0.05360205098986626, 0.057419415563344955, 0.050078384578228, 0.0850793719291687, 0.06795588880777359, 0.05936823785305023, 0.055120788514614105, 0.09351174533367157, 0.05776640772819519, 0.05449480190873146, 0.052691973745822906, 0.05818863958120346, 0.09066209197044373, 0.09227132797241211, 0.056538429111242294, 0.10987576097249985, 0.05356570705771446, 0.08450037986040115, 0.13851548731327057, 0.1731698215007782, 0.11539626121520996, 0.0907001942396164, 0.19071942567825317, 0.061299532651901245, 0.047270338982343674, 0.06027350574731827, 0.08590162545442581, 0.07531256973743439, 0.05554038658738136, 0.05968546122312546, 0.10226341336965561, 0.05465685576200485, 0.2778622508049011, 0.047186680138111115, 0.05590280890464783, 0.06555367261171341], "train_epoch_av": 15.38837468624115, "val_epoch_av": 31.680888891220093, "total_time": 3.0066892364290028, "best_val_loss": 0.047186680138111115}, "state_dict": {"layers.block_1.rec.weight_ih_l0": [[0.655190646648407], [-0.034929659217596054], [-0.693622887134552], [0.6042540669441223], [0.9320035576820374], [1.9048562049865723], [0.6223421096801758], [0.11791904270648956], [-0.4208258092403412], [-0.5643566250801086], [-1.600271463394165], [-0.36823490262031555], [-0.8461284637451172], [0.7261340022087097], [-0.5555329322814941], [0.39888954162597656], [-0.8625596761703491], [0.3188149034976959], [-0.515186607837677], [-0.19715313613414764], [0.21861931681632996], [-0.6325581073760986], [0.1973194032907486], [-0.4570675492286682], [-0.3908765912055969], [-0.7518818378448486], [0.14427298307418823], [1.9363752603530884], [0.43010014295578003], [-0.06582888960838318], [0.36053115129470825], [0.8727326393127441], [0.3804967701435089], [0.5937991738319397], [1.558176040649414], [-0.5567682385444641], [-0.38303160667419434], [-0.6850612163543701], [-0.9959149956703186], [-0.4147019684314728], [-2.0818827152252197], [4.6720170974731445], [0.08308430016040802], [-1.2170048952102661], [1.1603121757507324], [1.4761807918548584], [0.8375481963157654], [-0.0270040575414896], [0.5265129804611206], [0.785973846912384], [-1.4542903900146484], [-0.620108962059021], [0.36882728338241577], [-1.6334843635559082], [-0.6909340620040894], [-1.0584022998809814], [-2.230010986328125], [-0.9746716022491455], [0.5103950500488281], [0.6851673126220703], [3.5064733028411865], [-0.4334047734737396], [-2.244464635848999], [-0.09496486932039261], [1.2161957025527954], [-0.19867002964019775], [1.9556386470794678], [0.5434226393699646], [0.9580810070037842], [0.954568088054657], [-0.4808637499809265], [-0.359681636095047], [0.19012020528316498], [1.5938631296157837], [-0.06375401467084885], [0.3805728554725647], [-1.9171524047851562], [-0.380996435880661], [-2.3687074184417725], [0.3315128684043884], [-0.14435221254825592], [-0.7552814483642578], [0.48957324028015137], [0.5188016891479492], [-0.3229749798774719], [0.44101017713546753], [1.308115005493164], [0.8846542835235596], [-0.4902055263519287], [0.015092325396835804], [-0.08464788645505905], [1.5422149896621704], [-0.9794750213623047], [-0.025906315073370934], [1.030870795249939], [0.6662747859954834]], "layers.block_1.rec.weight_hh_l0": [[-0.7434149980545044, 0.4062351584434509, 0.5667114853858948, -0.06926119327545166, 0.13039559125900269, 1.6548075675964355, -0.25623464584350586, 0.3639835715293884, 0.07143374532461166, 0.5531066656112671, -0.049499012529850006, -0.1651325523853302, 0.3331373929977417, 0.45552003383636475, 0.24020205438137054, -0.32750359177589417, 0.38880065083503723, -1.2539093494415283, -0.03531576693058014, 0.28463467955589294, -0.04139794036746025, -0.20176894962787628, -1.0096172094345093, -0.4304138123989105, -0.6415949463844299, -0.20747627317905426, -0.07260575890541077, 0.03161027282476425, 0.7027758955955505, 0.1914181411266327, 0.025521907955408096, 0.07675644755363464], [0.005593629088252783, 0.21725544333457947, -0.02291939966380596, 0.13941122591495514, -0.25063493847846985, 0.026027660816907883, -0.08151214569807053, -0.02071801945567131, -0.19990308582782745, 0.18708515167236328, -0.26923370361328125, 0.4837964177131653, -0.19390331208705902, 0.053839102387428284, 0.009848139248788357, -0.019118795171380043, -0.3859158158302307, -0.16335749626159668, -0.007944182492792606, -0.05910394340753555, 0.18867342174053192, 0.3506217300891876, 0.803710401058197, -0.00043715545325540006, 0.03971802815794945, -0.009992283768951893, 0.15872515738010406, 0.004275169689208269, -0.03607967868447304, -0.2697391211986542, -0.07773706316947937, 0.04254231974482536], [-0.4512728154659271, -0.290613055229187, -0.08258642256259918, 1.0301566123962402, -0.6778891682624817, 2.7667410373687744, -1.5362248420715332, 1.3470960855484009, -1.43635892868042, 0.3180353045463562, 0.5598437190055847, -0.9373719096183777, 0.3360045254230499, -0.5417134761810303, 1.4225906133651733, 0.5202165246009827, 0.3912253975868225, -1.4046565294265747, -0.4695035517215729, 0.7013567090034485, -0.9121069312095642, -0.3071238100528717, -0.48255378007888794, 0.4041931927204132, 0.8531860709190369, 2.9723823070526123, 0.9767241477966309, -0.644295871257782, -0.620128333568573, -3.686230182647705, -0.07307358831167221, -0.22970075905323029], [0.2482972890138626, 0.4399621784687042, 0.06311266869306564, 0.23760010302066803, 0.06587286293506622, 0.3219773471355438, -0.11792540550231934, 0.8464614152908325, 0.31922030448913574, 0.6207151412963867, -0.024876046925783157, 0.13746586441993713, 0.06797339767217636, 0.048923060297966, -0.03691821172833443, 0.6739955544471741, 0.18144750595092773, -0.4894130825996399, 0.3527747094631195, 0.6380994319915771, -0.3244878649711609, -0.09777370095252991, 0.03201185166835785, 0.09206589311361313, -0.10878238826990128, 0.5544683337211609, -0.11359196156263351, 0.18371567130088806, -0.8068280816078186, -0.3853927254676819, 0.23905016481876373, -0.18058834969997406], [0.6601344347000122, -0.3766593933105469, 0.12860332429409027, 0.15079127252101898, 0.21448981761932373, 0.5318038463592529, -0.23150119185447693, -0.6284995079040527, -0.04073088988661766, 0.8349900245666504, 0.02292502112686634, 0.31228822469711304, -0.4866675138473511, -0.02510625123977661, -0.09370587021112442, 0.004913597833365202, -0.6382250785827637, -0.40021654963493347, 0.012558036483824253, -0.039281465113162994, 0.024763988330960274, 0.093501977622509, 0.6089431643486023, -0.10993456840515137, 0.6264509558677673, 0.9124507308006287, 0.1832551211118698, 0.37918534874916077, -0.19321608543395996, -0.1482245773077011, 0.04129403457045555, 0.07054644078016281], [0.4380911886692047, 0.07142659276723862, 0.3120730519294739, 0.18408706784248352, 0.20418886840343475, 0.18775574862957, 0.1379970908164978, -0.3745986521244049, -0.08864819258451462, 0.6724797487258911, -0.29732248187065125, -0.07844200730323792, -0.39949604868888855, 0.3192557990550995, -0.10446853190660477, -0.29847660660743713, 0.10811524093151093, -0.44999393820762634, 0.9129706025123596, -0.44798794388771057, 0.16232295334339142, 0.0547235943377018, -0.10400570929050446, 0.5713356733322144, -0.57947838306427, 0.3926648795604706, -0.32771334052085876, 0.5985583662986755, 0.1584048569202423, 0.014276310801506042, 0.14701728522777557, 0.21565678715705872], [0.04219948500394821, -0.056997597217559814, -0.11947866529226303, 0.14066191017627716, 0.023758040741086006, -0.43167778849601746, 0.2284126877784729, -0.14858002960681915, -0.09530602395534515, 0.4572937488555908, -0.24874182045459747, -0.2361663281917572, -0.16283446550369263, 0.22774526476860046, 0.02096339501440525, 0.3683528006076813, 0.278788685798645, -0.1626097410917282, -0.022039279341697693, -0.19256028532981873, 0.5318737626075745, 0.21932870149612427, 0.3269370198249817, -0.06218869611620903, -0.37023434042930603, 0.5576174259185791, -0.018178656697273254, -0.062458336353302, 0.3153485357761383, 0.30248934030532837, 0.06839132308959961, -0.1813097894191742], [-0.13249747455120087, -0.5234710574150085, 0.013038390316069126, -0.019156942144036293, 0.027791989967226982, 0.15992619097232819, -0.17982839047908783, 0.07122310250997543, -0.01692144013941288, 0.3114719092845917, -0.03764384612441063, -0.05483471229672432, 0.011449120938777924, -0.3183894455432892, -0.13247786462306976, -0.16486386954784393, 0.3385442793369293, -0.14394129812717438, 0.13374991714954376, -0.4472753703594208, -0.08620520681142807, -0.761455774307251, -0.1824539303779602, -0.08566615730524063, 0.05562993511557579, -0.09288645535707474, 1.1760799884796143, -0.028180651366710663, 0.4436948895454407, 0.26123932003974915, -0.12184516340494156, 0.2162635773420334], [0.20839136838912964, -0.220559224486351, -0.023085620254278183, -0.23623131215572357, -0.1874971091747284, -0.09568057209253311, -0.04533477500081062, -0.057222142815589905, 0.30324041843414307, -0.11709635704755783, -0.0690506100654602, -0.28839269280433655, 0.1529242992401123, -0.0918370857834816, -0.17049375176429749, -0.5145706534385681, -0.053718678653240204, 0.018055463209748268, -0.19759279489517212, -0.11728434264659882, -0.0854337140917778, -0.029140451923012733, -0.19249731302261353, 0.10692409425973892, 0.2767984867095947, 0.021104786545038223, 0.2713836431503296, 0.1672559231519699, -0.20669303834438324, -0.7745140194892883, 0.1940462738275528, -0.3054375946521759], [-0.11099318414926529, 0.3462546467781067, -0.10016395151615143, 0.022427136078476906, -0.7643508911132812, 0.007685838267207146, 0.30082589387893677, 0.2418961375951767, -0.35597971081733704, -0.5778805613517761, 0.43746691942214966, -0.3252643048763275, 1.1886136531829834, 0.30546247959136963, 0.7790266871452332, 0.1323346346616745, 0.3269559144973755, -0.14060091972351074, -1.0954400300979614, 0.13183605670928955, -0.45027437806129456, -0.20501454174518585, -1.172631859779358, -0.575797975063324, -0.7731466889381409, -0.1777839958667755, 0.33542799949645996, -0.8691253066062927, -0.15168341994285583, -0.3646877408027649, -0.6803217530250549, 1.3651925325393677], [-0.6654518842697144, -0.6873611807823181, -0.4664692282676697, 0.1985112577676773, -0.5432796478271484, -0.24926629662513733, -0.1759776920080185, 0.37332430481910706, -0.10552094876766205, -0.556534469127655, 0.2239362597465515, -0.1003863662481308, 0.5711722373962402, 0.035377949476242065, 0.19762519001960754, 0.014933968894183636, -0.12031951546669006, 0.07865678519010544, -0.6003577709197998, 0.2960401177406311, 0.0908481702208519, -0.11882001906633377, -0.08672639727592468, -0.5456790924072266, 0.4465946853160858, -0.06959832459688187, 0.19381751120090485, -0.8154478669166565, -0.020839661359786987, -0.17741386592388153, -0.9510032534599304, 0.16533823311328888], [-0.31083470582962036, -0.3067750632762909, -0.11522701382637024, 0.43560168147087097, -0.06315100193023682, 0.1265229433774948, -0.3582245409488678, 0.1275693029165268, 0.32302871346473694, -0.6761622428894043, 0.15965932607650757, -0.18585683405399323, -0.1252242475748062, -0.387592613697052, 0.019821230322122574, -0.006632684729993343, 0.2256181687116623, -0.21571406722068787, 0.07400178909301758, 0.07511025667190552, -0.31053438782691956, -0.1425165981054306, -0.4601689279079437, 0.3634176552295685, -0.1907779574394226, -0.17882989346981049, 0.4584521949291229, 0.32532328367233276, -0.24822759628295898, 0.0608341209590435, -0.07825175672769547, 0.022029275074601173], [-0.2813705801963806, -0.002707371488213539, -0.08491155505180359, -0.16210918128490448, -0.3191738426685333, -0.10978436470031738, -0.003256021300330758, -0.37729978561401367, -0.23114342987537384, 0.25669023394584656, 0.3662583827972412, 0.13384899497032166, 0.5522757172584534, 0.12085392326116562, 0.11716577410697937, -0.2328174114227295, -0.3600602447986603, -0.11024788022041321, -0.4652312397956848, -0.15892499685287476, -0.10206296294927597, -0.12637238204479218, -0.14822407066822052, -0.5612251162528992, 0.20548412203788757, 0.36489495635032654, 0.30399930477142334, -0.3547559678554535, 0.09611822664737701, 0.013703971169888973, -0.33402320742607117, 0.1982467919588089], [0.3409416377544403, -0.344740629196167, -0.8008447885513306, 0.5637828707695007, 0.39190295338630676, 0.08119171112775803, -0.2674733102321625, 0.08799875527620316, 0.32086965441703796, 1.2320678234100342, 0.2700490951538086, 0.46489980816841125, -0.5953384637832642, -0.5378347635269165, 0.22081507742404938, 0.3084907829761505, -0.08118776232004166, -0.5839008092880249, -0.13927966356277466, 0.477358341217041, 0.48230621218681335, -0.21282868087291718, 0.6734774112701416, 0.03360283374786377, 0.13389620184898376, 0.15028943121433258, 0.11104731261730194, 0.37460798025131226, -0.7674691081047058, 0.3085925579071045, 0.09629280120134354, 0.7794241309165955], [-0.25769028067588806, -0.1628715544939041, 0.7015697360038757, 0.3402177095413208, 0.5682311654090881, 0.5558410882949829, -0.39283886551856995, 0.021145930513739586, 0.1590811163187027, -0.07861059904098511, 0.06864631175994873, 0.3148479461669922, -0.5990666151046753, -0.33305978775024414, -0.6185979247093201, 0.2506714463233948, -0.9603860974311829, -0.3278927505016327, -0.21686208248138428, -0.3329903483390808, -0.16067439317703247, -0.2643111050128937, -0.4255443513393402, -0.04643934965133667, 0.8802145719528198, 1.089836597442627, 0.4165184497833252, 0.16076578199863434, 0.33420395851135254, 0.2711572051048279, -0.023052828386425972, -0.44178032875061035], [-0.31806299090385437, -0.24046090245246887, -0.2583126127719879, 0.5234301686286926, 0.3651742935180664, -0.14745594561100006, -0.356708824634552, -0.43716031312942505, 0.35776805877685547, -0.0024920974392443895, 0.35600847005844116, 0.9697814583778381, -0.16861073672771454, -0.4501051604747772, -0.1806439310312271, 0.049292825162410736, -0.06964626163244247, -0.3522631525993347, -0.28577500581741333, 0.08764056116342545, -0.7388173937797546, -0.3094799220561981, 0.9877452254295349, -0.04231869801878929, 0.338993102312088, -0.08905892074108124, 0.24286490678787231, 0.017956094816327095, -0.4221922755241394, -0.33085665106773376, 0.23499618470668793, -0.059714291244745255], [-0.3558293879032135, 0.016100969165563583, 0.3392925560474396, -0.15625479817390442, 0.2804431915283203, -0.5058751106262207, 0.02004106529057026, 0.5472429394721985, -0.1512077897787094, -0.03711577504873276, 0.0060786171816289425, 0.018548080697655678, -0.278109073638916, -0.13325412571430206, 0.23524926602840424, 0.3744150698184967, 0.40208345651626587, 0.48027968406677246, -0.035820018500089645, 0.11429207026958466, -0.024606794118881226, -0.026439594104886055, -0.2795668840408325, 0.13518351316452026, -0.04520167410373688, -0.4013429284095764, -0.2920539975166321, 0.0728125125169754, 0.14438743889331818, -0.28561481833457947, 0.12425078451633453, -0.35587623715400696], [-0.2674328684806824, -0.10858967900276184, 0.1304311752319336, -0.12175837904214859, -0.0015850663185119629, -0.25081029534339905, 0.027099834755063057, -0.3682539165019989, -0.06227100268006325, -0.12179408222436905, 0.18535861372947693, 0.35323241353034973, 0.1279822438955307, 0.4357556104660034, 0.07412844896316528, -0.12750793993473053, 0.3960207402706146, 0.113861583173275, -0.47914832830429077, -0.01681593805551529, -0.002117427997291088, 0.0579787939786911, 0.03856465592980385, -0.5681157112121582, -0.9027354121208191, 0.06484945863485336, -0.018332885578274727, -0.38037270307540894, 0.1812620460987091, 0.18543767929077148, -0.4076337218284607, 0.7037418484687805], [-0.34360191226005554, -0.09879408031702042, 0.26811063289642334, 0.06981123238801956, 0.4456309676170349, 0.22547896206378937, -0.10107345134019852, -0.25251707434654236, 0.07859968394041061, -0.09010864049196243, 0.12376975268125534, 0.3522299826145172, -0.48174265027046204, 0.038693398237228394, 0.04840385541319847, -0.26655495166778564, 0.26290202140808105, 0.03457435593008995, -0.4178154766559601, 0.145872101187706, -0.3325183391571045, 0.1618262678384781, -0.1380426436662674, -0.262358695268631, 0.04686087369918823, 0.02208513766527176, -0.08284791558980942, 0.2776702344417572, -0.01310719083994627, -0.08046510815620422, 0.2827393114566803, -0.00011039128730772063], [0.4764283001422882, 0.009143371134996414, 0.500076949596405, 0.5734453201293945, 0.17253834009170532, 0.7094205617904663, -0.45696938037872314, -0.46809038519859314, 0.06196022778749466, 0.7858301997184753, 0.6353610157966614, 0.27814850211143494, 0.03897347301244736, 0.014562098309397697, -0.17827916145324707, -0.289666086435318, -0.05070360749959946, -0.5370035767555237, 0.5838653445243835, 1.183840036392212, -0.5432413220405579, -0.5011318325996399, -0.12192507833242416, -0.2682257890701294, 0.22246313095092773, 1.3004517555236816, 0.215011328458786, 0.05609625205397606, -0.39599326252937317, 0.13534781336784363, -0.2378619760274887, 0.06913692504167557], [-0.23323048651218414, 0.0048633115366101265, -0.27552205324172974, 0.2365952432155609, -0.08519501239061356, -0.41376760601997375, 0.33998972177505493, -0.6511989831924438, -0.413155734539032, -0.15042664110660553, -0.0399942509829998, 0.16488495469093323, -0.055723629891872406, 0.10699935257434845, 0.24164541065692902, 0.2901136875152588, 0.3348182141780853, 0.13010211288928986, -0.11766701936721802, -0.4853549301624298, 0.37200990319252014, -0.3637024760246277, 0.1375168412923813, -0.30391404032707214, -0.30373939871788025, -0.3333669602870941, -0.0767662525177002, -0.20095758140087128, 0.8167670369148254, 0.07529962062835693, -0.30281564593315125, 0.3493593633174896], [0.13544972240924835, 0.5573638677597046, -0.10056335479021072, -0.38347023725509644, -0.0273929163813591, -0.09359648078680038, 0.35565683245658875, -0.02358115278184414, -0.4287143349647522, 0.27102839946746826, -0.15399791300296783, -0.5147932767868042, 0.1750713586807251, 0.7549581527709961, 0.12218016386032104, -0.1563144326210022, 0.07176020741462708, 0.405878484249115, 0.03960578143596649, -0.07163949310779572, 0.41087761521339417, 0.3383351266384125, 0.17245393991470337, -0.26397788524627686, -0.24880895018577576, 0.12544329464435577, -0.396187424659729, 0.13619835674762726, 0.250749409198761, -0.13713997602462769, -0.09568005800247192, -0.16970087587833405], [-0.4894598424434662, -0.09175868332386017, -0.35405319929122925, 0.09536854922771454, -0.27090635895729065, -0.37349843978881836, -0.07443851232528687, 0.0051406449638307095, -0.5586727857589722, 0.28332775831222534, -0.06219878047704697, 0.18336188793182373, 0.342630535364151, 0.3848496377468109, 0.583114504814148, -0.40304267406463623, -0.1672058254480362, 0.02250187285244465, -0.08459259569644928, 0.5286329388618469, -0.10293330997228622, -0.18008136749267578, -0.13442307710647583, -0.24078910052776337, -0.23460114002227783, 0.07330427318811417, -0.20949195325374603, -0.14644668996334076, 1.0531245470046997, 0.12948109209537506, -0.40385472774505615, 0.4788566529750824], [-0.09863103181123734, -0.214710995554924, 0.0012518262956291437, 0.1843118816614151, 0.5775580406188965, 0.4007608890533447, -0.5804571509361267, 0.5557394027709961, 0.44124624133110046, -0.10614970326423645, 0.4491572976112366, -0.1820041537284851, -0.5473285913467407, -0.5891246199607849, 0.21192356944084167, 0.07070687413215637, 0.10975242406129837, -0.20775185525417328, -0.15820184350013733, 0.1408398300409317, -0.2036610245704651, -0.15404273569583893, -0.5725368857383728, 0.3828783929347992, -0.23759016394615173, 0.32796451449394226, 0.4296390414237976, -0.015390300191938877, -0.5199955105781555, -0.22559937834739685, 0.8518859148025513, -0.03692184016108513], [-0.08507278561592102, 0.1254187375307083, -0.07710397988557816, 0.03988085314631462, 0.11397843062877655, -0.4277240037918091, 0.1434706747531891, 0.5066539645195007, 0.4849133789539337, -0.03530561178922653, 0.30669963359832764, -0.326388418674469, -0.3771083950996399, -0.27143460512161255, 0.1538201868534088, 0.3345756530761719, 0.2835198938846588, 0.4759531021118164, -0.14733806252479553, 0.131313294172287, -0.0778413861989975, 0.3143700361251831, -0.47176364064216614, -0.047619640827178955, -0.028272831812500954, 0.561979353427887, -0.12513814866542816, 0.06674501299858093, -0.5535942316055298, -0.20696021616458893, -0.1794077455997467, -0.07679514586925507], [-0.88523930311203, -0.8768538236618042, -0.1896626502275467, 0.15802700817584991, -0.6915414929389954, -0.7405891418457031, 0.4005471169948578, 1.2108967304229736, -0.9543007016181946, -0.3997395634651184, 0.605817973613739, -0.3759898543357849, 0.9336238503456116, -0.9025464057922363, 0.48954930901527405, 1.481173038482666, -0.9305222630500793, 0.411040335893631, -0.17591966688632965, 0.895911693572998, 0.21308952569961548, -0.7726388573646545, -1.0885251760482788, -0.6319869756698608, 1.0922341346740723, 0.28551554679870605, 0.6487457156181335, -1.1079620122909546, 0.47449639439582825, -1.2356557846069336, -0.56758713722229, -0.5870316028594971], [0.06357395648956299, 0.09859402477741241, -0.06827086210250854, -0.20606932044029236, 0.024938538670539856, 0.02945348061621189, -0.2873479723930359, -0.3150864541530609, -0.030491570010781288, 0.22189916670322418, 0.10578646510839462, -0.2267989218235016, 0.024048808962106705, -0.04950747638940811, -0.25823545455932617, -0.28562790155410767, 0.0743878185749054, -0.13476134836673737, -0.21782033145427704, 0.036051880568265915, 0.5481356978416443, 0.15201912820339203, 0.9495208859443665, 0.0982411801815033, 0.04918375238776207, 0.18609103560447693, -0.03931977599859238, 0.0839553102850914, 0.0774407684803009, -0.13936254382133484, 0.18879643082618713, 0.011486802250146866], [0.3926631510257721, -0.2020980566740036, -0.2115136981010437, -0.14462585747241974, -0.3652813136577606, 0.7031802535057068, 0.07623273879289627, -0.11885669082403183, 0.04498277232050896, 0.6114469766616821, 0.018352700397372246, -0.5694512128829956, -0.29202428460121155, 0.0003027855418622494, 0.19841399788856506, 0.20591872930526733, 0.24906590580940247, -0.3134179711341858, 0.1285385638475418, 0.21509084105491638, -0.049993861466646194, 0.27764350175857544, -0.34150195121765137, -0.3094538152217865, -1.0140433311462402, 0.8054495453834534, 0.5180829167366028, 0.4970817565917969, -0.4658988416194916, -0.2559049725532532, -0.5582544803619385, 0.5043447017669678], [-0.04796420782804489, -0.04693025350570679, -0.049641989171504974, -0.016382262110710144, -0.4727110266685486, -0.14168107509613037, -0.010185175575315952, 0.23183758556842804, -0.47983700037002563, 0.27692219614982605, -0.1470939666032791, -0.0896478146314621, 0.8215125203132629, -0.06619604676961899, 0.5092432498931885, 0.66188645362854, 0.2883695960044861, -0.26147696375846863, -0.22289951145648956, -0.3677506446838379, -0.013299127109348774, -0.01241119671612978, -0.18429361283779144, -0.15520095825195312, -0.3959781229496002, -0.1691318303346634, 0.2189146727323532, -0.4453587234020233, 0.40975677967071533, 0.23286229372024536, -0.12247452139854431, 0.14940477907657623], [-0.40299612283706665, 0.03050357848405838, 0.012537467293441296, 0.24055184423923492, 0.7825337648391724, 0.477864146232605, -0.41567620635032654, 0.3392273485660553, 0.3646259009838104, 0.6758297085762024, -0.15809880197048187, 0.030230430886149406, -0.6855085492134094, -0.34918543696403503, -0.4144320487976074, 0.06298160552978516, 0.9867260456085205, -0.35954684019088745, 0.38889291882514954, 0.2536640167236328, -0.20306478440761566, -0.2653128206729889, -0.9076971411705017, 0.21926537156105042, 0.48220187425613403, 0.05131300911307335, -0.004039218183606863, 0.7491135597229004, -0.006079861428588629, -0.09189022332429886, 0.3991885185241699, 0.053011681884527206], [0.4189528226852417, -0.3242843449115753, 0.04568406939506531, 0.09316043555736542, 0.3329237997531891, 0.15973925590515137, -0.15626905858516693, 0.3648042380809784, 0.40247249603271484, 0.21415923535823822, 0.14258569478988647, -0.21333633363246918, -0.5926024913787842, -0.6356471180915833, -0.12938934564590454, 0.395527184009552, -0.2185375839471817, -0.09892185032367706, -0.1285969465970993, 0.0003280657692812383, -0.2433672994375229, 0.08452070504426956, -0.3757513463497162, 0.6153445839881897, 0.366817444562912, 0.11088702827692032, 0.04001826047897339, 0.7666153311729431, -0.5307464003562927, 0.05222168192267418, 0.8423272371292114, -0.323118656873703], [-0.0916760116815567, 0.24997948110103607, -0.4834465980529785, 0.23098856210708618, 0.6907100677490234, -0.5967382192611694, -0.15821820497512817, -0.2869822382926941, 0.4748867154121399, 0.789643406867981, -0.24546179175376892, -0.13803668320178986, -0.6269968748092651, -0.4942167401313782, -0.23307113349437714, -0.061884768307209015, -0.15950776636600494, 0.13064809143543243, -0.1014164537191391, -0.2705656588077545, 0.2506909966468811, 0.3372184932231903, 1.4119648933410645, 0.5886305570602417, 0.17497535049915314, 0.3402828574180603, -0.4609350264072418, 0.20524924993515015, -0.8699756860733032, -0.16058310866355896, 0.6512729525566101, -0.3870788812637329], [0.8718968629837036, -2.3115944862365723, 1.6801402568817139, -0.15132856369018555, -1.6286698579788208, -0.7511726021766663, -0.5448273420333862, -1.0933220386505127, 1.0942416191101074, -1.6509921550750732, 1.9389969110488892, -4.672449111938477, -0.4543744623661041, -1.4028440713882446, 2.051851987838745, -0.7857611179351807, -4.233741760253906, 0.3797951936721802, -3.596675157546997, 0.029924949631094933, 1.331702709197998, -0.5522915720939636, -1.1527692079544067, 0.02537117525935173, 2.7740724086761475, 3.5155203342437744, 1.533540964126587, -4.078094482421875, -3.5483367443084717, 0.11388087272644043, 0.8944112658500671, -2.2293331623077393], [0.43371984362602234, -0.17580915987491608, -0.1764223426580429, 0.33119380474090576, 0.6644452810287476, -0.08478738367557526, -0.4872207045555115, 0.7350651025772095, 0.865317165851593, -0.24345360696315765, 0.06712301820516586, 0.878572404384613, -0.37259095907211304, -0.2707929015159607, -0.07962185889482498, 0.8576480746269226, -0.0192561112344265, -0.7283083200454712, -1.1219618320465088, -0.06839006394147873, -0.3252265453338623, -0.1857394576072693, -0.7363090515136719, -0.8775350451469421, -0.6925690770149231, -0.07335846871137619, 0.3175897002220154, 0.5067257881164551, -0.1305222511291504, 0.5388872623443604, -0.2692314684391022, -0.18793834745883942], [1.245803952217102, 3.4254581928253174, 3.432511329650879, -0.23627540469169617, 1.8328739404678345, 1.5039571523666382, 0.4709784984588623, 0.3971216082572937, 0.058440230786800385, -0.2050878405570984, -1.0670742988586426, -0.05386700853705406, -2.332129716873169, 1.668715476989746, -0.9210340976715088, -0.5071080327033997, 1.356277346611023, -0.28914836049079895, 4.345363616943359, -0.9940932989120483, 0.17386206984519958, 0.21296386420726776, -0.8992053866386414, 0.13475652039051056, -1.7261576652526855, -0.007384190801531076, -0.7215592265129089, 0.6147708296775818, 0.5908463001251221, 0.6143046021461487, 0.2630079388618469, 0.7159061431884766], [0.6216080188751221, -0.006685781292617321, 0.4049881100654602, 0.04350431263446808, -0.818753719329834, 0.20671753585338593, -1.3521753549575806, -0.26150718331336975, -0.11539693176746368, -0.7078160643577576, 0.2428433895111084, -0.5609905123710632, 0.41517266631126404, -0.5642170906066895, -0.7464969754219055, -0.5101973414421082, -0.8563088178634644, -0.6153072118759155, -0.5093805193901062, -0.0567902997136116, 0.3613412082195282, 0.4863595962524414, 0.10798188298940659, 0.16444922983646393, -1.8934080600738525, -1.1544560194015503, -0.2358115166425705, -0.42260226607322693, 0.22150975465774536, 0.2995924651622772, -0.40709081292152405, -0.24714967608451843], [-0.495128870010376, 0.3055795133113861, 0.5803237557411194, 0.0019630289170891047, 0.26621633768081665, -0.7846482992172241, 0.051969241350889206, 0.2793222963809967, 0.3988138735294342, -1.3581048250198364, -0.3451830744743347, 0.5894322395324707, -0.2701050937175751, -0.24006634950637817, -0.7659516334533691, 0.13431775569915771, 0.12972356379032135, 0.30974870920181274, -0.3807072639465332, 0.01008883211761713, -0.09163773059844971, -0.013976196758449078, 0.48469021916389465, 0.1416892409324646, -0.08614097535610199, 0.13300423324108124, 0.005396390799432993, -1.0947781801223755, -0.32767775654792786, 0.051400259137153625, -0.3108602464199066, -0.11886633932590485], [1.2020034790039062, 0.14721646904945374, -0.26039937138557434, -0.7359431385993958, -0.947673499584198, -0.02456299401819706, 0.21946783363819122, -0.1944388747215271, -0.08000460267066956, -0.5539452433586121, 0.03767479956150055, -0.6067810654640198, 0.33160197734832764, -0.24470318853855133, 0.12946514785289764, -0.05299373343586922, -0.6704718470573425, 1.7086101770401, -0.02875177189707756, 0.36590471863746643, -0.21738146245479584, 0.25004467368125916, -0.35423144698143005, -0.3602290153503418, -1.6002681255340576, -0.37499913573265076, 0.14516746997833252, -0.8099139332771301, -0.2907043397426605, 0.21911461651325226, -0.7810047268867493, 0.40277668833732605], [-0.22055736184120178, 0.7113770246505737, -0.19119204580783844, -0.8318695425987244, -0.910864531993866, -1.6153801679611206, 0.17703615128993988, -0.2995574176311493, -1.75557541847229, -1.429352045059204, -0.46389174461364746, -0.4369968771934509, 0.8185316920280457, 0.6388785243034363, 0.13769996166229248, -0.3664000332355499, -0.9076059460639954, -0.381023108959198, 0.02079705335199833, -0.6939083337783813, -0.18795232474803925, 0.1300106793642044, 1.027424931526184, -0.06572026759386063, -0.6573672294616699, -1.3861680030822754, -0.19484874606132507, -1.2807233333587646, 1.8947240114212036, 1.1893008947372437, -0.6550391316413879, -0.28240883350372314], [-0.31456467509269714, -0.1938471645116806, 0.25633057951927185, 1.7667721509933472, -0.9630274772644043, 0.4460614025592804, -1.1749444007873535, 0.32147088646888733, 0.18530702590942383, -0.40785935521125793, 1.4803928136825562, 1.0072935819625854, 0.5929368734359741, -2.2170310020446777, 0.2836816906929016, 0.38699984550476074, -1.1424391269683838, -0.5769398212432861, -0.6805931925773621, 0.1728813648223877, -2.3046436309814453, -0.8233838081359863, -0.40047338604927063, -0.6340678930282593, 1.117772102355957, 0.736968994140625, 0.3748224079608917, -0.11582871526479721, -0.352355420589447, -0.156396746635437, -0.583168089389801, -0.2759544253349304], [1.1907001733779907, -0.03873198479413986, -0.6831244230270386, 0.23338936269283295, -0.6415585279464722, -0.6186640858650208, 0.19787929952144623, -0.4040060043334961, -0.44350665807724, 0.1748681515455246, 0.17307476699352264, 0.36189472675323486, 0.30000388622283936, 1.0663355588912964, 1.7180473804473877, 0.08853527158498764, -1.3194578886032104, 0.5629611015319824, -1.0102286338806152, 0.5336994528770447, 0.1095656156539917, 0.07940298318862915, -0.12045764178037643, 0.5359522104263306, 0.22465401887893677, 1.5182784795761108, -0.33494749665260315, -1.425257682800293, 0.8107339143753052, 0.0529978945851326, -0.6218683123588562, 0.0167684443295002], [0.9757313132286072, 0.8738104104995728, 0.9970273971557617, -0.1448470503091812, -0.5319724678993225, 1.3282800912857056, 0.6924139261245728, 0.10279376059770584, 1.473223090171814, 4.104536056518555, 0.8961642384529114, -1.4200937747955322, -0.7776484489440918, 1.7589114904403687, 0.02099444903433323, -0.1543852984905243, 2.5868804454803467, -1.0138051509857178, 0.8167753219604492, -0.055446166545152664, -0.5170822739601135, 0.12400291115045547, -1.7483184337615967, -1.3431533575057983, -5.411044597625732, 1.3363614082336426, -0.8306176066398621, -0.8122323751449585, -0.6182805895805359, -0.21706873178482056, -1.9805282354354858, 1.423601508140564], [-0.3147968351840973, -1.0118496417999268, -0.4903225600719452, -0.10916917771100998, -2.520530939102173, -0.5564506649971008, 1.1766595840454102, 0.09648595005273819, -1.9446442127227783, -0.6906582713127136, 0.6273883581161499, -0.6049835085868835, 2.823986291885376, -0.851081132888794, 2.7581613063812256, 0.833700954914093, -2.3758273124694824, 0.9751067757606506, -0.8298193216323853, -0.1953902393579483, 0.4885158836841583, -0.9407108426094055, 0.8436219692230225, -1.656925082206726, 1.6891969442367554, -1.109898567199707, 0.974958598613739, -0.9686586856842041, 0.4662289321422577, -0.01910785585641861, -1.1927002668380737, -0.1881544440984726], [-1.2058135271072388, -1.2425739765167236, -0.39015910029411316, 0.5539482831954956, -1.6877999305725098, -0.1713835597038269, -0.46771517395973206, -1.466239333152771, -0.06984398514032364, -0.8374785780906677, 0.8403651714324951, -0.2885761260986328, 1.0704188346862793, -0.48969581723213196, 0.35681629180908203, -0.10005471855401993, -2.114525318145752, -0.016003115102648735, -0.89002525806427, 0.16087749600410461, 0.15784086287021637, -1.2982938289642334, 2.061113119125366, -1.6075092554092407, 2.1641976833343506, -0.8428717851638794, 0.881248414516449, -1.1114647388458252, -0.00699617201462388, 0.3870898485183716, -1.9646323919296265, 1.220351219177246], [0.8367640376091003, -0.05848719924688339, 0.03359604254364967, -0.3275943696498871, -0.5806280970573425, -0.7003833055496216, 0.6460812091827393, -0.48261120915412903, -0.4121149778366089, -0.46319347620010376, -0.2773091495037079, 0.44139984250068665, 0.5008347630500793, 0.35317718982696533, 0.29318109154701233, -0.2768237590789795, -1.062602162361145, 0.5233129262924194, 0.050847843289375305, 0.14621536433696747, 0.46644628047943115, 0.29510292410850525, 0.9070489406585693, -0.3034355342388153, -0.48018744587898254, -0.5164836645126343, -0.2585522532463074, -0.5873817205429077, 0.4949403405189514, -0.04982107877731323, -0.43377143144607544, -0.3523351848125458], [0.4303949177265167, 0.9995426535606384, -1.0133997201919556, 0.13614517450332642, -0.20316247642040253, -2.196904420852661, 0.5271856784820557, -1.802997350692749, -0.7569611072540283, 0.09669109433889389, -1.3046437501907349, 0.38537418842315674, 0.3075800836086273, 1.2652310132980347, -1.3161582946777344, -0.6139065027236938, -1.7413661479949951, 0.9003486633300781, -0.9152864217758179, -1.7386821508407593, 2.781724691390991, 0.8944517374038696, 3.3394217491149902, 1.4362123012542725, -1.0193978548049927, 0.20172496140003204, -1.5539950132369995, -1.4883630275726318, 1.4156213998794556, 0.33584392070770264, -0.6781330108642578, -1.9453274011611938], [0.9668626189231873, 0.9137998223304749, 1.067777395248413, -0.33004432916641235, 0.8915279507637024, -0.3662923574447632, 0.43252891302108765, -0.5444045662879944, 0.34865838289260864, -0.22482722997665405, -1.181822419166565, 0.14997617900371552, -0.9411397576332092, 0.568394660949707, -0.8118700981140137, -0.39339128136634827, -0.7371259331703186, 0.45250895619392395, 1.5749375820159912, -0.8812262415885925, 0.3870867192745209, 0.863131582736969, 1.7585805654525757, 1.021618127822876, -0.06497722864151001, -0.9870229959487915, -0.8227915167808533, 0.2176445722579956, 0.3057593107223511, 2.063215970993042, 1.274193525314331, -1.509325623512268], [-1.213169813156128, -0.0954318419098854, -0.3412584066390991, 1.753524899482727, -0.06384486705064774, 0.5784306526184082, -1.2701163291931152, 1.3498669862747192, 0.7952971458435059, 1.0182628631591797, 1.2613998651504517, 1.0100321769714355, 0.007494853809475899, -1.1244913339614868, 0.6532909870147705, 1.517765998840332, 0.3024900257587433, -0.6972876191139221, -0.9571352005004883, 1.2462027072906494, -1.1286369562149048, -1.4349411725997925, -0.42428404092788696, -0.2500796616077423, 0.6212446093559265, 1.22528874874115, 1.1732791662216187, 0.07209637016057968, -0.6171727180480957, 0.16849960386753082, -0.31818002462387085, 0.49434977769851685], [0.5952123999595642, -0.1184316948056221, -0.5905399918556213, -1.6697616577148438, -1.3913930654525757, -0.8950779438018799, 0.4669433832168579, 0.9306868314743042, -0.709514319896698, -1.0125274658203125, 0.3581506013870239, -3.0330069065093994, 1.9664148092269897, 0.37046685814857483, 0.2745562195777893, 0.0787317082285881, 2.4841678142547607, 0.9838286638259888, -0.21350494027137756, -0.5682776570320129, -0.9898595809936523, 0.3999018967151642, -0.44811493158340454, 0.5131405591964722, -1.9464473724365234, -1.6019821166992188, -0.09190791845321655, -1.0154752731323242, 0.25721022486686707, -0.19211912155151367, -0.6706698536872864, 0.28016388416290283], [0.20498904585838318, -0.023950662463903427, -0.3128599226474762, -0.3605150282382965, -0.7363801598548889, -0.7480846047401428, -0.1896398365497589, 0.09987205266952515, -1.1351799964904785, -0.5032606720924377, -0.11774927377700806, -0.7639398574829102, 0.8558880686759949, -0.04092326760292053, 0.03919190540909767, -0.19051097333431244, 0.10362007468938828, 0.09198726713657379, 0.12077304720878601, -0.20348559319972992, 0.09727997332811356, 0.15097294747829437, 0.5525664687156677, 0.3404749631881714, -1.2405452728271484, -0.9874045848846436, -0.13497182726860046, -0.8015461564064026, 0.0026046624407172203, 0.18524596095085144, -0.16729918122291565, 0.5923150777816772], [0.037847746163606644, -1.7574121952056885, -0.4313964545726776, -0.4549758732318878, -1.3642065525054932, -2.2245588302612305, 0.6063418388366699, -0.07068272680044174, 0.9053674340248108, -1.573429822921753, 2.5526328086853027, -2.1063530445098877, 0.6086719632148743, -1.4195808172225952, -0.9444000124931335, 0.41843461990356445, -0.6733884811401367, 2.7170968055725098, -0.8056180477142334, 0.6770845055580139, 1.702727198600769, 1.197609782218933, 4.882938385009766, -0.0828305333852768, -1.0382417440414429, 0.07353994250297546, 0.15918052196502686, -1.5200183391571045, -0.6298493146896362, 0.037723928689956665, -1.1035596132278442, -1.2956181764602661], [-0.09996290504932404, -2.1513288021087646, -0.7409750819206238, 0.6004612445831299, -2.8922364711761475, -0.18326441943645477, 0.2742036283016205, 0.6242856979370117, -1.024660587310791, 0.658548891544342, 1.1071903705596924, -0.3584457039833069, 1.027811884880066, -2.7179880142211914, 0.4534323811531067, 0.8545794486999512, -1.6291723251342773, 0.14812321960926056, 0.19077168405056, 0.6743124127388, -0.48259514570236206, -1.2423487901687622, 0.7343606352806091, -0.9509766101837158, 1.5101945400238037, 0.3228248953819275, 1.3864513635635376, -1.8568816184997559, -0.9624499678611755, 0.1589324027299881, -1.865981101989746, 0.6597143411636353], [0.4941284656524658, -0.7419503331184387, 0.23301711678504944, -0.6600711941719055, 0.05133792385458946, -1.979420781135559, 0.8341562151908875, -1.7475031614303589, -0.9934958219528198, -0.5358205437660217, -0.35892242193222046, -0.34031370282173157, -0.6034354567527771, -0.10518064349889755, -1.6413238048553467, -0.032322756946086884, -0.6636727452278137, 2.07696795463562, 1.5036324262619019, -0.3067197799682617, 2.8229498863220215, 1.243211269378662, 1.9277536869049072, 1.3333814144134521, 0.37595951557159424, -0.20370124280452728, 0.20029035210609436, -0.6545276045799255, 0.43549472093582153, 0.14052194356918335, 0.36502695083618164, -2.3494722843170166], [-0.6760033965110779, -0.24216477572917938, 0.8470854163169861, 0.73646080493927, -0.5049291849136353, 0.24339310824871063, -0.14457356929779053, -0.26337918639183044, -0.671629011631012, -0.4300861954689026, 0.3988363444805145, 0.556218683719635, 0.0262196883559227, 0.7170838117599487, 0.026631450280547142, -0.04380613937973976, -1.123042345046997, -0.07417655736207962, -0.9655976295471191, -0.331539124250412, -0.3027592599391937, -0.13047094643115997, 0.7933757305145264, -0.03737178072333336, 0.21863216161727905, 0.47276782989501953, 0.25731515884399414, -1.160090684890747, -0.07397257536649704, -0.5459703803062439, -0.31469807028770447, 1.049444317817688], [2.202110767364502, -0.5800716280937195, 1.2871448993682861, -0.5821493864059448, -0.2744312286376953, 1.1841593980789185, 1.2151936292648315, -1.5128874778747559, -1.6266422271728516, 1.1534159183502197, -0.905034601688385, -0.21140843629837036, -0.21498607099056244, 1.1033024787902832, -0.5531639456748962, -0.8218356966972351, -0.8835829496383667, 0.28995755314826965, 1.7795554399490356, -0.443329393863678, 1.7041926383972168, 0.6721359491348267, 0.6826466917991638, -0.9543102979660034, 0.8556286692619324, 1.2977941036224365, 0.07824333012104034, 0.7920901775360107, 1.2815213203430176, 1.3392465114593506, -0.48711350560188293, 0.9790073037147522], [0.4130789637565613, 0.6154054999351501, 0.8124934434890747, -0.37759047746658325, 0.19513154029846191, -0.4247128367424011, 0.25105783343315125, 0.2045573592185974, 0.264212965965271, -1.4685704708099365, -0.43028929829597473, -0.3100782036781311, -0.39631789922714233, 0.16337457299232483, 0.2483430802822113, 0.6581956148147583, -0.1260385662317276, 0.1637447476387024, -0.5155661702156067, -1.3097649812698364, 0.3454059064388275, 0.3992096185684204, 0.1397562474012375, 0.8085757493972778, -0.6325173377990723, -0.6813372373580933, 0.04239869490265846, -0.46072253584861755, 0.47574135661125183, -0.4914163053035736, 0.6232007741928101, -0.5249402523040771], [-0.692902684211731, -0.9926773309707642, -3.622119665145874, -0.550887405872345, 0.3601069450378418, -1.0905629396438599, -0.1273975521326065, -0.07997256517410278, -0.7518310546875, -3.1666228771209717, 0.1863602250814438, -1.0666520595550537, -2.8044095039367676, -0.3913930356502533, -1.1597900390625, 0.11241324245929718, -3.856545925140381, 1.9111543893814087, 0.3066188395023346, 0.19589991867542267, 2.270193338394165, 0.96705561876297, 0.8401951789855957, 2.1177260875701904, 6.4336323738098145, 4.951976299285889, -0.44213393330574036, -1.1727187633514404, -0.11472898721694946, -0.5037506222724915, 0.5547226071357727, -3.1236884593963623], [-1.0370042324066162, 0.37621551752090454, 1.6849417686462402, 0.47386807203292847, 0.8597806096076965, -0.7315629124641418, -0.473172128200531, -1.1901367902755737, 1.4022979736328125, -0.4968264102935791, -0.5073298811912537, 0.8011798858642578, -1.5246386528015137, 0.2189941257238388, -1.2817974090576172, -0.15413065254688263, 1.445871353149414, 0.33975449204444885, -0.45151618123054504, -0.8261536955833435, 0.2045377790927887, -0.03674701228737831, -0.6778554320335388, -0.2141149938106537, 0.1062786802649498, 1.9362058639526367, -0.035777073353528976, 0.9882307648658752, -0.4681205749511719, 0.7685461044311523, -0.32810214161872864, 0.2587205469608307], [-0.826064944267273, -0.5086630582809448, 1.0066837072372437, 0.6886166930198669, 0.026325609534978867, 0.19311834871768951, -0.33459576964378357, 0.0680866613984108, 1.2448819875717163, -0.0628696084022522, 0.666461169719696, 0.8231891989707947, -0.5948064923286438, -0.4649971127510071, -0.23443543910980225, 0.3895549178123474, -0.19700710475444794, -0.8607505559921265, 0.1507614701986313, 0.6670883893966675, -0.384578675031662, -0.862791121006012, -1.7374528646469116, 0.27830827236175537, 0.10197710990905762, 0.7470438480377197, 0.3241743743419647, -0.17423973977565765, -0.44961094856262207, 0.32918405532836914, 0.11699118465185165, 0.5609787702560425], [0.843306303024292, -0.09904037415981293, 0.3655005395412445, -0.5465744137763977, 0.18714958429336548, 0.17081645131111145, 0.30562371015548706, -0.32725411653518677, 0.0942704826593399, 0.3114127814769745, -0.8053393959999084, 0.6906520128250122, -0.20398929715156555, 0.031199757009744644, -1.3705371618270874, 0.14292001724243164, -0.26166972517967224, 0.836580216884613, 0.8382359147071838, 0.0755101889371872, 0.6154804825782776, 0.47880062460899353, 1.1478326320648193, 0.5096222758293152, 0.08646200597286224, 0.1066112294793129, -0.42169180512428284, 1.2705172300338745, 0.7052227854728699, -0.4042578339576721, 0.669118344783783, -0.8518185019493103], [1.0978317260742188, -0.1788373589515686, -0.45762720704078674, -0.17898808419704437, -1.1222814321517944, -1.1752198934555054, 0.6534206867218018, -1.2545366287231445, 0.26659345626831055, -0.49406883120536804, -1.0476901531219482, -0.8490970134735107, -0.06337738782167435, 0.18979069590568542, -1.770385503768921, -0.27252107858657837, -1.7033109664916992, 1.4992973804473877, -1.1038627624511719, -0.10280671715736389, 1.1210744380950928, 0.9696651697158813, 2.4178314208984375, 0.0963282585144043, -1.6577061414718628, -0.1869303286075592, -0.2855653762817383, -0.30881786346435547, 0.4772574007511139, 0.16720251739025116, -1.4849419593811035, -1.2415841817855835], [-0.40695104002952576, -1.037880778312683, -0.36429905891418457, 0.5234540104866028, -1.312299370765686, -0.799386203289032, 0.36122673749923706, -0.2250613123178482, -0.8735215067863464, -0.6550999879837036, 0.8137982487678528, 0.05505353957414627, 1.3512322902679443, -1.3142905235290527, 0.017745500430464745, -0.12972624599933624, -3.0978972911834717, 1.5895380973815918, -0.990253210067749, 1.1397234201431274, 0.27177032828330994, -0.8838356137275696, 2.160189390182495, -1.5857609510421753, 2.4176957607269287, -0.21520109474658966, 0.7682291269302368, -0.7452061772346497, -0.5421160459518433, 0.21760576963424683, -2.1025846004486084, 0.3011460304260254], [-0.2623191773891449, 0.5960036516189575, 0.5813723206520081, 0.20330114662647247, 0.038920123130083084, -0.30857208371162415, 0.23059172928333282, 0.4330492615699768, 0.3836590647697449, -1.2402032613754272, 0.01831880956888199, 0.6295970678329468, -0.23808220028877258, 0.04003595933318138, 0.15894146263599396, 0.6441990733146667, -0.4088950753211975, 0.12983623147010803, -0.34200698137283325, -0.1915004551410675, -0.10445882380008698, -0.23419080674648285, -0.29305511713027954, 0.45937052369117737, 0.2593939006328583, 0.5402306914329529, 0.1571130007505417, -2.3845572471618652, -0.03316786512732506, -0.37778332829475403, -0.3615933954715729, -0.056940071284770966], [0.861692488193512, 0.2915104925632477, -0.5363556146621704, 0.009642197750508785, -0.7737257480621338, 0.7225783467292786, 0.3508131802082062, -1.550327181816101, -0.6762910485267639, -0.08221033215522766, -0.34293070435523987, 0.25262123346328735, 0.7322536706924438, 1.4672561883926392, 1.3904505968093872, -0.607954740524292, -0.2699625492095947, 0.990986704826355, -0.5737690329551697, -0.7857717275619507, 0.43540266156196594, 0.8425236940383911, 2.4166982173919678, -0.03788468614220619, -2.836702823638916, -2.0038344860076904, -0.47901493310928345, -1.1782491207122803, -0.38761335611343384, -0.3385353982448578, -0.2741137742996216, 0.9458259344100952], [-0.7440638542175293, -0.11067329347133636, 0.11072462052106857, 0.046603552997112274, -0.21349675953388214, 0.44619929790496826, -0.127022847533226, 0.3067053556442261, -0.20773601531982422, -0.05962070822715759, 0.17395362257957458, 0.30539417266845703, 0.03636421635746956, -0.1839316189289093, -0.05367713049054146, 0.11892790347337723, 0.0688357949256897, 0.161976158618927, -0.5609666109085083, 0.25006499886512756, 0.14202816784381866, -0.07341422140598297, 0.10185971856117249, -0.27139440178871155, 0.5202916264533997, -0.08690538257360458, 0.07372412830591202, 0.0017419380601495504, -1.0513432025909424, -0.2659143805503845, 0.2854936718940735, -0.022177645936608315], [0.332199364900589, -0.36611130833625793, 0.5496510863304138, -0.07661187648773193, 0.15778356790542603, 0.23133370280265808, -0.20200371742248535, 0.5081692934036255, 0.151925191283226, -0.10343130677938461, 0.14373169839382172, -0.1354946494102478, -0.23786352574825287, -0.16264107823371887, 0.03643389046192169, 0.36798664927482605, 0.08445635437965393, -0.019384009763598442, -0.16355939209461212, 0.030278712511062622, -0.022578047588467598, -0.31326955556869507, -0.12431066483259201, -0.18277332186698914, 0.2953082323074341, 0.20604056119918823, -0.04207650572061539, 0.025962885469198227, -0.15414179861545563, -0.048070672899484634, -0.0062120771035552025, 0.4409564435482025], [-0.1607520431280136, 0.6661962866783142, 1.1228258609771729, 0.22710174322128296, 3.6779544353485107, 0.4772423207759857, -0.5529685020446777, 0.5245929956436157, 1.7284455299377441, -0.9536474347114563, -0.1943841129541397, 0.35023102164268494, -3.185835599899292, -0.3527894616127014, -0.5872192978858948, 0.30800190567970276, -0.31986290216445923, -0.41337457299232483, 0.006175419315695763, -0.2855977416038513, -0.2966172397136688, 0.024646377190947533, -0.04013959318399429, 2.473695755004883, 0.8308802843093872, 0.611254096031189, -0.23676490783691406, 1.8697383403778076, -0.4743831753730774, -0.13064000010490417, 2.312319040298462, -0.6468125581741333], [0.15683063864707947, 0.2745308578014374, 0.06428972631692886, 0.6019324660301208, -0.0019269231706857681, -0.027777189388871193, -0.15205565094947815, -0.3695119023323059, -0.17675068974494934, 0.35500746965408325, 0.060583267360925674, 0.6634624004364014, -0.18807418644428253, 0.13088883459568024, 0.11740607768297195, -0.3846413195133209, -0.3485356569290161, -0.3905124366283417, 0.09895046800374985, 0.1836850643157959, 0.20715036988258362, 0.09883949905633926, 0.7252508997917175, -0.018435988575220108, 0.1292121857404709, 0.3096344470977783, -0.18256233632564545, 0.01976490393280983, 0.05362668260931969, 0.5730150938034058, -0.1787906438112259, 0.30417582392692566], [0.09746135026216507, 0.0871117115020752, 0.08488640934228897, 0.17068369686603546, 0.10669759660959244, 0.24326954782009125, -0.24206334352493286, 0.21057598292827606, 0.20060116052627563, -0.012841610237956047, -0.08175000548362732, -0.07294914126396179, -0.49677687883377075, -0.1627129167318344, -0.3349834382534027, 0.15871065855026245, -0.00983595009893179, -0.2817475199699402, 0.019194716587662697, -0.2243524044752121, 0.14634600281715393, 0.16509145498275757, -0.021049370989203453, 0.319382905960083, 0.3760776221752167, 0.18229340016841888, 0.047070086002349854, 0.2567521333694458, -0.08723456412553787, 0.13400527834892273, 0.2941783666610718, -0.10121838748455048], [0.3837128281593323, 0.10097796469926834, 0.02843094989657402, 0.12762786448001862, -0.13141727447509766, 0.02990018017590046, -0.05413307249546051, 0.4817999303340912, 0.0978488177061081, 0.13275264203548431, 0.17277589440345764, -0.06343633681535721, -0.022514497861266136, -0.12865695357322693, 0.18408530950546265, 0.5801319479942322, -0.007946797646582127, 0.08150183409452438, 0.2854709029197693, 0.1659872680902481, -0.3117189109325409, -0.005601861979812384, -0.04758794605731964, -0.10102956742048264, 0.2446203976869583, 0.18791784346103668, -0.10319095849990845, 0.1472160369157791, -0.44326087832450867, -0.0034381209407001734, 0.18032443523406982, -0.09470058232545853], [0.150730162858963, -0.1928214430809021, 0.168307825922966, -0.02132190391421318, -0.26126304268836975, -0.08818802982568741, 0.19312819838523865, -0.39776453375816345, 0.06407066434621811, 0.11895104497671127, -0.27644240856170654, 0.10459954291582108, 0.1266394406557083, 0.18488451838493347, 0.05200793594121933, -0.3740621507167816, -0.2941523492336273, 0.13862116634845734, 0.0726151317358017, -0.1273277848958969, 0.3035331964492798, 0.20733307301998138, 0.04635850712656975, 0.24418437480926514, 0.20479662716388702, -0.13040167093276978, 0.0742950513958931, -0.011778605170547962, -0.03129064664244652, -0.14036589860916138, -0.08216916769742966, 0.17631031572818756], [-0.033703289926052094, 0.07580266892910004, -0.3535105884075165, 0.0083137983456254, -1.0898281335830688, 0.012824950739741325, 0.044594042003154755, 0.4031505286693573, -0.09960740059614182, -0.18391050398349762, -0.060895614326000214, -0.1305694878101349, 0.911249577999115, -0.0831698402762413, 0.2232477068901062, 0.660367488861084, -0.08823105692863464, 0.2690083086490631, -0.3894396126270294, 0.06690149754285812, -0.0935884416103363, 0.07256147265434265, -0.9561235904693604, -0.5605430006980896, -0.057998768985271454, -0.47892943024635315, -0.19798247516155243, -0.6535642743110657, -0.306885689496994, 0.13006900250911713, -0.9148591160774231, 0.3423895537853241], [-0.21736755967140198, -0.012894266285002232, 0.020233064889907837, -0.066669762134552, -0.006754106841981411, 0.027737796306610107, -0.09522468596696854, 0.44465723633766174, 0.1106119230389595, 0.001540956785902381, 0.03382435068488121, -0.07411092519760132, -0.29722046852111816, -0.38122037053108215, -0.08161953091621399, 0.5514848828315735, 0.21151310205459595, -0.05307171493768692, -0.25555503368377686, -0.30480167269706726, -0.06824525445699692, -0.27643102407455444, -0.26918020844459534, 0.03797023370862007, -0.19968917965888977, -0.03054662235081196, 0.08409769088029861, -0.10033353418111801, -0.31523987650871277, 0.245326429605484, 0.0752999559044838, 0.1419825702905655], [0.3073842227458954, 0.11073578149080276, 0.2706768810749054, 0.03320331126451492, -0.12385731935501099, -0.06939340382814407, 0.24883665144443512, -0.13239659368991852, -0.2736688256263733, -0.6749549508094788, -0.010483651421964169, -0.07433505356311798, 0.1585431694984436, 0.04664011672139168, 0.18079298734664917, -0.30527785420417786, 0.08167415112257004, -0.1568676233291626, 0.22925929725170135, 0.30308833718299866, 0.34068557620048523, -0.09145069867372513, 0.49477288126945496, -0.38442307710647583, -0.7622821927070618, -0.07373731583356857, 0.12827928364276886, -0.1144094467163086, 0.018945056945085526, -0.23184220492839813, -0.1304633915424347, 0.3160233199596405], [-0.701046347618103, 0.03526315093040466, -0.06650733202695847, 0.19589538872241974, -0.08756931126117706, -0.16749393939971924, -0.0930962786078453, 0.6055541634559631, 0.2503909766674042, -0.4139189124107361, 0.0902266651391983, 0.4349813759326935, 0.3409634232521057, -0.1128627210855484, 0.05101986229419708, -0.03989938274025917, -0.05706453695893288, -0.3393801748752594, -0.015179668553173542, 0.19988490641117096, -0.2074882835149765, -0.29174959659576416, -0.3948412537574768, -0.07657139748334885, 0.18478764593601227, 0.4638204276561737, -0.04725473001599312, -0.17842665314674377, 0.10113775730133057, 0.10858722031116486, -0.27581989765167236, 0.0646689310669899], [-0.15036559104919434, 0.19643287360668182, 0.029635591432452202, 0.2365594506263733, 0.24288922548294067, -0.23601847887039185, 0.2991267442703247, -0.6830772757530212, -0.4385823905467987, 0.22607649862766266, 0.048781611025333405, 0.17183127999305725, -0.4284740686416626, 0.3691944479942322, -0.07782255113124847, -0.7873497009277344, 0.29703986644744873, -0.3291756808757782, 0.1893070936203003, 0.17740388214588165, -0.00020490659517236054, -0.18551430106163025, 0.2452785223722458, -0.2690848112106323, -0.21855448186397552, 0.3573376536369324, 0.12926389276981354, 0.21997828781604767, 0.302462637424469, 0.2637437582015991, -0.25983184576034546, 0.11982407420873642], [-0.14212685823440552, 0.14663787186145782, -0.07892660796642303, -0.16905084252357483, -0.1090981736779213, -0.3311103284358978, 0.04956863448023796, -0.22183118760585785, -0.3275779187679291, -0.22553452849388123, 0.014815215021371841, 0.13807730376720428, 0.5048345923423767, 0.23022174835205078, 0.1728198230266571, -0.35050293803215027, -0.038503699004650116, 0.08924080431461334, -0.07697038352489471, 0.0502968356013298, 0.06884563714265823, -0.04114735499024391, 0.018781932070851326, -0.5349715352058411, -0.017007838934659958, 0.11542951315641403, -0.01069710310548544, -0.22305084764957428, 0.2657086253166199, 0.14385251700878143, -0.5907293558120728, 0.0975259467959404], [-0.19047032296657562, 0.21375487744808197, 0.11464700102806091, -0.030305836349725723, -0.20970271527767181, -0.07488595694303513, 0.023625263944268227, -0.5808038115501404, -0.27553504705429077, -0.22030597925186157, -0.14578081667423248, -0.17482303082942963, 0.16376586258411407, 0.11603796482086182, 0.2168377935886383, -0.7022196054458618, 0.09135974198579788, 0.2551756799221039, 0.10928782820701599, -0.28201815485954285, 0.3245694637298584, -0.019297108054161072, -0.17535538971424103, -0.37247559428215027, 0.30214929580688477, 0.2357296496629715, -0.03526603803038597, -0.2062964141368866, 0.12700915336608887, 0.18837521970272064, -0.13224942982196808, -0.05235527083277702], [-0.1267434060573578, 0.09661420434713364, 0.02260119467973709, -0.18933376669883728, -0.02511846087872982, -0.15260028839111328, 0.08364440500736237, -0.02426401898264885, -0.2570796608924866, -0.5414684414863586, -0.03609737753868103, -0.1900455355644226, 0.3836689293384552, 0.4359096884727478, 0.39251506328582764, -0.4045812785625458, -0.054699335247278214, 0.13238929212093353, -0.12922634184360504, 0.27973034977912903, -0.08134754002094269, -0.04724466800689697, -0.29638612270355225, -0.12287401407957077, 0.08499640226364136, -0.051598306745290756, -0.007621769327670336, -0.4636496901512146, 0.3575701415538788, -0.06118941679596901, -0.1338529884815216, -0.08499551564455032], [0.43875497579574585, 0.41639837622642517, 0.03333456069231033, -0.19541263580322266, -0.5302071571350098, -0.17565152049064636, 0.11117804050445557, 0.5423802733421326, -0.6162915825843811, 0.21680480241775513, 0.12478025257587433, -0.31594425439834595, 0.5283786058425903, -0.15770353376865387, 0.8062999248504639, 0.6246611475944519, 0.0776023417711258, 0.012227015569806099, 0.16257186233997345, 0.05006103962659836, 0.05602950602769852, -0.13213877379894257, -0.21366415917873383, 0.33668091893196106, -0.1975204199552536, 0.19126978516578674, 0.02613185904920101, 0.02000509575009346, -0.17761018872261047, -0.4214199483394623, -0.1665959656238556, 0.00868296343833208], [-0.1831437647342682, -0.011436425149440765, 0.20822812616825104, -0.09401129931211472, -0.06423123180866241, -0.08615370839834213, -0.16343192756175995, 0.28228750824928284, 0.3813437223434448, -0.1567957103252411, -0.0342099592089653, -0.06604264676570892, 0.24085135757923126, -0.2909834682941437, 0.049366943538188934, 0.552872359752655, -0.18630222976207733, -0.07552570104598999, -0.006637746002525091, -0.12514828145503998, -0.27199214696884155, -0.3706960380077362, -0.24333035945892334, -0.16583064198493958, 0.1236773282289505, -0.1109667494893074, 0.15066970884799957, -0.01672377437353134, -0.06670635938644409, -0.05874240770936012, 0.08589626103639603, 0.21624618768692017], [0.30824050307273865, -0.19656141102313995, -0.14144212007522583, -0.14170503616333008, 0.006692255847156048, -0.2579028606414795, 0.06463909894227982, -0.35141292214393616, 0.0829787403345108, 0.35365647077560425, 0.1111786738038063, 0.23978029191493988, 0.1063426211476326, -0.011671540327370167, -0.07760990411043167, -0.3247387409210205, 0.05535554140806198, 0.02192925475537777, 0.1984924077987671, 0.20045046508312225, 0.21382690966129303, -0.07735267281532288, 0.12603360414505005, 0.23886150121688843, -0.13221566379070282, -0.1304711103439331, 0.08648938685655594, 0.09742244333028793, -0.06948662549257278, 0.054465893656015396, 0.2046584188938141, -0.12693913280963898], [-0.47362637519836426, -0.0486428402364254, 0.19600671529769897, -0.08369798958301544, -0.07480757683515549, 0.13191771507263184, 0.10575012117624283, -0.15798267722129822, 0.10831142961978912, 0.09934963285923004, 0.09171216189861298, -0.05348089337348938, -0.11473201215267181, -0.2068333923816681, -0.11599194258451462, -0.09308897703886032, 0.26874250173568726, 0.13729794323444366, -0.305425226688385, 0.39610159397125244, -0.14126233756542206, -0.003012234577909112, -0.15622490644454956, 0.1367862969636917, 0.05365266650915146, -0.08769054710865021, 0.44842472672462463, 0.17872874438762665, -0.17502239346504211, -0.0009351632324978709, 0.20940007269382477, -0.05570578575134277], [0.12242358177900314, -0.19006262719631195, -0.20724870264530182, 0.2723816931247711, 0.219334676861763, 0.36648306250572205, -0.21212586760520935, 0.3065280616283417, -0.24389880895614624, 0.5000512599945068, 0.020785916596651077, 0.10793100297451019, 0.0825185552239418, 0.18580451607704163, -0.06169157475233078, -0.5968804955482483, -0.4519582688808441, -0.05082124099135399, 0.2274133712053299, 0.7942051291465759, 0.18401022255420685, 0.020470311865210533, 0.5677012205123901, -0.1480737030506134, 0.2006581872701645, 0.8339661359786987, 0.5641663670539856, 0.060997124761343, -0.07436874508857727, 0.014812495559453964, -0.35871586203575134, -0.14820340275764465], [0.2658548057079315, 0.0014339174376800656, -0.19233934581279755, -0.2274743765592575, 0.02658485621213913, -0.26587340235710144, 0.32307013869285583, -0.6014206409454346, -0.2130022644996643, 0.8642151355743408, -0.4136672616004944, -0.07682925462722778, -0.22935907542705536, 0.539657473564148, -0.2304069995880127, -0.43569856882095337, -0.5501424074172974, -0.050025880336761475, 0.10812200605869293, -0.44537514448165894, 0.7251027226448059, 0.36910754442214966, 0.6748741269111633, 0.26053962111473083, 0.3291947841644287, 0.1252005249261856, -0.07146360725164413, 0.048727847635746, 0.07979850471019745, -0.04591408371925354, 0.10959062725305557, -0.08167323470115662], [-0.04046302288770676, -0.12757182121276855, -0.21294847130775452, -0.012185388244688511, -0.06811206042766571, -0.09087350219488144, -0.125923290848732, -0.09769262373447418, 0.09215623885393143, -0.009056925773620605, 0.05870750918984413, 0.10128174722194672, 0.027561204507946968, -0.3273181915283203, -0.11409153789281845, 0.15817438066005707, 0.2233690768480301, -0.028012389317154884, -0.23667576909065247, -0.006321081891655922, 0.020340412855148315, 0.035028330981731415, -0.0865049809217453, 0.0003420164284761995, -0.03889007121324539, 0.10452603548765182, 0.12157024443149567, -0.061320215463638306, -0.39403489232063293, 0.17745408415794373, 0.14499130845069885, -0.007590836379677057], [0.02893608622252941, -0.09099452197551727, -0.33781659603118896, 0.1400156319141388, 0.3035297691822052, -0.08895021677017212, -0.08543036133050919, -0.3302419185638428, 0.031010210514068604, 0.24360667169094086, -0.22304077446460724, 0.10211283713579178, -0.359463632106781, 0.49258512258529663, -0.2587701678276062, -0.6529712080955505, -0.1088540256023407, 0.0652356818318367, -0.008642736822366714, -0.2931210696697235, 0.009677636437118053, 0.10089928656816483, 0.3044465482234955, 0.2689129114151001, -0.1352580040693283, -0.09375293552875519, -0.0825999453663826, 0.3786706030368805, 0.07335907220840454, -0.14763759076595306, 0.16090108454227448, 0.21111147105693817], [-0.23289704322814941, -0.026690850034356117, -0.11695902794599533, 0.21611560881137848, 0.13797378540039062, -0.017341872677206993, -0.3346290588378906, 0.48966914415359497, 0.3834661543369293, -0.17029012739658356, 0.025155503302812576, -0.12790951132774353, -0.3281733989715576, -0.2821425497531891, -0.06850472092628479, 0.5527257919311523, 0.2980509400367737, -0.35376468300819397, -0.16622905433177948, 0.16154491901397705, -0.17145316302776337, 0.019275646656751633, -0.444212943315506, 0.08886907994747162, -0.07536354660987854, 0.11777520924806595, -0.05626640468835831, -0.2126736342906952, -0.16049939393997192, -0.2179451286792755, 0.157589852809906, -0.015066000632941723], [0.07731534540653229, -0.27225637435913086, -0.030991721898317337, 0.06223979964852333, -0.06889917701482773, -0.1806403547525406, -0.11759135872125626, -0.19697628915309906, -0.3638243079185486, -0.37210315465927124, -0.08719892799854279, -0.023982038721442223, -0.36600273847579956, 0.21510359644889832, -0.16842181980609894, -0.25861161947250366, -0.45032745599746704, 0.18523399531841278, 0.043668363243341446, 0.12126623094081879, 0.18335220217704773, 0.4460170269012451, 0.03307955339550972, 0.15806856751441956, -0.40536972880363464, 0.2359083741903305, 0.14592832326889038, -0.01457425020635128, 0.04921308532357216, 0.27605000138282776, 0.01378174964338541, -0.352287232875824], [0.7651054263114929, 0.0827479362487793, 0.35128331184387207, 0.13444507122039795, 0.39434975385665894, 0.5127050876617432, -0.23474831879138947, 0.6026767492294312, -0.10046780109405518, 0.33909767866134644, 0.2834952771663666, 0.22152508795261383, -0.8336455821990967, -0.14685791730880737, -0.20449046790599823, 0.1944439709186554, -0.051165059208869934, -0.13243848085403442, -0.14354489743709564, 0.48641344904899597, -0.16173411905765533, -0.02048187516629696, 0.36430081725120544, 0.35959136486053467, -0.29951491951942444, 0.10842651128768921, -0.25598812103271484, 0.5801581740379333, -0.3897784352302551, -0.2609512209892273, 1.0177620649337769, -0.017030825838446617], [0.40651825070381165, 0.22330082952976227, 0.020911313593387604, -0.0034844332840293646, -0.09867341071367264, -0.06253639608621597, -0.01104750670492649, -0.032443150877952576, -0.3670293092727661, 0.03303125128149986, -0.0018763723783195019, -0.018085520714521408, -0.09133757650852203, 0.3402014970779419, -0.027848459780216217, -0.3466707766056061, -0.20226480066776276, 0.5148751139640808, 0.024576222524046898, 0.40108251571655273, 0.43802544474601746, 0.10790383070707321, 0.6389693021774292, -0.08819042146205902, -0.4413298964500427, -0.05817744508385658, -0.20132611691951752, -0.16287897527217865, 0.3096880316734314, 0.3678460419178009, -0.25366273522377014, 0.17626720666885376], [-0.11738058179616928, -0.03010237216949463, -0.17269884049892426, 0.14516057074069977, 0.008285760879516602, 0.2931373417377472, -0.08377814292907715, 0.039764899760484695, 0.07578973472118378, 0.07052996754646301, 0.12472930550575256, -0.051746051758527756, -0.7332439422607422, -0.19313152134418488, -0.3004845678806305, 0.3647001385688782, 0.3356657922267914, -0.4312734603881836, -0.012700166553258896, -0.00019887120288331062, -0.24362263083457947, 0.002526909811422229, -0.4292761981487274, 0.5153239369392395, -0.4571068584918976, 0.0761110708117485, 0.005743195302784443, -0.13596075773239136, -0.3451097905635834, -0.2043585479259491, -0.16409102082252502, 0.037214744836091995], [-0.3565835952758789, 0.1030038371682167, 0.14285261929035187, -0.126887708902359, -0.10315132141113281, -0.06738628447055817, 0.18471205234527588, -0.3289329707622528, -0.3869937062263489, 0.04143918305635452, -0.3088334798812866, -0.03302062675356865, 0.148021399974823, 0.3325579762458801, 0.2603244185447693, -0.6491699814796448, 0.12318341434001923, -0.15037868916988373, 0.20467142760753632, -0.34327709674835205, 0.14247913658618927, -0.08062460273504257, -0.5067300796508789, -0.11760670691728592, 0.11549016833305359, -0.06638031452894211, -0.14115457236766815, 0.012814832851290703, 0.4721769392490387, -0.07844316959381104, -0.24873436987400055, -0.1678541600704193], [-0.17861706018447876, -0.2289421707391739, -0.11393284797668457, 0.016847459599375725, 0.27377912402153015, -0.2957007586956024, 0.007241074461489916, -0.4186716675758362, -0.3475605547428131, 0.08026079088449478, -0.1563146412372589, -0.00240720110014081, -0.2582264244556427, -0.07908189296722412, 0.4031635522842407, -0.6875436902046204, 0.17017920315265656, 0.04178689420223236, 0.037176795303821564, 0.07834821939468384, 0.0010561030358076096, 0.04501372575759888, 0.2983769178390503, -0.6108502745628357, -0.5218527317047119, -0.6265594363212585, -0.19171854853630066, 0.46625152230262756, 0.12886732816696167, -0.15202166140079498, -0.20446090400218964, 0.1152164563536644], [-0.08492846041917801, 0.0003774362266995013, -0.06732633709907532, -0.03471951559185982, 0.1610674411058426, 0.4142191410064697, -0.27117934823036194, 0.4309064447879791, 0.28745463490486145, -0.07175368070602417, 0.12854857742786407, 0.005694341380149126, -0.029315004125237465, -0.3304852843284607, -0.11011739075183868, 0.4803828299045563, -0.1155911386013031, -0.38440433144569397, -0.12107124924659729, -0.10553903877735138, -0.2130192369222641, 0.02933349274098873, -0.21835756301879883, 0.1270601451396942, 0.1711275726556778, 0.040152329951524734, 0.10156869888305664, -0.056337520480155945, -0.12594304978847504, -0.13816268742084503, 0.4723634123802185, -0.09596989303827286], [-0.06281908601522446, 0.010487149469554424, 0.2756827175617218, 0.04352330416440964, -0.18654486536979675, 0.2975887358188629, 0.22855040431022644, -0.21052604913711548, -0.6704914569854736, 0.08980026841163635, -0.15979307889938354, -0.12420917302370071, 0.5632604956626892, 0.44112157821655273, 0.03361701965332031, -0.14880284667015076, -0.2191104292869568, -0.15648190677165985, -0.014044892974197865, -0.06107794865965843, 0.08109326660633087, -0.13303343951702118, -0.058343999087810516, -0.7015467286109924, 0.7204498648643494, 0.004055896773934364, -0.016414616256952286, 0.3587917983531952, 0.24534669518470764, -0.023553328588604927, -0.586772620677948, -0.0782531127333641]], "layers.block_1.rec.bias_ih_l0": [0.10008388012647629, 0.1732703298330307, 0.5473112463951111, 0.007895804941654205, -0.17537671327590942, 0.15533122420310974, -0.03531283512711525, 0.42061787843704224, 0.11108717322349548, -0.001593611785210669, -0.0056702010333538055, 0.257907897233963, -0.17434445023536682, 0.18906627595424652, 0.42289069294929504, 0.3870728015899658, -0.12438324093818665, -0.15873759984970093, -0.04197760298848152, 0.40893763303756714, 0.36064791679382324, -0.2548573911190033, 0.22680379450321198, 0.10834690183401108, -0.03113141469657421, 0.29624611139297485, -0.040271807461977005, -0.022265272215008736, -0.01620287261903286, 0.26363232731819153, -0.04130418598651886, -0.16302448511123657, -0.8706802725791931, 0.33354637026786804, -0.6639429926872253, -0.39958950877189636, -0.08621266484260559, -0.01890752464532852, -0.33862635493278503, 1.1370713710784912, -1.2822692394256592, -0.124924436211586, 0.5306392312049866, 0.7829292416572571, 0.001961830072104931, -0.34555429220199585, -0.45283958315849304, 2.0827078819274902, -0.046060364693403244, 0.11133892834186554, -0.4410260021686554, 0.9313942790031433, -0.21796201169490814, -0.2721380889415741, -0.22704558074474335, -0.7228806614875793, -0.46539023518562317, 0.13375313580036163, 0.6761086583137512, -0.16556347906589508, 0.11056014895439148, 0.5014997720718384, 0.03912726044654846, -1.1682196855545044, -0.18023236095905304, -0.0868045762181282, -0.19618162512779236, 0.44012346863746643, 0.06389368325471878, 0.1084907129406929, -0.24390123784542084, -0.07779335975646973, 0.3259187638759613, -0.10191325098276138, 0.31961697340011597, 0.27687084674835205, -0.2003469616174698, -0.28159838914871216, -0.010389703325927258, 0.08437607437372208, 0.026654865592718124, -0.2250460535287857, -0.37191686034202576, 0.04902821406722069, -0.2644427418708801, -0.1318739652633667, -0.3374057412147522, 0.033687524497509, -0.029221901670098305, -0.14389503002166748, 0.05817678943276405, -0.15188585221767426, -0.09420357644557953, -0.19129091501235962, -0.005144114606082439, 0.17415988445281982], "layers.block_1.rec.bias_hh_l0": [-0.007738618180155754, -0.09625832736492157, 0.7161619663238525, -0.037957072257995605, -0.09492228925228119, -0.10256202518939972, -0.04924550652503967, 0.4327557682991028, 0.12611024081707, -0.007760212291032076, 0.2839542329311371, 0.3536911904811859, -0.14840364456176758, 0.2795233428478241, 0.19627010822296143, 0.3378758728504181, -0.04677334427833557, 0.03301373869180679, -0.1453835815191269, 0.33933478593826294, 0.09213411808013916, -0.292050838470459, 0.19821304082870483, 0.2584802508354187, -0.06936958432197571, 0.3570132553577423, 0.06477832049131393, -0.18209032714366913, -0.017518892884254456, 0.2503020465373993, -0.12449079006910324, -0.06871861964464188, -0.8938432931900024, 0.4565412104129791, -0.6208112239837646, -0.35333603620529175, 0.21207575500011444, 0.1466214507818222, -0.27700144052505493, 1.081122636795044, -1.3942114114761353, -0.2915095090866089, 0.4189313054084778, 0.48769646883010864, -0.11723769456148148, -0.3580358624458313, -0.5131499767303467, 2.1142656803131104, -0.0777110755443573, -0.18420080840587616, -0.449161171913147, 1.0762803554534912, 0.029661187902092934, -0.30188655853271484, -0.25524258613586426, -0.6767755150794983, -0.7878015637397766, 0.21569757163524628, 0.6105022430419922, -0.20292286574840546, -0.02119562029838562, 0.5070526599884033, 0.22174978256225586, -1.101205825805664, -0.33562150597572327, 0.10680511593818665, 0.17283369600772858, 0.11453888565301895, 0.21908916532993317, 0.12314990162849426, -0.25946295261383057, -0.1028420478105545, 0.1385398656129837, -0.020580478012561798, 0.4327518045902252, 0.17493456602096558, 0.03969331830739975, -0.09753353893756866, -0.13018274307250977, -0.04258235543966293, 0.31421491503715515, -0.3387153148651123, -0.3766918182373047, 0.030700193718075752, -0.3505750894546509, -0.2707172930240631, 0.03139417618513107, 0.06990526616573334, -0.08017702400684357, -0.23329488933086395, 0.09615568816661835, 0.12718380987644196, -0.16369150578975677, -0.13715074956417084, 0.20398929715156555, -0.009014992043375969], "layers.block_1.lin.weight": [[0.0850309506058693, -0.436674028635025, 0.20746693015098572, -0.16001231968402863, -0.04287871718406677, 0.19178299605846405, 0.2245561182498932, 0.06224474310874939, -0.023538809269666672, -0.2842661142349243, 0.03758780285716057, -0.042011428624391556, 0.011509289965033531, -0.21344420313835144, 0.023597711697220802, 0.01210880745202303, 0.3474729657173157, -0.04621564596891403, -0.3271651566028595, 0.047582242637872696, 0.07775449007749557, -0.1857207715511322, -0.18728584051132202, -0.22555667161941528, 0.6326184272766113, -0.007189474999904633, 0.03873057663440704, 0.024562273174524307, -0.05758718028664589, -0.03226255998015404, -0.029253805056214333, 0.027979815378785133]]}}