{"model_data": {"model": "SimpleRNN", "input_size": 1, "skip": 1, "output_size": 1, "unit_type": "LSTM", "num_layers": 1, "hidden_size": 32, "bias_fl": true}, "state_dict": {"rec.weight_ih_l0": [[0.5879266858100891], [-0.11750826239585876], [0.7934001088142395], [1.2260407209396362], [0.7507466077804565], [-0.4742938280105591], [4.359814643859863], [-0.3720211386680603], [0.1518242508172989], [0.16252818703651428], [-0.81902676820755], [0.7687048316001892], [-0.7568852305412292], [-0.3204790949821472], [0.2656371593475342], [0.6477717757225037], [-0.972654402256012], [0.06853177398443222], [-0.4124160706996918], [0.31039902567863464], [-0.5373427867889404], [0.021166391670703888], [-0.2569722831249237], [0.7156364917755127], [-0.09370455890893936], [-2.17266845703125], [7.917728424072266], [-0.4516640305519104], [0.5178350210189819], [-0.17101137340068817], [-1.0642458200454712], [0.36199378967285156], [0.7225006222724915], [0.4266594350337982], [1.7758325338363647], [2.3905539512634277], [0.8999917507171631], [-3.4324967861175537], [3.338188886642456], [-0.16462251543998718], [0.14727577567100525], [0.15021859109401703], [-0.8554968237876892], [0.25503042340278625], [-1.2226325273513794], [-0.11296027898788452], [0.8581201434135437], [0.5361859202384949], [-1.3901985883712769], [0.14092209935188293], [-0.7544974684715271], [0.040994878858327866], [-0.8752179145812988], [0.05492091551423073], [-0.04412500560283661], [0.6550570726394653], [0.340914249420166], [-0.7317882776260376], [0.7775853872299194], [-1.6857352256774902], [1.3531312942504883], [0.5180693864822388], [-1.3966059684753418], [-0.2797718942165375], [0.9081496596336365], [-1.2445931434631348], [-1.9312876462936401], [1.6409683227539062], [-1.507310152053833], [5.131276607513428], [5.038716793060303], [-0.5465613007545471], [-0.07910164445638657], [0.1056334525346756], [0.577265739440918], [-1.2133138179779053], [-0.6216015815734863], [0.4651699364185333], [0.6435375213623047], [-0.4857528805732727], [-1.4719746112823486], [0.4514080882072449], [-0.9548403024673462], [-0.18636539578437805], [-1.000518798828125], [-0.003775054356083274], [-0.45542022585868835], [0.6508352160453796], [0.5845755934715271], [-2.522296905517578], [2.8420536518096924], [-1.6992206573486328], [-0.1629011482000351], [0.24270163476467133], [2.1336612701416016], [-2.9142792224884033], [1.3715087175369263], [0.2565014064311981], [2.5370922088623047], [3.2755684852600098], [0.9120332598686218], [-1.242444396018982], [2.6800336837768555], [-0.2813204824924469], [0.22936640679836273], [-0.06825204193592072], [-1.9631496667861938], [0.33532944321632385], [-1.0130057334899902], [0.13835376501083374], [1.0095884799957275], [0.868295431137085], [-1.435157299041748], [0.3395259976387024], [-0.6376992464065552], [2.296030044555664], [-1.8216338157653809], [-0.4404349625110626], [0.333861380815506], [1.1226730346679688], [0.13926906883716583], [-2.2853524684906006], [-7.9778056144714355], [-1.860024333000183], [0.6601404547691345], [-0.15545426309108734], [-1.58770751953125], [1.168416142463684]], "rec.weight_hh_l0": [[-0.07817790657281876, -0.2881011366844177, -0.11528950929641724, 0.286835640668869, 0.07427717000246048, 0.029966220259666443, 0.07258723676204681, -0.23196668922901154, -0.19392240047454834, 0.19955207407474518, 0.33776044845581055, 0.050127726048231125, -0.08761880546808243, 0.17335450649261475, 0.08137524873018265, -0.22878222167491913, 0.01012200117111206, 0.2410048097372055, -0.16089659929275513, -0.12806858122348785, 0.02758350409567356, 0.22583472728729248, 0.5034472942352295, 0.20272743701934814, -0.40922704339027405, -0.006602403242141008, 0.49342870712280273, 0.0637863352894783, -0.23108460009098053, 0.09491154551506042, 0.02370857074856758, -0.17694562673568726], [-0.0320863202214241, -0.11411592364311218, 0.12917932868003845, 0.08490338921546936, -0.34978535771369934, -0.3078078627586365, -0.6834393739700317, 0.47827649116516113, 0.19257375597953796, -0.7990686893463135, -0.5013834238052368, 0.23318958282470703, 0.6049631237983704, -0.6793833374977112, -0.1841273009777069, 0.1409296989440918, 0.013557027094066143, -0.8540661334991455, 0.34632763266563416, 0.4291965365409851, 0.12427753210067749, -0.5968594551086426, 0.8046658635139465, -0.7127456068992615, -0.24212568998336792, 0.16035301983356476, -2.258841037750244, 0.39620447158813477, -0.16694965958595276, 0.15957321226596832, -0.4066306948661804, -0.622734010219574], [0.7954182028770447, 0.42486855387687683, -0.6292378902435303, 0.398240327835083, -0.16166135668754578, 0.25953179597854614, 0.9386138319969177, 0.5954393744468689, -0.4691157937049866, -0.8170989155769348, 0.15842431783676147, 2.50515079498291, 0.5071072578430176, -1.0224450826644897, -0.09638562053442001, -0.40129926800727844, 0.4189559519290924, -0.062179140746593475, 0.8642615079879761, 0.13909022510051727, 2.1973283290863037, 2.392897844314575, 0.5044490098953247, 0.5043779611587524, 0.26639387011528015, -1.080219030380249, 1.8421666622161865, 0.1094202846288681, 0.9490970969200134, -0.06213316321372986, 0.5381852388381958, -0.04946673661470413], [0.5468472242355347, 0.020984722301363945, -0.08973868936300278, -0.28914839029312134, -0.23831906914710999, -1.6177960634231567, -1.1726455688476562, 0.09833688288927078, -0.3326643705368042, -0.7573973536491394, -0.13501238822937012, -0.25003400444984436, 0.18924835324287415, -0.4531327784061432, 0.6293274760246277, -0.3177085220813751, 0.3441762924194336, -0.8411621451377869, 0.7948963046073914, 0.36057618260383606, 0.42555150389671326, 1.17378830909729, 0.8138943314552307, -0.0907813087105751, 0.020528901368379593, 0.9233227968215942, 0.7330050468444824, 0.3568636178970337, 0.030499162152409554, -0.038160182535648346, 0.3106248378753662, 0.2592996656894684], [-0.1675574779510498, 0.08086380362510681, 0.021801836788654327, 0.14990198612213135, -0.04671906307339668, 0.3699531853199005, -0.059532441198825836, -0.1645306795835495, 0.17810571193695068, -0.18177779018878937, 0.30819573998451233, 0.13606387376785278, 0.24806973338127136, -0.2713444232940674, -0.348819762468338, -0.0020808095578104258, 0.10650242120027542, 0.039994530379772186, -0.43021148443222046, -0.06319018453359604, 0.09821832925081253, 0.22912351787090302, 0.11140894889831543, -0.05102616548538208, 0.08827751129865646, -0.4486521780490875, 0.5176098346710205, -0.03337017819285393, -0.09147527068853378, 0.08168531954288483, 0.15583552420139313, -0.0865422859787941], [0.9500279426574707, -0.1561744213104248, -1.1902157068252563, 1.8417158126831055, -0.20242251455783844, -3.1902899742126465, -0.9275220036506653, 1.3207145929336548, 0.20945143699645996, -0.19591878354549408, 0.18786326050758362, 1.814900517463684, 0.25973451137542725, 0.27641627192497253, -0.27931639552116394, -1.0230759382247925, 0.9940183758735657, -0.011235716752707958, 0.07246022671461105, -0.8751879334449768, 0.21895748376846313, 1.913638949394226, 1.1262978315353394, 0.9672069549560547, 1.090162992477417, -1.6231706142425537, 0.47749578952789307, 1.8174351453781128, 1.8297916650772095, 0.5515151619911194, -0.26527440547943115, -1.4879645109176636], [1.0672742128372192, 0.27952608466148376, -1.8054760694503784, -1.2153874635696411, -0.7705724835395813, -3.1563429832458496, -1.4321861267089844, 1.5696666240692139, -0.2920599579811096, -0.876502513885498, -0.7413298487663269, 0.6744356155395508, 2.9689717292785645, -1.366560459136963, 0.18799374997615814, -1.444841980934143, 0.4853054881095886, 0.8820512294769287, -0.26254159212112427, 0.4485810697078705, -1.1648248434066772, 4.472140312194824, 2.2799246311187744, 1.1632418632507324, 0.8176608681678772, -0.3384700417518616, 15.836332321166992, 0.03700512647628784, 0.4029882848262787, 0.009434680454432964, 0.5492113828659058, -2.1858553886413574], [-0.2713010311126709, 0.17753343284130096, 0.10946083813905716, -0.4479629397392273, 0.2666506767272949, 0.09935285151004791, -0.2630307972431183, -0.10326138138771057, -0.25373610854148865, -0.04087533429265022, 0.10255368053913116, 0.04823615774512291, 0.2041388601064682, 0.04912753403186798, 0.021990442648530006, -0.09931036829948425, -0.09490671753883362, -0.10101275146007538, -0.12640152871608734, 0.22235505282878876, 0.07685566693544388, -0.11425606906414032, 0.09244611114263535, 0.15099814534187317, -0.3196060359477997, 0.22669297456741333, 0.11979571729898453, -0.02398478239774704, -0.4995808005332947, -0.29111626744270325, 0.08234274387359619, 0.06995280086994171], [-0.23689286410808563, -0.009204455651342869, 0.2840704917907715, -0.41031238436698914, 0.32801368832588196, 0.13786718249320984, -0.25155267119407654, -0.5508549809455872, 0.08636878430843353, -0.10872385650873184, 0.30029767751693726, -0.2576989233493805, -0.30756789445877075, -0.23636896908283234, 0.36488857865333557, -0.1493789106607437, -0.307130366563797, 0.05256689712405205, 0.014382531866431236, 0.3844801187515259, -0.08074881881475449, -0.28722381591796875, 0.2490404099225998, -0.02342500165104866, -0.3009636402130127, -0.1513863354921341, -0.10546670854091644, -0.4432571530342102, -0.09042768180370331, 0.2190229445695877, 0.28076937794685364, -0.1229846328496933], [-0.5368014574050903, 0.28978675603866577, 0.3399401903152466, -0.2868306040763855, 0.597752571105957, 0.020608367398381233, -0.11266481876373291, -0.24701027572155, 0.12580667436122894, -0.07217495143413544, 0.14073634147644043, 0.07056299597024918, -0.2432684302330017, 0.01031897310167551, 0.08753597736358643, 0.4014337658882141, -0.2400050014257431, 0.7606981992721558, -0.36686140298843384, 0.585468590259552, -0.12229320406913757, -0.21527434885501862, 0.15709403157234192, -0.11356852203607559, -0.10179872065782547, -0.12764547765254974, 0.17618249356746674, -0.6882501840591431, -0.4196232855319977, 0.10841023176908493, 0.5106948018074036, -0.06140809878706932], [-0.06658769398927689, -0.3417494297027588, 0.16152438521385193, -0.04967012256383896, 0.05124959722161293, 0.1006663516163826, -0.1838371604681015, -0.2618872821331024, -0.18380525708198547, -0.12237506359815598, 0.007416878826916218, 0.22881056368350983, 0.0727914348244667, -0.41410720348358154, 0.1073264554142952, 0.19721509516239166, -0.20494423806667328, 0.01350160501897335, 0.04160473868250847, -0.32158273458480835, 0.25834739208221436, -0.17604485154151917, -0.013342922553420067, -0.06045451760292053, 0.3122728168964386, -0.1307317316532135, 0.48689988255500793, -0.3624277710914612, -0.006514379754662514, 0.27665480971336365, -0.14866776764392853, 0.1271020621061325], [-0.04744549095630646, -1.8005590438842773, -2.4053168296813965, -0.06721273064613342, -0.268320769071579, -1.8047374486923218, 1.8747646808624268, -0.9679016470909119, 0.11266637593507767, 1.0349503755569458, -0.9284849166870117, -0.8125825524330139, -0.112098827958107, 1.3442052602767944, -0.19779232144355774, -2.6358187198638916, 0.06741923093795776, -0.9860872626304626, -0.8598341345787048, -0.5911901593208313, -1.1391345262527466, -1.5968549251556396, 0.2954031825065613, -0.8906253576278687, -2.0849502086639404, -2.8032310009002686, -2.980539083480835, 0.4063899517059326, -1.3626878261566162, 0.09297753125429153, -0.6148145198822021, 0.6794075965881348], [0.04914375767111778, 0.30318889021873474, 0.15852059423923492, 0.12840503454208374, -0.06996946036815643, -0.2042149305343628, -0.33480313420295715, -0.34203726053237915, 0.24545316398143768, 0.0017776156309992075, -0.19933316111564636, 0.06717304140329361, 0.12992730736732483, 0.32180795073509216, 0.4365236461162567, -0.33132946491241455, -0.07963546365499496, -0.3181992471218109, -0.14502233266830444, -0.4660259187221527, -0.30090487003326416, -0.30995845794677734, 0.451925128698349, -0.006507393438369036, 0.021264372393488884, -0.2551038861274719, 0.183507040143013, 0.15545091032981873, 0.008513147011399269, 0.4840139150619507, -0.067644864320755, 0.1174556240439415], [-0.4052133858203888, 0.37929269671440125, 0.2790948450565338, -0.6286699771881104, 0.2876468300819397, -0.2935638427734375, -0.18012268841266632, -0.453246146440506, 0.28052809834480286, 0.012670760974287987, 0.12473390251398087, -0.003637255635112524, -0.25719091296195984, -0.1148068830370903, 0.12992241978645325, 0.31131866574287415, -0.3782050311565399, -0.18710611760616302, -0.05078235641121864, 0.19906684756278992, 0.014925017952919006, -0.30962318181991577, -0.1161634549498558, -0.3974834382534027, 0.09814616292715073, -0.0430433563888073, -0.05187703296542168, -0.46959683299064636, -0.46592992544174194, 0.1057761013507843, 0.1569063365459442, -0.3496190011501312], [-0.15760254859924316, 0.5113970637321472, 0.22528621554374695, -0.21262183785438538, 0.12092559784650803, 0.02608778327703476, -0.20383423566818237, -0.42043396830558777, 0.4002801179885864, 0.20390214025974274, 0.21051672101020813, -0.14738520979881287, -0.2885265648365021, -0.04705424979329109, -0.1600484699010849, -0.16404327750205994, -0.34734857082366943, -0.013692004606127739, -0.5429133176803589, 0.28621435165405273, -0.020606916397809982, -0.31022951006889343, -0.15468725562095642, -0.32858049869537354, -0.1827968955039978, -0.2363678365945816, 0.31624871492385864, -0.4517136514186859, -0.1782539188861847, 0.47163739800453186, 0.40563568472862244, -0.09297560155391693], [-0.10805290192365646, -0.05567379295825958, 0.10168621689081192, -0.06920129805803299, -0.09515082836151123, 0.9095749258995056, 0.020009802654385567, 0.13218969106674194, 0.2369532436132431, -0.3998952805995941, -0.42202994227409363, -0.035938557237386703, 0.4881003797054291, -0.05250527337193489, -0.3063121438026428, -0.14962667226791382, 0.024528028443455696, 0.173258438706398, 0.04080439358949661, -0.028134411200881004, -0.01154339499771595, 0.1306191235780716, 0.19733260571956635, 0.14838021993637085, -0.07306604087352753, -0.19432342052459717, 1.1041903495788574, -0.24468572437763214, 0.12918539345264435, 0.07596305012702942, -0.20036737620830536, -0.056264035403728485], [0.17357571423053741, -0.329685777425766, 0.23279538750648499, -0.14075623452663422, -0.06348137557506561, -0.2851109802722931, -0.06464413553476334, -0.19276051223278046, -0.1281408965587616, 0.12336251884698868, 0.20086230337619781, 0.22119790315628052, 0.17113560438156128, 0.03416639193892479, 0.36097851395606995, -0.3126834034919739, -0.013062468729913235, 0.4895951449871063, -0.08781831711530685, -0.24286863207817078, -0.3105178475379944, -0.06058685854077339, 0.10727269947528839, -0.13503381609916687, 0.13149596750736237, -0.4767838716506958, 0.5815133452415466, 0.07607924938201904, -0.008924533613026142, -0.13053399324417114, -0.0850081667304039, -0.1613619178533554], [-0.7730476260185242, 0.4489451050758362, 0.08713293075561523, -0.24888919293880463, 0.5403942465782166, -0.061006564646959305, -0.26961639523506165, -0.2525824308395386, 0.6694598197937012, -0.10047829896211624, 0.46260911226272583, -0.16866371035575867, -0.14776070415973663, -0.4943985641002655, 0.020813850685954094, 0.37283894419670105, -0.5522499680519104, 0.010137481614947319, -0.3313470184803009, 0.30241820216178894, -0.4795794188976288, -0.2710478603839874, -0.0580887570977211, -0.3057187497615814, -0.003968689125031233, -0.06695482134819031, 1.4485849142074585, -0.5229244828224182, -0.40796810388565063, 0.4481807053089142, 0.5274815559387207, -0.12277469784021378], [0.3951505422592163, 0.2841496765613556, 0.47132551670074463, -0.09378208965063095, -0.48165133595466614, -0.4931866526603699, -0.38185495138168335, 0.5299995541572571, -0.24299633502960205, 0.3662993907928467, 0.5116387009620667, 1.864951491355896, 0.9233266711235046, -0.18731039762496948, 0.36189165711402893, 0.6050839424133301, 0.47320792078971863, 0.06982700526714325, 0.33314284682273865, 0.807818591594696, 0.06253296881914139, 1.0359638929367065, -2.20257568359375, -0.4613812267780304, 0.5416513085365295, 1.8299742937088013, -1.4708425998687744, 0.5945632457733154, 0.49004045128822327, -2.2211925983428955, -0.33441269397735596, -0.3067660629749298], [0.08635156601667404, 1.7189979553222656, 0.5665075182914734, -0.09371935576200485, 0.305508017539978, 1.8403606414794922, -4.946621417999268, 0.3171963691711426, 1.4464876651763916, -0.533800482749939, 0.10991837829351425, -0.46988508105278015, 1.3638001680374146, 0.21346966922283173, -1.5077251195907593, 1.7073837518692017, 0.05622270703315735, 0.5134568214416504, 0.21880677342414856, 3.376908540725708, 1.0459450483322144, 1.0468065738677979, -2.5021634101867676, 0.6670601963996887, 0.37442901730537415, -1.875807285308838, 0.7044475674629211, 0.35966014862060547, 1.790282130241394, 0.4266786277294159, -2.496502637863159, -1.6980894804000854], [-0.3324594795703888, 0.4316196143627167, 0.25713688135147095, -0.2679663300514221, -0.028291573747992516, 0.1253875195980072, -0.18569539487361908, -0.33636295795440674, 0.04083574190735817, 0.11504480987787247, -0.2694520652294159, -0.1652548760175705, -0.20777200162410736, -0.25000980496406555, -0.22663573920726776, -0.15180185437202454, -0.13674403727054596, -0.3792971670627594, 0.020904643461108208, -0.15337401628494263, 0.009843447245657444, -0.37802377343177795, 0.1634242683649063, -0.10951484739780426, 0.620435893535614, -1.1072993278503418, 0.5966820120811462, -0.32106345891952515, -0.3040836751461029, -0.06953147053718567, 0.12082350999116898, -0.35514697432518005], [0.18745824694633484, 0.0371759757399559, 0.005465298891067505, 0.05116785690188408, 0.4862730801105499, -0.48606547713279724, -0.16189023852348328, 0.17298321425914764, 0.23782691359519958, -0.001456689671613276, -0.4010448455810547, -0.4552478492259979, -0.4280475378036499, 0.015222858637571335, 0.8757545948028564, 0.05807452276349068, -0.014299127273261547, 0.05786255747079849, 0.08036100119352341, 0.06328660249710083, -0.5196483135223389, -0.13270816206932068, -0.11602918058633804, 0.2582073211669922, -0.3035425543785095, 0.29319292306900024, -0.14125244319438934, 0.0969587191939354, -0.3009558320045471, 0.3144296705722809, 0.6470507383346558, -0.0028755103703588247], [-0.29136791825294495, -1.25438392162323, -0.32225340604782104, 0.006538446061313152, 0.42268913984298706, 0.0404418408870697, -0.5795784592628479, -0.49376192688941956, 0.054373230785131454, -0.08200211822986603, -0.7881947755813599, -0.4298388659954071, 0.5442675352096558, -0.42141932249069214, -0.065057672560215, 0.4512258768081665, -0.34370189905166626, 0.5197479128837585, 0.4674045145511627, 1.0720895528793335, 0.2329920381307602, -0.04666520655155182, -0.5566952228546143, -0.5708307027816772, -0.5962016582489014, -0.048739414662122726, 1.279086709022522, -0.029061323031783104, 0.8793726563453674, -0.9968377351760864, -0.539726197719574, -0.5356061458587646], [0.04400843381881714, -0.05908722057938576, 0.3891727924346924, 0.06523772329092026, 0.43684500455856323, 0.1664968729019165, 0.047567687928676605, -0.16888311505317688, -0.2025294452905655, 0.009633966721594334, 0.24332565069198608, -0.25303077697753906, -0.48235300183296204, -0.29591459035873413, 0.051068779081106186, 0.015454755164682865, -0.0011047832667827606, 0.10116946697235107, -0.30112242698669434, -0.1515851467847824, -0.0730055719614029, -0.017255127429962158, 0.19003817439079285, 0.19993296265602112, -0.037978000938892365, 0.10784097015857697, -0.05888530611991882, -0.17775268852710724, -0.4817017912864685, 0.277922660112381, 0.5326223373413086, 0.03546838089823723], [-0.5595072507858276, 0.334132581949234, 0.4359953701496124, -0.3897069990634918, 0.37375298142433167, 0.10893233865499496, -0.4383891820907593, -0.04164360091090202, 0.22372697293758392, 0.32489290833473206, 0.23551811277866364, 0.09882567077875137, -0.36579084396362305, 0.04250557720661163, -0.49831292033195496, -0.10824644565582275, -0.6106809377670288, 0.16366168856620789, -0.5349903106689453, 0.4786013066768646, 0.07459122687578201, -0.10637348145246506, 0.24393917620182037, -0.1841411292552948, 0.010106513276696205, -0.12132618576288223, -0.13279493153095245, -0.5287823677062988, -0.5012907981872559, -0.3967214524745941, 0.1079094260931015, -0.3057034909725189], [1.7563438415527344, -0.24797582626342773, 0.8052168488502502, 1.8148738145828247, -0.19773219525814056, -0.23644237220287323, 4.148571968078613, 0.9479539394378662, -0.07181758433580399, 0.5327486395835876, -0.4771561026573181, 0.09849748015403748, -1.6098368167877197, 0.10738956928253174, 0.69985431432724, 0.17708271741867065, 0.5443482398986816, -0.5706655979156494, 0.7628148198127747, -6.070967197418213, -0.7477066516876221, 0.8838791847229004, -0.45162326097488403, -1.5970433950424194, -1.2380667924880981, -0.24476167559623718, 10.246222496032715, 0.9327467083930969, -0.10556777566671371, -1.2442280054092407, 0.46704918146133423, 1.6929168701171875], [1.5536246299743652, -2.569554328918457, -4.102045059204102, 5.048684597015381, -0.4848063290119171, 5.955357551574707, 13.688728332519531, -1.1611624956130981, -0.3488054573535919, -0.12232537567615509, 2.6545920372009277, 2.2578508853912354, 0.18439964950084686, -0.4829025864601135, 0.936957597732544, -0.3608034551143646, -0.4428071081638336, -0.8786330819129944, 1.4042320251464844, 1.39390230178833, -0.866066575050354, 0.9694796800613403, -0.9340258240699768, 0.8802539110183716, -0.9234709143638611, -10.706175804138184, 23.575836181640625, -2.50960111618042, -0.32963672280311584, -0.38909387588500977, 4.368382453918457, -1.7938238382339478], [0.17826607823371887, -0.7989124655723572, 0.3721294105052948, 0.27138909697532654, 0.1269151121377945, -0.608451247215271, 0.7340186834335327, -0.12026076018810272, 0.29487287998199463, 0.48007065057754517, -0.1362685263156891, 0.6401739120483398, 0.057780053466558456, 0.001862125820480287, 0.8231154680252075, 0.419499009847641, 0.27372437715530396, 0.9171478152275085, 0.8595063090324402, -0.14333336055278778, 0.472809374332428, -0.22972647845745087, -0.31789153814315796, -0.06864717602729797, 0.8030949234962463, -0.04704399034380913, 0.49783962965011597, 0.14678159356117249, 0.4997454583644867, -0.7366037368774414, -0.020597446709871292, -0.4862600862979889], [-0.2429746687412262, 0.7194031476974487, 0.008844069205224514, -0.6169514060020447, 0.14623427391052246, 0.5122614502906799, -0.7040004730224609, -0.30527377128601074, 0.15510331094264984, 0.09702398627996445, 0.1064649373292923, 0.11253021657466888, 0.05853109806776047, 0.019647173583507538, 0.37069466710090637, -0.4185451567173004, -0.5324739813804626, 0.18700692057609558, -0.3566535413265228, 0.6757030487060547, -0.1419830322265625, -0.24041825532913208, 0.22974194586277008, -0.24093300104141235, -0.20890942215919495, 0.0360296294093132, 0.22170300781726837, -0.16177944839000702, -0.12934118509292603, 0.41582369804382324, 0.6777862906455994, -0.2666696012020111], [-0.156105637550354, 0.3818666934967041, 0.07916080951690674, 0.008331846445798874, -0.002318144543096423, -0.27156439423561096, -0.3127260208129883, -0.46193361282348633, -0.09800180792808533, 0.30917203426361084, 0.2530878186225891, -0.3047608435153961, 0.1513908952474594, -0.3397933840751648, -0.20269757509231567, -0.4216390550136566, 0.01165502704679966, 0.058730851858854294, 0.44690194725990295, -0.7482521533966064, -0.2968721091747284, 0.24252153933048248, -0.0013049644185230136, 0.2409547120332718, 0.15985572338104248, -0.06204976141452789, 2.793842315673828, -0.08118611574172974, 0.14478950202465057, 0.21047379076480865, 0.38761261105537415, 0.29983189702033997], [0.008535001426935196, -0.9809510111808777, 0.1657199114561081, 0.9858181476593018, -0.38506707549095154, 0.704648494720459, 1.6632137298583984, -0.24522922933101654, 0.12405642122030258, 0.8233197927474976, -0.0658140629529953, 1.3279368877410889, -0.042674873024225235, -0.1380203366279602, 0.5990675687789917, 0.5918856859207153, 0.1989319622516632, -0.5436099171638489, 0.5113391876220703, -0.39397624135017395, 0.21261826157569885, -0.3365103304386139, -0.6430554389953613, -0.029111718758940697, -0.2348104566335678, 0.8779796957969666, 1.356624722480774, 0.3462155759334564, 0.24009265005588531, -1.1915981769561768, -0.2959999442100525, -0.5565963983535767], [0.7845295667648315, 0.32829248905181885, -0.30637335777282715, 1.5097366571426392, -0.17901994287967682, -1.8364481925964355, -0.7383992075920105, 0.05538635700941086, -0.24146351218223572, 0.12894152104854584, -0.871745228767395, 2.074913263320923, 0.7214258313179016, 0.530579686164856, -0.3186268210411072, -0.3637619614601135, 1.0515726804733276, -0.9986504912376404, -0.4494117200374603, -0.9435834884643555, 1.5219089984893799, 0.9497857093811035, 0.9405607581138611, 0.567368745803833, 1.3204433917999268, -0.6709580421447754, 5.03989315032959, 1.3253101110458374, 0.6546635031700134, 0.14935320615768433, 0.20138241350650787, -0.26040759682655334], [0.11822925508022308, -0.35008013248443604, -0.2701888382434845, 0.1527436077594757, 0.03207296133041382, 0.40498754382133484, -0.0012589782709255815, -0.21874552965164185, -0.22205175459384918, 0.3603799343109131, 0.14141005277633667, 0.3897140920162201, 0.10212608426809311, 0.44835221767425537, 0.5403810739517212, 0.03687320649623871, 0.05086203292012215, 0.08995721489191055, -0.09969833493232727, 0.012705677188932896, 0.37279072403907776, 0.45245322585105896, 0.49504590034484863, 0.012696138583123684, -0.4133438766002655, -0.22475160658359528, 0.20320314168930054, -0.005525642074644566, 0.09761163592338562, -0.2693585157394409, -0.15561296045780182, -0.1453169882297516], [-0.07687410712242126, 0.3490619659423828, 0.2402912825345993, -0.40399169921875, -0.3130517899990082, 0.027550624683499336, -0.568649172782898, -0.0011809016577899456, 0.5249409675598145, -0.12954720854759216, -0.20050831139087677, 0.03215533867478371, 0.12207207828760147, 0.12079276144504547, 0.10012101382017136, -0.22804725170135498, -0.3393251895904541, -0.14621710777282715, 0.4615856409072876, 1.0696345567703247, 0.04571980610489845, -0.7328742742538452, -0.1353534460067749, -0.3085615038871765, -0.08182016015052795, -0.050209663808345795, -0.7625772356987, 0.16804514825344086, -0.20023052394390106, 0.1628139317035675, 0.08842550963163376, -0.2908911406993866], [-0.005011124070733786, 0.08916239440441132, 0.3418411612510681, -0.8412246108055115, -0.439025342464447, 0.7452766299247742, 0.004024683963507414, -0.13231965899467468, -0.09021308273077011, -0.1302810162305832, 0.26998376846313477, -0.363446980714798, 0.11186403781175613, -0.2990783751010895, 0.22037488222122192, 0.3308546543121338, -0.1923144906759262, -0.24190814793109894, 0.4500519037246704, 0.5359829068183899, 0.41817471385002136, 0.24526791274547577, 0.3131946921348572, -0.27819812297821045, -0.0876067504286766, 0.37371957302093506, -0.0946524366736412, -0.2923109829425812, 0.12505146861076355, -0.221215158700943, 0.27542945742607117, -0.35928788781166077], [0.2360573261976242, -0.7694053649902344, 0.30592596530914307, -0.1734885275363922, 0.4799531400203705, 0.22742599248886108, -0.1982768326997757, 0.34003376960754395, -0.22347021102905273, -0.46568694710731506, 0.609906792640686, -0.20315328240394592, -0.33178919553756714, -0.7450749278068542, 1.1146072149276733, -0.07175827026367188, -0.014595282264053822, 0.007015027571469545, -1.2027560472488403, -0.1463354229927063, 0.3790035545825958, 0.13566908240318298, 0.2864021062850952, -0.31896263360977173, -0.3324800729751587, 0.5973798036575317, 0.09454306215047836, -0.04734296351671219, -0.2963489592075348, -0.6251245141029358, 0.5671719908714294, -0.5157793760299683], [0.04603393003344536, 0.11416072398424149, 0.12769658863544464, -0.09434355795383453, -0.40257465839385986, 0.033662326633930206, 0.05838272348046303, 0.11957739293575287, 0.02845102921128273, -0.29749801754951477, 0.14339770376682281, 0.07369071245193481, 0.19637326896190643, -0.05412625893950462, -0.12062285095453262, 0.09292005747556686, 0.22069476544857025, -0.28070247173309326, 0.288569837808609, 0.20056253671646118, 0.5599376559257507, 0.3153253197669983, 0.1671922355890274, 0.002679042285308242, 0.13996276259422302, 0.5166195631027222, 0.2352946400642395, 0.012148999609053135, 0.036534812301397324, -0.16929841041564941, -0.31846868991851807, 7.604682468809187e-05], [-0.09251163899898529, -0.38459187746047974, -0.43178948760032654, -0.23323148488998413, -0.4599369466304779, -0.27942708134651184, 0.5781233310699463, -0.6802783608436584, 0.574191153049469, -0.06930465251207352, -0.38986092805862427, 0.08033076673746109, -0.5527740716934204, 0.14695365726947784, -0.3356635868549347, -0.02809561789035797, -0.4350776970386505, 0.050951696932315826, 0.3776717483997345, -1.0864733457565308, -0.4468004107475281, -0.742436945438385, 0.09616366028785706, 0.30507829785346985, 0.24950630962848663, -0.5034735798835754, 0.03673070669174194, -0.031737301498651505, -0.1560230851173401, -0.11464624851942062, -0.525047242641449, 0.7922907471656799], [-0.400010883808136, -0.3791513741016388, 0.2855064570903778, 1.0017961263656616, -0.11874916404485703, 1.556947112083435, -1.0706380605697632, -0.3667244017124176, -0.31428954005241394, 0.8201731443405151, -0.33401691913604736, -0.40683290362358093, -1.256323218345642, 0.037308964878320694, -1.20754075050354, 0.09429570287466049, -0.15669278800487518, 0.1333101987838745, -1.5515351295471191, 0.28620851039886475, -1.2722804546356201, -0.5525727272033691, 0.24645361304283142, 1.3387433290481567, -0.3120712339878082, 1.4646568298339844, 0.6722161769866943, 0.43606889247894287, -0.6003202795982361, 0.6625114679336548, 0.6234933733940125, 0.1490979939699173], [0.02426399663090706, -0.21776999533176422, 0.2536906599998474, -0.24139951169490814, -0.34382686018943787, -0.11312432587146759, 0.23862232267856598, 0.25024178624153137, -0.12574231624603271, -0.10524184256792068, -0.033923715353012085, 0.012744000181555748, 0.29844942688941956, 0.051126789301633835, 0.2819533050060272, -0.04659171402454376, 0.073579803109169, -0.08990073204040527, 0.24035608768463135, 0.2189987450838089, 0.28732728958129883, -0.04661941155791283, -0.15720628201961517, -0.05537926033139229, -0.35925033688545227, 0.568849503993988, -0.09247994422912598, 0.2472456395626068, -0.2891601324081421, -1.0043617486953735, -0.025855377316474915, -0.17318303883075714], [0.5330367088317871, -0.42160871624946594, -0.0978587418794632, 0.22668398916721344, -0.18870440125465393, 0.012724294327199459, -0.13200539350509644, -0.11270413547754288, -0.22470450401306152, -0.05912449583411217, -0.1214689388871193, -0.035078953951597214, 0.3298529386520386, -0.4114496111869812, 0.3888278901576996, 0.10147743672132492, 0.30263572931289673, -0.32316073775291443, -0.04853944852948189, -0.15521454811096191, 0.3924758732318878, 0.2578274607658386, -0.03522837534546852, 0.03728265315294266, 0.10532067716121674, 0.39936715364456177, 0.0675535574555397, 0.27096936106681824, -0.12298064678907394, -0.39125165343284607, -0.17593754827976227, -0.21609891951084137], [0.521054744720459, -0.6353253126144409, -0.14296770095825195, 0.20451892912387848, -0.8254669308662415, 0.22374141216278076, 0.1458333283662796, 0.5534741878509521, -0.6400650143623352, -0.33388787508010864, -0.5768774747848511, -0.0025616693310439587, 0.5780990123748779, -0.32771432399749756, 0.17718975245952606, -0.18285904824733734, 0.6373698115348816, -0.3446480929851532, 0.4447895586490631, -0.3124796450138092, 0.5776603817939758, 0.5079021453857422, 0.30065691471099854, -0.03026338666677475, 0.11136455833911896, 0.22518251836299896, -0.5134636163711548, 0.6773682236671448, 0.1919425129890442, -0.48700374364852905, -0.435566782951355, -0.23422421514987946], [0.15863004326820374, -0.5161319375038147, 0.010854475200176239, 0.2591245770454407, 0.04839653894305229, -0.11512691527605057, 0.20484869182109833, -0.20965848863124847, -0.1337382048368454, 0.3935464322566986, 0.6353936195373535, -0.266507625579834, -0.17792627215385437, -0.4824776351451874, 0.4588456153869629, 0.3735501766204834, -0.011520890519022942, -0.11267027258872986, -0.46089255809783936, -0.22610609233379364, 0.3855106234550476, 0.04236052185297012, -0.18289513885974884, 0.1848275065422058, 0.39438143372535706, -0.029188597574830055, 0.3445964753627777, -0.19002239406108856, -0.2608933448791504, -0.23476120829582214, -0.0300552137196064, -0.20910970866680145], [-0.44544076919555664, -1.1362913846969604, -0.37803101539611816, 0.5011098980903625, 0.4433291256427765, -0.35007011890411377, 0.49781334400177, -0.14914993941783905, -0.02070472575724125, 0.051997311413288116, 0.9869024753570557, -0.7930057644844055, -0.46112558245658875, 0.16485747694969177, -0.02517382986843586, -0.6102297306060791, 0.11922603845596313, 0.3139396607875824, -0.9898393154144287, -0.8217200040817261, -0.29444631934165955, -0.9617367386817932, 0.03411630168557167, -0.4942157566547394, -0.7917726039886475, -1.6142427921295166, -4.99882698059082, 0.21003872156143188, -0.3416699469089508, 0.7700235843658447, 0.23936858773231506, -0.6357215642929077], [0.027715982869267464, 0.0357116162776947, -0.18451403081417084, 0.09911748021841049, 0.037827350199222565, -0.5592758059501648, -0.33965322375297546, -0.14713498950004578, 0.06871125102043152, 0.08380381017923355, 0.1289646178483963, -0.20499542355537415, 0.23410239815711975, -0.23051901161670685, 0.3457021713256836, 0.19975650310516357, 0.13524094223976135, 0.03662935271859169, -0.06875890493392944, -0.11547964811325073, 0.06714624166488647, -0.23234978318214417, 0.12218224257230759, -0.1160905584692955, 0.10148986428976059, -0.025613056495785713, -0.4891435503959656, 0.11324148625135422, -0.0939273089170456, -0.13830165565013885, -0.4273279011249542, 0.4070746898651123], [0.49639004468917847, -0.27116599678993225, -0.1905025988817215, 0.43277493119239807, -0.3091227412223816, -0.0008792050648480654, 0.06841832399368286, 0.27885574102401733, -0.336643785238266, -0.33444058895111084, -0.16357140243053436, 0.09361781179904938, 0.3399259150028229, -0.44618478417396545, 0.30033671855926514, -0.09653036296367645, 0.5175889134407043, -0.1799117773771286, 0.2635249197483063, -0.3368668258190155, 0.6017221212387085, 0.2950979471206665, -0.003705630311742425, -0.02958313375711441, -0.0632154569029808, 0.3889843821525574, -0.10591864585876465, 0.46056094765663147, 0.24932140111923218, -0.2903381288051605, -0.5312764048576355, 0.23024965822696686], [0.4981154203414917, -0.3749504089355469, -0.31642335653305054, 0.3208563029766083, -0.5439019203186035, -0.10333310812711716, 0.13367809355258942, 0.2321578711271286, 0.0395616851747036, -0.271625816822052, 0.129440039396286, -0.1439676135778427, 0.36679312586784363, -0.14637020230293274, 0.10696054250001907, -0.17628763616085052, 0.5187713503837585, -0.3676028549671173, 0.22201783955097198, -0.22017201781272888, 0.8624445796012878, 0.476070761680603, -0.19691118597984314, -0.4575906991958618, -0.17385005950927734, 0.02068619430065155, -0.3609945774078369, 0.4309837520122528, 0.5330700278282166, -0.20226863026618958, -0.6682971715927124, -0.3675762116909027], [0.42427289485931396, -0.2332547903060913, 0.13544631004333496, -0.16080977022647858, -0.45916110277175903, 0.15409696102142334, 0.24746431410312653, 0.4206893742084503, 0.36911076307296753, -0.31884390115737915, -0.6108462810516357, 0.061732180416584015, 0.27429822087287903, 0.11354688555002213, -0.04939724877476692, -0.11443156749010086, -0.11426839977502823, 0.010446419008076191, 0.09326908737421036, 0.15232472121715546, 1.340806007385254, 0.2401498258113861, 0.1134990006685257, -0.07754828780889511, -0.10009346902370453, -0.09173712879419327, -0.07730650156736374, -0.01334512047469616, -0.08882252871990204, -0.031110769137740135, -0.2068215012550354, -0.42814332246780396], [0.2840556502342224, -0.12394159287214279, 0.11977758258581161, 0.1154371052980423, 0.14177711308002472, -0.4318590760231018, 0.07858266681432724, 0.1392975151538849, -0.20034389197826385, 0.15349875390529633, 0.18909651041030884, 0.4427264928817749, -0.008762942627072334, -0.16838407516479492, 0.17756220698356628, -0.052244916558265686, 0.30340054631233215, 0.29725781083106995, -0.025773674249649048, -0.27101293206214905, -0.26519775390625, -0.038953833281993866, 0.06178824231028557, -0.12332705408334732, 0.15241274237632751, -0.17004218697547913, 0.5501021146774292, 0.260897159576416, 0.3348323106765747, -0.13605159521102905, -0.02816435880959034, -0.1894957274198532], [1.3150399923324585, -0.5617178082466125, -0.6260761618614197, 0.11245682835578918, -1.0710222721099854, -0.10092043876647949, 0.31960374116897583, 0.5393478274345398, -0.4990464746952057, 0.12849117815494537, -0.2781298756599426, 0.4262515604496002, 0.7304302453994751, -0.337925523519516, 0.4971190094947815, -0.47090840339660645, 0.9897918701171875, -0.6069322228431702, 0.4543429911136627, -0.44381365180015564, 0.1921883374452591, 0.5357615351676941, -0.1258828341960907, 0.20197701454162598, -0.03842075914144516, 1.422054648399353, 0.6992999911308289, 0.7442070245742798, 0.2934935688972473, -1.3387970924377441, -0.7907238602638245, -0.2643844485282898], [-0.46195775270462036, -0.6243449449539185, -0.14493335783481598, -0.11772172152996063, 0.35906553268432617, -0.21014158427715302, -0.04183449223637581, -0.7887028455734253, -0.7769511938095093, -0.028830230236053467, 0.8113839030265808, -0.8628548383712769, 0.2862667441368103, -0.3817615211009979, 1.6289223432540894, 0.7340986132621765, -0.43923214077949524, -0.40089064836502075, -0.4677804410457611, -0.4344138503074646, 0.46231749653816223, 0.49109065532684326, -0.5122228264808655, -0.21543164551258087, -0.3299488127231598, 0.3976200819015503, 2.2539877891540527, -0.5748392343521118, -0.8677031397819519, -0.5699392557144165, 0.4524172842502594, -1.0618857145309448], [0.6019477248191833, 0.9654859304428101, 0.37713658809661865, 0.23197726905345917, 0.391884982585907, -0.6358649730682373, -1.0247074365615845, 0.42613863945007324, -0.1974487155675888, -0.341011106967926, -0.6173540353775024, 0.4543023705482483, -0.6188332438468933, -0.11214565485715866, 0.5387712121009827, 0.2664452791213989, 0.40290069580078125, -0.6123740673065186, 0.6931205987930298, -1.4851216077804565, 1.3285577297210693, -0.3670215606689453, 0.38712814450263977, -0.977057158946991, -0.2561015486717224, 1.0190945863723755, 1.6527812480926514, 0.4023531973361969, -0.47689908742904663, -1.3261178731918335, 0.032590318471193314, 1.1530228853225708], [0.27351102232933044, 0.31716564297676086, -0.07597701251506805, 0.04127656668424606, 0.10753064602613449, 0.02419322542846203, 0.09355761855840683, 0.059837937355041504, -0.3476751744747162, -0.23859351873397827, 0.13121609389781952, -0.061220310628414154, -0.06513532251119614, -1.0484920740127563, -0.03030990995466709, -0.03903307393193245, 0.1855257749557495, -0.1279546320438385, -0.1412920206785202, -0.0863368809223175, 0.37318429350852966, -0.013242725282907486, -0.008031859993934631, 0.22811557352542877, 0.1706133782863617, -0.012264263816177845, 0.7524413466453552, 0.19373920559883118, 0.1599954217672348, 0.2566455006599426, -0.15025725960731506, 0.10152612626552582], [0.1310381293296814, 0.27789467573165894, -0.3173970580101013, 0.06366317719221115, 0.28986796736717224, 0.12258092314004898, -0.9986903667449951, 0.08402740210294724, -0.11376307159662247, -0.26500508189201355, -0.2851082384586334, -0.4511547088623047, -0.4249991178512573, 0.06215113028883934, 0.40306147933006287, 0.2117254137992859, -0.015068452805280685, -0.2755470275878906, -0.116138756275177, -0.18095968663692474, -0.20930318534374237, 0.33509600162506104, 0.3511166274547577, 0.1484711468219757, -0.6073363423347473, -0.08287972956895828, -0.8773561120033264, -0.08518002182245255, -0.3453173041343689, -0.7513617873191833, 0.15628263354301453, 6.867043703095987e-05], [0.13082467019557953, -0.006793940905481577, 0.29734668135643005, -0.03438537195324898, 0.21021020412445068, 1.1758520603179932, -0.20700286328792572, -0.3413052260875702, -0.5358121991157532, -0.6266714930534363, -0.9371315836906433, 1.405684471130371, -0.06518717110157013, -0.2701704502105713, -0.07929404824972153, -0.47340068221092224, -0.15706443786621094, 0.05816133692860603, 0.724649965763092, -0.9099410176277161, 0.5274571180343628, -1.1515191793441772, 0.5410517454147339, 0.5706328749656677, 0.5205727219581604, -0.13344421982765198, -6.420278072357178, -0.3828032314777374, 0.21046335995197296, -0.2504940927028656, 0.4168418049812317, 1.5052324533462524], [0.3584051728248596, -0.44872790575027466, 0.3473302125930786, -0.08200972527265549, -0.05919310823082924, 0.23918959498405457, 0.2485255002975464, -0.09066351503133774, -0.16164304316043854, 0.060179453343153, 0.2292948216199875, -0.3301253318786621, 0.036244943737983704, -0.2575945258140564, 0.38742637634277344, 0.4075840413570404, 0.1412547379732132, 0.028765741735696793, -0.060899458825588226, -0.18792493641376495, 0.5643966197967529, 0.13726864755153656, -0.0202791690826416, 0.1125040203332901, 0.1735985279083252, 0.32480981945991516, -0.2371080219745636, 0.0033710282295942307, -0.21644596755504608, 0.1255713701248169, -0.19652916491031647, 0.13146774470806122], [0.8398386240005493, -1.108496069908142, -0.17330513894557953, 0.24041135609149933, -0.4905463755130768, 0.041833046823740005, 0.894954264163971, 0.6891379356384277, -0.4207681715488434, -0.32305431365966797, -0.3985965847969055, 0.009854190982878208, 0.5514718890190125, -0.11491505056619644, -0.14531728625297546, -0.729714572429657, 0.6991308927536011, -0.381723552942276, 0.5050758719444275, -0.8625303506851196, -0.10035745799541473, 0.6728371381759644, -0.26138442754745483, 0.23685616254806519, -0.2779049277305603, 0.9160705208778381, -0.8878321647644043, 0.7348871827125549, 0.47198423743247986, -1.035454273223877, -0.46276146173477173, 0.019710512831807137], [-0.01473795436322689, -0.24947038292884827, 0.39223039150238037, 0.11885986477136612, -0.33557039499282837, 2.972395181655884, -0.4767608940601349, 0.7314916253089905, 0.08588479459285736, -1.0847920179367065, -0.5246148705482483, -4.345083713531494, -0.8193833827972412, 0.3816530704498291, -0.39448025822639465, 0.44750967621803284, -0.6745294332504272, 1.4381295442581177, 0.19853822886943817, 0.8056377172470093, 0.24770569801330566, -0.14884787797927856, 0.151114359498024, -1.036852240562439, -0.676459550857544, 0.8012834191322327, -0.017593782395124435, -1.299899697303772, -2.8715522289276123, -0.4771762788295746, 0.6180927157402039, 1.0290998220443726], [-0.910908579826355, -1.17681086063385, -0.7035303115844727, 0.28087010979652405, 1.2597970962524414, 1.3752418756484985, -1.348253607749939, 1.7490968704223633, 0.14990445971488953, 0.5675535202026367, 0.8465080857276917, 0.025110725313425064, -0.5747592449188232, 0.009902618825435638, 0.326680988073349, 0.4259873926639557, 0.429552286863327, 0.9111856818199158, -1.0366500616073608, 0.8675628900527954, 1.1077579259872437, -1.6510676145553589, 1.093091607093811, -0.47035571932792664, 0.19168980419635773, -0.30845099687576294, 4.874788761138916, -0.3809439241886139, 0.11667439341545105, 0.7722609043121338, 0.9688318371772766, -2.7024590969085693], [-0.048744700849056244, -0.22695641219615936, 0.2935947775840759, 0.25369441509246826, 0.22342002391815186, -0.14444218575954437, 0.6479625105857849, 0.07112647593021393, 0.5161433815956116, -0.1188211590051651, -0.2585706114768982, 0.2732902467250824, -0.0760631337761879, 0.0037370440550148487, -0.15531407296657562, 0.24686375260353088, -0.025362642481923103, 0.1893732100725174, 0.6047512888908386, 0.33021071553230286, 0.2830997705459595, -0.2874341309070587, -0.5976303219795227, -0.13954730331897736, 0.08470777422189713, 0.22647224366664886, 2.0401830673217773, 0.11823149025440216, 0.12071166187524796, 0.1472252905368805, 0.09069888293743134, 0.6052908301353455], [0.7653070092201233, -0.46619755029678345, -0.543042778968811, 0.8005523681640625, -0.6105293035507202, 0.34731757640838623, 0.777664840221405, 0.2717145085334778, -0.4913446605205536, -0.11183688044548035, -0.5829400420188904, -0.2910560965538025, 0.9472125172615051, -0.40717875957489014, 0.5111115574836731, -0.6522557735443115, 0.5473784804344177, 0.038211721926927567, 0.3343794047832489, -0.5547203421592712, 0.5840369462966919, 0.6676421761512756, -0.36309343576431274, 0.3938449025154114, 0.8569926619529724, 0.4006762206554413, 1.2886309623718262, 0.6164695024490356, 0.19641894102096558, 0.061841193586587906, -0.49579179286956787, 0.21658413112163544], [0.3028835654258728, -0.4346313774585724, -0.13467887043952942, 0.1277296245098114, -0.3193335235118866, 0.08166040480136871, 0.2342086285352707, -0.5654634833335876, -0.21918681263923645, 0.7910931706428528, 0.33081284165382385, 0.12460517883300781, -0.05585476756095886, -0.11086870729923248, 0.00032728476799093187, 0.2714786231517792, 0.16145816445350647, -0.08639609068632126, -0.1702115833759308, 0.30015692114830017, 0.23049014806747437, 0.2792637348175049, -0.5370382070541382, -0.041559502482414246, 0.7276551127433777, 0.11444901674985886, 0.21168221533298492, 0.3324863910675049, 0.28445881605148315, -0.38663947582244873, -0.0921957790851593, -0.7111586928367615], [-0.45271143317222595, 0.10174605250358582, -0.052182648330926895, -0.29657506942749023, -0.2877597212791443, 0.4111998677253723, 0.10002882033586502, 0.028265569359064102, 0.330007940530777, -0.20358510315418243, -0.09235823899507523, -0.3895722031593323, 0.305293470621109, -0.148610457777977, 0.05861356109380722, 0.5197432041168213, -0.17685377597808838, -0.022179357707500458, 0.3204836845397949, -0.2742807865142822, 0.22022691369056702, -0.49644869565963745, -0.17284749448299408, 0.14860790967941284, -0.5419076681137085, 0.49285730719566345, 2.016947031021118, 0.15696673095226288, 0.03889453038573265, -0.34791213274002075, -0.5458295345306396, 0.03057871013879776], [0.15691061317920685, 0.528974711894989, 0.704156756401062, -0.00871461071074009, -0.4493659436702728, 0.5963278412818909, -0.18114617466926575, -0.5718388557434082, -0.11806968599557877, 0.19150562584400177, -0.090109683573246, -0.28614363074302673, -0.4171324670314789, 1.0266040563583374, 0.3163970112800598, 0.20464931428432465, -0.25915753841400146, -0.5024746060371399, 0.21363328397274017, 0.028319697827100754, 0.07121028006076813, 0.11815983802080154, 0.15013928711414337, 0.36472246050834656, 0.34542587399482727, 0.7676007747650146, 1.1690196990966797, -0.37623468041419983, -0.07870648056268692, -0.15068122744560242, 0.19140560925006866, 0.9611871242523193], [0.11525024473667145, -0.29487359523773193, -0.11706716567277908, 0.07098839432001114, 0.05296547710895538, -0.06870849430561066, 0.16813203692436218, -0.07359994202852249, -0.17797580361366272, 0.04621847718954086, 0.276663213968277, 0.0784149169921875, 0.23202086985111237, 0.32645007967948914, 0.03226504102349281, 0.01811102405190468, 0.07349299639463425, -0.163270503282547, -0.16792482137680054, 0.24084225296974182, -0.08816942572593689, 0.3061993420124054, 0.45860567688941956, 0.27406495809555054, -0.1358523964881897, -0.1242540180683136, 0.6014780402183533, 0.03354916349053383, -0.1229853630065918, 0.23368650674819946, -0.013264462351799011, -0.15618669986724854], [0.01833147369325161, -0.27073100209236145, 0.3615078926086426, -0.2451801747083664, 0.034448787569999695, -0.2444528341293335, -0.029400963336229324, -0.033215731382369995, -0.051709260791540146, -0.04736191779375076, 0.17564888298511505, -0.07129789888858795, 0.10226213186979294, -0.12889789044857025, -0.27548232674598694, 0.2417549192905426, 0.1892816573381424, 0.1374368667602539, 0.4560185372829437, 0.18347039818763733, 0.18225160241127014, 0.13044272363185883, 0.14113755524158478, -0.21870863437652588, 0.17496146261692047, 0.06074697896838188, -0.32325419783592224, -0.01900656893849373, 0.2080613225698471, -0.08876927196979523, -0.1186719536781311, 0.38450223207473755], [-0.08495690673589706, -0.15984630584716797, -0.20506271719932556, -0.014249363914132118, -0.2797715961933136, 0.08195962011814117, 0.23589946329593658, -0.011354135349392891, 0.47481414675712585, -0.0882996991276741, -0.027491671964526176, 0.05820631608366966, 0.10504050552845001, 0.5093422532081604, 0.34870272874832153, 0.14248274266719818, -0.047236353158950806, 0.27863338589668274, -0.2014559656381607, -0.09999848157167435, 0.1600436568260193, 0.07778871804475784, -0.1746014654636383, -0.06985614448785782, 0.42669522762298584, -0.062196023762226105, 0.5111281871795654, -0.20905382931232452, 0.26221463084220886, 0.07961613684892654, 0.24267065525054932, -0.2332104593515396], [-0.052521638572216034, -0.2334199994802475, -0.16664274036884308, -0.05553698167204857, 0.045786648988723755, -0.17710669338703156, 0.2794797718524933, 0.01991366781294346, -0.48087725043296814, -0.07718969136476517, -0.11373449116945267, 0.028316501528024673, -0.08113659918308258, -0.4473186731338501, -0.4394882321357727, -0.2149561047554016, 0.12856383621692657, -0.07552332431077957, -0.35278764367103577, -0.10424676537513733, 0.04986407607793808, -0.18202614784240723, -0.07645583897829056, 0.18090887367725372, -0.12004595994949341, -0.1942349076271057, 0.2591811418533325, 0.07455652952194214, 0.07506678253412247, 0.053990092128515244, 0.04763976112008095, -0.11710712313652039], [0.031685978174209595, -0.22145947813987732, 0.09690538793802261, 0.044948942959308624, -0.06412682682275772, -0.1448316127061844, -0.07367406785488129, -0.1540030539035797, -0.09760665893554688, -0.12437953799962997, 0.0861911028623581, -0.02407892979681492, -0.15317973494529724, -0.0541185699403286, 0.3927972614765167, 0.0317741334438324, 0.19441600143909454, 0.13170726597309113, 0.11064206808805466, -0.08760149776935577, -0.0703013464808464, -0.0574166476726532, -0.10386870056390762, -0.06525944173336029, -0.05531299486756325, 0.072820745408535, 0.19078387320041656, 0.003302849130704999, 0.15556937456130981, -0.09750283509492874, -0.019297601655125618, 0.11932695657014847], [0.034459006041288376, 0.23905861377716064, -0.037265583872795105, 0.03564576432108879, 0.012870009057223797, -0.38803693652153015, 0.05432478338479996, 0.29234153032302856, -0.6869720220565796, -0.1797710359096527, 0.20187707245349884, 0.006238485686480999, 0.043648239225149155, -0.6449007391929626, -0.5857133269309998, -0.011528903618454933, -0.07990781962871552, -0.5739301443099976, -0.12490402162075043, -0.0784306526184082, 0.606586217880249, 0.03308678790926933, -0.1822930872440338, 0.2899727523326874, -0.4934402108192444, 0.0884312242269516, 1.2032983303070068, -0.13484488427639008, 0.20611830055713654, -0.013689101673662663, -0.2200792282819748, -0.047309521585702896], [0.15211868286132812, -0.44205987453460693, -1.2474372386932373, 1.021606206893921, -0.8572760224342346, 3.470923900604248, 1.066263198852539, 0.050551801919937134, -0.22963103652000427, -0.3970124125480652, 0.8545677661895752, -0.32355451583862305, 0.04416697472333908, -0.5839443206787109, -0.45895883440971375, -0.41049113869667053, -0.3780931234359741, -0.36508235335350037, -1.1831387281417847, -0.12994739413261414, -0.07196132838726044, 0.04228460043668747, -0.0814887136220932, 0.883514940738678, -0.15975278615951538, -1.317838191986084, 0.7424039840698242, -0.5162410736083984, 0.19132672250270844, 0.2376723736524582, 0.7698603868484497, -1.7457761764526367], [-0.16018813848495483, 0.016856037080287933, 0.22637732326984406, -0.01739884540438652, 0.07845516502857208, 0.10878925025463104, 0.03361457586288452, 0.17748302221298218, 0.1002594381570816, -0.4035848081111908, -0.10474982857704163, 0.1021507978439331, 0.1451474279165268, -0.2206346094608307, -0.006750893779098988, 0.16591356694698334, 0.1300152838230133, 0.05614307150244713, 0.2523880898952484, -0.21377047896385193, 0.005492204334586859, 0.07906802743673325, -0.12478650361299515, -0.030246546491980553, -0.059396110475063324, 0.19042223691940308, 0.665386974811554, 0.09660464525222778, -0.17559629678726196, 0.16807599365711212, 0.16730372607707977, 0.13590173423290253], [0.1090221107006073, -0.1614062488079071, 0.06329440325498581, 0.12725089490413666, 0.012281736359000206, -0.022035647183656693, -0.05439012497663498, 0.13129016757011414, 0.05043979734182358, -0.18063995242118835, -0.12289958447217941, 0.09701205790042877, -0.003905912861227989, 0.5205569863319397, -0.10001565515995026, 0.2585182785987854, -0.012779274955391884, -0.10506154596805573, 0.3526166081428528, -0.034701161086559296, 0.008750876411795616, -0.07791224122047424, -0.16105088591575623, -0.20581690967082977, 0.18739309906959534, 0.03604334592819214, -0.02847362495958805, -0.1925107091665268, 0.1606803983449936, -0.08509838581085205, -0.04941088333725929, -0.02830350399017334], [-0.016025006771087646, 0.048667676746845245, -0.14055781066417694, 0.1383933424949646, 0.05463501065969467, 0.4644498825073242, 0.07421568036079407, -0.15609507262706757, -0.10716535896062851, 0.43134498596191406, -0.08884601294994354, 0.08032022416591644, -0.0908847227692604, 0.11203667521476746, -0.006481197662651539, -0.0025892264675348997, 0.05284768342971802, -0.06981724500656128, -0.008297881111502647, -0.06454210728406906, 0.04275007173418999, -0.10946494340896606, -0.04548491910099983, 0.16160355508327484, -0.00952954776585102, -0.10138538479804993, -0.23815597593784332, -0.03403277322649956, -0.05439623072743416, -0.2427205741405487, 0.10833334922790527, -0.032836731523275375], [-0.05190068855881691, 0.2819845378398895, -0.21089708805084229, -0.10543794929981232, 0.3005690574645996, 0.0575440376996994, -0.12413221597671509, 0.0496855154633522, -0.240972101688385, 0.24038809537887573, -0.15940292179584503, 0.13341569900512695, 0.1147226095199585, -0.4342150092124939, -0.004443771671503782, 0.1563418209552765, -0.029121020808815956, -0.10352014005184174, -0.2819649577140808, 0.043078962713479996, -0.1458616554737091, 0.11201871931552887, -0.20204080641269684, 0.008801511488854885, -0.259784072637558, -0.11342942714691162, 0.26807230710983276, 0.050117723643779755, -0.02532554231584072, 0.3912794888019562, -0.003991798497736454, -0.04316162317991257], [-0.13546501100063324, 0.6032885909080505, 0.4407651126384735, 0.20414815843105316, 0.07865829765796661, 0.5746982097625732, 0.2722838819026947, -0.3627971112728119, 0.49829986691474915, -0.2994312345981598, -0.4103494882583618, 0.7015072703361511, 0.1295938789844513, 0.032650336623191833, 0.2862893342971802, 0.1667676568031311, -0.024375595152378082, 0.5940769910812378, 0.7431541085243225, 0.03150837868452072, 0.1317060887813568, -0.1484784334897995, -0.34443211555480957, 0.21665531396865845, 0.8765314221382141, 0.3048788905143738, 1.4629096984863281, -0.10440632700920105, 0.7810337543487549, 0.0024664783850312233, -0.12072627991437912, 0.4175110161304474], [-0.16347262263298035, -0.04616978019475937, 0.09250053018331528, 0.011056981049478054, -0.0789579451084137, 0.0650918185710907, -0.20962803065776825, -0.14701874554157257, 0.1638243943452835, -0.1967223435640335, -0.14530737698078156, 0.12869365513324738, 0.023118603974580765, 0.005422455258667469, -0.31071212887763977, -0.17777733504772186, 0.06348200142383575, 0.16088001430034637, 0.22800467908382416, -0.05477968603372574, 0.3999398946762085, -0.2865181863307953, 0.044144514948129654, 0.3105579912662506, 0.2525751292705536, 0.042951375246047974, -0.4885389506816864, -0.052504315972328186, 0.19102981686592102, -0.01740923896431923, -0.18893423676490784, 0.08029934018850327], [0.10773743689060211, -0.04658802971243858, -0.04915432631969452, -0.003997839987277985, -0.21390555799007416, 0.2527446448802948, 0.0037071029655635357, -0.12475690990686417, 0.01869909279048443, 0.00853782333433628, 0.11769465357065201, -0.03480289503931999, -0.10332359373569489, 0.16855254769325256, 0.30090638995170593, -0.10173703730106354, -0.04029180854558945, 0.224543035030365, -0.1542559713125229, -0.06899300962686539, -0.020390737801790237, -0.05973532795906067, 0.035514816641807556, -0.2229900062084198, -0.10145348310470581, -0.12805519998073578, -0.05383296310901642, 0.025327997282147408, 0.05903089419007301, -0.15006354451179504, -0.0380767323076725, -0.21152514219284058], [0.0937582328915596, -0.033779848366975784, 0.00029383666696958244, 0.058151088654994965, 0.12912121415138245, 0.23920400440692902, 0.08061712235212326, -0.1776556521654129, 0.0704212412238121, 0.02268887683749199, 0.21282126009464264, -0.021966755390167236, -0.08886206895112991, 0.32216018438339233, -0.06946071982383728, 0.037506088614463806, -0.10015184432268143, 0.16609735786914825, -0.1599806547164917, -0.0300710778683424, -0.283100962638855, 0.027682604268193245, -0.0485360287129879, 0.10798099637031555, -0.0728730633854866, -0.16156074404716492, 0.176653191447258, 0.025815945118665695, 0.1556262969970703, 0.09198316186666489, 0.23008833825588226, -0.03800903633236885], [0.1285208761692047, 0.007665657438337803, 0.07823752611875534, -0.27556711435317993, -0.025605792179703712, -0.0486116036772728, 0.14471328258514404, 0.28438615798950195, 0.3599267303943634, 0.04636204242706299, 0.0838407501578331, 0.03934209421277046, -0.09359119087457657, 0.3344862461090088, -0.35375890135765076, -0.02985343150794506, 0.06973659992218018, 0.21771275997161865, 0.31322750449180603, -0.06709863990545273, 0.2953213155269623, -0.39438578486442566, -0.3379357159137726, -0.012153840623795986, 0.1453178972005844, 0.311335951089859, 0.6620966196060181, -0.14285366237163544, 0.10202289372682571, -0.13061000406742096, -0.008325271308422089, 0.15016911923885345], [0.0742897018790245, 0.1000145971775055, 0.1500551551580429, -0.1508304327726364, 0.20362187922000885, 0.07116860151290894, 0.006554755382239819, 0.2559489607810974, -0.15576307475566864, 0.007022073958069086, 0.1747218370437622, 0.08813782781362534, -0.07639144361019135, -0.39533519744873047, 0.40495580434799194, -0.09122981876134872, 0.14010566473007202, 0.30859375, 0.17682236433029175, -0.024316973984241486, 0.20649446547031403, 0.02391449175775051, 0.08242970705032349, -0.3497539758682251, 0.18728162348270416, 0.3445570170879364, 0.49063023924827576, 0.23499323427677155, 0.21813033521175385, -0.47663751244544983, 0.07620973140001297, -0.13371099531650543], [0.14746639132499695, -0.32877588272094727, -0.05005774646997452, 0.07183986157178879, -0.021011877804994583, 0.49699217081069946, 0.23915158212184906, 0.17950811982154846, 0.017946846783161163, 0.01205883827060461, 0.03665270283818245, -0.03951279819011688, -0.02471194602549076, -0.17709805071353912, -0.31207963824272156, 0.05779273435473442, 0.046073559671640396, 0.1768098771572113, 0.07943280786275864, 0.09032583236694336, 0.07641204446554184, -0.08040745556354523, -0.041818227618932724, 0.2667233347892761, 0.22853976488113403, -0.23944637179374695, -0.37275809049606323, -0.31751757860183716, 0.004646243527531624, 0.11277256906032562, 0.19076518714427948, -0.21218997240066528], [0.1928645819425583, 0.10478251427412033, -0.5246253609657288, 0.08021662384271622, -0.6316614747047424, 0.04883166030049324, 0.012485572136938572, -0.1032954603433609, -0.04223004728555679, -0.08511298149824142, -0.19181258976459503, -0.12660105526447296, 0.23623298108577728, 0.4376211166381836, 0.03536875545978546, 0.04560491815209389, -0.17554642260074615, 0.10320696979761124, -0.5417104959487915, -0.2990987002849579, -0.25843673944473267, -0.04738877713680267, -0.21658480167388916, -0.054419174790382385, 0.29705390334129333, -0.4593130052089691, 1.6845132112503052, -0.14031338691711426, 0.028483446687459946, 0.03777952119708061, 0.11819703131914139, -0.1439182311296463], [-0.5966960787773132, -0.1676902025938034, -0.34742143750190735, -0.5250270962715149, 0.18956559896469116, -0.2502853274345398, -0.1948939561843872, -0.05118197947740555, 0.6644907593727112, 0.19884301722049713, 0.525569498538971, 0.43359607458114624, -0.1899254322052002, -0.0711994469165802, -0.37713924050331116, 0.5160355567932129, -0.4178715944290161, -0.3809589743614197, 0.6227959394454956, -0.4422551989555359, 0.599992573261261, 0.2622136175632477, -0.9161378741264343, 0.6960728764533997, -0.12515518069267273, -0.18887139856815338, -1.259864330291748, -0.014278505928814411, -0.11968574672937393, 0.11263091117143631, -0.28642526268959045, -0.4178323447704315], [-0.14005255699157715, 0.22705520689487457, 0.0014366005780175328, -0.0018769631860777736, -0.21027839183807373, -0.2777843177318573, 0.05097007751464844, -0.14135059714317322, -0.20410685241222382, -0.06635663658380508, -0.12129995226860046, 0.009273000992834568, -0.030898714438080788, -0.19648391008377075, -0.2507335841655731, 0.0934751033782959, 0.15916778147220612, 0.1287062019109726, -0.08902349323034286, 0.025730960071086884, -0.19922950863838196, -0.14376728236675262, 0.05991426482796669, 0.13826195895671844, 0.3626697361469269, -0.18517793715000153, 0.30254092812538147, -0.04154164344072342, -0.1242813691496849, -0.3116103410720825, -0.08850287646055222, 0.017934799194335938], [0.20358742773532867, 0.3595579266548157, -0.30541184544563293, -0.11890741437673569, 0.08195836842060089, -0.10642557591199875, -0.21302416920661926, 0.17501503229141235, 0.3490370810031891, -0.17545092105865479, -0.1344612091779709, 0.39298495650291443, -0.12308977544307709, -0.11793078482151031, 0.26342958211898804, -0.19472861289978027, 0.11845362931489944, 0.11459337919950485, -0.7098556756973267, -0.03885870426893234, -0.055385176092386246, 0.1975753903388977, -0.00815377477556467, 0.17086641490459442, 0.022249534726142883, -0.2804047167301178, -0.06294483691453934, 0.011169837787747383, 0.21438872814178467, 0.30562329292297363, 0.13869339227676392, -0.32862693071365356], [0.010168775916099548, 0.3112037777900696, 0.24208004772663116, -0.34242090582847595, 0.4012712240219116, -0.8832621574401855, -1.6524471044540405, -0.15038062632083893, 0.19871750473976135, -0.05342752858996391, -0.3189365565776825, -0.07492105662822723, 0.2605932652950287, 0.09205292910337448, 0.05547056347131729, 0.04645157232880592, 0.23160992562770844, 0.06686059385538101, 0.11953973025083542, 0.06077859178185463, 0.0400833785533905, -0.16191181540489197, 0.40714624524116516, 0.008084271103143692, -0.09324553608894348, 0.8826299905776978, -2.060581922531128, 0.05926169455051422, -0.2190491110086441, -0.05398071929812431, 0.22225581109523773, 0.35701924562454224], [0.045813389122486115, 0.11714338511228561, -0.15262770652770996, 0.04793482646346092, 0.3291761875152588, -0.07909693568944931, -0.279920369386673, -0.011583738960325718, -0.18514493107795715, -0.1000518649816513, 0.3076668679714203, 0.04681458696722984, 0.056123748421669006, -0.24464865028858185, -0.30800682306289673, -0.03674876317381859, 0.13153642416000366, -0.15785370767116547, -0.13806714117527008, -0.07740513235330582, 0.28267988562583923, -0.04569190368056297, 0.015251899138092995, -0.10887902230024338, -0.030374016612768173, 0.30661293864250183, -0.028641581535339355, -0.07848089188337326, 0.05233823508024216, 0.11233223229646683, -0.24889472126960754, 0.06929514557123184], [-0.08429571241140366, -0.12953826785087585, 0.03587805852293968, 0.108476921916008, -0.02126907743513584, 0.1083112508058548, 0.10536591708660126, -0.15241283178329468, -0.01535263191908598, 0.2575620710849762, 0.010985738597810268, -0.008689808659255505, -0.08426328748464584, -0.1240592673420906, -0.07895990461111069, -0.08575510233640671, 0.11885692179203033, -0.22838127613067627, -0.02444021962583065, -0.035279251635074615, 0.007546941749751568, 0.04266611486673355, -0.09588173031806946, -0.07895233482122421, 0.2743740975856781, -0.05886490270495415, 0.6326281428337097, 0.01759599708020687, -0.05442255362868309, 0.0540405698120594, 0.09180835634469986, -0.21801844239234924], [-0.06233058124780655, 0.05604749172925949, 1.1075743436813354, -0.7050178647041321, 0.02855955995619297, -1.930609941482544, 0.4768410325050354, 0.1562618762254715, -0.05779476463794708, 0.3951249122619629, -0.00026926587452180684, -0.6052404642105103, 0.05674547702074051, 0.015114959329366684, 0.07452062517404556, 0.23261107504367828, 0.03824713081121445, 0.4752802848815918, 0.5224187970161438, 0.0044249277561903, 0.36128881573677063, -0.09393497556447983, -0.10024243593215942, -0.3687101900577545, 0.11094480007886887, -1.5449628829956055, 1.301475167274475, -0.18167366087436676, 0.0077921426855027676, -0.794623851776123, 0.163758784532547, 0.7813972234725952], [0.3016919791698456, 0.049615565687417984, -0.6091803312301636, 0.5639634132385254, 0.03755393251776695, 0.683690071105957, 1.7473218441009521, -0.2946487367153168, -0.4890003800392151, -0.23259492218494415, 0.27362722158432007, -0.21037772297859192, -0.10598653554916382, -0.22422194480895996, 0.06669258326292038, -0.386655330657959, -0.2662508487701416, -0.37407052516937256, 0.03675404191017151, 0.16921362280845642, -0.4251551032066345, 0.14020217955112457, -0.018290966749191284, 0.7285106778144836, -0.24539092183113098, -2.0758466720581055, 0.3964155316352844, -0.3759816884994507, -0.10410428792238235, 0.054146770387887955, 0.2347954660654068, -0.8386173844337463], [-0.029604358598589897, -0.3613400161266327, 0.3912389278411865, -0.02513694018125534, 0.17992764711380005, -0.3301236629486084, -0.16068948805332184, 0.09779732674360275, 0.33628013730049133, 0.13329105079174042, -0.09383314847946167, -0.06025798246264458, 0.02830309048295021, -0.0801461786031723, 0.26100897789001465, 0.27246856689453125, 0.07808107137680054, -0.13319805264472961, 0.24074356257915497, 0.03902771323919296, -0.30912888050079346, -0.010591386817395687, -0.22368919849395752, -0.02034791186451912, -0.09645868092775345, -0.010371342301368713, -0.1025824025273323, 0.1408807337284088, -0.10342126339673996, -0.22531704604625702, 0.13183914124965668, 0.1978713870048523], [0.1093963086605072, -0.008683275431394577, -0.07473653554916382, -0.13210749626159668, -0.044111598283052444, 0.13178065419197083, 0.017011744901537895, 0.1487768590450287, -0.17448392510414124, 0.036558426916599274, -0.19382111728191376, -0.022913983091711998, 0.273124635219574, 0.04908531904220581, 0.09907796233892441, -0.12246017158031464, 0.08664900064468384, -0.11540858447551727, -0.08707281947135925, -0.012215969152748585, -0.05111996456980705, 0.07242654263973236, 0.03695429861545563, 0.15882828831672668, 0.2976614236831665, 0.1000986322760582, 0.08454383909702301, -0.12361063063144684, 0.22078293561935425, 0.072880819439888, -0.01881498284637928, 0.010737528093159199], [-0.0683579295873642, -0.058668166399002075, 0.2508029043674469, -0.12368220835924149, 0.28714853525161743, -0.43699005246162415, -0.24665255844593048, 0.2896738052368164, -0.18435612320899963, -0.29553088545799255, -0.19521039724349976, 0.16003844141960144, 0.0014246586943045259, -0.12908770143985748, 0.06372038275003433, -0.18307620286941528, 0.010369865223765373, 0.13557571172714233, -0.16978496313095093, 0.02564099058508873, 0.0161257516592741, 0.26116952300071716, 0.05024135857820511, -0.12704136967658997, -0.1965496838092804, 0.1372014582157135, -0.9445042610168457, 0.1827278435230255, 0.09100116044282913, -0.07279348373413086, -0.1454562395811081, -0.16183947026729584], [-0.0036191551480442286, 0.4913478195667267, -0.25835588574409485, 0.13816283643245697, 0.15360988676548004, -0.08393245935440063, 0.09341114014387131, 0.21580536663532257, -0.11901291459798813, -0.18120570480823517, 0.3279375433921814, -0.12650446593761444, -0.15982912480831146, -0.05431767553091049, 0.13085785508155823, 0.059226930141448975, 0.15271517634391785, -0.3410875201225281, 0.00280323950573802, -0.04060714319348335, -0.06469879299402237, -0.2388310730457306, 0.12040477991104126, 0.3869974911212921, -0.28118425607681274, -0.2537330090999603, -0.16866856813430786, 0.21836122870445251, 0.10127265006303787, 0.20395533740520477, 0.0986521765589714, -0.05170932784676552], [0.2111017405986786, -0.21287786960601807, -0.18130643665790558, 0.1170298233628273, -0.16285225749015808, -0.002305257599800825, 0.31291088461875916, 0.0509747676551342, 0.01257503405213356, -0.10394112765789032, 0.10697237402200699, -0.047542594373226166, -0.1110377237200737, 0.18600554764270782, 0.6194384694099426, -0.06692389398813248, -0.20045125484466553, 0.10041487962007523, -0.18074043095111847, 0.049409378319978714, -0.6658299565315247, 0.08456940948963165, -0.027305928990244865, -0.23447996377944946, 0.2901976406574249, -0.22020503878593445, 1.0003007650375366, -0.18020698428153992, 0.09467701613903046, 0.10467039793729782, -0.17925605177879333, -0.19882723689079285], [0.3646436631679535, -0.6776015758514404, -0.4385617673397064, 0.48792001605033875, -0.22826756536960602, 0.06350848078727722, 0.03278198093175888, -0.31146031618118286, -0.07801120728254318, 0.161253422498703, -0.020709287375211716, -0.03934907168149948, 0.06808663159608841, 0.08550930768251419, 0.293406218290329, -0.46106889843940735, -0.013964176177978516, 0.06782536953687668, 0.2998214662075043, -0.1836915910243988, 0.17262299358844757, 0.4412825405597687, 0.3469680845737457, -0.1059093102812767, -0.0005837706266902387, 0.16346542537212372, 1.3246480226516724, -0.1346435695886612, -0.14101076126098633, -0.01753086782991886, 0.0013578550424426794, -0.11360849440097809], [-0.17155081033706665, 0.3109312355518341, 0.471675843000412, -0.44519278407096863, -0.6319272518157959, 0.4850807785987854, -0.2785452902317047, 0.48053595423698425, 0.270818293094635, -0.7107493281364441, -1.1322317123413086, 0.5599837303161621, 0.18179798126220703, -0.25485002994537354, 0.15674947202205658, 0.6218947172164917, 0.2261248677968979, 0.6433112621307373, 0.43689611554145813, 0.6891167163848877, -0.14592953026294708, -0.5949001908302307, 0.5692625641822815, -0.9116226434707642, -0.2905019223690033, 1.2391834259033203, -3.030179977416992, 0.49589869379997253, -0.12502041459083557, -0.018515989184379578, -0.575530469417572, -0.718639075756073], [1.3885271549224854, 0.09155672043561935, -0.7143835425376892, 0.10683075338602066, -0.8249714970588684, 0.03795139119029045, -0.8632100224494934, 0.08989987522363663, -0.05700179934501648, 0.28689390420913696, -0.3621443808078766, 3.0741987228393555, 0.759454607963562, -1.09529709815979, 0.3518793284893036, -0.6478838920593262, 0.4200509488582611, 0.7722144722938538, 0.42439785599708557, 0.008113496005535126, 2.0893185138702393, 0.46880215406417847, 1.5203444957733154, 1.182597041130066, 0.9724256992340088, -0.2805391550064087, -1.0921509265899658, 0.44626569747924805, 0.8288089036941528, -0.3821532428264618, -0.7414863705635071, -1.183372139930725], [0.6476308703422546, -0.5952649116516113, 0.1149306669831276, 0.14730961620807648, -0.20139050483703613, -1.4060922861099243, -0.6320936679840088, 0.2907579243183136, -0.36606714129447937, -0.48144295811653137, 0.601622462272644, -0.09119030088186264, 0.3183695375919342, -0.9498045444488525, 0.9007213711738586, -0.09847049415111542, 0.023901013657450676, -0.45032480359077454, -0.3632226884365082, 0.04201990365982056, 0.816213846206665, 0.520293653011322, 0.4961862862110138, 0.20906543731689453, 0.30476197600364685, 0.7123591303825378, 0.8431261777877808, 0.22459100186824799, -0.058040767908096313, -0.05427621304988861, 0.10101022571325302, -0.7011928558349609], [0.33861228823661804, 0.13046535849571228, 0.09505107998847961, 0.09021550416946411, -0.5655384063720703, -0.08881326764822006, -0.06542791426181793, 0.23192764818668365, -0.03168707713484764, -0.594138503074646, 0.10094498097896576, 0.06433483213186264, 0.5635564923286438, -0.1810961663722992, 0.2802563011646271, 0.08327925950288773, 0.17087741196155548, -0.5528919100761414, 0.09466466307640076, -0.2326173484325409, 0.26197412610054016, 0.21363556385040283, 0.20277519524097443, -0.19056446850299835, -0.07435785233974457, 0.3237268328666687, 0.2522770166397095, 0.15452249348163605, -0.028136199340224266, -0.26560360193252563, -0.2971857488155365, -0.181736022233963], [0.04022960364818573, -0.686718225479126, 0.921466588973999, 0.5691230297088623, -0.06210406869649887, -1.6558442115783691, -0.5635078549385071, 1.0747686624526978, 0.7836359739303589, -0.36359453201293945, 1.1054120063781738, 5.886754989624023, 0.8124906420707703, -0.7397605180740356, 0.9736737608909607, -0.7242695689201355, 0.8983061909675598, 0.4703991115093231, 1.1555652618408203, 0.09119278192520142, 0.8621619343757629, -0.15686193108558655, 0.4029998779296875, -0.30353888869285583, 0.3308815360069275, 0.08653367310762405, -0.06930552423000336, 1.0507407188415527, 1.3210058212280273, -1.2956030368804932, -0.6558210849761963, -0.25192543864250183], [1.1044856309890747, -1.2150895595550537, 0.1585012972354889, 4.187036037445068, -1.49388587474823, 2.9768667221069336, 5.315452575683594, -0.21024881303310394, 0.19280503690242767, -0.10418358445167542, -0.2517111003398895, 3.44195556640625, 0.05356106534600258, -0.7241377830505371, 0.20026923716068268, -0.11324487626552582, -0.31121712923049927, 1.1792210340499878, -2.6314425468444824, -1.6881786584854126, -0.795792818069458, -0.5580048561096191, 0.3413332998752594, 1.0097371339797974, -0.276589572429657, -1.0918254852294922, 1.4164232015609741, 0.39549630880355835, 1.0131405591964722, 0.5143296718597412, 1.8473544120788574, -0.7969889044761658], [0.05078596621751785, -0.046253859996795654, 0.23726217448711395, -0.40825724601745605, -0.14467792212963104, -0.1524716317653656, -0.22809182107448578, 0.2717758119106293, 0.07529685646295547, -0.40623021125793457, -0.10512654483318329, 0.17429475486278534, 0.2686890661716461, 0.20585279166698456, 0.22719472646713257, 0.026794658973813057, -0.028180187568068504, 0.47441259026527405, 0.5377612113952637, 0.0723441019654274, 0.7324161529541016, -0.09890706092119217, 0.13825814425945282, -0.31209078431129456, -0.4080192446708679, 0.2515380084514618, -0.10755650699138641, -0.2085924744606018, -0.3643658459186554, -0.9179206490516663, 0.00080419349251315, 0.1308661252260208], [0.4560645520687103, -0.17906461656093597, -0.06916273385286331, 0.11413559317588806, -0.1787177473306656, 0.120366670191288, -0.051781412214040756, -0.2893563210964203, -0.4192563593387604, -0.11464500427246094, 0.21259601414203644, 0.0875978022813797, 0.25874000787734985, -0.5005987882614136, 0.5053850412368774, 0.119615338742733, 0.1263616383075714, -0.1981072574853897, -0.00749591737985611, -0.06387202441692352, 0.19101819396018982, 0.1661207675933838, 0.031514301896095276, -0.21177738904953003, 0.031680382788181305, 0.36598441004753113, 0.0644092783331871, -0.019547460600733757, -0.10938774794340134, -0.0007937964983284473, -0.23240898549556732, -0.143492192029953], [-0.25560376048088074, -0.3800158202648163, 0.18066154420375824, 0.06995359808206558, 0.2700716257095337, 0.028585420921444893, 0.14890387654304504, 0.5461266040802002, 0.059080492705106735, -0.4033474624156952, -0.05098869651556015, 0.32372379302978516, 0.236580029129982, -0.04309254512190819, 0.12506578862667084, -0.19466228783130646, 0.003926437348127365, 0.04108240455389023, 0.13713334500789642, -0.04323643818497658, -0.030503593385219574, 0.08197858929634094, 0.024411145597696304, 0.03706112131476402, -0.5172684788703918, 0.13041777908802032, -0.37077969312667847, 0.03346024081110954, 0.08508046716451645, -0.18623293936252594, 0.11214186996221542, 0.08849108219146729], [0.1030939519405365, -0.6660704612731934, -0.2792819142341614, 0.18451888859272003, -0.10695011168718338, -0.28827688097953796, 0.0902058407664299, -0.09127785265445709, -0.22354543209075928, -0.2097083330154419, 0.4793584942817688, -0.2606244385242462, -0.04811382293701172, -0.2579795718193054, 0.34541767835617065, -0.20728668570518494, 0.11877402663230896, -0.5235671997070312, -0.1491297483444214, -0.4941159784793854, 0.061033327132463455, 0.020220626145601273, 0.363689124584198, 0.5926805734634399, 0.18404048681259155, 0.20695166289806366, 2.3235626220703125, 0.11814236640930176, 0.0040962351486086845, 0.30789878964424133, 0.012418664060533047, 0.5625302791595459], [-1.0006513595581055, 0.06846773624420166, 0.5547134876251221, -1.3579308986663818, 0.43203023076057434, -1.0244652032852173, -1.0974164009094238, -0.13884511590003967, 0.15840743482112885, 0.08134067058563232, 0.4244306981563568, 1.7677332162857056, 0.6734644770622253, 0.05451381579041481, -1.1007719039916992, 0.027896137908101082, -0.24415507912635803, -0.5946399569511414, -0.017209410667419434, 0.039120499044656754, 0.5138940215110779, 1.0847842693328857, 0.10130268335342407, -0.18646620213985443, 0.8003590106964111, -0.38249844312667847, -2.350093364715576, -0.19091980159282684, -0.47082579135894775, 0.44229280948638916, -2.3482394218444824, 1.3270307779312134], [0.1771242469549179, -0.05956783518195152, 0.1916625201702118, 0.02081700973212719, 0.3889656364917755, -0.22385016083717346, -0.5135798454284668, -0.08961401879787445, 0.14639519155025482, -0.12599465250968933, -0.1292203664779663, 0.5148451924324036, 0.22845645248889923, -0.1901719719171524, 0.4371887147426605, 0.19844084978103638, 0.0831177607178688, -0.2620392441749573, -0.10008474439382553, 0.13837915658950806, 0.2477220743894577, -0.04884076118469238, -0.18674273788928986, -0.054141584783792496, -0.24146361649036407, 0.5932296514511108, -1.2825069427490234, 0.3999441862106323, 0.10391485691070557, -0.4052159786224365, -0.3248814344406128, 0.6654263138771057], [0.34783342480659485, 0.010199014097452164, 0.03138338774442673, 0.16327086091041565, 0.08311346173286438, 0.32687345147132874, 0.10818787664175034, -0.19377830624580383, -0.1307951658964157, -0.30436092615127563, 0.2296011596918106, 0.10277188569307327, 0.2956482768058777, -0.4099328815937042, 0.6197618246078491, 0.08498671650886536, -0.06791193783283234, -0.009578326717019081, -0.21396267414093018, -0.25647932291030884, 0.6312603950500488, 0.10664719343185425, -0.04481655731797218, -0.15311281383037567, -0.37268367409706116, 0.006004903465509415, -0.44681981205940247, 0.29336556792259216, 0.17780286073684692, -0.0520031563937664, 0.08579780906438828, -0.03910478949546814], [0.18432961404323578, -0.08187256753444672, -0.00142167997546494, -0.04869817569851875, -0.17430120706558228, 0.20849770307540894, 0.0432952456176281, -0.01904122531414032, 0.25763100385665894, 0.0962434709072113, 0.1194908395409584, -0.010144093073904514, -0.1531340330839157, 0.0794014111161232, 0.38296380639076233, 0.07907067239284515, 0.11604882031679153, 0.43202683329582214, 0.045683227479457855, -0.0007446306408382952, -0.21633145213127136, -0.24920406937599182, -0.07984297722578049, -0.13770867884159088, -0.2799767851829529, -0.15132007002830505, -0.15862348675727844, -0.2531309425830841, -0.2857497036457062, -0.26066601276397705, 0.3434639573097229, -0.3217938244342804], [0.017855683341622353, -0.18041187524795532, 0.23409542441368103, 0.09265312552452087, -0.43287837505340576, 1.3038666248321533, 0.4279212951660156, 0.16455678641796112, 0.08688369393348694, -0.35562586784362793, -0.01430104672908783, 0.3150147497653961, -0.10277419537305832, -0.019002320244908333, -0.2564823031425476, 0.22582530975341797, -0.27766358852386475, 0.36657795310020447, -0.09245423227548599, 0.08377492427825928, 0.36375540494918823, -0.19566290080547333, -0.02719930186867714, -0.02410564385354519, -0.1537758708000183, -0.5106584429740906, 1.6085611581802368, -0.0635296180844307, -0.0391768217086792, -0.1387610137462616, -0.5361456274986267, -0.13311706483364105], [0.20644496381282806, -0.4502733051776886, 0.2553326189517975, -0.14751411974430084, 0.2050890326499939, -0.3932567536830902, 0.5142652988433838, -0.16944880783557892, -0.031499311327934265, 0.09644468873739243, -0.08888848125934601, 0.357028990983963, -0.15179628133773804, -0.18939264118671417, 0.4413047730922699, -0.12635397911071777, 0.3061947822570801, 0.12550434470176697, 0.12601418793201447, -0.17181718349456787, -0.30476468801498413, -0.04312693327665329, 0.07268428057432175, -0.19137035310268402, 0.31736892461776733, -0.23481956124305725, 1.4412918090820312, 0.27231365442276, 0.1823120266199112, -0.13699769973754883, 0.15058518946170807, 0.2266373336315155], [0.22434113919734955, -0.027963649481534958, -0.05987108498811722, -0.07857345044612885, 0.28354761004447937, 0.01531977765262127, 0.034773655235767365, -0.05966702848672867, -0.07646463811397552, -0.17876258492469788, 0.34638816118240356, -0.010534997098147869, -0.11879580467939377, -0.18311959505081177, 0.19544941186904907, -0.023594116792082787, -0.10251351445913315, -0.8514529466629028, 0.044473446905612946, 0.04492543637752533, -0.3614768981933594, -0.16806894540786743, 0.07700883597135544, -0.3712036907672882, -0.4982800781726837, 0.33464929461479187, -0.29090026021003723, -0.2677627503871918, -0.4471430480480194, -0.09948337078094482, 0.03190448880195618, -0.2815059721469879], [0.9725590348243713, -0.9101610779762268, -0.60049968957901, 0.37670210003852844, -0.7922792434692383, -1.1662371158599854, 2.0191779136657715, 0.6973834037780762, -0.7579951286315918, -1.0790936946868896, 1.2406116724014282, 1.3210062980651855, 0.640451967716217, -0.7609370350837708, 0.6180078387260437, -1.210695743560791, 0.41371995210647583, -0.9924306273460388, 0.5475396513938904, -0.0797867551445961, -0.07226862758398056, 4.112119674682617, 0.8659545183181763, -0.6524110436439514, 0.6126653552055359, -2.528730869293213, 9.737958908081055, -0.048647183924913406, 0.944870114326477, -0.9136828184127808, 0.5018951296806335, -0.373873233795166], [0.72441565990448, 0.1872050017118454, 0.27063965797424316, 0.46017950773239136, 0.21243901550769806, -0.9133937358856201, 4.594733715057373, 0.6388939023017883, -0.9994744658470154, 0.34685584902763367, -0.25867873430252075, -3.6822197437286377, -1.2688053846359253, 0.556045413017273, -0.7361547946929932, 0.02096858061850071, 0.3907718360424042, -1.2252565622329712, -0.4979187846183777, -1.7596112489700317, -0.19509531557559967, 0.5358749628067017, -0.24064429104328156, 0.4956018328666687, 0.18441709876060486, -0.9376401901245117, 9.230659484863281, -0.03787700831890106, -0.24642546474933624, -1.2079875469207764, -0.06059585139155388, 1.8511598110198975], [-0.1644332855939865, 0.24797622859477997, 0.24043919146060944, 0.03345951437950134, 0.3247971832752228, -0.25043708086013794, -0.014546195045113564, 0.09468299150466919, -0.3275209069252014, -0.02571493573486805, 0.08298077434301376, -0.00862244050949812, -0.08675017952919006, -0.6964696049690247, -0.23183511197566986, 0.194345623254776, -0.004916535224765539, -0.3095160126686096, -0.5408025979995728, 0.31600284576416016, 0.08484625071287155, 0.09096214920282364, -0.139018714427948, 0.452294260263443, 0.08679260313510895, -0.14444619417190552, 0.050897348672151566, 0.19702249765396118, -0.08009977638721466, -0.12713618576526642, 0.23247671127319336, 0.49277040362358093], [0.22132742404937744, 0.008785558864474297, -0.17555896937847137, 0.07547257095575333, 0.44793882966041565, 0.22913295030593872, -1.4770710468292236, 0.10140451043844223, -0.14666828513145447, -0.05585792288184166, -0.2321569323539734, -0.40267497301101685, -0.3756512403488159, -0.16029092669487, 0.6011172533035278, -0.41528043150901794, 0.09580184519290924, -0.3569927215576172, -0.03721723333001137, -0.053876955062150955, -0.22621914744377136, 0.1305127888917923, 0.24764207005500793, 0.35206156969070435, -0.5596296787261963, 0.05304793268442154, -0.907512903213501, -0.0803123340010643, -0.049900397658348083, 0.8247762322425842, 0.38492274284362793, -0.2414642721414566], [-0.2796592712402344, -0.7376776337623596, 1.1840834617614746, 0.8080810904502869, 1.2444289922714233, -1.6468886137008667, 6.381956100463867, -0.26573413610458374, -0.22467289865016937, 0.03800632432103157, 0.4719350039958954, -1.1119569540023804, -0.2922438979148865, 0.08946239203214645, -0.16098353266716003, 0.47935745120048523, 0.19030329585075378, 0.16005448997020721, 0.3076333701610565, 0.05644406005740166, 0.24015770852565765, 0.11306159943342209, -1.2738306522369385, -0.06989719718694687, 0.6163253784179688, 0.5937083959579468, 3.0993783473968506, 0.13518576323986053, 0.9301871657371521, 0.1854945421218872, 1.9081491231918335, -0.02140873670578003], [0.1512567102909088, -0.5337590575218201, 0.21394020318984985, -0.15039730072021484, 0.1651531606912613, 0.013205034658312798, 0.20672474801540375, -0.1643821746110916, -0.4025398790836334, -0.08229096978902817, 0.5890629887580872, -0.013746109791100025, -0.36849233508110046, -0.6776403784751892, 0.6761473417282104, 0.3590105175971985, -0.0276078749448061, 0.36678192019462585, -0.6178370714187622, 0.05408786982297897, 0.4053349196910858, 0.18896150588989258, 0.09402894228696823, -0.2047663778066635, -0.019149765372276306, 0.19995005428791046, -0.29737594723701477, -0.15780748426914215, -0.29295748472213745, -0.24764032661914825, 0.0971539169549942, -0.34072551131248474], [0.2868655323982239, -0.3795298933982849, 0.24760255217552185, 0.16342821717262268, -0.022691423073410988, 0.042514532804489136, -0.03249494358897209, 0.394474595785141, -0.023755867034196854, -0.34338685870170593, -0.26129642128944397, -0.09738345444202423, 0.3733830749988556, -0.20071718096733093, 0.10154953598976135, -0.00026770270778797567, -0.03972393646836281, -0.758828341960907, -0.17404529452323914, 0.0884716659784317, -0.1436406672000885, 0.5602547526359558, -0.21973106265068054, -0.5597111582756042, -0.2302567958831787, 0.31055372953414917, -0.4452627897262573, 0.17578966915607452, 0.3029607832431793, -0.5236936211585999, -0.21330568194389343, -0.1020372062921524], [2.1972293853759766, -1.1236529350280762, 1.2000149488449097, 0.7841704487800598, -1.5782817602157593, -0.9095701575279236, 0.9706787467002869, 0.11516212671995163, -0.800933301448822, -1.1124123334884644, -1.230667233467102, 3.395624876022339, -0.060767658054828644, 0.3195807635784149, -0.4061600863933563, -3.1392602920532227, 0.6037057042121887, 1.6638823747634888, 1.1106288433074951, -1.5284497737884521, 1.3654403686523438, 1.45673406124115, 1.3204008340835571, -0.03586214780807495, 1.739427089691162, -1.233704924583435, 17.131427764892578, -0.22184087336063385, -0.15430283546447754, 0.6042851805686951, -1.0158894062042236, -0.34633544087409973], [-0.5349658727645874, 3.6667163372039795, 4.601161479949951, -2.6148152351379395, 1.7533307075500488, -7.163671016693115, -8.916668891906738, -0.06839395314455032, 2.870328426361084, 0.43918633460998535, -3.4190385341644287, 2.5881288051605225, 1.2341041564941406, -0.6742515563964844, -1.4464722871780396, 2.386824131011963, 1.367045521736145, 0.89549320936203, -0.6150283813476562, -1.9266685247421265, 0.7658735513687134, -4.917928695678711, 5.416931629180908, -2.31071400642395, -0.5225197076797485, 7.817057132720947, -15.234857559204102, 3.8763046264648438, -0.744418740272522, -0.24464735388755798, -1.5302760601043701, 1.2457679510116577], [0.4004092514514923, -0.33241432905197144, 0.00794993992894888, -0.09143152832984924, 0.05117475986480713, -1.7603919506072998, 0.6349558234214783, -0.07021898776292801, -0.16264058649539948, 0.12270434945821762, -0.1834023892879486, -0.03761216998100281, -0.033358845859766006, -0.07186242192983627, 0.13803580403327942, -0.0751357153058052, 0.42176857590675354, -0.5107535123825073, 2.5327939987182617, 0.15410806238651276, 0.5200886130332947, 0.22307507693767548, 0.09865599125623703, -0.09548547863960266, 0.26304152607917786, 0.8214631080627441, 3.8560683727264404, 0.22781364619731903, 0.2908415198326111, -0.5027582049369812, -0.3298969268798828, 1.091912031173706], [0.10092578828334808, -0.4121854603290558, -0.389464795589447, 0.24791017174720764, 0.044627703726291656, 0.8442716598510742, -0.08437182009220123, -0.038687098771333694, -0.00486826803535223, -0.040969789028167725, 0.6010334491729736, 0.2164747416973114, 0.08492171764373779, -0.18589259684085846, -0.4167472720146179, -0.017016692087054253, -0.16070985794067383, -0.42890265583992004, 0.6985961198806763, -0.34701406955718994, 0.4523245394229889, 0.25624290108680725, -0.2512596547603607, 0.07890748232603073, -0.26319554448127747, 0.6855615973472595, -3.262380361557007, 0.052432723343372345, -0.11930570751428604, 0.4167134165763855, -0.13174322247505188, 0.11866118013858795], [0.09130975604057312, 0.024220524355769157, 0.2177557647228241, 0.05985770374536514, 0.026372238993644714, -1.238864541053772, 0.11284050345420837, -0.8518505096435547, -0.5185183882713318, 0.7539075613021851, -0.0398574098944664, 0.3827284276485443, -0.03349637985229492, 0.150940403342247, 0.4630908966064453, 0.03494228795170784, 0.008549359627068043, -0.7148946523666382, 0.6343713402748108, -0.3334806263446808, -0.6927968859672546, -0.05492459237575531, -0.5584081411361694, -0.26201432943344116, 0.587414026260376, 0.637383222579956, 0.8554040789604187, 0.1785941869020462, -0.3270796239376068, -0.041517820209264755, 0.27393639087677, 0.33538445830345154], [0.3155348300933838, -0.8022403717041016, -0.646638810634613, 0.372823566198349, -0.30854275822639465, -0.4962669909000397, 0.034371256828308105, -0.030604327097535133, -0.002423708327114582, 0.6246548295021057, 0.2581959664821625, 0.4537239670753479, 0.42043840885162354, 0.20096571743488312, 0.8374209403991699, 0.6597486734390259, 0.24205581843852997, 0.20502763986587524, 0.8550949096679688, 0.5506289601325989, 0.6993923187255859, 0.457816481590271, 1.074886679649353, 0.10459475219249725, -0.5532938838005066, -0.3861735761165619, 0.9087711572647095, 0.40399712324142456, 0.1511402279138565, -0.6389979720115662, -0.06767003983259201, -0.9419012665748596], [2.1632986068725586, -0.6985114216804504, 0.04333583638072014, -0.04033070430159569, -0.7799374461174011, -0.13884495198726654, 1.1249914169311523, -0.5014748573303223, 0.0513199083507061, 1.1431804895401, 0.19745713472366333, 1.1320692300796509, -0.7434528470039368, 1.041711688041687, 0.27773889899253845, -0.49334514141082764, 0.8904353380203247, 0.8604702949523926, 1.1611913442611694, -0.04002881422638893, -0.4376940429210663, 0.6217806339263916, 0.6474829316139221, 0.48954641819000244, 1.600574016571045, 0.1565755158662796, 3.032066822052002, 0.19771289825439453, 0.6532242298126221, -0.6849453449249268, -0.28301486372947693, 0.46184539794921875]], "rec.bias_ih_l0": [0.01218322105705738, 0.6376386284828186, 0.2702021300792694, 0.4053175151348114, 0.18346117436885834, 0.8067086935043335, 0.8858820796012878, -0.17730967700481415, -0.18197910487651825, -0.39674144983291626, -0.18582844734191895, 0.31871578097343445, -0.1388307511806488, -0.38561728596687317, -0.330282062292099, -0.04626408964395523, 0.24530138075351715, -0.8114048838615417, 0.6850518584251404, 0.32553261518478394, -0.12374867498874664, -0.09027548134326935, 0.0896909311413765, -0.12875507771968842, -0.8212006688117981, 0.27644622325897217, -0.1678902953863144, 0.25966838002204895, -0.4132458567619324, -0.32253703474998474, 0.13009503483772278, 0.4252392649650574, -0.009988132864236832, -0.0040606483817100525, -0.13669510185718536, -0.11349674314260483, 0.15327739715576172, -0.30742359161376953, 0.042732007801532745, 0.29311537742614746, 0.3242407739162445, 0.817358672618866, -0.012359334155917168, 0.2840186059474945, 0.2737227976322174, 0.7735779285430908, 0.5635809302330017, 0.17515668272972107, 0.0005734580336138606, 1.0455422401428223, -0.27333205938339233, -0.1887817084789276, 0.18940132856369019, 0.13351936638355255, -0.24359729886054993, 0.3247590661048889, 0.8317297101020813, -0.25849348306655884, 0.01933622732758522, 0.09081856161355972, 0.5621406435966492, 0.04280456528067589, 0.2618841230869293, -0.024578047916293144, 0.20490215718746185, -0.1219925731420517, -0.0994405522942543, -0.09276677668094635, -0.20071955025196075, -0.12410774827003479, 0.030955733731389046, -0.07522831112146378, 0.03778892382979393, 0.16316521167755127, -0.22021245956420898, -0.05936381593346596, 0.05407734215259552, -0.003150319680571556, 0.07626324892044067, -0.005713602062314749, 0.22846442461013794, -0.11466243118047714, -0.021224573254585266, -0.049624864012002945, -0.05620143190026283, 0.03648629039525986, 0.1769210696220398, -0.05850108712911606, -0.013100765645503998, 0.3356613516807556, 0.18439549207687378, 0.09837392717599869, 0.028405718505382538, -0.06327380239963531, -0.19676685333251953, 0.0008606095216237009, -0.016291333362460136, 0.3882574141025543, 0.6568396091461182, 0.26223838329315186, 0.4707850217819214, 0.4683559238910675, 0.22473594546318054, -0.027922675013542175, 0.028678782284259796, -0.0417829193174839, 0.0785980373620987, -0.2888069152832031, 0.24695150554180145, 0.11295478790998459, 0.18003100156784058, 0.2194233238697052, 0.14551472663879395, 0.024221230298280716, 0.6512959599494934, -0.12103348225355148, -0.10736173391342163, 0.2526346445083618, 0.6094934940338135, 0.079574353992939, 0.3264557719230652, 0.37993893027305603, -0.3063982129096985, 0.2181563675403595, -0.10881291329860687, 0.1765819787979126, 0.43703824281692505, 0.8497487306594849], "rec.bias_hh_l0": [-0.10398106276988983, 0.4452935457229614, 0.5251147747039795, 0.4159506559371948, 0.03624408319592476, 0.7840571999549866, 0.623994767665863, -0.019928686320781708, -0.040987204760313034, -0.5835791826248169, 0.07930495589971542, 0.18940939009189606, -0.02790153957903385, -0.35556289553642273, -0.43291398882865906, 0.01959078758955002, 0.032443054020404816, -0.7261137962341309, 0.7225803136825562, 0.25182393193244934, -0.11898712813854218, 0.1350753754377365, -0.20135442912578583, -0.18097902834415436, -0.6644906997680664, 0.00017376297910232097, 0.04321339726448059, 0.11660575121641159, -0.4917565584182739, -0.32788586616516113, 0.3492274582386017, 0.44817209243774414, 0.08191581070423126, -0.024327820166945457, 0.08790566027164459, -0.1240510568022728, 0.42528653144836426, -0.3576945662498474, 0.2760455310344696, 0.20864896476268768, 0.19029945135116577, 0.6294840574264526, 0.10136402398347855, 0.2703889310359955, 0.18372716009616852, 0.6828937530517578, 0.6302761435508728, 0.15724879503250122, -0.008960356004536152, 1.1258710622787476, -0.2828097343444824, -0.23590171337127686, 0.14451798796653748, 0.1557445228099823, -0.3314976692199707, 0.2640688121318817, 0.8844032883644104, -0.12997540831565857, -0.009148827753961086, 0.21291442215442657, 0.6669151186943054, 0.3059995174407959, 0.035700395703315735, -0.10223525017499924, 0.17704911530017853, -0.34241387248039246, 0.09886224567890167, 0.07520750164985657, -0.09829430282115936, -0.09932772815227509, 0.14949695765972137, 0.08946863561868668, -0.1405930370092392, -0.1756579577922821, 0.03691583126783371, 0.0224117711186409, 0.20510900020599365, -0.04090462252497673, 0.08290240168571472, -0.13270698487758636, 0.2679075300693512, 0.16502681374549866, 0.21013113856315613, -0.07252293080091476, 0.09700324386358261, 0.17452840507030487, -0.12333972752094269, 0.06241505593061447, 0.0007724979659542441, 0.207415372133255, -0.09427081793546677, 0.2389298528432846, -0.07354377955198288, -0.128987655043602, -0.03409001603722572, 0.11246638000011444, 0.15878987312316895, 0.492563396692276, 0.5137702822685242, 0.46797990798950195, 0.24783922731876373, 0.5007549524307251, 0.09740763902664185, -0.10725421458482742, 0.22862857580184937, -0.07928105443716049, 0.2717801630496979, -0.10717814415693283, 0.21259024739265442, 0.10076788812875748, 0.06584350764751434, -0.020772209390997887, 0.15055802464485168, -0.10912760347127914, 0.5579584836959839, -0.238221675157547, -0.13496138155460358, 0.014766587875783443, 0.5438912510871887, 0.03084561601281166, 0.28681546449661255, 0.33697956800460815, -0.3712882697582245, 0.46842190623283386, -0.058104414492845535, 0.03853508457541466, 0.32580092549324036, 0.8183075189590454], "lin.weight": [[-0.03340597823262215, -0.001308344304561615, 0.11683328449726105, -0.04913419112563133, 0.38134539127349854, -0.10986689478158951, -0.00185342226177454, 0.4473680555820465, 0.22434945404529572, 0.021561266854405403, -0.05061916634440422, -0.37679779529571533, 0.5141887664794922, -0.2917989194393158, -0.28754016757011414, 0.3040318191051483, 0.048405375331640244, 0.15311433374881744, 0.3691214323043823, 1.721085548400879, 0.23983240127563477, -0.05523371323943138, 0.9609004259109497, -0.0723082646727562, 0.09373550117015839, -0.2591438889503479, -6.059386730194092, 0.19819308817386627, 0.4717314839363098, -0.3716813027858734, 0.0016936931060627103, -0.20061936974525452]], "lin.bias": [-0.019207214936614037]}}