{"model_data": {"model": "SimpleRNN", "input_size": 1, "skip": 1, "output_size": 1, "unit_type": "GRU", "num_layers": 1, "hidden_size": 64, "bias_fl": true}, "state_dict": {"rec.weight_ih_l0": [[1.3370318412780762], [-0.31820154190063477], [0.078942209482193], [-0.10730495303869247], [-0.8643761873245239], [-0.8014543652534485], [-0.2225034087896347], [-1.3486446142196655], [0.8366523385047913], [-0.7211927175521851], [0.9675635695457458], [-0.029599523171782494], [-0.2711130678653717], [0.08499661833047867], [0.0474390834569931], [-0.14614668488502502], [0.17023396492004395], [-0.565017819404602], [-1.5671554803848267], [0.04661625996232033], [-0.023483579978346825], [0.5924081802368164], [-0.13128221035003662], [0.37601998448371887], [-0.012855153530836105], [0.7134993672370911], [0.45030519366264343], [-2.192216634750366], [2.219569206237793], [2.6907451152801514], [-4.723598003387451], [-2.292158603668213], [-0.991680383682251], [-1.0482535362243652], [-0.47430145740509033], [-1.4355533123016357], [0.20837944746017456], [-0.6204368472099304], [-0.37613046169281006], [0.47015222907066345], [0.2488606721162796], [1.3752633333206177], [-1.636100172996521], [-3.0637238025665283], [0.12073792517185211], [-0.39893120527267456], [0.09679606556892395], [-0.4030785858631134], [-0.6289691925048828], [2.6018452644348145], [-0.22627390921115875], [-2.556037664413452], [-0.36326834559440613], [-3.692225217819214], [0.038882192224264145], [-1.470325231552124], [-0.0011962231947109103], [-0.8749445676803589], [1.4777183532714844], [1.4826265573501587], [1.0240939855575562], [0.06535642594099045], [4.262570381164551], [0.512889564037323], [-0.23612473905086517], [1.0356253385543823], [0.11479919403791428], [-0.2870016098022461], [1.2840077877044678], [-0.028569649904966354], [0.22155030071735382], [1.268276333808899], [2.676440715789795], [-2.3837802410125732], [-1.0732399225234985], [-1.3834857940673828], [-0.7730307579040527], [-0.33579131960868835], [0.3619799017906189], [-0.28279057145118713], [2.276533365249634], [-1.4469813108444214], [-0.13749723136425018], [-0.16406357288360596], [-0.04944603145122528], [-0.6882733106613159], [0.1120663657784462], [-0.05462164804339409], [0.05358564853668213], [-0.6056326031684875], [-0.19765593111515045], [0.30795401334762573], [0.9849628210067749], [0.48899057507514954], [-0.3131919801235199], [-0.5729280114173889], [2.0139873027801514], [1.4078682661056519], [2.745150089263916], [-0.38976725935935974], [0.04877648130059242], [-0.6695914268493652], [0.22620749473571777], [-0.2141479104757309], [0.4718054533004761], [-0.2641568183898926], [-1.335991382598877], [0.7317580580711365], [-0.4550345838069916], [-0.6307859420776367], [0.42920172214508057], [0.3748503029346466], [1.1821821928024292], [0.5329316854476929], [-0.6399216651916504], [-0.022425934672355652], [0.2720836102962494], [0.6834351420402527], [0.03186608850955963], [-1.7543779611587524], [-0.2113029509782791], [-1.0023815631866455], [1.272847056388855], [-0.3325401246547699], [0.530671238899231], [0.019203796982765198], [-0.748714804649353], [1.4128081798553467], [0.22410032153129578], [2.1317808628082275], [0.6730692386627197], [0.2568303048610687], [-0.17754380404949188], [-0.1875195950269699], [-0.7724598050117493], [3.9674296379089355], [-1.0956474542617798], [-0.9868824481964111], [0.07649721205234528], [0.32693833112716675], [-0.4928266704082489], [-0.6350570917129517], [-0.2597663104534149], [-1.0397095680236816], [-0.19339393079280853], [2.076162338256836], [-2.1719303131103516], [-0.2980756461620331], [-0.7032161355018616], [-0.21349699795246124], [0.12842239439487457], [-0.718899667263031], [0.7506832480430603], [-0.07217051088809967], [0.260793000459671], [-2.5379600524902344], [3.1537177562713623], [-2.105656147003174], [3.7915868759155273], [2.6083104610443115], [0.7040818333625793], [8.82593059539795], [-0.030555905774235725], [0.6786310076713562], [0.1811630129814148], [0.014016110450029373], [0.03907100483775139], [0.8398087024688721], [0.14447811245918274], [-0.006997250020503998], [5.988982200622559], [-0.628312349319458], [0.12621742486953735], [-0.3645748794078827], [-0.5915471911430359], [-0.2901463508605957], [-1.2575989961624146], [-3.4161205291748047], [-1.435325026512146], [0.958058774471283], [0.5228796005249023], [4.9236273765563965], [1.1800975799560547], [-0.5257174372673035], [0.12534920871257782], [-0.4109179973602295], [-2.029066801071167], [-3.7767844200134277], [2.342172145843506], [0.2644755244255066], [0.11463425308465958], [0.4645359516143799]], "rec.weight_hh_l0": [[0.3229820728302002, -0.042283795773983, -0.2057928889989853, -0.2772802412509918, -0.05135127529501915, 0.9259500503540039, -0.9033132791519165, -0.9301922917366028, 0.8458914160728455, 0.4016605615615845, -0.21502766013145447, -1.3767067193984985, -0.2753458023071289, 0.31761717796325684, 0.37751495838165283, -0.4321311116218567, -0.408187597990036, -1.101208209991455, 0.03727865219116211, -0.7848215699195862, -0.538081169128418, 0.2500624656677246, 0.11301601678133011, 0.23258677124977112, 0.15094806253910065, 0.9707207679748535, 0.47902098298072815, 0.5869368314743042, 0.1981062889099121, 0.7110878825187683, 0.3856453001499176, -0.43048006296157837, 0.10451740771532059, -0.026608305051922798, -0.7499779462814331, -0.5373339653015137, -0.05791759490966797, -0.20295381546020508, -0.05653863400220871, -0.1014249175786972, -0.41859251260757446, 0.28873685002326965, -0.2149542272090912, 2.795635938644409, 0.17255699634552002, 0.3714279234409332, -0.1843954175710678, -1.6586010456085205, 1.4533836841583252, -0.12051060795783997, 0.7787567377090454, 0.08796137571334839, -0.3065970540046692, -0.0770660936832428, 0.9364024996757507, -0.03595549613237381, -0.4443416893482208, 0.20815812051296234, 1.3984090089797974, 0.2840777039527893, 1.1209146976470947, 0.047101281583309174, -0.5421575903892517, -0.02178642340004444], [0.3233258128166199, 0.2184240221977234, 0.2705797255039215, -0.37899503111839294, 0.0670887902379036, -0.14862060546875, 0.13243675231933594, -0.042337894439697266, 0.10217736661434174, 0.016110816970467567, 0.22874195873737335, -0.0274953655898571, -0.04300732538104057, -0.1884259283542633, -0.5134623646736145, -0.17360690236091614, 0.10303040593862534, -0.09305257350206375, -0.13179057836532593, 0.20347879827022552, -0.08529584109783173, 0.08376963436603546, 0.07162397354841232, -0.47388240694999695, 0.08378778398036957, -0.061705026775598526, -0.023504655808210373, -0.17159488797187805, -0.2635357677936554, 0.1828005611896515, -0.17006628215312958, -0.023048819974064827, 0.0634884461760521, -0.3813677728176117, 0.19674326479434967, 0.18732860684394836, 0.13761655986309052, -0.019043559208512306, -0.4481462240219116, -0.28548285365104675, -0.054580286145210266, -0.06922747939825058, -0.03089090622961521, 0.008947981521487236, 0.033480267971754074, 0.063036248087883, -0.37949827313423157, -0.19842669367790222, 0.11083367466926575, 0.4846813976764679, 0.2755923271179199, -0.016678860411047935, 0.7199923992156982, 0.1265415996313095, -0.1031181737780571, -0.10993552207946777, -0.2960405945777893, 0.2076713889837265, 0.07929378002882004, 0.27922865748405457, -0.04929176717996597, -0.22982940077781677, -0.07576161623001099, -0.2906898856163025], [-0.07259976863861084, -0.5441330075263977, 0.36251482367515564, 0.31798887252807617, 0.052611708641052246, 0.1186121478676796, 0.4769221842288971, 0.2863050401210785, -0.08167746663093567, 0.14162583649158478, -0.08477801829576492, 0.0005379664362408221, 0.09907414764165878, 0.08337683975696564, 0.057933975011110306, -0.09486780315637589, 0.14746001362800598, 0.14947091042995453, -0.2233142852783203, -0.04262847080826759, 0.16469496488571167, -0.10377602279186249, 0.05375758558511734, 0.14123037457466125, -0.008690658025443554, -0.06739470362663269, 0.0006837529363110662, -0.09317450225353241, 0.03837481513619423, -0.04951445758342743, 0.013655506074428558, -0.1870957762002945, 0.12625673413276672, -0.41675129532814026, -0.0026170886121690273, -0.11710242927074432, -0.21544088423252106, -0.031198622658848763, 0.1191876158118248, 0.3460538387298584, -0.18266698718070984, -0.13602644205093384, 0.19279040396213531, 0.1881873607635498, -0.0038488185964524746, -0.07447914034128189, -0.07120338827371597, -0.057618703693151474, -0.027338577434420586, 0.8606614470481873, -0.061354860663414, 0.17789189517498016, 0.19446244835853577, -0.07789954543113708, 0.005361015442758799, -0.07984045892953873, -0.36851057410240173, 0.11830247938632965, 0.025009896606206894, 0.2268776148557663, -0.171905979514122, 0.1644323468208313, -0.011356933042407036, -0.0013275186065584421], [-0.07864811271429062, 0.040279995650053024, -0.02399090677499771, 0.029989037662744522, -0.012480087578296661, 0.11883342266082764, 0.5881959795951843, 0.8927451372146606, -0.40972700715065, -0.006092005874961615, 0.1099168211221695, 0.20512790977954865, 0.5798459649085999, -0.13428741693496704, -0.5443087816238403, -0.04762057960033417, -0.15446890890598297, -0.046260036528110504, -0.5998862385749817, 0.9865139126777649, -0.5459251403808594, -0.6051781177520752, -0.03981227055191994, 0.4675023853778839, 0.1253291517496109, 0.16022223234176636, -0.12909793853759766, -0.15441127121448517, 0.19005002081394196, -0.48066002130508423, -0.2799516022205353, -0.0669916495680809, 0.29455849528312683, 0.09822481870651245, -0.17310985922813416, -0.14023156464099884, -0.7925169467926025, 0.011186229065060616, 0.0978512167930603, -0.2311808466911316, 0.21585974097251892, -0.6919370293617249, -0.4186328649520874, -0.3866184949874878, -0.24398401379585266, -0.6339167952537537, -0.06650423258543015, -0.4988563060760498, -0.44442352652549744, 0.07441555708646774, -0.03385617583990097, 0.025846291333436966, 0.000759841816034168, 0.2497955858707428, -0.37310314178466797, -0.22656157612800598, 0.03992627561092377, 0.056812986731529236, -0.25430750846862793, 0.0582631453871727, 0.13650444149971008, 0.18796221911907196, -0.42173340916633606, 0.0039009174797683954], [0.5804991722106934, 0.2352578043937683, -0.031271565705537796, 0.8997340202331543, 0.8458771109580994, 1.712551236152649, 0.24128945171833038, -0.3972812294960022, -0.059486497193574905, 0.6564786434173584, -0.001198875019326806, -0.8356578946113586, -0.012277481146156788, -0.8569676876068115, 1.125576138496399, 1.4362839460372925, -0.4396023154258728, -0.3932257890701294, -0.46492689847946167, -0.014063089154660702, 0.32817044854164124, 0.3968619406223297, 0.24826979637145996, -0.26718977093696594, -0.28640812635421753, -1.318464756011963, -0.5860253572463989, -0.5818975567817688, 1.0481168031692505, -0.3369911015033722, -0.3149545192718506, 0.7551209330558777, 0.9557999968528748, -1.1961736679077148, -1.2070910930633545, 0.49074384570121765, 1.3637944459915161, -0.1807868927717209, -0.05897504836320877, -0.16939209401607513, -0.05969163402915001, -1.6687531471252441, -1.0624192953109741, 0.0657716765999794, 0.23409722745418549, 0.14193867146968842, 0.5674003958702087, 0.153434619307518, 0.6939175724983215, -0.9711258411407471, -1.6761142015457153, 0.16191832721233368, -0.2772270441055298, 0.10353279858827591, -0.8950067758560181, 0.3671541213989258, 0.4137832224369049, 0.14740467071533203, 0.7956150770187378, -0.22339975833892822, 2.176565170288086, 0.47862035036087036, -0.9294707179069519, -0.38013193011283875], [0.9638770222663879, 0.010065047070384026, -0.13390082120895386, -1.2125657796859741, -0.3544931709766388, -0.7401003241539001, 0.8282963037490845, 0.7442150712013245, -0.25553229451179504, -0.32801151275634766, 0.08400221168994904, 0.16827434301376343, -0.5495364665985107, -0.31388184428215027, -0.91498202085495, 0.44184979796409607, 0.1283121109008789, 0.0637059435248375, 0.2828853726387024, -0.15559498965740204, -0.16263173520565033, -0.48855796456336975, 0.003687629010528326, -0.1316329538822174, -0.15464594960212708, 0.5388759970664978, 0.05172453448176384, -0.4407423138618469, 0.7125054001808167, -0.5264037251472473, -0.4769897758960724, 0.6167160868644714, -0.05207383632659912, -0.08526698499917984, 0.03773293271660805, -0.17936639487743378, -0.10260146111249924, -0.07054352015256882, -0.21226006746292114, -0.1030869409441948, -0.09875134378671646, -0.06109089404344559, -0.2070922553539276, -0.21058732271194458, 0.05155500769615173, 0.5658811926841736, 0.008109471760690212, 0.518852949142456, -0.2393888533115387, 0.4051794111728668, -0.6574253439903259, -0.15143586695194244, -0.20202529430389404, 0.01743212901055813, 0.007078338414430618, 0.3030969202518463, 0.19665637612342834, -0.13564473390579224, -0.4272153377532959, 0.23852264881134033, 0.7484258413314819, -0.2133604735136032, 0.13857850432395935, -0.2763564884662628], [0.16938915848731995, -0.2728397250175476, -0.36060619354248047, -0.07643478363752365, 0.010364672169089317, -0.24035580456256866, 0.11539757996797562, -0.07766649127006531, -0.14648859202861786, 0.0016980352811515331, 0.1563875526189804, -0.07935003191232681, -0.11460218578577042, -0.1712077111005783, -0.3466053307056427, 0.1321939378976822, 0.18858368694782257, -0.32112473249435425, -0.08940106630325317, 0.00415432034060359, -0.1853666454553604, 0.016113562509417534, 0.34324339032173157, 0.10191883146762848, -0.3657795190811157, -0.009502115659415722, 0.15608863532543182, -0.23059462010860443, 0.006668420974165201, 0.5244959592819214, 0.013792148791253567, -0.2728904187679291, 0.25002142786979675, -0.21299302577972412, -0.006411384791135788, 0.058623071759939194, 0.2979312837123871, -0.06147799640893936, -0.3060653805732727, 0.11046336591243744, 0.15369980037212372, 0.18079237639904022, 0.12812088429927826, 0.11769583076238632, 0.23119395971298218, 0.27023833990097046, -0.21469588577747345, -0.0021491239313036203, -0.189602330327034, 0.6911375522613525, 0.13271385431289673, 0.3919447660446167, 0.25987985730171204, 0.40350115299224854, 0.14056576788425446, -0.05963972583413124, -0.27710190415382385, -0.043903645128011703, -0.0054150959476828575, -0.2550528347492218, -0.04688248783349991, -0.4237363636493683, -0.11843425035476685, -0.24288110435009003], [-0.13488590717315674, -0.3439302146434784, -0.15942230820655823, 0.3346657156944275, 0.17052540183067322, -0.022977855056524277, -0.39944612979888916, -0.18603166937828064, -0.30938318371772766, 0.030993666499853134, -0.2902664840221405, 0.3115467429161072, -0.010333463549613953, 0.14097578823566437, 0.20703816413879395, 0.2822279632091522, 0.11250510066747665, 0.0035397300962358713, 0.6347392201423645, -0.8329818844795227, -0.8864786624908447, -0.5565186738967896, -0.5337548851966858, -0.05732725188136101, 0.3357779383659363, 0.20970384776592255, -0.27768945693969727, 0.556574821472168, -0.9456024765968323, 0.7946884632110596, -0.1674191951751709, 0.19642110168933868, -0.11030067503452301, -0.5738404393196106, -0.21872910857200623, -0.4631792902946472, -0.3555893301963806, -0.16617758572101593, 0.3058781921863556, 0.030192675068974495, -0.2543072998523712, -0.2529173791408539, -0.09388711303472519, 0.20557163655757904, -0.15174144506454468, 0.052018824964761734, -0.445374995470047, -0.00565736647695303, -0.4161601662635803, 0.9241281151771545, -0.6245607137680054, 0.034684646874666214, 0.2466215193271637, 0.0972866341471672, -0.5736200213432312, -0.008027389645576477, -0.04360022768378258, 0.5281239151954651, -0.3055112957954407, -0.40986329317092896, -0.0966905951499939, -0.022398648783564568, -0.34334492683410645, 0.4248470366001129], [0.19725599884986877, 0.12394509464502335, -0.24562261998653412, -0.3494497835636139, 0.0017627212218940258, -0.21305634081363678, 0.16151383519172668, 0.09125007688999176, -0.7790149450302124, 0.2589295506477356, -0.16030818223953247, 0.260345458984375, -0.46725204586982727, 0.29623016715049744, 0.8594635725021362, -0.17256039381027222, 0.4329441785812378, -0.06573096662759781, 0.13864845037460327, 0.10606643557548523, -0.45671963691711426, 0.05991344526410103, 0.1069071963429451, 0.0025796005502343178, -0.08161922544240952, -0.14607463777065277, -0.16815462708473206, 0.16612139344215393, 0.2824629545211792, 0.0017758222529664636, -0.2355400174856186, 0.10847499966621399, -0.0020294738933444023, 0.873927652835846, 0.07061725109815598, -0.2540139853954315, -0.1283399760723114, 0.2014857828617096, -0.19974537193775177, -0.42164281010627747, 0.31051433086395264, -0.10437315702438354, 0.6183830499649048, -0.46192798018455505, 0.20104071497917175, 0.41627413034439087, -0.25294163823127747, 0.09799424558877945, 0.08289577066898346, -0.18631191551685333, 0.4236316382884979, -0.3585467040538788, -0.1750555783510208, 0.6185300946235657, 0.2586582899093628, -0.2466566413640976, 0.29142841696739197, 0.18237245082855225, 0.05520235002040863, 0.10557122528553009, 0.5455428957939148, -0.2468700110912323, -0.14217399060726166, -0.07131312042474747], [-0.9185923933982849, -0.43629875779151917, 0.23900586366653442, 0.23729307949543, 0.2061113566160202, 0.624850332736969, -0.014597797766327858, -0.4554635286331177, 0.29696184396743774, 0.7315219640731812, -0.13538245856761932, 0.14007484912872314, 0.6061621904373169, -0.003233078634366393, -0.03970847278833389, 0.30404093861579895, -0.1799616664648056, -0.23868457973003387, 0.4316965341567993, -0.4172678589820862, -0.2668328285217285, 1.2998080253601074, -0.25227218866348267, -0.2339918464422226, -0.015910301357507706, 0.18306279182434082, -0.22865255177021027, 0.4229053854942322, -0.42463409900665283, 0.6828075051307678, -0.385724812746048, -0.2037227749824524, -0.6821467280387878, -0.42928871512413025, -1.243741512298584, -0.7364047765731812, -0.2604729235172272, -0.11804644763469696, 0.17909832298755646, -0.09278040379285812, 0.23987899720668793, 1.2016479969024658, -0.4486234784126282, 0.5496020317077637, -0.4343036413192749, -0.2058119922876358, 0.7263950109481812, 0.19602632522583008, 0.0799018144607544, -0.4495106041431427, 0.195403590798378, -0.09352380037307739, 0.1702556163072586, -0.30451488494873047, -0.003100174944847822, -0.18162500858306885, -0.6640908122062683, 0.022141804918646812, 0.6001712679862976, 0.23153138160705566, -0.15184883773326874, 0.454103022813797, -0.7486959099769592, 0.16158710420131683], [-0.265604704618454, -0.326497346162796, -0.1111634150147438, 0.10730789601802826, -0.04384264349937439, -0.06337300688028336, -0.02598404325544834, -0.2564331293106079, -0.3045000731945038, 0.18616940081119537, -0.05007975921034813, -0.18799036741256714, -0.10023533552885056, -0.13707296550273895, 0.3758189380168915, -0.014780010096728802, -0.1157817393541336, -0.320188969373703, 0.36044594645500183, -0.5694206953048706, 0.06456080079078674, 0.07562461495399475, -0.22463630139827728, -0.030450083315372467, 0.17406675219535828, -0.11948444694280624, 0.13233880698680878, 0.018114667385816574, -1.1494100093841553, 0.6406457424163818, -0.07466868311166763, 0.04009918496012688, 0.17014756798744202, -0.030161229893565178, -0.037735022604465485, -0.03641114383935928, 0.21656012535095215, -0.26848435401916504, -0.14018771052360535, -0.12350954860448837, 0.08277232199907303, 0.19367395341396332, -0.5607886910438538, -0.0556432381272316, 0.19524630904197693, 0.11639317870140076, 0.13195903599262238, 0.18095603585243225, -0.4276787340641022, 0.6990960240364075, 0.14699111878871918, -0.2321668267250061, 0.1462496668100357, -0.2717737555503845, -0.05201299861073494, -0.017472639679908752, -0.22053900361061096, -0.16639681160449982, 0.22229982912540436, 0.0012120218016207218, -0.15924686193466187, 0.32708385586738586, -0.12379290908575058, 0.07933027297258377], [-0.2637653648853302, 0.02632247842848301, -0.08156033605337143, -0.23393666744232178, -0.5014010667800903, 0.715022087097168, 0.17406196892261505, -0.27259206771850586, 0.08647992461919785, -0.40558236837387085, 0.06444240361452103, -0.15434391796588898, -0.5217710733413696, -0.03645182400941849, -0.2632910907268524, 0.20385749638080597, 0.1776876002550125, -0.14088234305381775, -0.24773703515529633, 0.24032768607139587, -0.023184655234217644, -0.24354828894138336, 0.09215520322322845, -0.3770386278629303, -0.012168070301413536, -0.009982720017433167, -0.2675340473651886, -0.4471530020236969, -0.7830414772033691, 0.8643185496330261, -0.0254974402487278, -0.03316685929894447, 0.0427604503929615, 0.13733628392219543, 0.20768779516220093, -0.41148868203163147, -0.07995956391096115, 0.1598265916109085, -0.10422810912132263, -0.10510935634374619, 0.1046011671423912, 1.023680567741394, -0.370039165019989, 0.31303149461746216, 0.21953600645065308, -0.25221988558769226, -0.16806310415267944, 0.28844085335731506, -0.2758128046989441, -0.030450761318206787, 0.3175644874572754, 0.05904323607683182, 0.22605063021183014, 0.09610345214605331, 0.6325018405914307, 0.33659306168556213, 0.31035515666007996, 0.05466633662581444, -0.21766655147075653, -0.029613638296723366, -0.282622754573822, 0.2004980891942978, 0.26318830251693726, 0.11776566505432129], [0.3959316611289978, 0.7777184844017029, -0.050280239433050156, 0.33213362097740173, 0.4461503028869629, 0.3393837809562683, 0.07161346822977066, 0.5390338897705078, -0.6273967623710632, -0.36603251099586487, -0.20020288228988647, 0.03984571248292923, 1.2413266897201538, 0.33271414041519165, 0.8075386881828308, -0.0038112348411232233, 0.21472162008285522, 0.7584242820739746, 0.20774435997009277, -0.09746207296848297, -0.6708393096923828, 0.18066895008087158, 0.07760505378246307, 0.3488333225250244, -0.10948183387517929, 0.4618077576160431, -0.02266284078359604, 0.11377134919166565, 0.5023872256278992, -0.43833500146865845, -0.37382587790489197, 0.4835588335990906, -0.7798541784286499, -0.16306546330451965, 0.20872977375984192, 0.5108583569526672, -0.19381652772426605, -0.27669960260391235, 0.17625322937965393, -0.13490983843803406, -0.38031497597694397, 0.1283324509859085, 0.023550892248749733, -0.14256568253040314, -0.10299044102430344, -0.6428930163383484, -0.047534339129924774, 0.6166768074035645, 0.36868536472320557, 0.07875779271125793, 0.8836032748222351, -0.3403322100639343, 0.19769856333732605, 0.11647772043943405, 0.3842039108276367, -0.2351594716310501, 0.12031625211238861, -0.40487244725227356, -0.39280155301094055, 0.4384545385837555, 0.3578960597515106, -0.006942323874682188, 0.4126964509487152, -0.09730086475610733], [-0.043569862842559814, -0.2658843994140625, -0.23977866768836975, 0.07247958332300186, -0.22943496704101562, 0.01524912379682064, 0.19037707149982452, 0.053822942078113556, -0.29821228981018066, -0.06144188717007637, 0.058702681213617325, 0.14053276181221008, -0.050210390239953995, 0.09341548383235931, -0.2734425961971283, 0.03232765942811966, 0.006066825706511736, -0.38737547397613525, -0.42610713839530945, -0.31532198190689087, -0.15160343050956726, 0.13099010288715363, -0.0399470292031765, -0.15462294220924377, -0.17961743474006653, 0.12106022983789444, -0.21426261961460114, -0.13145513832569122, -0.49560919404029846, 0.7920525670051575, -0.07813223451375961, -0.3023567199707031, -0.025613227859139442, -0.2531822919845581, -0.0025148263666778803, 0.09466981887817383, 0.4717297852039337, 0.09134436398744583, 0.30726033449172974, -0.07861277461051941, -0.08811231702566147, 0.16396518051624298, -0.04081833362579346, -0.2726145088672638, 0.19891244173049927, 0.07177787274122238, 0.3657152056694031, -0.05353818088769913, -0.05182988941669464, 1.0477886199951172, -0.025375140830874443, 0.11754097044467926, 0.003624305361881852, -0.2160598337650299, -0.15928137302398682, 0.04831680655479431, 0.5485578179359436, -0.046163056045770645, 0.484894335269928, 0.4856175184249878, 0.08094239234924316, 0.45549386739730835, -0.07008439302444458, 0.030838238075375557], [-0.20584134757518768, -0.4169759750366211, -0.27904826402664185, 0.2766331434249878, 0.575477659702301, -0.31198936700820923, 0.1471303552389145, 0.5769702792167664, 0.2324349731206894, 0.09799957275390625, -0.1182633638381958, 0.2750559449195862, 0.1246563196182251, -0.5094857811927795, -0.47986873984336853, 0.05714567005634308, 0.3787625730037689, 0.1716126650571823, -0.3189590275287628, 0.18664966523647308, -1.0326980352401733, 0.2087676078081131, -0.0018696525366976857, -0.3671727776527405, 0.1706206500530243, 0.18297018110752106, 0.24725769460201263, 0.6077777147293091, 0.37676626443862915, -0.27924588322639465, 0.4185280501842499, -0.4120333194732666, -0.15948152542114258, 0.020612655207514763, -0.008259285241365433, 0.29039067029953003, 0.19067220389842987, 0.4108596444129944, 0.1404668539762497, -0.6752952337265015, 0.18818017840385437, -0.13543394207954407, 0.17314261198043823, -0.351711243391037, 0.08003983646631241, -0.3264862596988678, 0.40381476283073425, -0.2877781093120575, -0.1798766702413559, 0.10827653110027313, -0.10494004189968109, -0.22235141694545746, 0.1342516392469406, 0.21123509109020233, -0.143253356218338, -0.12737329304218292, -0.14660555124282837, 0.3875217139720917, -0.27413979172706604, -0.09226598590612411, 0.3610197603702545, 0.42084458470344543, 0.051704343408346176, 0.3093341290950775], [-0.305681049823761, 0.2527379095554352, 0.4348944425582886, 2.1255042552948, 0.08208610117435455, -0.9014186859130859, -0.510439932346344, -0.7025318145751953, 0.5718684792518616, 0.8277707099914551, -0.47214052081108093, -0.48549583554267883, -0.23464465141296387, 0.4737067222595215, 1.064433217048645, -0.2635549008846283, -0.17425301671028137, 0.04132429137825966, -0.157663494348526, -0.27363884449005127, 0.042339108884334564, -0.6316922307014465, 0.17561636865139008, 0.19182275235652924, -0.026695802807807922, -0.16260235011577606, 0.5462079644203186, 0.5098769664764404, -0.03821687027812004, 0.18302972614765167, 0.07410348951816559, -1.3024358749389648, 0.002221855567768216, -0.9393699765205383, 0.4045676290988922, 0.3272298574447632, 1.5227314233779907, 0.1476633995771408, -0.39422109723091125, 0.005227246321737766, -0.19711224734783173, -0.5324682593345642, -0.36968767642974854, -0.03404754027724266, -0.3647943437099457, -0.22435466945171356, -0.03378573805093765, 0.42832452058792114, 0.3098975419998169, 0.36541837453842163, -0.09026803821325302, -0.5513933897018433, 0.13530011475086212, -1.0156643390655518, 0.01436933595687151, -0.1304372251033783, -0.23237287998199463, 0.09067562222480774, -0.0035508235450834036, -0.08323164284229279, -0.33386725187301636, -0.4031008183956146, -0.19512967765331268, 0.3234175443649292], [0.4643155038356781, -0.010768711566925049, -0.012646956369280815, 0.514046311378479, 0.40511971712112427, 0.6289122104644775, -0.3746921420097351, 0.20875762403011322, 0.16704405844211578, -0.4211942255496979, 0.030645903199911118, 0.08638092130422592, 0.7530791759490967, -0.01299364399164915, -0.971004068851471, 0.6688948273658752, 1.632020354270935, 0.6684896945953369, -0.19697226583957672, -1.2236673831939697, 0.4530455470085144, -0.017502008005976677, -0.05699343979358673, 0.09197297692298889, 0.33306562900543213, 1.629896879196167, -0.8534625768661499, -0.15885040163993835, 0.17407551407814026, -0.15701469779014587, 0.09902455657720566, 1.168927788734436, -0.8609164953231812, 1.5474823713302612, 0.25991976261138916, -0.39774492383003235, -0.057308219373226166, 0.2522503137588501, 0.40778475999832153, 0.02170085906982422, -0.12844833731651306, -0.19487738609313965, 0.26095306873321533, 0.8260852694511414, 0.003262197831645608, -0.8296438455581665, 0.3070697784423828, 0.6626182198524475, -1.5749436616897583, -0.5142813920974731, -0.8662803769111633, 0.06744634360074997, -0.36927610635757446, 0.6345579624176025, -0.10456908494234085, -0.42991355061531067, -0.6483200788497925, -0.18581196665763855, -1.0670018196105957, -0.3352161645889282, 0.6040319204330444, 0.6423013806343079, 0.5263049006462097, -0.05268540605902672], [-0.5323387384414673, -0.5793115496635437, 0.22806310653686523, -0.13951347768306732, -0.29664522409439087, 0.23303064703941345, -0.04767784848809242, -0.5151476263999939, -0.5619568228721619, 0.5742514729499817, -0.41295021772384644, 0.2947271168231964, 0.5113242864608765, 0.24636316299438477, -0.11159500479698181, -0.20079456269741058, -0.45890772342681885, -0.509916365146637, 0.723622739315033, 0.17080555856227875, -0.209955096244812, 0.03905993327498436, -0.13371852040290833, -0.010142823681235313, 0.13418428599834442, -0.058408886194229126, -0.3530658483505249, 0.43782123923301697, -0.9659916162490845, 0.17840559780597687, -0.3830864429473877, -0.8756412267684937, -0.42110326886177063, -2.5252327919006348, -0.298422247171402, -0.18057391047477722, -0.07896517217159271, 0.030463144183158875, 0.5653570890426636, 0.38683003187179565, 0.4145464599132538, -0.27247706055641174, -0.8083984851837158, 1.5860804319381714, -0.57452392578125, -0.5862999558448792, -0.39334529638290405, 0.21952828764915466, -0.48449376225471497, 1.0555002689361572, -0.0173836350440979, -0.0942435935139656, -0.41035720705986023, -0.4785325527191162, -1.1342120170593262, -0.09289249777793884, -0.9331445097923279, 0.24503470957279205, 0.2754235565662384, 0.9163833260536194, -0.188587948679924, 0.7606834769248962, -0.28699710965156555, -0.0346202626824379], [-0.08535920828580856, 0.09708753973245621, 0.23650416731834412, 0.012174716219305992, 0.02832045778632164, -0.18563030660152435, 0.2023431360721588, 0.11830640584230423, 0.08501408994197845, 0.13320599496364594, 0.1390026956796646, -0.1336929351091385, 0.039309486746788025, 0.09246254712343216, 0.10567160695791245, -0.10531943291425705, -0.012304158881306648, -0.0511745810508728, -0.025588499382138252, 0.4383845031261444, 0.177230104804039, 0.08392394334077835, -0.2201777994632721, 0.031025907024741173, 0.16085980832576752, -0.0448194220662117, 0.08110715448856354, 0.11974232643842697, 0.040708575397729874, 0.3292849659919739, -0.1209196075797081, -0.1294042468070984, -0.002027081558480859, -0.11792713403701782, 0.18854312598705292, -0.08534970134496689, 0.11928809434175491, 0.09688271582126617, -0.37820369005203247, 0.053300030529499054, -0.10997644066810608, 0.0059928251430392265, -0.15994656085968018, 0.10621122270822525, 0.24304348230361938, 0.3913652300834656, 0.235532745718956, -0.21207863092422485, 0.28565993905067444, 0.27477627992630005, 0.016385968774557114, -0.19462312757968903, 0.16029545664787292, 0.14060600101947784, 0.26325753331184387, 0.048837993294000626, -0.09495409578084946, 0.14637255668640137, 0.1640068143606186, 0.09513746947050095, -0.4069666266441345, 0.029515599831938744, -0.09562508761882782, -0.033954277634620667], [0.026048915460705757, 0.10372152924537659, -0.21140748262405396, 0.10790266841650009, 0.11262424290180206, 0.16194428503513336, -0.21174068748950958, 0.31602999567985535, -0.40296241641044617, 0.18090760707855225, -0.09395212680101395, 0.024053383618593216, 0.04765024036169052, 0.029278088361024857, 0.14009082317352295, 0.04742778092622757, 0.03682070970535278, -0.4528769552707672, 0.16119413077831268, 0.2530484199523926, -0.342466801404953, -0.15258918702602386, 0.0663408413529396, -0.23472385108470917, -0.06791945546865463, 0.04174313694238663, -0.03639524430036545, 0.034275781363248825, -0.005726158153265715, -0.1257365345954895, -0.042302556335926056, -0.007990247569978237, -0.20612557232379913, 0.3533988296985626, -0.04280589148402214, 0.14192770421504974, -0.3295825123786926, 0.2471756935119629, -0.24588240683078766, 0.09442500025033951, 0.2506411671638489, -0.22498473525047302, 0.299071341753006, 0.6575554013252258, -0.09362931549549103, 0.12221002578735352, 0.427147775888443, 0.1917518973350525, 0.5473955273628235, -0.07099463045597076, -0.35587456822395325, 0.06337098032236099, 0.0046353875659406185, 0.5034953355789185, -0.1370082050561905, 0.1394137442111969, 0.4509178102016449, 0.06167076528072357, 0.28321537375450134, -0.029392633587121964, 1.006115198135376, 0.19057555496692657, -0.05972401425242424, -0.21207265555858612], [0.0204018447548151, -0.1821584552526474, 0.01618366129696369, 0.2818426191806793, 0.263215035200119, 0.2166534811258316, 0.36821460723876953, 0.08037472516298294, -0.2859853506088257, 0.11618196964263916, 0.01910490356385708, 0.2073247879743576, 0.22821909189224243, -0.24928069114685059, 0.17890991270542145, -0.1171567440032959, 0.2065872997045517, -0.21286091208457947, -0.10181693732738495, -0.17255327105522156, 0.1549624353647232, -0.0032228201162070036, -0.03655081242322922, 0.1974073350429535, -0.16774573922157288, 0.23739977180957794, -0.15345555543899536, 0.02976449765264988, -0.27059298753738403, -0.14542420208454132, -0.2097330540418625, -0.19792573153972626, 0.13565132021903992, -0.07365342229604721, -0.3171738088130951, -0.1113910898566246, -0.023195184767246246, 0.0017008200520649552, 0.14526773989200592, 0.03983176499605179, -0.03722326457500458, -0.08730408549308777, -0.24887841939926147, 0.20148056745529175, -0.080667644739151, -0.16787277162075043, 0.10701914876699448, 0.13397158682346344, 0.01720462739467621, 0.3899913728237152, -0.04258331283926964, 0.09086264669895172, 0.10493901371955872, 0.5196014046669006, -0.16012929379940033, -0.18666042387485504, -0.3008936643600464, 0.02842290699481964, -0.05117668956518173, -0.012921710498631, -0.2871033847332001, 0.14286519587039948, 0.09966950118541718, 0.17682033777236938], [-0.7963312268257141, -0.5809673070907593, 0.2949964106082916, -0.44430696964263916, -0.3134198784828186, -0.27094897627830505, -0.3290841579437256, 0.8465917706489563, 0.38168132305145264, 0.35898610949516296, 0.20021609961986542, -0.08489753305912018, -0.00938442349433899, 0.4475940465927124, -0.3297094702720642, -0.14625686407089233, 0.18153037130832672, 0.8710916042327881, -0.09003067016601562, 0.10639061778783798, -0.26070624589920044, 0.7649726271629333, -0.13591155409812927, 0.7846431136131287, 0.33436185121536255, -0.5961183905601501, -0.9916856288909912, 0.08981499075889587, -0.26110610365867615, 0.005032312124967575, 0.21456795930862427, 0.5538986325263977, -0.18303628265857697, 0.6049620509147644, -0.9482642412185669, 0.13270816206932068, 0.7227063775062561, 0.7684929966926575, -0.2546771764755249, 0.0474095344543457, -0.26617828011512756, -0.23845547437667847, 0.22187814116477966, 0.9255642294883728, 0.20280203223228455, 0.14924505352973938, 0.5432075262069702, -0.42444202303886414, -0.18035447597503662, -0.5853649973869324, 0.23123005032539368, -0.19986596703529358, 0.18823736906051636, 0.15148060023784637, 0.01054098829627037, -0.5609651207923889, 0.15442509949207306, -0.8382941484451294, -0.07103697210550308, -0.23848988115787506, -0.7895693182945251, 0.0580177828669548, 0.3836806118488312, -0.5226604342460632], [1.4166721105575562, -0.20039865374565125, -0.09890362620353699, 0.2459179162979126, 0.24585258960723877, 0.24383759498596191, -0.056071940809488297, -0.12738604843616486, -0.07506802678108215, 0.07930612564086914, -0.31615960597991943, 0.3967803716659546, -0.12252528965473175, 0.21037214994430542, -0.9517127275466919, -0.1538163423538208, 0.31973934173583984, -0.1065305769443512, 0.017784874886274338, -0.4698718786239624, 0.056014977395534515, 0.8186004757881165, -0.3284703195095062, 0.5739037394523621, 0.25247809290885925, -0.03907821327447891, -0.07161598652601242, 0.5926244258880615, -0.3948155641555786, 0.6152117848396301, 0.39888545870780945, -0.2714228332042694, -0.010820426978170872, -0.40786850452423096, -0.0362253375351429, -0.23628868162631989, 0.04477262124419212, 0.2645493447780609, 0.008051490411162376, -0.0974401980638504, 0.03174573555588722, 0.25157633423805237, -0.10413359105587006, 0.3282080590724945, -0.15195846557617188, 0.09864678978919983, -0.28785088658332825, -0.026585111394524574, 0.08432942628860474, 0.11015307158231735, -0.3484985828399658, -0.13698039948940277, -0.23787720501422882, -0.3035717308521271, -0.05382991209626198, 0.006898658350110054, 0.6077463030815125, 0.2039935439825058, 0.19169719517230988, -0.18500293791294098, -1.0360511541366577, -0.217436283826828, 0.1858053356409073, 0.3186531364917755], [-0.013974621891975403, -0.2946271598339081, -0.020204465836286545, 0.10276930034160614, 0.2761754095554352, -0.06839803606271744, 0.2062564343214035, 0.41951459646224976, 0.06016333028674126, 0.24110418558120728, 0.021789930760860443, -0.05713401734828949, -0.2749917507171631, -0.054584115743637085, 0.849757969379425, -0.13254721462726593, 0.11538366228342056, 0.1204134076833725, -0.1134997308254242, -0.5112221240997314, -0.04508649557828903, 0.17071890830993652, 0.1692008078098297, 0.11221515387296677, -0.08523126691579819, 0.10794629901647568, 0.07672101259231567, -0.11413014680147171, 0.08592883497476578, -0.006694126408547163, 0.22028666734695435, 0.36776480078697205, -0.028191139921545982, 0.15749728679656982, -0.19663822650909424, -0.5181323885917664, -0.2568812370300293, 0.14095677435398102, -0.10642343759536743, -0.16275112330913544, 0.19746336340904236, 0.7865270972251892, 0.3964248597621918, 0.17706985771656036, -0.25530168414115906, 0.39619961380958557, -0.006562481634318829, 0.28026992082595825, -0.625885546207428, 0.016289550811052322, -0.5672735571861267, 0.03117886744439602, 0.10834646970033646, 0.31947964429855347, 0.06979978829622269, 0.11944884806871414, -0.6269252896308899, -0.088475301861763, 0.11508749425411224, 0.10590392351150513, -0.16944874823093414, 0.004217294976115227, 0.1178145632147789, 0.07802417874336243], [-0.2831031382083893, -0.8913610577583313, 0.3957373797893524, 0.33670955896377563, 0.375127375125885, 0.5078719854354858, -0.1652461588382721, 0.09955251216888428, -0.4576527774333954, 0.0029405534733086824, -0.276271253824234, 0.539463222026825, 0.39096927642822266, 0.3464837968349457, -0.5937522649765015, 0.12898007035255432, 0.556860089302063, 0.5760793685913086, 0.15675656497478485, -0.6737497448921204, 0.3088681697845459, 0.028253577649593353, -0.37954920530319214, 0.17773418128490448, 0.1832716464996338, 0.5228080153465271, -0.017159990966320038, -0.290446937084198, -0.1635003238916397, 0.18011333048343658, 0.292106032371521, 0.19477106630802155, -0.17901939153671265, 0.087242491543293, -0.0822937861084938, -0.12237292528152466, -0.2690841853618622, -0.056692350655794144, 0.11383679509162903, 0.4900292158126831, -0.1289915293455124, -0.470207154750824, 0.3981638550758362, 0.2956448197364807, -0.2762802243232727, -0.3921951353549957, -0.2622274160385132, -0.13925212621688843, -0.2081364095211029, -0.4065427780151367, -0.8220064640045166, -0.15265430510044098, -0.24066698551177979, 0.13727429509162903, 0.19737432897090912, -0.015294843353331089, -0.6480357646942139, 0.06898808479309082, -0.5756257772445679, -0.43535953760147095, 0.010195870883762836, -0.30590271949768066, -0.12310236692428589, 0.06272422522306442], [-0.4082503616809845, -1.1281203031539917, 0.2740823030471802, -0.6353394389152527, 0.11935091018676758, 0.3245457410812378, -0.6340588331222534, 0.4025782644748688, -0.9524466395378113, 0.44694769382476807, 0.19703981280326843, 0.17467962205410004, 0.278407484292984, 0.1547154188156128, -0.6520751118659973, 0.2611043453216553, 0.40749043226242065, 0.939581036567688, 0.1654040366411209, 0.1943645179271698, 0.13250496983528137, 0.11748094856739044, 0.06653737276792526, -0.47325554490089417, -0.06360886991024017, 0.4921402931213379, -0.20046626031398773, -0.2158362716436386, 0.5903660655021667, -0.47511976957321167, 0.07498279213905334, -0.6405209302902222, -0.8198563456535339, 0.5823134779930115, 0.32659074664115906, -0.4315561354160309, -0.6268609166145325, 0.6356340050697327, -0.04903147369623184, -0.021245675161480904, 0.6425323486328125, -0.3445509970188141, 0.31147143244743347, 0.3978046178817749, 0.1317095309495926, 0.008780552074313164, 0.06093410402536392, -0.754983127117157, -0.20795361697673798, -0.30784276127815247, 0.42600640654563904, 0.08004335314035416, -0.23171491920948029, 0.8849357962608337, 0.5066971182823181, -0.40171101689338684, -0.3242364823818207, 0.26236027479171753, -0.19309593737125397, 0.0036427266895771027, -0.1892450749874115, 0.17925482988357544, 0.5900908708572388, 0.2583267390727997], [0.4422744810581207, -0.26420700550079346, 0.41575419902801514, 0.14886268973350525, 0.0852380022406578, 0.30471935868263245, -0.26025378704071045, 0.39290791749954224, 0.33913034200668335, 0.13008569180965424, -0.02548028901219368, 0.09839834272861481, 0.32524538040161133, 0.1790902465581894, -0.3703731298446655, 0.11915791034698486, 0.13892661035060883, 0.028564034029841423, 0.3609583377838135, 0.16708742082118988, 0.11609887331724167, 0.5364193916320801, -0.03339562937617302, 0.12818339467048645, 0.16578985750675201, 0.13214334845542908, 0.03288840875029564, -0.05343281477689743, 0.28001049160957336, -0.13880841434001923, 0.253003865480423, 0.29447439312934875, -0.30459505319595337, 0.26320526003837585, 0.23864075541496277, -0.2836126983165741, 0.13881981372833252, 0.32701200246810913, 0.30014339089393616, 0.08379285037517548, -0.15053442120552063, -0.04203128442168236, -0.07370846718549728, 0.8243594765663147, -0.07603248953819275, -0.152643084526062, 0.24908219277858734, -0.27358531951904297, 0.15977853536605835, -0.16564013063907623, -0.06510057300329208, -0.17323662340641022, -0.21924401819705963, 0.5781782269477844, -0.02520221844315529, -0.2745871841907501, -0.7102210521697998, 0.3656517565250397, -0.02214222401380539, -0.05150025710463524, -0.16702347993850708, 0.4045121967792511, 0.7656376361846924, 0.16247886419296265], [-0.056472696363925934, 0.278655081987381, -0.06227582320570946, 0.06380603462457657, 0.006665845867246389, 0.12959972023963928, -0.46559879183769226, -0.09152600169181824, 0.09524308145046234, -0.18710178136825562, 0.008418785408139229, -0.470551460981369, -0.04003792628645897, -0.035945869982242584, 0.5912235975265503, -0.06396005302667618, -0.3542167842388153, -0.08414018154144287, -0.24356159567832947, -0.344186931848526, -0.05028931424021721, 0.07675780355930328, -0.3021095395088196, -0.22524823248386383, 0.0381840243935585, -0.2420211136341095, 0.043716881424188614, -0.13560271263122559, -0.4095524251461029, -0.020688334479928017, -0.1852005124092102, -0.39662623405456543, 0.08991025388240814, -0.09580190479755402, 0.12017711251974106, -0.035152118653059006, 0.1816169172525406, -0.10601888597011566, 0.4767332375049591, -0.34573110938072205, -0.24585163593292236, 0.07356591522693634, -0.4318983554840088, 0.14635565876960754, -0.12411962449550629, 0.09024019539356232, -0.29763081669807434, -0.14354552328586578, 0.15225492417812347, -0.37975013256073, 0.29711130261421204, -0.030949924141168594, 0.1862773299217224, -0.596728503704071, 0.1017804816365242, 0.09315524250268936, 0.05787473917007446, -0.02305847406387329, -0.10711555182933807, -0.012474586255848408, -0.5378444790840149, 0.8429436683654785, 0.042101625353097916, 0.16831821203231812], [0.018397904932498932, -0.20184586942195892, -1.1432347297668457, 0.03920614719390869, 0.01090194657444954, 0.051534879952669144, 0.3733717203140259, 0.11163400113582611, -0.11071150749921799, -0.025177843868732452, 0.06747021526098251, 0.11480466276407242, -0.014715001918375492, -0.2290353775024414, 0.2531138062477112, -0.0012852742802351713, 0.049928173422813416, 0.07470960915088654, -0.16611135005950928, 0.12534262239933014, -0.03661908954381943, -0.017040614038705826, 0.04786938056349754, 0.08761681616306305, 0.03287777677178383, 0.05882541462779045, 0.06522875279188156, -0.06532076001167297, 0.07361309975385666, -0.006068832240998745, 0.08033069223165512, 0.10802426189184189, -0.06950576603412628, 0.07121908664703369, -0.1208416223526001, -0.021490084007382393, -0.7006272077560425, 0.024056293070316315, -0.3732242286205292, -0.5583768486976624, 0.08807441592216492, 0.04610106721520424, 0.05947139114141464, -0.1282019466161728, -0.09110711514949799, -0.10827824473381042, 0.055164556950330734, -0.07348872721195221, -0.13954582810401917, -0.023610323667526245, 0.02741602435708046, 0.2022944986820221, -0.10449837893247604, 0.26016727089881897, -0.06947741657495499, -0.029822634533047676, 0.2568013370037079, 0.10416308790445328, -0.014490214176476002, -0.1334380805492401, -0.015870945528149605, -0.517906904220581, 0.05749756842851639, 0.012612453661859035], [0.11794032156467438, -0.2841568887233734, -0.7061300277709961, 0.02127884142100811, -0.0501522459089756, -0.11773842573165894, 0.28675785660743713, 0.07720997929573059, 0.002970948116853833, -0.08929920196533203, 0.08899500966072083, -0.29883086681365967, 0.032585058361291885, -0.050717197358608246, 0.3818320333957672, 0.037507690489292145, 0.35174301266670227, 0.0018687763949856162, -0.37243470549583435, 0.2543635070323944, 0.31409353017807007, 0.10826148092746735, 0.21945230662822723, 0.1967800259590149, -0.09426173567771912, -0.18448381125926971, 0.0599190779030323, 0.032842546701431274, 0.170591801404953, 0.2224607765674591, 0.06791394203901291, 0.46485814452171326, -0.021937420591711998, 0.41808798909187317, 0.08333373069763184, 0.09680298715829849, 0.04397447034716606, -0.07021327316761017, -0.43304643034935, 0.03625426068902016, -0.2881655693054199, 0.19680412113666534, 0.28598907589912415, -0.14902888238430023, 0.010750883258879185, 0.025268979370594025, 0.308994323015213, -0.19106440246105194, 0.0427142009139061, 0.9079064726829529, 0.07184506207704544, 0.17845147848129272, 0.3215676546096802, 0.041666291654109955, 0.16654349863529205, 0.05904502794146538, 0.6756073236465454, -0.13175436854362488, -0.4765896499156952, -0.36891719698905945, -0.24386832118034363, -0.07479581981897354, 0.14710184931755066, -0.01144954189658165], [-0.18337169289588928, 0.03346111625432968, 0.4063531458377838, 0.19425207376480103, -0.06327526271343231, 0.02125156670808792, 0.11376230418682098, 0.012384643778204918, 0.13568301498889923, -0.018189817667007446, 0.036576494574546814, -0.06861863285303116, -0.07232639938592911, -0.18350385129451752, 0.10883243381977081, 0.07573161274194717, -0.3060343265533447, -0.0296084713190794, -0.14668256044387817, -0.04978092387318611, 0.42161980271339417, -0.15473568439483643, 0.10429006814956665, 0.08269716054201126, 0.01227694284170866, 0.18044520914554596, 0.07070664316415787, -0.19288896024227142, -0.49809548258781433, 0.11474999785423279, 0.08121542632579803, -0.3581528961658478, 0.08975275605916977, -0.6869405508041382, -0.04065154120326042, 0.05241255462169647, -0.12145619094371796, -0.11240536719560623, 0.5019333362579346, 0.2200356423854828, -0.17731182277202606, 0.05462260916829109, 0.013799651525914669, -0.02045316994190216, 0.0034248153679072857, 0.14093303680419922, -0.04795417562127113, -0.17630714178085327, 0.2394910454750061, 0.24462378025054932, -0.053601376712322235, 0.13458135724067688, 0.430652916431427, -0.3170660734176636, 0.1871294528245926, 0.08984781056642532, -0.03988735377788544, -0.13389454782009125, 0.19752152264118195, 0.1602937877178192, 0.18865595757961273, 0.15634708106517792, -0.047822367399930954, -0.1403800994157791], [-0.31954148411750793, -0.6835417747497559, 0.8247402906417847, 1.036659836769104, -0.3279794156551361, -0.10114254802465439, -0.5803816914558411, -2.1848626136779785, 0.16168323159217834, 0.6240484118461609, -0.030826397240161896, -0.17361275851726532, -0.6935185194015503, -0.11562947183847427, 0.4374391734600067, -0.024330325424671173, -0.3935513496398926, -1.2347381114959717, 0.7086213827133179, 0.12846747040748596, -0.3391258120536804, -0.2714441418647766, -0.1243731752038002, 0.22811263799667358, 0.2103898972272873, 0.03949648514389992, 0.10163562744855881, 1.151013731956482, -2.21317458152771, 1.836786150932312, -0.020101012662053108, -0.8022647500038147, 0.3734380006790161, -3.3794450759887695, 0.07029381394386292, -0.4103521704673767, -0.3957393169403076, 0.1985248327255249, 0.40701812505722046, 0.058298930525779724, -0.26828306913375854, 1.8097028732299805, -3.4025158882141113, 1.1549454927444458, 0.04934509098529816, 0.43978244066238403, -0.10971321910619736, 0.021710865199565887, -0.19418200850486755, 4.325002193450928, 0.6936633586883545, -0.6382741332054138, 0.7460640072822571, -2.051313877105713, -0.11045196652412415, 0.09203440696001053, -0.18853287398815155, -0.4259423315525055, 0.6495303511619568, 1.031672716140747, -1.7597901821136475, 0.5702081322669983, 0.44015470147132874, 0.352006196975708], [0.38853660225868225, -0.1796957552433014, 0.0653737485408783, -0.6703504323959351, 0.07234256714582443, 0.45135799050331116, 0.4108002781867981, 0.7932341694831848, -0.5561859607696533, -0.07696327567100525, 0.029329799115657806, -0.03668094426393509, 1.079533338546753, 0.2450193166732788, -0.3421143591403961, -0.45994120836257935, -0.2293550968170166, 0.38288819789886475, 0.6171560883522034, 1.2370381355285645, -0.005674060899764299, -0.7365579009056091, 0.09865168482065201, -0.6573781967163086, 0.1089504212141037, 0.31728988885879517, 0.14478811621665955, -0.4481651484966278, 0.11844180524349213, -0.20462602376937866, -0.28571152687072754, 0.4948826730251312, 0.21432560682296753, -0.402214914560318, 0.11245139688253403, 0.7134172916412354, -0.4476454555988312, -0.0883309617638588, -0.3377707302570343, 0.11557666957378387, -0.2328701913356781, 0.5353792905807495, -0.2605166435241699, -0.5120435953140259, 0.11324858665466309, -0.21069592237472534, -0.34890663623809814, -0.16814309358596802, -0.3084183633327484, 0.7221093773841858, 1.619303822517395, -0.04735822230577469, 0.07129335403442383, -0.15691092610359192, -0.777259349822998, 0.36547982692718506, 0.49065476655960083, -0.028385085985064507, -0.32264819741249084, 0.40878960490226746, -0.5186976194381714, -0.06395229697227478, 0.3576342463493347, -0.174564927816391], [0.15778639912605286, -0.9402682781219482, 0.37681612372398376, 0.5925352573394775, 0.43677085638046265, 0.19428852200508118, -0.47920042276382446, -0.3022117018699646, -0.04645285755395889, 0.20142248272895813, -0.1437510997056961, 0.29686471819877625, 0.11708851158618927, 0.17474830150604248, -0.4349275827407837, -0.2741939425468445, -0.13690140843391418, 0.01542962621897459, -0.050018731504678726, 0.3863481283187866, -0.3557102680206299, 0.24082167446613312, -0.3791316747665405, -0.13719472289085388, 0.6354581713676453, 0.38184013962745667, 0.020238855853676796, 0.6009033918380737, 0.4773466885089874, 0.44589781761169434, -0.028886185958981514, 0.18599306046962738, 0.026027103886008263, 0.1824527382850647, -0.6117982864379883, -0.15349933505058289, -0.7214210629463196, -0.3021373748779297, 0.46064746379852295, -0.7290699481964111, 0.4554559886455536, 0.23650933802127838, -0.018833346664905548, 0.025517338886857033, -0.4569454491138458, -0.13417144119739532, -0.04248795658349991, 0.6592656373977661, -0.21822069585323334, 0.5064170360565186, -0.38550132513046265, -0.5409150719642639, 0.37396079301834106, 0.7455451488494873, -0.3472058176994324, 0.1759200394153595, 0.16792958974838257, 0.4566895067691803, 0.5261712670326233, -0.26129716634750366, 0.5655250549316406, 0.20802417397499084, 0.11694150418043137, 1.0395405292510986], [-0.2622295618057251, -0.17631733417510986, 0.041591864079236984, 0.0021150175016373396, 0.21345745027065277, 0.3156780004501343, -0.8980986475944519, -0.08193514496088028, 0.0989135354757309, 0.03679308667778969, -0.42991986870765686, -0.7639777660369873, -0.5245043039321899, 0.5258539915084839, -0.8483750820159912, -0.13353201746940613, -0.6328845620155334, -1.1016637086868286, 0.28814244270324707, -0.5161375403404236, -0.4357879161834717, 0.02326359786093235, -0.2660676836967468, -0.38260725140571594, 0.07306722551584244, 0.4080270528793335, 0.03988698497414589, 0.03347354382276535, -1.353157639503479, -0.22892451286315918, -0.003498044330626726, -0.5144146680831909, -0.135370671749115, 0.16488289833068848, -0.7666903734207153, 0.6513321399688721, 0.6550868153572083, -0.39087364077568054, -0.09290922433137894, -0.067034050822258, -0.5150490999221802, 2.308587074279785, -1.6552278995513916, 1.1425409317016602, 0.12371869385242462, 0.7693257927894592, -0.012846007011830807, -1.8410760164260864, 1.675358772277832, -0.04659409821033478, 0.21450117230415344, 0.045726228505373, -0.12604859471321106, -0.765691339969635, -0.8443595767021179, -0.7773973941802979, -0.23396024107933044, 0.01933637075126171, 1.2344471216201782, 0.12191838771104813, -0.06841249763965607, 0.46545666456222534, -0.47112372517585754, 0.24577148258686066], [-0.1465805470943451, -0.3417181968688965, 0.5059614181518555, 1.3647499084472656, -0.08696598559617996, 0.2208634912967682, -0.35959121584892273, -0.7597765922546387, 1.0600389242172241, 0.25204843282699585, 0.1720140427350998, -0.3562580347061157, -0.20735828578472137, -0.11868497729301453, 0.7786433696746826, 0.4501650333404541, -0.06731491535902023, -0.19533288478851318, -0.1447867751121521, -0.5379701852798462, 0.11546676605939865, 0.22155392169952393, 0.05248453840613365, 0.587500274181366, -0.21878041326999664, -0.13312627375125885, 0.27283650636672974, -0.18529430031776428, -0.5283589363098145, 0.8810644149780273, -0.07437535375356674, -0.09934008866548538, -0.5410664081573486, -0.3603961169719696, 0.0462411530315876, -0.7640000581741333, 0.520628035068512, 0.041625067591667175, 0.1435614377260208, 0.40645965933799744, -0.6559924483299255, -0.6678485870361328, -0.1553826779127121, 0.8679786324501038, -0.060310084372758865, -0.6002887487411499, 0.09072095900774002, 0.14121223986148834, -0.21059870719909668, 0.7735483050346375, -0.08951690793037415, -0.04959416761994362, 0.4480196535587311, -0.3490094542503357, 0.26620036363601685, -0.3035397529602051, -0.18931281566619873, -0.2770887017250061, -0.3667532503604889, 0.18663345277309418, -0.32443004846572876, -0.24476054310798645, 0.3186679780483246, -0.008215122856199741], [0.0314582958817482, -0.38029956817626953, 0.08396167308092117, -0.13992653787136078, 0.05254107341170311, 0.033234406262636185, 0.25925570726394653, 0.024440288543701172, -0.35709264874458313, 0.10623697936534882, 0.005460585001856089, 0.08610986918210983, 0.16173580288887024, -0.012274805456399918, 0.14495788514614105, 0.08586851507425308, 0.39337289333343506, 0.22113575041294098, 0.026471834629774094, -0.19081413745880127, -0.22304077446460724, 0.49251413345336914, 0.052943792194128036, 0.22248631715774536, 0.024754393845796585, 0.1793842613697052, 0.07652337849140167, -0.011595277115702629, -0.08060558140277863, 0.4446873962879181, 0.28580740094184875, 0.0017907936125993729, 0.012306771241128445, 0.2920456826686859, -0.10196555405855179, -0.10686254501342773, -0.5754189491271973, 0.07647965103387833, 0.4076591432094574, 0.009802269749343395, -0.191996768116951, -0.015261729247868061, -0.06913591921329498, 0.025668565183877945, 0.07134596258401871, 0.12625762820243835, -0.43680229783058167, -0.1769048124551773, -0.4061618149280548, 0.4428057372570038, -0.11590117961168289, -0.005294468253850937, -0.16222773492336273, 0.45847633481025696, -0.015391163527965546, -0.03991062194108963, 0.4130694568157196, 0.12032431364059448, -0.30545589327812195, -0.13243468105793, 0.10481428354978561, -0.17862211167812347, 0.24998971819877625, 0.10287163406610489], [0.3985377848148346, -1.8437572717666626, 0.10082032531499863, 0.01542228739708662, 0.07750826328992844, 5.7866705901687965e-05, -0.5386481881141663, 0.4617021381855011, -0.6502243280410767, -0.05060303583741188, 0.15290696918964386, -0.0852898433804512, -0.04812982305884361, 0.0947902575135231, -0.3932272791862488, 0.4278860092163086, 0.692618727684021, 0.3428742587566376, 0.2048506885766983, 0.5994027853012085, -0.5159422755241394, 0.7840307950973511, -0.13382092118263245, -0.3701786696910858, -0.0930115208029747, 1.3518120050430298, -0.32788756489753723, 0.4096096456050873, -0.22357647120952606, 0.6838997602462769, 0.12511873245239258, 1.1563441753387451, -0.8935248255729675, 0.02772723324596882, 0.2041405886411667, -0.08168546110391617, -0.6541285514831543, 0.09187024086713791, 0.0995188057422638, -0.5130351781845093, 0.30084314942359924, 0.37809064984321594, -0.24858921766281128, 0.11240289360284805, 0.09008372575044632, -0.16240127384662628, -0.4303310215473175, -0.0027928182389587164, -0.5071354508399963, -0.13056997954845428, -0.10892575234174728, -0.0004216993402224034, -0.8628169298171997, -0.017329245805740356, 0.015851669013500214, 0.037510477006435394, 0.07530927658081055, 0.49007293581962585, -0.5307079553604126, 0.17557376623153687, 0.16875064373016357, -0.17268003523349762, -0.49438104033470154, 0.540269672870636], [0.18624375760555267, -1.0990118980407715, -0.13313275575637817, 0.3997945785522461, 0.05035880580544472, 0.2556706964969635, 0.051469963043928146, 0.20342475175857544, -0.45112717151641846, 0.9288750290870667, -0.10976304858922958, 0.05465693771839142, 0.41516536474227905, -0.06111771613359451, -0.23766615986824036, 0.3669520616531372, 1.0303282737731934, 0.23685985803604126, 0.01721133477985859, 0.46477630734443665, -0.4437887668609619, 1.140409231185913, -0.16658341884613037, 0.6305021643638611, 0.11563688516616821, 0.36895909905433655, -0.00901340413838625, 0.023864543065428734, -0.22293557226657867, -0.025789249688386917, -0.15311233699321747, -0.010854920372366905, -0.7395918965339661, -0.2398156076669693, 0.08277623355388641, -0.30670902132987976, 0.3873085379600525, 0.2230258733034134, 0.07206617295742035, 0.32631924748420715, -0.04626986384391785, -0.2510010004043579, -0.733745813369751, 0.45760658383369446, -0.24753545224666595, 0.20208793878555298, -0.5237917304039001, 0.17768245935440063, -0.49397948384284973, -0.5177318453788757, -0.22382384538650513, -0.11492638289928436, 0.05535218119621277, 1.3005168437957764, 0.18837971985340118, -0.11028005182743073, 0.35019880533218384, -0.046181000769138336, -0.6210904121398926, -0.10876279324293137, -0.03619329631328583, -0.27260151505470276, -0.12175651639699936, 0.051459070295095444], [0.22355158627033234, -0.642253041267395, 0.6712100505828857, -0.0030950107611715794, -0.4007517397403717, 0.7435802221298218, 0.25912395119667053, -0.7066644430160522, -0.39083024859428406, 0.3737303912639618, -0.9713318943977356, 0.47026216983795166, 0.07285156100988388, 0.37083762884140015, -0.014006068930029869, 0.2158154845237732, 0.0959387868642807, 0.5344051122665405, 0.3568841218948364, 0.2515038549900055, -0.6816919445991516, 0.29746806621551514, 0.014340264722704887, -1.2500516176223755, 0.5375372767448425, 0.16874727606773376, -0.3900373876094818, 0.8982325196266174, -0.04388616979122162, -0.8304821848869324, -0.22396773099899292, 0.447685182094574, -0.10841792076826096, -0.395429402589798, 0.23515087366104126, -0.5466639399528503, 0.43592748045921326, 0.3048913776874542, 0.147626593708992, -0.3202515244483948, 0.5303102135658264, 1.0018640756607056, -0.052167486399412155, 0.1589381843805313, -0.9716158509254456, -0.6317066550254822, 0.15516769886016846, 0.05326063930988312, 0.5362496376037598, 0.07764662057161331, -0.24484214186668396, -0.6890564560890198, 1.4496735334396362, 0.6280532479286194, 0.13772307336330414, 0.05014452338218689, -1.4055678844451904, 0.18048372864723206, 0.05770169943571091, 0.2083587497472763, -0.6870161890983582, 1.48823082447052, -0.0859440267086029, 0.18714873492717743], [-0.14795421063899994, 0.08091742545366287, 0.06004480645060539, -0.21719196438789368, -0.026690227910876274, -0.31663528084754944, -0.09540046006441116, -0.08778700232505798, -0.26240289211273193, 0.23790575563907623, 0.12712077796459198, -0.13461601734161377, -0.2453146129846573, 0.042516157031059265, -1.1188732385635376, -0.20916330814361572, 0.14004245400428772, 0.17335161566734314, -1.0342694520950317, -0.08271139115095139, -0.18301159143447876, 0.061295028775930405, 0.07302121073007584, 0.5103219151496887, 0.16148823499679565, 0.002878149738535285, 0.2308487594127655, 0.06578819453716278, -0.14226077497005463, -0.2485867738723755, -0.13149648904800415, 0.6028392314910889, -0.42979907989501953, 0.533778190612793, -0.36513614654541016, -0.09109865874052048, -0.49176710844039917, -0.2979260981082916, 0.2574787437915802, -0.1954265981912613, 0.03477804735302925, -0.02659562975168228, -0.0429200604557991, -0.12547430396080017, -0.16218140721321106, -0.23667725920677185, -1.0393474102020264, 0.616987943649292, -0.3176816999912262, -0.3437822461128235, -0.2983780801296234, 0.04581420496106148, -0.027208317071199417, 0.7189967036247253, 0.03599066287279129, -0.29398488998413086, 1.2771010398864746, -0.38054394721984863, -0.35786134004592896, 0.16324575245380402, 0.16359339654445648, -0.430815190076828, 0.0601319894194603, 0.09428641200065613], [0.008476290851831436, -0.19599176943302155, 0.21398596465587616, 2.122405529022217, -0.9323200583457947, 1.0622044801712036, -0.418809711933136, -1.7437684535980225, 0.7165610790252686, 3.0747437477111816, 0.1726589798927307, 0.08320749551057816, -1.287777066230774, 0.18995894491672516, 2.311875104904175, 1.4719573259353638, -1.8787953853607178, -2.5896124839782715, -2.010425567626953, -1.057214617729187, 0.42170748114585876, 2.582014322280884, -0.0978872999548912, -0.23672382533550262, 0.15037047863006592, -1.1611765623092651, 0.2289118766784668, -0.05722805857658386, -0.3161686062812805, 1.9442164897918701, 0.9964298605918884, -0.5507962107658386, -0.4006630778312683, -0.5325859189033508, 0.1950783133506775, -1.630175232887268, 0.16368581354618073, 1.688726782798767, 0.3863661289215088, -0.46082091331481934, -0.7856513261795044, 1.1888927221298218, 0.8097187280654907, 4.612181663513184, 0.5123031735420227, 1.4392259120941162, 0.7321917414665222, 2.704026937484741, 3.097832441329956, 0.43213242292404175, -2.6948492527008057, 0.097715824842453, 0.092308409512043, -1.2012587785720825, 0.9976064562797546, 0.568333625793457, -0.22769765555858612, -0.24993851780891418, 2.418779134750366, -1.7030709981918335, 1.4400936365127563, -0.5208081007003784, -0.025057552382349968, 0.7813380360603333], [-0.12376473844051361, -0.6283087730407715, 0.15006868541240692, 0.35987144708633423, -0.24739234149456024, 0.16324560344219208, -0.22860749065876007, -0.4514152705669403, -0.12700438499450684, 0.2049349695444107, -0.1047927513718605, 0.1834140419960022, -0.006181482225656509, 0.20228104293346405, 0.6032432913780212, 0.3682401478290558, -0.047327231615781784, 0.0931720957159996, 0.14145700633525848, 0.2962789535522461, -0.248796746134758, 0.03543288633227348, -0.16947802901268005, -0.12042439728975296, 0.26495563983917236, 0.2963210940361023, -0.29132023453712463, 0.7565417289733887, -0.3569273352622986, 0.1070685163140297, -0.13263514637947083, 0.19253239035606384, -0.2021370381116867, -0.5376135110855103, -0.14995379745960236, -0.09169672429561615, -0.730836808681488, 0.017931928858160973, 0.2532564401626587, 0.07195880264043808, -0.011667599901556969, -0.035486962646245956, -0.43709808588027954, 0.12917649745941162, -0.09709035605192184, -0.06382305920124054, 0.03649461641907692, 0.6843119859695435, -0.3838983178138733, 0.7227627635002136, 0.12700432538986206, 0.09423407912254333, 0.23101677000522614, 0.2602696716785431, -0.052906155586242676, -0.07579882442951202, -0.11046437174081802, 0.30549362301826477, 0.10887841880321503, 0.33346885442733765, 0.32208824157714844, 0.0916946679353714, 0.06168866157531738, 0.12007736414670944], [-0.3057280480861664, -0.600115954875946, 0.582210123538971, -0.2554045021533966, -0.129944309592247, 0.3271946310997009, -0.13908125460147858, -2.0335841178894043, -0.10739798843860626, 0.7874295115470886, -0.10908006131649017, 0.24883969128131866, 0.13127179443836212, -0.3591722846031189, -0.0380687415599823, -0.18395470082759857, -0.4149819016456604, -0.038839228451251984, 1.4091249704360962, -0.10084915161132812, -0.40845227241516113, -0.3646352291107178, 0.007057481445372105, -0.20064562559127808, 0.06664159148931503, 0.16570234298706055, 0.09593971073627472, 0.8803907632827759, -2.4063806533813477, 0.706868588924408, -1.3601105213165283, -0.6853858232498169, 0.8222320079803467, -3.42972731590271, 0.3418053090572357, -0.13425759971141815, 0.12386173754930496, -0.2738784849643707, -0.08181661367416382, 0.23132774233818054, 0.08359172195196152, -0.5746071338653564, -2.3618075847625732, 0.7288795709609985, -0.5446043014526367, -0.07904579490423203, -0.5054224133491516, -0.17325270175933838, 1.3811180591583252, 2.048797130584717, 1.0254651308059692, -0.499428391456604, 0.645929217338562, -2.3286020755767822, -0.9198579788208008, 0.11779934167861938, -0.15713876485824585, 0.21737009286880493, 0.517086923122406, 2.822160243988037, -0.07522068917751312, 0.8530356884002686, -0.3409889042377472, -0.3618699014186859], [0.08534380048513412, -0.8883524537086487, -0.19733290374279022, -0.5719708204269409, -0.13291391730308533, 0.28090620040893555, 0.4705497622489929, 0.31315815448760986, 0.10062377154827118, 0.26282718777656555, 0.00260471785441041, 0.3232641816139221, 0.2439986914396286, 0.2470046579837799, -0.3225782513618469, 0.39540615677833557, -0.11941152811050415, -0.39516228437423706, -0.25782525539398193, 0.3263528645038605, -0.5623495578765869, 0.022840872406959534, -0.2634214460849762, -0.2510283887386322, 0.06512054055929184, 0.4136413633823395, 0.13924087584018707, 0.17704059183597565, 0.5022990107536316, 0.5881295204162598, -0.07566996663808823, -0.39920955896377563, -0.5772449970245361, -0.4701809585094452, -0.1377459019422531, 0.6032506227493286, -0.3131488263607025, -0.01229840237647295, -0.002141218399628997, -0.4835471212863922, 0.1680232286453247, -0.38217779994010925, -0.26305246353149414, -0.04645996913313866, 0.032381292432546616, 1.0535576343536377, -0.06877627223730087, 0.06733068078756332, 0.7352441549301147, 0.7448657751083374, 0.032612692564725876, -0.05162406340241432, -0.16835880279541016, -0.46007201075553894, -0.3947433531284332, -0.552416205406189, -0.19146743416786194, 0.2040051817893982, -0.07571101188659668, 0.22880615293979645, 0.052054665982723236, -0.6081470847129822, 0.04906981438398361, 0.21520385146141052], [-0.785550594329834, -0.5947555303573608, 0.9940932989120483, -0.48690366744995117, -0.6168191432952881, 0.3216308355331421, -0.21866875886917114, -0.0003519484889693558, 0.4956282675266266, 0.5032631158828735, -0.23867835104465485, 0.23562753200531006, 0.6670566201210022, 0.08387482166290283, -0.4346264600753784, -0.12549468874931335, -0.6264183521270752, -0.7829192280769348, 0.4851326644420624, -0.3810051679611206, -0.4408893585205078, -0.12654919922351837, -0.23595814406871796, -0.11854413151741028, 0.24077260494232178, -0.04048766568303108, -0.27175211906433105, 0.5123132467269897, -0.6005123853683472, 0.7222549319267273, -0.2799592614173889, -0.696077823638916, 0.2819656431674957, -0.21873342990875244, -0.7357683181762695, -0.25586771965026855, 0.1008693277835846, -0.3360632658004761, 0.5075350403785706, -0.7463953495025635, 0.23677939176559448, -0.43461930751800537, -0.45983749628067017, 1.2170013189315796, -0.6460626721382141, 0.5201719403266907, -0.2164340317249298, -0.5479996800422668, 0.26187410950660706, 0.15152642130851746, 0.04417482018470764, -0.34471723437309265, -0.022714979946613312, -0.6522930860519409, -1.1152592897415161, 0.24234874546527863, -0.5963780283927917, 0.1242448091506958, 2.0482194423675537, 0.8201320767402649, 0.7846497893333435, 0.4498116374015808, -0.7758433818817139, -0.10475190728902817], [-0.12685924768447876, 0.18768492341041565, 0.08111581206321716, 0.18405497074127197, 0.24790234863758087, 0.3656928539276123, 0.05687675252556801, 0.07474867254495621, -0.33207377791404724, 0.06898955255746841, -0.06075242906808853, 0.08435371518135071, -0.05320512130856514, 0.08861636370420456, 0.23259776830673218, 0.0994778573513031, 0.024868302047252655, -0.3344819247722626, -0.23277875781059265, 0.15751159191131592, -0.10723032802343369, 0.05321371927857399, -0.10555095970630646, 0.04453211650252342, -0.04965856671333313, 0.20240570604801178, -0.03856676444411278, 0.4421314299106598, 0.2861267626285553, -0.12709346413612366, -0.11566467583179474, -0.19175399839878082, -0.007014486473053694, -0.04678614065051079, 0.020851191133260727, -0.18866580724716187, -0.19750575721263885, 0.15654130280017853, -0.05456840619444847, -0.20960167050361633, 0.08889400213956833, 0.08952748775482178, 0.14130201935768127, -0.15012769401073456, -0.1596193015575409, -0.015537111088633537, 0.022585749626159668, -0.2642419934272766, -0.33475473523139954, 0.7864721417427063, -0.12097945064306259, 0.24753861129283905, -0.19467021524906158, 0.4166334867477417, -0.01727868802845478, -0.2150842547416687, -0.2768304944038391, 0.10433857142925262, -0.27626147866249084, 0.04430475831031799, 0.1103135421872139, -0.043144114315509796, 0.1445741057395935, 0.14016622304916382], [0.3222458064556122, -0.16540367901325226, 0.21920432150363922, 0.24185749888420105, -0.3602873682975769, 0.5666221380233765, 0.6251773238182068, 0.23282518982887268, -0.08686785399913788, 0.9580721259117126, -0.10429632663726807, 0.3204987943172455, 0.14613749086856842, 0.25691503286361694, -0.18674792349338531, 0.016088929027318954, -0.3036338984966278, -0.9821251034736633, -0.18833018839359283, 0.5349156856536865, 0.4199818968772888, 0.43769827485084534, -0.28390929102897644, -0.08175217360258102, -0.009522296488285065, -0.21607114374637604, -0.6075352430343628, 0.1554984450340271, -0.559034526348114, 0.0657622441649437, 0.12495829164981842, -0.16715583205223083, 0.3187532126903534, -0.3620186150074005, -0.11601068079471588, 0.20993672311306, 0.4308915138244629, 0.6390383839607239, 0.022871682420372963, 0.0554824136197567, -0.617517352104187, 0.3029334545135498, -0.4893467426300049, 0.34428340196609497, 0.027143428102135658, 0.35980698466300964, -0.4478987455368042, 0.6689903736114502, 0.4611523747444153, -0.08890272676944733, 0.35556718707084656, -0.06246514618396759, 0.466145396232605, 0.6729868054389954, -0.1843663454055786, -0.34408140182495117, -1.325838565826416, 0.3103675842285156, 0.5525389313697815, 0.013804614543914795, 0.12011135369539261, 1.2827264070510864, -0.14036856591701508, 0.15484343469142914], [-0.34797874093055725, -0.4159066379070282, 0.48959866166114807, -0.1333410143852234, 0.07947530597448349, -0.219423308968544, 0.43256959319114685, 0.8552857637405396, -0.03177357837557793, -0.6046456098556519, -0.4157699942588806, 0.17961683869361877, -0.5226290225982666, 0.5581510066986084, -0.6350885033607483, 0.510475754737854, 0.7279852628707886, 1.1268649101257324, 0.10552994161844254, -0.9237996935844421, 0.3593502938747406, -0.6264745593070984, -0.25909748673439026, 0.06717288494110107, 0.3972717821598053, -0.13990335166454315, -0.1372387707233429, -0.15771248936653137, 1.1150212287902832, -1.334445595741272, 0.017791979014873505, 1.526642918586731, 0.403366357088089, 1.124241828918457, -0.1840709149837494, 0.20113633573055267, 0.33518368005752563, 0.2843589782714844, -0.19837066531181335, 0.9734588265419006, -0.6058007478713989, 0.0192431453615427, -0.7290058732032776, -0.46531057357788086, -0.031054455786943436, -0.19055411219596863, 0.7850377559661865, 0.04275606572628021, -0.981319785118103, -0.5333734750747681, -2.0264737606048584, 0.09875285625457764, -0.2938631474971771, 1.716856837272644, -0.8570858836174011, 0.020912405103445053, -0.7260564565658569, -0.2312159687280655, -0.894113302230835, -0.3289785385131836, 1.9288071393966675, 0.7947673797607422, 0.002836537314578891, 0.43566015362739563], [-0.06594917923212051, -0.08407176285982132, -0.6080684065818787, 0.23900316655635834, 0.030883437022566795, -0.03721797466278076, 0.2884844243526459, -0.033998847007751465, 0.08347775787115097, -0.030207160860300064, -0.04298865795135498, 0.07894328981637955, 0.061075735837221146, -0.21116678416728973, 0.22947576642036438, -0.17757855355739594, -0.006069145631045103, 0.04012991115450859, -0.12366869300603867, 0.2915574908256531, -0.05711698532104492, -0.015679918229579926, 0.06396313011646271, 0.003959170542657375, -0.11798472702503204, -0.07015188038349152, 0.06585332751274109, -0.05262370780110359, 0.18512815237045288, 0.1515304148197174, 0.008455331437289715, -0.18848705291748047, 0.10273397713899612, -0.04653853923082352, 0.06662009656429291, -0.028081797063350677, -0.23011237382888794, 0.02496456168591976, -0.25401565432548523, -0.5649219751358032, 0.005097356159240007, -0.05556783080101013, -0.06263045966625214, 0.10452499240636826, 0.15113486349582672, 0.10714330524206161, -0.0515868104994297, -0.044350218027830124, 0.0891929641366005, 0.2723030149936676, 0.1202128678560257, 0.07544632256031036, -0.13275955617427826, 0.2627989649772644, 0.004884954076260328, -0.016576683148741722, 0.21583688259124756, -0.03053472749888897, 0.04598251357674599, 0.20633530616760254, -0.07453688234090805, -0.8244842290878296, -0.0395108237862587, -0.11330775171518326], [0.01729767397046089, -0.49711355566978455, 0.20465795695781708, -0.04863813892006874, -0.09255456179380417, -0.1650000959634781, 0.32404202222824097, 0.2280849665403366, 0.25859516859054565, 0.11324058473110199, 0.026759078726172447, 0.2493603378534317, 0.3946087956428528, -0.14384138584136963, 0.09457758069038391, 0.059434231370687485, -0.27894240617752075, 0.21623580157756805, 0.24695587158203125, 0.5116696357727051, -0.5688731670379639, -0.189276784658432, -0.22588425874710083, -0.483554482460022, -0.042014069855213165, 0.19010815024375916, -0.11628571152687073, 0.10890641063451767, 0.30405572056770325, 0.18899144232273102, -0.10848979651927948, -0.15116217732429504, 0.13839951157569885, -0.16941002011299133, -0.023941323161125183, 0.3335423469543457, -0.7880501747131348, 0.09238056093454361, 0.0426553338766098, -0.586093544960022, 0.30188173055648804, -0.07065220177173615, -0.5673713684082031, -0.10514035820960999, -0.19086714088916779, -0.0363306999206543, -0.13729806244373322, 0.10786256939172745, 0.06064486503601074, 0.0751664787530899, -0.2148839682340622, 0.19028641283512115, -0.10298554599285126, 0.3666662573814392, -0.23608481884002686, -0.12250210344791412, -0.379009485244751, 0.08151580393314362, 0.10714413225650787, 0.19231602549552917, 0.27690112590789795, -0.026282213628292084, -0.026924656704068184, 0.11177818477153778], [-0.010851560160517693, -0.17974171042442322, 0.06202410161495209, 0.01898624375462532, -0.05170286446809769, -0.05219070240855217, 0.1755344122648239, -0.2689226269721985, 0.4703073501586914, -0.03015037812292576, -0.01741468906402588, -0.061467304825782776, 0.05417085438966751, -0.1458473801612854, 0.07988893240690231, 0.12108727544546127, -0.24579225480556488, -0.08439237624406815, -0.3123423457145691, 0.038347821682691574, 0.17665332555770874, 0.04430234804749489, -0.03108087368309498, 0.029474765062332153, -0.18827323615550995, 0.011876502074301243, 0.1348101794719696, 0.016261741518974304, 0.07812082767486572, -0.0369998961687088, -0.3464874029159546, -0.1536397635936737, 0.07795261591672897, -0.306043416261673, 0.03328315541148186, -0.018987029790878296, 0.036254577338695526, -0.07783208042383194, -0.4211307466030121, 0.11593268811702728, -0.4854543209075928, -0.09074178338050842, -0.16207167506217957, -0.17971423268318176, 0.1208815723657608, -0.04679800570011139, -0.16875211894512177, 0.08781680464744568, 0.09641236066818237, 0.5242871046066284, 0.049901507794857025, 0.11685069650411606, 0.20835129916667938, -0.009660990908741951, 0.09829159080982208, 0.08671855181455612, -0.033197879791259766, -0.09534905105829239, 0.13886190950870514, 0.19426479935646057, -0.26555362343788147, 0.22140318155288696, -0.12222990393638611, -0.2644942104816437], [0.05315491557121277, -0.3338157534599304, 0.2676906883716583, 0.36860477924346924, 0.14551372826099396, 0.11835848540067673, 0.16144482791423798, 0.2724258601665497, -0.06672564148902893, -0.00036319190985523164, -0.18725518882274628, 0.2622878849506378, 0.12998469173908234, 0.12056316435337067, 0.27155983448028564, 0.38310009241104126, 0.17359410226345062, -0.1786489635705948, -0.40161967277526855, -0.1578923761844635, -0.10630335658788681, 0.06440255045890808, -0.07138407230377197, 0.11270209401845932, -0.136625275015831, 0.08346576243638992, 0.048202138394117355, 0.13742300868034363, -0.3738742172718048, 0.30735817551612854, 0.10463758558034897, -0.13179880380630493, -0.055107105523347855, -0.09416286647319794, -0.15262797474861145, -0.042843107134103775, -0.0062524196691811085, 0.09355345368385315, 0.08419417589902878, -0.21173648536205292, 0.18127824366092682, -0.021484561264514923, -0.11873063445091248, -0.049749452620744705, -0.1751558482646942, 0.07205010950565338, 0.1863000988960266, -0.05590943992137909, -0.10777696967124939, 0.24627073109149933, 0.1783338040113449, 0.15551315248012543, 0.04313292354345322, 0.3851553797721863, -0.014053551480174065, -0.24059797823429108, 0.08047439157962799, -0.08228585124015808, -0.032898157835006714, 0.12623655796051025, 0.19739040732383728, 0.13910697400569916, -0.06228959932923317, -0.021786894649267197], [0.20407776534557343, -0.17745384573936462, 0.06752971559762955, -0.13449977338314056, 0.05263223499059677, -0.241828054189682, -0.6998425722122192, 0.1415332406759262, 0.0610600970685482, -0.09573846310377121, 0.1492898315191269, 0.06531930714845657, -0.08765482157468796, 0.03957640379667282, -0.0749148353934288, 0.1295657753944397, 0.12146679311990738, -0.04780587553977966, 0.012958190403878689, 0.07150597125291824, -0.034328848123550415, 0.05109800770878792, -0.2446061670780182, 0.11763252317905426, 0.053820181638002396, 0.03511396795511246, 0.05076524242758751, -0.02701379545032978, -0.07179518043994904, 0.5100187659263611, 0.07429709285497665, -0.09772296249866486, 0.007699071429669857, -0.14631567895412445, 0.03347252681851387, 0.20127907395362854, -0.02249944396317005, -9.992523700930178e-05, 0.46092191338539124, -0.1828204095363617, 0.03354548290371895, 0.050248682498931885, -0.20923180878162384, 0.04010145738720894, 0.02093530260026455, 0.09247633069753647, -0.31668365001678467, 0.0008262436604127288, -0.04328877478837967, 0.08210078626871109, 0.0767117515206337, 0.08043612539768219, 0.20188945531845093, 0.48089444637298584, -0.1207711398601532, -0.12084360420703888, -0.464669406414032, 0.04412061721086502, 0.01026725023984909, -0.08917804807424545, 0.19568850100040436, -0.03772145137190819, -0.04302098602056503, 0.07291298359632492], [-0.3901059031486511, -0.024285562336444855, -0.28157860040664673, 0.159135639667511, 0.15690232813358307, 0.10714253783226013, -0.07370755076408386, -0.9013673067092896, 0.31838512420654297, 0.42851343750953674, -0.3713137209415436, 0.27962827682495117, 0.3116097152233124, -0.07272978872060776, 0.41842120885849, -0.25064054131507874, -0.3307591378688812, -0.2585625648498535, -0.05630200728774071, -1.0780073404312134, 0.11782963573932648, -0.5368817448616028, 0.07480009645223618, 0.2682899534702301, -0.13538332283496857, -0.03798999637365341, 0.11723392456769943, 0.47987252473831177, -0.5976496934890747, -0.10076189786195755, 0.03710487112402916, -0.1780773103237152, 0.014721461571753025, 0.05328277871012688, -0.8042440414428711, 0.011898118071258068, 0.006543802097439766, -0.1509176790714264, 0.11045745015144348, 0.01112364698201418, 0.04413734748959541, -0.14972582459449768, -0.23452043533325195, 1.0652949810028076, -0.21509017050266266, 0.2713911235332489, 0.6695325970649719, 0.03834402933716774, 0.15119071304798126, 0.473812460899353, 0.1901911348104477, -0.3105335533618927, -0.09211619198322296, 0.6754267811775208, 0.2010611891746521, 0.5709562301635742, 0.08226750791072845, -0.3385252058506012, 0.878943920135498, 0.40045031905174255, -0.24844135344028473, 0.31470808386802673, 0.09811515361070633, 0.23665881156921387], [-0.34339436888694763, -0.3301132023334503, -0.23440949618816376, -0.7265612483024597, 1.4461020231246948, -0.7809295058250427, -0.3024654686450958, 1.2764003276824951, -0.8888252973556519, 0.6851388812065125, -0.19084879755973816, 0.5347511768341064, 3.2656726837158203, -0.05009318143129349, -1.6781460046768188, -0.6354812979698181, 0.9819477796554565, -0.5394962430000305, 1.1387232542037964, 0.898067057132721, -0.43673670291900635, -1.4880090951919556, -0.30210110545158386, -0.45795464515686035, -0.005422956310212612, 1.7698802947998047, -0.6732397079467773, -0.2506105899810791, 0.3410851061344147, -1.3707833290100098, -0.30868569016456604, 0.056754279881715775, 0.5603213310241699, -0.6822580099105835, 0.9211158752441406, -0.48962676525115967, -0.8758231997489929, -1.7920360565185547, -0.18460634350776672, -0.41476717591285706, 0.8825718760490417, -0.6662920713424683, -0.6465581655502319, -0.1419578641653061, -0.048808980733156204, -2.0601625442504883, -0.650287389755249, -2.3268840312957764, 0.7462098598480225, 0.46902939677238464, 1.3954360485076904, -0.2609521746635437, -0.6808168292045593, -0.9365078806877136, -1.2933400869369507, 0.8502930402755737, -0.44809484481811523, 0.6922668218612671, -0.04373539239168167, 1.1563588380813599, -0.298219233751297, 1.088119387626648, -0.3097435534000397, 0.5430619716644287], [-0.03767771273851395, -0.028952576220035553, 0.006199839990586042, 0.026610972359776497, -0.10969019681215286, 0.16700416803359985, 0.23426400125026703, -0.20014671981334686, 0.06844363361597061, 0.1182422861456871, 0.03264620527625084, 0.19059902429580688, -0.05912717431783676, 0.06988005340099335, -0.32104459404945374, -0.3384858965873718, 0.011656948365271091, -0.05591002106666565, -0.4935922920703888, -0.3885936737060547, -0.05169341340661049, -0.00047595432261005044, 0.0313376821577549, -0.171495720744133, -0.01326910313218832, 0.2554619312286377, 0.27197298407554626, -0.4582340121269226, -0.05747366324067116, -0.051672663539648056, -0.16244877874851227, -0.010971058160066605, 0.04868243262171745, 0.12363027036190033, -0.024942131713032722, 0.15614548325538635, -0.22850847244262695, -0.2629726529121399, 0.30785608291625977, 0.5194054841995239, 0.0637068897485733, 0.2673605680465698, 0.23270642757415771, 0.2808583676815033, 0.011432213708758354, -0.20545294880867004, 0.9807199835777283, -0.34572336077690125, -0.04184537008404732, 0.036176905035972595, -0.4604303538799286, 0.14840495586395264, 0.44291871786117554, 0.058615900576114655, 0.0010794944828376174, -0.35188180208206177, 0.5452833771705627, 0.003735819598659873, -0.12874174118041992, -0.22268187999725342, -0.12669694423675537, -0.37901610136032104, 0.2400919497013092, 0.035456351935863495], [0.010801629163324833, -0.10458976775407791, -0.1261274218559265, -0.21094943583011627, 0.4318579435348511, -0.28053680062294006, -0.13195547461509705, 0.08194666355848312, -0.04294031113386154, -0.1795678734779358, 0.025152143090963364, -0.00264292536303401, -0.04343581199645996, -0.08364927768707275, -0.3928508758544922, -0.12335511296987534, 0.19948267936706543, -0.06068239361047745, -0.05143594369292259, 0.8979153037071228, 0.17739294469356537, -0.04788372293114662, -0.15822777152061462, 0.1699874997138977, 0.13411258161067963, -0.11289355158805847, 0.07969038188457489, -0.009480535984039307, -0.20933771133422852, -0.21957328915596008, -0.16057366132736206, 0.10641588270664215, -0.24253444373607635, -0.24106189608573914, 0.0019122795201838017, 0.08864063769578934, -0.6663877367973328, -0.04610470309853554, 0.0023854533210396767, 0.39171990752220154, 0.09464869648218155, 0.3168471157550812, -0.04659464210271835, -0.21529456973075867, 0.10126974433660507, -0.26787069439888, -0.5313217043876648, 0.02139837108552456, 0.38093096017837524, -0.3613530695438385, -0.12850108742713928, 0.021285099908709526, 0.014033610001206398, 0.034922488033771515, 0.05654421076178551, -0.019649511203169823, 0.16992808878421783, 0.199846088886261, -0.36418527364730835, -0.009555756114423275, -0.14720909297466278, -0.2994159460067749, 0.0463232658803463, 0.09738131612539291], [-0.8662724494934082, -0.6063356399536133, 0.4006897211074829, 0.7057041525840759, 0.018151389434933662, 0.6467000842094421, -0.3892662525177002, 0.40426987409591675, -0.16190145909786224, 0.011056515388190746, -0.21675843000411987, 0.19967597723007202, 0.14461466670036316, -0.004326374735683203, 0.20226441323757172, 0.1500350683927536, 0.2716340720653534, 0.9020658135414124, -0.09502509236335754, -0.766825795173645, 0.18170151114463806, -0.3061262369155884, -0.17391671240329742, 0.4554433524608612, 0.6235775947570801, 0.174466073513031, -0.9146131277084351, 0.1285041868686676, -0.09590952098369598, -1.3395096063613892, 0.24407002329826355, -0.01983802579343319, -0.2830362915992737, 0.8914687037467957, 0.214506134390831, -0.33854734897613525, 0.042733680456876755, 0.3378460109233856, 0.19958427548408508, 0.4948713779449463, -0.150894895195961, 0.3982242941856384, 0.7793891429901123, 1.1822445392608643, -0.16603431105613708, -1.0482990741729736, 0.10446439683437347, -0.3803567588329315, -1.4898531436920166, -1.0171388387680054, -1.4252549409866333, -0.09961418807506561, -0.1784374862909317, 1.1297492980957031, 0.024630418047308922, -0.8463189005851746, -0.8431145548820496, 0.08783942461013794, -0.8293822407722473, -0.7863532900810242, 0.05635709688067436, 0.3553996980190277, 0.4709112346172333, 1.2036561965942383], [-0.05939428135752678, -0.6285628080368042, -0.22066348791122437, 0.38484516739845276, 0.08177094906568527, 0.36800697445869446, -0.020533429458737373, 0.18584102392196655, -0.44289395213127136, 0.15771080553531647, -0.14669731259346008, 0.11181240528821945, 0.08197595924139023, -0.09142215549945831, 0.21041832864284515, 0.18163853883743286, -0.028504574671387672, 0.4766460061073303, -0.39802026748657227, -0.028521006926894188, 0.2788839340209961, 0.18146225810050964, -0.023285936564207077, 0.09568950533866882, 0.20467963814735413, 0.16701816022396088, -0.2864546477794647, 0.1628471165895462, 0.5065549612045288, -0.28376197814941406, 0.26012566685676575, 0.22943668067455292, -0.2916027903556824, 0.9604496955871582, 0.022555356845259666, -0.2877523601055145, -0.3731083869934082, -0.029049469158053398, -0.07515871524810791, -0.09697439521551132, -0.08122763782739639, -0.08438285440206528, 0.22675003111362457, 0.02203047089278698, -0.0246342234313488, -0.39192527532577515, 0.20735007524490356, 0.42683809995651245, -0.37826651334762573, 0.5584123730659485, -0.3245576322078705, -0.02959381975233555, -0.23569269478321075, 0.664617121219635, -0.019465630874037743, -0.03803272172808647, -0.14216989278793335, 0.1741313487291336, -0.3041309714317322, -0.2189715951681137, 0.3231790363788605, 0.0935216024518013, 0.13387472927570343, 0.2910528779029846], [-0.0074484581127762794, 0.10935800522565842, 0.04170689359307289, 0.47122660279273987, 0.004817835055291653, 0.059795793145895004, -0.03085182048380375, -0.03364924341440201, 0.022688603028655052, 0.006745399907231331, -0.12606950104236603, -0.10402840375900269, -0.13527092337608337, 0.31274065375328064, -0.16270093619823456, 0.061054885387420654, -0.15693870186805725, 0.3181069791316986, -0.25779590010643005, -0.4467962980270386, 0.06025325879454613, 0.011278883554041386, -0.011042144149541855, -0.0101732537150383, 0.11992860585451126, -0.023888757452368736, -0.015678388997912407, -0.15840843319892883, 0.5682711005210876, -0.7493000030517578, 0.18493714928627014, 0.05446333810687065, 0.17749205231666565, 0.9073141813278198, 0.04578937217593193, 0.046675000339746475, 0.5185976624488831, -0.06477173417806625, -0.27151837944984436, 0.0029467660933732986, -0.47382012009620667, -0.2179306596517563, 0.8499653339385986, -0.24273143708705902, -0.18534795939922333, -0.1402912139892578, 0.46869805455207825, -0.03243459761142731, 0.2676481604576111, -0.3768221139907837, -0.40982213616371155, -0.1136462613940239, -0.004455944057554007, 0.43855997920036316, 0.05296797677874565, 0.03729475662112236, -0.16241368651390076, -0.3815377950668335, -0.07259681075811386, -0.46560657024383545, 0.3817152976989746, 0.462284654378891, -0.024515435099601746, -0.030901698395609856], [-0.03976121172308922, 0.0686488226056099, -0.2992784082889557, 0.15770940482616425, 0.3219183385372162, 0.1615033596754074, 0.0265788771212101, 0.42438656091690063, -0.40993356704711914, 0.20678944885730743, -0.1373920887708664, 0.23367972671985626, 0.16349118947982788, -0.19763098657131195, 0.3020870089530945, -0.5791197419166565, 0.09270267188549042, -0.18201760947704315, -0.16561423242092133, -0.06908666342496872, -0.39168480038642883, 0.0635976493358612, -0.029552608728408813, -0.06453128159046173, 0.033018793910741806, 0.1962791383266449, 0.08933889120817184, 0.06714942306280136, -0.3385292887687683, 0.3367813527584076, 0.017771577462553978, -0.3671979010105133, 0.1149822399020195, -0.2481284886598587, -0.2111542820930481, -0.11884632706642151, -0.37099796533584595, -0.053960055112838745, 0.0600900799036026, 0.36110493540763855, 0.22676683962345123, -0.13156534731388092, -0.011707541532814503, -0.27021196484565735, -0.2723410725593567, 0.18985103070735931, -0.00414331303909421, 0.02535759098827839, -0.3405325412750244, 0.30820372700691223, 0.12986168265342712, -0.07098919153213501, -0.1518663465976715, 0.37823569774627686, -0.06359562277793884, -0.26765555143356323, -0.06748911738395691, 0.19151830673217773, 0.1078326627612114, 0.260280579328537, -0.03011278249323368, 0.17864684760570526, -0.10677056759595871, 0.20989756286144257], [-1.2073569297790527, 0.5906356573104858, -0.8036648631095886, 0.30455851554870605, 0.9912533164024353, -1.2317808866500854, 0.8702767491340637, 4.234301567077637, -0.4794251620769501, -2.2370893955230713, 0.4858199954032898, -0.6353994011878967, -0.7486311793327332, 0.15057198703289032, -0.38171103596687317, -0.12869161367416382, 2.8842692375183105, 4.903552532196045, -1.2334328889846802, -0.10678058117628098, 1.1552132368087769, -0.4077795445919037, 0.06179237738251686, 0.4912869930267334, 0.646439790725708, 1.4023199081420898, 0.210320845246315, -0.9299585819244385, 4.060173988342285, -1.6008549928665161, 0.992745578289032, 5.786064624786377, 0.8722121715545654, 9.032963752746582, -0.2579846978187561, 1.1420257091522217, 0.15167221426963806, 0.1763133555650711, -0.30001598596572876, 0.36270949244499207, -0.4142700433731079, -3.8667843341827393, 5.920793533325195, -1.6927906274795532, 0.31843411922454834, -1.1695996522903442, 0.9516559839248657, 1.8199390172958374, -4.156346797943115, -2.9868717193603516, -2.8339295387268066, 0.5583850741386414, -1.1120171546936035, 6.107392311096191, 1.3596206903457642, 2.14890718460083, 0.22177673876285553, -0.19316366314888, -4.043563365936279, -3.1699867248535156, 3.574007511138916, -1.1161502599716187, 1.08478581905365, 0.49438387155532837], [0.0806213766336441, 0.05118459463119507, -0.09022553265094757, -0.3206327259540558, 0.22127047181129456, -0.2254873365163803, -0.3627198040485382, -0.251792848110199, 0.10384543985128403, -0.21936862170696259, -0.04793139919638634, -0.01756981387734413, 0.17774315178394318, 0.14130398631095886, 0.7101309895515442, -0.20410750806331635, -0.024077286943793297, 0.018446816131472588, -0.20070405304431915, 0.05023208633065224, -0.10688987374305725, 0.009861850179731846, -0.19202767312526703, 0.10223722457885742, 0.042917631566524506, -0.47618457674980164, 0.12698127329349518, -0.20305217802524567, 0.3704341948032379, -0.5297847986221313, 0.7509952187538147, 0.008941121399402618, 0.17648012936115265, 0.28707051277160645, 0.33649176359176636, -0.054172638803720474, 0.04461202397942543, -0.08986368030309677, 0.036329206079244614, 0.062085021287202835, -0.16081345081329346, -0.05326984077692032, 0.21772807836532593, -0.09476776421070099, 0.2158939391374588, -0.07445637136697769, 0.3908797800540924, 0.1582385152578354, 0.18696407973766327, 0.2435579150915146, 0.20127324759960175, 0.0017120495904237032, 0.12301994115114212, -0.15471962094306946, 0.6396443843841553, 0.14511367678642273, -0.06323660165071487, -0.10201025754213333, -0.08439386636018753, -0.2522066831588745, -0.5223154425621033, 0.19740334153175354, -0.08867859840393066, 0.06966780871152878], [-1.6548817157745361, -1.4875928163528442, 0.8371065258979797, 0.7829877138137817, -0.2101110965013504, -0.34063565731048584, -1.52985417842865, -2.8361878395080566, 1.7912150621414185, 4.583643913269043, -1.0749459266662598, 0.05110650509595871, 0.8317003846168518, 0.592359721660614, -0.15650536119937897, 1.65335214138031, -2.4585514068603516, -4.815517425537109, 0.354968398809433, -0.2927434742450714, 0.28880152106285095, -0.1011146679520607, -0.24932652711868286, 0.07043278217315674, 0.52349454164505, -1.6990431547164917, -1.3151943683624268, -0.7575028538703918, -2.8802664279937744, 0.20502807199954987, 0.3963055908679962, -5.294649124145508, -2.854323148727417, -3.288816213607788, 0.022428687661886215, -1.9318788051605225, -0.20058083534240723, -0.872424840927124, 0.3912833631038666, 0.1549665778875351, 1.2016563415527344, -2.5727219581604004, -2.412949800491333, 2.999178886413574, -0.2951442003250122, 1.7040185928344727, 0.4145703613758087, -0.5615233778953552, 4.873877048492432, 1.2201510667800903, 2.0915534496307373, 0.02999042347073555, 1.5043809413909912, -2.8476545810699463, -0.26016461849212646, 3.583040714263916, -2.0867857933044434, 0.8413942456245422, 4.7282609939575195, 2.137669324874878, -0.7306219935417175, 0.6668477058410645, -1.2845218181610107, 1.3033653497695923], [-1.0210566520690918, 1.440811276435852, -0.08499888330698013, 0.38070064783096313, -0.753700315952301, -0.8917415142059326, -0.330262690782547, -0.43782323598861694, 0.4036813974380493, 0.44464072585105896, 0.19548554718494415, -0.2788161337375641, 0.8375900983810425, -0.7033095359802246, -0.026829471811652184, -0.825765073299408, -0.850491464138031, -1.5299428701400757, -1.148018717765808, 1.6095607280731201, 0.35897913575172424, 0.2851427495479584, -0.08926387876272202, -1.0586377382278442, 0.16121621429920197, -1.4328904151916504, 0.3343753218650818, -0.2943752408027649, 1.2883856296539307, -0.3717542588710785, 1.0033303499221802, -0.03504711389541626, 0.22165094316005707, 0.049356214702129364, 0.6960776448249817, 0.000700531352777034, -0.8260655403137207, 0.30450841784477234, -0.26951974630355835, -0.31843265891075134, -0.10776284337043762, 0.2038193941116333, 1.0447427034378052, 0.6884098649024963, -0.10261479020118713, 0.0606626532971859, -0.14056354761123657, -3.3219406604766846, 2.6832544803619385, -0.2778274416923523, 0.9651244878768921, 0.1335366666316986, 0.6075229048728943, 0.7079355120658875, 0.7445000410079956, 0.7041207551956177, 0.3262351155281067, 0.28773751854896545, 2.9602670669555664, 0.5875111222267151, -0.30266475677490234, -0.6403356790542603, -1.3521078824996948, 0.7173599600791931], [0.039743781089782715, -0.21168577671051025, -0.08627389371395111, 0.05784642696380615, 0.14165589213371277, 0.17646129429340363, 0.07856596261262894, -0.005168063100427389, -0.37402045726776123, 0.21259962022304535, -0.36551278829574585, 0.3523717224597931, 0.10199090093374252, -0.0390252061188221, 0.12456510215997696, 0.014208010397851467, 0.44090649485588074, 0.04429430887103081, 0.300025999546051, -0.17114001512527466, -0.35942646861076355, 0.049665555357933044, -0.3070676326751709, 0.3283768594264984, 0.3626512587070465, 0.15139639377593994, -0.1457485556602478, -0.01725705713033676, -0.057797182351350784, -0.11122569441795349, 0.010608396492898464, -0.10173579305410385, -0.0850248783826828, -0.004912140779197216, -0.2551572918891907, -0.11409115046262741, 0.07140898704528809, 0.0627380982041359, 0.05345223844051361, -0.07432802766561508, 0.11233405023813248, 0.005224468652158976, -0.11671052873134613, 0.19023717939853668, -0.2800379693508148, 0.12759755551815033, 0.3700569272041321, -0.03906660154461861, -0.2212042510509491, 0.19958427548408508, -0.2726273238658905, -0.6241859197616577, -0.032853782176971436, -0.04472384974360466, -0.3176378309726715, -0.09178116172552109, -0.2639538049697876, 0.36807525157928467, 0.012147116474807262, -0.013185466639697552, 0.30783015489578247, 0.2755576968193054, -0.03549307584762573, 0.44404131174087524], [-0.05615246668457985, -0.2254239022731781, 0.14996787905693054, 0.2572402358055115, 0.2636167109012604, 0.14645184576511383, 0.386333167552948, -0.08893582969903946, -0.14907144010066986, 0.1751186102628708, -0.2599891126155853, 0.36646002531051636, -0.15945906937122345, 0.2495184987783432, 0.17275694012641907, 0.28798040747642517, 0.2995646595954895, 0.09889040887355804, 0.24145418405532837, 0.42543908953666687, -0.41802507638931274, -0.020174117758870125, -0.3441704511642456, 0.10056156665086746, 0.14145338535308838, 0.005241210572421551, 0.12369614094495773, 0.07734102755784988, -0.35940709710121155, -0.16808080673217773, -0.051241133362054825, -0.02742875926196575, -0.3536205291748047, 0.08676696568727493, -0.1675361543893814, 0.051716480404138565, 0.12973560392856598, -0.23426216840744019, 0.12545794248580933, -0.6259287595748901, 0.6052124500274658, -0.0989818274974823, 0.20564275979995728, 0.42536163330078125, -0.0614641048014164, 0.02135138027369976, 0.09019628167152405, -0.45456600189208984, -0.586310863494873, 0.04592945799231529, -0.3532688617706299, -0.254991739988327, -0.19336088001728058, 0.24327661097049713, -0.03449352830648422, 0.1910068541765213, -0.01793918013572693, 0.3701484203338623, 0.03454096242785454, 0.37255218625068665, 0.41405370831489563, -0.39948853850364685, -0.16970184445381165, 0.1950315237045288], [-0.16429859399795532, -1.5171451568603516, 0.2571910619735718, 0.26023250818252563, -1.315491795539856, 0.45735877752304077, -0.8442938923835754, -1.0186131000518799, 1.406533122062683, 0.3226771056652069, 0.19863636791706085, -0.7373701930046082, 0.30479374527931213, -0.28169548511505127, 1.5731639862060547, -0.03335418552160263, -1.546265721321106, 0.1521548479795456, 0.6601517796516418, -0.17192119359970093, 0.4025895595550537, 0.5786854028701782, 0.36219826340675354, 0.14955823123455048, 0.32166463136672974, -1.4337049722671509, -0.1527433842420578, -0.5076795816421509, -0.6727373003959656, -0.26530641317367554, -0.3859761655330658, -0.28525519371032715, 0.5710043907165527, 1.9044562578201294, -0.9214051961898804, -0.6513187885284424, 1.6110665798187256, -0.4693678617477417, -0.42662692070007324, 0.13024543225765228, -0.05856384336948395, -0.026742905378341675, -0.12986746430397034, 0.553035318851471, 0.09721096605062485, 0.20510263741016388, 0.543425440788269, 0.1172296553850174, 0.8562574982643127, -1.2636473178863525, -0.17757637798786163, 0.06429261714220047, 0.6155472993850708, 0.6274564266204834, 0.13205648958683014, 2.41896915435791, 1.3813824653625488, -0.3333393931388855, 1.98854660987854, -1.2435519695281982, -0.366791307926178, -0.5899292826652527, 0.8040034770965576, 0.18648582696914673], [0.23341204226016998, 0.24166011810302734, -0.004357569385319948, -0.8648927211761475, -0.5177162289619446, 1.7160356044769287, -0.37699422240257263, -0.7948185205459595, -0.7999677062034607, -0.6176619529724121, -0.1388135552406311, -0.3431153893470764, -0.35030317306518555, 0.677935004234314, 0.6487370729446411, 0.5439314246177673, 0.0938640907406807, -0.1072627380490303, 0.48319414258003235, 0.8655994534492493, 0.367981493473053, -0.26482701301574707, 0.3037327826023102, -0.7890865206718445, -0.6490054130554199, -0.14768272638320923, -0.2828318178653717, 0.46012985706329346, 0.034916821867227554, 0.8681496977806091, -0.034251753240823746, -0.07779654115438461, -0.05690833926200867, -1.2643922567367554, -0.6955395340919495, 0.8151996731758118, -0.9215418100357056, 0.5245741605758667, -0.06778150796890259, -0.063206747174263, 0.3315189778804779, -0.14417102932929993, 0.07875292003154755, 0.8861774206161499, 0.5637043118476868, -1.0610703229904175, 0.17401860654354095, -0.8076798915863037, 1.2804113626480103, -1.2980906963348389, -1.0160826444625854, 0.3288048803806305, 0.1447124183177948, -1.31444251537323, -0.3609311878681183, -0.09221910685300827, 0.6681169867515564, -0.05649130046367645, -0.30877983570098877, -1.343819260597229, -0.18588411808013916, -0.35818445682525635, -0.7349858283996582, -0.3268577456474304], [-0.2535009980201721, -0.3511495590209961, 0.2082902491092682, 0.28830277919769287, 0.048280466347932816, 0.14193305373191833, -0.11927787959575653, 0.006381596438586712, -0.34544968605041504, 0.15583620965480804, -0.06344980001449585, 0.08736077696084976, -0.05467083305120468, 0.013646639883518219, 0.05156432092189789, 0.2720905542373657, 0.003422664711251855, 0.07963456958532333, 0.36910614371299744, 0.09626027941703796, -0.12951259315013885, 0.012063955888152122, -0.13745391368865967, 0.41741758584976196, 0.15307487547397614, 0.3112548887729645, -0.004387931432574987, 0.32794785499572754, -0.16800333559513092, 0.1713426560163498, 