{"model_data": {"model": "SimpleRNN", "input_size": 1, "skip": 1, "output_size": 1, "unit_type": "GRU", "num_layers": 1, "hidden_size": 64, "bias_fl": true}, "state_dict": {"rec.weight_ih_l0": [[1.32875657081604], [-0.32714760303497314], [0.08173006027936935], [-0.11165353655815125], [-0.8549427390098572], [-0.7905591726303101], [-0.22124001383781433], [-1.3430966138839722], [0.8349167704582214], [-0.7130915522575378], [0.9694715142250061], [-0.03032543696463108], [-0.2726542055606842], [0.08636528998613358], [0.053283270448446274], [-0.1515405923128128], [0.1751139760017395], [-0.5679005980491638], [-1.5692061185836792], [0.05132080242037773], [-0.017537446692585945], [0.5986979603767395], [-0.13011157512664795], [0.3776584565639496], [-0.011874385178089142], [0.7234618067741394], [0.447865754365921], [-2.1878316402435303], [2.2159676551818848], [2.6898128986358643], [-4.707388401031494], [-2.2667582035064697], [-0.9890300631523132], [-1.0441482067108154], [-0.4694567620754242], [-1.424241542816162], [0.21065659821033478], [-0.6191933155059814], [-0.37857282161712646], [0.4748833179473877], [0.2504199743270874], [1.3702884912490845], [-1.6366941928863525], [-3.0541951656341553], [0.12065640091896057], [-0.3991706967353821], [0.09988507628440857], [-0.4025721848011017], [-0.6351160407066345], [2.5949134826660156], [-0.22457318007946014], [-2.555957555770874], [-0.35816749930381775], [-3.690169334411621], [0.04235827922821045], [-1.4452317953109741], [0.003987795673310757], [-0.8796744346618652], [1.4756433963775635], [1.4821866750717163], [1.024932622909546], [0.06496671587228775], [4.247300148010254], [0.5093555450439453], [-0.23851877450942993], [1.0292716026306152], [0.1150093823671341], [-0.28959593176841736], [1.303701639175415], [-0.03708935156464577], [0.22739164531230927], [1.2626398801803589], [2.645045518875122], [-2.3770477771759033], [-1.046018362045288], [-1.3812052011489868], [-0.7712843418121338], [-0.3383150100708008], [0.3605959713459015], [-0.275133341550827], [2.2578699588775635], [-1.4506813287734985], [-0.14183714985847473], [-0.1639535278081894], [-0.052891310304403305], [-0.6714041829109192], [0.10624434798955917], [-0.06008211523294449], [0.06991836428642273], [-0.6065278649330139], [-0.18780945241451263], [0.2957533895969391], [0.9802817106246948], [0.4778198003768921], [-0.31429964303970337], [-0.5756780505180359], [2.0148725509643555], [1.410309910774231], [2.739255666732788], [-0.39161738753318787], [0.0477878637611866], [-0.6675714254379272], [0.22411948442459106], [-0.21051165461540222], [0.4631224274635315], [-0.26472821831703186], [-1.3376151323318481], [0.7114465236663818], [-0.44714489579200745], [-0.6313718557357788], [0.42701026797294617], [0.3537159562110901], [1.1556768417358398], [0.5400897264480591], [-0.6395015120506287], [-0.015937399119138718], [0.27024978399276733], [0.7015215754508972], [0.03980495035648346], [-1.7484101057052612], [-0.215567946434021], [-0.9914236664772034], [1.2691657543182373], [-0.33626800775527954], [0.5327553153038025], [0.020744824782013893], [-0.745806872844696], [1.4076486825942993], [0.22680173814296722], [2.1242995262145996], [0.6696562170982361], [0.258327454328537], [-0.18186916410923004], [-0.189479798078537], [-0.7683599591255188], [3.964022159576416], [-1.09189772605896], [-0.9866306185722351], [0.07838038355112076], [0.32156991958618164], [-0.49665123224258423], [-0.6326538920402527], [-0.24640808999538422], [-1.0507031679153442], [-0.19061972200870514], [2.0753839015960693], [-2.1664843559265137], [-0.2939809560775757], [-0.6995647549629211], [-0.21952609717845917], [0.13567163050174713], [-0.7095174193382263], [0.7488794326782227], [-0.06966723501682281], [0.25950297713279724], [-2.5412099361419678], [3.1470749378204346], [-2.1034984588623047], [3.7884724140167236], [2.607133626937866], [0.6996991634368896], [8.80919075012207], [-0.030346808955073357], [0.6822070479393005], [0.17924505472183228], [0.014515361748635769], [0.03573872521519661], [0.8233016729354858], [0.13952495157718658], [-0.014600064605474472], [5.984577655792236], [-0.6331848502159119], [0.12746232748031616], [-0.3560161292552948], [-0.5943465232849121], [-0.2954385280609131], [-1.2612086534500122], [-3.406571626663208], [-1.4360226392745972], [0.9588057398796082], [0.5191277861595154], [4.914351463317871], [1.1897456645965576], [-0.5229217410087585], [0.12786853313446045], [-0.4131213426589966], [-2.033212423324585], [-3.7756826877593994], [2.3382694721221924], [0.262173056602478], [0.11192520707845688], [0.46216604113578796]], "rec.weight_hh_l0": [[0.32334545254707336, -0.03814864531159401, -0.1890650987625122, -0.27190515398979187, -0.058789994567632675, 0.9198713898658752, -0.8979112505912781, -0.9219064116477966, 0.8495358824729919, 0.40595728158950806, -0.21299315989017487, -1.3757572174072266, -0.26270508766174316, 0.3199545443058014, 0.37810397148132324, -0.4383693039417267, -0.4103981852531433, -1.1051455736160278, 0.033501747995615005, -0.7742763757705688, -0.5376269817352295, 0.251283198595047, 0.11299102753400803, 0.230076402425766, 0.1484001725912094, 0.9629122614860535, 0.47148820757865906, 0.5767401456832886, 0.18189768493175507, 0.7223197817802429, 0.3711748719215393, -0.41512244939804077, 0.09875781089067459, -0.013408094644546509, -0.7536918520927429, -0.5339466333389282, -0.061357468366622925, -0.20585712790489197, -0.05584055185317993, -0.10032590478658676, -0.4220447838306427, 0.28719377517700195, -0.21925975382328033, 2.793184995651245, 0.17724092304706573, 0.3707805573940277, -0.18600940704345703, -1.65967857837677, 1.4504027366638184, -0.13617482781410217, 0.7906891703605652, 0.08963508903980255, -0.301131933927536, -0.07198591530323029, 0.941719651222229, -0.02851385436952114, -0.442022442817688, 0.20832355320453644, 1.4031460285186768, 0.28505873680114746, 1.120699405670166, 0.04681868106126785, -0.5454488396644592, -0.021550163626670837], [0.32230833172798157, 0.20577865839004517, 0.26718372106552124, -0.37942925095558167, 0.06407219916582108, -0.14779195189476013, 0.13441111147403717, -0.045802127569913864, 0.09737610071897507, 0.016476960852742195, 0.22569701075553894, -0.02378064952790737, -0.04356706142425537, -0.18661195039749146, -0.5078860521316528, -0.17867335677146912, 0.1039041206240654, -0.09056870639324188, -0.12426424026489258, 0.2103351652622223, -0.08543805032968521, 0.08569476753473282, 0.07392887771129608, -0.47460320591926575, 0.08246652036905289, -0.05940312147140503, -0.02602626010775566, -0.17072555422782898, -0.2667209506034851, 0.18076354265213013, -0.16469047963619232, -0.024175243452191353, 0.060476187616586685, -0.39012885093688965, 0.19422364234924316, 0.19830884039402008, 0.13813915848731995, -0.019690800458192825, -0.45082205533981323, -0.28261786699295044, -0.04396229237318039, -0.06410389393568039, -0.03246944025158882, 0.007324211299419403, 0.03246833384037018, 0.060808178037405014, -0.3861641585826874, -0.19547094404697418, 0.11100103706121445, 0.4892067015171051, 0.26983642578125, -0.017129823565483093, 0.7142024040222168, 0.1141953319311142, -0.10522126406431198, -0.11187685281038284, -0.3023233115673065, 0.20739024877548218, 0.08004815876483917, 0.2796456217765808, -0.05823168903589249, -0.23048385977745056, -0.07175915688276291, -0.2884303331375122], [-0.074242003262043, -0.5443545579910278, 0.3658863306045532, 0.3197617828845978, 0.053937509655952454, 0.12198841571807861, 0.47511669993400574, 0.28523916006088257, -0.07962895184755325, 0.141134575009346, -0.08453977108001709, -0.003116536419838667, 0.10059835761785507, 0.08543655276298523, 0.050905097275972366, -0.09570256620645523, 0.14763905107975006, 0.15025123953819275, -0.22352543473243713, -0.043075092136859894, 0.1643947958946228, -0.1051250472664833, 0.055000681430101395, 0.14125289022922516, -0.008413171395659447, -0.07034409791231155, 0.0014700121246278286, -0.09594112634658813, 0.0377277135848999, -0.04913945868611336, 0.012210516259074211, -0.1888325810432434, 0.12764959037303925, -0.4145244061946869, -0.002232639817520976, -0.11549466103315353, -0.2167399674654007, -0.030794594436883926, 0.11857570707798004, 0.3470786511898041, -0.18423452973365784, -0.13696590065956116, 0.19244006276130676, 0.18757368624210358, -0.004244632553309202, -0.07486630976200104, -0.07005784660577774, -0.057716839015483856, -0.02567955106496811, 0.8608869314193726, -0.06293190270662308, 0.17742949724197388, 0.19390343129634857, -0.07708574831485748, 0.006241501774638891, -0.07829685509204865, -0.3706726133823395, 0.11813312768936157, 0.022855082526803017, 0.2296215146780014, -0.174686998128891, 0.16585372388362885, -0.011596046388149261, -0.0017071831971406937], [-0.09132342040538788, 0.0443352609872818, -0.03475102409720421, 0.031570468097925186, -0.01805328205227852, 0.1150866225361824, 0.5868138074874878, 0.8968266844749451, -0.39909452199935913, -0.006762291304767132, 0.11278630048036575, 0.20124167203903198, 0.5792885422706604, -0.1385038048028946, -0.5566413998603821, -0.04508667439222336, -0.16422255337238312, -0.04529383406043053, -0.5959632992744446, 0.9716613292694092, -0.5484523773193359, -0.612125813961029, -0.03597475215792656, 0.4594237208366394, 0.12093786895275116, 0.15343090891838074, -0.12701550126075745, -0.1533510535955429, 0.19636642932891846, -0.4780578315258026, -0.2874068021774292, -0.07568002492189407, 0.29940688610076904, 0.09871317446231842, -0.1695716232061386, -0.13263829052448273, -0.7886713743209839, 0.0072007249109447, 0.09243027865886688, -0.2248140573501587, 0.21476046741008759, -0.6977073550224304, -0.4222176671028137, -0.38175320625305176, -0.23977972567081451, -0.6432040929794312, -0.07056478410959244, -0.4944649636745453, -0.43800339102745056, 0.059391312301158905, -0.03141656145453453, 0.030114492401480675, 0.0071714092046022415, 0.24607500433921814, -0.3692834973335266, -0.22754792869091034, 0.03520123288035393, 0.05351777747273445, -0.2514459788799286, 0.05821777880191803, 0.13237778842449188, 0.193424791097641, -0.4276621341705322, -0.003911568317562342], [0.5694771409034729, 0.2299898862838745, -0.02657383307814598, 0.9073969721794128, 0.850953221321106, 1.7137112617492676, 0.23046107590198517, -0.38728052377700806, -0.06441081315279007, 0.6705082654953003, -0.009161658585071564, -0.8253056406974792, -0.021062497049570084, -0.8490182161331177, 1.1229428052902222, 1.4290822744369507, -0.4363786578178406, -0.4055227041244507, -0.4580961763858795, 0.002864607609808445, 0.3350578546524048, 0.3957555294036865, 0.24186527729034424, -0.25999224185943604, -0.2801198959350586, -1.3044222593307495, -0.5943737030029297, -0.5818148255348206, 1.0422389507293701, -0.3444809913635254, -0.31002938747406006, 0.7632830142974854, 0.9692356586456299, -1.2016515731811523, -1.204337477684021, 0.5035821795463562, 1.3603318929672241, -0.18754179775714874, -0.055145513266325, -0.17436407506465912, -0.06596983224153519, -1.676590919494629, -1.0321416854858398, 0.05875381454825401, 0.2297980636358261, 0.1420782059431076, 0.5741432905197144, 0.16524545848369598, 0.6917583346366882, -0.9603185653686523, -1.6723870038986206, 0.15540899336338043, -0.2795640528202057, 0.09653697162866592, -0.8964225649833679, 0.3627304434776306, 0.4201442003250122, 0.15260708332061768, 0.8013848066329956, -0.21710611879825592, 2.184056520462036, 0.4717135727405548, -0.9222183227539062, -0.3728695213794708], [0.9566992521286011, 0.012901172041893005, -0.1390116810798645, -1.200549840927124, -0.3594985008239746, -0.7397183775901794, 0.804219126701355, 0.7385342121124268, -0.26010510325431824, -0.32775261998176575, 0.08065541088581085, 0.16985175013542175, -0.5475509762763977, -0.3126322329044342, -0.8847946524620056, 0.44559961557388306, 0.12712672352790833, 0.05510184168815613, 0.2831261157989502, -0.14735375344753265, -0.16316500306129456, -0.4867246448993683, 0.0007593256304971874, -0.1346939504146576, -0.14927704632282257, 0.5318622589111328, 0.05656084045767784, -0.44001466035842896, 0.7076144218444824, -0.5274168252944946, -0.4668184220790863, 0.6236585378646851, -0.05220039561390877, -0.0831105038523674, 0.040831178426742554, -0.16648180782794952, -0.10057603567838669, -0.06438455730676651, -0.21007364988327026, -0.10035112500190735, -0.10096780955791473, -0.05711456760764122, -0.19895783066749573, -0.20576238632202148, 0.05665646493434906, 0.5590317249298096, 0.008027407340705395, 0.5232529044151306, -0.23098014295101166, 0.40070652961730957, -0.6516191959381104, -0.14921726286411285, -0.204080730676651, 0.014439486898481846, 0.008361509069800377, 0.3019789457321167, 0.19406627118587494, -0.131901815533638, -0.420295774936676, 0.23621535301208496, 0.7522138357162476, -0.21351739764213562, 0.13584741950035095, -0.26849839091300964], [0.17135627567768097, -0.2700597941875458, -0.36364951729774475, -0.07886406034231186, 0.012056778185069561, -0.23498418927192688, 0.11735565960407257, -0.07655766606330872, -0.14748133718967438, 0.0011261351173743606, 0.15678225457668304, -0.08004393428564072, -0.11560321599245071, -0.17181900143623352, -0.34674781560897827, 0.13372798264026642, 0.18837960064411163, -0.3212674856185913, -0.09389767795801163, 0.004530430771410465, -0.18438422679901123, 0.014814820140600204, 0.3420121669769287, 0.10204681009054184, -0.3660490810871124, -0.00996287353336811, 0.15607622265815735, -0.2341528832912445, 0.004625742323696613, 0.5263652801513672, 0.011569876223802567, -0.27158600091934204, 0.2487327754497528, -0.20942531526088715, -0.006743008270859718, 0.06136024370789528, 0.30118265748023987, -0.060500677675008774, -0.30560001730918884, 0.11304567009210587, 0.15088963508605957, 0.18870507180690765, 0.128716841340065, 0.11602426320314407, 0.2323039472103119, 0.2710256576538086, -0.2132301926612854, -0.005632402841001749, -0.1913795918226242, 0.7036316990852356, 0.13393338024616241, 0.3889269232749939, 0.2609574496746063, 0.4029717445373535, 0.14050285518169403, -0.05924401432275772, -0.2789390981197357, -0.044190920889377594, -0.00545598054304719, -0.2559053599834442, -0.045236460864543915, -0.42345693707466125, -0.11987922340631485, -0.23832686245441437], [-0.13426277041435242, -0.3447730541229248, -0.1388418972492218, 0.34093958139419556, 0.17416952550411224, -0.00991036742925644, -0.3997805118560791, -0.18831245601177216, -0.3232511281967163, 0.036598432809114456, -0.29127100110054016, 0.31000348925590515, -0.010294796898961067, 0.1391795575618744, 0.19877499341964722, 0.2811644971370697, 0.10907533019781113, 0.004312883596867323, 0.6407713294029236, -0.8413291573524475, -0.8839352130889893, -0.5570449829101562, -0.5291316509246826, -0.05964769050478935, 0.33373141288757324, 0.2019187957048416, -0.2767995297908783, 0.5569818615913391, -0.9606124758720398, 0.7965880632400513, -0.1599722057580948, 0.20226925611495972, -0.10449130833148956, -0.5649159550666809, -0.21765488386154175, -0.45952728390693665, -0.3500188887119293, -0.17134280502796173, 0.30274319648742676, 0.03087778203189373, -0.2469496876001358, -0.2505306899547577, -0.09013315290212631, 0.20123060047626495, -0.15157350897789001, 0.048377010971307755, -0.44217872619628906, -0.010907667689025402, -0.42459139227867126, 0.9246472716331482, -0.6261616349220276, 0.029898421838879585, 0.24870768189430237, 0.10064701735973358, -0.5769763588905334, -0.0029956812504678965, -0.054856084287166595, 0.5264240503311157, -0.3050701916217804, -0.4102223515510559, -0.09886959940195084, -0.019356975331902504, -0.34360846877098083, 0.425220251083374], [0.19663868844509125, 0.12198186665773392, -0.2485755980014801, -0.34726962447166443, 0.003566981991752982, -0.2105061262845993, 0.16051582992076874, 0.09693983942270279, -0.7766135931015015, 0.25818923115730286, -0.1610071361064911, 0.25992387533187866, -0.46824175119400024, 0.2975307106971741, 0.8563039898872375, -0.17599886655807495, 0.43261104822158813, -0.07018505781888962, 0.13699296116828918, 0.10551874339580536, -0.4560806453227997, 0.06091354042291641, 0.10443508625030518, 0.0017165439203381538, -0.0806802287697792, -0.1445433795452118, -0.1691301465034485, 0.16792210936546326, 0.27752450108528137, 0.0044176955707371235, -0.2350187599658966, 0.11163128167390823, -0.00883663073182106, 0.8729772567749023, 0.06991279870271683, -0.2546409070491791, -0.13002729415893555, 0.20386001467704773, -0.1978483498096466, -0.4215095639228821, 0.304022878408432, -0.11072604358196259, 0.6225214004516602, -0.4638287127017975, 0.2006891369819641, 0.4203103482723236, -0.2514067590236664, 0.09943203628063202, 0.07373946160078049, -0.1903608739376068, 0.4181305766105652, -0.3582351803779602, -0.17530842125415802, 0.6262465715408325, 0.2583322823047638, -0.24910643696784973, 0.29479148983955383, 0.18240447342395782, 0.05121278762817383, 0.10431776940822601, 0.5466465353965759, -0.2472267597913742, -0.1386038362979889, -0.07064376026391983], [-0.9133925437927246, -0.43095076084136963, 0.22979983687400818, 0.2399328351020813, 0.1998976171016693, 0.6220879554748535, -0.015659507364034653, -0.44777214527130127, 0.29598623514175415, 0.7290256023406982, -0.13327893614768982, 0.1428932249546051, 0.6054403185844421, -0.005384260322898626, -0.02658427320420742, 0.30481356382369995, -0.1770801693201065, -0.24439993500709534, 0.43101078271865845, -0.40944966673851013, -0.2679610848426819, 1.3009217977523804, -0.2540627121925354, -0.2351534366607666, -0.014310726895928383, 0.18003849685192108, -0.23180770874023438, 0.41582977771759033, -0.412101686000824, 0.6988890171051025, -0.3792365491390228, -0.20110829174518585, -0.686449408531189, -0.41752803325653076, -1.2414822578430176, -0.7334113717079163, -0.2569620609283447, -0.11405754834413528, 0.17679870128631592, -0.09213673323392868, 0.24783729016780853, 1.1936441659927368, -0.4439745247364044, 0.54921555519104, -0.4348323941230774, -0.20193417370319366, 0.7270499467849731, 0.19313575327396393, 0.07305203378200531, -0.4479026794433594, 0.18923227488994598, -0.09631755948066711, 0.17277531325817108, -0.3056202828884125, -0.002249034820124507, -0.18489308655261993, -0.6541924476623535, 0.02365763485431671, 0.600915789604187, 0.22566671669483185, -0.15173034369945526, 0.4551566541194916, -0.7457683086395264, 0.1624925434589386], [-0.26833248138427734, -0.3269699513912201, -0.10580924153327942, 0.10771054029464722, -0.04357335343956947, -0.06840825825929642, -0.030556151643395424, -0.2551242709159851, -0.305095911026001, 0.18881163001060486, -0.050364479422569275, -0.18503442406654358, -0.09971890598535538, -0.13728320598602295, 0.38154250383377075, -0.016366008669137955, -0.11426746845245361, -0.31550371646881104, 0.3580636978149414, -0.5679665207862854, 0.06603439152240753, 0.07773374021053314, -0.22615517675876617, -0.029979119077324867, 0.17460668087005615, -0.1165333017706871, 0.13035228848457336, 0.015005103312432766, -1.1497414112091064, 0.643284797668457, -0.07309457659721375, 0.04440084844827652, 0.1679621934890747, -0.03017505630850792, -0.04199724644422531, -0.03618910536170006, 0.21527253091335297, -0.26838016510009766, -0.1374666690826416, -0.1263071894645691, 0.08542271703481674, 0.1868683397769928, -0.558475911617279, -0.05461091175675392, 0.19538047909736633, 0.11350202560424805, 0.13248787820339203, 0.17755275964736938, -0.4290633201599121, 0.6981598138809204, 0.15063223242759705, -0.2322947233915329, 0.14628790318965912, -0.2743681073188782, -0.05188961327075958, -0.019437551498413086, -0.22341495752334595, -0.16456736624240875, 0.22078751027584076, -0.0011351294815540314, -0.15464983880519867, 0.32507577538490295, -0.12422024458646774, 0.08208230137825012], [-0.25782522559165955, 0.020125994458794594, -0.08162809163331985, -0.23375821113586426, -0.49891605973243713, 0.6937494874000549, 0.17271338403224945, -0.2694966197013855, 0.08999976515769958, -0.40503841638565063, 0.06466875970363617, -0.15582208335399628, -0.5280836224555969, -0.03557435795664787, -0.26923879981040955, 0.20937855541706085, 0.17917411029338837, -0.1396646797657013, -0.24746371805667877, 0.2402939647436142, -0.023351125419139862, -0.23923178017139435, 0.09222763031721115, -0.37700721621513367, -0.011762971058487892, -0.004547060001641512, -0.26849377155303955, -0.4424801468849182, -0.7971563935279846, 0.8682572841644287, -0.0311227235943079, -0.03700761869549751, 0.0424487479031086, 0.13969649374485016, 0.20973651111125946, -0.4063766598701477, -0.07987841963768005, 0.16181522607803345, -0.10626290738582611, -0.10289593786001205, 0.10943324118852615, 1.0137286186218262, -0.36660873889923096, 0.31215134263038635, 0.22122526168823242, -0.24942035973072052, -0.16731716692447662, 0.27764225006103516, -0.27401116490364075, -0.028094103559851646, 0.3122292757034302, 0.05892501026391983, 0.22323951125144958, 0.08916252106428146, 0.6304712295532227, 0.3330325782299042, 0.3144676387310028, 0.05573514103889465, -0.22117526829242706, -0.032238613814115524, -0.2920960485935211, 0.20110303163528442, 0.26242491602897644, 0.11545039713382721], [0.3923663794994354, 0.7622220516204834, -0.053779225796461105, 0.33544066548347473, 0.4609073996543884, 0.33456048369407654, 0.07358527183532715, 0.5372976660728455, -0.6233413815498352, -0.3712361752986908, -0.19805756211280823, 0.03205306828022003, 1.2404967546463013, 0.3312281370162964, 0.802355170249939, 0.011404027231037617, 0.20950786769390106, 0.7666710615158081, 0.20982614159584045, -0.09405267238616943, -0.6715556383132935, 0.17819638550281525, 0.07856143265962601, 0.3465951383113861, -0.10792350023984909, 0.44615432620048523, -0.02419935166835785, 0.10944430530071259, 0.5043846964836121, -0.4366592764854431, -0.3793277442455292, 0.48203107714653015, -0.7786252498626709, -0.14770077168941498, 0.2099607288837433, 0.5042673349380493, -0.19465184211730957, -0.28037306666374207, 0.1696164608001709, -0.13002508878707886, -0.39055901765823364, 0.11795219779014587, 0.024122165516018867, -0.14637288451194763, -0.10127578675746918, -0.6460226774215698, -0.04879231005907059, 0.6221399903297424, 0.37956002354621887, 0.0762827917933464, 0.8747825622558594, -0.3369619846343994, 0.1993788182735443, 0.1349145770072937, 0.38771143555641174, -0.23443089425563812, 0.1194496601819992, -0.39891403913497925, -0.3933752179145813, 0.43607622385025024, 0.35672852396965027, -0.004911478143185377, 0.4110395312309265, -0.09286578744649887], [-0.04350787773728371, -0.27085620164871216, -0.2405579835176468, 0.07460983842611313, -0.22805993258953094, 0.012294124811887741, 0.18602190911769867, 0.05442127585411072, -0.29874902963638306, -0.0614558681845665, 0.057597819715738297, 0.14092901349067688, -0.04925305023789406, 0.09528867900371552, -0.2718971073627472, 0.030939383432269096, 0.009422078728675842, -0.3850201666355133, -0.42346686124801636, -0.3093843162059784, -0.14938338100910187, 0.13327012956142426, -0.04130353406071663, -0.1497502475976944, -0.17745281755924225, 0.1245284453034401, -0.21749722957611084, -0.13534989953041077, -0.5035434365272522, 0.790039598941803, -0.08317127078771591, -0.30306899547576904, -0.025584734976291656, -0.24640798568725586, -0.0034403561148792505, 0.08791576325893402, 0.47094443440437317, 0.09371834248304367, 0.30774950981140137, -0.08050969243049622, -0.08970124274492264, 0.17083488404750824, -0.03806258365511894, -0.2777785360813141, 0.19708365201950073, 0.06982146948575974, 0.36810213327407837, -0.055721595883369446, -0.049673158675432205, 1.0505428314208984, -0.03076718933880329, 0.11434576660394669, 0.00017754928558133543, -0.20581863820552826, -0.16047218441963196, 0.04681871086359024, 0.5416289567947388, -0.04421529918909073, 0.48007774353027344, 0.4823746681213379, 0.08171728253364563, 0.4543624818325043, -0.06525177508592606, 0.03247193619608879], [-0.1920723170042038, -0.4192342162132263, -0.26020631194114685, 0.28322893381118774, 0.5696703195571899, -0.29856643080711365, 0.146832674741745, 0.5652228593826294, 0.22187238931655884, 0.09865417331457138, -0.11967767030000687, 0.2735617160797119, 0.12349008023738861, -0.5129446983337402, -0.4832897186279297, 0.05651935189962387, 0.3723909556865692, 0.17063412070274353, -0.31958189606666565, 0.18316130340099335, -1.032275676727295, 0.2129105031490326, -0.002802676986902952, -0.3602595627307892, 0.1699986457824707, 0.1764979511499405, 0.25155091285705566, 0.5929868817329407, 0.36116617918014526, -0.2768699824810028, 0.42047983407974243, -0.4054141640663147, -0.16167670488357544, 0.009646809659898281, -0.011729387566447258, 0.28842800855636597, 0.18783502280712128, 0.4024563729763031, 0.14149972796440125, -0.6744956374168396, 0.18494205176830292, -0.1280001550912857, 0.16576360166072845, -0.3478367328643799, 0.07838764041662216, -0.329353004693985, 0.40289124846458435, -0.28583043813705444, -0.17742247879505157, 0.11167056113481522, -0.10581886768341064, -0.22091826796531677, 0.13290147483348846, 0.2026878297328949, -0.14461354911327362, -0.12484271079301834, -0.14003507792949677, 0.38513821363449097, -0.26964259147644043, -0.09347742795944214, 0.35892215371131897, 0.418893426656723, 0.0476171113550663, 0.3093990385532379], [-0.2996993958950043, 0.24259276688098907, 0.4351345896720886, 2.136937379837036, 0.08646400272846222, -0.8977259397506714, -0.5040987730026245, -0.7074400186538696, 0.5563039183616638, 0.8218420147895813, -0.47677403688430786, -0.48591485619544983, -0.23566055297851562, 0.4721340537071228, 1.0546436309814453, -0.261890709400177, -0.1728927344083786, 0.02768564783036709, -0.15909288823604584, -0.2861827313899994, 0.04483398050069809, -0.6323208808898926, 0.1736498326063156, 0.19475990533828735, -0.026519453153014183, -0.1565997451543808, 0.5463321805000305, 0.5037187933921814, -0.04099268466234207, 0.1946888267993927, 0.06460803747177124, -1.297850489616394, 0.0037807864136993885, -0.953532874584198, 0.399718314409256, 0.3294820785522461, 1.5175989866256714, 0.13891558349132538, -0.39105188846588135, 0.007576313801109791, -0.1962869018316269, -0.528876006603241, -0.36577585339546204, -0.02538645826280117, -0.3703534007072449, -0.23097503185272217, -0.03315356373786926, 0.43298807740211487, 0.3023707866668701, 0.36359766125679016, -0.09506019949913025, -0.5540370941162109, 0.13356810808181763, -1.0079501867294312, 0.015993546694517136, -0.1312217265367508, -0.2216092050075531, 0.09376645088195801, -0.007877844385802746, -0.08541135489940643, -0.33206093311309814, -0.4049912095069885, -0.18791669607162476, 0.3234752118587494], [0.4618155360221863, -0.005829307716339827, -0.011214417405426502, 0.5121001601219177, 0.4023984372615814, 0.6301594972610474, -0.37302064895629883, 0.19967421889305115, 0.1651059240102768, -0.41506460309028625, 0.030576884746551514, 0.08271756023168564, 0.7459782958030701, -0.009878496639430523, -0.9585171937942505, 0.6685898303985596, 1.6288561820983887, 0.67144376039505, -0.1965257227420807, -1.2023475170135498, 0.45214325189590454, -0.015561020001769066, -0.057316508144140244, 0.0919903814792633, 0.333730012178421, 1.6217702627182007, -0.8559068441390991, -0.16106775403022766, 0.1638343632221222, -0.155109241604805, 0.09878569841384888, 1.1659578084945679, -0.8626800775527954, 1.5408706665039062, 0.2596205174922943, -0.4002905488014221, -0.05382131412625313, 0.25591832399368286, 0.40560293197631836, 0.021335281431674957, -0.12416723370552063, -0.19713370501995087, 0.26274651288986206, 0.8218443989753723, 0.004541308619081974, -0.8275766372680664, 0.3055090010166168, 0.6649582982063293, -1.576915979385376, -0.5149583220481873, -0.8714938759803772, 0.06606755405664444, -0.3680776357650757, 0.6236475706100464, -0.10204777121543884, -0.4259306490421295, -0.6527911424636841, -0.1869467794895172, -1.0650043487548828, -0.33522531390190125, 0.60145103931427, 0.6414429545402527, 0.5305877327919006, -0.0477789007127285], [-0.5368865728378296, -0.5793697237968445, 0.21984508633613586, -0.14238932728767395, -0.2940552234649658, 0.24028602242469788, -0.04359709471464157, -0.5195258855819702, -0.5581199526786804, 0.5762217044830322, -0.4139617383480072, 0.29345908761024475, 0.5172015428543091, 0.2490026205778122, -0.10345462709665298, -0.2025126963853836, -0.45892950892448425, -0.5081780552864075, 0.7205348014831543, 0.16843631863594055, -0.2098139375448227, 0.039278917014598846, -0.13421227037906647, -0.010979347862303257, 0.13435032963752747, -0.060571860522031784, -0.35136979818344116, 0.4460042119026184, -0.9513296484947205, 0.1714056432247162, -0.3847799599170685, -0.872569739818573, -0.4225064218044281, -2.5156259536743164, -0.30255624651908875, -0.18457648158073425, -0.07622683793306351, 0.02977227419614792, 0.5654959678649902, 0.38702160120010376, 0.41092392802238464, -0.27440059185028076, -0.8083903193473816, 1.5833094120025635, -0.5731674432754517, -0.5860732197761536, -0.39123213291168213, 0.22103047370910645, -0.48260533809661865, 1.0581732988357544, -0.023879127576947212, -0.09628866612911224, -0.4072355329990387, -0.4786124527454376, -1.1345322132110596, -0.09178905934095383, -0.9396701455116272, 0.24401724338531494, 0.2731638550758362, 0.916329026222229, -0.1909465491771698, 0.7605330348014832, -0.2887329161167145, -0.03394434228539467], [-0.08135326206684113, 0.10259334743022919, 0.23528967797756195, 0.010431538335978985, 0.031516820192337036, -0.17815116047859192, 0.2069895714521408, 0.11666636914014816, 0.09167037159204483, 0.13433291018009186, 0.13570158183574677, -0.12818259000778198, 0.03982003778219223, 0.09816830605268478, 0.10243526101112366, -0.10441483557224274, -0.012191020883619785, -0.05304916948080063, -0.025342050939798355, 0.4486776888370514, 0.18038016557693481, 0.07744451612234116, -0.22045785188674927, 0.03573419526219368, 0.1599520891904831, -0.04304450750350952, 0.07652883976697922, 0.1235034167766571, 0.042599327862262726, 0.32538655400276184, -0.12275657802820206, -0.13051001727581024, -0.00493941456079483, -0.11495616286993027, 0.19219465553760529, -0.08482521772384644, 0.11354877054691315, 0.0980878695845604, -0.37407952547073364, 0.05304122343659401, -0.10997602343559265, 0.009240902960300446, -0.16171079874038696, 0.10456585884094238, 0.23833608627319336, 0.38000765442848206, 0.23834644258022308, -0.20839868485927582, 0.28625229001045227, 0.27592751383781433, 0.021173052489757538, -0.1926056444644928, 0.1555543690919876, 0.14139561355113983, 0.261344313621521, 0.045757196843624115, -0.08531806617975235, 0.14666502177715302, 0.16253899037837982, 0.09661941230297089, -0.39523473381996155, 0.02678872086107731, -0.09226477891206741, -0.03207678347826004], [0.03789794445037842, 0.10479122400283813, -0.2030557096004486, 0.10855419188737869, 0.11196785420179367, 0.1691002994775772, -0.21123343706130981, 0.305500864982605, -0.39812201261520386, 0.17494992911815643, -0.09361258149147034, 0.02484145201742649, 0.04534967616200447, 0.026947418227791786, 0.12904049456119537, 0.048920243978500366, 0.0337340272963047, -0.444818913936615, 0.15766316652297974, 0.2534344494342804, -0.3451998829841614, -0.15114791691303253, 0.06833373010158539, -0.23117411136627197, -0.06755398213863373, 0.04272772744297981, -0.03539591282606125, 0.03575171157717705, -0.01375792920589447, -0.12684090435504913, -0.034850504249334335, -0.0056626503355801105, -0.20719866454601288, 0.3390900790691376, -0.041590023785829544, 0.15067411959171295, -0.3286019563674927, 0.25058743357658386, -0.2441156506538391, 0.09368588775396347, 0.2524801790714264, -0.22129283845424652, 0.29507923126220703, 0.6693652868270874, -0.09612973779439926, 0.11450834572315216, 0.4258717894554138, 0.1899128407239914, 0.5556303858757019, -0.07454422116279602, -0.3585493564605713, 0.06423971056938171, 0.0026143849827349186, 0.4964572787284851, -0.13465510308742523, 0.13918139040470123, 0.44852370023727417, 0.0603523850440979, 0.27912718057632446, -0.025747261941432953, 1.0015883445739746, 0.19042633473873138, -0.06065771356225014, -0.2140825241804123], [0.022352861240506172, -0.18418258428573608, 0.022500839084386826, 0.2838810682296753, 0.26276975870132446, 0.21479594707489014, 0.3617039620876312, 0.08382444083690643, -0.2842496335506439, 0.11823957413434982, 0.019906090572476387, 0.20635072886943817, 0.22726044058799744, -0.2515048384666443, 0.17626024782657623, -0.11913225799798965, 0.20549166202545166, -0.2131720334291458, -0.10089214891195297, -0.1695244461297989, 0.15435399115085602, 0.0004535651532933116, -0.035284217447042465, 0.1978369802236557, -0.16729499399662018, 0.23598667979240417, -0.15213434398174286, 0.02846035733819008, -0.2716413736343384, -0.15117810666561127, -0.20572608709335327, -0.20124804973602295, 0.13439379632472992, -0.07291172444820404, -0.3165138065814972, -0.11208382993936539, -0.022136544808745384, 0.003570587607100606, 0.14410261809825897, 0.038205862045288086, -0.03382299467921257, -0.08857185393571854, -0.24712219834327698, 0.20035867393016815, -0.07916198670864105, -0.16806595027446747, 0.10636471211910248, 0.1340368688106537, 0.01096691470593214, 0.38914790749549866, -0.045461539179086685, 0.09159115701913834, 0.10758169740438461, 0.5209578275680542, -0.15896984934806824, -0.18505078554153442, -0.300815224647522, 0.02711336314678192, -0.05138752982020378, -0.015262000262737274, -0.2842426300048828, 0.1440279185771942, 0.09802340716123581, 0.17452028393745422], [-0.8038655519485474, -0.580827534198761, 0.28470975160598755, -0.44068586826324463, -0.312919020652771, -0.27229365706443787, -0.33964312076568604, 0.8308883309364319, 0.3844657242298126, 0.35422876477241516, 0.20073416829109192, -0.08479645848274231, -0.006640510633587837, 0.4508904218673706, -0.3490181863307953, -0.1493326872587204, 0.18523664772510529, 0.8715071082115173, -0.08931129425764084, 0.09302876144647598, -0.2639045715332031, 0.7710994482040405, -0.13475525379180908, 0.7874319553375244, 0.3335133492946625, -0.5949738621711731, -0.9821186065673828, 0.08755113929510117, -0.2628810703754425, 0.0027411726769059896, 0.20926807820796967, 0.5519828200340271, -0.19703330099582672, 0.6102858185768127, -0.9475135207176208, 0.1063203364610672, 0.7224246263504028, 0.7767612338066101, -0.2574474811553955, 0.05760547146201134, -0.26025155186653137, -0.24987536668777466, 0.22339627146720886, 0.9188342690467834, 0.20658841729164124, 0.15336516499519348, 0.538412868976593, -0.4058048725128174, -0.18732281029224396, -0.5785046219825745, 0.21452882885932922, -0.20345047116279602, 0.18040241301059723, 0.16060836613178253, 0.011760842986404896, -0.5666561126708984, 0.1418607383966446, -0.8317331075668335, -0.061988480389118195, -0.23368865251541138, -0.7978219985961914, 0.061283767223358154, 0.3778805732727051, -0.5236144661903381], [1.4241286516189575, -0.20008115470409393, -0.08219332247972488, 0.24615508317947388, 0.23991620540618896, 0.2431468665599823, -0.05923493951559067, -0.1331266164779663, -0.07584690302610397, 0.08615323156118393, -0.3171998858451843, 0.3976637125015259, -0.11922616511583328, 0.2109897881746292, -0.9395886063575745, -0.1611594557762146, 0.3196974992752075, -0.09885327517986298, 0.02561654895544052, -0.4622092545032501, 0.05946391075849533, 0.8152436017990112, -0.32952597737312317, 0.5787272453308105, 0.25303906202316284, -0.03734808415174484, -0.07237697392702103, 0.5796440839767456, -0.3949759900569916, 0.6110514998435974, 0.3936719298362732, -0.2588781416416168, -0.014832155779004097, -0.41895270347595215, -0.03951601684093475, -0.23212361335754395, 0.04260034114122391, 0.26780036091804504, 0.008056915365159512, -0.09509585797786713, 0.030000073835253716, 0.2555348575115204, -0.10300732403993607, 0.3205421268939972, -0.15457651019096375, 0.09743545949459076, -0.28725162148475647, -0.045882247388362885, 0.09327089041471481, 0.1177525445818901, -0.3428565561771393, -0.13919182121753693, -0.23965796828269958, -0.30671438574790955, -0.05603795871138573, 0.004470143932849169, 0.5893118381500244, 0.2050323486328125, 0.17897501587867737, -0.18495863676071167, -1.0332432985305786, -0.22157414257526398, 0.18527477979660034, 0.31744489073753357], [-0.016455192118883133, -0.2902519106864929, -0.029034007340669632, 0.10071370750665665, 0.2717927098274231, -0.06444169580936432, 0.2039918601512909, 0.41439616680145264, 0.060334462672472, 0.2420843094587326, 0.02215156890451908, -0.0578385554254055, -0.27767348289489746, -0.0551757775247097, 0.8415005207061768, -0.13135600090026855, 0.11457905918359756, 0.12027520686388016, -0.11720511317253113, -0.5115748047828674, -0.04603429511189461, 0.17354591190814972, 0.16949914395809174, 0.11327624320983887, -0.08446227014064789, 0.10466085374355316, 0.07734294980764389, -0.11506310105323792, 0.08764785528182983, -0.008656670339405537, 0.21581676602363586, 0.36804983019828796, -0.026787495240569115, 0.1566840559244156, -0.19730709493160248, -0.5176740884780884, -0.2546006739139557, 0.14118166267871857, -0.10592424124479294, -0.1611754596233368, 0.19188742339611053, 0.7842490077018738, 0.3970237672328949, 0.1791774034500122, -0.2547905743122101, 0.394074410200119, -0.005851284600794315, 0.280558317899704, -0.6241859793663025, 0.018916849046945572, -0.5726196765899658, 0.031257618218660355, 0.10888056457042694, 0.31913021206855774, 0.0706528052687645, 0.1216168999671936, -0.6288135647773743, -0.08920390158891678, 0.11365682631731033, 0.10753588378429413, -0.1653912216424942, 0.004707290790975094, 0.11687744408845901, 0.07732150703668594], [-0.27224403619766235, -0.888853907585144, 0.3980933427810669, 0.338035523891449, 0.37537044286727905, 0.5009891986846924, -0.16433151066303253, 0.1033911406993866, -0.4499276876449585, 0.0021272958256304264, -0.2751305103302002, 0.542020320892334, 0.3909919559955597, 0.34750527143478394, -0.5892983675003052, 0.12990818917751312, 0.558597207069397, 0.5763164758682251, 0.1549016535282135, -0.6786589622497559, 0.3101080060005188, 0.024738455191254616, -0.37893229722976685, 0.17581184208393097, 0.18434548377990723, 0.5249148607254028, -0.010982786305248737, -0.29959559440612793, -0.15548475086688995, 0.16861407458782196, 0.29058247804641724, 0.19748704135417938, -0.1850324124097824, 0.0939507856965065, -0.0814681276679039, -0.12636665999889374, -0.26867860555648804, -0.05326194316148758, 0.11266382783651352, 0.49070504307746887, -0.12793399393558502, -0.47900527715682983, 0.4026108980178833, 0.29910123348236084, -0.2767305076122284, -0.3903990685939789, -0.2626357972621918, -0.13479483127593994, -0.21534167230129242, -0.407865047454834, -0.82716965675354, -0.15301840007305145, -0.2407103180885315, 0.13245730102062225, 0.1986970454454422, -0.017605049535632133, -0.6538920998573303, 0.06871701031923294, -0.5783799886703491, -0.43807607889175415, 0.018344363197684288, -0.3056332767009735, -0.11500977724790573, 0.06614723801612854], [-0.39866676926612854, -1.1152175664901733, 0.27894359827041626, -0.6350197196006775, 0.11766423285007477, 0.31762903928756714, -0.6296581625938416, 0.41096532344818115, -0.9601130485534668, 0.4492017924785614, 0.1936284303665161, 0.17964434623718262, 0.2850886881351471, 0.14988143742084503, -0.6630455255508423, 0.2552911341190338, 0.40269187092781067, 0.9494419097900391, 0.16578252613544464, 0.20365241169929504, 0.13167287409305573, 0.11071552336215973, 0.06550943851470947, -0.47188591957092285, -0.06065145134925842, 0.49213549494743347, -0.21002846956253052, -0.21713264286518097, 0.5839006304740906, -0.47257474064826965, 0.07791536301374435, -0.6316027045249939, -0.8053341507911682, 0.5871875882148743, 0.31993624567985535, -0.4072651267051697, -0.6286447644233704, 0.6279615759849548, -0.04531911388039589, -0.02380567602813244, 0.6374033689498901, -0.34812140464782715, 0.2952873408794403, 0.39632219076156616, 0.1266411691904068, 0.010945571586489677, 0.05784499645233154, -0.7462801933288574, -0.21238821744918823, -0.31222042441368103, 0.422240674495697, 0.07378280162811279, -0.22715874016284943, 0.898693323135376, 0.5013781189918518, -0.40136390924453735, -0.3144993782043457, 0.26292282342910767, -0.19456204771995544, 0.00638181809335947, -0.1967441290616989, 0.1762307733297348, 0.5816522836685181, 0.2499508410692215], [0.4396124482154846, -0.26462870836257935, 0.4072320759296417, 0.15045562386512756, 0.08507265150547028, 0.311926931142807, -0.2605070173740387, 0.3877984881401062, 0.34201493859291077, 0.12942644953727722, -0.025824978947639465, 0.09661026298999786, 0.315995991230011, 0.17742790281772614, -0.3666364848613739, 0.12095063924789429, 0.1396626979112625, 0.02799791842699051, 0.35249578952789307, 0.16555902361869812, 0.1148679107427597, 0.5354859828948975, -0.03486227989196777, 0.12875139713287354, 0.166131854057312, 0.1343303769826889, 0.03199727460741997, -0.05319970101118088, 0.28798002004623413, -0.13673970103263855, 0.2504240870475769, 0.29378634691238403, -0.30626970529556274, 0.2551530599594116, 0.23909130692481995, -0.27637436985969543, 0.14077416062355042, 0.32712799310684204, 0.29979807138442993, 0.08301800489425659, -0.1568392962217331, -0.052020102739334106, -0.07358871400356293, 0.8234177231788635, -0.0765400379896164, -0.15476670861244202, 0.24777357280254364, -0.2691441774368286, 0.1594056934118271, -0.16337676346302032, -0.06700436770915985, -0.17242227494716644, -0.21930737793445587, 0.5767004489898682, -0.025159532204270363, -0.2731529474258423, -0.7061328291893005, 0.36272770166397095, -0.023707181215286255, -0.05220315605401993, -0.15947163105010986, 0.4042120575904846, 0.7642403244972229, 0.1629738211631775], [-0.05424971878528595, 0.28082147240638733, -0.05842997506260872, 0.06903742253780365, 0.007529763970524073, 0.1288188099861145, -0.4658891558647156, -0.0978391095995903, 0.09454061090946198, -0.18702742457389832, 0.007239359896630049, -0.4717220664024353, -0.04175897687673569, -0.039822567254304886, 0.581657350063324, -0.06328995525836945, -0.3516980707645416, -0.07823716104030609, -0.24253591895103455, -0.3513199985027313, -0.05324183404445648, 0.0775194764137268, -0.300960898399353, -0.22334355115890503, 0.036493875086307526, -0.2456463873386383, 0.04286770150065422, -0.13231168687343597, -0.4037340581417084, -0.012959679588675499, -0.18297266960144043, -0.3903215527534485, 0.08604025840759277, -0.09709938615560532, 0.12087131291627884, -0.035481568425893784, 0.18476709723472595, -0.10422217845916748, 0.47689759731292725, -0.34718653559684753, -0.25006717443466187, 0.07497036457061768, -0.4298552870750427, 0.1422603279352188, -0.12518617510795593, 0.09027412533760071, -0.29822662472724915, -0.14410768449306488, 0.14664947986602783, -0.3725844621658325, 0.2921210825443268, -0.030583692714571953, 0.18841758370399475, -0.5972048044204712, 0.1011882796883583, 0.0909917801618576, 0.06211302801966667, -0.02442866563796997, -0.1091112345457077, -0.014784853905439377, -0.5323077440261841, 0.8414748907089233, 0.04617392644286156, 0.1708221286535263], [0.019309518858790398, -0.20335152745246887, -1.1362746953964233, 0.041089851409196854, 0.01061622891575098, 0.05453042313456535, 0.36750778555870056, 0.11227196455001831, -0.10972955822944641, -0.024356914684176445, 0.06858804076910019, 0.11600672453641891, -0.015973113477230072, -0.23013925552368164, 0.2520841956138611, -0.00270111788995564, 0.05036823824048042, 0.07527864724397659, -0.16565965116024017, 0.1260320097208023, -0.035618916153907776, -0.017814820632338524, 0.046152129769325256, 0.08648420125246048, 0.032173819839954376, 0.05880675092339516, 0.06665194034576416, -0.06359826028347015, 0.07099149376153946, -0.003140858607366681, 0.079708531498909, 0.10909202694892883, -0.07081875205039978, 0.06946414709091187, -0.1204252690076828, -0.02049381472170353, -0.7006346583366394, 0.023241404443979263, -0.37365251779556274, -0.5554947853088379, 0.08829911053180695, 0.048084504902362823, 0.06164899840950966, -0.13076426088809967, -0.08949252963066101, -0.10835139453411102, 0.05422619357705116, -0.07464427500963211, -0.1376882791519165, -0.023348122835159302, 0.029093878343701363, 0.20219764113426208, -0.1056099683046341, 0.26310065388679504, -0.06934554874897003, -0.028185363858938217, 0.25667044520378113, 0.10295436531305313, -0.01337121520191431, -0.13250643014907837, -0.016165034845471382, -0.518589437007904, 0.057605672627687454, 0.01153691578656435], [0.11870305985212326, -0.2790079414844513, -0.7021129131317139, 0.02068631909787655, -0.0503462553024292, -0.11318162828683853, 0.2808038294315338, 0.07869996875524521, 0.005844952072948217, -0.08804475516080856, 0.08884846419095993, -0.30172738432884216, 0.03693744167685509, -0.05056995153427124, 0.382614403963089, 0.03808161988854408, 0.34999731183052063, 0.0010764930630102754, -0.37491366267204285, 0.24687491357326508, 0.3143659234046936, 0.10663950443267822, 0.21747153997421265, 0.1956910640001297, -0.09517490863800049, -0.18478883802890778, 0.05893038213253021, 0.029192009940743446, 0.17073896527290344, 0.22730247676372528, 0.06894078105688095, 0.46526604890823364, -0.018588539212942123, 0.42365285754203796, 0.08275225013494492, 0.09897871315479279, 0.04438067227602005, -0.0718715712428093, -0.43061089515686035, 0.03727012872695923, -0.28706154227256775, 0.1977526694536209, 0.2854299545288086, -0.14833378791809082, 0.012013684958219528, 0.02510332502424717, 0.30887389183044434, -0.18752889335155487, 0.047421593219041824, 0.8979974985122681, 0.07616627216339111, 0.17695026099681854, 0.3206841051578522, 0.03737816587090492, 0.16674049198627472, 0.059065356850624084, 0.6727514863014221, -0.1316610723733902, -0.4764367938041687, -0.3687072694301605, -0.24232450127601624, -0.07530772686004639, 0.14759594202041626, -0.009877242147922516], [-0.18238823115825653, 0.03511938080191612, 0.4056781828403473, 0.19661898910999298, -0.0638483464717865, 0.025692323222756386, 0.10791495442390442, 0.007190811913460493, 0.135661780834198, -0.01793084107339382, 0.03302439674735069, -0.06519613415002823, -0.07472722977399826, -0.17782334983348846, 0.10822814702987671, 0.07274825870990753, -0.3014831840991974, -0.03174702450633049, -0.1410766988992691, -0.052672337740659714, 0.4224243462085724, -0.1520880162715912, 0.10219667106866837, 0.08297146111726761, 0.014492802321910858, 0.18338917195796967, 0.06943555921316147, -0.18779057264328003, -0.5035295486450195, 0.10752013325691223, 0.08548744767904282, -0.3576537072658539, 0.08888369798660278, -0.6865658760070801, -0.03911317512392998, 0.04887940362095833, -0.12261813879013062, -0.11056964844465256, 0.5017226338386536, 0.219804584980011, -0.17240983247756958, 0.054503075778484344, 0.012943986803293228, -0.024189278483390808, 4.206944504403509e-05, 0.14062069356441498, -0.04656524583697319, -0.1787932962179184, 0.2376198023557663, 0.24216152727603912, -0.05746001750230789, 0.1314038783311844, 0.42936423420906067, -0.3161707818508148, 0.18467557430267334, 0.08641806244850159, -0.04335326328873634, -0.13196957111358643, 0.19362108409404755, 0.1633775383234024, 0.18184642493724823, 0.15560507774353027, -0.04522765800356865, -0.13774695992469788], [-0.3211943507194519, -0.688742458820343, 0.8168176412582397, 1.041751742362976, -0.3288456201553345, -0.08610472828149796, -0.5772177577018738, -2.1817986965179443, 0.152020663022995, 0.6129613518714905, -0.03272353857755661, -0.1686103790998459, -0.6836063265800476, -0.11669643223285675, 0.43145477771759033, -0.025689566507935524, -0.3855716586112976, -1.2275073528289795, 0.7084090113639832, 0.127360537648201, -0.3372798562049866, -0.27953484654426575, -0.12555591762065887, 0.22757945954799652, 0.21145367622375488, 0.04823075607419014, 0.10098395496606827, 1.149298906326294, -2.2057268619537354, 1.8364603519439697, -0.01595909707248211, -0.7960435152053833, 0.37528863549232483, -3.372279644012451, 0.06373516470193863, -0.40857353806495667, -0.3979424238204956, 0.20122624933719635, 0.40933990478515625, 0.05571860447525978, -0.26728954911231995, 1.803342342376709, -3.3936283588409424, 1.1584734916687012, 0.04694494977593422, 0.43614211678504944, -0.10934031754732132, 0.02235368825495243, -0.18303243815898895, 4.3137054443359375, 0.6954461932182312, -0.6359226107597351, 0.7467247247695923, -2.0329861640930176, -0.10529825091362, 0.09069689363241196, -0.18659472465515137, -0.42203497886657715, 0.6481052041053772, 1.0243922472000122, -1.7540241479873657, 0.5692823529243469, 0.4452262818813324, 0.35578882694244385], [0.38265958428382874, -0.18604421615600586, 0.06024283915758133, -0.686752438545227, 0.07152216881513596, 0.4598698318004608, 0.42095324397087097, 0.7901611328125, -0.5364798903465271, -0.08373892307281494, 0.03017658367753029, -0.031204840168356895, 1.075173020362854, 0.24706138670444489, -0.33908432722091675, -0.4579859673976898, -0.22199615836143494, 0.383007287979126, 0.6200031638145447, 1.2304587364196777, -0.004859196487814188, -0.7214127779006958, 0.09614916145801544, -0.6687743663787842, 0.10586889088153839, 0.3236182630062103, 0.14019951224327087, -0.4512077569961548, 0.10382115095853806, -0.1957208514213562, -0.28953519463539124, 0.4888550937175751, 0.20652301609516144, -0.4094407260417938, 0.11584645509719849, 0.6989091634750366, -0.44602641463279724, -0.07907011359930038, -0.3380742371082306, 0.11502300947904587, -0.23435254395008087, 0.5254573822021484, -0.2659743130207062, -0.5049912333488464, 0.11239434033632278, -0.1956290304660797, -0.34948524832725525, -0.18660873174667358, -0.3047347664833069, 0.7131386399269104, 1.6169143915176392, -0.05373537167906761, 0.07113458961248398, -0.16412660479545593, -0.7744809985160828, 0.3565092980861664, 0.48643848299980164, -0.024438662454485893, -0.3275377154350281, 0.4036462903022766, -0.5040196776390076, -0.06306502223014832, 0.3542952835559845, -0.17788946628570557], [0.14734439551830292, -0.9303990602493286, 0.3685518503189087, 0.5894927382469177, 0.44397419691085815, 0.1985568404197693, -0.4827272891998291, -0.2941126823425293, -0.040865588933229446, 0.20001941919326782, -0.14913465082645416, 0.3030106723308563, 0.11400891840457916, 0.1774969846010208, -0.45088425278663635, -0.2766913175582886, -0.13597863912582397, 0.021939316764473915, -0.04537012800574303, 0.35959312319755554, -0.3596382141113281, 0.2326885312795639, -0.3814316391944885, -0.15088582038879395, 0.6349501013755798, 0.3782787621021271, 0.014139527454972267, 0.6108946204185486, 0.4667542278766632, 0.4505131244659424, -0.026897938922047615, 0.18646478652954102, 0.016921911388635635, 0.18210482597351074, -0.6129369735717773, -0.15000870823860168, -0.7276170253753662, -0.3013419806957245, 0.4611496329307556, -0.7226260900497437, 0.4588529169559479, 0.23732890188694, -0.012092012912034988, 0.014740313403308392, -0.4563840627670288, -0.12916605174541473, -0.046561069786548615, 0.6594345569610596, -0.22361117601394653, 0.5048797726631165, -0.3860725462436676, -0.5407853126525879, 0.372604101896286, 0.7348651885986328, -0.34624284505844116, 0.16614101827144623, 0.17712585628032684, 0.46079951524734497, 0.524196982383728, -0.2608501613140106, 0.5608592629432678, 0.2065906524658203, 0.11800552159547806, 1.0387308597564697], [-0.28684553503990173, -0.16463753581047058, 0.04501991719007492, -0.0013145420234650373, 0.22020019590854645, 0.32175111770629883, -0.8836754560470581, -0.08339416235685349, 0.0930100679397583, 0.040597978979349136, -0.4294288158416748, -0.7565194964408875, -0.5130529999732971, 0.5195125341415405, -0.8511272668838501, -0.150629460811615, -0.6297483444213867, -1.103369951248169, 0.2902742624282837, -0.5123835802078247, -0.43104344606399536, 0.02245347946882248, -0.26588740944862366, -0.3731025159358978, 0.07214106619358063, 0.4083418846130371, 0.04033975303173065, 0.038117021322250366, -1.3416979312896729, -0.22778022289276123, -0.012784335762262344, -0.510117769241333, -0.13482467830181122, 0.15211868286132812, -0.7707995772361755, 0.6447921395301819, 0.6445288062095642, -0.39283889532089233, -0.09405417740345001, -0.0660705640912056, -0.5100580453872681, 2.3019826412200928, -1.6408190727233887, 1.1239959001541138, 0.11909231543540955, 0.766307532787323, -0.011918384581804276, -1.8290196657180786, 1.6700259447097778, -0.04770981892943382, 0.23289012908935547, 0.04243092983961105, -0.12866102159023285, -0.764040470123291, -0.8512375354766846, -0.7741197347640991, -0.23398149013519287, 0.01808212883770466, 1.2303497791290283, 0.11840967833995819, -0.06658009439706802, 0.4642355144023895, -0.4712783694267273, 0.2360725998878479], [-0.12427599728107452, -0.3301818370819092, 0.5062280893325806, 1.3713696002960205, -0.08466578274965286, 0.22401516139507294, -0.36763420701026917, -0.7576627135276794, 1.0543378591537476, 0.2507364749908447, 0.17072144150733948, -0.35858991742134094, -0.21110624074935913, -0.12943467497825623, 0.7707870602607727, 0.45671603083610535, -0.0707070454955101, -0.19728843867778778, -0.14624080061912537, -0.5397546887397766, 0.1149575337767601, 0.22975170612335205, 0.05217708647251129, 0.5934068560600281, -0.2154364138841629, -0.14134478569030762, 0.26943692564964294, -0.19175231456756592, -0.5107646584510803, 0.8820361495018005, -0.07325321435928345, -0.10937811434268951, -0.5147502422332764, -0.34371933341026306, 0.04663028195500374, -0.7660045027732849, 0.5217664837837219, 0.03073910064995289, 0.1436123549938202, 0.40417760610580444, -0.6649829149246216, -0.6824077367782593, -0.15653902292251587, 0.8692057728767395, -0.061138808727264404, -0.6029751300811768, 0.08923378586769104, 0.14800187945365906, -0.2153424620628357, 0.7811885476112366, -0.09043017774820328, -0.04886936768889427, 0.4473552703857422, -0.3382103443145752, 0.2615310847759247, -0.29670682549476624, -0.1825224906206131, -0.27376145124435425, -0.3638317286968231, 0.18472106754779816, -0.31192928552627563, -0.24352306127548218, 0.3231493830680847, -0.00397456344217062], [0.03114030696451664, -0.38569462299346924, 0.0877842977643013, -0.14190952479839325, 0.05162814259529114, 0.0312199629843235, 0.25676313042640686, 0.02142646163702011, -0.355953574180603, 0.10599753260612488, 0.006066177040338516, 0.08626212179660797, 0.16331300139427185, -0.014811458997428417, 0.14400044083595276, 0.08480480313301086, 0.3944163918495178, 0.22087031602859497, 0.027724498882889748, -0.18926450610160828, -0.22273634374141693, 0.49128198623657227, 0.05424544960260391, 0.22272011637687683, 0.025435565039515495, 0.17330509424209595, 0.07448168098926544, -0.01448107697069645, -0.08725925534963608, 0.4378758370876312, 0.2850254476070404, -0.0024738996289670467, 0.01591850258409977, 0.27836206555366516, -0.1014632061123848, -0.11039610207080841, -0.5751562118530273, 0.07763399928808212, 0.40537434816360474, 0.009693874046206474, -0.19251486659049988, -0.0168896671384573, -0.06902869045734406, 0.02651113085448742, 0.070895254611969, 0.1224788948893547, -0.43833720684051514, -0.18479332327842712, -0.39600688219070435, 0.44876208901405334, -0.11713685840368271, -0.0049217622727155685, -0.15881803631782532, 0.458112895488739, -0.014447804540395737, -0.03955570608377457, 0.41468799114227295, 0.12009227275848389, -0.3053407371044159, -0.13385605812072754, 0.10709881782531738, -0.17894010245800018, 0.25471457839012146, 0.10348181426525116], [0.4043034315109253, -1.8474818468093872, 0.09947191923856735, 0.018191926181316376, 0.07629282027482986, 0.0026991581544280052, -0.5341392755508423, 0.4559606909751892, -0.6446677446365356, -0.047086767852306366, 0.153075709939003, -0.08422771841287613, -0.04897850751876831, 0.09433413296937943, -0.391840398311615, 0.43082594871520996, 0.692466676235199, 0.3415193259716034, 0.20532116293907166, 0.5990037322044373, -0.5136052370071411, 0.7867150902748108, -0.13340267539024353, -0.36692044138908386, -0.09077379107475281, 1.3419584035873413, -0.33255109190940857, 0.4070044755935669, -0.2210415154695511, 0.6752826571464539, 0.124071404337883, 1.1603384017944336, -0.8891807198524475, 0.022659024223685265, 0.20032061636447906, -0.08449990302324295, -0.6532598733901978, 0.09294288605451584, 0.09872984141111374, -0.5122984647750854, 0.29956403374671936, 0.3757982850074768, -0.24838495254516602, 0.10831940174102783, 0.08789067715406418, -0.1634296029806137, -0.428409218788147, -0.003181060077622533, -0.49843665957450867, -0.12023183703422546, -0.11638668179512024, -0.002640041522681713, -0.8593420386314392, -0.02636486291885376, 0.015462619252502918, 0.038272425532341, 0.08141002058982849, 0.487184077501297, -0.529017984867096, 0.17655757069587708, 0.17804990708827972, -0.17303583025932312, -0.49485185742378235, 0.5356351733207703], [0.1747872233390808, -1.0922569036483765, -0.12985563278198242, 0.3957502245903015, 0.050363264977931976, 0.25996699929237366, 0.052854422479867935, 0.20252293348312378, -0.4477308988571167, 0.928382933139801, -0.1093316525220871, 0.055307332426309586, 0.413173109292984, -0.061464857310056686, -0.23844096064567566, 0.3662080764770508, 1.0289373397827148, 0.23494219779968262, 0.014307425357401371, 0.46461766958236694, -0.4439941942691803, 1.1350106000900269, -0.16642755270004272, 0.6278837323188782, 0.11512836068868637, 0.36758363246917725, -0.009222332388162613, 0.02443619817495346, -0.21447710692882538, -0.02380422316491604, -0.15112577378749847, -0.014524032361805439, -0.7394803166389465, -0.23724031448364258, 0.08360957354307175, -0.30645695328712463, 0.3884860873222351, 0.22887499630451202, 0.07086113095283508, 0.32610297203063965, -0.04808425158262253, -0.2507866322994232, -0.730677604675293, 0.45531195402145386, -0.24630196392536163, 0.19931378960609436, -0.5227987766265869, 0.17373540997505188, -0.49525055289268494, -0.5197867155075073, -0.2194276750087738, -0.11318536102771759, 0.056872639805078506, 1.3037736415863037, 0.18977294862270355, -0.1105838343501091, 0.3510555326938629, -0.04674100875854492, -0.6249904632568359, -0.1073695570230484, -0.03397069498896599, -0.2710055708885193, -0.12210474908351898, 0.05116754397749901], [0.21513240039348602, -0.639598548412323, 0.6621500849723816, -0.004883430432528257, -0.39870065450668335, 0.7266423106193542, 0.24236980080604553, -0.6809049844741821, -0.41475340723991394, 0.3737688362598419, -0.9732327461242676, 0.4770331382751465, 0.08745167404413223, 0.37078097462654114, -0.006313279736787081, 0.2149541974067688, 0.09698212146759033, 0.5289469957351685, 0.37049561738967896, 0.2613089084625244, -0.6788144707679749, 0.29728105664253235, 0.009179131127893925, -1.2494726181030273, 0.5425145626068115, 0.17352639138698578, -0.39094483852386475, 0.8820041418075562, -0.050234101712703705, -0.8097031116485596, -0.22109919786453247, 0.4460982382297516, -0.10125215351581573, -0.3901931345462799, 0.2323886901140213, -0.533308207988739, 0.4273582994937897, 0.30347940325737, 0.1534384936094284, -0.3147793114185333, 0.5140916109085083, 0.9845953583717346, -0.049840640276670456, 0.15772974491119385, -0.9713616371154785, -0.6301625967025757, 0.15088742971420288, 0.06733006983995438, 0.5329353213310242, 0.07437428086996078, -0.24252547323703766, -0.691521167755127, 1.4399617910385132, 0.6331672668457031, 0.13504207134246826, 0.04613156616687775, -1.3945834636688232, 0.18887196481227875, 0.05758338421583176, 0.20704418420791626, -0.6763998866081238, 1.4858057498931885, -0.08563248068094254, 0.1886569708585739], [-0.15292082726955414, 0.08085964620113373, 0.0575193427503109, -0.22265948355197906, -0.02817436493933201, -0.3194817900657654, -0.09611347317695618, -0.08680597692728043, -0.2625691294670105, 0.23601172864437103, 0.12956203520298004, -0.13262085616588593, -0.24464227259159088, 0.0367327518761158, -1.1242176294326782, -0.20891380310058594, 0.13961756229400635, 0.178862065076828, -1.037289023399353, -0.0783083513379097, -0.184890016913414, 0.05439341440796852, 0.07387136667966843, 0.5065587162971497, 0.1608322411775589, 0.0011669741943478584, 0.23261329531669617, 0.06291580945253372, -0.13112898170948029, -0.23704484105110168, -0.13093499839305878, 0.6020308136940002, -0.43299874663352966, 0.5265310406684875, -0.36394283175468445, -0.08041767030954361, -0.4888511896133423, -0.2938903570175171, 0.254978209733963, -0.19350352883338928, 0.03867414593696594, -0.02087675780057907, -0.036095332354307175, -0.1298103928565979, -0.15811733901500702, -0.23774047195911407, -1.03920316696167, 0.6097640991210938, -0.3323398232460022, -0.3338077664375305, -0.3014460802078247, 0.04859234020113945, -0.02210063301026821, 0.7201288938522339, 0.03794590011239052, -0.294129878282547, 1.2819266319274902, -0.3817417025566101, -0.3604758679866791, 0.15595220029354095, 0.1675059050321579, -0.42886221408843994, 0.057683613151311874, 0.09285824745893478], [0.015874505043029785, -0.1891232132911682, 0.20675471425056458, 2.1152262687683105, -0.9420340657234192, 1.0538138151168823, -0.4122670590877533, -1.7316701412200928, 0.7223677039146423, 3.0844943523406982, 0.17239467799663544, 0.08021429181098938, -1.2913224697113037, 0.19126535952091217, 2.303522825241089, 1.4692533016204834, -1.8757566213607788, -2.5880677700042725, -2.008948564529419, -1.0414597988128662, 0.4202938377857208, 2.58937931060791, -0.09690781682729721, -0.23403222858905792, 0.14910589158535004, -1.1545087099075317, 0.23198366165161133, -0.06309730559587479, -0.30469343066215515, 1.9197865724563599, 0.9933380484580994, -0.5639275908470154, -0.3834613859653473, -0.5366632342338562, 0.1984798163175583, -1.6234822273254395, 0.15911565721035004, 1.6747533082962036, 0.38919198513031006, -0.4606079161167145, -0.7824711799621582, 1.1822969913482666, 0.8156536817550659, 4.599939823150635, 0.5108782649040222, 1.4385660886764526, 0.7290467023849487, 2.694345474243164, 3.091765880584717, 0.4166562557220459, -2.6858441829681396, 0.09934286028146744, 0.08939912170171738, -1.1765021085739136, 0.995295524597168, 0.5693849325180054, -0.2222708761692047, -0.2474147081375122, 2.416294574737549, -1.698797345161438, 1.4282491207122803, -0.5211755633354187, -0.011243435554206371, 0.777329683303833], [-0.12395365536212921, -0.6303359866142273, 0.15201866626739502, 0.3594062924385071, -0.24562528729438782, 0.1661960482597351, -0.2228291630744934, -0.447835773229599, -0.12491660565137863, 0.20412391424179077, -0.10466042160987854, 0.1842551827430725, -0.0020879218354821205, 0.20347194373607635, 0.596351146697998, 0.36987030506134033, -0.04647926613688469, 0.09379314631223679, 0.13929630815982819, 0.2916346490383148, -0.24861466884613037, 0.03529374301433563, -0.16988998651504517, -0.12354864925146103, 0.2646453380584717, 0.2964806854724884, -0.2918139696121216, 0.7611086368560791, -0.3557833731174469, 0.10431927442550659, -0.13282600045204163, 0.19056083261966705, -0.20522841811180115, -0.5377032160758972, -0.150610089302063, -0.09305161237716675, -0.731178879737854, 0.015480815432965755, 0.25407323241233826, 0.07073897868394852, -0.008082783780992031, -0.03209628909826279, -0.44016656279563904, 0.130220428109169, -0.09597374498844147, -0.06348078697919846, 0.03679856285452843, 0.6833217740058899, -0.38169917464256287, 0.7224504947662354, 0.13703463971614838, 0.0922401174902916, 0.23309427499771118, 0.2582132816314697, -0.05399150401353836, -0.07496098428964615, -0.11349816620349884, 0.30543017387390137, 0.11041978001594543, 0.3338776230812073, 0.3236028552055359, 0.09122418612241745, 0.06459213048219681, 0.11960732191801071], [-0.30491209030151367, -0.5908707976341248, 0.5743163824081421, -0.2552800476551056, -0.12500299513339996, 0.3245244324207306, -0.136811763048172, -2.025718927383423, -0.10011813789606094, 0.7904201149940491, -0.11104261130094528, 0.24912677705287933, 0.1358124166727066, -0.3569180369377136, -0.039696816354990005, -0.18007001280784607, -0.4080154299736023, -0.04483876749873161, 1.408156156539917, -0.10222169756889343, -0.40641364455223083, -0.36204156279563904, 0.0061085824854671955, -0.19918863475322723, 0.0672462210059166, 0.16100524365901947, 0.09480471163988113, 0.8766098618507385, -2.3813583850860596, 0.699620246887207, -1.356069564819336, -0.6855999827384949, 0.8117903470993042, -3.4238576889038086, 0.3413292467594147, -0.13797178864479065, 0.12181956321001053, -0.2748517394065857, -0.0806497111916542, 0.2276018112897873, 0.08168483525514603, -0.5795391798019409, -2.3474032878875732, 0.7274979948997498, -0.5454274415969849, -0.07771774381399155, -0.504271924495697, -0.17691907286643982, 1.379421591758728, 2.037522315979004, 1.0273598432540894, -0.5003232955932617, 0.6433759331703186, -2.3204548358917236, -0.921680212020874, 0.1177784651517868, -0.16011662781238556, 0.22010456025600433, 0.5179017782211304, 2.8245346546173096, -0.07133831083774567, 0.8513171076774597, -0.337813138961792, -0.3599795997142792], [0.08501479029655457, -0.8803895115852356, -0.19869384169578552, -0.5737265348434448, -0.1313084363937378, 0.26316502690315247, 0.4608837068080902, 0.3169444799423218, 0.10110902786254883, 0.26584213972091675, 0.004522385075688362, 0.3287077844142914, 0.24788807332515717, 0.24082854390144348, -0.3146156072616577, 0.38724255561828613, -0.11748969554901123, -0.3915584981441498, -0.2588699162006378, 0.3225938081741333, -0.563606858253479, 0.011930274777114391, -0.26480627059936523, -0.2504269480705261, 0.06320547312498093, 0.42303913831710815, 0.13588525354862213, 0.16483676433563232, 0.5047731995582581, 0.5944809913635254, -0.07822591811418533, -0.3904358446598053, -0.5797001123428345, -0.4726892113685608, -0.1384129673242569, 0.6119875907897949, -0.31660112738609314, -0.014343208633363247, -0.002565911039710045, -0.4837642312049866, 0.16720572113990784, -0.38194355368614197, -0.2563301920890808, -0.06284593045711517, 0.0324917733669281, 1.0528151988983154, -0.06924079358577728, 0.06935779750347137, 0.7397366762161255, 0.741172194480896, 0.038419175893068314, -0.05208192020654678, -0.16871942579746246, -0.4657139778137207, -0.39667731523513794, -0.554286003112793, -0.18032702803611755, 0.20553244650363922, -0.07480467110872269, 0.23163451254367828, 0.061894677579402924, -0.6086955666542053, 0.04877609759569168, 0.2157166451215744], [-0.781910240650177, -0.5854392051696777, 0.9768295884132385, -0.48584413528442383, -0.6151612997055054, 0.320239394903183, -0.21515510976314545, -0.0022976393811404705, 0.48815491795539856, 0.5067976713180542, -0.24330772459506989, 0.23016194999217987, 0.6669083833694458, 0.0888044461607933, -0.43587246537208557, -0.12603510916233063, -0.6224589943885803, -0.794538140296936, 0.4788653254508972, -0.37790432572364807, -0.4436059296131134, -0.12260451912879944, -0.23432645201683044, -0.11746245622634888, 0.24108146131038666, -0.042981065809726715, -0.26825377345085144, 0.514212429523468, -0.6005235314369202, 0.6993889212608337, -0.28455543518066406, -0.6911016702651978, 0.2838079333305359, -0.21984711289405823, -0.7278374433517456, -0.26695147156715393, 0.10620874911546707, -0.3374834656715393, 0.5079374313354492, -0.7403367161750793, 0.24254350364208221, -0.44540727138519287, -0.46245941519737244, 1.2047713994979858, -0.6494151949882507, 0.5161058902740479, -0.21510663628578186, -0.5410225987434387, 0.25204309821128845, 0.16737039387226105, 0.04311421886086464, -0.3506321609020233, -0.024286536499857903, -0.6503360271453857, -1.1241294145584106, 0.2441474348306656, -0.5959422588348389, 0.12303206324577332, 2.0307600498199463, 0.8183653354644775, 0.7733507752418518, 0.45221972465515137, -0.7751205563545227, -0.10358314216136932], [-0.13120582699775696, 0.18200398981571198, 0.0841323733329773, 0.18787617981433868, 0.24666723608970642, 0.3653412461280823, 0.052038513123989105, 0.07744705677032471, -0.32802698016166687, 0.06955720484256744, -0.0617985725402832, 0.08229781687259674, -0.05137041211128235, 0.09017962962388992, 0.22943270206451416, 0.10242240130901337, 0.026048099622130394, -0.33378905057907104, -0.23029577732086182, 0.1519302874803543, -0.10768499970436096, 0.0532543919980526, -0.10644012689590454, 0.04342891648411751, -0.049192413687705994, 0.20190642774105072, -0.03844304755330086, 0.4425429105758667, 0.28559696674346924, -0.12246844172477722, -0.11389696598052979, -0.18610800802707672, -0.011810063384473324, -0.037408940494060516, 0.019502226263284683, -0.1844768226146698, -0.1985030621290207, 0.1549355387687683, -0.05689630284905434, -0.21049092710018158, 0.08936210721731186, 0.08766385167837143, 0.14159730076789856, -0.14886106550693512, -0.158741757273674, -0.010486512444913387, 0.0223158560693264, -0.2606106400489807, -0.33297082781791687, 0.7830054759979248, -0.12425824999809265, 0.24781446158885956, -0.19422830641269684, 0.4208611249923706, -0.017881184816360474, -0.2149956226348877, -0.2760763168334961, 0.1028556153178215, -0.2756478190422058, 0.046401459723711014, 0.10122160613536835, -0.04140422120690346, 0.14279618859291077, 0.13871146738529205], [0.32809746265411377, -0.16786478459835052, 0.21616125106811523, 0.24418792128562927, -0.35788536071777344, 0.5732920169830322, 0.6206071972846985, 0.23166362941265106, -0.07832395285367966, 0.9498034715652466, -0.10197766870260239, 0.32081958651542664, 0.14482854306697845, 0.2574218809604645, -0.18421690165996552, 0.013456991873681545, -0.30092403292655945, -0.9820425510406494, -0.1881514936685562, 0.5398951768875122, 0.41751110553741455, 0.4343093931674957, -0.2817251682281494, -0.08097463846206665, -0.01000826433300972, -0.21383728086948395, -0.6080574989318848, 0.16169129312038422, -0.5579507946968079, 0.06878398358821869, 0.12481958419084549, -0.17314907908439636, 0.3222076892852783, -0.35948723554611206, -0.11030592024326324, 0.2144705206155777, 0.4339251220226288, 0.6407569646835327, 0.022275526076555252, 0.053793765604496, -0.6178388595581055, 0.3028285801410675, -0.4895269572734833, 0.3473791182041168, 0.029036767780780792, 0.3584144115447998, -0.44943767786026, 0.6661164164543152, 0.4600682556629181, -0.09138233959674835, 0.3563731908798218, -0.06006011366844177, 0.46539250016212463, 0.6720693111419678, -0.1791701316833496, -0.3386591374874115, -1.3290095329284668, 0.3102899193763733, 0.5502483248710632, 0.014021387323737144, 0.11686224490404129, 1.2853690385818481, -0.13982822000980377, 0.15080112218856812], [-0.35938549041748047, -0.41020774841308594, 0.47974467277526855, -0.12923792004585266, 0.08047475665807724, -0.22612954676151276, 0.44020867347717285, 0.8472722172737122, -0.02075439877808094, -0.596437931060791, -0.41415300965309143, 0.17355211079120636, -0.5169373154640198, 0.5631712675094604, -0.6282036900520325, 0.5060421228408813, 0.7318373322486877, 1.116392731666565, 0.11504179239273071, -0.9178932905197144, 0.3633239269256592, -0.6276937127113342, -0.26022160053253174, 0.07197301834821701, 0.39778009057044983, -0.1333746761083603, -0.13858351111412048, -0.14436165988445282, 1.1349985599517822, -1.3297573328018188, 0.00548571115359664, 1.5222541093826294, 0.40780964493751526, 1.1266515254974365, -0.18430767953395844, 0.20773085951805115, 0.3260764181613922, 0.2854313850402832, -0.19663503766059875, 0.9738913774490356, -0.6051821708679199, 0.0035089815501123667, -0.734423041343689, -0.4660018980503082, -0.0339290015399456, -0.18615469336509705, 0.7850366234779358, 0.05442001298069954, -0.9777660369873047, -0.5406580567359924, -2.0187745094299316, 0.09386245906352997, -0.3034042716026306, 1.699824571609497, -0.8573851585388184, 0.019515173509716988, -0.7115878462791443, -0.23115025460720062, -0.8930079340934753, -0.3228331208229065, 1.9214686155319214, 0.7937390208244324, 0.003245618660002947, 0.4301483631134033], [-0.06720816344022751, -0.08350948244333267, -0.5989254117012024, 0.2362314760684967, 0.03094988875091076, -0.03757084533572197, 0.28761425614356995, -0.03425673395395279, 0.08402834832668304, -0.03084603324532509, -0.04262547567486763, 0.08012885600328445, 0.059768740087747574, -0.21207557618618011, 0.22983390092849731, -0.1777154803276062, -0.008294844068586826, 0.04109460115432739, -0.1277361512184143, 0.2884519398212433, -0.05861711874604225, -0.01644851639866829, 0.06399883329868317, 0.0015769324963912368, -0.11890557408332825, -0.06879107654094696, 0.06740258634090424, -0.052683454006910324, 0.18156024813652039, 0.15484490990638733, 0.011231575161218643, -0.18526746332645416, 0.10325115919113159, -0.046379368752241135, 0.06566508859395981, -0.02964377962052822, -0.2271721065044403, 0.023613886907696724, -0.25428828597068787, -0.5612735748291016, 0.007742552552372217, -0.05408734828233719, -0.06054307520389557, 0.10391436517238617, 0.15339359641075134, 0.10829198360443115, -0.05159900709986687, -0.04772728681564331, 0.09034121036529541, 0.27325913310050964, 0.12487254291772842, 0.07603741437196732, -0.12900599837303162, 0.2555364668369293, 0.006090135779231787, -0.016203949227929115, 0.21314778923988342, -0.03411031514406204, 0.04625628516077995, 0.20594345033168793, -0.07158629596233368, -0.8243112564086914, -0.039008066058158875, -0.11625418812036514], [0.019311800599098206, -0.4951194226741791, 0.18959759175777435, -0.04441509023308754, -0.0888964831829071, -0.15740817785263062, 0.3277483880519867, 0.22931963205337524, 0.25347861647605896, 0.1111333891749382, 0.025289088487625122, 0.2490205466747284, 0.3812597692012787, -0.13375887274742126, 0.06836050748825073, 0.05380132421851158, -0.280510812997818, 0.22585299611091614, 0.24021440744400024, 0.4919951856136322, -0.5663910508155823, -0.18323242664337158, -0.22641538083553314, -0.4825471341609955, -0.03760797902941704, 0.18686522543430328, -0.11972374469041824, 0.11782344430685043, 0.30769744515419006, 0.18360914289951324, -0.11483099311590195, -0.15012918412685394, 0.13927142322063446, -0.1651703417301178, -0.029597653076052666, 0.3539632558822632, -0.7841517329216003, 0.09747307747602463, 0.041438840329647064, -0.5790910720825195, 0.295318067073822, -0.06695335358381271, -0.5602796673774719, -0.10227072983980179, -0.19170783460140228, -0.04255549982190132, -0.13347795605659485, 0.11252529919147491, 0.048398084938526154, 0.08188804239034653, -0.227613627910614, 0.1896115243434906, -0.10450141876935959, 0.3691711127758026, -0.2328367382287979, -0.12410936504602432, -0.3809455931186676, 0.08569767326116562, 0.10932145267724991, 0.19107604026794434, 0.2743455469608307, -0.025304948911070824, -0.024098366498947144, 0.11351505666971207], [-0.008794095367193222, -0.18086907267570496, 0.06046323478221893, 0.019115563482046127, -0.05357241630554199, -0.054557010531425476, 0.18002581596374512, -0.2749185264110565, 0.4713432192802429, -0.02952278032898903, -0.01882641576230526, -0.06035337969660759, 0.05164821445941925, -0.14528311789035797, 0.08043815940618515, 0.12179413437843323, -0.24356025457382202, -0.08933393657207489, -0.3161233067512512, 0.041921619325876236, 0.17614996433258057, 0.04446990415453911, -0.03173612430691719, 0.029753265902400017, -0.18798694014549255, 0.012062150985002518, 0.13408754765987396, 0.01735922321677208, 0.07736382633447647, -0.03941014036536217, -0.343124121427536, -0.15515759587287903, 0.08141011744737625, -0.3105042278766632, 0.032993707805871964, -0.02183711715042591, 0.03969169035553932, -0.07793649286031723, -0.4196867346763611, 0.11302836984395981, -0.4843376874923706, -0.09275949001312256, -0.17418690025806427, -0.17979606986045837, 0.11891765147447586, -0.043432045727968216, -0.1662113070487976, 0.08567827939987183, 0.09924262017011642, 0.5322962999343872, 0.04741048440337181, 0.11820310354232788, 0.20863132178783417, -0.012419785372912884, 0.09725755453109741, 0.08830395340919495, -0.030140193179249763, -0.09513190388679504, 0.13839109241962433, 0.19980944693088531, -0.2646927535533905, 0.22062833607196808, -0.125093013048172, -0.26435360312461853], [0.05264628306031227, -0.33257755637168884, 0.26819345355033875, 0.36945340037345886, 0.14337579905986786, 0.11748932301998138, 0.1548558920621872, 0.2671653628349304, -0.06753820180892944, 0.0017350501148030162, -0.18708136677742004, 0.2600674331188202, 0.12928247451782227, 0.12156814336776733, 0.2644820809364319, 0.3811551034450531, 0.17257589101791382, -0.17657096683979034, -0.4015949070453644, -0.15613910555839539, -0.10593372583389282, 0.06668972969055176, -0.0705183744430542, 0.11383087933063507, -0.13470737636089325, 0.08079153299331665, 0.04746650904417038, 0.1372673064470291, -0.37231335043907166, 0.3026532530784607, 0.10303567349910736, -0.1313207894563675, -0.05175503343343735, -0.09572821110486984, -0.15304510295391083, -0.04828253388404846, -0.004527441691607237, 0.09462931752204895, 0.0848451778292656, -0.2121714949607849, 0.18110033869743347, -0.017868399620056152, -0.11455985903739929, -0.05029333755373955, -0.17550764977931976, 0.070212721824646, 0.18623653054237366, -0.05531987175345421, -0.11012134701013565, 0.24700824916362762, 0.17113378643989563, 0.15563265979290009, 0.04425901547074318, 0.388947457075119, -0.013538693077862263, -0.23939867317676544, 0.07472934573888779, -0.0818893164396286, -0.03452141955494881, 0.12417779862880707, 0.19514448940753937, 0.13898564875125885, -0.06088416278362274, -0.021891796961426735], [0.20451484620571136, -0.18047934770584106, 0.06775826215744019, -0.1300295889377594, 0.057405147701501846, -0.2347932755947113, -0.6967113614082336, 0.14185206592082977, 0.06325385719537735, -0.09053866565227509, 0.14176686108112335, 0.06706506758928299, -0.08951140195131302, 0.04102814570069313, -0.07726850360631943, 0.12982268631458282, 0.1222124770283699, -0.05318337306380272, 0.017177686095237732, 0.06115804985165596, -0.03513557091355324, 0.05450062453746796, -0.2459213137626648, 0.11568237096071243, 0.05313490331172943, 0.0364554263651371, 0.05222681164741516, -0.03456299751996994, -0.07526160776615143, 0.5102128982543945, 0.07855210453271866, -0.1007794588804245, 0.006063517648726702, -0.1529986411333084, 0.031010819599032402, 0.20321734249591827, -0.02200339548289776, -0.0005723715876229107, 0.4592812955379486, -0.18038752675056458, 0.03191714361310005, 0.05254794657230377, -0.20816218852996826, 0.04235771298408508, 0.019494041800498962, 0.09400574117898941, -0.3139357566833496, 0.003006631974130869, -0.048188358545303345, 0.09304508566856384, 0.07278667390346527, 0.07904671877622604, 0.20015272498130798, 0.47231021523475647, -0.12347524613142014, -0.12095947563648224, -0.45842909812927246, 0.04515458643436432, 0.01403144933283329, -0.09205455332994461, 0.20029565691947937, -0.03938654065132141, -0.04127999395132065, 0.07746539264917374], [-0.3831026554107666, -0.023751139640808105, -0.2661149203777313, 0.15616357326507568, 0.1560804843902588, 0.10399354249238968, -0.07553368806838989, -0.9043039083480835, 0.316453218460083, 0.4277160167694092, -0.36956796050071716, 0.2806822955608368, 0.314316987991333, -0.06815584748983383, 0.4191201627254486, -0.25386717915534973, -0.3292808532714844, -0.2588885724544525, -0.05725148692727089, -1.0652050971984863, 0.12126199901103973, -0.5382018089294434, 0.0734979659318924, 0.27095547318458557, -0.1336204707622528, -0.038885973393917084, 0.1146390289068222, 0.48223593831062317, -0.5999884605407715, -0.09525416046380997, 0.03512265533208847, -0.1776052713394165, 0.011926616542041302, 0.057295918464660645, -0.8033778667449951, 0.017351059243083, 0.005190703086555004, -0.15003010630607605, 0.11219050735235214, 0.007202227599918842, 0.04599076136946678, -0.14880076050758362, -0.23429977893829346, 1.060964822769165, -0.21345578134059906, 0.2802450358867645, 0.6717010736465454, 0.03903500735759735, 0.15338733792304993, 0.46909424662590027, 0.2006608247756958, -0.31228435039520264, -0.09586081653833389, 0.6821979880332947, 0.19948332011699677, 0.5704473853111267, 0.07335539162158966, -0.3353630304336548, 0.8731791973114014, 0.40139785408973694, -0.2577999532222748, 0.3135746717453003, 0.09843557327985764, 0.23666469752788544], [-0.33840450644493103, -0.3276658058166504, -0.2427549809217453, -0.716227650642395, 1.4448704719543457, -0.7694253921508789, -0.2950451672077179, 1.27066171169281, -0.8980599045753479, 0.6731250286102295, -0.19406718015670776, 0.5387439131736755, 3.260617971420288, -0.05157167837023735, -1.6785223484039307, -0.6364393830299377, 0.9828777313232422, -0.5490862727165222, 1.1348450183868408, 0.874554455280304, -0.44091323018074036, -1.4867370128631592, -0.30316877365112305, -0.4580303132534027, -0.007444421295076609, 1.7608922719955444, -0.6764392256736755, -0.24637824296951294, 0.3470531105995178, -1.379697561264038, -0.29912814497947693, 0.04966433718800545, 0.552574634552002, -0.6633411645889282, 0.9172840118408203, -0.49861255288124084, -0.8698208332061768, -1.7962217330932617, -0.17966842651367188, -0.4139891564846039, 0.8899864554405212, -0.6451729536056519, -0.6338120698928833, -0.14201410114765167, -0.053884051740169525, -2.0615804195404053, -0.6514788269996643, -2.33393931388855, 0.7519620656967163, 0.4510899484157562, 1.4131404161453247, -0.26346930861473083, -0.6806609630584717, -0.9525514841079712, -1.2925618886947632, 0.8509358167648315, -0.4518437683582306, 0.6918922662734985, -0.04590051993727684, 1.1578367948532104, -0.30207639932632446, 1.0883992910385132, -0.3117160499095917, 0.5368262529373169], [-0.03797147795557976, -0.03295963630080223, 0.010545682162046432, 0.029488181695342064, -0.11204339563846588, 0.16494271159172058, 0.23485058546066284, -0.201700359582901, 0.07509016990661621, 0.11878260970115662, 0.03290769085288048, 0.18899545073509216, -0.05943029001355171, 0.06688980758190155, -0.3175123929977417, -0.33963242173194885, 0.01216877531260252, -0.055003415793180466, -0.49464261531829834, -0.3884793519973755, -0.053358159959316254, -0.0019913041032850742, 0.03221798315644264, -0.1700238585472107, -0.013020763173699379, 0.253381609916687, 0.26996302604675293, -0.4580022394657135, -0.05842839926481247, -0.05664750933647156, -0.1581060141324997, -0.007037316914647818, 0.039391811937093735, 0.1263720989227295, -0.02518666721880436, 0.15476970374584198, -0.2309490293264389, -0.26478707790374756, 0.3067513406276703, 0.5182812809944153, 0.06656066328287125, 0.2685907483100891, 0.23336274921894073, 0.2795421779155731, 0.010418611578643322, -0.20595018565654755, 0.9757598638534546, -0.3403332233428955, -0.039245348423719406, 0.03182894363999367, -0.4569900929927826, 0.14938989281654358, 0.44159626960754395, 0.05598205700516701, 0.0018785711145028472, -0.353560209274292, 0.538007378578186, 0.0031717894598841667, -0.12962360680103302, -0.22157834470272064, -0.11932093650102615, -0.37926289439201355, 0.2381078600883484, 0.0343782864511013], [0.014817295596003532, -0.09805972129106522, -0.13038575649261475, -0.20951275527477264, 0.4267614185810089, -0.2764674425125122, -0.12844668328762054, 0.08028177171945572, -0.03857867419719696, -0.17854411900043488, 0.028168825432658195, -0.004355466924607754, -0.043066054582595825, -0.08362721651792526, -0.3935619592666626, -0.11945191025733948, 0.19560138881206512, -0.05882197618484497, -0.05575210973620415, 0.8949536681175232, 0.1754126399755478, -0.04828544706106186, -0.15528243780136108, 0.17077912390232086, 0.1311464011669159, -0.1078856810927391, 0.08155370503664017, 0.0025786974001675844, -0.19406099617481232, -0.2146303653717041, -0.15943323075771332, 0.10997962206602097, -0.2536502182483673, -0.24399836361408234, 0.004670834634453058, 0.0964602530002594, -0.6682747006416321, -0.042336706072092056, 0.0013199225068092346, 0.39410218596458435, 0.08544313907623291, 0.3197852671146393, -0.047881849110126495, -0.21062640845775604, 0.10337574779987335, -0.27219855785369873, -0.5319496393203735, 0.020848801359534264, 0.38457629084587097, -0.3681139647960663, -0.12118790298700333, 0.023987902328372, 0.011866253800690174, 0.02818506769835949, 0.0598650723695755, -0.013161451555788517, 0.17345412075519562, 0.19620153307914734, -0.3626091778278351, -0.010748605243861675, -0.1400238275527954, -0.2966100573539734, 0.04337368905544281, 0.098262719810009], [-0.8641862273216248, -0.6127643585205078, 0.39733070135116577, 0.7042275667190552, 0.020731016993522644, 0.6495038866996765, -0.3949469029903412, 0.39762064814567566, -0.16142062842845917, 0.009329109452664852, -0.21507692337036133, 0.20302899181842804, 0.14991985261440277, 0.001874078530818224, 0.20698565244674683, 0.14849911630153656, 0.2705138921737671, 0.8954192399978638, -0.09501871466636658, -0.7591333389282227, 0.1801297664642334, -0.3106676936149597, -0.1732487827539444, 0.45334163308143616, 0.622821569442749, 0.1686585545539856, -0.9236919283866882, 0.1335277408361435, -0.09403018653392792, -1.3290419578552246, 0.24625276029109955, -0.02169535867869854, -0.28775566816329956, 0.8919484615325928, 0.21483586728572845, -0.3401317894458771, 0.047342147678136826, 0.3369746506214142, 0.199276402592659, 0.49321991205215454, -0.15187233686447144, 0.3983510434627533, 0.7764673233032227, 1.1907620429992676, -0.16474220156669617, -1.0484631061553955, 0.10509127378463745, -0.37414994835853577, -1.4843041896820068, -1.0231819152832031, -1.4277867078781128, -0.09967675805091858, -0.18490099906921387, 1.1221016645431519, 0.025556720793247223, -0.8447124361991882, -0.8421465754508972, 0.08616188168525696, -0.8277983665466309, -0.7864673733711243, 0.053731769323349, 0.3581709861755371, 0.4750218689441681, 1.194708228111267], [-0.06178288906812668, -0.6309283971786499, -0.21774862706661224, 0.3849664330482483, 0.08070359379053116, 0.36744311451911926, -0.023363323882222176, 0.1866549551486969, -0.44470417499542236, 0.15737156569957733, -0.14638513326644897, 0.11106397211551666, 0.08188331127166748, -0.08935732394456863, 0.2135944664478302, 0.18207648396492004, -0.02790878899395466, 0.4782234728336334, -0.3990466594696045, -0.026360653340816498, 0.2785501182079315, 0.18297778069972992, -0.023507192730903625, 0.09465130418539047, 0.20519492030143738, 0.16663263738155365, -0.2848168909549713, 0.1624467670917511, 0.5047240853309631, -0.2839595675468445, 0.26021629571914673, 0.22754311561584473, -0.29240795969963074, 0.9596987366676331, 0.023211484774947166, -0.2962442934513092, -0.3727686107158661, -0.02944423072040081, -0.075572170317173, -0.09712373465299606, -0.0801972821354866, -0.08411628007888794, 0.22641170024871826, 0.022360702976584435, -0.024360964074730873, -0.39248526096343994, 0.20709511637687683, 0.42441582679748535, -0.3768581449985504, 0.5588747262954712, -0.32377365231513977, -0.02997036837041378, -0.23434826731681824, 0.6622152924537659, -0.01937057264149189, -0.036813195794820786, -0.14075152575969696, 0.17297255992889404, -0.3061891794204712, -0.21839235723018646, 0.3259705901145935, 0.09364502876996994, 0.1346285194158554, 0.2899481952190399], [-0.015827693045139313, 0.10953271389007568, 0.043039847165346146, 0.46744585037231445, -0.0017064466373994946, 0.05766882747411728, -0.03102397732436657, -0.03811204060912132, 0.017561741173267365, 0.00918413046747446, -0.12504567205905914, -0.10270829498767853, -0.1362609714269638, 0.30788087844848633, -0.16437891125679016, 0.06734462827444077, -0.15173476934432983, 0.31516537070274353, -0.25748351216316223, -0.45328956842422485, 0.060663264244794846, 0.009402799420058727, -0.014949060045182705, -0.0111157251521945, 0.1178257018327713, -0.01841028966009617, -0.018733974546194077, -0.163145050406456, 0.5605554580688477, -0.7515258193016052, 0.18568618595600128, 0.04323859512805939, 0.17269758880138397, 0.9044765830039978, 0.045316703617572784, 0.04429490491747856, 0.5167704224586487, -0.06142698600888252, -0.27132707834243774, 0.0038717270363122225, -0.46498048305511475, -0.21563027799129486, 0.8498202562332153, -0.24361646175384521, -0.1845865547657013, -0.14207147061824799, 0.4642793536186218, -0.03735750541090965, 0.26407110691070557, -0.37846264243125916, -0.410990446805954, -0.11253099143505096, -0.0038969144225120544, 0.43835943937301636, 0.053130730986595154, 0.04009128361940384, -0.15923766791820526, -0.38117271661758423, -0.07480530440807343, -0.46445363759994507, 0.3797752559185028, 0.4578952193260193, -0.0219629667699337, -0.024985216557979584], [-0.03446674719452858, 0.06687368452548981, -0.28923138976097107, 0.15891587734222412, 0.3183881938457489, 0.1563573032617569, 0.02347283624112606, 0.42517292499542236, -0.4084467887878418, 0.2099258154630661, -0.13551297783851624, 0.23130986094474792, 0.16031281650066376, -0.20171596109867096, 0.30016791820526123, -0.5783544182777405, 0.09209388494491577, -0.17836900055408478, -0.16860419511795044, -0.07086597383022308, -0.39061880111694336, 0.06765655428171158, -0.028918994590640068, -0.06198779493570328, 0.03223363310098648, 0.19429662823677063, 0.09093232452869415, 0.06950747966766357, -0.3279743790626526, 0.3345724046230316, 0.019686542451381683, -0.36337369680404663, 0.11601582914590836, -0.2387368083000183, -0.2095278948545456, -0.11906890571117401, -0.3689112663269043, -0.052375681698322296, 0.058919839560985565, 0.3560023307800293, 0.2267180234193802, -0.13385194540023804, -0.011908252723515034, -0.270247220993042, -0.27048230171203613, 0.1879030168056488, -0.004105824511498213, 0.024958567693829536, -0.3452031910419464, 0.3095167577266693, 0.12594819068908691, -0.0683419480919838, -0.15003693103790283, 0.3794012665748596, -0.06250680983066559, -0.2658631205558777, -0.06552797555923462, 0.1900588572025299, 0.1051369458436966, 0.25684359669685364, -0.023330003023147583, 0.17893129587173462, -0.11067567020654678, 0.20893718302249908], [-1.1899396181106567, 0.5839364528656006, -0.7908868789672852, 0.3012644648551941, 0.9810183644294739, -1.226239800453186, 0.8625867962837219, 4.235123157501221, -0.47524121403694153, -2.2335402965545654, 0.4897580146789551, -0.6348996162414551, -0.7425142526626587, 0.1425207257270813, -0.3862277567386627, -0.12616132199764252, 2.876272678375244, 4.9030303955078125, -1.233285903930664, -0.11545881628990173, 1.1503870487213135, -0.4060412049293518, 0.06513305753469467, 0.4874182641506195, 0.6432169079780579, 1.3899093866348267, 0.21112564206123352, -0.9359629154205322, 4.029264450073242, -1.579052448272705, 0.9906517267227173, 5.790025234222412, 0.8690374493598938, 9.001858711242676, -0.2522657513618469, 1.1447590589523315, 0.15269017219543457, 0.17751739919185638, -0.30411428213119507, 0.3667019009590149, -0.42210328578948975, -3.846389055252075, 5.90963077545166, -1.6990805864334106, 0.3215651214122772, -1.1621044874191284, 0.9457412958145142, 1.8326973915100098, -4.1578497886657715, -2.982876777648926, -2.8360164165496826, 0.5587323307991028, -1.1107215881347656, 6.084911346435547, 1.3609272241592407, 2.151902437210083, 0.22737130522727966, -0.19661012291908264, -4.029672145843506, -3.1644270420074463, 3.571744680404663, -1.112229347229004, 1.087947964668274, 0.48753130435943604], [0.09135720878839493, 0.05009974166750908, -0.08902367204427719, -0.3182334005832672, 0.21964232623577118, -0.23310892283916473, -0.3651120066642761, -0.24327105283737183, 0.09484843909740448, -0.22222383320331573, -0.04694722220301628, -0.019268613308668137, 0.17659787833690643, 0.13974234461784363, 0.7119415998458862, -0.19969725608825684, -0.024991454556584358, 0.023491133004426956, -0.20020915567874908, 0.051516398787498474, -0.1054546907544136, 0.010276207700371742, -0.19366399943828583, 0.101178839802742, 0.04219067469239235, -0.4743955135345459, 0.12536662817001343, -0.2120351791381836, 0.3723699152469635, -0.5265771746635437, 0.7495406866073608, 0.014575565233826637, 0.1753520369529724, 0.29567649960517883, 0.33793163299560547, -0.051080022007226944, 0.041120514273643494, -0.08920305967330933, 0.03622059524059296, 0.06227727234363556, -0.16000427305698395, -0.05043528601527214, 0.22106875479221344, -0.09373282641172409, 0.21525424718856812, -0.07468713819980621, 0.3893365263938904, 0.16169919073581696, 0.18347331881523132, 0.24027562141418457, 0.20505374670028687, 0.003666423261165619, 0.12074058502912521, -0.15659911930561066, 0.6376936435699463, 0.14479835331439972, -0.06026829034090042, -0.10022590309381485, -0.08322279900312424, -0.2550673186779022, -0.5149311423301697, 0.19637581706047058, -0.08940762281417847, 0.06925645470619202], [-1.68950355052948, -1.4572612047195435, 0.8155858516693115, 0.7825317978858948, -0.20434720814228058, -0.3087542951107025, -1.518174648284912, -2.821775436401367, 1.779951572418213, 4.569976329803467, -1.072114109992981, 0.06299758702516556, 0.8323442935943604, 0.5911620259284973, -0.1479804515838623, 1.6318236589431763, -2.4534690380096436, -4.775844573974609, 0.36062419414520264, -0.2793155312538147, 0.2923092842102051, -0.0954383835196495, -0.24969494342803955, 0.07118535786867142, 0.5226448774337769, -1.700806975364685, -1.312132716178894, -0.7592880725860596, -2.85886812210083, 0.19016805291175842, 0.3818923532962799, -5.247061729431152, -2.809899091720581, -3.255519390106201, 0.03157100826501846, -1.9069037437438965, -0.2109815627336502, -0.8532479405403137, 0.39053571224212646, 0.1564275324344635, 1.2103039026260376, -2.576319694519043, -2.363900899887085, 2.998394727706909, -0.2968691885471344, 1.704580307006836, 0.41695961356163025, -0.5815234780311584, 4.794605731964111, 1.1909104585647583, 2.095000743865967, 0.027344146743416786, 1.4972965717315674, -2.802067756652832, -0.2584843039512634, 3.579355478286743, -2.059041738510132, 0.8414829969406128, 4.716094493865967, 2.125802516937256, -0.7356880903244019, 0.6666431427001953, -1.2832660675048828, 1.3032296895980835], [-1.027953863143921, 1.4231898784637451, -0.10036474466323853, 0.3805311322212219, -0.7682023644447327, -0.8791150450706482, -0.3242860734462738, -0.43583059310913086, 0.39462926983833313, 0.4311228096485138, 0.197936549782753, -0.26784127950668335, 0.8535289764404297, -0.6995990872383118, -0.03238316997885704, -0.8354807496070862, -0.8554409742355347, -1.5180988311767578, -1.1356749534606934, 1.625982403755188, 0.35217371582984924, 0.290846049785614, -0.08207841217517853, -1.06098473072052, 0.1563989818096161, -1.4336767196655273, 0.33271515369415283, -0.27021679282188416, 1.2726693153381348, -0.37766581773757935, 1.0024216175079346, -0.05498642101883888, 0.22742101550102234, 0.04707035422325134, 0.6994988322257996, 0.030008280649781227, -0.8210220336914062, 0.3121489882469177, -0.26820239424705505, -0.31195586919784546, -0.1173199862241745, 0.2146373838186264, 1.0174717903137207, 0.6839407682418823, -0.10236568003892899, 0.06104285269975662, -0.14044184982776642, -3.3309032917022705, 2.686725378036499, -0.2740998864173889, 0.9651772379875183, 0.13866651058197021, 0.6057100892066956, 0.7029115557670593, 0.7475483417510986, 0.7099854350090027, 0.34971463680267334, 0.2857688069343567, 2.9467735290527344, 0.5818542242050171, -0.32257404923439026, -0.6363816261291504, -1.3499873876571655, 0.7110300064086914], [0.040039755403995514, -0.203815296292305, -0.08069884777069092, 0.057077087461948395, 0.1410020887851715, 0.1729028970003128, 0.0749022513628006, 0.0002587477210909128, -0.3787619471549988, 0.21184879541397095, -0.36489391326904297, 0.35427966713905334, 0.10267148911952972, -0.04194694012403488, 0.12272883206605911, 0.012039728462696075, 0.44237905740737915, 0.045969147235155106, 0.2977040708065033, -0.16934651136398315, -0.3595326244831085, 0.05170836299657822, -0.30782216787338257, 0.3307700455188751, 0.3618342876434326, 0.1537521928548813, -0.14529964327812195, -0.021196572110056877, -0.06189505755901337, -0.10851974040269852, 0.015243841335177422, -0.10148125886917114, -0.08291050791740417, -0.007492364849895239, -0.25641998648643494, -0.11276207864284515, 0.07052706182003021, 0.06300324201583862, 0.053595565259456635, -0.07326193153858185, 0.10980396717786789, 0.008210503496229649, -0.11460258066654205, 0.19279055297374725, -0.27903515100479126, 0.12387660145759583, 0.36916854977607727, -0.03911612182855606, -0.224290132522583, 0.1961449235677719, -0.2782856822013855, -0.6216971278190613, -0.03399798274040222, -0.04253217577934265, -0.3169384002685547, -0.0928209200501442, -0.2635699510574341, 0.3687184751033783, 0.010302423499524593, -0.014195962809026241, 0.3140065371990204, 0.2748911380767822, -0.035871755331754684, 0.4439047574996948], [-0.05378246679902077, -0.2276381552219391, 0.15061123669147491, 0.26816681027412415, 0.26086676120758057, 0.14957195520401, 0.3836202025413513, -0.0909002274274826, -0.14324642717838287, 0.17249028384685516, -0.2617676556110382, 0.3697899580001831, -0.1586228609085083, 0.2592412531375885, 0.17055295407772064, 0.29154613614082336, 0.301439493894577, 0.0926079973578453, 0.24860802292823792, 0.4197371006011963, -0.4182451069355011, -0.01600046642124653, -0.3446542024612427, 0.10301702469587326, 0.14253272116184235, 0.006867044139653444, 0.12355177104473114, 0.08103587478399277, -0.3637115955352783, -0.16769905388355255, -0.05424419045448303, -0.025919705629348755, -0.3548668920993805, 0.08745279163122177, -0.16841687262058258, 0.0471198596060276, 0.1283164620399475, -0.23562276363372803, 0.12608397006988525, -0.6263913512229919, 0.601054310798645, -0.10059411078691483, 0.2014700025320053, 0.4247570335865021, -0.06228816136717796, 0.024099076166749, 0.08923204243183136, -0.4470469057559967, -0.5820653438568115, 0.04575309529900551, -0.35367944836616516, -0.2574799358844757, -0.193746417760849, 0.23029209673404694, -0.03712861239910126, 0.19153548777103424, -0.014754961244761944, 0.3689655065536499, 0.03267583250999451, 0.3698568344116211, 0.4061669111251831, -0.40153375267982483, -0.1699920892715454, 0.19508948922157288], [-0.17437967658042908, -1.4881278276443481, 0.26035651564598083, 0.25944530963897705, -1.336591124534607, 0.4468153119087219, -0.8535861372947693, -1.0256941318511963, 1.3942407369613647, 0.317129909992218, 0.20242005586624146, -0.7277511358261108, 0.2835240066051483, -0.27573949098587036, 1.5759642124176025, -0.036062560975551605, -1.5268007516860962, 0.15550728142261505, 0.6789196133613586, -0.16172131896018982, 0.40815597772598267, 0.5839751958847046, 0.3622191846370697, 0.141071155667305, 0.3225231468677521, -1.4082680940628052, -0.1552789956331253, -0.49565571546554565, -0.6594251990318298, -0.2713320851325989, -0.4020618498325348, -0.27633747458457947, 0.5735596418380737, 1.9369488954544067, -0.9168818593025208, -0.6540576815605164, 1.6210869550704956, -0.4603671431541443, -0.42446133494377136, 0.1286725550889969, -0.04365905374288559, -0.03428741917014122, -0.12318672239780426, 0.5327960252761841, 0.0945751890540123, 0.22222405672073364, 0.5437330603599548, 0.08181760460138321, 0.8403849601745605, -1.2784727811813354, -0.19504570960998535, 0.056169863790273666, 0.6044829487800598, 0.6499943733215332, 0.12339216470718384, 2.4240968227386475, 1.3822660446166992, -0.3325732946395874, 1.971922516822815, -1.2559685707092285, -0.3696984052658081, -0.5954269170761108, 0.812962532043457, 0.16407234966754913], [0.22730931639671326, 0.249215766787529, 0.005864161066710949, -0.8703114986419678, -0.5228175520896912, 1.6952911615371704, -0.3771866261959076, -0.7724212408065796, -0.7906429767608643, -0.610589861869812, -0.1325661689043045, -0.34560510516166687, -0.3569885194301605, 0.6749339699745178, 0.6518698930740356, 0.5402573347091675, 0.09016673266887665, -0.10890546441078186, 0.49423086643218994, 0.865204393863678, 0.3693072497844696, -0.25353148579597473, 0.3031533360481262, -0.7869755029678345, -0.6485002040863037, -0.15159128606319427, -0.2921583354473114, 0.4513773024082184, 0.050292644649744034, 0.8820287585258484, -0.03172731399536133, -0.07116346061229706, -0.049973342567682266, -1.2561219930648804, -0.7166014909744263, 0.80047208070755, -0.9211316108703613, 0.5161763429641724, -0.06651528179645538, -0.06803981214761734, 0.3273868262767792, -0.13739144802093506, 0.08390108495950699, 0.8758575320243835, 0.5688625574111938, -1.0652869939804077, 0.17387360334396362, -0.8201519250869751, 1.2720201015472412, -1.2855195999145508, -1.0114703178405762, 0.33015650510787964, 0.15072134137153625, -1.3235971927642822, -0.34854304790496826, -0.08665537089109421, 0.6596143245697021, -0.05460087209939957, -0.3036841154098511, -1.3544546365737915, -0.17820702493190765, -0.3613959550857544, -0.7345913648605347, -0.3233058452606201], [-0.25597068667411804, -0.35242101550102234, 0.20835894346237183, 0.28864234685897827, 0.04872739315032959, 0.13588230311870575, -0.11847236752510071, 0.008274875581264496, -0.3518236577510834, 0.15678735077381134, -0.06315925717353821, 0.08957873284816742, -0.047702740877866745, 0.013433619402348995, 0.054389361292123795, 0.27018314599990845, 0.0048148189671337605, 0.08094333112239838, 0.36595672369003296, 0.09501299262046814, -0.13140349090099335, 0.011844303458929062, -0.1365821212530136, 0.4167121648788452, 0.15263134241104126, 0.31136584281921387, -0.002691599540412426, 0.32394060492515564, -0.17269288003444672, 0.1641017496585846, 0.11035100370645523, 0.0228778924793005, 