{"model_data": {"model": "SimpleRNN", "input_size": 1, "skip": 1, "output_size": 1, "unit_type": "LSTM", "num_layers": 1, "hidden_size": 64, "bias_fl": true}, "state_dict": {"rec.weight_ih_l0": [[0.43707653880119324], [-0.24900707602500916], [0.8987545967102051], [0.0894111916422844], [0.4292890429496765], [-0.4963352680206299], [0.30551064014434814], [-6.1554107666015625], [0.8017920851707458], [-0.15527409315109253], [-0.7344529032707214], [-0.3842909634113312], [0.28308841586112976], [1.3595080375671387], [-0.528514564037323], [0.3194243907928467], [0.16203397512435913], [0.419980525970459], [0.20221953094005585], [-1.0497075319290161], [-0.11081205308437347], [1.0021586418151855], [1.09006929397583], [-0.1934705674648285], [-0.8661077618598938], [0.3396441638469696], [0.04771950840950012], [0.05318931117653847], [1.6512181758880615], [-0.07994267344474792], [-0.3975334167480469], [-0.07095059752464294], [1.067818284034729], [0.025261718779802322], [-0.14906658232212067], [0.40313565731048584], [-0.19342078268527985], [-0.7783094644546509], [-0.6057181358337402], [-1.8989185094833374], [0.4237613081932068], [-0.05306994542479515], [0.05475955456495285], [-0.5806483626365662], [0.0788537934422493], [2.2020721435546875], [0.1747194528579712], [0.8211637735366821], [0.5748483538627625], [0.19726213812828064], [0.358457088470459], [-1.2418426275253296], [-0.25875526666641235], [-0.021456696093082428], [2.205448865890503], [-0.11038734018802643], [0.3939615488052368], [-0.40129750967025757], [-0.5928630828857422], [1.2134225368499756], [0.1354159265756607], [0.4778403639793396], [0.19424928724765778], [0.7479656338691711], [0.5808904767036438], [0.004425893072038889], [0.15975695848464966], [-0.2241261601448059], [0.6529313921928406], [-0.34522631764411926], [0.6692330241203308], [-1.3119083642959595], [0.9936831593513489], [-0.06197582185268402], [-0.9742089509963989], [-0.8260140419006348], [0.49262523651123047], [1.5035921335220337], [-0.5114954113960266], [0.3366990089416504], [0.4054991900920868], [0.3156619966030121], [-0.09650968015193939], [-0.8207610845565796], [-0.13954390585422516], [0.3507528007030487], [0.4048059284687042], [-0.5634667873382568], [0.44609782099723816], [0.46265965700149536], [0.3972845673561096], [-0.12282726168632507], [1.275331974029541], [-0.013772761449217796], [-0.4811555743217468], [-0.046677399426698685], [1.7052640914916992], [0.030343923717737198], [-0.2786393165588379], [0.19985367357730865], [-0.43210700154304504], [-1.2601462602615356], [-0.35798558592796326], [-2.037161350250244], [0.5755100846290588], [-0.08426950126886368], [-0.23515702784061432], [-1.0220701694488525], [-0.2398306131362915], [1.8508145809173584], [0.19623935222625732], [0.8665309548377991], [0.5311153531074524], [0.4421517550945282], [2.1106088161468506], [0.7413487434387207], [1.1939600706100464], [-0.04334620013833046], [0.6832972168922424], [0.014202406629920006], [0.41689684987068176], [-0.7714186310768127], [-0.7732312083244324], [1.6883666515350342], [0.4337559640407562], [0.31254029273986816], [-0.15023167431354523], [0.6707295179367065], [-1.0089914798736572], [0.4686879813671112], [1.6343011856079102], [0.12834817171096802], [0.9011998772621155], [-1.567150354385376], [-0.23355808854103088], [4.0410943031311035], [-0.9630163908004761], [-0.05298128351569176], [0.8963735103607178], [-0.6990199685096741], [-0.8046537041664124], [0.9419386386871338], [-1.0508610010147095], [0.9607259631156921], [0.0303637832403183], [-0.79790198802948], [-0.429982453584671], [1.299614429473877], [0.29130619764328003], [-1.513381838798523], [-0.4288354218006134], [-0.7908521294593811], [-0.015950407832860947], [-0.45558109879493713], [-0.21714596450328827], [-0.3316606283187866], [0.18673983216285706], [0.2715691328048706], [-0.717125654220581], [0.701231062412262], [-3.224081516265869], [-0.2060125321149826], [-2.693734645843506], [-1.9948545694351196], [-0.4751017987728119], [0.5226325988769531], [-0.5372841954231262], [-3.645094394683838], [0.46722114086151123], [0.3246968984603882], [-0.14576639235019684], [0.7671850323677063], [0.9978540539741516], [3.8114984035491943], [0.8356419205665588], [0.9729107022285461], [-0.9218956232070923], [0.9676410555839539], [8.343133926391602], [-0.7103044986724854], [6.468557834625244], [0.19951830804347992], [4.4199018478393555], [-0.28836777806282043], [-0.12183231115341187], [-1.0599536895751953], [-1.0005440711975098], [-3.209259271621704], [0.33900514245033264], [0.25319626927375793], [0.017595577985048294], [-0.99188631772995], [0.6662299036979675], [0.2344580739736557], [0.5881160497665405], [0.2911745607852936], [0.2912561297416687], [-0.7327304482460022], [0.41979604959487915], [0.0015253506135195494], [1.220287799835205], [-0.22476233541965485], [-1.0787353515625], [-1.1478959321975708], [0.43384888768196106], [2.7661452293395996], [-0.8760399222373962], [0.9780604839324951], [0.268404483795166], [0.5820887088775635], [-0.3278690278530121], [-0.9541793465614319], [-0.16954027116298676], [-0.09856129437685013], [1.7218729257583618], [-0.5832929015159607], [-0.6358083486557007], [0.43734434247016907], [0.739458441734314], [-0.021044975146651268], [1.0558576583862305], [-0.06478433310985565], [-0.4376283586025238], [-0.4402371942996979], [2.087562322616577], [0.12073645740747452], [2.453591823577881], [0.7630869746208191], [-0.43554145097732544], [-2.556001901626587], [-0.5814812779426575], [-1.794886827468872], [0.6984801888465881], [0.19381394982337952], [-0.3044135272502899], [-0.5421039462089539], [-0.5438446402549744], [2.6986515522003174], [0.3317629098892212], [1.3091089725494385], [0.9157885909080505], [0.2287750244140625], [0.5132119655609131], [1.040630578994751], [0.40322041511535645], [0.02893890254199505], [-0.5544349551200867], [0.2744709253311157], [0.2938596308231354], [-0.5678644776344299], [-0.7643839120864868], [2.9702298641204834], [0.5160043835639954], [0.33821436762809753], [-0.16528429090976715], [0.7433074712753296]], "rec.weight_hh_l0": [[0.13643349707126617, 0.033400822430849075, -0.19033072888851166, -0.08302349597215652, -0.2836999297142029, -0.058845650404691696, -0.33031603693962097, 0.23503020405769348, 0.12334433197975159, -0.012901605106890202, -0.22009965777397156, -0.177846297621727, -0.0966232642531395, -0.014266172423958778, -0.15221759676933289, -0.22627420723438263, 0.27992013096809387, 0.07039530575275421, -0.0011350185377523303, 0.33300620317459106, -0.06547489762306213, -0.22184525430202484, -0.13446134328842163, -0.41525083780288696, -0.08837167173624039, -0.060296569019556046, -0.25459372997283936, -0.29859188199043274, -0.004404634237289429, -0.12398505955934525, 0.014435714110732079, 0.022371571511030197, -0.36467382311820984, -0.42038610577583313, 0.357547789812088, -0.43880006670951843, -0.35019832849502563, 0.1946510225534439, -0.30008476972579956, -0.010895442217588425, 0.09001389145851135, -0.049892693758010864, -0.30142712593078613, 0.2576983571052551, 0.11397237330675125, -0.16366837918758392, 0.19305601716041565, -0.07365628331899643, 0.48777809739112854, -0.27195611596107483, 0.1296653002500534, 0.13794034719467163, 0.09724348783493042, 0.2096538245677948, 0.1162286102771759, 0.11479818820953369, -0.06297087669372559, -0.0790591910481453, -0.19149364531040192, -0.08971081674098969, 0.06410844624042511, 0.04900078848004341, 0.22326065599918365, -0.059124525636434555], [0.178610160946846, 0.10298573970794678, -0.2789273262023926, -0.3558823764324188, -0.3951432406902313, -0.19551736116409302, 0.06110135838389397, 0.5157568454742432, 0.5357877612113953, 0.07780326902866364, -0.028078090399503708, -0.3498222231864929, -0.003954951651394367, -0.32423830032348633, -0.4508664906024933, -0.6100080013275146, 0.17093881964683533, -0.22097137570381165, 0.1383848488330841, 0.4842832684516907, -0.14017954468727112, -0.18995338678359985, 0.14715278148651123, -0.2517744302749634, -0.3099229633808136, 0.08111162483692169, -0.15127317607402802, -0.011561894789338112, -0.0024148584343492985, 0.3548780679702759, 0.16715599596500397, 0.26250559091567993, -0.3506120443344116, -0.28809303045272827, 0.5357632637023926, -0.5277804136276245, -0.06072729080915451, 0.23971115052700043, 0.07929171621799469, 0.10743696987628937, 0.06643471121788025, 0.3732333183288574, -0.24229705333709717, 0.366773784160614, 0.20173127949237823, -0.239129900932312, 0.19325053691864014, -0.40762194991111755, 0.027452750131487846, -0.2944442331790924, -0.057002633810043335, 0.14277619123458862, 0.08584905415773392, 0.1588735431432724, -0.462942898273468, -0.2666669189929962, 0.41652461886405945, -0.5306656956672668, -0.19676640629768372, 0.022239189594984055, -0.016243893653154373, 0.031465183943510056, 0.048360805958509445, 0.15960000455379486], [0.10816270858049393, 0.5642398595809937, 0.8587117195129395, -0.017439942806959152, 0.21048574149608612, 0.4809791147708893, 0.2935563921928406, 0.4499371647834778, -0.1661141961812973, -0.526692271232605, 0.21122726798057556, -0.42261382937431335, -0.369370698928833, 0.8689999580383301, -0.43461674451828003, 0.16339002549648285, -0.2832597494125366, -0.18751437962055206, -0.6234498023986816, -0.08765217661857605, 0.8769565224647522, 2.8878002166748047, 0.09213393181562424, 0.17428450286388397, -1.6426570415496826, -0.9554364681243896, -0.030153971165418625, 0.0910961925983429, -0.016289016231894493, -0.36524051427841187, -0.06147651746869087, 0.06062953174114227, -0.6141311526298523, -0.42594683170318604, 0.13975267112255096, -0.7944188714027405, 0.5180422067642212, 0.3292691111564636, 0.5306779146194458, 0.43035489320755005, 0.23406724631786346, 0.3234182596206665, -0.15225806832313538, -0.40013885498046875, 0.18936245143413544, 1.2226192951202393, -0.18398751318454742, 0.31540098786354065, -0.8872753381729126, 0.21963535249233246, 0.4078316390514374, -1.8416341543197632, 2.6413662433624268, -0.6420607566833496, 0.8243461847305298, 0.3738190531730652, -0.62861567735672, -0.7387809753417969, -0.05682580918073654, -2.560520648956299, -0.10204142332077026, 1.382856011390686, 0.1804724931716919, -0.05768708512187004], [0.08990900218486786, 0.10153672099113464, -0.1309152990579605, -0.21018804609775543, -0.1807558834552765, -0.01581644080579281, 0.2590824365615845, 0.3575606048107147, 0.13214032351970673, 0.22500921785831451, 0.3311302959918976, -0.3835652768611908, 0.15227550268173218, 0.0332258902490139, -0.3195391893386841, -0.08220633119344711, -0.33812832832336426, -0.1358378827571869, 0.013875935226678848, -0.06869245320558548, 0.03201306238770485, -0.1182899922132492, 0.4764465093612671, -0.22755147516727448, -0.21717602014541626, -0.033191192895174026, -0.108439140021801, -0.3408108651638031, 0.11543858796358109, 0.27854305505752563, -0.04226480796933174, 0.04513102397322655, -0.1362324059009552, 0.10886934399604797, 0.35041481256484985, 0.10508465021848679, -0.03816088289022446, 0.02858768031001091, -0.08565191924571991, 0.16182555258274078, -0.15613779425621033, 0.19906502962112427, 0.1511882245540619, 0.04797128960490227, -0.12579059600830078, -0.15436498820781708, -0.08145148307085037, -0.2679031193256378, 0.1291474550962448, -0.14865776896476746, -0.33497461676597595, 0.016443245112895966, -0.3339940309524536, -0.16001461446285248, -0.03043035790324211, -0.36704373359680176, 0.29772964119911194, -0.09153136610984802, -0.02665494941174984, -0.16483668982982635, 0.0143913384526968, 0.01503419503569603, 0.11005891859531403, 0.13007000088691711], [0.04151075333356857, 0.013037033379077911, -0.22485345602035522, -0.19300778210163116, 0.15882650017738342, -0.06521125882863998, -0.49291467666625977, 0.16567976772785187, 0.09333285689353943, 0.06154610961675644, 0.04807168245315552, 0.12873834371566772, 0.12712077796459198, -0.026532238349318504, -0.049628034234046936, -0.34706494212150574, 0.11061575263738632, -0.21218769252300262, 0.05420977249741554, 0.1290852129459381, -0.400065153837204, 0.2428869903087616, -0.030994154512882233, -0.07239896804094315, 0.2915460467338562, 0.12994341552257538, -0.0743754506111145, -0.00878847111016512, -0.16289085149765015, -0.1989278495311737, 0.023876294493675232, 0.014565814286470413, -0.40598365664482117, -0.5536845922470093, 0.2506966292858124, -0.48010683059692383, 0.10175694525241852, 0.04595566540956497, -0.1826266348361969, -0.056193675845861435, 0.3195652961730957, -0.12206535786390305, -0.06549952924251556, -0.023281611502170563, 0.37141796946525574, -0.06844379007816315, 0.024769242852926254, -0.40204155445098877, 0.1719522923231125, -0.061319999396800995, 0.19923020899295807, 0.17788924276828766, 0.17486700415611267, 0.177581325173378, -0.004603104200214148, 0.12302801012992859, 0.0769328698515892, 0.08639909327030182, -0.08560559898614883, -0.06123976781964302, -0.001659322646446526, -0.3065812289714813, -0.14037011563777924, 0.19976738095283508], [-0.4126723110675812, 0.05004168301820755, 0.11180650442838669, -0.24591891467571259, 0.26899755001068115, 0.013679691590368748, 0.08547504246234894, 1.123733401298523, -0.4473644495010376, -0.3911341428756714, 0.042622100561857224, 0.1484491378068924, -0.30086150765419006, 0.4229087233543396, -0.07513077557086945, 0.14981211721897125, -0.4095543622970581, -0.033205293118953705, 0.21402542293071747, -0.5513501167297363, 0.4862819314002991, -0.09455214440822601, -0.09352044016122818, 0.3889784514904022, 1.2858445644378662, -0.47217029333114624, 0.8997436761856079, 2.1229207515716553, -0.25988510251045227, -0.31926363706588745, -0.3083433508872986, 0.18495023250579834, -0.5616233348846436, -0.43955138325691223, -0.6491042971611023, -0.4514130651950836, -0.40308040380477905, -0.3623862564563751, 0.017188971862196922, 0.4330693185329437, 0.17253322899341583, -0.24992646276950836, -0.5541526079177856, -0.4352567195892334, 0.342411071062088, 0.5121331214904785, 0.3528195917606354, -0.10216553509235382, 0.5402497053146362, 0.2601013779640198, -0.8657620549201965, 0.06827205419540405, 0.5452374815940857, -0.08776580542325974, 0.4622155725955963, 0.8957131505012512, -0.002244726289063692, 0.25780385732650757, -0.1380385160446167, -0.9478793740272522, 0.02615555375814438, -0.0007716054678894579, 0.21459801495075226, 0.16159291565418243], [0.4717264771461487, 0.2699723541736603, -0.21490119397640228, -0.35772213339805603, -0.5305413007736206, -0.19051231443881989, -0.7885500192642212, 0.6393555998802185, 0.13089513778686523, 0.14874039590358734, 0.23202112317085266, -0.7393262386322021, -0.2076667845249176, 0.0900348648428917, -0.25903916358947754, -0.18245235085487366, -0.13224102556705475, 0.03394747152924538, -0.3039466142654419, -0.09289467334747314, -0.12231344729661942, -0.3149771988391876, 0.9854490160942078, -0.2770659327507019, -0.26741263270378113, 0.1090174987912178, -0.24500276148319244, 0.29794397950172424, 0.002045378554612398, -0.01614357903599739, 0.03731934353709221, 0.1555304229259491, -0.39612552523612976, 0.2855762541294098, 0.7865667343139648, -0.4059430956840515, -0.1696147918701172, 0.32699957489967346, -0.7256382703781128, 0.32258710265159607, 0.3810245394706726, -0.24943776428699493, -0.48903053998947144, 0.11512375622987747, -0.3655548691749573, 0.2159656286239624, 0.4209579527378082, 0.0835021510720253, -0.09980080276727676, -0.43090930581092834, -0.6482816934585571, -0.14477789402008057, -0.18734116852283478, -0.13947084546089172, 0.06681261956691742, 0.20999009907245636, 0.19463925063610077, -0.3522173762321472, 0.23356476426124573, 0.37175503373146057, 0.029918769374489784, 0.05717313289642334, -0.10518288612365723, 0.13233615458011627], [0.24322792887687683, 0.0586223378777504, -0.7200803160667419, 0.564676821231842, -0.572341799736023, 1.8804528713226318, 1.1661763191223145, -7.282732963562012, 0.7862315773963928, -0.8876431584358215, 0.40946710109710693, 0.07216954231262207, 0.3322623670101166, -0.8683701157569885, 2.359221935272217, -3.6196701526641846, -0.6160187721252441, 0.4024720788002014, 1.4349191188812256, -0.14841234683990479, -0.3833967447280884, -0.5587877035140991, -3.213618516921997, 0.6543170213699341, 1.9514278173446655, 0.13617555797100067, 0.2902156412601471, -2.196578025817871, 2.356771469116211, 0.4397793114185333, -0.3066006600856781, -0.8575218319892883, 5.086706638336182, 1.1283968687057495, 2.939657688140869, 1.410099744796753, -0.1312507838010788, -1.024402141571045, 0.9550516605377197, 8.370264053344727, -0.43652600049972534, 0.18464325368404388, 0.6933833360671997, -0.34878018498420715, -1.848492980003357, -1.956746220588684, 1.899525761604309, 0.29598507285118103, 0.543828547000885, -1.6445231437683105, -10.966374397277832, -8.667642593383789, -19.147899627685547, 0.756862461566925, -12.983478546142578, -0.27867987751960754, -1.2558588981628418, 1.4323790073394775, 0.6321529746055603, 5.1499128341674805, 1.0416436195373535, 2.126596450805664, -1.2983171939849854, 0.6828761100769043], [0.2737571597099304, -0.09837739169597626, -0.2457120716571808, 0.1241292729973793, -0.046736136078834534, -0.08267373591661453, -0.032236967235803604, -0.09880846738815308, 0.025850920006632805, 0.07201523333787918, 0.18529394268989563, -0.29598236083984375, -0.10783696174621582, -0.15005497634410858, -0.2008664458990097, -0.06709885597229004, 0.14148995280265808, 0.06838815659284592, -0.22250747680664062, -0.02689024619758129, 0.10207198560237885, -0.013323533348739147, -0.1926703304052353, 0.06719742715358734, -0.05414232984185219, 0.09256931394338608, -0.026746168732643127, -0.036781374365091324, -0.10582665354013443, 0.011254089884459972, -0.1483299285173416, -0.06899566948413849, -0.38247817754745483, 0.04430360719561577, 0.03905780613422394, -0.11949900537729263, 0.009724517352879047, 0.1070784479379654, -0.24878071248531342, 0.00015110969252418727, 0.14730070531368256, -0.013417729176580906, -0.09093114733695984, -0.15264396369457245, 0.1832115203142166, -0.14497700333595276, 0.06062842160463333, -0.10121595114469528, 0.23297272622585297, -0.037389833480119705, -0.04152368754148483, -0.060453228652477264, 0.109479621052742, 0.13118988275527954, 0.49261489510536194, 0.15437230467796326, -0.007839994505047798, 0.20208343863487244, 0.006419830024242401, -0.08542785048484802, 0.13027262687683105, -0.12733465433120728, -0.017670361325144768, 0.20642545819282532], [-0.2902538478374481, 0.06605952233076096, 0.028498729690909386, -0.23307916522026062, -0.38803496956825256, -0.054733797907829285, 0.2016521692276001, -0.19986045360565186, 0.22156444191932678, 0.0817403644323349, -0.5549042224884033, -0.2797356843948364, -0.200423926115036, -0.09611104428768158, 0.013194101862609386, -0.17580848932266235, 0.14850850403308868, -0.40130874514579773, -0.07671444863080978, -0.0006110983667895198, 0.007539212703704834, -0.30799734592437744, -0.07445814460515976, -0.42132535576820374, -0.266035795211792, 0.21537604928016663, -0.20529811084270477, -0.6102890372276306, -0.03304169699549675, -0.14474336802959442, 0.2538284659385681, -0.20393109321594238, 0.004516697954386473, -0.24095244705677032, -0.13263697922229767, -0.23762796819210052, -0.2047363966703415, -0.1571778804063797, 0.024693116545677185, 0.37639907002449036, -0.17683717608451843, -0.07978670299053192, 0.7906995415687561, 0.2790560722351074, -0.05004208907485008, -0.4764868915081024, 0.29922303557395935, -0.3126363456249237, 0.005374593660235405, -0.4166010916233063, -0.34861618280410767, 0.2957911491394043, -0.10001730918884277, -0.034314800053834915, -0.629075288772583, -0.37155401706695557, 0.05470438674092293, -0.10609427839517593, -0.09497440606355667, -0.4009782373905182, 0.13381804525852203, 0.13546481728553772, -0.1325315684080124, -0.1254657655954361], [-0.12579436600208282, 0.09837863594293594, -0.5026472806930542, -0.21762943267822266, -0.5330312252044678, -0.14586500823497772, 0.06771908700466156, 0.07623442262411118, 0.532795250415802, -0.048221416771411896, -0.1566578894853592, -0.08753892779350281, -0.2838316261768341, -0.7432036399841309, 0.022067340090870857, -0.7054735422134399, -0.30217593908309937, -0.2974540591239929, 0.2185654491186142, 0.3066829442977905, -0.21943853795528412, -0.0026685972698032856, 0.11623231321573257, -0.34213095903396606, -0.175886869430542, -0.7135623097419739, -0.2529275715351105, -0.012850322760641575, -0.09777236729860306, 0.0691186860203743, 0.045494720339775085, 0.3101159632205963, -0.03651609644293785, 0.26225215196609497, 0.2047669142484665, -0.3136610984802246, 0.15992023050785065, 0.4412332773208618, -0.0425904206931591, 0.15847299993038177, -0.4297313094139099, 0.010022732429206371, -0.12705102562904358, 0.3478291630744934, 0.02298460341989994, -0.2935978174209595, 0.5448052883148193, -0.37806418538093567, -0.37231501936912537, -0.1873915195465088, -0.18786625564098358, -0.23900622129440308, -0.5123870372772217, 0.10758161544799805, -0.4299660623073578, -0.31394240260124207, 0.5199129581451416, 0.00370853953063488, -0.24338458478450775, -0.26685893535614014, 0.16340495645999908, -0.0032196510583162308, 0.03309265151619911, 0.45407724380493164], [-0.10444483906030655, -0.16139300167560577, 0.05508344992995262, -0.18706029653549194, 0.02145780622959137, -0.1277836561203003, -0.09983351826667786, 0.05009317398071289, 0.16388435661792755, -0.2093825340270996, 0.11586660146713257, -0.13582046329975128, 0.17614732682704926, -0.26358360052108765, -0.13842901587486267, 0.19170327484607697, -0.11363021284341812, -0.27742987871170044, -0.0869690403342247, 0.17680615186691284, -0.6378064155578613, 0.048553358763456345, 0.20545002818107605, 0.04722743108868599, -0.07353629171848297, -0.10072998702526093, 0.1277126520872116, 0.06832902878522873, 0.12759758532047272, 0.20026849210262299, -0.10891159623861313, 0.4221290647983551, -0.47507864236831665, -0.27990272641181946, 0.4129876494407654, -0.18151676654815674, 0.0510445237159729, 0.03212182968854904, -0.2851426899433136, -0.4000905752182007, -0.0067781549878418446, 0.030791431665420532, 0.02434120886027813, 0.16001887619495392, -0.044813044369220734, -0.23380450904369354, 0.09019489586353302, -0.2622597813606262, 0.22620061039924622, -0.07001610100269318, -0.09418825805187225, 0.11272532492876053, 0.08475841581821442, 0.2460436373949051, -0.07443087548017502, -0.2857975959777832, -0.0042474702931940556, -0.17941810190677643, -0.17063231766223907, -0.1402912586927414, 0.1757192760705948, -0.17305421829223633, -0.17257922887802124, 0.06742715835571289], [0.16555236279964447, 0.26393836736679077, -0.2691687345504761, -0.14967097342014313, -0.2958323657512665, -0.11502193659543991, 0.20004431903362274, -0.07895928621292114, 0.15577509999275208, 0.422804594039917, -0.44008898735046387, -0.28623607754707336, 0.08279570937156677, -0.250299870967865, -0.2958414852619171, -0.4412901997566223, 0.17488043010234833, -0.07726168632507324, -0.07538501918315887, 0.44488316774368286, -0.1454647034406662, -0.335616797208786, 0.19385531544685364, -0.0023701500613242388, -0.29990851879119873, 0.207402765750885, -0.2627568244934082, -0.17808102071285248, 0.1085553914308548, 0.4823606610298157, -0.0639246478676796, 0.29050058126449585, -0.5052567720413208, -0.2349863201379776, 0.33081188797950745, -0.38991880416870117, 0.12210234999656677, 0.41095802187919617, -0.2988872230052948, 0.10906659811735153, 0.2134765386581421, 0.03678065910935402, -0.4261172413825989, 0.3838745951652527, 0.20580489933490753, -0.40736857056617737, 0.27235323190689087, -0.29281866550445557, -0.2216910868883133, -0.1727265864610672, -0.2239718735218048, 0.14838869869709015, 0.03615687042474747, 0.3122563064098358, -0.29062044620513916, -0.1017904207110405, 0.18270450830459595, -0.4209544360637665, -0.1766815334558487, -0.2262158989906311, 0.17764665186405182, -0.1981433928012848, 0.03523408621549606, 0.39348340034484863], [0.17234838008880615, -0.006564088631421328, -0.0666520819067955, -0.08707759529352188, 0.38186702132225037, -0.34935644268989563, -0.004569597076624632, 0.07010357081890106, -0.07835573703050613, -0.06263343244791031, -0.060207728296518326, -0.35870644450187683, -0.12459588795900345, 0.27344128489494324, -0.20748008787631989, -0.2001204490661621, 0.007302967365831137, 0.028566712513566017, -0.23486265540122986, 0.05915333330631256, 0.07240463048219681, -0.3114043176174164, 0.2551339268684387, 0.019608300179243088, 0.24203506112098694, 0.07873250544071198, 0.07952345907688141, 0.5756914615631104, 0.11116206645965576, 0.0765867829322815, 0.12029459327459335, 0.06070644408464432, 0.37281134724617004, 0.20662885904312134, -0.0192886870354414, -0.3456345200538635, 0.020339790731668472, -0.09812939167022705, -0.42083805799484253, -0.17992280423641205, 0.47572818398475647, -0.22958259284496307, -0.13753119111061096, -0.19140546023845673, -0.007687414065003395, -0.11732058972120285, -0.09907548129558563, -0.12087774276733398, -0.4566705822944641, -0.14269928634166718, 0.27097657322883606, -0.07579169422388077, 0.6141567230224609, -0.18086209893226624, 0.7314040660858154, 0.17949257791042328, 0.2104603797197342, 0.3443368375301361, -0.0006670838338322937, -0.5804137587547302, -0.13902117311954498, -0.4523674249649048, 0.08863519132137299, 0.0706414058804512], [-0.004426334984600544, 0.22668945789337158, -0.16926147043704987, -0.2506599724292755, 0.010963314212858677, -0.12811343371868134, -0.10689518600702286, 0.3285564184188843, 0.3689303994178772, -0.14346911013126373, 0.22883765399456024, -0.2622601389884949, 0.2771455943584442, -0.186215341091156, -0.1977018415927887, -0.021673113107681274, -0.30363938212394714, -0.39995652437210083, -0.38328132033348083, 0.2819691300392151, -0.25292786955833435, 0.047470491379499435, 0.07791637629270554, -0.2724097669124603, -0.21706622838974, -0.1360013484954834, -0.4114915430545807, -0.11673985421657562, -0.04136306792497635, 0.0494866706430912, -0.04989037662744522, 0.14994458854198456, -0.6026211380958557, -0.08405113220214844, 0.23000389337539673, -0.009717389941215515, -0.04489108547568321, 0.36749136447906494, -0.16109523177146912, -0.0187015850096941, -0.30867817997932434, 0.26011738181114197, 0.27014926075935364, 0.10036612302064896, 0.07455447316169739, -0.3539799153804779, 0.19183194637298584, -0.27996525168418884, -0.05843576416373253, -0.02824368327856064, 0.07742961496114731, -0.22619926929473877, 0.05197526514530182, 0.16184596717357635, -0.13898992538452148, -0.08113334327936172, 0.13556630909442902, -0.09800996631383896, -0.16187480092048645, 0.004442429635673761, -0.2936873733997345, -0.2593117654323578, -0.12956465780735016, 0.24770095944404602], [-0.4873158037662506, -0.9676504731178284, 0.04287653788924217, -0.3385533392429352, 1.0775529146194458, 0.4942615330219269, -0.9558514952659607, -0.6999303102493286, -0.39452898502349854, -0.24564704298973083, -0.5999776124954224, 0.8101118803024292, -0.263810396194458, 0.22254793345928192, 0.027857571840286255, 0.15266305208206177, -0.23221829533576965, -0.6056975722312927, -1.3805245161056519, -0.25870078802108765, -1.3639518022537231, -1.045715570449829, -1.817252516746521, 0.40339821577072144, 1.0833914279937744, -0.8544628620147705, 0.5662855505943298, 0.831456184387207, -0.31796208024024963, -0.03660409525036812, -0.1921745091676712, -0.24433180689811707, 0.9391124248504639, -1.3780263662338257, -0.7079962491989136, -0.23339593410491943, 0.6176948547363281, -0.323930025100708, -0.15991716086864471, -0.1095256358385086, 0.09839992970228195, -0.29623061418533325, -0.05511161684989929, -0.4187447726726532, 1.5549300909042358, -0.9595656991004944, -0.11281853914260864, 0.43671977519989014, -0.5686121582984924, 0.9601531624794006, 0.5728292465209961, 1.1827476024627686, 0.3221525251865387, -0.11691547930240631, -0.30059173703193665, -0.1960149109363556, 0.026184633374214172, 0.10359300673007965, 0.018517618998885155, -0.22213269770145416, 0.5297413468360901, -0.6194992661476135, 0.5365190505981445, -0.25773903727531433], [0.10838299989700317, 0.08854646980762482, 0.042171623557806015, -0.2617371380329132, -0.18225260078907013, -0.08456090837717056, 0.17847219109535217, 0.11775948107242584, 0.2697996199131012, 0.1660655289888382, -0.4458179771900177, -0.22134576737880707, 0.25772416591644287, 0.09649362415075302, 0.13453498482704163, -0.23980359733104706, -0.014196622185409069, 0.09481837600469589, -0.3829261362552643, -0.1993071287870407, 0.17407327890396118, 0.05879510939121246, 0.18417595326900482, -0.06892447918653488, -0.16908405721187592, 0.05526787042617798, -0.04134645313024521, 0.013885037042200565, 0.1939379870891571, 0.18002215027809143, 0.1233036145567894, 0.20129090547561646, -0.15273913741111755, -0.18359248340129852, 0.1944769024848938, -0.17400333285331726, -0.05660747364163399, 0.2826707661151886, 0.13332661986351013, 0.07656945288181305, -0.13034573197364807, 0.03115246631205082, 0.11328542232513428, 0.13248224556446075, 0.366786926984787, -0.5070382356643677, -0.17335975170135498, -0.29679661989212036, 0.30441269278526306, 0.13941311836242676, 0.05488041788339615, 0.11804679036140442, 0.31339097023010254, -0.05719160661101341, -0.08733442425727844, -0.1046251580119133, 0.17957501113414764, -0.24993765354156494, 0.2024623304605484, -0.29688847064971924, -0.05182139575481415, -0.07683687657117844, 0.28005585074424744, 0.2788446247577667], [0.09043356776237488, 0.3312230408191681, -0.06290330737829208, -0.12475597113370895, -0.42524662613868713, -0.26212480664253235, -0.45744553208351135, 0.20921997725963593, 0.28230130672454834, 0.09097705036401749, -0.1708083301782608, -0.15212073922157288, -0.2628418505191803, -0.3802175521850586, -0.04981059581041336, -0.0874934047460556, -0.07087098807096481, 0.019830970093607903, -0.18362948298454285, 0.04733320698142052, -0.37621667981147766, -0.3799033761024475, 0.3683941960334778, -0.3230488896369934, -0.1365957260131836, -0.14079585671424866, -0.12491694837808609, -0.33648836612701416, 0.44064465165138245, 0.257776141166687, 0.037878867238759995, -0.03745002672076225, -0.09885384142398834, 0.05141642317175865, -0.20229357481002808, -0.25521087646484375, 0.24344265460968018, 0.2656245827674866, -0.010803367011249065, 0.05441313982009888, 0.011168258264660835, 0.1275809109210968, 0.09685783833265305, 0.08632582426071167, 0.0690983310341835, -0.039406485855579376, 0.19437915086746216, -0.19401606917381287, -0.008709623478353024, -0.06802607327699661, 0.39973756670951843, 0.062117721885442734, 0.181405171751976, -0.15484245121479034, 0.49573659896850586, -0.30693861842155457, 0.2774641513824463, 0.046624805778265, -0.08906446397304535, 0.051863670349121094, -0.2773100435733795, -0.0893101841211319, -0.009877444244921207, 0.07685069739818573], [0.0417369082570076, -0.10511767119169235, -1.1163270473480225, -0.08580082654953003, 0.14529696106910706, -0.44128307700157166, 0.2082633227109909, -2.1940431594848633, -0.05846628546714783, 0.10860919952392578, 0.1576775461435318, 0.10616303980350494, 0.27930474281311035, 0.07828166335821152, -0.10518884658813477, -0.18688224256038666, -0.19927702844142914, -0.5750733017921448, -0.41748926043510437, -0.14581751823425293, 0.03174348175525665, -0.4586024284362793, 0.46677011251449585, -0.023946674540638924, -0.2914784848690033, 0.3589460849761963, -0.4206007122993469, 0.5137117505073547, 0.8686750531196594, 0.2924323081970215, -0.12289862334728241, -0.2514493465423584, 2.268925428390503, 1.0147308111190796, -0.2793651819229126, 0.07132931053638458, -0.06130341440439224, 0.06193997710943222, 0.10257183760404587, 0.5017575621604919, 0.07700804620981216, 0.41645023226737976, 0.5232545137405396, -0.10467284917831421, -1.1452451944351196, 0.024911722168326378, 0.24073849618434906, -0.16659805178642273, 0.13508042693138123, 0.05620337650179863, -0.6367025971412659, -0.5284363031387329, -0.006594730541110039, 0.06244983896613121, 0.7743480205535889, -0.19559402763843536, 0.30501195788383484, 0.5743573904037476, 0.05263800546526909, 0.21830640733242035, 0.03187751770019531, 0.7634093165397644, 0.019987141713500023, 0.15445902943611145], [0.12650081515312195, -0.15051525831222534, -0.1464640498161316, -0.07359404861927032, 0.015365997329354286, 0.033942610025405884, -0.23067986965179443, 0.1639321744441986, 0.15674267709255219, -0.20894868671894073, 0.04249828681349754, -0.06799863278865814, 0.18247249722480774, -0.010500934906303883, -0.06533349305391312, -0.08699207752943039, -0.20396360754966736, 0.20542985200881958, -0.13849373161792755, 0.032088037580251694, 0.056102313101291656, -0.026446426287293434, 0.018193218857049942, -0.009766771458089352, 0.020442232489585876, 0.5294280648231506, -0.16154247522354126, 0.031846724450588226, 0.04355870187282562, 0.057078421115875244, -0.26620954275131226, 0.18520335853099823, -0.007841935381293297, 0.022095145657658577, 0.21409153938293457, 0.04418502002954483, 0.24970459938049316, 0.061274878680706024, -0.020417504012584686, -0.07737515866756439, -0.006352410186082125, 0.01351178903132677, -0.04601294919848442, -0.05113343149423599, -0.1997445970773697, 0.10617786645889282, 0.01825614832341671, 0.06514451652765274, -0.03722556307911873, -0.015915943309664726, -0.33067551255226135, -0.010232048109173775, -0.000929067435208708, -0.22924590110778809, -0.1702098548412323, -0.12469719350337982, 0.16102102398872375, 0.033270109444856644, -0.06834746897220612, 0.002789972350001335, -0.12744972109794617, -0.021128883585333824, 0.35814863443374634, 0.30238258838653564], [0.06523177027702332, -0.05370397865772247, -0.14996327459812164, -0.45977500081062317, -0.6933630704879761, -0.21414515376091003, 0.34940585494041443, 0.45713990926742554, 0.38393113017082214, 0.27705809473991394, -0.07352935522794724, -0.332419216632843, 0.3317464590072632, -0.48744362592697144, -0.47447213530540466, -0.23814859986305237, -0.21782730519771576, -0.22472888231277466, -0.4886299967765808, 0.5292528867721558, -0.19114461541175842, -0.0790548250079155, 0.2856462001800537, -0.49522075057029724, 0.016220323741436005, 0.2015303522348404, 0.009350761771202087, -0.2481497824192047, -0.009796762838959694, 0.24858102202415466, 0.15870769321918488, 0.11765708774328232, -0.2810971438884735, -0.1713327169418335, 0.19198262691497803, -0.28854644298553467, 0.030919555574655533, 0.3670229911804199, -0.30470579862594604, 0.026600368320941925, 0.04528601095080376, -0.08606711030006409, -0.0487009696662426, 0.5354941487312317, -0.10178942233324051, -0.35484880208969116, 0.3391347825527191, -0.4273645579814911, 0.16856130957603455, -0.4190344512462616, -0.4807102084159851, 0.07263676822185516, -0.03971643000841141, -0.04415743052959442, -0.33499741554260254, -0.1730477213859558, 0.5710494518280029, -0.2095407396554947, -0.29108303785324097, -0.06482924520969391, -0.2715579569339752, -0.30037620663642883, -0.3681349456310272, 0.19413933157920837], [0.42784222960472107, 0.40866008400917053, 0.345912903547287, 0.3492165505886078, -0.2542780935764313, -0.8022494912147522, -0.006304736249148846, 0.21610118448734283, 0.15372104942798615, -0.32404306530952454, -0.4776593744754791, 0.18425928056240082, 0.11282124370336533, 0.030397560447454453, 0.19791406393051147, -0.10602870583534241, -0.32068395614624023, -0.9640937447547913, 0.132583886384964, -0.05164031311869621, -0.4433523416519165, 0.046825457364320755, 0.3724503517150879, 0.11668538302183151, -0.38747894763946533, 0.5346895456314087, -0.7761138081550598, 0.6060483455657959, -0.7026074528694153, -0.3260543644428253, 0.05098434537649155, 0.4673306345939636, -0.14166174829006195, 0.5838064551353455, 0.8368112444877625, 0.37725454568862915, 0.5424841046333313, 0.7880750894546509, -0.4147915840148926, -1.6992816925048828, 0.05706613138318062, 0.31240376830101013, 1.4070515632629395, -0.09740925580263138, -0.15317939221858978, -0.7031885981559753, -0.5960108637809753, 0.04718664661049843, -0.04495856165885925, 0.2738012373447418, 0.09689166396856308, 0.6992040276527405, 0.8596010804176331, 0.29159310460090637, -1.0764851570129395, -0.2662305533885956, -0.07737219333648682, 0.46674633026123047, 0.1595635861158371, -1.530167818069458, -0.010941450484097004, 0.8368355631828308, -0.6563578248023987, -0.03609394282102585], [1.1469286680221558, -0.000995829002931714, -0.032884519547224045, 1.499827265739441, -0.6120866537094116, -1.8657307624816895, 1.2763978242874146, 1.1164605617523193, 0.6909505128860474, -0.448604941368103, -0.7915064692497253, 0.09757990390062332, 1.0732635259628296, 0.16675516963005066, 0.49998462200164795, 0.9984492063522339, -0.04154267534613609, 0.28786712884902954, 0.004442153498530388, -0.020302308723330498, 1.71429443359375, 1.3098108768463135, 0.865204930305481, -0.24195019900798798, -0.2083345353603363, 1.3391931056976318, -0.38841044902801514, -1.4868773221969604, -0.014606006443500519, 0.5968357920646667, 0.8416538834571838, -1.4376107454299927, -0.7985568046569824, 1.5284582376480103, 1.2421772480010986, 0.8284465670585632, 0.5936474800109863, 0.573647677898407, 0.9850268959999084, -0.2279920130968094, -0.06286291778087616, 0.047163158655166626, 1.5708012580871582, 0.2507687509059906, -3.114184617996216, -0.01592441461980343, 0.38830867409706116, 0.8003851175308228, -0.011477314867079258, -0.08555841445922852, 0.3718257546424866, 1.2152596712112427, -1.1029047966003418, 0.5007389783859253, 0.9972084164619446, -0.7921854853630066, -0.5526042580604553, -0.16398607194423676, 0.22404293715953827, 1.7373178005218506, -0.2081453949213028, 1.1875426769256592, 0.4185297191143036, -0.9231083989143372], [-0.15031617879867554, 0.1807270497083664, -0.10156960785388947, -0.17678502202033997, -0.10984750837087631, 0.03522763028740883, 0.11014189571142197, 0.1978936493396759, -0.030656665563583374, -0.06734724342823029, 0.12217512726783752, -0.2267741709947586, -0.0007251728675328195, -0.09230095893144608, -0.0826757624745369, 0.043867822736501694, -0.12546713650226593, -0.4269721210002899, 0.24514856934547424, 0.10195367783308029, -0.3880373537540436, 0.1476624459028244, 0.20280693471431732, 0.06247919425368309, -0.007378099020570517, -0.22233083844184875, -0.1287587285041809, 0.02128974162042141, 0.004936488810926676, 0.3036870062351227, -0.5216553211212158, 0.07859621942043304, 0.01551763340830803, -0.022324256598949432, -0.1220998540520668, -0.12762892246246338, 0.2572596073150635, 0.18287821114063263, -0.08622469753026962, -0.029919452965259552, -0.2545813322067261, 0.2574136555194855, -0.21939586102962494, -0.034359514713287354, 0.28787195682525635, 0.05587167292833328, -0.020808441564440727, -0.19991973042488098, 0.20750680565834045, 0.02109496109187603, -0.11754754185676575, 0.04838377237319946, -0.04294145852327347, -0.34383657574653625, -0.12487180531024933, -0.09283191710710526, 0.17007137835025787, -0.38191336393356323, -0.15590769052505493, -0.01968025043606758, 0.20146924257278442, 0.09637511521577835, -0.06378153711557388, 0.325367271900177], [0.7570784687995911, 0.418762743473053, 1.2050278186798096, -0.04239087179303169, 0.046388376504182816, -0.9793251752853394, -0.6432954668998718, -0.2518933117389679, 0.10501077026128769, -0.11230103671550751, -0.013161781243979931, 0.736282229423523, -0.5640282034873962, -0.47809308767318726, -0.14121459424495697, -0.15988591313362122, -2.0023610591888428, 0.08727936446666718, -0.005646402481943369, 0.08452405780553818, -1.0484144687652588, -1.4852477312088013, -1.4500819444656372, 0.18581365048885345, 1.388290286064148, -0.4769454896450043, -0.09583250433206558, 0.8707717061042786, 0.38441798090934753, 0.44348615407943726, 0.09998594224452972, 0.15343782305717468, -0.5960930585861206, -2.4066431522369385, -0.9020487070083618, 0.42305129766464233, 0.39054030179977417, -0.11195123195648193, 0.0662461370229721, -0.10975757986307144, -0.2608242928981781, 1.4315762519836426, 1.66259765625, 0.1388499140739441, 0.741048276424408, -1.2876933813095093, -0.8661600351333618, -0.7389180064201355, -0.7233765125274658, 0.6591033935546875, -1.0411763191223145, 2.145963430404663, 1.4350285530090332, 0.056283485144376755, 0.32550564408302307, -0.6122021675109863, 0.2907978296279907, 0.5782679319381714, -0.1377677321434021, -1.4791640043258667, -0.4084782600402832, -0.7867331504821777, -0.17046856880187988, 0.20455792546272278], [0.01575879566371441, -0.14674779772758484, -0.06670932471752167, -0.12771987915039062, -0.2957044243812561, -0.18600134551525116, 0.04204486683011055, -0.17166167497634888, -0.049886565655469894, 0.35795772075653076, 0.16179096698760986, -0.5317330956459045, -0.16764508187770844, -0.14921407401561737, -0.23134614527225494, -0.2566874623298645, 0.19874103367328644, 0.0076829916797578335, -0.06768377125263214, 0.07675490528345108, 0.01899178884923458, -0.3727543354034424, 0.16049934923648834, -0.05326847732067108, -0.3432011008262634, 0.1600370556116104, -0.006429878529161215, -0.22534696757793427, -0.007674925960600376, 0.16472874581813812, -0.15005001425743103, 0.007247543893754482, -0.7858166694641113, -0.2134992778301239, 0.22372184693813324, -0.11920898407697678, -0.049495596438646317, 0.012872448191046715, -0.16399377584457397, 0.09106326848268509, 0.0003162450739182532, -0.08226153254508972, 0.13288560509681702, 0.06705089658498764, -0.12292549759149551, 0.036089781671762466, 0.03724650293588638, -0.08617003262042999, 0.1792765110731125, -0.12344562262296677, -0.2494489550590515, -0.21075281500816345, 0.13115665316581726, -0.04817276448011398, 0.5194434523582458, 0.08385679870843887, 0.031109372153878212, -0.3504146635532379, 0.0236570555716753, 0.10093765705823898, -0.11449862271547318, -0.05966702476143837, -0.17920666933059692, 0.1637061983346939], [0.5472487807273865, 0.07005556672811508, -0.18636611104011536, -0.35850465297698975, -0.7811266183853149, -0.23781023919582367, 0.16056153178215027, 0.07918353378772736, 0.443536639213562, 0.0828327089548111, 0.09659503400325775, -0.3322988748550415, 0.1978684365749359, -0.23252010345458984, -0.2652209401130676, -0.4744730591773987, -0.15989738702774048, -0.10539408773183823, -0.45206138491630554, 0.5918260812759399, -0.12136614322662354, -0.22133639454841614, 0.21148501336574554, -0.4638631045818329, -0.12820875644683838, -0.04015113413333893, -0.4811825752258301, -0.13063548505306244, -0.17529970407485962, 0.4411957561969757, 0.24113157391548157, 0.21810229122638702, -0.471440851688385, -0.26622602343559265, 0.28347352147102356, -0.3125818073749542, -0.04430704563856125, 0.46606579422950745, -0.3557916283607483, -0.08367256820201874, -0.038725994527339935, 0.20611326396465302, 0.37010014057159424, 0.6000681519508362, -0.030118636786937714, -0.46981310844421387, 0.12663738429546356, -0.6409480571746826, 0.40485766530036926, -0.28028398752212524, -0.1216927021741867, -0.014489521272480488, -0.1659759134054184, 0.12954489886760712, -0.07988981902599335, -0.32481908798217773, 0.35702505707740784, -0.382171094417572, -0.24723251163959503, 0.13511113822460175, -0.1469397395849228, -0.12935030460357666, 0.21015624701976776, 0.28774377703666687], [0.01649824157357216, 0.21474266052246094, 0.4207444489002228, -0.4119153320789337, 0.2278996855020523, 0.08443465083837509, 0.23077204823493958, 0.6986791491508484, 0.3414696753025055, -0.2608772814273834, -0.20638547837734222, -0.22667749226093292, -0.07570550590753555, -0.6722087860107422, -0.07096292823553085, -0.43918856978416443, 0.3483338952064514, 0.090259850025177, 0.281924843788147, 0.3624565899372101, -0.37627625465393066, -0.27394813299179077, -0.07330259680747986, -0.29110410809516907, 0.1777755618095398, 0.19088615477085114, 0.28908729553222656, 0.04875992238521576, -0.2997789978981018, -0.11004697531461716, 0.027134738862514496, 0.20054833590984344, 0.5233731865882874, -0.21101859211921692, -0.2794068157672882, -0.45811745524406433, 0.11534899473190308, 0.1846393346786499, -0.04859647899866104, -0.01025140006095171, -0.07579458504915237, -0.1385190635919571, 0.09944061189889908, 0.25716423988342285, -0.07366146892309189, 0.04943244531750679, 0.33179032802581787, -0.4138452708721161, 0.291288822889328, -0.2781015634536743, -0.13915163278579712, -0.24075916409492493, -0.44019708037376404, 0.15359297394752502, -0.6880074143409729, 0.06903332471847534, 0.07275465875864029, -0.0961180105805397, -0.4069734215736389, -0.09496699273586273, 0.08067326992750168, -0.4134673476219177, -0.2393304407596588, 0.5007392168045044], [0.07885435968637466, 0.6978162527084351, 1.4582637548446655, -1.4436407089233398, 2.3225045204162598, 2.5745480060577393, 0.3328913748264313, -0.41497108340263367, 0.09117636829614639, -0.3621596097946167, -0.15688589215278625, 0.9658603668212891, 1.2010103464126587, -1.6225694417953491, 0.415667861700058, -0.6155387759208679, -0.4864828586578369, 0.11207077652215958, -2.122631311416626, 0.34217414259910583, -3.732468843460083, -1.0887459516525269, 2.7501087188720703, 0.43618109822273254, 0.9793327450752258, 0.07213810086250305, 1.673508644104004, 0.7404540181159973, 1.994840383529663, -0.6512948870658875, 0.8280746936798096, -1.9057338237762451, -1.4722093343734741, -4.330644607543945, -0.7570897936820984, -1.3922096490859985, -1.175974726676941, -0.666649580001831, 2.329479217529297, -2.0036001205444336, -0.883725643157959, 1.1339753866195679, -2.0751872062683105, 0.05536714941263199, 1.384873867034912, -2.2583491802215576, 0.3361878991127014, 0.3756553530693054, 2.416825294494629, 0.9413357973098755, 0.9176491498947144, 0.09070562571287155, 0.4757028818130493, 0.04054192453622818, 0.11590323597192764, -0.10303743183612823, 1.720633864402771, 0.5638336539268494, -0.42034775018692017, -1.892217993736267, 0.9489911794662476, -3.129403591156006, 0.27945277094841003, 0.5400773882865906], [0.25590279698371887, 0.14624977111816406, -0.09152506291866302, -0.14942865073680878, -0.27841460704803467, -0.13042457401752472, 0.02829458937048912, 0.2596493363380432, 0.20677973330020905, 0.38236331939697266, -0.2530965209007263, -0.5193504691123962, -0.08741974830627441, -0.4170154631137848, -0.37241435050964355, -0.023857906460762024, 0.05842234566807747, -0.0733623206615448, -0.21740438044071198, 0.21860462427139282, -0.2844786047935486, -0.18459010124206543, 0.3218404948711395, -0.48318910598754883, -0.15170586109161377, 0.07015281170606613, -0.04233919456601143, -0.23014068603515625, 0.002744101220741868, -0.06071397662162781, 0.4124128222465515, 0.2783507704734802, -0.31474998593330383, -0.1225372701883316, 0.3743372857570648, -0.09737090766429901, -0.07961645722389221, 0.871121346950531, -0.02022300288081169, -0.08426256477832794, -0.2538439631462097, 0.04939744994044304, -0.05103268474340439, 0.33126121759414673, 0.18281146883964539, -0.45909929275512695, 0.0559668205678463, -0.31110188364982605, 0.1918390691280365, -0.3701014518737793, -0.13301599025726318, 0.12872177362442017, 0.12287184596061707, 0.14393630623817444, -0.15632382035255432, 0.14746801555156708, 0.26106321811676025, -0.008466136641800404, -0.19653552770614624, -0.12447528541088104, -0.1318010836839676, -0.1701589822769165, 0.5127049088478088, 0.2563307583332062], [0.1713356077671051, 0.16251049935817719, -0.04814983159303665, -0.1294487565755844, -0.3311223089694977, -0.3571334183216095, -0.07929710298776627, 0.1957995444536209, 0.15811897814273834, 0.3261948227882385, -0.40458086133003235, -0.21548345685005188, 0.0364297516644001, -0.3885977268218994, -0.24301248788833618, -0.21877822279930115, 0.30924803018569946, -0.30387067794799805, -0.06254235655069351, 0.3195752799510956, 0.05181069299578667, -0.012933727353811264, 0.16115668416023254, -0.2204827070236206, -0.18151678144931793, -0.018454579636454582, -0.2988376021385193, -0.1574024260044098, 0.05363663285970688, 0.2539297044277191, -0.014265591278672218, 0.27174440026283264, -0.2545776069164276, -0.3801553547382355, 0.20248349010944366, -0.31486350297927856, -0.03996628522872925, 0.49171003699302673, -0.27699828147888184, 0.09338171780109406, -0.1754448562860489, 0.11515747755765915, -0.1066104993224144, 0.27938026189804077, 0.17287014424800873, -0.354268342256546, 0.1527017503976822, -0.2320852279663086, -0.1497294157743454, -0.17323724925518036, -0.1924843192100525, 0.003555766772478819, -0.014281680807471275, -0.27652761340141296, -0.4031749367713928, -0.2527792453765869, 0.32493552565574646, -0.4474790394306183, -0.24059540033340454, -0.10037508606910706, -0.20943552255630493, -0.19327285885810852, 0.23547813296318054, 0.33376365900039673], [-0.07379155606031418, -0.2069036364555359, -0.18302443623542786, 0.0011661661555990577, -0.19212397933006287, -0.5245216488838196, 0.07036105543375015, 0.12372031062841415, 0.12375810742378235, 0.15462777018547058, 0.19128821790218353, 0.21027562022209167, 0.09670373797416687, 0.06133429333567619, -0.02569831907749176, 0.24132759869098663, -0.15065431594848633, -0.3303185999393463, -0.6533944010734558, -0.0662543922662735, 0.012179293669760227, -0.1907835751771927, 0.40857046842575073, -0.09165216982364655, -0.5137153267860413, -0.38333722949028015, -0.2477213740348816, -0.026035595685243607, -0.06717521697282791, 0.01499077957123518, 0.27669793367385864, 0.10944442451000214, 0.35319405794143677, 0.01782418228685856, -0.4091421961784363, 0.06484194844961166, -0.00561026344075799, 0.2301531285047531, 0.08066094666719437, -0.09103468060493469, -0.017232771962881088, -0.07256113737821579, -0.06238894537091255, -0.03269987553358078, 0.07467299699783325, -0.6940507888793945, -0.3868910074234009, -0.009079894982278347, -0.7978138327598572, 0.05506002902984619, 0.6914460062980652, 0.6090148091316223, 0.10835143178701401, 0.16136255860328674, 0.4758034646511078, -0.09790439903736115, 0.23109892010688782, -0.3933928310871124, 0.1913280189037323, -0.16280226409435272, 0.03636574000120163, -0.14934679865837097, -0.14787940680980682, -0.1404639482498169], [0.5428692102432251, -0.5128224492073059, -0.6472330689430237, -0.2378961741924286, 0.6779893636703491, 0.982629120349884, 0.7833762764930725, -1.410930871963501, -0.26537495851516724, -0.44020378589630127, 0.5824486017227173, -0.03160130977630615, -0.39865466952323914, 1.0227400064468384, -0.006477508693933487, -0.9240244030952454, 0.8586739301681519, 0.6441628932952881, -0.9171082973480225, -0.37237367033958435, 1.2603459358215332, -0.04583008214831352, -1.5117759704589844, 0.7083753943443298, 1.397539496421814, 0.025375930592417717, -0.49825161695480347, 0.3898810148239136, 0.2279454916715622, 0.18321728706359863, -0.7766655683517456, -0.9913986325263977, 2.3732175827026367, 0.5247734785079956, 1.6463100910186768, -1.622746229171753, 0.4068887531757355, -0.8274434208869934, 0.12786394357681274, 2.5351221561431885, 0.7361228466033936, -0.9840368032455444, -0.765816330909729, -0.4427928626537323, -0.3629915714263916, 3.342606544494629, 1.333322286605835, -0.6394801139831543, -0.8680327534675598, 0.060400381684303284, -0.5952221751213074, -1.9465720653533936, -1.536245346069336, -0.24877667427062988, -1.6881190538406372, -0.3158293068408966, 0.0003359996189828962, 0.5163283348083496, 0.41405871510505676, -0.23776011168956757, -0.4408259689807892, -1.5461597442626953, 0.8452398180961609, -0.16912375390529633], [0.4039636254310608, 0.06088100001215935, -0.12952348589897156, -0.008466199040412903, -0.49526605010032654, -0.5117613077163696, -0.7321751117706299, -0.30033013224601746, 0.13730303943157196, 0.2067427933216095, -0.3234623372554779, -0.47450101375579834, 0.33096209168434143, 0.018880126997828484, -0.6130257844924927, 0.0024332026951014996, 0.09015808254480362, -0.1505432277917862, 0.027395278215408325, 0.05859401077032089, 0.7207198143005371, -0.3345484733581543, -0.20437398552894592, -0.5655384659767151, -0.315113365650177, 0.08528083562850952, -0.38770121335983276, -0.7118808627128601, -0.16970963776111603, -0.08689301460981369, 0.40114009380340576, 0.10651301592588425, -0.36526283621788025, -0.2879062294960022, 0.6209398508071899, -0.1442217230796814, 0.0014945878647267818, 0.31835171580314636, -0.4495205581188202, 0.13793285191059113, -0.2660868763923645, 0.5539235472679138, -0.3759143352508545, 0.19351226091384888, -0.10887102037668228, -0.42264875769615173, -0.3529706299304962, -0.18466174602508545, 0.04414847493171692, -0.3321981430053711, -0.10635526478290558, 0.1831173151731491, 0.059265244752168655, 0.25623568892478943, -0.283547967672348, -0.3004821538925171, 0.30415675044059753, -0.3093468248844147, -0.0146174943074584, -0.4427639842033386, -0.0021005768794566393, -0.13704775273799896, -0.1671198457479477, 0.1609024852514267], [-0.2079572081565857, -0.1964600831270218, -1.3472983837127686, 1.2153745889663696, 0.6731923222541809, 0.26166924834251404, -1.108359456062317, -4.564979553222656, -0.6005799770355225, -0.4746076464653015, 0.7653295993804932, 0.09012319147586823, 0.5168690085411072, 0.6075154542922974, 0.07134146988391876, -0.7253580689430237, -0.13995175063610077, -1.0932997465133667, -0.08838238567113876, -0.5360738635063171, -0.11860140413045883, -0.18070915341377258, -0.2815006971359253, 0.891343891620636, 0.6925999522209167, 0.10849885642528534, -1.2469855546951294, -0.8156607151031494, -0.04612274840474129, -0.9604425430297852, 0.5784226059913635, -0.42241978645324707, -0.5459401607513428, 1.0365723371505737, 0.35328081250190735, -0.20132841169834137, 1.5536820888519287, 0.5595071315765381, 0.2087698131799698, 0.5050061941146851, 0.7155179381370544, -0.40377524495124817, -1.3918126821517944, -1.2361818552017212, -1.0129145383834839, 0.6077562570571899, -0.1707293838262558, 1.1409478187561035, -0.6758076548576355, 0.5761240124702454, 2.0860514640808105, 0.7752041816711426, 0.6287232041358948, 0.23685267567634583, 0.4615341126918793, 0.8505980372428894, -0.589201033115387, -0.6670695543289185, 0.34916579723358154, -1.8919907808303833, 0.5205745697021484, 0.9063555598258972, 0.729017972946167, -0.5027803778648376], [0.03900127485394478, 0.11289362609386444, 0.22847527265548706, 0.19861358404159546, 0.35451868176460266, 0.07202418148517609, -0.5509747266769409, 0.3356601595878601, -0.5090504884719849, -0.1552634984254837, 0.05487276613712311, 0.5188875794410706, -0.12829802930355072, 0.507820188999176, -0.05034813657402992, 0.7086911797523499, -0.02619360387325287, -0.0005604831385426223, -0.45973536372184753, -0.41424572467803955, 0.1714530736207962, -0.08567118644714355, 0.21513879299163818, 0.475961834192276, 0.570139467716217, 0.2795944809913635, -0.09118498116731644, -0.797775387763977, 0.010749150067567825, -0.25311633944511414, 0.34416449069976807, -0.22764062881469727, -0.14620716869831085, 0.75797438621521, 0.5959365963935852, -0.3778403401374817, 0.9804443120956421, -0.47507569193840027, 0.018699832260608673, 0.0937555655837059, 0.8387290239334106, -0.3622967302799225, -1.5238720178604126, -0.5795915722846985, -0.45098671317100525, 0.5563876032829285, -0.14546339213848114, 0.20444603264331818, -1.2599782943725586, 0.1352269947528839, 1.403062105178833, -0.6194146871566772, 1.3035917282104492, -0.018933165818452835, -0.19386550784111023, 0.3979148268699646, -0.03381849080324173, 0.09221286326646805, 0.4454081952571869, -0.654413640499115, 0.26341310143470764, 0.6731818318367004, 1.1304688453674316, -0.33389928936958313], [-0.19002602994441986, -0.025313416495919228, -0.16391071677207947, -0.18051214516162872, -0.33899879455566406, -0.01991986855864525, -0.10965149104595184, 0.06464844197034836, 0.41798993945121765, -0.08024362474679947, 0.04564289003610611, -0.1465931087732315, -0.018085403367877007, -0.26711276173591614, -0.12914101779460907, -0.2484336942434311, -0.04195196181535721, -0.012094443663954735, 0.26102712750434875, 0.059554386883974075, -0.10445032268762589, 0.09719065576791763, 0.19609814882278442, -0.1120375543832779, -0.23556311428546906, 0.33907049894332886, -0.28394651412963867, 0.051996320486068726, -0.05419393628835678, 0.06617724895477295, -0.3433282673358917, 0.09905718266963959, -0.014887050725519657, 0.0837804526090622, 0.3014809191226959, -0.09442470967769623, 0.02621552161872387, 0.11994317919015884, -0.20593705773353577, 0.05150522291660309, -0.11751619726419449, 0.036291029304265976, -0.2089127153158188, 0.31995612382888794, -0.0665416419506073, -0.3044911026954651, 0.27374234795570374, -0.2624436020851135, 0.07345685362815857, -0.3282015323638916, -0.3401491045951843, 0.06924699246883392, -0.1406189352273941, -0.029878418892621994, -0.14233040809631348, -0.252539724111557, 0.1691889762878418, -0.20940294861793518, -0.1616695672273636, 0.2253587245941162, 0.004509337712079287, 0.029322894290089607, -0.3047627806663513, 0.41594982147216797], [-0.2808421850204468, -0.1303316354751587, 0.08062127232551575, -0.16681978106498718, 0.01782344840466976, -0.19496463239192963, 0.06362440437078476, -0.06652916222810745, -0.0022520495112985373, -0.2034134417772293, -0.29341763257980347, 0.11196167767047882, -0.409879207611084, -0.06610764563083649, 0.12520557641983032, 0.14311857521533966, 0.056421879678964615, -0.1065354272723198, 0.08510144054889679, -0.08111245930194855, 0.5714936852455139, -0.14593744277954102, 0.12667521834373474, -0.2011750340461731, -0.2999895215034485, -0.07461091876029968, -0.33838018774986267, -0.10385239869356155, -0.04976934194564819, 0.08595795184373856, -0.6414589285850525, 0.014951514080166817, -0.13381116092205048, -0.00019226848962716758, 0.39620617032051086, -0.25613272190093994, 0.1594049483537674, 0.08087101578712463, -0.05190511420369148, 0.18290340900421143, 0.04766932502388954, 0.08428891748189926, -0.035302817821502686, -0.04392056167125702, -0.06685950607061386, -0.19492283463478088, 0.2487679272890091, -0.046584680676460266, 0.15178100764751434, -0.3514833450317383, 0.22182534635066986, -0.42201000452041626, 0.33832859992980957, 0.38984352350234985, 0.048792608082294464, -0.3488980233669281, 0.10707779973745346, -0.11248686164617538, -0.1888658106327057, -0.08785566687583923, 0.03500048443675041, 0.09280607104301453, -0.1801067292690277, -0.2602241337299347], [-0.04501602426171303, -0.20535095036029816, 0.20537106692790985, -0.11217211186885834, 0.1295468658208847, -0.4343820810317993, -0.322111576795578, 0.02019059658050537, 0.14123861491680145, -0.10210545361042023, 0.3826989233493805, -0.044848643243312836, 0.16675135493278503, 0.031216615810990334, -0.14721636474132538, 0.15837879478931427, 0.067301444709301, 0.1262899786233902, -0.6437926292419434, 0.19901488721370697, -0.5237794518470764, 0.04107263684272766, -0.5242929458618164, -0.08339300751686096, -0.03412140533328056, 0.23997530341148376, 0.2657240629196167, -1.1522564888000488, 0.39177069067955017, -0.0659329742193222, 0.2667735517024994, 0.006447671912610531, 0.43719297647476196, -0.5056101083755493, -0.09818477183580399, 0.037696536630392075, -0.20407047867774963, -0.027485569939017296, -0.1224420815706253, 0.1688697785139084, -0.07270412147045135, -0.013034163042902946, 0.5778313279151917, -0.0941978469491005, -0.3496899902820587, -0.2476399838924408, -0.17244285345077515, 0.07186432927846909, 0.4486832022666931, 0.14716744422912598, -0.009144543670117855, 0.3281298279762268, -0.4058817923069, 0.012571589089930058, -0.10412262380123138, -0.2017848789691925, 0.0516817569732666, 0.21441861987113953, -0.3369522988796234, 0.6628992557525635, 0.11180043965578079, -0.8733231425285339, -0.11708256602287292, 0.2065509706735611], [-1.0083732604980469, 0.17917858064174652, -0.33184167742729187, -0.7290982604026794, 0.9574934244155884, 0.4910242259502411, -1.7709932327270508, -4.909874439239502, -0.32362544536590576, -0.3963228762149811, -0.28888559341430664, 1.6743677854537964, 0.47544100880622864, 0.8274483680725098, 0.2850162386894226, -0.0038463622331619263, -0.5938398241996765, -0.8423269987106323, -1.9863859415054321, 0.7423728704452515, -2.2511789798736572, -1.765434741973877, -1.7189041376113892, 0.8271151781082153, 0.4120447337627411, 0.1574358493089676, -0.30949336290359497, 0.866663932800293, -0.8707403540611267, -0.22802740335464478, 0.02683115564286709, -1.7249001264572144, 2.2810568809509277, -1.2861047983169556, -0.26294517517089844, 0.4555882513523102, -0.17580491304397583, -1.0180548429489136, 1.2837368249893188, 0.9998254179954529, -0.3771161139011383, -0.5073952078819275, -0.9334023594856262, -0.6939139366149902, 0.8808755874633789, -2.919160842895508, -1.7121808528900146, 0.3780616819858551, 0.7393482327461243, 1.3692833185195923, -0.6070578098297119, 0.32010969519615173, -0.3648841083049774, -0.16208390891551971, 2.247694492340088, -0.12032380700111389, 0.06805068254470825, 0.49047282338142395, -0.12566795945167542, 0.5419613718986511, 0.8992640972137451, -1.1955069303512573, 2.343841075897217, -0.33081579208374023], [0.053075648844242096, -0.07081644982099533, -0.2950483560562134, -0.1067274957895279, -0.18817293643951416, 0.014099923893809319, -0.347328782081604, 0.29096218943595886, 0.28381210565567017, -0.14756278693675995, -0.5081148147583008, -0.25816217064857483, -0.3520738184452057, -0.016635963693261147, -0.24584320187568665, -0.23065708577632904, 0.07032240927219391, 0.22599713504314423, -0.3011366128921509, 0.17721010744571686, -0.0868382602930069, -0.16005341708660126, 0.05461471155285835, -0.33186814188957214, -0.13526681065559387, -0.016285467892885208, -0.18025943636894226, -0.1531571000814438, -0.08925121277570724, -0.08972907066345215, 0.34097597002983093, 0.115210622549057, 0.011385164223611355, -0.09322165697813034, 0.337753564119339, -0.49317696690559387, -0.18044869601726532, 0.18547314405441284, -0.1388547271490097, 0.008085926994681358, 0.022595293819904327, -0.2253621518611908, -0.22820504009723663, 0.19010798633098602, 0.20265509188175201, -0.11762936413288116, 0.5119075179100037, -0.30318471789360046, 0.04847697541117668, -0.12548185884952545, 0.31638994812965393, -0.12643682956695557, 0.3438360393047333, 0.24118098616600037, -0.1315900683403015, -0.11300382018089294, 0.029231959953904152, -0.08306577801704407, -0.06927457451820374, -0.027370542287826538, 0.11861538141965866, -0.08681533485651016, 0.08717498183250427, -0.016367005184292793], [0.15007218718528748, 0.01761062629520893, -0.04628638178110123, -0.2623503506183624, -0.28028589487075806, -0.14792770147323608, -0.4203281104564667, 0.15736769139766693, 0.2817904055118561, -0.07717340439558029, -0.22165659070014954, -0.44286927580833435, -0.08707451075315475, -0.07655845582485199, -0.04513582959771156, -0.2571339011192322, 0.09912017732858658, -0.4228527247905731, -0.2650540769100189, 0.06857405602931976, -0.32020771503448486, -0.01388599257916212, -0.0557321161031723, -0.3928988575935364, -0.6108565330505371, -0.20086079835891724, -0.2124980092048645, -0.015583544038236141, 0.006777837406843901, 0.14620812237262726, -0.10408533364534378, 0.3427288234233856, -0.2548454701900482, -0.23894917964935303, 0.19940461218357086, -0.41993582248687744, 0.24453315138816833, 0.03519812971353531, -0.3326476812362671, 0.17937779426574707, -0.027662571519613266, 0.053955741226673126, 0.2689518928527832, 0.2766737937927246, 0.15545625984668732, -0.4287175238132477, 0.3464495539665222, -0.2593022286891937, 0.006643017288297415, -0.07051759958267212, 0.13146567344665527, 0.11763576418161392, 0.22197531163692474, -0.08462727814912796, -0.10682910680770874, 0.05039156973361969, 0.2142132669687271, -0.17652782797813416, -0.29479512572288513, -0.1867295503616333, -0.14159919321537018, -0.333110511302948, -0.06789447367191315, 0.3783855438232422], [-0.39285188913345337, 0.13419948518276215, 0.09107398986816406, -0.05833999440073967, -0.12236976623535156, -0.225377157330513, -0.1436021625995636, 0.13580875098705292, 0.27244529128074646, -0.03655947372317314, -0.2259577512741089, -0.04644469916820526, 0.035124521702528, -0.10817746073007584, 0.02991574816405773, -0.22332479059696198, -0.5238967537879944, -0.21574056148529053, 0.36245855689048767, 0.2000279426574707, -0.13147909939289093, 0.4086850881576538, -0.0027884631417691708, -0.05402020364999771, -0.2505946159362793, 0.15309494733810425, -0.33182981610298157, 0.18375733494758606, -0.6723493933677673, 0.04522259160876274, -0.07073667645454407, 0.40718531608581543, -0.29736167192459106, -0.05673057213425636, 0.25918814539909363, -0.06277584284543991, 0.042769789695739746, 0.582139253616333, -0.1265147179365158, -0.26541271805763245, -0.06827881187200546, -0.06999600678682327, 0.06123804673552513, 0.17752563953399658, 0.23338697850704193, -0.3565274178981781, 0.1634325534105301, -0.15817944705486298, -0.18656031787395477, -0.056470487266778946, 0.1846182942390442, -0.21193426847457886, -0.11344948410987854, -0.29273054003715515, 0.7661644816398621, -0.17350982129573822, -0.33668336272239685, -0.4513340890407562, -0.050414614379405975, 0.23133403062820435, -0.025016825646162033, 0.37124791741371155, 0.16978450119495392, 0.3409707248210907], [-0.19955316185951233, -0.018428567796945572, 0.16968362033367157, 0.1263805478811264, 0.077191062271595, 0.23222164809703827, 0.3470170497894287, -0.06473902612924576, -0.16913636028766632, -0.047593552619218826, 0.23093070089817047, 0.20951251685619354, -0.3512832224369049, 0.08820807933807373, -0.007977611385285854, -0.05009359121322632, 0.006946876645088196, -0.15732342004776, 0.03339291736483574, -0.005207451060414314, -0.03996002674102783, -0.044563692063093185, 0.14801999926567078, 0.017061075195670128, -0.12207341939210892, -0.04933404177427292, 0.18741503357887268, 0.14807899296283722, -0.20906324684619904, 0.16326341032981873, -0.4593459367752075, 0.051986757665872574, -0.13886839151382446, -0.004965494852513075, -0.10886973142623901, 0.10925867408514023, 0.5283830165863037, 0.01464555412530899, -0.32628870010375977, -0.08228550851345062, -0.13816960155963898, 0.047245677560567856, -0.2883072793483734, -0.04418176785111427, 0.18425709009170532, -0.002677042968571186, -0.21029259264469147, -0.08768562972545624, -0.289508193731308, -0.061513107270002365, -0.3529510796070099, -0.019951678812503815, -0.10449173301458359, -0.3949210047721863, 0.04823581501841545, -0.015151276253163815, 0.030905768275260925, -0.06382328271865845, -0.10837462544441223, 0.10468092560768127, 0.0584041103720665, 0.03299783170223236, -0.05680565908551216, -0.012788105756044388], [-0.048867739737033844, -0.06161784753203392, -0.3527379035949707, 0.28375449776649475, 0.08263871818780899, 0.34087350964546204, -0.7491431832313538, 0.6515756845474243, 0.018284872174263, -0.658751904964447, -0.5470272898674011, 0.23297974467277527, 0.10914751142263412, 0.2670213580131531, -0.05940571427345276, -0.49833470582962036, -0.4400036931037903, -0.1325802356004715, -0.3237738609313965, -0.02535942941904068, 0.4477621018886566, -0.15315371751785278, -0.6639670729637146, -0.04029568284749985, -0.14514538645744324, -0.4533003568649292, -0.23091082274913788, -0.1509534865617752, -0.5081454515457153, -0.12494401633739471, 0.052478764206171036, 0.1727897822856903, -0.7588050365447998, 0.20722590386867523, 0.8769252300262451, -0.480683833360672, 0.2507745325565338, -0.12202291190624237, 0.0619509331882, 0.17206239700317383, 0.4298945665359497, -0.13286210596561432, 0.6045510768890381, -0.057654257863759995, -0.1467496156692505, 0.08867784589529037, 0.37224990129470825, 0.038229674100875854, -0.6990805268287659, -0.19515733420848846, -0.3560994863510132, -0.1993224024772644, -0.23695623874664307, 0.11944840103387833, -0.34020647406578064, 0.05068926885724068, -0.21652135252952576, 0.10376497358083725, 0.0018101565074175596, -0.21514809131622314, 0.629220724105835, 0.09213823825120926, -0.11652787774801254, -0.23175913095474243], [-0.1917044222354889, -0.7428684830665588, 0.4199303686618805, -0.03923893719911575, 0.33559226989746094, 0.4442802667617798, -0.7036809325218201, -0.6805707812309265, -1.0687782764434814, -0.46246156096458435, 0.11405909806489944, 0.873347282409668, -0.101606085896492, 0.5118392705917358, 0.08650800585746765, 0.26640817523002625, -0.40100008249282837, -0.17639297246932983, 0.20770534873008728, -0.5236396789550781, -0.4037197530269623, -0.5562889575958252, -0.18201594054698944, 0.4756616950035095, 1.5304269790649414, -0.27327215671539307, -0.2470535784959793, -0.6722847819328308, 0.06383109837770462, -0.4282778203487396, -0.09665535390377045, -0.2448408007621765, -2.128527879714966, -0.6358227133750916, 1.320034384727478, 0.211545929312706, 0.6554566621780396, -0.68692946434021, 0.1597968488931656, -0.733488142490387, 0.290807843208313, 0.23685015738010406, -1.0134164094924927, -0.8384576439857483, -0.6619216799736023, -0.5483929514884949, 0.7952043414115906, 0.004874372389167547, -0.9071829915046692, 0.20180480182170868, 1.5611077547073364, -1.9688880443572998, 0.6999291181564331, -0.173566535115242, -0.44164979457855225, 0.2212844043970108, -0.08937150239944458, 0.5758832693099976, 0.032608915120363235, -1.5989540815353394, 0.6649885177612305, -0.05075111240148544, -0.2227872908115387, -0.44817915558815], [0.002395524876192212, -0.29772666096687317, -0.20361369848251343, 0.017867837101221085, 0.01626703329384327, -0.065409816801548, 0.013441423885524273, 0.4584101140499115, 0.012754456140100956, 0.22399286925792694, 0.010061346925795078, -0.24349913001060486, -0.16656005382537842, 0.004841516260057688, 0.06192163750529289, -0.4248102605342865, 0.23912979662418365, -0.22974170744419098, 0.21931467950344086, 0.09194371104240417, 0.029377415776252747, -0.27461811900138855, -0.09812117367982864, -0.013268698938190937, -0.14234089851379395, -0.010473459959030151, -0.16632352769374847, -0.423471063375473, 0.0851677656173706, 0.008347123861312866, -0.0998007133603096, 0.14106673002243042, 0.5346064567565918, -0.2087700515985489, -0.3591289818286896, -0.32923242449760437, 0.1062639057636261, 0.22656792402267456, 0.008670094422996044, 0.4639873504638672, -0.014856151305139065, -0.2384800761938095, 0.6400119066238403, 0.02242184244096279, 0.13487902283668518, -0.13587594032287598, 0.11028822511434555, 0.13866031169891357, 0.010257778689265251, -0.0313374400138855, -0.749356746673584, 0.14982424676418304, 0.006735384464263916, 0.16121593117713928, 0.9480926394462585, 0.11696038395166397, 0.09293590486049652, -0.3517973721027374, -0.09886779636144638, 0.3736705183982849, 0.14677849411964417, -0.13977691531181335, -0.18661540746688843, -0.014241497963666916], [0.06844881922006607, -0.26182329654693604, 0.2613985240459442, 0.31765252351760864, 0.4403836727142334, -0.1501559317111969, 0.04771433025598526, 0.4131498336791992, -0.23851409554481506, 0.294979065656662, 0.3909187614917755, 0.175846129655838, -0.21566051244735718, 0.1558893471956253, 0.02400333061814308, -0.06227455288171768, -0.15697182714939117, 0.21892106533050537, 0.2689360976219177, -0.3666577935218811, -0.012301160953938961, 0.9140437245368958, 0.5154308080673218, 0.1413038820028305, -0.04317980259656906, 0.7022718191146851, 0.06904986500740051, -0.3853854835033417, 0.06266449391841888, -0.04548224061727524, -0.03238664194941521, 0.5327175259590149, 0.22310733795166016, 0.5597377419471741, 0.4177607297897339, 0.2556353211402893, 0.4893636405467987, -0.025460300967097282, 0.3391995131969452, 0.41792047023773193, 0.37309759855270386, -0.23192675411701202, -0.17790155112743378, -0.3791837692260742, -0.24679124355316162, -0.1856696754693985, 0.32220974564552307, 0.11809045076370239, -0.7164797782897949, -0.007077336311340332, -0.8065871596336365, -0.23773089051246643, -1.1177420616149902, -0.02157464064657688, -1.2582937479019165, -0.22092676162719727, -0.24652637541294098, -0.4268198609352112, 0.14739853143692017, -0.3879343569278717, 0.20896171033382416, 0.2728176414966583, 0.3935190737247467, -0.1286984086036682], [0.1674821525812149, 0.18990454077720642, -0.007941418327391148, -0.198636993765831, 0.06016508862376213, -0.17322221398353577, -0.37752848863601685, -0.22307322919368744, 0.07262735068798065, -0.3212944567203522, 0.003549393732100725, -0.04009777680039406, -0.12136799842119217, -0.18380974233150482, 0.01653224043548107, -0.30439361929893494, -0.0823727697134018, 0.10440298914909363, -0.09624234586954117, 0.2187122106552124, -0.34762459993362427, -0.26126107573509216, 0.16281864047050476, 0.03602881729602814, -0.03989386558532715, 0.09280663728713989, 0.1374787539243698, -0.08679819852113724, 0.24252358078956604, 0.22279052436351776, 0.2817116379737854, 0.45136362314224243, -0.12155579030513763, -0.43164846301078796, 0.11017271876335144, -0.32401546835899353, -0.019782675430178642, 0.22397470474243164, -0.346362441778183, -0.13241565227508545, 0.39826053380966187, 0.13561250269412994, -0.42505958676338196, 0.31480327248573303, 0.44041332602500916, -0.09376157820224762, 0.5992244482040405, -0.3403242528438568, 0.12219998985528946, -0.4688962399959564, -0.2369014024734497, 0.2431575059890747, 0.3721138536930084, -0.03777913376688957, 0.09466201066970825, -0.3137320876121521, 0.23830467462539673, -0.16162051260471344, -0.08685649931430817, -0.3944458067417145, 0.31599417328834534, -0.2812584936618805, 0.04912199825048447, 0.38555747270584106], [0.018260879442095757, -0.038950417190790176, -0.38325297832489014, 0.185114786028862, -0.26757052540779114, -0.11355580389499664, -0.21067214012145996, -0.34542226791381836, 0.1812327802181244, -0.1417725384235382, -0.6473288536071777, -0.3386593461036682, 0.07949090749025345, 0.07169944792985916, 0.1481916755437851, -0.36655038595199585, -0.029862143099308014, -0.2195231318473816, -0.18839140236377716, 0.21894966065883636, 0.0030734986066818237, -0.21903088688850403, 0.044719547033309937, -0.09889363497495651, -0.3583369255065918, 0.17284207046031952, -0.12143728882074356, 0.28586044907569885, 0.14793117344379425, -0.04954123497009277, -0.11277543753385544, 0.19875256717205048, -0.0038614848162978888, -0.05895243212580681, -0.032265789806842804, -0.5328667759895325, -0.05835992097854614, 0.464164137840271, -0.19195957481861115, 0.5331147313117981, 0.038206834346055984, -0.05494481697678566, 0.05239718407392502, 0.08597072958946228, 0.05461379140615463, 0.009198468178510666, 0.2060866802930832, -0.09612485021352768, 0.03825739771127701, -0.16881783306598663, -0.005820947699248791, -0.31636422872543335, -0.052111897617578506, 0.27921122312545776, 0.4722442626953125, -0.21764688193798065, 0.15840190649032593, 0.024978812783956528, -0.13444316387176514, 0.10039699822664261, 0.030008723959326744, -0.1093367412686348, -0.029489150270819664, 0.11963123828172684], [0.06109654903411865, -0.6984803676605225, 0.3794732093811035, 1.9845783710479736, -0.0830480083823204, 0.1484754979610443, -1.3773645162582397, -0.815518319606781, -0.34571486711502075, 0.3359716236591339, -1.190475344657898, -0.21603161096572876, 0.34304168820381165, 1.175444483757019, 0.36170849204063416, 0.31738924980163574, 0.7551409602165222, -0.09641532599925995, 0.151280015707016, -1.3301477432250977, 0.6587105393409729, 0.019711129367351532, -0.27168866991996765, 0.5120639204978943, 0.37615063786506653, 0.1501128375530243, -0.42552846670150757, 0.013564168475568295, 0.14535439014434814, -0.8111646175384521, 0.011272675357758999, -0.7994439601898193, 0.217042937874794, 0.3609382212162018, 0.018111027777194977, -0.7042022943496704, 1.250001311302185, -0.3331219553947449, 0.8183469176292419, 1.2785403728485107, 0.9730097651481628, -0.6816948056221008, -0.25336912274360657, -1.1615159511566162, 0.5811548829078674, 0.43742600083351135, -0.15974746644496918, 0.46364909410476685, 0.05055617168545723, 0.12081750482320786, 0.9113955497741699, 0.13126623630523682, 0.679517388343811, -0.08247064054012299, 0.04215822368860245, 0.8242616057395935, 0.12215433269739151, 0.7645765542984009, 1.070704698562622, -0.7698407769203186, -0.06126459315419197, -0.2859347462654114, 1.6045759916305542, -0.026585906744003296], [1.0133637189865112, 0.19122305512428284, -1.0479577779769897, 0.4970683753490448, -1.4853259325027466, -2.32313871383667, -0.4385072886943817, 0.18238398432731628, 0.204935684800148, 1.0794039964675903, 0.8750091195106506, 1.206102728843689, 0.2036254107952118, 0.40439707040786743, 0.05425947532057762, 0.3788992762565613, -1.9527584314346313, 0.946418285369873, 1.6535546779632568, -0.2590240240097046, 0.7993625402450562, 0.09969208389520645, 0.7820233106613159, -0.13559530675411224, -5.602632522583008, 0.38984978199005127, -0.36799946427345276, -0.7204462289810181, -1.490602731704712, 0.6534487009048462, 1.1423447132110596, -0.01630367897450924, 9.073647499084473, 1.8333982229232788, 1.7480043172836304, 1.6003928184509277, 0.04404304921627045, 0.049153055995702744, -0.7384318113327026, 2.8071627616882324, 0.9591933488845825, 0.7486910223960876, -0.13582217693328857, -0.13554522395133972, -2.731017589569092, -0.8554137945175171, 0.30635011196136475, 1.2608665227890015, -1.715527057647705, 0.24082481861114502, -7.494017124176025, 0.7161592245101929, -12.644477844238281, 0.42443183064460754, -1.0601410865783691, -1.4238229990005493, -0.12227601557970047, -0.12199381738901138, 0.7990077137947083, 8.55469799041748, 0.2993960678577423, 0.48780557513237, 0.23341530561447144, -0.6514140367507935], [-0.09532485157251358, -0.1387234628200531, -0.45406395196914673, 1.6380425691604614, -0.060415785759687424, -0.03930748999118805, -0.5135778784751892, -0.4072209298610687, -0.742641806602478, 0.1379825472831726, -0.9816628098487854, 0.07697894424200058, -0.6955832242965698, 1.4527604579925537, 1.1438885927200317, -0.011076156049966812, -0.15635105967521667, -0.22580410540103912, 1.0048243999481201, -1.5948961973190308, 1.6753093004226685, 0.2981616258621216, -1.3096520900726318, 0.8694392442703247, -1.9898744821548462, -0.7448549270629883, 0.043945714831352234, -0.4534554183483124, -0.8963245153427124, 0.26499444246292114, -0.4304659366607666, 0.209135964512825, 0.4813649654388428, 1.6941702365875244, 1.565170407295227, -0.08959782868623734, 1.3376290798187256, -0.4239557385444641, 0.749950110912323, 2.151921033859253, 0.6391507983207703, -0.6139156818389893, -0.1457015424966812, -0.20930926501750946, -0.327432781457901, 0.3903348445892334, 0.0947452187538147, -0.0024400365073233843, 1.1548151969909668, 1.0137345790863037, 1.342037558555603, -3.555772304534912, 2.230955123901367, 0.1135517805814743, -1.7143326997756958, -0.5185633301734924, -0.123565174639225, 1.9339070320129395, 1.6482830047607422, -2.459212064743042, 0.4466160535812378, 0.4687087833881378, 1.2878972291946411, -0.7461945414543152], [0.018132422119379044, 0.11696320027112961, -0.12828782200813293, -0.19154201447963715, -0.2980468273162842, -0.1265728920698166, 0.041550036519765854, 0.11820971965789795, 0.29692116379737854, 0.4737682044506073, -0.4589662253856659, -0.3432241976261139, -0.00033974990947172046, -0.3323808014392853, -0.24135476350784302, -0.35906293988227844, -0.03211967274546623, -0.37050798535346985, 0.1462976634502411, 0.1740647852420807, -0.07180999964475632, -0.2936156988143921, 0.3230954706668854, -0.27944502234458923, -0.25671860575675964, 0.08455953001976013, -0.14025083184242249, -0.07674945890903473, -0.03215929493308067, 0.20628373324871063, -0.06541960686445236, 0.3694989085197449, 0.005751521792262793, -0.051503658294677734, 0.2706872522830963, -0.25084376335144043, -0.17632950842380524, 0.17736442387104034, -0.12135101854801178, 0.14592179656028748, -0.12706412374973297, 0.08843942731618881, 0.14009720087051392, 0.38258546590805054, 0.20525887608528137, -0.3610154688358307, 0.044748418033123016, -0.3446986973285675, -0.07759815454483032, -0.3481553792953491, -0.3317437171936035, 0.1245216578245163, -0.18017251789569855, -0.08398803323507309, -0.6441773176193237, -0.16558009386062622, 0.06164935603737831, -0.45010897517204285, -0.1584995687007904, -0.2754177153110504, 0.015138525515794754, -0.1341075599193573, -0.19406366348266602, 0.03301871940493584], [0.061797481030225754, -0.447241872549057, 3.1720662117004395, -0.522627592086792, 1.623178243637085, -0.22553272545337677, -1.3768401145935059, -2.89565110206604, -0.8638171553611755, -1.2832527160644531, -1.5880885124206543, 1.2111896276474, 0.5770475268363953, 0.687368631362915, 1.0194156169891357, -1.3317450284957886, -0.9048048257827759, -0.46165892481803894, -0.8774369955062866, -0.47935518622398376, -0.036723438650369644, -0.46866369247436523, 1.5985621213912964, 0.9202315211296082, 6.963646411895752, -0.42295944690704346, -0.49701127409935, 1.9753974676132202, 2.896853446960449, -0.35470882058143616, -0.567959189414978, -1.868058681488037, -4.533045291900635, -0.9234724640846252, 0.29103195667266846, -1.8334492444992065, 0.9693115949630737, -1.7330082654953003, 0.27914977073669434, 1.4980511665344238, 0.9430481195449829, -0.3711467385292053, 1.4832159280776978, -0.7700246572494507, 0.22904206812381744, 2.16284441947937, 1.409034013748169, -1.0400493144989014, 1.1056854724884033, 0.9735075235366821, -0.19042661786079407, -0.8703069686889648, 0.0035407082177698612, 0.3496624529361725, -3.6466734409332275, 0.6021217107772827, 0.21032710373401642, 0.7228289246559143, -0.09919355064630508, -0.0279690008610487, -0.2576749324798584, -1.4837722778320312, 0.9202538728713989, -0.4044058918952942], [0.25034549832344055, 0.11947084218263626, -0.1251697838306427, -0.2477448582649231, -0.27395981550216675, -0.22955317795276642, -0.2171991765499115, 0.35238102078437805, 0.46029096841812134, 0.14400672912597656, 0.11560381948947906, -0.39374110102653503, -0.06122959777712822, -0.0978391095995903, -0.3657922148704529, -0.3933752179145813, -0.20535558462142944, -0.028130700811743736, -0.32232746481895447, 0.3302037715911865, -0.12782391905784607, -0.2534007728099823, 0.2758139967918396, -0.3263331353664398, -0.18082192540168762, 0.19740158319473267, 0.08237988501787186, -0.09171295166015625, -0.03232283517718315, 0.41157689690589905, -0.11397003382444382, 0.20953884720802307, -0.3547724485397339, -0.5036302208900452, 0.2660776376724243, -0.19204026460647583, 0.1176053136587143, 0.3319140672683716, -0.452970415353775, 0.018290836364030838, -0.12575344741344452, 0.02709818258881569, 0.054192785173654556, 0.3398429751396179, 0.18439993262290955, -0.4667395055294037, 0.16067391633987427, -0.4754771590232849, -0.2845149636268616, -0.4093626141548157, -0.1874447911977768, -0.0854203999042511, -0.09205395728349686, -0.04860334098339081, -0.1081879511475563, -0.016305958852171898, 0.27472931146621704, -0.1978496015071869, -0.2355390042066574, -0.013687782920897007, -0.2092638909816742, -0.1936032474040985, 0.1635303944349289, 0.15853185951709747], [0.15850603580474854, 0.04512118920683861, 0.12449239194393158, -0.02826739475131035, 0.04984695464372635, 0.04649622365832329, 0.06516670435667038, 0.5393295288085938, 0.04820289462804794, 0.1857183873653412, -0.13841107487678528, -0.021799026057124138, 0.11883523315191269, 0.12740589678287506, -0.09947562217712402, 0.10801104456186295, 0.2934800684452057, 0.0007280452991835773, 0.30802667140960693, -0.0526631698012352, -0.16133201122283936, 0.12140260636806488, 0.07140681892633438, -0.0764043778181076, -0.040369369089603424, 0.10545124113559723, -0.1339903175830841, -0.46455541253089905, 0.12357113510370255, -0.04184587672352791, -0.027030903846025467, 0.38334545493125916, -0.039311785250902176, -0.2203894555568695, 0.02071831189095974, 0.009961072355508804, -0.03072321228682995, 0.06916391849517822, -0.12989839911460876, 0.10265132039785385, -0.03289244323968887, -0.1691756546497345, 0.19250336289405823, 0.08253604173660278, -0.03422507271170616, 0.05137129873037338, 0.06569156050682068, 0.0020781110506504774, -0.20785978436470032, -0.13150455057621002, 0.54304438829422, 0.06546640396118164, 0.1531907469034195, 0.05043647438287735, 0.17919017374515533, 0.10697690397500992, 0.09745486825704575, -0.27674874663352966, -0.13753235340118408, -0.08221422880887985, -0.026479169726371765, 0.0031672643963247538, -0.16699986159801483, 0.07274618744850159], [-0.20159941911697388, 0.03372880816459656, 0.017567787319421768, -0.3373929262161255, 0.1658635288476944, 0.013633251190185547, -0.24564386904239655, 0.3551267087459564, -0.10563015192747116, -0.31535205245018005, -0.5495870113372803, -0.06372921168804169, -0.21730275452136993, -0.254018634557724, -0.16887013614177704, 0.05779024958610535, -0.1777995526790619, -0.35237759351730347, 0.07337535172700882, 0.20935064554214478, 0.10723990201950073, -0.046761225908994675, -0.16116991639137268, -0.17810854315757751, -0.09742166101932526, -0.43831658363342285, 0.045151956379413605, -0.2941027879714966, 0.0224438589066267, -0.009397446177899837, 0.1642296314239502, 0.30122610926628113, -0.2785204350948334, 0.3507431745529175, 0.4854503571987152, -0.2916828691959381, -0.20130862295627594, 0.1214572861790657, -0.32578739523887634, 0.11697520315647125, -0.2972085475921631, 0.3439669609069824, -0.39393386244773865, 0.00017670659872237593, 0.00732713146135211, -0.05737779662013054, 0.31704846024513245, -0.10819362103939056, -0.41711971163749695, -0.0015817603562027216, 0.608809232711792, -0.1977824568748474, 0.5843450427055359, 0.2778291702270508, 0.39581218361854553, 0.3892248272895813, -0.16586074233055115, 0.23219816386699677, -0.3612939715385437, -0.4739293158054352, 0.11301134526729584, 0.0015612379647791386, 0.15670497715473175, -0.23428663611412048], [0.11884782463312149, -0.06957855820655823, -0.41086632013320923, -0.005701365415006876, -0.007615140173584223, -0.277413547039032, -0.20777077972888947, 0.09789197146892548, -0.057455819100141525, 0.006341220811009407, -0.17103244364261627, -0.03159124404191971, -0.06198357790708542, -0.09191149473190308, -0.24545104801654816, -0.14669257402420044, -0.09891915321350098, -0.0466008298099041, -0.055333852767944336, 0.049750328063964844, -0.15781541168689728, -0.11782623827457428, 0.11416783928871155, -0.1462058275938034, 0.011623181402683258, 0.20727723836898804, -0.20751065015792847, 0.5134710073471069, 0.048530880361795425, 0.10189405828714371, 0.2908402681350708, 0.06917932629585266, -0.052004385739564896, 0.21445955336093903, 0.3056679666042328, 0.03573854640126228, 0.09820886701345444, 0.14160478115081787, -0.058090921491384506, 0.1594984382390976, -0.17781731486320496, 0.1493104100227356, 0.04890245199203491, -0.093900665640831, -0.27558693289756775, 0.025476252660155296, 0.1329159438610077, -0.23212319612503052, -0.22537145018577576, 0.03845258429646492, -0.15553590655326843, 0.12474792450666428, 0.24159123003482819, -0.11474389582872391, -0.05554940178990364, -0.19358594715595245, 0.0368766114115715, -0.04340879246592522, -0.0579589419066906, -0.043953754007816315, -0.34191328287124634, -0.21085809171199799, 0.45552363991737366, 0.11528877913951874], [-1.5008964538574219, 0.14857016503810883, 3.1969282627105713, -0.014350546523928642, 0.15525157749652863, 0.3597363829612732, -1.2706118822097778, 0.38118839263916016, -0.4576042592525482, -0.1667327582836151, 0.024394862353801727, -0.45100152492523193, 0.02650279738008976, 0.14048777520656586, 0.4020625650882721, 2.4272327423095703, -0.11745071411132812, -0.8495209813117981, 0.1403041034936905, -0.1229175329208374, -0.5730916857719421, 0.7546297907829285, -1.4028524160385132, -0.07223287969827652, 0.322839617729187, 0.09684675931930542, 0.3673252463340759, 0.8255443572998047, -1.7005971670150757, -0.4238845407962799, -0.4635713994503021, -0.3391399681568146, -1.0638401508331299, 1.7550277709960938, 1.6566187143325806, -0.7834792137145996, 0.09760335832834244, -0.5105679035186768, -0.6217510104179382, -0.7794675230979919, 0.1911104917526245, -0.3625693917274475, -0.08494411408901215, -0.08850961923599243, 0.029069144278764725, 0.7195325493812561, 0.7288152575492859, 0.38666146993637085, -1.1381288766860962, 0.5797222852706909, 1.6763652563095093, -1.18025803565979, 1.6620465517044067, -0.03797745332121849, -0.6207711696624756, 0.47801074385643005, -2.4731979370117188, -0.11937108635902405, 0.14386963844299316, -4.5181989669799805, 0.795661211013794, 2.6183385848999023, 0.2936154305934906, -0.22900652885437012], [0.19923877716064453, 0.002765032695606351, 0.07553401589393616, -0.24573510885238647, -0.16335192322731018, -0.171979159116745, -0.16996660828590393, 0.08396698534488678, 0.15091966092586517, 0.387099951505661, -0.4180090129375458, -0.2319919466972351, 0.3066026568412781, -0.1084175780415535, -0.2621823847293854, -0.06174767389893532, 0.05557446926832199, -0.013350766152143478, -0.0444473922252655, 0.23566316068172455, 0.011118119582533836, -0.1281469166278839, 0.4245871305465698, -0.17468149960041046, -0.18198907375335693, 0.36787837743759155, -0.29551494121551514, -0.08945045620203018, 0.09213907271623611, 0.18036703765392303, 0.10142411291599274, 0.30902865529060364, -0.21230249106884003, -0.3307783305644989, 0.3030155301094055, -0.34739646315574646, -0.008994227275252342, 0.3464857339859009, -0.37915194034576416, 0.003133247373625636, -0.04789363220334053, -0.1852097511291504, -0.25716644525527954, 0.2752496898174286, 0.3504515290260315, -0.15885257720947266, -0.07494474947452545, -0.22865895926952362, -0.08513105660676956, -0.39359238743782043, -0.03612779080867767, 0.05168920382857323, 0.4613097012042999, -0.34548482298851013, 0.3004271686077118, 0.04326024278998375, 0.2063698172569275, -0.21734589338302612, -0.23709136247634888, 0.03492961451411247, -0.25715371966362, -0.3135266900062561, 0.10932379961013794, 0.2590423822402954], [0.1956634819507599, -0.13148951530456543, 0.5062651634216309, 0.06594020128250122, 0.2416510283946991, 0.25228753685951233, 0.26157185435295105, 2.3516883850097656, -0.053452473133802414, -0.0973605290055275, -0.6245052218437195, -0.6052834391593933, -0.14086705446243286, 0.4810914397239685, -0.2096298635005951, -0.07248316705226898, 0.4067069888114929, 0.12985235452651978, 0.15975797176361084, 0.021618088707327843, 0.4548892676830292, 0.7130033373832703, 0.964226245880127, 0.05045788362622261, 0.6689026355743408, 0.26277071237564087, -0.4095085561275482, -0.7182744741439819, -0.03672152757644653, -0.35840529203414917, -0.3138148784637451, 0.5043066143989563, -1.598935842514038, 0.09503438323736191, -0.637546718120575, -0.41758039593696594, -0.20719566941261292, 0.5250235795974731, -0.33207687735557556, -0.22488035261631012, -0.2291010171175003, 0.049879882484674454, 0.4385680854320526, 0.1808280050754547, -0.016570860520005226, 0.6841475963592529, 0.5197201371192932, -0.2649973928928375, 0.10169108957052231, -0.0433625765144825, -0.6487901210784912, -0.44161367416381836, 0.5998159646987915, 0.07750710844993591, -0.5841946005821228, -0.39403778314590454, -0.16546368598937988, -0.0785311684012413, -0.11807230859994888, -0.7217285633087158, -0.31166139245033264, 0.3482664227485657, -0.09726976603269577, 0.09701722115278244], [0.026059269905090332, -0.10635733604431152, -0.26432907581329346, -0.08756105601787567, -0.282314658164978, -0.33290189504623413, -0.2219761162996292, 0.14136765897274017, 0.5221599340438843, -0.015254017896950245, 0.08698423206806183, -0.002918583806604147, -0.038099635392427444, -0.14959576725959778, 0.06954406946897507, -0.33063676953315735, 0.18702423572540283, -0.08084792643785477, -0.0024286177940666676, 0.11069489270448685, 0.020482828840613365, 0.1714436560869217, 0.13493408262729645, -0.05896240100264549, -0.10143718123435974, -0.01392549928277731, -0.20096014440059662, -0.005807291250675917, -0.1944180279970169, -0.04411907494068146, 0.18920505046844482, 0.30974316596984863, 0.0043041096068918705, 0.11177539080381393, 0.20626580715179443, -0.329836905002594, -0.03180805593729019, 0.3156643509864807, -0.14539724588394165, 0.11245161294937134, -0.015432341955602169, 0.0705498680472374, 0.08063101023435593, 0.2166922390460968, -0.05328303575515747, -0.23834484815597534, 0.24926450848579407, -0.24141208827495575, -0.03411577269434929, -0.28833967447280884, -0.2580612599849701, 0.009578998200595379, 0.09414873272180557, -0.1376723051071167, -0.11106079071760178, -0.16360117495059967, 0.28645071387290955, -0.3073149621486664, -0.010387377813458443, -0.018089555203914642, 0.06398838758468628, -0.01769108884036541, -0.06135942414402962, 0.2843548655509949], [0.2737441956996918, 0.25395727157592773, 0.06886442005634308, -0.23785653710365295, -0.13374602794647217, -0.2519557476043701, -0.24442097544670105, 0.1331222802400589, 0.1775699108839035, -0.22902846336364746, 0.003719884902238846, -0.20099672675132751, -0.10996446758508682, -0.2006445974111557, -0.4322532117366791, -0.22561855614185333, 0.020009562373161316, 0.021686624735593796, -0.15857024490833282, 0.14357899129390717, 0.1802918165922165, -0.10223089903593063, 0.15730611979961395, -0.23026008903980255, -0.24645087122917175, -0.10616481304168701, -0.08987976610660553, -0.08011014759540558, 0.29183104634284973, 0.1536061018705368, 0.06544751673936844, 0.39951032400131226, -0.3729321360588074, 0.10486125946044922, 0.26283979415893555, -0.31056538224220276, -0.2568674087524414, 0.06080537289381027, -0.1141526848077774, -0.032405611127614975, 0.06433138251304626, 0.17553290724754333, 0.32146188616752625, 0.07879063487052917, -0.04699600115418434, -0.34376996755599976, 0.1681932806968689, -0.07845940440893173, -0.14595705270767212, -0.307736873626709, -0.0823804959654808, -0.1740027666091919, 0.19565220177173615, 0.17743729054927826, -0.025810211896896362, -0.14027883112430573, 0.30501848459243774, 0.06480267643928528, -0.09119131416082382, -0.20376132428646088, -0.07076499611139297, -0.2123611867427826, -0.16631600260734558, 0.23594199120998383], [-0.018237244337797165, -0.022537853568792343, 0.20401449501514435, 0.23564358055591583, -0.09824401885271072, 0.13903507590293884, 0.3149552643299103, -0.030778290703892708, -0.1988321989774704, -0.12517227232456207, 0.023573365062475204, 0.14654254913330078, -0.0501580610871315, 0.014488455839455128, 0.15693522989749908, 0.14355143904685974, 0.09475503861904144, -0.03495143726468086, 0.1539519876241684, -0.023972656577825546, -0.021458018571138382, 0.2392226606607437, -0.22582408785820007, 0.033292803913354874, 0.1261967122554779, -0.09794836491346359, 0.2708910405635834, 0.035003114491701126, -0.01282482873648405, -0.1362110674381256, -0.03799090534448624, -0.16901931166648865, 0.010751358233392239, 0.036206942051649094, -0.11710793524980545, 0.01634743995964527, -0.2616586685180664, -0.2205250859260559, 0.11184502393007278, -0.18646617233753204, -0.07981617003679276, -0.03251057118177414, -0.12764950096607208, -0.17172864079475403, 0.1407807469367981, 0.19580422341823578, -0.12415793538093567, 0.13793785870075226, -0.013761837966740131, -0.0027394178323447704, 0.27242234349250793, -0.06710999459028244, 0.1574673056602478, 0.3747168481349945, 0.3133884072303772, 0.03211293742060661, -0.31083816289901733, 0.2117292433977127, 0.1924111396074295, 0.18997648358345032, 0.2723323106765747, 0.2651465833187103, 0.2424171268939972, -0.17894552648067474], [-0.9774330258369446, -0.08180484175682068, 0.1642220914363861, 0.39166077971458435, 0.7409589886665344, 0.6434864401817322, 0.3125501275062561, -0.736975371837616, -0.6194091439247131, -0.20514942705631256, -0.5434444546699524, 0.538428783416748, -0.25088122487068176, 0.5319329500198364, 0.6737849712371826, 0.3177531957626343, -0.0012123375199735165, -0.1790529489517212, 0.5516746044158936, -0.3925437927246094, 0.30945995450019836, -0.16327054798603058, -0.8971758484840393, 0.4756208062171936, 0.28793033957481384, -0.3166244328022003, 0.15760281682014465, 0.060286469757556915, -0.20085343718528748, -0.6613789200782776, 0.15073762834072113, -0.9082602262496948, 0.4356856644153595, 0.23522035777568817, -0.14829285442829132, 0.1515672504901886, 0.16530536115169525, -0.7960681319236755, 0.8532187342643738, 0.5776655077934265, 0.14421530067920685, -0.15206898748874664, -0.5396732091903687, -0.6735867261886597, 0.27823394536972046, 0.5793931484222412, -0.3442575931549072, 0.6173423528671265, 0.06305486708879471, 0.5318555235862732, 0.49949905276298523, -0.4983651340007782, 0.2913666367530823, 0.20280151069164276, 0.39357054233551025, 0.2990211844444275, -0.5312483906745911, 0.6315389275550842, 0.42851966619491577, 0.27768322825431824, 0.5376665592193604, 0.23617269098758698, 0.15058214962482452, -0.6991962194442749], [-0.012740506790578365, 0.3452630639076233, 0.3691886067390442, -0.17152923345565796, -0.01665670797228813, -0.7834316492080688, 0.8818408846855164, 0.5758484601974487, 0.18319672346115112, -0.3592684864997864, 0.0687795877456665, -0.15029287338256836, 0.23255546391010284, -0.1894368976354599, -0.14350521564483643, 0.2785247564315796, 0.49570903182029724, 0.7536281943321228, -0.2602357864379883, 0.17395536601543427, -0.037050653249025345, 0.9171944856643677, 0.0987887755036354, -0.09534930437803268, 0.03515616059303284, 0.5796290636062622, -0.5114054083824158, -0.8016394972801208, 0.08799947798252106, -0.14252488315105438, 0.19323696196079254, 0.18575376272201538, 0.7319576740264893, 1.3926291465759277, 0.5716915130615234, -0.10768666863441467, 0.3555881679058075, 0.6594855785369873, 0.199643075466156, -0.8929895162582397, -0.22721867263317108, -0.10318660736083984, -0.1352628469467163, 0.021346881985664368, 0.25077933073043823, -0.521652340888977, 0.5316300392150879, 0.1946691870689392, -0.397259920835495, 0.16343440115451813, 0.28424617648124695, 0.7133309245109558, 1.3897647857666016, 0.1595625877380371, -0.287055641412735, -1.0110447406768799, 0.07988906651735306, -0.03855125233530998, -0.37517377734184265, 0.3117072284221649, 0.07727818191051483, -0.1940513551235199, -0.10861313343048096, 0.11871735006570816], [0.29551488161087036, -0.1043250560760498, -0.1059582382440567, 0.0043969471007585526, -0.018699392676353455, 0.21889092028141022, 0.2310137301683426, 0.14216305315494537, -0.00940854661166668, 0.2596265375614166, -0.23293711245059967, -0.2161628007888794, 0.352729856967926, 0.12461378425359726, -0.033312320709228516, 0.12126152217388153, -0.08831718564033508, 0.21067079901695251, -0.118672214448452, -0.3064859211444855, 0.23889143764972687, -0.1165914386510849, -0.07614908367395401, 0.05046442896127701, -0.10759853571653366, 0.19199824333190918, 0.056417033076286316, -0.35860756039619446, 0.09298335760831833, -0.15137222409248352, 0.34428662061691284, -0.05594530329108238, -0.10297885537147522, -0.08422330021858215, -0.006897113285958767, 0.08518616110086441, 0.10056356340646744, -0.11778498440980911, 0.04893047735095024, 0.1380368322134018, 0.09478795528411865, 0.04116302356123924, -0.3365054428577423, -0.07819587737321854, -0.036054860800504684, 0.011408137157559395, -0.10293052345514297, 0.026706788688898087, 0.5001951456069946, -0.2085319459438324, -0.39169636368751526, 0.4020235240459442, -0.39610064029693604, -0.4101450443267822, -0.08500853180885315, 0.1727941632270813, 0.09527121484279633, -0.000245995499426499, 0.04623375087976456, 0.12763960659503937, -0.4043788015842438, -0.11001536250114441, 0.1610504686832428, 0.08658333867788315], [-0.12112284451723099, -0.08501341193914413, 0.019755005836486816, 0.11409422010183334, 0.13457995653152466, 0.08509727567434311, -0.35716524720191956, -0.03619230166077614, -0.24547480046749115, -0.16925276815891266, 0.35028260946273804, 0.03973958641290665, 0.1827932745218277, -0.09018797427415848, -0.09558246284723282, -0.20380307734012604, -0.15412789583206177, 0.03943658247590065, 0.17129504680633545, -0.1065826341509819, -0.28836530447006226, 0.28257885575294495, -0.11859005689620972, -0.00035007891710847616, 0.37699803709983826, -0.05889188498258591, -0.14198899269104004, 0.12331797927618027, -0.12935632467269897, -0.1994311660528183, -0.3505760133266449, 0.27524733543395996, -0.3131004571914673, -0.4739563465118408, 0.10036081820726395, -0.28342968225479126, -0.0061722262762486935, -0.07428537309169769, -0.0868309810757637, -0.023381508886814117, 0.29758262634277344, 0.0034458287991583347, -0.2648972272872925, -0.32091790437698364, 0.3787461221218109, 0.20036515593528748, -0.08359231799840927, -0.15526732802391052, 0.09232791513204575, -0.004080702550709248, 0.4694787561893463, 0.08239733427762985, 0.5504283905029297, 0.13471528887748718, 0.296159565448761, 0.15444524586200714, -0.26362672448158264, -0.13093434274196625, -0.04070525988936424, -0.15638457238674164, -0.0849669948220253, -0.22768285870552063, -0.16637198626995087, 0.15937922894954681], [-0.005696742795407772, 0.08680092543363571, 0.2627291977405548, -0.3513961434364319, -0.016132203862071037, -0.07544094324111938, 0.05147671326994896, 0.215104341506958, 0.10882730036973953, -0.16827669739723206, 0.5779487490653992, -0.04766634479165077, -0.006480101961642504, 0.042903732508420944, -0.17130030691623688, 