{"model_data": {"model": "RecNet", "skip": 0}, "blocks": {"0": {"block_type": "GRU", "input_size": 1, "output_size": 1, "hidden_size": 32}}, "training_info": {"current_epoch": 500, "training_losses": [0.4847783099908334, 0.4187561220840201, 0.401383131935999, 0.3958995487879623, 0.3880301471073907, 0.38389937386110223, 0.3798156041506823, 0.3746573389931159, 0.3680635099964483, 0.3482089063225241, 0.30083611334202354, 0.2581463455670066, 0.2348386463164896, 0.21765260296789088, 0.20600123490606034, 0.19337987810276552, 0.18431403350036638, 0.17445134320719677, 0.16592750763641548, 0.15770969619708405, 0.15312885422888511, 0.1464879521374385, 0.14106604837897146, 0.13704058198959798, 0.13341867675787053, 0.1294641038886719, 0.12489415511682435, 0.12187019671470702, 0.1196382102229959, 0.11661464406491873, 0.11429089510982685, 0.11174863856285812, 0.10952127634172704, 0.10743201478057866, 0.10577220718872238, 0.1029612406265813, 0.10378508564907234, 0.1016274574998911, 0.09801070752565735, 0.09688815906305205, 0.0947173051233706, 0.09243036227228194, 0.09156200321173513, 0.09060297697153571, 0.08955545175530306, 0.08724713717986432, 0.0879312538868421, 0.08599859531726932, 0.08566546180684649, 0.08395126114248648, 0.08286834464638264, 0.08261218754115042, 0.08116447110357997, 0.08120669766220372, 0.07992112012459085, 0.07913763247212613, 0.07889993892160138, 0.07840464730420478, 0.07832217916797897, 0.07610056003821748, 0.07641503914537562, 0.0756830520407817, 0.07431728806491796, 0.07308123862467608, 0.07225798177472377, 0.07173402256078341, 0.07069334626052674, 0.07015127942038628, 0.06999604108852225, 0.07044722441003308, 0.06850880143147978, 0.06820488538496292, 0.0671409784525923, 0.06623808654968615, 0.06575026409700511, 0.06527888678715794, 0.06478081982244145, 0.06515551017379606, 0.06402488188310103, 0.06403710114975254, 0.06326676985587586, 0.06272602615902176, 0.061340558137018955, 0.0628918329519885, 0.06244424736586871, 0.060683542046115375, 0.06066182830866861, 0.06011917994224599, 0.06078452685267314, 0.05994687068530104, 0.05909827869845095, 0.05865480990886882, 0.05976583515959128, 0.0585793457477801, 0.05853751714208296, 0.05837513704167364, 0.05813125828160095, 0.05746408865799183, 0.05885667854000802, 0.057877198750661184, 0.05653022715289679, 0.05614672042429447, 0.0566159103053634, 0.05657168023602722, 0.055662627162581135, 0.05594263761606697, 0.05506366856589719, 0.05609182981991922, 0.055659812234051816, 0.05471797627336407, 0.05494850134936634, 0.054847371141583515, 0.056473096953584004, 0.055217357836179905, 0.053002073792377834, 0.05388672548261556, 0.053229299555351196, 0.05272337741085462, 0.054114468135665374, 0.053684508554976106, 0.05283314847786512, 0.052636581878238296, 0.05186331209230732, 0.05200665514287237, 0.05261178584406515, 0.05211361113016482, 0.05170815824470542, 0.051811642001395104, 0.05362078761560963, 0.05303338068452749, 0.05106827610039285, 0.05041994041968863, 0.0502690343524922, 0.04980192950914625, 0.05194800606529627, 0.050594906117041386, 0.04949213667204242, 0.049560680664930634, 0.04938802527650804, 0.049699488101986704, 0.049428711427593384, 0.04900127301573172, 0.049579340256992475, 0.048941301726191835, 0.04824335886733969, 0.04856676001150112, 0.048044070601463325, 0.048053727188909594, 0.0483731043875798, 0.04775358772800341, 0.047540088867550935, 0.047743745680366254, 0.04745039216230638, 0.04743398805209376, 0.046963068178866973, 0.04686713591217996, 0.04664061521179974, 0.04749081216075204, 0.04777996946585837, 0.046165579588261334, 0.04634611421059092, 0.046518491931840204, 0.04601911795869856, 0.04613969481683204, 0.04565987556979253, 0.04588451538863895, 0.04599276316872277, 0.045631542148721685, 0.04627940266139129, 0.046027280172550825, 0.04554028893433897, 0.04530194950858494, 0.04542495459076259, 0.0449523608980386, 0.045593897207313556, 0.0446555170490612, 0.04518745446807475, 0.04487165393211045, 0.04429520280765636, 0.04373817602414396, 0.04473132660685036, 0.043634489880173245, 0.04397967301442154, 0.043616214915263386, 0.04413931540140955, 0.044022686486192904, 0.04334835709653213, 0.043275790694230175, 0.04411320980069796, 0.04319307413073136, 0.044470696135532936, 0.13279280045928507, 0.045426890659206486, 0.043345088916286426, 0.043195609166589266, 0.04254564182687697, 0.04276166915857269, 0.0431195110651096, 0.04265911966054277, 0.042686209772024065, 0.04285275133919309, 0.042801670149549255, 0.04267849927985822, 0.04242649646899239, 0.04260346813538631, 0.04190466391805608, 0.04160969160110146, 0.042317707926131695, 0.04188409914843156, 0.04187762253470235, 0.041825677897152184, 0.041659994183906486, 0.04163660948442948, 0.04177219339634304, 0.041724173349098524, 0.04159122915611929, 0.04173710604210372, 0.04121804765921522, 0.041587900793687856, 0.04098282844832095, 0.04107389061457732, 0.041638630526986985, 0.04086694420109708, 0.04038847614587709, 0.04082659989075323, 0.04087136247098543, 0.040535523347532396, 0.04055421138424185, 0.04028648688373242, 0.0402409196226531, 0.03987756008645156, 0.03972109075176057, 0.04033423323401964, 0.03993919879718163, 0.04010662515405806, 0.04063005666188025, 0.03952641246005796, 0.039579122170031844, 0.0397111830942623, 0.04002718748706211, 0.039278322086947697, 0.03931056292630829, 0.039644256143455785, 0.039334524441026635, 0.03910468396875862, 0.039292759032218495, 0.03893916053673276, 0.03956906789272733, 0.038670957542036644, 0.03891446660635629, 0.03921606134042723, 0.03883309543205353, 0.0387539353112799, 0.038493345270852575, 0.03859072929707828, 0.03937839244661684, 0.04074659599777456, 0.03900777924406741, 0.03855651529965461, 0.0387453650420701, 0.038133943196410294, 0.03826839386110569, 0.038227284309006744, 0.03795554891059344, 0.03811083466129062, 0.03752679919049918, 0.03768502783889024, 0.037618808288054605, 0.03780489034539499, 0.037952849163685916, 0.037273992019306326, 0.03767477760284945, 0.03765554704957388, 0.03766240291720764, 0.03687313126472684, 0.036929931651873436, 0.03739512475304209, 0.03709300393661991, 0.03701809164765594, 0.03731255893680183, 0.036903580871422766, 0.03682908060500859, 0.03663746965444321, 0.036916874400521445, 0.03680072052331713, 0.03665579922267465, 0.036460397798301916, 0.036279984901042346, 0.036188773073062494, 0.03660938486323825, 0.036792121479868316, 0.03609809704886919, 0.035923437390766755, 0.03649555049933396, 0.03614350932940551, 0.03560321983675679, 0.036667525952730276, 0.03571884752880152, 0.03572984414126773, 0.036069978545601296, 0.0360661979534893, 0.035419872596061656, 0.03608915276897999, 0.03579594382363093, 0.03553525423449646, 0.035230793361249686, 0.035392496384099706, 0.0354462197389115, 0.03520084291019223, 0.03528842926267293, 0.03482998516894393, 0.03498760944643577, 0.0349281197655704, 0.03486879495299094, 0.035107008964669964, 0.03524233753393803, 0.035425539025674004, 0.034975744792949647, 0.03480967547284899, 0.037346961826400515, 0.03627129245017256, 0.03494504236543623, 0.03498143792853921, 0.03449838754854032, 0.03496687543312353, 0.03424178691000327, 0.034052372160186244, 0.03659962704888992, 0.035311915633546846, 0.03409085278217862, 0.034124933152955464, 0.03413101862027467, 0.03433682694244985, 0.034038387166408744, 0.03556333260320418, 0.035170390170865824, 0.033821124526031025, 0.03362815347258243, 0.03396605647640763, 0.03388755377261089, 0.034086677412103326, 0.03384055711582981, 0.034454248101728695, 0.03356221675050337, 0.03371387168269169, 0.0338342770141876, 0.03401430132919802, 0.03357735408058802, 0.03389879566460073, 0.033578230452106964, 0.034006860563773424, 0.03377765010098939, 0.03367736927753726, 0.03348146602753308, 0.0337312775845458, 0.033212116865029964, 0.03415139334868978, 0.03312874541847737, 0.032933525408485105, 0.03276517198348491, 0.03306263028462599, 0.03289663480510089, 0.03307723598978059, 0.032846483834353936, 0.0338872199509196, 0.033282436986828784, 0.033331937604136275, 0.03298175373332358, 0.032801812094358083, 0.0326731622630319, 0.03293074828620953, 0.03339319603590222, 0.03261310499246147, 0.03306521497086272, 0.03281495352759474, 0.032840397097049404, 0.03259788878721657, 0.032719777627884375, 0.03232879218548633, 0.03512559111786451, 0.03352723255535805, 0.03201568656746154, 0.03223305215829283, 0.032251704390487315, 0.032578310802240266, 0.0325742291268445, 0.03266617326767414, 0.03185777071343324, 0.03223056120302092, 0.03215503339752458, 0.03218728050819368, 0.0325272594995845, 0.032181718746538863, 0.031932283032612946, 0.031995982197778564, 0.03190247843937054, 0.03205886894425789, 0.031570562025435366, 0.03171127996794492, 0.031796176047003896, 0.03191524274139242, 0.03132317289286716, 0.031652927843176505, 0.031563290588364205, 0.03142261545343155, 0.03140497941209318, 0.031253835258932855, 0.031590228298582226, 0.03145685802552511, 0.03145921348243371, 0.031140458086723246, 0.031045076902955767, 0.030898582828291627, 0.031226055986889, 0.03127988489864805, 0.031361185706692274, 0.03089926366137897, 0.030853696608940107, 0.031219360379308652, 0.031080745357125024, 0.030892044544679587, 0.030697599071525524, 0.03085316070536902, 0.03101660805306845, 0.031084380511726652, 0.030780615992602203, 0.030443569533405945, 0.030695534205402848, 0.03058164748181771, 0.03036743691402741, 0.030577654481635658, 0.030609416279506373, 0.03073088617015678, 0.030566623367901356, 0.030472082400380022, 0.031008873080423514, 0.030642672677754192, 0.030095718522834315, 0.030507606789832574, 0.030220555767489523, 0.03045973761986893, 0.03018977835338998, 0.029918091686128023, 0.02991232290779326, 0.03009453062391417, 0.030111729170425563, 0.030429342404830372, 0.030031268614912777, 0.03020517169739809, 0.02965585437796817, 0.029990318291760104, 0.029538000761470822, 0.030404734062393766, 0.030035731842281754, 0.029625950066687223, 0.031148915974326532, 0.02952768142310927, 0.029471645047041504, 0.02924399323725178, 0.029433640823760012, 0.029484450378660845, 0.029092223002490668, 0.029156110397624693, 0.029059309811730466, 0.029091623551272715, 0.029113140755466057, 0.028686452529985803, 0.02956772599877281, 0.029456248788114685, 0.02882076023666599, 0.028981734333293784, 0.028944722452358188, 0.028743189042917897, 0.02937348054528429, 0.028738913851995746, 0.028439336698260397, 0.028882691270804835, 0.028518532490502894, 0.029403263306874153, 0.028570724926380953, 0.028397504010467558, 0.02861840997266209, 0.028715249383822083, 0.02928220309534824, 0.028644750393661, 0.02831070623118672, 0.028146608629832415, 0.028298423571100868, 0.02836218708218982, 0.028395302775134513, 0.02846970608421637, 0.028131929342634983, 0.028211767431469515, 0.02796855600635437, 0.027898882884628974, 0.028072280488763153, 0.027785268842012854, 0.02793958680946138, 0.027938376970032788, 0.02776573266979162], "validation_losses": [0.39377716183662415, 0.35349467396736145, 0.23315377533435822, 0.1738264411687851, 0.16901172697544098, 0.13441690802574158, 0.13478948175907135, 0.11510495096445084, 0.11472691595554352, 0.10711528360843658, 0.09262623637914658, 0.09300999343395233, 0.08316413313150406, 0.09116598963737488, 0.07744941860437393, 0.0746895968914032, 0.0791739746928215, 0.06915415823459625, 0.06806742399930954, 0.06571057438850403, 0.06381796300411224, 0.05918195843696594, 0.06696151942014694, 0.06637676805257797, 0.061318300664424896, 0.06160908564925194, 0.07454663515090942, 0.055716123431921005, 0.05687181279063225, 0.05332593992352486, 0.05342525616288185, 0.0540173277258873, 0.05171159282326698, 0.05225666984915733, 0.05879398435354233, 0.05063091591000557, 0.05081837996840477, 0.051213521510362625, 0.04889058694243431, 0.04752310365438461, 0.0518515482544899, 0.05863053724169731, 0.04766993969678879, 0.04562497138977051, 0.05041741579771042, 0.044307172298431396, 0.04704912379384041, 0.046289365738630295, 0.04314805939793587, 0.04993320256471634, 0.04900380223989487, 0.0482645183801651, 0.044916845858097076, 0.0442032590508461, 0.04373236373066902, 0.04500969126820564, 0.043730273842811584, 0.06934397667646408, 0.04189411178231239, 0.04594571143388748, 0.04591812565922737, 0.04415418952703476, 0.040488336235284805, 0.10549857467412949, 0.048201143741607666, 0.039847251027822495, 0.06616891920566559, 0.0510784387588501, 0.03989844769239426, 0.043962717056274414, 0.038919661194086075, 0.03959035500884056, 0.04817758873105049, 0.038465436547994614, 0.045769933611154556, 0.062016505748033524, 0.04110115393996239, 0.04262501001358032, 0.04021647199988365, 0.04450159892439842, 0.037780918180942535, 0.03925294056534767, 0.04125808924436569, 0.039126910269260406, 0.03766978904604912, 0.03985293209552765, 0.036493852734565735, 0.03593882545828819, 0.03570522367954254, 0.035508885979652405, 0.03498820587992668, 0.03649355471134186, 0.03809818997979164, 0.03561688959598541, 0.035661667585372925, 0.035070229321718216, 0.03426065295934677, 0.05075819790363312, 0.03542328253388405, 0.034794919192790985], "train_epoch_av": 15.800500273704529, "val_epoch_av": 29.164859175682068, "total_time": 3.0030242601368164, "best_val_loss": 0.03426065295934677}, "state_dict": {"layers.block_1.rec.weight_ih_l0": [[1.268885850906372], [-0.6038437485694885], [2.220374584197998], [0.3050712049007416], [1.0547832250595093], [-4.629231929779053], [0.7122270464897156], [2.3384456634521484], [-0.11980780214071274], [0.48842763900756836], [-0.05654019117355347], [-0.30448010563850403], [-0.6328275203704834], [-0.49512866139411926], [-2.161665201187134], [-0.48628363013267517], [-0.9360225796699524], [-1.1324429512023926], [-0.42157506942749023], [0.8890944719314575], [0.5394690036773682], [-0.6318069696426392], [3.9556446075439453], [0.07274368405342102], [0.9464735984802246], [1.1459516286849976], [-1.7079206705093384], [-3.0245487689971924], [-0.10012616217136383], [-0.03220607712864876], [0.3298991024494171], [-0.005035514943301678], [-0.20803314447402954], [0.30506038665771484], [-1.2289732694625854], [2.7362821102142334], [-1.3161002397537231], [1.6932616233825684], [0.941979169845581], [0.29982322454452515], [-0.22298909723758698], [-1.8850537538528442], [-0.4165625274181366], [0.5904245972633362], [0.452961802482605], [-0.19583836197853088], [1.5743539333343506], [-1.3801355361938477], [0.869827926158905], [2.136868715286255], [0.08352643996477127], [-0.5193856358528137], [0.5155429244041443], [1.0044151544570923], [1.968389868736267], [-0.5945977568626404], [-0.1158495619893074], [0.8043889403343201], [-0.5590881705284119], [-1.5199487209320068], [-0.3162776231765747], [-0.32222846150398254], [-2.2734878063201904], [-0.5081344246864319], [-0.5845881104469299], [-0.5255168080329895], [0.8579452037811279], [-0.11750977486371994], [-1.2895952463150024], [13.265020370483398], [-0.43420177698135376], [3.8195948600769043], [0.37648630142211914], [0.425923228263855], [1.0380016565322876], [-1.3099323511123657], [0.18684279918670654], [0.4175104796886444], [1.895019769668579], [0.6396231055259705], [-0.02994735911488533], [1.1215784549713135], [-0.9006981253623962], [-2.683803081512451], [0.4997783601284027], [0.40358400344848633], [0.20437060296535492], [0.7626540660858154], [-2.2847509384155273], [0.758762776851654], [1.9868700504302979], [-2.6613569259643555], [0.14165157079696655], [-0.19788749516010284], [-3.910202980041504], [0.7700973749160767]], "layers.block_1.rec.weight_hh_l0": [[2.1196236610412598, -1.3180782794952393, -1.2493354082107544, 1.0327067375183105, -0.7154468297958374, 2.7162673473358154, 1.078562617301941, 0.006741196382790804, -0.20327907800674438, 0.2158679962158203, 2.4332234859466553, 2.746119260787964, 5.531386375427246, -0.006981940008699894, 0.38569387793540955, -0.2797988951206207, -1.1369261741638184, -2.4866483211517334, -0.3714836835861206, -1.3509876728057861, -4.780952453613281, -0.97942054271698, -3.19587779045105, -0.8740751147270203, 1.0202935934066772, -0.5322895050048828, -2.572176218032837, 1.5251691341400146, 2.30478572845459, -3.2503609657287598, -2.4637672901153564, -0.3280017375946045], [-0.07486981153488159, -0.06166957691311836, -0.2663572132587433, 0.36970973014831543, -0.15194052457809448, 0.002883197972550988, -0.1810893416404724, -0.4952768385410309, 0.11770522594451904, 0.05834769085049629, -0.1855771690607071, -0.34281378984451294, -0.053375255316495895, -0.26761430501937866, -0.1474868506193161, 0.01211968157440424, 0.08030804991722107, -0.11693355441093445, 0.26082921028137207, -0.19515913724899292, 0.1553240269422531, -0.04360334947705269, -0.011301119811832905, -0.17081007361412048, 0.20448200404644012, 0.2047991305589676, -0.15381623804569244, 0.052439142018556595, -0.10058064758777618, -0.011177431792020798, -0.012412063777446747, 0.8062092065811157], [0.06826473772525787, 0.06680502742528915, 0.07602676004171371, 0.08029741048812866, -0.2923790216445923, 0.30541127920150757, 0.4424985945224762, -0.39983707666397095, 0.07571912556886673, 0.027131788432598114, -0.5480766892433167, -0.4661533534526825, 0.08282649517059326, 0.22559106349945068, -0.02927592024207115, 0.2922728955745697, 0.10887998342514038, 0.01312224566936493, 0.5061244368553162, -0.12368764728307724, -0.10304401069879532, -0.3707818388938904, 0.16541695594787598, -0.05772177875041962, -0.17442812025547028, 0.20014521479606628, 0.4707026779651642, -0.6369777321815491, -0.4634067416191101, -0.4120238423347473, -0.31470298767089844, -0.2855556011199951], [-0.27754127979278564, -0.22913223505020142, 0.3061543107032776, 0.14399954676628113, 0.28222692012786865, 0.18268631398677826, -0.9716019034385681, -0.6691395044326782, -0.19716712832450867, -0.2599148154258728, -0.7748346328735352, -0.2975004315376282, -0.6358969807624817, 0.3906863331794739, -0.3195893466472626, 0.09398241341114044, -0.49441537261009216, -0.5108594298362732, -0.5958027839660645, 0.3867466449737549, -1.102880835533142, -0.2559005320072174, 0.0307853315025568, -0.13418017327785492, 0.06165272369980812, -0.014847246930003166, 0.10185376554727554, -0.12802629172801971, -0.8429418206214905, -0.3402794599533081, -0.2732689380645752, -0.07795138657093048], [0.5265170931816101, 0.13258406519889832, 0.35925406217575073, 0.4327353239059448, 0.07812216877937317, 0.7692018747329712, 0.49330976605415344, -0.09280675649642944, -0.3121483623981476, -0.16107982397079468, -0.6036326289176941, -1.0769147872924805, -0.11550577729940414, -0.047270920127630234, 0.12413356453180313, -0.5759775042533875, 0.3139943778514862, -0.657263457775116, 0.5926635265350342, 0.5931771993637085, 0.45261481404304504, -0.7741062045097351, -0.18022295832633972, 0.0979050025343895, 1.0149394273757935, 0.13720692694187164, -0.20852035284042358, -0.1152588427066803, 0.19745191931724548, 0.6677811741828918, -1.1102769374847412, -0.5034992098808289], [-0.1643301099538803, -0.28472012281417847, -0.7542226910591125, -0.3283167779445648, -0.17799830436706543, 0.44651323556900024, 0.13142861425876617, -0.6964792609214783, -1.167527675628662, 0.28171345591545105, -1.4322293996810913, -0.8652349710464478, 0.46227675676345825, 0.19005587697029114, -0.6346645355224609, -0.312181293964386, 0.1574641466140747, 0.11707880347967148, -1.0050559043884277, 0.19913631677627563, -0.07554367184638977, -0.0004295545513741672, 0.08368392288684845, 0.055078912526369095, 0.749281108379364, 0.41501808166503906, 0.07883003354072571, 0.260536789894104, -0.9297212958335876, -0.09880304336547852, -0.4959782063961029, 1.555185317993164], [0.6054715514183044, 0.6823911666870117, 0.43268460035324097, -0.8489198088645935, 0.26687273383140564, -0.17529267072677612, -0.5582268238067627, 0.01996667869389057, 0.27837270498275757, -0.35459011793136597, 0.40405339002609253, -0.3598024249076843, 0.42576903104782104, -0.25600865483283997, -0.04400619864463806, -0.12923488020896912, 0.10707765817642212, -0.2333478331565857, -0.11708047986030579, -0.7080722451210022, 0.08138363808393478, 0.3049674928188324, -0.49041450023651123, -0.0022308400366455317, -0.5924462676048279, 0.6685186624526978, -0.07061690837144852, 0.28713613748550415, 0.5796228051185608, -0.6400807499885559, -0.22276334464550018, -0.37682583928108215], [-0.038100119680166245, 0.821683943271637, 0.7293466925621033, 0.24946025013923645, 0.1198253408074379, 0.24437318742275238, -0.007854877039790154, 0.45374056696891785, 0.45258063077926636, -0.1506497859954834, -0.2895425856113434, -0.15637515485286713, 0.15974663197994232, 0.1552601456642151, -0.5737891793251038, 0.26901182532310486, 0.19277030229568481, -0.24361659586429596, 0.19926902651786804, 0.2915703058242798, 0.15424907207489014, 0.33826911449432373, 0.02847645990550518, -0.24282671511173248, -0.4221761226654053, -0.10632605105638504, -0.07127543538808823, -0.47891268134117126, -0.14496774971485138, 0.3782198429107666, 0.29165035486221313, 0.10011577606201172], [-0.21320697665214539, -0.9270269870758057, -0.0482679158449173, -1.2865930795669556, 0.4491855502128601, -0.08568581193685532, -1.0938050746917725, 0.12370376288890839, -0.36143043637275696, 0.49298691749572754, -0.6790221333503723, 0.04288582131266594, 0.5135201215744019, 0.15300147235393524, -0.21593305468559265, -0.21916499733924866, -0.40846386551856995, -0.1200508326292038, 0.4041854739189148, -0.30392712354660034, 1.414135456085205, 0.19078336656093597, -0.5920931696891785, -0.1377386748790741, -0.8362298607826233, 0.557733952999115, -0.2864534556865692, 0.6517804265022278, 0.32735776901245117, -0.7468535900115967, 1.0066847801208496, 0.36407774686813354], [3.066366195678711, -1.243656039237976, -0.762445867061615, -1.7670477628707886, -0.8534836769104004, 0.2582913041114807, 1.9931321144104004, 0.7593472599983215, -0.5941517949104309, 0.05837690830230713, -1.31997811794281, -1.4698405265808105, -3.17463755607605, 0.40478336811065674, -1.8961284160614014, 0.28100311756134033, 0.4662427008152008, -0.1946771740913391, -0.5844306945800781, 0.3963049352169037, -0.9901890754699707, 0.2553988993167877, -1.4151713848114014, -0.6092040538787842, 0.9057428240776062, 0.2460590898990631, -1.412814974784851, 0.12319868057966232, -1.669189214706421, 0.4452868103981018, -1.0977107286453247, 0.16977804899215698], [-0.10000888258218765, -0.6662977337837219, 0.4809163510799408, -1.6375904083251953, 0.9787003397941589, -0.11441057175397873, -0.36843162775039673, 0.06605888903141022, 0.10403849929571152, 0.30030980706214905, 0.8122568726539612, -0.5319750308990479, 0.38395044207572937, 0.1458679735660553, -0.29971298575401306, 0.039921361953020096, 0.10574518889188766, 0.34799978137016296, 0.1344655454158783, 0.665784478187561, 1.3979277610778809, 0.6055082678794861, -0.623767614364624, -0.23051869869232178, 0.12913914024829865, -0.3554152548313141, -0.569695234298706, 0.35950925946235657, -0.029138170182704926, -0.351799875497818, 0.13411271572113037, 0.4438386857509613], [0.21098530292510986, -0.35386621952056885, -0.8284624814987183, -0.5493159294128418, -0.02395198680460453, 0.16518156230449677, 0.4808802306652069, -0.7764009237289429, -0.046239107847213745, 0.0866888165473938, -0.48158371448516846, 0.08907165378332138, 1.326422929763794, 0.34490081667900085, -0.6414880752563477, -0.6028198003768921, -0.3076342046260834, 0.07407206296920776, -0.19795037806034088, -0.5491363406181335, -0.21517106890678406, -0.09586570411920547, 0.29371947050094604, 0.047603052109479904, 0.1935204565525055, -0.863394558429718, -0.12141925096511841, 0.260219544172287, -0.37583935260772705, 0.35969263315200806, -0.55942702293396, -0.11717254668474197], [-0.052864737808704376, -0.6999025344848633, 0.3149384558200836, -0.6973324418067932, -0.5903258323669434, 0.6187042593955994, -0.5563272833824158, -0.24156507849693298, -0.1924632340669632, 0.32263681292533875, 1.896266222000122, -0.07958971709012985, 1.1546193361282349, 0.11749230325222015, -0.48948797583580017, -0.31592538952827454, -0.6051912307739258, -0.3497580885887146, 0.7809266448020935, 0.31819236278533936, -0.6897647380828857, 0.631857693195343, 0.4497469663619995, -0.31234851479530334, -0.5736820697784424, 1.3136911392211914, 0.31736916303634644, -0.19750511646270752, 0.29347455501556396, -0.27568677067756653, -0.33468419313430786, 0.5523244738578796], [-0.05245545879006386, -0.16056041419506073, 0.04328877106308937, -0.03075088933110237, -0.15536482632160187, -0.3593805432319641, -0.11871624737977982, 0.048133350908756256, 0.48859870433807373, -0.08252299576997757, 0.234084814786911, -0.6973870396614075, -0.5063343048095703, -0.15852968394756317, -0.5734079480171204, -0.280587762594223, -0.8833692669868469, -0.09853023290634155, -0.18127600848674774, 0.14458559453487396, 0.3151833117008209, 0.13940803706645966, 0.2235436886548996, -0.07913260161876678, 0.06956855952739716, 0.2650410830974579, 0.13514506816864014, 0.13164857029914856, 0.006709559820592403, -0.18625134229660034, 0.17421269416809082, 0.9987577795982361], [-0.03771943971514702, -0.4891447126865387, 0.061085402965545654, -0.461961954832077, 0.06963872909545898, -0.11378519982099533, -0.06169635057449341, 0.5833156108856201, 0.21730536222457886, 0.003727053292095661, -0.3369878828525543, -0.19098880887031555, -0.057938870042562485, -0.24016177654266357, -0.17860879004001617, 0.1497478038072586, -0.19678427278995514, -0.18529681861400604, -0.39153626561164856, 0.24069805443286896, -0.03792165219783783, 0.16387984156608582, 0.3397514820098877, -0.0595487579703331, -0.2358989417552948, 0.03207961469888687, 0.4841822683811188, -0.16019892692565918, -0.08859188109636307, 0.006749999243766069, 0.14319992065429688, 0.6205949783325195], [-0.2566436231136322, -0.4950656294822693, -0.2505272328853607, -0.35824793577194214, 0.2637735903263092, -0.8354502320289612, -0.10972752422094345, -0.3387708365917206, 0.0769495740532875, 0.08034554123878479, -0.5117567181587219, -0.30274397134780884, 0.22633762657642365, 0.020707711577415466, -0.5123872756958008, -0.14202743768692017, 0.09405840188264847, 0.08616770058870316, -0.21441145241260529, 0.8297350406646729, 0.4167732000350952, 0.06819046288728714, 0.07977043837308884, 0.044061075896024704, 0.6271147131919861, -0.31757980585098267, -0.2591171860694885, 0.0102812135592103, -0.03135893866419792, -0.14997437596321106, 0.2441060096025467, 0.4744907319545746], [-0.01923699490725994, -0.8691309690475464, 0.1732209473848343, -0.7372005581855774, -0.26790741086006165, -0.037504907697439194, -0.5015977025032043, -0.6531369686126709, 0.7536345720291138, 0.020076042041182518, -0.20012064278125763, 0.06780265271663666, -0.24299000203609467, 0.10845853388309479, -0.4605599641799927, 0.0024950315710157156, 1.2112782001495361, 0.029639380052685738, 0.47810128331184387, 0.3762456774711609, 0.42408186197280884, -0.13969899713993073, -0.47717854380607605, -0.036139581352472305, -0.2043505311012268, 0.6085109114646912, 0.24939841032028198, -0.029042894020676613, 0.12020634859800339, 0.39614781737327576, -0.26631322503089905, 0.3092325031757355], [0.2316502332687378, -0.11503123492002487, -0.41184189915657043, -0.18352095782756805, 0.06308520585298538, -0.37545183300971985, -0.5968753099441528, -0.4539158344268799, -0.25805357098579407, 0.10036448389291763, -0.6564850807189941, 0.222248837351799, 0.08384036272764206, -0.08191122114658356, 0.5157682299613953, -0.22324757277965546, -0.31955987215042114, -0.12623955309391022, -0.4891106188297272, 0.7226653099060059, 0.43821951746940613, -0.11705850064754486, -0.09781607240438461, 0.05185603350400925, -0.04485530033707619, -0.38842537999153137, -0.1061205267906189, 0.24777424335479736, 0.16954311728477478, -0.2877698242664337, 0.4336737394332886, 0.44439736008644104], [-0.11980370432138443, -0.5374062657356262, 0.0388224758207798, -0.18338848650455475, -0.07949402183294296, -0.3807459771633148, -0.4800146222114563, -0.29335370659828186, -0.684633195400238, -0.04666836932301521, -0.1534833312034607, -0.22816722095012665, -0.6854597926139832, 0.20340394973754883, -0.12801603972911835, 0.02113080956041813, 0.16193920373916626, 0.306820273399353, 0.2374514788389206, 0.10224504768848419, 0.3000967502593994, -0.39024269580841064, 0.012992545031011105, -0.06611648947000504, -0.3602868616580963, 0.15437372028827667, 0.672353982925415, -0.31131240725517273, -0.14338454604148865, -0.02252485230565071, 0.18178249895572662, 0.0743342787027359], [-0.010998595505952835, 0.07209910452365875, 0.948928713798523, -0.05953940004110336, 1.006987452507019, 0.704388439655304, -0.9434166550636292, 1.1501576900482178, -0.32796764373779297, -0.35250574350357056, 0.6021877527236938, 1.400496244430542, -1.3381757736206055, -0.5850760340690613, -0.2783752381801605, -0.46234309673309326, 0.6609953045845032, -0.4253034293651581, -0.08936663717031479, 0.6603396534919739, 0.636742353439331, 0.6235657334327698, 0.8575162887573242, 0.11049213260412216, -1.4560673236846924, -0.37109121680259705, 0.07711606472730637, -0.598692774772644, 0.38989123702049255, -1.309646487236023, 0.3471817970275879, -0.8521463871002197], [-0.20267726480960846, -0.4238324463367462, 0.3435148298740387, 0.820580005645752, -0.26687705516815186, 0.591995894908905, 0.6217381358146667, 0.18439675867557526, -0.16739323735237122, 0.4151134788990021, -0.8790558576583862, 0.01694311574101448, 1.2994306087493896, -0.3463793992996216, 0.308285653591156, -0.1779208481311798, 0.05196785926818848, 0.20710955560207367, 0.26029136776924133, -0.14484044909477234, -0.6853601336479187, -0.060612116008996964, -0.22775082290172577, -0.08514785021543503, 0.11343131214380264, -0.4312905967235565, -0.022889411076903343, -0.07695280015468597, -0.36923810839653015, 0.40800678730010986, -1.013324499130249, -0.08675391972064972], [0.5670908689498901, -0.3747032880783081, -0.12955652177333832, 0.25648728013038635, -0.05853527784347534, 0.14948086440563202, 0.15820105373859406, -0.25174272060394287, 0.06133468449115753, 0.03725975751876831, 0.32382625341415405, -0.3881865441799164, -0.4953936040401459, -0.3357621729373932, 0.10306864231824875, -0.015754301100969315, 0.27725958824157715, 0.235044464468956, 0.8573458790779114, -0.16813082993030548, -0.37412887811660767, 0.005026495549827814, 0.47023677825927734, 0.07232446223497391, -0.151218444108963, 0.03472180292010307, -0.18277069926261902, -0.0632767453789711, -0.16881774365901947, -0.23984235525131226, -0.5842637419700623, 0.3458996117115021], [3.501185417175293, -1.459742784500122, 0.6645673513412476, -0.7258334755897522, -2.3435146808624268, 2.83012056350708, 3.934774875640869, 1.624734878540039, 1.5605632066726685, 1.9215222597122192, -0.2340933382511139, -1.8033310174942017, -8.804539680480957, -1.4411126375198364, -3.1362452507019043, -0.3792649209499359, 0.2805015742778778, 0.12508824467658997, 0.4649617671966553, -2.3673694133758545, 1.700025200843811, -1.0650490522384644, 1.0003615617752075, -0.043174996972084045, 0.6561571955680847, 5.495108604431152, -0.4688318073749542, -1.5939817428588867, -3.437944173812866, 0.24629908800125122, -4.53978967666626, -0.266867458820343], [0.14385539293289185, 0.3440055251121521, 0.1767157018184662, -0.5846400856971741, 0.40842339396476746, -0.2520693242549896, -0.07806133478879929, 0.5878112316131592, 0.2010158747434616, -0.03672108054161072, 0.335171103477478, 0.06548215448856354, 0.241822749376297, -0.11180844157934189, -0.26086217164993286, -0.34830668568611145, 0.22113245725631714, 0.02569681964814663, 0.42047399282455444, -0.08595552295446396, -0.4618060886859894, 0.1031569242477417, 0.1003337949514389, -0.009494928643107414, 0.1851923167705536, 0.7068396806716919, 0.5234810709953308, 0.2803287208080292, -0.06419204920530319, 0.04186128079891205, 0.7257691025733948, -0.1987524777650833], [0.30135905742645264, 0.14646899700164795, 0.33579176664352417, 1.256357192993164, 0.2103046178817749, -0.17779824137687683, -0.8471358418464661, -0.1759950965642929, -0.6941271424293518, -0.25556591153144836, -0.8291871547698975, -0.35560381412506104, -0.3211888074874878, -0.08271852880716324, -0.2844010293483734, -0.31919851899147034, 0.8164418935775757, -0.14353135228157043, -0.5274784564971924, 0.1439756602048874, 0.3381415605545044, -0.27732962369918823, -0.5414580702781677, -0.27705901861190796, -0.31260478496551514, -0.06481900811195374, 0.32237952947616577, -0.5232897996902466, -0.9020779132843018, -0.30714672803878784, 0.3767310380935669, 0.28536728024482727], [0.23319780826568604, 0.7033485174179077, 1.4479076862335205, -0.8275803327560425, -0.22374285757541656, 1.424588680267334, -0.22183124721050262, 0.31777358055114746, 0.7712867856025696, -0.6139713525772095, 1.786732792854309, -0.1696486622095108, -0.0715007409453392, -0.6030570268630981, -0.8962105512619019, -0.06347694247961044, -0.15960946679115295, -0.5495725870132446, 0.18817773461341858, 1.2142844200134277, 0.4390259385108948, 0.0541507750749588, -0.4725072681903839, -0.2744380235671997, -1.3637933731079102, 0.47767120599746704, -0.2726258337497711, -0.036365993320941925, -0.07120969891548157, -1.0521138906478882, -0.493439257144928, 0.38417258858680725], [0.22983130812644958, 0.35143381357192993, -0.3753699064254761, 0.014607108198106289, -0.061808325350284576, 0.480254203081131, 0.1484774947166443, 0.1641734540462494, 0.04085243493318558, -0.11099934577941895, -0.06402948498725891, 0.15073208510875702, 0.4568733274936676, 0.2371431291103363, 0.5551796555519104, 0.21377965807914734, -0.14497144520282745, 0.17261144518852234, -0.04121099039912224, 0.12966622412204742, -0.278239905834198, -0.4287174940109253, -0.4368073046207428, 0.13725586235523224, -0.002791933249682188, -0.20012454688549042, -0.03166933357715607, 0.39178457856178284, 0.5384873747825623, -0.06260956823825836, 0.3879931569099426, -0.13174311816692352], [-0.03515820577740669, 0.03812411427497864, 0.08160293847322464, 0.005264367442578077, 0.14240212738513947, 0.1681372970342636, -0.25698351860046387, 0.3052312731742859, -0.027941962704062462, -0.026820749044418335, 0.0877998098731041, 0.134640172123909, -0.11274024844169617, 0.6863576173782349, -0.035601656883955, 0.20742107927799225, -0.08263737708330154, 0.26810526847839355, -0.5883582234382629, -0.16433222591876984, 0.02534377947449684, -0.2303311824798584, -0.060481537133455276, 0.12017618119716644, -0.6137695908546448, -0.04540015012025833, 0.24207903444766998, -0.07601514458656311, 0.11004367470741272, -0.062308721244335175, 0.013094453141093254, 1.0389658212661743], [-0.37136635184288025, -0.41326168179512024, 0.33254584670066833, -0.3740748167037964, -0.5942145586013794, -0.4642102122306824, -0.10799815505743027, 0.2806302309036255, -0.41332828998565674, -0.14980366826057434, 0.2291278839111328, 0.016118470579385757, -0.15729264914989471, 0.060846854001283646, -0.09574711322784424, -0.002893321681767702, 0.11017143726348877, -0.35860058665275574, 0.3459346294403076, 0.42633292078971863, 0.24937458336353302, 0.45141181349754333, 0.2440667599439621, -0.23218996822834015, -0.324148029088974, 0.5348612070083618, -0.13582906126976013, 0.2399200052022934, 0.029307657852768898, 0.12412617355585098, 0.2343982309103012, 0.14782120287418365], [-0.15654213726520538, 0.24274075031280518, 0.04474576935172081, -0.43981993198394775, -0.13933560252189636, -0.36628013849258423, -0.5749399662017822, -0.09230971336364746, -0.31417784094810486, -0.14352698624134064, 0.48589256405830383, -0.39104899764060974, 0.545810341835022, -0.2636493742465973, 0.12479382753372192, -0.041234586387872696, -0.20347262918949127, -0.2630864083766937, -0.12972891330718994, 0.44220444560050964, 0.20964188873767853, -0.04990840330719948, -0.39402154088020325, 0.13007277250289917, 0.2922847270965576, -0.10969340056180954, 0.466124027967453, 0.6025779247283936, 0.5724092721939087, 0.27626460790634155, -0.518220067024231, -0.4529113173484802], [-0.426657497882843, -0.30404308438301086, 2.7063589096069336, 0.7320812344551086, -1.9670408964157104, 2.5234992504119873, -0.6426625847816467, -0.8638918995857239, -0.9629155397415161, 0.7918550372123718, 1.6943519115447998, -3.2482266426086426, 0.16126805543899536, -1.4241479635238647, -0.42204996943473816, -1.164408564567566, -0.40323108434677124, -0.2939895987510681, 0.8366731405258179, -0.6107876300811768, 0.4100624918937683, 1.0455416440963745, -0.5864266157150269, -0.8463302850723267, -0.9668980836868286, 0.19108694791793823, 0.5990180373191833, 0.07294080406427383, 1.7062071561813354, 0.013354114256799221, -1.8629209995269775, 1.0941685438156128], [-0.03540036454796791, -0.264438658952713, 0.14236237108707428, 0.1149369329214096, -0.42911285161972046, -0.2666536867618561, -0.1847764253616333, -0.4818916916847229, -0.20053167641162872, -0.16443829238414764, 0.4137170910835266, -0.2762145698070526, -0.00028276757802814245, 0.03436892852187157, -0.4189314544200897, -0.1495976746082306, -0.28321531414985657, 0.0019279271364212036, 0.00289174634963274, -0.3177248239517212, 0.3941585421562195, 0.2501707971096039, 0.014575413428246975, 0.0011442325776442885, -0.12052882462739944, 0.5642325282096863, 0.3213789463043213, -0.33346056938171387, 0.009540063329041004, -0.169592022895813, 0.1154186874628067, 0.41250064969062805], [-0.0054792119190096855, 0.48833948373794556, 0.8495678901672363, 1.2081719636917114, 0.4032845199108124, -1.0184391736984253, -0.005536000244319439, 1.0735657215118408, 0.6425425410270691, 0.01552248653024435, -2.159238815307617, 0.8308894038200378, -1.2966115474700928, 0.699135959148407, -0.7468934059143066, 0.8537641763687134, 0.8882037401199341, -0.4711596667766571, -0.6963509917259216, -0.7386788129806519, 3.0126657485961914, -1.3588831424713135, 0.9098343849182129, 0.6825231909751892, -0.5946871042251587, -1.4224504232406616, -0.24458971619606018, -0.522581160068512, -2.1352338790893555, -0.7432151436805725, 0.3258287012577057, 0.25208741426467896], [-0.21833238005638123, -0.27642005681991577, 0.9059341549873352, 0.00040509901009500027, -0.1585191786289215, 0.1410921961069107, 0.0773652121424675, 0.4553314447402954, -0.023878443986177444, 0.07165296375751495, -0.03932648152112961, -0.5952280759811401, 0.08767350018024445, -0.27541711926460266, -0.6266526579856873, -0.24296152591705322, 0.30059030652046204, -0.7754843831062317, 0.28563350439071655, 0.14488263428211212, -0.16233985126018524, 0.7010738849639893, -0.13334086537361145, -0.6411653161048889, 0.03079269267618656, 0.21643859148025513, -0.42231467366218567, 0.3964065611362457, 0.18600960075855255, -0.5030829310417175, -0.26683878898620605, -0.25623422861099243], [1.0306683778762817, -1.314908504486084, 0.2742675244808197, 0.49858301877975464, 0.8814687132835388, 1.12314772605896, 2.3074839115142822, -0.0501042902469635, 1.8355742692947388, 0.682655394077301, 0.1970340460538864, 0.8407304286956787, -1.7265682220458984, 0.8453925848007202, -0.7422934770584106, 0.17903149127960205, 0.9288636445999146, 0.06625360995531082, 0.2275170385837555, -0.2575269043445587, -0.8291017413139343, 0.0113293481990695, -0.46154648065567017, -0.31898123025894165, 1.8167486190795898, 0.9365016222000122, 0.014243155717849731, -1.1469475030899048, -0.6311490535736084, 1.836134433746338, 1.3477354049682617, 0.5220786333084106], [-1.0605953931808472, -1.0312342643737793, 1.4630513191223145, -0.2969299256801605, 4.187628269195557, -0.510075032711029, -0.18483830988407135, -0.8472083806991577, 0.4062535762786865, -1.2298712730407715, 0.9530219435691833, 0.34647130966186523, -1.2254440784454346, -0.518096387386322, 2.2290778160095215, 0.524217963218689, 0.4121207892894745, -0.0009442312293685973, -0.24441972374916077, -0.19369129836559296, -0.7900021076202393, -0.06822087615728378, -0.3389889597892761, 0.4900529086589813, -0.630766749382019, 0.24610845744609833, -0.0809527263045311, -0.6174295544624329, 1.114356279373169, -0.8402969837188721, -0.08930907398462296, 0.38126125931739807], [5.257881164550781, -0.564083456993103, 0.41170734167099, -6.443648815155029, -5.282166004180908, 0.11174050718545914, 4.865988731384277, -1.083923101425171, 0.45319053530693054, -2.424283266067505, 5.203305244445801, -0.3362322151660919, -1.2410306930541992, -0.5157679319381714, 1.5960208177566528, -0.13210684061050415, -0.8935885429382324, 2.0858070850372314, 2.128469705581665, -0.6032522916793823, -0.7749679088592529, -1.2601697444915771, -2.190376043319702, 0.396233469247818, 3.2645645141601562, 1.24683678150177, -0.5120343565940857, -0.8148344159126282, 0.062029846012592316, 2.744835615158081, 1.6351909637451172, -0.09648489952087402], [-0.4575338363647461, 0.34770911931991577, -0.85845547914505, -0.8268970847129822, 1.0187022686004639, 0.6041585803031921, -0.7571166753768921, -0.1386907398700714, 1.35637366771698, -0.5754655599594116, -0.4040219187736511, 0.7011765241622925, -0.2830742597579956, 1.1938433647155762, 0.8328178524971008, 0.9639832973480225, 1.6686116456985474, 0.6052147150039673, -0.4538882374763489, -0.21048428118228912, -0.9047523736953735, -1.072642207145691, 3.053225517272949, 1.7101060152053833, 0.657658040523529, -2.0504190921783447, 0.9392231702804565, -1.2474299669265747, -1.0369036197662354, -0.650648832321167, 3.4436302185058594, -0.9730149507522583], [-0.734984278678894, 0.22852133214473724, -1.5581607818603516, 1.023893117904663, 1.5513968467712402, 1.4408774375915527, 0.04783542826771736, -1.1399993896484375, 0.8680935502052307, -1.1415618658065796, -1.8063942193984985, 0.3985431492328644, 0.6544409990310669, 0.9693313241004944, 1.0346311330795288, -0.03251662477850914, 0.3723374307155609, -1.7711830139160156, 0.1821381151676178, -1.039171814918518, 3.6216673851013184, -1.9270001649856567, -1.830989956855774, 0.1360677182674408, -0.15794673562049866, -0.30464035272598267, -0.5343219637870789, 0.6086276173591614, -1.0125435590744019, 1.6311132907867432, 1.4052294492721558, -0.2805952727794647], [0.4108544588088989, 1.204981803894043, 0.3092108368873596, 0.41096723079681396, 0.7956191301345825, 1.5138684511184692, 0.5535191297531128, 0.19319584965705872, 0.6786947250366211, -0.16662883758544922, -2.3479082584381104, 0.30380216240882874, -0.9906283020973206, 0.855167806148529, 0.7842914462089539, 0.9880191683769226, 0.4802262485027313, -0.013329797424376011, -0.2369736135005951, -2.2372448444366455, -0.0006006479379720986, -0.917413055896759, 1.0771894454956055, 0.23353564739227295, 1.5839354991912842, -0.4539282023906708, 0.48867103457450867, -2.0978972911834717, -1.1197564601898193, 2.0175461769104004, -0.2812701165676117, -0.6459391117095947], [-0.022704439237713814, -1.0317301750183105, 0.5076335668563843, 0.5768547654151917, -0.2616068720817566, 0.33009421825408936, -0.49723780155181885, 1.0080955028533936, -0.1494525521993637, 0.18570618331432343, 0.10685905069112778, -1.1069358587265015, 0.21397635340690613, -0.1648859977722168, -0.8823836445808411, -0.5954887866973877, 0.6634747982025146, -0.6402048468589783, 0.24506083130836487, 0.7598250508308411, 0.5503455400466919, 0.34904205799102783, -0.579785943031311, -0.3712819516658783, 0.3693692982196808, 0.25521379709243774, -0.7255088090896606, 0.1756470948457718, 0.17608872056007385, -0.296193927526474, -0.09594906121492386, -0.4369047284126282], [4.123768329620361, -1.3143216371536255, -1.0634783506393433, -2.1267614364624023, -0.2117704451084137, 1.0081123113632202, 6.274221897125244, 0.43208232522010803, 0.694948673248291, 0.1290048062801361, 5.740642070770264, -0.3330153524875641, 0.27537575364112854, -0.5339204668998718, 0.5882023572921753, 0.1769261509180069, -2.4923095703125, 2.1220173835754395, 2.0597434043884277, 0.886928379535675, -1.6537214517593384, 1.9026596546173096, -2.1071784496307373, -0.9371286034584045, 1.681238055229187, 6.139590740203857, 0.3139492869377136, -2.3967466354370117, 1.2033624649047852, -0.3663956820964813, -1.7768635749816895, 0.05979805067181587], [-0.5504966378211975, -0.36639106273651123, -0.2804957628250122, 1.895916223526001, -0.2937772870063782, 0.9027429223060608, -0.36463257670402527, -0.41607141494750977, 0.44667643308639526, -0.052445199340581894, -0.029751446098089218, -0.9426153898239136, 1.2939187288284302, -0.5626152157783508, -0.30114203691482544, -0.31673339009284973, -0.2377050369977951, -0.9565511345863342, 0.6983774304389954, 0.4106338322162628, 0.25783511996269226, 0.06418424099683762, -0.6960450410842896, -0.7409674525260925, -0.003613704349845648, 0.012286308221518993, -0.09007974714040756, 0.5254475474357605, 0.5190988779067993, -1.0664242506027222, 0.4120047390460968, 0.9149377942085266], [-0.27092650532722473, -0.119242362678051, 0.05000840872526169, -0.06652748584747314, 0.5038519501686096, -0.4934123158454895, -0.27365949749946594, 0.10144862532615662, -0.1936851143836975, -0.0065139406360685825, 0.1511675864458084, -0.03413695842027664, -0.12013458460569382, 0.36265769600868225, -0.7729491591453552, 0.14339160919189453, -0.15542635321617126, 0.06552231311798096, -0.5034003257751465, -0.2322920262813568, -0.28374847769737244, 0.3774486780166626, 0.0688173696398735, -0.3192162811756134, -0.3758937120437622, -0.2136707454919815, 0.114591583609581, 0.13739152252674103, 0.4571394622325897, -0.6383201479911804, -0.40740251541137695, 0.25575241446495056], [-0.060036398470401764, -0.24874891340732574, 0.30669376254081726, 0.2443384975194931, -0.00032805136288516223, 0.17230845987796783, 0.07893118262290955, 0.4197179079055786, -0.16794833540916443, 0.166493758559227, -0.029867419973015785, -0.08447740226984024, -0.40594980120658875, -0.3626781105995178, -0.13869225978851318, -0.5298082232475281, 0.42502620816230774, -0.23344381153583527, -0.19690082967281342, 0.4255877435207367, 0.540527880191803, 0.3559790551662445, 0.23518218100070953, -0.38014283776283264, -0.31554025411605835, 0.5435503721237183, -0.5271826386451721, -0.06976006180047989, -0.3116437792778015, -0.24126073718070984, -0.13494302332401276, -0.17041698098182678], [-0.22611011564731598, 0.13624335825443268, 0.4909714162349701, 0.9278522729873657, -0.4536091685295105, 0.3818190097808838, -0.21383976936340332, 0.09217600524425507, -0.35031813383102417, -0.019763963297009468, 0.1652834564447403, -0.5323079824447632, -0.0446341373026371, -0.5829960107803345, -0.45929354429244995, -0.41022545099258423, 0.251438707113266, -0.24396654963493347, 0.10265282541513443, 0.39799967408180237, 0.23292459547519684, 0.21354888379573822, 0.06848622858524323, -0.43856602907180786, 0.22502358257770538, 0.5733030438423157, -0.29934433102607727, 0.4501621723175049, -0.2034771889448166, -0.15757617354393005, -0.11018714308738708, -0.32672417163848877], [2.250103712081909, 2.2346723079681396, -1.439911127090454, -1.2732014656066895, -0.08956295251846313, -0.9541817307472229, -0.29001396894454956, -1.6124789714813232, 0.8344576358795166, 0.36615779995918274, -1.311551809310913, 1.0717778205871582, -5.050329685211182, 1.6171457767486572, 4.002907752990723, 1.5129646062850952, -0.5617191791534424, -0.8112834692001343, -0.2929753363132477, 0.1656530350446701, -0.513268232345581, -0.5487262606620789, 3.055413246154785, 1.3846478462219238, -1.8323287963867188, 0.5806636810302734, 1.7647452354431152, -2.3727915287017822, -1.3001972436904907, 0.6433292031288147, -0.6002592444419861, 0.9695698618888855], [0.13231240212917328, 0.7558416724205017, 0.3226976990699768, 0.6754854321479797, 0.1614038646221161, 0.5443781614303589, 0.04667416587471962, 1.0589532852172852, 0.119088314473629, 0.35470181703567505, 0.9943514466285706, 0.1682155579328537, -0.4084409177303314, 0.669578492641449, -0.6718351244926453, -0.08920373767614365, -0.0458548478782177, -0.2899254560470581, 0.0027304994873702526, 0.47038158774375916, 0.00991909485310316, 0.29321494698524475, -1.2535696029663086, -0.2611038386821747, 0.4381376802921295, 0.5365277528762817, 0.1419191062450409, -0.18938885629177094, 1.0616168975830078, -0.49375367164611816, -0.15339580178260803, -1.508235216140747], [-0.3139050006866455, -0.7328641414642334, -0.031104061752557755, 0.6437819004058838, 0.13863728940486908, 0.16546155512332916, -0.07920576632022858, 0.4643533527851105, -0.6614008545875549, 0.04588881880044937, -0.3857291042804718, -0.3122638463973999, 1.0742466449737549, -1.2752786874771118, -0.43415480852127075, -0.7063294053077698, 0.6916418075561523, -0.5216692686080933, -0.15974389016628265, 0.5492009520530701, 0.2989571988582611, 0.8299114108085632, 0.02132485620677471, -0.7830500602722168, -0.09760639816522598, 0.7598564028739929, -0.9800968170166016, 0.325734406709671, 0.6409778594970703, -0.6875325441360474, 0.06641539186239243, -0.5725244879722595], [0.45695793628692627, 2.1868019104003906, -0.509625256061554, -2.305216073989868, -0.9040080904960632, -1.3672809600830078, 0.12766604125499725, -1.0270907878875732, 1.5848588943481445, -0.15938323736190796, 1.0327012538909912, 0.501710057258606, -1.0037448406219482, 1.0677088499069214, 2.499711036682129, 1.4410382509231567, -0.7796400785446167, 0.9424914121627808, -1.1163889169692993, -1.5156875848770142, -0.15569935739040375, -0.5934081077575684, -0.9211411476135254, 1.091326355934143, -0.17325130105018616, -1.4471720457077026, -2.0558948516845703, 0.8782024383544922, 2.1923024654388428, 1.7569557428359985, 0.7497020959854126, 0.33223992586135864], [-0.1507462114095688, -0.466022253036499, 0.08845311403274536, 0.8136491179466248, -0.09080725908279419, 0.35983407497406006, -0.2774536907672882, 0.24953167140483856, -0.30753371119499207, 0.008647952228784561, 0.06029424071311951, 0.0002724258229136467, 0.4542211592197418, -0.5894494652748108, -0.47420111298561096, -0.24752038717269897, 0.35808247327804565, -0.2674598693847656, -0.10344849526882172, 0.4323420524597168, 0.5610876679420471, 0.42062774300575256, -0.1137295663356781, -0.37119147181510925, 0.03790009766817093, 0.35015544295310974, -0.43800872564315796, 0.37780657410621643, 0.17453958094120026, -0.0699797198176384, -0.17350886762142181, -0.18176200985908508], [0.28175580501556396, -0.2587135136127472, -0.10199931263923645, -0.4884795844554901, 0.6546156406402588, 0.6438943147659302, -0.2296733260154724, 0.5819125175476074, -0.4048522114753723, -0.2616746127605438, -1.1643685102462769, 1.9251331090927124, -0.45767444372177124, 0.5054652690887451, 1.053444743156433, -0.07034014910459518, 0.4693387746810913, 0.2616758346557617, -0.2295476794242859, -0.6290425658226013, -1.3322832584381104, 0.5059853196144104, 1.5938886404037476, -0.07723912596702576, -0.4215220808982849, -0.46216779947280884, -0.19181221723556519, -1.2030071020126343, -0.47965189814567566, -0.3553893566131592, 0.968858003616333, 0.07956424355506897], [2.217996835708618, 2.774667978286743, -1.3722658157348633, -0.45763635635375977, -0.590592622756958, -0.4794570207595825, -0.20680689811706543, -1.640397548675537, 0.6995353698730469, 0.3053155541419983, -0.7203329205513, -0.4221741557121277, -2.3089709281921387, 1.2009731531143188, -1.9879295825958252, 0.46672895550727844, -1.065343976020813, 1.4908534288406372, -2.5741660594940186, -2.4378254413604736, 0.709441065788269, -0.1738302856683731, 0.05030500888824463, 0.6208449602127075, 0.13666217029094696, -0.3066563606262207, 0.15319931507110596, -0.45568645000457764, -2.300121307373047, 0.06266740709543228, -1.0610588788986206, 0.717140257358551], [2.1139471530914307, 0.353469580411911, 0.1727706491947174, 0.2623211741447449, -0.4031137228012085, 0.3227817714214325, 1.1488081216812134, 0.5732843279838562, 0.2353813797235489, -0.10583031177520752, 1.008087158203125, -0.03163789585232735, 1.9354299306869507, 0.7102220058441162, 0.3766738772392273, 0.6062167286872864, -0.6990691423416138, 0.05981079488992691, 0.9503351449966431, 0.10664284974336624, 0.2902190387248993, 0.033622242510318756, -0.8041733503341675, 0.3269382119178772, 0.654718816280365, -0.12549690902233124, 0.7193145155906677, -1.2959434986114502, -1.6474794149398804, 0.7675843834877014, -1.5324411392211914, 0.25111153721809387], [-1.2941514253616333, -0.586467981338501, 3.0148651599884033, 0.9277302622795105, 4.446756839752197, -0.02007337473332882, 4.471429824829102, -3.149820566177368, -0.5064309239387512, 4.725107192993164, -1.938961148262024, -1.406085729598999, -0.3731413185596466, 1.7621744871139526, 0.6800643801689148, 1.47956120967865, -2.141261100769043, 2.5031728744506836, 0.7282644510269165, 0.2910721004009247, -3.4296529293060303, -0.46922194957733154, 2.522754430770874, 0.13867542147636414, 3.344978094100952, 3.7839279174804688, -1.9704455137252808, -3.041147470474243, -3.0241386890411377, 3.4420337677001953, -3.5502960681915283, 1.4008055925369263], [0.14576341211795807, -1.3319011926651, 0.39116302132606506, -1.485256314277649, 1.5135016441345215, 0.8840806484222412, 2.082625150680542, -0.01760132797062397, 0.3200894892215729, 0.3691549301147461, 2.4711248874664307, 1.0297623872756958, -0.9464316368103027, -0.45125454664230347, -0.028965793550014496, -0.005614340305328369, 0.19641341269016266, 0.4733075499534607, 0.5327799320220947, 0.5247873067855835, -1.6433976888656616, 0.17024187743663788, 0.9851601719856262, -0.07404101639986038, 0.4772438704967499, 0.4340062439441681, 0.6820510625839233, -1.6264687776565552, -0.8537185788154602, 0.9205859899520874, 2.0668225288391113, -1.2645972967147827], [1.1637576818466187, 1.2789323329925537, 1.3009419441223145, -0.5876108407974243, 0.386586457490921, 1.383905291557312, 1.2514028549194336, -0.24918736517429352, 0.6396413445472717, 1.024194598197937, 2.1926350593566895, 1.080315113067627, 0.9429236054420471, 2.5132291316986084, 2.345126152038574, 2.2467963695526123, -0.8539631366729736, 4.183014392852783, -1.333589792251587, -1.7251825332641602, -0.2512848377227783, -0.9405971169471741, 1.3944876194000244, 1.916218638420105, -1.1801352500915527, 0.46192529797554016, 3.188782215118408, -3.5604264736175537, 0.6857254505157471, 1.2646009922027588, -0.5938698649406433, 0.920834481716156], [1.7835420370101929, -0.5957497358322144, -0.5979052782058716, -1.946199893951416, 1.211655855178833, 2.0583817958831787, 1.7070136070251465, -1.2910810708999634, 1.4585875272750854, 0.45297327637672424, 0.3262421488761902, -0.4587157070636749, 1.1603913307189941, 0.9151793122291565, 1.4487649202346802, 1.5154955387115479, -0.39544832706451416, 2.2809555530548096, 1.9577867984771729, -0.21558241546154022, 0.9404504299163818, -0.5097814798355103, -0.07848595827817917, 0.3997933268547058, -0.32925957441329956, -1.0653159618377686, 0.683537483215332, -2.3310115337371826, -1.1112829446792603, 3.0612263679504395, -0.7342402935028076, 0.9420992136001587], [1.7514489889144897, 2.373478412628174, 0.34464991092681885, -1.822078824043274, -1.5556689500808716, -2.1045265197753906, 1.3832192420959473, 0.023973720148205757, 0.46560755372047424, -1.7510437965393066, -1.5474903583526611, -0.13015538454055786, 0.48157691955566406, 1.2453210353851318, 0.19882731139659882, 0.9219543933868408, 0.10209286957979202, 1.3472518920898438, 0.2873377203941345, 1.1883306503295898, -0.643710732460022, -0.7788947820663452, -0.04287620261311531, 0.9350681900978088, 1.5843275785446167, -3.4802651405334473, -0.5725751519203186, -0.20366637408733368, 1.2810606956481934, 2.4388482570648193, -0.745180070400238, 1.4193276166915894], [1.3792203664779663, 2.4689271450042725, 0.881430983543396, -0.6500864624977112, -0.2647700607776642, 1.3342162370681763, 0.03983902931213379, -0.15942488610744476, 0.297681987285614, 2.1100704669952393, 3.504526138305664, 0.15043434500694275, -0.5961752533912659, 0.7991305589675903, 2.139166831970215, 1.121399998664856, -0.7120383381843567, 2.4158775806427, -0.9842975735664368, -1.5273858308792114, -0.28047385811805725, -1.1216449737548828, 1.792582631111145, 1.8588579893112183, -1.070899486541748, -0.1875983327627182, 2.296229362487793, -2.1589934825897217, -1.2585008144378662, 0.8312789797782898, -1.1130385398864746, 1.1291061639785767], [-0.2738855481147766, -0.8414883613586426, 0.3532940447330475, 0.3280085027217865, -0.27611419558525085, 0.08637923002243042, -0.30548447370529175, 0.16004250943660736, -0.26126977801322937, 0.01881515607237816, 0.10551725327968597, -0.45114442706108093, 0.1369839459657669, -0.47804707288742065, -0.8048849701881409, -0.4052993357181549, 0.3490382134914398, -0.43625062704086304, -0.07597219944000244, 0.24400129914283752, 0.39825212955474854, 0.10768213123083115, -0.042113494127988815, -0.5197832584381104, -0.21862952411174774, 0.28626957535743713, -0.3038967251777649, 0.4439651370048523, 0.7516404390335083, -0.5251343846321106, -0.007036995142698288, -0.2736830413341522], [0.11717669665813446, -0.7139632701873779, -0.5916531085968018, -0.12309744209051132, -2.1742749214172363, 0.5953803658485413, 2.229393482208252, -0.48117220401763916, 0.8665961623191833, 0.5486788749694824, 0.31352564692497253, 0.47432228922843933, -0.47295135259628296, 0.35982656478881836, 0.05443399026989937, 1.054282307624817, -1.0701347589492798, 0.38083961606025696, 1.0575590133666992, 0.16654804348945618, 1.0979894399642944, 0.4739551544189453, 0.29288190603256226, -0.3339659869670868, 0.29686203598976135, 1.0510064363479614, -0.7804646492004395, 0.08377662301063538, -0.6054567098617554, 1.0153608322143555, -0.9485918879508972, 0.9558902978897095], [-0.16868355870246887, 1.5817735195159912, -2.1396327018737793, -0.5846643447875977, 1.4232689142227173, 0.23332281410694122, 0.5131781697273254, -0.4097757637500763, 1.510261058807373, 0.18428927659988403, -2.0779833793640137, -0.46790269017219543, 0.24841220676898956, 1.1572299003601074, 0.05977240577340126, 0.018037935718894005, 0.25571176409721375, 0.62435382604599, -1.0758165121078491, -3.736358165740967, 1.8748838901519775, -1.1237224340438843, 0.18277068436145782, 0.7388491034507751, 2.0379066467285156, -0.9582193493843079, 0.085533007979393, 0.15992124378681183, -1.0671159029006958, 2.5368824005126953, -1.7374765872955322, -0.17733286321163177], [-0.0916948914527893, 0.11186230927705765, 0.5188417434692383, 0.49529582262039185, -0.2021898478269577, -0.13035905361175537, -0.020774615928530693, 0.25141388177871704, -0.26284685730934143, -0.02999812550842762, 0.040771204978227615, -0.42571014165878296, 0.2588757276535034, -0.20943500101566315, -0.4168185591697693, -0.3982846736907959, 0.22126108407974243, -0.23242761194705963, -0.10498432070016861, 0.057838380336761475, 0.29704082012176514, 0.44980520009994507, 0.05599159747362137, -0.6909394860267639, 0.012775104492902756, 0.3954751789569855, -0.24690359830856323, 0.48313283920288086, 0.4831392765045166, -0.2583233416080475, -0.029544731602072716, -0.33225253224372864], [0.39943206310272217, 0.8763599395751953, 1.5149548053741455, -0.2079887092113495, -0.6841778755187988, 12.558624267578125, 0.2599533200263977, 3.304208993911743, 0.007435294333845377, 1.0564910173416138, 0.46008145809173584, -0.9170981049537659, -1.134329080581665, -0.308440625667572, 0.2598300576210022, -0.4076555371284485, -0.26429247856140137, 0.6388068795204163, 0.18884322047233582, -3.8700246810913086, 0.6590396165847778, 0.40481239557266235, 0.8240896463394165, -0.2133578509092331, -1.7005600929260254, 1.4156608581542969, 1.3729944229125977, -1.9563087224960327, -0.08321955054998398, -0.7099469304084778, -6.45200252532959, 0.0823163241147995], [-0.05449013411998749, 0.8484830260276794, 0.0531017892062664, 0.20665335655212402, 0.10854146629571915, -0.6856634020805359, 0.02376915141940117, -0.051474910229444504, -0.1292642503976822, 0.009628436528146267, -0.013202086091041565, 0.3086419701576233, -0.37122946977615356, 0.0025348449125885963, 0.05620095878839493, 0.0016075464664027095, -0.22633406519889832, -0.04231305420398712, -0.296467661857605, 0.5388039350509644, -0.028649691492319107, -0.10796448588371277, -0.02324768342077732, -0.1111007109284401, -0.10709457844495773, -0.06567099690437317, -0.038529589772224426, -0.15951965749263763, 0.2961990237236023, 0.09638135135173798, 0.3460671007633209, 0.2409626692533493], [0.03665509819984436, 0.5512062311172485, 0.23669545352458954, 0.4765050411224365, -0.05715031176805496, -0.15201161801815033, 0.09818238765001297, -0.37425941228866577, -0.10664093494415283, 0.019975652918219566, -0.21614627540111542, 0.19230346381664276, 0.46381327509880066, -0.2791406512260437, -0.2144259214401245, -0.31011271476745605, -0.09672039747238159, 0.0349244624376297, 0.63127201795578, 0.2605489492416382, -0.08795624226331711, -0.2478751689195633, 0.2544814944267273, -0.10865644365549088, 0.17827919125556946, -0.06685323268175125, 0.010240028612315655, -0.30841171741485596, 0.23558367788791656, -0.04222042113542557, -0.2555723190307617, 0.02941720001399517], [0.17095498740673065, 0.719927966594696, 0.2513740658760071, 0.04390622302889824, -0.1673438847064972, -0.3513046205043793, 0.30843278765678406, 0.07344068586826324, 0.07660789787769318, 0.1235247403383255, -0.04647780954837799, -0.07248088717460632, 0.36323282122612, 0.06797486543655396, -0.1809440702199936, -0.22497224807739258, -0.07962477207183838, 0.13104242086410522, -0.1036011353135109, -0.07143599539995193, -0.21928170323371887, -0.20103032886981964, 0.049998119473457336, 0.18774569034576416, 0.6353685259819031, -0.3013986051082611, 0.2745577394962311, 0.08810503035783768, -0.21063464879989624, -0.2109753042459488, -0.19816194474697113, -0.10628873109817505], [-0.4831910729408264, -0.8220898509025574, 0.16285187005996704, 0.34082821011543274, 0.19031821191310883, -0.17345266044139862, 0.10909280180931091, -0.03022756427526474, -0.03447394073009491, -0.002413835609331727, 0.48567333817481995, -0.31080418825149536, -0.9822877645492554, 0.056976187974214554, -0.21932746469974518, 0.16241176426410675, -0.19702716171741486, 0.3815014660358429, 0.2504235804080963, 0.37052035331726074, -0.25139009952545166, 0.3749198317527771, 0.5542437434196472, -0.1471147984266281, 0.4932445287704468, -0.04992008954286575, -0.35250499844551086, 0.5819829106330872, 0.17402251064777374, 0.20376121997833252, 0.2672325372695923, 0.48906078934669495], [-0.09607398509979248, 2.5372869968414307, 0.4203890562057495, 0.11094951629638672, 0.31670212745666504, 0.4740748107433319, -0.030846768990159035, 0.6623205542564392, 0.1951935887336731, 0.006467658095061779, -0.058615799993276596, 0.0674685537815094, -0.5234177708625793, -0.8465825915336609, 0.14475277066230774, -0.49741432070732117, -0.19170120358467102, 0.07409356534481049, 1.7745991945266724, 0.6855967044830322, -0.14084023237228394, 0.06422030180692673, -0.05072729289531708, -0.49561619758605957, -1.999313235282898, -0.27063387632369995, 0.1244867816567421, -0.998779833316803, -1.2754491567611694, 0.06591719388961792, 0.09773912280797958, -2.3526015281677246], [-0.2715188264846802, -0.005131351295858622, -0.37389659881591797, 0.13707132637500763, 0.32742562890052795, -0.03387180715799332, -0.0766196921467781, -0.4156896770000458, -0.15650376677513123, -0.1568644493818283, -0.04705420508980751, -0.04986441880464554, 0.5185551643371582, 0.07937318086624146, -0.5837401151657104, -0.03176383674144745, 0.04104722663760185, 0.207595556974411, -0.14524874091148376, -0.3684369623661041, 0.4669833183288574, 0.2253451943397522, -0.2890673279762268, -0.33506736159324646, 0.29728755354881287, -0.25308337807655334, -0.3468558192253113, -0.08566435426473618, 0.43188416957855225, 0.40549764037132263, 0.07236690819263458, -0.15549308061599731], [0.03198665380477905, 0.8400840163230896, -0.05618572607636452, -0.08434588462114334, -0.24417731165885925, 0.24640455842018127, 0.07488373667001724, 0.1840004324913025, 0.10185684263706207, -0.023552441969513893, 0.09874649345874786, -0.12941612303256989, 0.06253824383020401, 0.108965203166008, -0.3470907211303711, -0.09591886401176453, -0.23818551003932953, 0.020571056753396988, 0.9517033696174622, 0.19585493206977844, 0.01074311789125204, -0.059841688722372055, -0.05712781473994255, -0.06146015599370003, -0.21023131906986237, -0.06960933655500412, 0.030734632164239883, 0.10102932900190353, -0.6610783338546753, 0.1262771338224411, 0.4966587424278259, -1.2720744609832764], [-0.011284795589745045, 0.17809002101421356, -0.3584214448928833, 0.16029159724712372, -0.2375800758600235, -0.7545360922813416, 0.23110854625701904, -0.28468450903892517, 1.1421154737472534, -0.13786925375461578, 0.33347657322883606, -0.1742015779018402, -1.1362025737762451, 0.014286532066762447, -0.22565606236457825, 0.048714783042669296, 0.0048867324367165565, 0.09054914116859436, -0.3895029127597809, 0.19935208559036255, -0.20285001397132874, 0.08114060014486313, 0.2974952161312103, 0.15385493636131287, 0.3192957937717438, 0.03559114411473274, 0.07956678420305252, -0.142111673951149, -0.9271690845489502, 0.39842429757118225, -0.1914699822664261, -0.4456266164779663], [1.685789704322815, 1.0678136348724365, 0.46815332770347595, 1.864909291267395, 0.508978009223938, -0.20031137764453888, 1.484464168548584, -0.47434520721435547, 0.4767540395259857, 0.4695511758327484, -1.4634774923324585, -0.556577742099762, 1.175224781036377, 0.432005375623703, 2.218508005142212, 0.0648634061217308, 0.368727445602417, 0.19755902886390686, 0.26482251286506653, -1.3900067806243896, -1.3583807945251465, -0.6229828000068665, -1.1654808521270752, 0.18926779925823212, 1.1547554731369019, -1.9033701419830322, 0.2989407777786255, 0.5159127116203308, 0.05442270264029503, -0.5082852840423584, 1.8669757843017578, -0.5551409721374512], [-0.3517214357852936, 0.5508373975753784, -0.14079827070236206, 0.9741781949996948, 0.051879968494176865, -0.07857741415500641, -0.22836987674236298, -0.44400936365127563, -0.32128599286079407, -0.0875631719827652, 0.9901357293128967, -0.36060473322868347, 0.23322410881519318, 0.11382842063903809, 0.05512417107820511, 0.06517737358808517, 0.29707977175712585, -0.060938842594623566, 0.5506222248077393, 0.007372603751718998, -0.2048787772655487, 0.1256147027015686, 0.07044578343629837, 0.026660827919840813, 0.37024375796318054, -0.37738126516342163, -0.196237713098526, 0.03216138482093811, -1.2834991216659546, -0.16071440279483795, 0.4152107834815979, 0.062322188168764114], [-0.009421821683645248, -0.06884928047657013, 0.29791688919067383, -0.1251455843448639, -0.015948113054037094, -0.43392977118492126, -0.07752398401498795, -0.19925013184547424, -0.04859714210033417, -0.05050315707921982, -0.13364537060260773, 0.2692703604698181, 0.6406545042991638, 0.27345988154411316, -0.3021091818809509, 0.12171084433794022, -0.058093808591365814, -0.07517039775848389, 0.11052362620830536, 0.12766265869140625, -0.00755744194611907, 0.08716394007205963, -0.09849776327610016, 0.09739214181900024, 0.5709288716316223, 0.0014422732638195157, 0.029187729582190514, 0.24514923989772797, 1.0111750364303589, -0.03362082690000534, 0.12474630773067474, 0.06159868463873863], [-0.03115479275584221, -0.47226274013519287, 0.3512859642505646, -0.13495127856731415, 0.03724527731537819, 0.44034111499786377, 0.24037960171699524, 0.4329985976219177, -0.12101545184850693, 0.006761728320270777, -0.12058647722005844, 0.4553709924221039, 0.6374972462654114, 0.3211990296840668, -0.04509490355849266, 0.05306974798440933, 0.3843759000301361, 0.013574250042438507, 0.026337694376707077, 0.1833476573228836, 0.11430583894252777, 0.10180823504924774, 0.12432410567998886, 0.054881881922483444, -0.2229442298412323, 0.09749972075223923, 0.1340709775686264, -0.4462535083293915, 0.9721012115478516, 0.15375284850597382, -0.13303525745868683, -0.7063916325569153], [0.2208237200975418, -0.4572918117046356, -0.005333087872713804, -0.056754034012556076, -0.14378322660923004, 0.201998770236969, -0.0022993250750005245, 0.19964706897735596, -0.3472212851047516, -0.06284286081790924, -0.23498381674289703, 0.20991002023220062, 0.4396544098854065, 0.49766600131988525, 0.1728765368461609, 0.3443412482738495, 0.2769080400466919, 0.30195075273513794, -0.23542273044586182, -0.13515791296958923, 0.12384448200464249, -0.10117287933826447, -0.0716499537229538, 0.13257800042629242, 0.17735593020915985, 0.26304513216018677, 0.12568289041519165, 0.05661208555102348, 0.0820324569940567, -0.021174488589167595, -0.06419411301612854, -0.603148877620697], [0.009601118974387646, 0.6646093130111694, -0.35662007331848145, 0.5158790349960327, 0.028692232444882393, -0.0401502326130867, -0.37395334243774414, -0.4540145695209503, -0.17487668991088867, -0.06777454912662506, -0.16021938621997833, -0.604207456111908, 0.22579120099544525, -0.403086394071579, 0.5434798002243042, -0.004692994989454746, 0.2659124732017517, 0.14283066987991333, 0.3398635983467102, -0.009533817879855633, 0.08639068156480789, -0.22910940647125244, -0.11666198819875717, 0.2212066352367401, 0.2056252807378769, -0.033575598150491714, -0.3398422300815582, 0.32851338386535645, -0.19017921388149261, -0.387307733297348, -0.2999379336833954, -0.8318153619766235], [0.12456735223531723, -0.28686484694480896, -0.015132375992834568, -0.0814530998468399, 0.038092002272605896, 0.22396555542945862, 0.15593980252742767, 0.002914780518040061, -0.48576265573501587, -1.7522346752230078e-05, 0.07931598275899887, 0.09751705080270767, 0.2645864188671112, 0.7495028972625732, 1.928284837049432e-05, 0.2577817440032959, 0.19915030896663666, 0.15301398932933807, 0.3620453178882599, 0.026097623631358147, -0.04314698651432991, -0.0075517334043979645, -0.17487256228923798, 0.20318329334259033, 0.05780085548758507, 0.0747213065624237, 0.3674722909927368, -0.2045668214559555, -0.44872990250587463, -0.08364693820476532, -0.010001534596085548, 0.30150023102760315], [0.08220614492893219, 0.1568038910627365, 0.4195009768009186, -0.2733410596847534, -0.10450764000415802, 0.4247497022151947, -0.10944628715515137, -0.011139696463942528, 0.25584766268730164, 0.044013917446136475, -0.11959565430879593, 0.49387550354003906, 0.5995159149169922, 0.07842117547988892, -0.08225124329328537, 0.06175750121474266, 1.0430471897125244, 0.09518366307020187, -0.11852104961872101, -0.1645410805940628, 0.13803456723690033, -0.11240781098604202, -0.13635867834091187, -0.049169737845659256, 0.16733615100383759, -0.11522137373685837, 0.14949488639831543, 0.24750547111034393, 0.28718048334121704, 0.2033838927745819, -0.8384080529212952, 0.10937488079071045], [0.07042399048805237, -0.1339247077703476, 0.1822250336408615, -0.15708933770656586, -0.01956317201256752, -0.011849196627736092, 0.20716896653175354, 0.3313443958759308, 0.07927408814430237, 0.05552127957344055, 0.0573107972741127, -0.01175257284194231, -0.19784584641456604, -0.17751984298229218, -0.22935467958450317, -0.19242466986179352, -0.04886173829436302, 0.040939800441265106, 0.6890431642532349, -0.33947452902793884, 0.279981791973114, 0.24396823346614838, 0.09815289825201035, 0.04211464896798134, -0.3133028745651245, 0.2313288301229477, -0.11406209319829941, -0.21079161763191223, 0.413402795791626, 0.1738036572933197, -0.377898246049881, -0.5793094635009766], [-0.02264474146068096, 0.8049655556678772, -0.16042789816856384, 0.3271985650062561, 0.051406338810920715, -0.4527726471424103, 0.17938928306102753, -0.2367699146270752, 0.46613532304763794, 0.05780830234289169, -0.06830011308193207, 0.18721066415309906, -0.2425936460494995, -0.37072476744651794, -0.009270571172237396, -0.17638377845287323, 0.0039205653592944145, -0.01661648601293564, 0.4493557810783386, -0.18977780640125275, -0.3659868538379669, 0.022674228996038437, 0.024269143119454384, 0.029213663190603256, -0.3732476532459259, -0.02108737826347351, -0.38800594210624695, 0.21859215199947357, 0.048925768584012985, 0.0909729078412056, 0.045553214848041534, -0.5272226333618164], [0.14844346046447754, 0.16844972968101501, -0.7686458230018616, -0.6107282638549805, -0.06216248497366905, -1.7109979391098022, -0.15593118965625763, -1.6760231256484985, 0.321618914604187, 0.10408808290958405, -0.008831911720335484, 0.37138527631759644, -0.2775094509124756, 0.2812294363975525, -0.2399473786354065, 0.3376460671424866, -0.2998582422733307, -0.05818334221839905, 0.1942257434129715, -1.9448758363723755, -0.020252369344234467, 0.04256485030055046, 0.12305576354265213, 0.05561431497335434, 2.1622819900512695, 0.6371229887008667, -0.3428756594657898, 1.1878371238708496, -0.15421326458454132, 0.00918968953192234, -0.018100420013070107, -0.09643243253231049], [-0.07606474310159683, -0.4521152675151825, 0.21900741755962372, -0.46451374888420105, 0.0359790176153183, 0.8093944787979126, -0.23007427155971527, 0.18453174829483032, -0.008162310346961021, -0.11516135931015015, 0.5369142293930054, 0.03300749883055687, -0.15235552191734314, -0.01169952005147934, 0.23729510605335236, -0.026426177471876144, -0.11622437089681625, 0.04014904424548149, 0.31407296657562256, 0.029727967455983162, 0.1456327736377716, 0.061461448669433594, -0.14705030620098114, 0.07164140045642853, -0.2945849597454071, -0.20329070091247559, 0.047238778322935104, -0.2989729642868042, 0.24824853241443634, -0.30917415022850037, -0.3216154873371124, 0.27128344774246216], [0.18251867592334747, -0.6774646043777466, -0.03727599233388901, 0.10572251677513123, -0.32243475317955017, 0.4559498131275177, -0.07284964621067047, 0.12985333800315857, -0.35486727952957153, 0.13114199042320251, 0.07411947846412659, -0.5545041561126709, -0.4239567518234253, -0.29183506965637207, 0.028905557468533516, 0.02267828769981861, 0.12135986238718033, -0.14643661677837372, -0.2730352282524109, 0.023084772750735283, 0.3327827751636505, 0.1487623006105423, 0.058403994888067245, -0.22793692350387573, -0.07882808893918991, 0.3713870346546173, -0.11087477207183838, -0.14389297366142273, -0.09677339345216751, -0.09404770284891129, -0.003216222394257784, 0.5986587405204773], [0.26793593168258667, -0.7893765568733215, 0.26658791303634644, -0.11685089021921158, -0.34011146426200867, -0.24848316609859467, -0.06881814450025558, 0.5695314407348633, 0.004104038700461388, 0.27109915018081665, 1.2459081411361694, -0.1364356279373169, -0.8480191230773926, -0.7422193288803101, -0.2977566719055176, 0.06143747642636299, -0.11006112396717072, -0.13402368128299713, 0.2980969548225403, -0.008373167365789413, -0.0058989631943404675, 0.3516830503940582, -0.10378964990377426, 0.32006964087486267, -0.19980774819850922, -0.07099155336618423, 0.562992513179779, -0.2787173390388489, 0.31331199407577515, -0.06990034133195877, 0.0653500109910965, -0.128501757979393], [0.13533759117126465, -0.12618373334407806, 0.4817138910293579, 0.41389167308807373, -0.18917888402938843, 0.597491443157196, 0.038908060640096664, 0.14417628943920135, 0.06243457645177841, -0.14119262993335724, -0.1854841262102127, 0.1178579181432724, 0.5320730805397034, 0.15365703403949738, 0.13915982842445374, 0.39284107089042664, 0.08655287325382233, 0.15693628787994385, -0.04651302471756935, 0.1276177316904068, 0.2621539533138275, -0.19982166588306427, 0.11132874339818954, 0.0312254149466753, -0.8415697813034058, -0.11295308917760849, 0.409666508436203, -0.5385296940803528, 0.39863094687461853, 0.12377012521028519, -0.14909343421459198, -0.32058313488960266], [-0.011610548011958599, -1.106884241104126, 0.06676844507455826, 0.07632650434970856, 0.12613636255264282, 0.15616057813167572, 0.04553729295730591, 0.23936672508716583, -0.2943766713142395, 0.024899456650018692, -0.09912005811929703, -0.43548113107681274, 0.3041055202484131, 0.4625707268714905, 0.027513638138771057, 0.3130122423171997, 0.08335286378860474, 0.06947482377290726, -0.9757134914398193, 0.2441231906414032, -0.09350491315126419, -0.013713326305150986, 0.008470043540000916, -0.06726228445768356, -0.4153577387332916, -0.11394737660884857, -0.04428006336092949, -0.3430634140968323, 0.5831887722015381, 0.10115266591310501, 0.020740386098623276, 0.8204346895217896], [-0.16341784596443176, -0.7522388100624084, -0.043135084211826324, -0.23782707750797272, 0.10985545068979263, 0.6923739910125732, 0.1499905288219452, 0.6117070913314819, 0.0052645825780928135, -0.07693813741207123, 0.20470194518566132, -0.04880927503108978, -0.923102617263794, 0.0011388566344976425, 0.07167378067970276, -0.07743442803621292, -0.0820019394159317, 0.09434377402067184, -0.16006040573120117, 1.0638930797576904, -0.378652423620224, 0.19385568797588348, 0.14579376578330994, -0.29758501052856445, -1.1377642154693604, -0.28910166025161743, 0.4246177077293396, -0.8025110363960266, 0.06842552125453949, 0.018479375168681145, -0.033896565437316895, 0.43119072914123535], [-0.08906186372041702, 0.23824715614318848, 0.2297147959470749, -0.20721986889839172, -0.027126936241984367, 0.11215752363204956, 0.27446407079696655, 0.03592890128493309, -0.0662836953997612, 0.3097367584705353, -0.4402712285518646, 0.2675801217556, 0.15086475014686584, 0.04916471615433693, -0.4078926146030426, 0.014732406474649906, 0.44067251682281494, 0.4514284133911133, 0.09466826915740967, -0.46953579783439636, -0.23268604278564453, 0.12593768537044525, 0.378587543964386, -0.0017362377839162946, -0.5316162109375, 0.16882072389125824, 0.2977743148803711, -0.2772444188594818, -0.47279393672943115, 0.36384493112564087, -0.07474914938211441, -0.9133951663970947], [-0.020859425887465477, -1.3345006704330444, 0.18511243164539337, -0.04836226999759674, -0.08832904696464539, 0.35112977027893066, -0.16637714207172394, 0.4944888949394226, -0.08667177706956863, 0.035123441368341446, -0.3445049226284027, -0.3242318332195282, 1.0501253604888916, 0.4953122138977051, 0.2556056082248688, 0.05775981396436691, 0.031694985926151276, -0.34356316924095154, -0.9643235802650452, -0.49534788727760315, 0.39057424664497375, 0.13454404473304749, -0.19943884015083313, -0.039803892374038696, -0.14004184305667877, 0.47071969509124756, 0.16808448731899261, 0.17504096031188965, 0.7466135621070862, -0.39061880111694336, -0.016170242801308632, 1.0982555150985718], [-0.07679794728755951, -0.9953188300132751, 0.3406772017478943, -0.09770592302083969, 0.03361772373318672, 0.0918525829911232, -0.23195962607860565, -0.24560335278511047, 0.11595083028078079, 0.04407301917672157, -0.20075252652168274, -0.11626499891281128, 0.14531728625297546, -0.3934592306613922, 0.19380861520767212, -0.07006624341011047, -0.5200785994529724, -0.047445137053728104, -0.28228092193603516, -0.10518380999565125, 0.18637846410274506, 0.1587788164615631, -0.05686397850513458, -0.023505276069045067, -0.3362925052642822, 0.07325449585914612, -0.3669649660587311, -0.15547360479831696, 1.05305016040802, -0.18037734925746918, 0.22479282319545746, 0.19684146344661713], [-0.33440402150154114, -0.10450904816389084, -0.2589930593967438, 0.05393098667263985, 0.3633438050746918, 0.2694717049598694, 0.08037693053483963, 0.15010982751846313, 0.10239972174167633, 0.13219282031059265, 0.08479154855012894, 0.08157466351985931, -0.3138182759284973, -0.1155637875199318, -0.18102963268756866, 0.10334161669015884, 0.40763530135154724, -0.2050163596868515, -0.25347772240638733, 0.09042640030384064, -0.5538243651390076, 0.08695147931575775, 0.1469995230436325, 0.177000492811203, 0.37884581089019775, -0.14100946485996246, -0.059069570153951645, -0.03769432753324509, 0.1649291068315506, 0.4611037075519562, 0.49141132831573486, -0.1998114138841629], [-0.08539890497922897, -1.212390422821045, -0.4384113848209381, -0.06402014940977097, 0.4527810513973236, -3.1940128803253174, -0.10831814259290695, -0.9395506381988525, -0.19560907781124115, 0.020092790946364403, 0.10500846058130264, 0.3660157024860382, -0.5099964737892151, 0.11028427630662918, -0.461152583360672, 0.2579827308654785, 0.02296648919582367, -0.220307394862175, -0.385002076625824, 0.5976813435554504, -0.23968006670475006, 0.1702643781900406, 0.011761702597141266, 0.1399412602186203, 1.415798306465149, 0.37755483388900757, -0.1802973747253418, 0.4258199632167816, 0.34165772795677185, 0.08487025648355484, 1.1727595329284668, 0.8115113377571106], [0.030096296221017838, -0.6146188974380493, 0.2736821472644806, 0.11070816963911057, -0.12883374094963074, 0.4384678304195404, 0.1393251270055771, 0.22043369710445404, -0.02673259936273098, 0.00811947975307703, -0.047714948654174805, -0.1249345988035202, 0.5809474587440491, 0.038672685623168945, 0.12322275340557098, 0.15370887517929077, -0.0014505150029435754, -0.07589928805828094, -0.07711593806743622, -0.5017297267913818, -0.10298433154821396, 0.034608252346515656, -0.1217552199959755, -0.20233795046806335, 0.10847997665405273, 0.00829380750656128, 0.1205512210726738, 0.2241668701171875, -0.4907929301261902, -0.006706114858388901, -0.08925540000200272, 0.4955595135688782]], "layers.block_1.rec.bias_ih_l0": [0.11434844881296158, -0.04480825364589691, 0.24258075654506683, -0.01708516664803028, 0.24121619760990143, 1.1283317804336548, 0.004751752596348524, 0.24705445766448975, 0.29218772053718567, -0.11742240935564041, -0.08763802796602249, 0.3822917342185974, 0.21514590084552765, 0.15003763139247894, 0.1350959688425064, 0.1657223105430603, 0.08465166389942169, 0.25102198123931885, 0.06596814841032028, 0.6256497502326965, -0.23175111413002014, 0.16369056701660156, -0.05720262601971626, 0.2876139283180237, 0.8562028408050537, 0.6728284955024719, 0.19216717779636383, 0.4000195264816284, -0.07034837454557419, -0.18012945353984833, 0.8163374662399292, -0.07385732978582382, -0.038991574198007584, 0.5231095552444458, -0.8471407890319824, 0.24041809141635895, -0.8861375451087952, -0.21271684765815735, -0.1324215531349182, 0.5720236301422119, 0.783972442150116, -0.23450876772403717, 0.9615717530250549, 0.1577400416135788, 0.4328239858150482, 0.8624544739723206, 0.0010073594748973846, 1.1082277297973633, 0.4451313316822052, 1.4096612930297852, 0.8172163367271423, -0.25012722611427307, -0.10974477976560593, 0.06449325382709503, 1.099021315574646, -0.16964305937290192, -2.30190372467041, 1.519948959350586, 0.6744853854179382, -3.664738178253174, 0.8812136650085449, 0.16459248960018158, 0.10250852257013321, 0.6509847640991211, 0.42224305868148804, 0.13821768760681152, 0.11065986007452011, 0.20619916915893555, -0.4458536207675934, 0.7085545063018799, -0.23248587548732758, 0.15468092262744904, 0.03774890676140785, 0.4303927421569824, -0.1960218995809555, -0.3426809310913086, 0.15698911249637604, 0.1164398193359375, -0.1297791600227356, -0.42010119557380676, 0.21408703923225403, -0.1792088896036148, -0.18991760909557343, 0.3611820936203003, 0.1661791354417801, 0.25134873390197754, 0.09080211818218231, -0.3052060008049011, 0.09248994290828705, 0.3120328485965729, -0.09281808882951736, -0.17944584786891937, -0.025117293000221252, -0.29563403129577637, -0.15008887648582458, -0.1160728856921196], "layers.block_1.rec.bias_hh_l0": [0.3820527195930481, -0.2317139059305191, 0.12399990856647491, -0.024214675650000572, 0.10479410737752914, 1.0739328861236572, -0.07908925414085388, 0.4694868326187134, 0.3340177536010742, -0.2001170814037323, -0.03477204963564873, 0.3146022856235504, 0.41664883494377136, 0.06219900771975517, 0.09133923798799515, 0.19915473461151123, 0.316191166639328, 0.3118790090084076, 0.08410267531871796, 0.4597916305065155, -0.11449408531188965, 0.10908371210098267, 0.051458604633808136, 0.423525333404541, 0.9829825758934021, 0.5186506509780884, 0.08571523427963257, 0.45782554149627686, 0.21114200353622437, 0.028236007317900658, 0.8330188393592834, 0.1065625473856926, 0.027384893968701363, 0.7410769462585449, -0.8313589692115784, -0.029272323474287987, -0.889875590801239, -0.3360216021537781, -0.4093247354030609, 0.6510763168334961, 0.9022626280784607, -0.24090279638767242, 1.0275384187698364, 0.22880296409130096, 0.5654932856559753, 0.7250010371208191, 0.023626750335097313, 1.0035892724990845, 0.43580421805381775, 1.2455370426177979, 0.7420833706855774, -0.2486070990562439, -0.1720147579908371, 0.12515118718147278, 1.069594144821167, -0.11904846131801605, -2.381800651550293, 1.8045153617858887, 0.46336689591407776, -3.6120071411132812, 0.8211327195167542, 0.40229371190071106, 0.42055484652519226, 0.6407715082168579, 0.3013375997543335, -0.10509651899337769, 0.41925567388534546, -0.045029185712337494, -0.17813463509082794, -0.05710626766085625, 0.031027501448988914, 0.3752020001411438, -0.14022894203662872, -0.4448050558567047, -0.17664994299411774, -0.21133361756801605, 0.3025834262371063, -0.07840394973754883, -0.43878692388534546, -0.5093520283699036, 0.41501960158348083, -0.39068007469177246, -0.41113367676734924, 0.13474886119365692, 0.21723946928977966, 0.03479675203561783, 0.17673072218894958, -0.30159544944763184, 0.09816108644008636, 0.28268641233444214, -0.19111327826976776, 0.3920446038246155, -0.05096976086497307, -0.16252709925174713, -0.23373551666736603, -0.2041129618883133], "layers.block_1.lin.weight": [[-0.30795425176620483, 0.40131762623786926, -0.04727168008685112, 0.8077378273010254, 1.0659343004226685, -0.03997061401605606, -1.2687255144119263, 0.20159970223903656, 0.3891966938972473, 0.33133766055107117, 0.07587366551160812, 0.39260053634643555, 0.35773587226867676, 0.3484092950820923, -0.3166815936565399, -0.04948136582970619, -0.1807851791381836, 0.3600078225135803, 0.21088530123233795, 0.006129108369350433, 0.6975101828575134, -0.2729093134403229, -0.8236967325210571, -0.3789795935153961, -0.48235490918159485, 0.3193959593772888, -0.3413289785385132, 0.510043740272522, 0.28058329224586487, -0.39531445503234863, -0.04278523474931717, -0.04449920728802681]]}}