{"model_data": {"model": "SimpleRNN", "input_size": 1, "skip": 1, "output_size": 1, "unit_type": "GRU", "num_layers": 1, "hidden_size": 32, "bias_fl": true}, "state_dict": {"rec.weight_ih_l0": [[0.5923320055007935], [-2.0139970779418945], [1.994042158126831], [0.38092806935310364], [-0.8963548541069031], [0.23399516940116882], [0.6702958345413208], [-0.7811015844345093], [0.302083820104599], [2.1538987159729004], [0.40278956294059753], [-3.0694594383239746], [1.2302956581115723], [-4.589215278625488], [-2.143962860107422], [-0.6233150959014893], [0.515761137008667], [1.191947340965271], [-0.20022311806678772], [1.200391173362732], [2.340988874435425], [-3.070213556289673], [-0.3426479399204254], [0.4164619743824005], [0.44048961997032166], [-0.04926877096295357], [-0.14320474863052368], [1.386710286140442], [1.3802306652069092], [-0.10364261269569397], [-2.0146565437316895], [-0.4028165340423584], [0.2908094823360443], [1.2132116556167603], [-0.826611340045929], [0.46966037154197693], [0.739528238773346], [0.8832501769065857], [-2.6703977584838867], [1.679033875465393], [0.08761578798294067], [0.7482749223709106], [0.385669469833374], [1.4994045495986938], [1.407289981842041], [0.18109753727912903], [0.8973844051361084], [0.31337621808052063], [0.15853220224380493], [-1.4328830242156982], [-0.7411806583404541], [-0.06909056752920151], [0.13963477313518524], [-1.3660385608673096], [-0.41500064730644226], [0.4458973705768585], [0.5001202821731567], [1.0121670961380005], [0.18683382868766785], [-0.9586344957351685], [-0.3135764002799988], [-0.25242871046066284], [-2.4002206325531006], [1.9219220876693726], [-0.686945378780365], [-0.3159627318382263], [7.688834190368652], [-1.1374884843826294], [-1.0785671472549438], [0.16880680620670319], [-5.718495845794678], [-0.29436689615249634], [-0.3554230034351349], [-0.9110695123672485], [0.1493513435125351], [-2.761240243911743], [-1.584524154663086], [0.4791654348373413], [-0.6511829495429993], [-0.37511754035949707], [-0.43779921531677246], [2.1838958263397217], [-1.1791173219680786], [-1.0214608907699585], [1.4726252555847168], [-0.5895116329193115], [-0.06581033021211624], [0.8548570871353149], [0.676364541053772], [3.252149820327759], [2.5778825283050537], [-1.2841593027114868], [0.02658868581056595], [0.009955802001059055], [0.246667742729187], [-1.1265360116958618]], "rec.weight_hh_l0": [[0.007187346927821636, 0.025684114545583725, 0.3151397407054901, -0.5455480217933655, -0.057401351630687714, -0.05548327788710594, 0.24459785223007202, 0.3513047397136688, -0.0322638675570488, 0.2008954882621765, -0.19792579114437103, 0.25677090883255005, -0.0923735499382019, 0.15604956448078156, -0.294264554977417, 0.19060540199279785, 0.43821921944618225, 0.24468888342380524, 0.29323849081993103, -0.07337916642427444, 0.034509580582380295, 0.28968387842178345, -0.1360730081796646, 0.15905004739761353, 0.2623562514781952, 0.12982876598834991, 0.046257711946964264, 0.6477082967758179, 0.0102546950802207, 0.1754603087902069, 0.03797087073326111, 0.007054370827972889], [-0.8312453627586365, 0.9108230471611023, -8.887778282165527, 0.31165286898612976, 2.444904088973999, -0.2908034324645996, 5.4440484046936035, 0.17558874189853668, 1.0045058727264404, 0.22656618058681488, -0.50371253490448, 1.2170761823654175, 1.2580127716064453, -1.5050709247589111, -0.6071670651435852, 0.5008819103240967, -0.22447709739208221, -6.240644931793213, 0.5617649555206299, 1.31671941280365, -1.2113858461380005, 0.817754328250885, -0.06670024245977402, 1.0419461727142334, 0.42687636613845825, -5.159365653991699, -1.776343584060669, 2.1904871463775635, -0.6236256957054138, -0.09961207211017609, 0.3786187469959259, 0.35034212470054626], [0.4664122760295868, 0.11854655295610428, 0.789783239364624, 0.3136984407901764, 0.18249449133872986, -0.6885042190551758, -0.06083432585000992, -0.5427317023277283, -0.4064909815788269, -0.06535115092992783, -0.415771484375, 0.01754380203783512, 0.007627126760780811, -0.1526152342557907, -0.08425027877092361, -0.18988558650016785, 0.558720052242279, 0.1453797072172165, 0.3392181098461151, -0.4075861871242523, -0.19859884679317474, -0.29235926270484924, 0.4939887225627899, -0.877825140953064, -0.5664390921592712, -0.01511143334209919, 0.21752090752124786, 0.4305819272994995, -0.507544219493866, -0.14258494973182678, -0.271446168422699, 0.20901915431022644], [-0.7393235564231873, 0.0039045794401317835, 0.24531158804893494, -0.07069916278123856, -0.010319411754608154, 0.06819487363100052, 0.03329644352197647, 0.4601287245750427, 0.23977288603782654, 0.210213303565979, 0.24864356219768524, -0.24811115860939026, -0.05689051374793053, 0.047050755470991135, -0.22605688869953156, -0.33726397156715393, -0.05124703049659729, -0.0014117553364485502, 0.21291494369506836, -0.22884704172611237, 0.08441808074712753, 0.025455277413129807, -0.1445436030626297, 0.5223481059074402, 0.0649353638291359, -0.10158947110176086, -0.005451192148029804, 0.21389217674732208, -0.23776420950889587, 0.2873193919658661, 0.107578806579113, -0.2238932102918625], [-0.349233478307724, -0.9023304581642151, -3.1312811374664307, -0.8491448760032654, 1.4218847751617432, -0.07495835423469543, 1.5238779783248901, 0.50483238697052, -0.7136889100074768, -0.061108656227588654, 0.28261902928352356, 1.1935185194015503, 1.7483246326446533, -0.2832450568675995, 0.3381980061531067, -0.1179644986987114, 0.20626549422740936, -2.005033493041992, 1.7991892099380493, -0.3260628879070282, -0.8145615458488464, 0.4762146770954132, -0.5570709705352783, 1.3648663759231567, 0.5790907740592957, -2.335587978363037, -0.9513281583786011, 0.5629225373268127, 0.7597076892852783, 0.6552100777626038, 0.10409620404243469, 0.5505805015563965], [-1.0539861917495728, -0.29611802101135254, 1.273796796798706, 0.5509296655654907, 0.7062352299690247, -0.7268074154853821, 0.11525069922208786, -0.5480419993400574, 0.4412940442562103, -0.23042535781860352, 0.3221137821674347, 0.21803051233291626, -1.0096532106399536, -0.21581600606441498, 0.35416385531425476, 0.4911842942237854, -0.3180866539478302, 0.9837902188301086, -1.110746145248413, 0.02810394950211048, 0.4433295428752899, 0.6777917146682739, 0.02333972230553627, -0.43049541115760803, -0.20533215999603271, -0.03904960677027702, -0.15321387350559235, 0.010048678144812584, 0.46077924966812134, -0.9287170171737671, 0.1275385171175003, 0.08059921860694885], [0.11827327311038971, -0.26049378514289856, -0.47285306453704834, 0.021776532754302025, -0.4160364866256714, -0.6982651352882385, -0.33246320486068726, -0.4444686770439148, -0.8832194805145264, -0.4745289087295532, 0.1407904326915741, -0.10388410091400146, 0.00579956267029047, 0.20191581547260284, 0.03684893995523453, -0.6487593054771423, 0.054893337190151215, 0.7618948817253113, -0.26955658197402954, 0.1375722438097, 0.5192260146141052, 0.68708735704422, -0.24014972150325775, -0.03776200860738754, -0.9180685877799988, 0.14259345829486847, 0.030148837715387344, 0.03718376159667969, 0.35082411766052246, 0.18767163157463074, 0.5364252328872681, 0.282527893781662], [0.27394792437553406, -0.0768343061208725, 0.04701528698205948, 0.32166433334350586, 0.3598979711532593, -0.22103853523731232, -0.11428576707839966, 0.6483532786369324, -0.9616525769233704, -0.11283647269010544, 0.22164873778820038, -0.20311693847179413, 0.27769988775253296, -0.04036065191030502, 0.25169846415519714, 0.2993520498275757, 0.10629744082689285, -0.31121140718460083, -0.5818193554878235, 0.49873533844947815, 0.3522009551525116, 0.13320519030094147, -0.18685461580753326, 0.3205820322036743, 0.010318188928067684, 0.18274813890457153, -0.16483651101589203, -0.679714560508728, -0.009781486354768276, 0.5105054378509521, 0.4862041771411896, -0.5919415950775146], [-0.13816522061824799, 0.04211661219596863, 1.277933120727539, -0.6467768549919128, 0.4234694540500641, -0.1785079389810562, -0.10089389979839325, 0.7924973368644714, -0.9127547144889832, -0.2576616704463959, -0.2730046212673187, -0.0099833058193326, -0.6928567886352539, -0.18592771887779236, 0.3018408715724945, 1.0169768333435059, -1.1830469369888306, -0.05405101552605629, 0.6587560176849365, -0.2198496162891388, 1.02249014377594, -0.0073232706636190414, 0.027338333427906036, -0.435150682926178, -0.29738038778305054, -0.563727855682373, 0.03064068779349327, -0.3462367653846741, -0.28521567583084106, -0.6632772088050842, 0.11879432201385498, -0.3337572515010834], [-0.3377317488193512, -0.2304471880197525, -0.38720259070396423, -0.14236781001091003, 0.05439184978604317, 0.17213508486747742, -0.1074095070362091, 0.14399021863937378, -0.10301569104194641, -0.32722562551498413, 0.16035126149654388, 0.22316360473632812, -0.16740062832832336, 0.17638640105724335, 0.39676550030708313, -0.16143879294395447, -0.29427728056907654, -0.12612232565879822, 0.18269626796245575, -0.580805242061615, -0.1523953676223755, -0.13416439294815063, -0.5369842052459717, 0.03587324917316437, -0.4448885917663574, -0.1823943853378296, -0.09556225687265396, -0.2484852522611618, 0.23652857542037964, 0.3541583716869354, 0.043617647141218185, -0.3016982972621918], [-1.1349453926086426, 0.2355484515428543, 0.6490578055381775, -0.6149723529815674, 0.4570676386356354, -0.38874951004981995, -0.16887716948986053, 0.13852769136428833, 0.6356523036956787, -0.13478241860866547, -0.8108624219894409, -0.06609482318162918, 0.3289322257041931, 0.773520290851593, 0.3654715418815613, -1.0332393646240234, 0.008815962821245193, -1.1471564769744873, 0.7238714098930359, -0.3733036518096924, -0.20434629917144775, 0.7593938708305359, -0.20027358829975128, 0.5555325746536255, -0.0905495285987854, -0.30902162194252014, -0.574664294719696, -0.5811966061592102, 0.058287668973207474, 0.5081575512886047, 0.20257239043712616, 0.1656421273946762], [-0.03443402796983719, 0.06540416181087494, -1.3273898363113403, -0.2841776907444, 0.7109648585319519, -0.18810328841209412, 1.0232415199279785, 0.05185193940997124, 0.3428236246109009, -0.00176299549639225, -0.06051983684301376, -0.42846235632896423, 0.6152039170265198, -0.029150664806365967, 0.19013777375221252, 0.18772779405117035, -0.42115381360054016, 0.19155879318714142, -1.1505266427993774, -0.09299328923225403, -0.1207079142332077, -0.2272096425294876, -0.10760927200317383, 0.36630016565322876, 1.0484001636505127, -0.19271807372570038, -0.016440726816654205, -0.43604719638824463, -0.008407274261116982, 0.07701488584280014, -0.1133357509970665, -1.0857994556427002], [-0.1611890345811844, 0.16708768904209137, -1.0988900661468506, 0.48297569155693054, 0.8922752737998962, 0.06187620759010315, 0.2014768421649933, 0.9952750205993652, 0.036067020148038864, 0.08889622241258621, 0.3325408399105072, -0.8388857841491699, -0.2659473419189453, -0.008148396387696266, -0.42576923966407776, 0.1526743620634079, 0.4566260576248169, -0.0860309824347496, -1.0313751697540283, 0.5776238441467285, 0.7057765126228333, 0.5778770446777344, 0.4408457577228546, -0.26467379927635193, 0.0714288279414177, 0.23616085946559906, 0.004479877185076475, -0.20371203124523163, 0.4069330096244812, 0.03640628233551979, 0.09687693417072296, 0.04106299579143524], [-1.235366702079773, 0.6061570644378662, -7.052764415740967, -1.10469651222229, 2.2896828651428223, -0.07852558046579361, 5.540671348571777, -0.03681883215904236, 0.015821300446987152, 0.42996084690093994, -0.06404068320989609, 2.7192189693450928, 0.5074945688247681, -1.2311444282531738, -0.34466618299484253, 0.5622066259384155, 0.09769755601882935, -4.179153919219971, -0.5908682942390442, 1.5358178615570068, -0.5266432762145996, 0.35322582721710205, 0.05577922239899635, 0.7012922763824463, 0.2329099327325821, -4.001957416534424, -1.942222237586975, 0.4035024344921112, -0.3867655098438263, 0.30974116921424866, 0.3773297667503357, 1.6094794273376465], [-0.6832697987556458, -0.06451454013586044, 0.1340942531824112, -0.40984898805618286, -0.1475541740655899, -0.07836988568305969, -0.4034346342086792, 0.5111297965049744, 0.12401337921619415, -0.11312848329544067, -0.20284733176231384, 0.23305287957191467, -0.17114712297916412, 0.06541898846626282, -0.8187095522880554, -1.0405082702636719, 0.06935657560825348, -0.3417198956012726, -0.3650524318218231, -0.29498589038848877, -0.0014820706564933062, 0.2861168384552002, 0.23869583010673523, -0.23424574732780457, 0.11708588153123856, 0.06176062673330307, -0.12932536005973816, 0.3012397587299347, -0.47504040598869324, 0.19238661229610443, 0.061105430126190186, 0.12466442584991455], [0.945513904094696, -0.9321660399436951, 0.9145280718803406, -0.19178421795368195, 1.171888828277588, -1.0161484479904175, -0.4931175112724304, 0.06124434620141983, 0.4933357834815979, -0.26507091522216797, -0.41208359599113464, 0.8626219034194946, -0.544148325920105, -0.3233772814273834, 0.2725972831249237, 1.0863715410232544, 1.4299297332763672, -0.32105696201324463, 0.07637900114059448, -0.24787743389606476, -0.17329274117946625, 0.017656998708844185, -0.3722276985645294, -0.6245183348655701, 0.047215934842824936, -0.48823854327201843, -0.2551893889904022, -0.22234268486499786, 1.694473147392273, 0.12647618353366852, -0.3836090564727783, 0.7519900798797607], [-1.1089603900909424, -0.10164972394704819, -0.7499397397041321, -0.47889479994773865, 0.015006229281425476, -0.35228851437568665, -0.06299971789121628, -0.10721416026353836, 0.28312551975250244, -0.0456395260989666, 0.20376814901828766, 0.481933057308197, 0.37492525577545166, 0.4437558054924011, 0.11103037744760513, -0.8416600823402405, 0.7172567844390869, 0.28206270933151245, 0.19048690795898438, 0.26400837302207947, -0.34332218766212463, -0.09357478469610214, 0.12824666500091553, -0.03250797465443611, -0.6543475389480591, 0.19831475615501404, -0.033072832971811295, -0.255261093378067, 0.2544833719730377, 0.1223795935511589, 0.2361697256565094, 0.22525131702423096], [1.0926908254623413, -0.13228477537631989, 0.06846504658460617, -0.042313721030950546, -0.4782819151878357, -0.03025674819946289, -1.1712981462478638, 0.1348329782485962, 1.2373491525650024, -0.2715286612510681, -0.32245934009552, 0.1207994893193245, -0.29093047976493835, 0.12208930402994156, -0.05988454818725586, -0.216779425740242, 0.04592946544289589, 0.4452488422393799, 2.078585386276245, -0.03687804564833641, 0.5578233599662781, 0.05622344836592674, -0.5421594977378845, -0.27567416429519653, 0.2943222224712372, 1.1363564729690552, -0.2560237944126129, 0.49462276697158813, 0.7222346663475037, -0.2984554171562195, -0.1842205822467804, 0.5694505572319031], [-0.016394704580307007, -0.15146197378635406, 0.30166709423065186, -0.4053908884525299, 0.5909565687179565, 0.13871906697750092, 0.7407251000404358, 0.15538820624351501, -0.8739230036735535, 0.10835185647010803, -0.3294065296649933, 0.110136479139328, -0.1785764992237091, 0.24070315062999725, 0.10721468925476074, 0.813209593296051, -0.1227433830499649, 0.5703563690185547, -0.17280535399913788, 0.04421890899538994, 0.43717488646507263, 0.1360367089509964, -0.3001967966556549, 0.42281976342201233, -0.07125092297792435, 0.6229985356330872, 0.09435781836509705, -0.32982829213142395, 0.3810047209262848, -0.32775652408599854, -0.2611660659313202, 0.27682629227638245], [-0.09858103096485138, -0.12809538841247559, 0.4273223280906677, -1.0487393140792847, -0.10994137078523636, 0.061187222599983215, -0.9441316723823547, 0.1648828685283661, 0.2891876995563507, -0.15013189613819122, -0.37299010157585144, 0.039295781403779984, 0.051148951053619385, -0.16870661079883575, 0.27093708515167236, -0.05318540334701538, -0.09276718646287918, 0.07685854285955429, 1.0485780239105225, 0.6693609356880188, 0.22004051506519318, -0.12244302779436111, -0.17180119454860687, -0.6228992938995361, -0.1450214385986328, 0.5462853312492371, 0.0906897485256195, -0.22303873300552368, -0.0071664610877633095, -0.133208766579628, -0.3925556242465973, 0.4900834560394287], [0.43071040511131287, -0.15003818273544312, 2.335484743118286, 0.021023567765951157, -0.360918253660202, 0.10736469179391861, -0.43699920177459717, 0.045644406229257584, 0.9381288290023804, -0.325479120016098, -0.13608857989311218, -0.5214342474937439, 0.10609433054924011, 0.06587064266204834, 0.4987237751483917, 0.32329633831977844, -0.7476672530174255, 0.6521133184432983, 2.2732160091400146, 0.19443559646606445, 0.5870734453201294, -0.0009129188256338239, -0.29446983337402344, -0.08899012207984924, 0.29034724831581116, 0.5194224119186401, 0.265686571598053, -0.33615607023239136, 0.3078748881816864, -0.0770084410905838, 0.05680384114384651, 0.20484405755996704], [0.8630324602127075, -0.1407889574766159, -1.0014417171478271, 1.2930870056152344, -1.9859915971755981, 0.12812000513076782, 0.5012796521186829, 2.3123574256896973, -2.9559998512268066, -0.1958613097667694, 0.4202004671096802, 0.0982181653380394, -0.38911548256874084, 0.8424076437950134, -0.0766676738858223, -0.4360531270503998, 0.39491212368011475, 1.1418883800506592, -1.8635969161987305, -3.3710625171661377, 1.1702646017074585, -0.4180932343006134, -0.9343218803405762, -0.3187767565250397, -1.4717156887054443, 0.3898923397064209, 1.4339916706085205, -0.431372731924057, 0.7147811651229858, 0.5879911780357361, -0.8512980341911316, -0.4094822108745575], [0.4052547812461853, -0.05045859143137932, 0.40945494174957275, -0.0660136342048645, -0.8428364396095276, -0.11156164854764938, -0.06064660847187042, -0.40034982562065125, -0.5352246761322021, -0.17273901402950287, 0.02159365452826023, 0.8973633646965027, 0.3322354853153229, 0.4084489941596985, 0.44099587202072144, -0.479544460773468, 0.1071915253996849, 0.10287590324878693, 0.10977048426866531, 0.24066713452339172, 0.47914427518844604, 0.01004271861165762, 0.18133801221847534, 0.14044979214668274, 0.8348715901374817, 0.31848233938217163, -0.8646784424781799, 0.5669381022453308, -0.10806495696306229, -0.07101192325353622, 0.5018162131309509, 0.03845236077904701], [-0.3839835524559021, -0.45641326904296875, 0.8181549310684204, -0.09277760237455368, 0.26267755031585693, -0.3860238790512085, 0.2721441686153412, 0.29478076100349426, -0.0035379701294004917, 0.008857308886945248, 0.1350269466638565, 0.09857466071844101, -0.3778071999549866, 0.12153182923793793, -0.04824475198984146, -0.22590644657611847, 0.5711169242858887, 0.24414300918579102, -0.03977181017398834, -0.2833974063396454, 0.18166305124759674, 0.1952103078365326, 0.09106581658124924, -0.16242890059947968, 0.3171428143978119, -0.25494712591171265, -0.08898495882749557, 0.2074197381734848, 0.19962316751480103, -0.01615387573838234, 0.1403249055147171, 0.2030772566795349], [-0.8396468758583069, -0.10491171479225159, -0.2469569891691208, -0.14909037947654724, 0.33137941360473633, 0.18349838256835938, 0.29930374026298523, 0.03828800842165947, -0.4882603585720062, -0.12115473300218582, -0.17168918251991272, 0.34691348671913147, 0.019563697278499603, 0.16029046475887299, -0.16485567390918732, -0.3308948576450348, -0.10487816482782364, -0.30716031789779663, 0.30693092942237854, 0.32786229252815247, 0.03752552717924118, 0.2685384452342987, -0.1226656436920166, 0.5929484367370605, 0.08757762610912323, -0.037091780453920364, -0.5792879462242126, 0.5428646802902222, 0.29915961623191833, 0.39488479495048523, -0.18585535883903503, 0.5976737141609192], [-0.8447824716567993, -1.2578023672103882, -0.8487905263900757, -0.2276228666305542, 0.5124090313911438, -0.5848000049591064, 1.4272122383117676, 0.5089865922927856, -1.5100536346435547, -0.7973294854164124, -0.3571562170982361, 1.432519793510437, 0.26738235354423523, -0.23846392333507538, 0.3127780556678772, -0.5233784914016724, 0.7758349776268005, -0.3501202464103699, -0.7400161623954773, -0.39442136883735657, 0.14161202311515808, 1.2830801010131836, -0.6561636924743652, 0.8355646729469299, -0.5658230185508728, -1.0179362297058105, 0.015912143513560295, -0.570540726184845, 1.6260087490081787, 0.585655689239502, 0.11221899837255478, 2.007232189178467], [0.2455061674118042, -0.23057466745376587, -0.22001221776008606, 0.07457363605499268, -0.24293974041938782, -0.7031502723693848, 0.8232709169387817, 0.7870890498161316, -0.17046841979026794, -0.015338512137532234, 0.07302742451429367, -0.10600291192531586, 0.28833305835723877, 0.7423247694969177, 0.4194638431072235, 0.16185158491134644, 1.3062560558319092, 0.5552842617034912, -0.4083983302116394, 0.6900269389152527, 0.5497848987579346, 0.2917437255382538, -0.36835408210754395, -0.39153218269348145, -0.30795034766197205, 0.2869836091995239, -0.34068188071250916, -0.028551584109663963, 0.07144803553819656, -0.3803918957710266, 0.12373170256614685, 0.9235671758651733], [0.29389405250549316, 0.2879997491836548, -0.7829352021217346, -0.12470695376396179, 1.126996397972107, -0.01041465811431408, 0.15942472219467163, -0.6226016879081726, 0.42021575570106506, -0.2141299843788147, 0.14073455333709717, 0.6378822326660156, -0.20050810277462006, -0.26485365629196167, 0.05085902661085129, -0.3049051761627197, -0.1203545555472374, -0.8400380611419678, 0.7329156994819641, 0.48052626848220825, -0.7918396592140198, -0.845766007900238, 0.43691304326057434, 0.2676903307437897, 0.34145092964172363, -0.15388800203800201, -0.6159790754318237, -0.3021966218948364, 0.19635777175426483, -0.22161787748336792, 0.18765215575695038, -1.0371603965759277], [-0.3489688038825989, 0.11294963955879211, 0.022208036854863167, 0.4462951123714447, 0.6334183812141418, -0.5943556427955627, -0.3315146565437317, 0.383057564496994, 0.17260654270648956, -0.22093771398067474, 0.3349584937095642, -0.14113940298557281, -0.8444600105285645, -0.08986018598079681, 0.22171650826931, -0.26507824659347534, 0.2657441198825836, -0.5653948783874512, 0.8275880217552185, 0.04055666923522949, 0.28355345129966736, 0.5313739776611328, -0.01201318483799696, -0.34246131777763367, 0.6895162463188171, -0.22012916207313538, 0.3751133382320404, -0.5036039352416992, 0.5060863494873047, -0.7181456089019775, -0.15152782201766968, 0.35092124342918396], [0.017037365585565567, -0.178280770778656, 0.19784367084503174, -0.18059827387332916, 1.3124257326126099, -0.05784927308559418, -0.22206170856952667, 0.26493868231773376, 0.2324930876493454, -0.22389547526836395, 0.05613601207733154, 0.01727648265659809, -1.3942384719848633, -0.04423315078020096, 0.10543615370988846, -0.36292606592178345, 0.6903008818626404, 0.04138588905334473, 0.1542966663837433, -0.6409960389137268, 0.4998963177204132, 0.3684539198875427, -0.14875325560569763, 0.5658440589904785, 0.3216092586517334, -0.1916421502828598, 0.09317432343959808, 0.07641714811325073, 0.5151450037956238, 0.08212193846702576, 0.06542278081178665, 0.19380486011505127], [2.0128417015075684, -1.7059221267700195, -1.0828012228012085, 0.23594340682029724, -2.222403049468994, 0.8345447778701782, -0.9092370867729187, 5.198156833648682, -4.14927339553833, -0.5671297907829285, 0.3816438913345337, 0.3177601099014282, -0.6543212532997131, 3.1121973991394043, 0.505182683467865, -0.6570435762405396, 2.3980326652526855, 1.2776159048080444, -3.12447452545166, -2.816889524459839, 2.010388135910034, -0.14820857346057892, 0.3721851706504822, -0.47317349910736084, -2.8745529651641846, -0.032096412032842636, 0.2949630618095398, -1.4179688692092896, 1.1504322290420532, 1.565626621246338, -1.2679533958435059, 1.8041423559188843], [0.21909718215465546, -0.2855892479419708, -1.0170902013778687, -1.0722193717956543, -0.7291308045387268, 0.25052574276924133, 0.1987193077802658, 1.156420111656189, -0.6360976696014404, 0.12343526631593704, -0.3792321979999542, -0.30752938985824585, 0.49701881408691406, 0.37381577491760254, 0.03245408087968826, -0.7327563762664795, -0.1687576025724411, 0.40090858936309814, 1.831499695777893, -0.8070399761199951, 0.3212217688560486, -0.45330774784088135, -0.0835927277803421, 1.1481975317001343, -0.0651477500796318, 0.07131709903478622, 0.11238977313041687, -0.3206113576889038, -0.45931971073150635, -0.20218375325202942, -0.31659212708473206, -0.7048003673553467], [0.29299479722976685, -0.4164447784423828, -0.09798682481050491, -0.4129210114479065, 0.2690688371658325, -0.40974143147468567, 0.18180550634860992, 0.25141093134880066, -0.09893544018268585, -0.5012089610099792, 0.1861669421195984, 0.7562134265899658, -0.19045725464820862, 0.39258843660354614, 0.6696186065673828, 0.22701936960220337, 0.1488436758518219, -0.3240939974784851, 0.30125704407691956, -0.4358406066894531, 0.14566786587238312, 0.4201721251010895, -0.5472823977470398, 0.18666613101959229, -0.10646127909421921, 0.3585805594921112, -0.3473624587059021, -0.5233739018440247, 0.4775353670120239, -0.6047056317329407, 0.23577921092510223, 0.2514977753162384], [-0.6105022430419922, 1.4544076919555664, -1.936423659324646, 1.3477418422698975, -0.2717791795730591, -0.7119914889335632, -1.711626648902893, -1.0478049516677856, 3.1582069396972656, 0.35918793082237244, -0.7759526371955872, -2.3007659912109375, 1.4211064577102661, -0.5799489617347717, -1.0838431119918823, 0.7161812782287598, -1.0480742454528809, 0.6431766152381897, -0.3836674988269806, 0.8601402044296265, -0.7039112448692322, -0.1706269532442093, -0.7935622930526733, -0.9769110083580017, 2.6555540561676025, -0.6657635569572449, 0.6862478852272034, 0.5650591850280762, -0.6069303154945374, -0.7951417565345764, 0.28706103563308716, -0.0766252726316452], [2.2154760360717773, -0.8050678968429565, -2.98738431930542, 0.6519302129745483, -0.9351562261581421, 2.148406744003296, 0.9775382280349731, -0.41045597195625305, 0.7179508209228516, 1.0363250970840454, -0.8062033653259277, 0.4623048007488251, -0.8491238355636597, 2.3528800010681152, -0.6293260455131531, -1.634097933769226, -0.9425267577171326, 0.8493643999099731, -1.316185712814331, -0.605654239654541, 0.46070390939712524, -0.35795703530311584, 1.1973953247070312, 0.3044605851173401, -0.3244248330593109, 1.4590989351272583, 2.0494909286499023, -0.16488613188266754, -0.6949815154075623, 1.2897214889526367, -3.015986680984497, 0.5786701440811157], [0.17174342274665833, 0.0472002811729908, -0.1885460913181305, -0.3750703036785126, 0.20651596784591675, 0.000980209093540907, -0.3093408942222595, 0.7658856511116028, 0.17432330548763275, -0.14441312849521637, 0.2466861605644226, 0.2872438132762909, 0.05288125202059746, 0.1267564743757248, 0.654082179069519, 0.4469257891178131, 0.48746293783187866, -0.2729819715023041, 0.5658419728279114, -0.051380008459091187, 0.008259945549070835, 0.35746684670448303, -0.45998185873031616, 0.3845786154270172, -0.06281997263431549, 0.13713689148426056, -0.1399288773536682, -0.2938540279865265, 0.27987009286880493, -0.7658298015594482, 0.31037312746047974, 0.3456220030784607], [-1.7861541509628296, 3.106616973876953, -3.618497610092163, 1.4408881664276123, 2.4185593128204346, 0.5989569425582886, 1.9792704582214355, -5.401050090789795, 1.0378843545913696, 0.8437425494194031, 0.0506838858127594, 1.9679210186004639, 0.6449325084686279, -2.4651312828063965, 0.2866238057613373, 1.0659961700439453, -1.255142331123352, -1.6101757287979126, -2.233311891555786, 1.6582337617874146, -1.4175962209701538, 0.1027931347489357, 0.39560943841934204, -0.7116981148719788, 1.3458937406539917, 0.15261909365653992, -2.071160078048706, 1.197884440422058, -2.2651729583740234, 0.059049949049949646, 0.4732295572757721, -0.47174394130706787], [-0.04299263656139374, -0.07295899093151093, 0.6258785724639893, 0.5979433655738831, -0.8043427467346191, -2.118558168411255, 0.4347324073314667, 0.6455403566360474, 1.2027453184127808, -0.06486198306083679, 0.5934231877326965, 1.1224825382232666, -0.3482082188129425, 0.5416823029518127, -0.547139585018158, 0.7722062468528748, -0.20333056151866913, 0.5963087677955627, -1.648990511894226, 0.8479189276695251, -0.2742561101913452, 0.9969328045845032, 0.4904107451438904, -0.5488021969795227, 1.0095999240875244, 0.9343785047531128, 0.3613869249820709, -0.1114393025636673, 0.19847850501537323, -0.42773303389549255, 0.8287341594696045, 0.2518834173679352], [1.2783275842666626, 2.507333755493164, -4.149844646453857, -0.27067500352859497, -1.100475549697876, 1.595027208328247, 0.3511025309562683, -1.8883408308029175, 0.35140523314476013, 1.2273131608963013, 0.4734044373035431, -0.06683075428009033, -0.5515422821044922, 0.7971267700195312, -0.6477816104888916, 0.24928665161132812, -2.601564645767212, 0.8550620675086975, -0.1499323844909668, -0.7716585397720337, -0.4222385585308075, -0.10920404642820358, 1.3372138738632202, -0.37204596400260925, -1.8058704137802124, -0.9534301161766052, -0.36976054310798645, -0.306031733751297, -2.7019948959350586, -0.4750077724456787, 0.83830326795578, 0.12874042987823486], [1.1779747009277344, -1.3114585876464844, 1.7408846616744995, 0.31827956438064575, -2.936115264892578, 0.8179067373275757, -0.602901041507721, -1.2393412590026855, 1.2112452983856201, -0.07857213914394379, -1.232826590538025, 1.3876405954360962, 1.572013258934021, 0.08414966613054276, -0.11714838445186615, -0.8739776611328125, -1.2121580839157104, -0.538805365562439, 2.5861825942993164, -0.24945130944252014, -0.3386513590812683, -0.16952770948410034, -0.38979485630989075, 0.5232115387916565, 0.8731842041015625, -0.28363946080207825, 0.23844361305236816, -0.1201987937092781, 1.1021734476089478, 1.0377229452133179, 0.04495903477072716, -0.1638912707567215], [0.7263414263725281, -0.4230395555496216, 0.12210345268249512, -0.07202089577913284, 0.2156313806772232, -0.3168115019798279, 0.14410437643527985, 0.7796532511711121, -1.090377688407898, -0.5044049620628357, 0.01464666984975338, -0.00895518995821476, -0.30305078625679016, 0.4538377523422241, 0.3029911518096924, -0.0705723911523819, 0.37843573093414307, -0.1223001629114151, 0.36912447214126587, -0.34951433539390564, 0.3484826982021332, 0.011583104729652405, -0.28694936633110046, 0.21230295300483704, 0.34586840867996216, 0.22457310557365417, -0.3113681972026825, -0.2694486379623413, 0.4534505605697632, 0.250082403421402, 0.012993386015295982, -0.27511709928512573], [0.491682231426239, 1.0673326253890991, -1.0971428155899048, 0.7673319578170776, -0.278359055519104, -0.2796025574207306, -0.43845507502555847, -1.1167306900024414, -0.47160908579826355, 0.6182708740234375, -0.034018624573946, -1.7319025993347168, -0.2262207269668579, 0.7621265053749084, -0.04106927290558815, -0.7257892489433289, -1.6452399492263794, 2.4169881343841553, -1.0938754081726074, -0.04456458240747452, 0.08826696872711182, -1.3196303844451904, 0.3582707941532135, -1.186849594116211, -0.2899169623851776, 0.9458121657371521, 1.4136929512023926, 0.4722875654697418, 0.5944606065750122, -0.1809363216161728, -0.7488490343093872, 0.14673498272895813], [0.036482613533735275, -0.18752087652683258, 0.3053683340549469, -0.5825628638267517, 0.9125147461891174, -0.4993106424808502, 0.4846734404563904, 0.2377440333366394, -1.665816307067871, -0.6371023654937744, -0.047921497374773026, -0.13832679390907288, -0.16303126513957977, 0.3507957458496094, 0.16031259298324585, 0.9288482666015625, 0.3670947849750519, -0.5683789849281311, 0.3912172019481659, -0.5972655415534973, 0.8054673075675964, 0.6229313611984253, -0.27124935388565063, 0.004809934180229902, 0.4488387405872345, 0.2873936891555786, -0.43377363681793213, 0.4552335739135742, 0.5809957981109619, -0.9087561368942261, 0.10312439501285553, 1.2956587076187134], [0.6994273066520691, 0.6090871095657349, -0.8442073464393616, 0.14628241956233978, -0.40593641996383667, 0.882597804069519, -1.7220847606658936, -1.0864707231521606, 1.006396770477295, 0.6604112386703491, -0.23221361637115479, 0.7019877433776855, 3.2791497707366943, 2.0663533210754395, 0.5603504180908203, -0.17769233882427216, -1.6691430807113647, -0.674808144569397, -0.39815181493759155, -0.09800474345684052, -1.4401220083236694, -3.4007716178894043, 0.6700199842453003, -0.28214097023010254, -1.3150042295455933, 1.998896837234497, 1.6483025550842285, 0.8230846524238586, -0.681370735168457, -0.2936010956764221, -1.9853527545928955, -1.1551457643508911], [-0.44356006383895874, 1.7367182970046997, -0.1737288534641266, 1.6442146301269531, -0.6202957630157471, -0.05643507465720177, 0.4859285354614258, -0.8569066524505615, 0.7224249839782715, 0.1719132959842682, 0.3417796790599823, -1.9239146709442139, 0.6279995441436768, 0.36509209871292114, -0.45040348172187805, 0.20513369143009186, -0.4930954873561859, 0.9191529750823975, -1.5696862936019897, 1.0740996599197388, -0.11938221752643585, 0.8512158989906311, -0.38587984442710876, -0.26788344979286194, 0.8787994980812073, -0.021007400006055832, 1.0918092727661133, -0.8780615329742432, 0.1672307848930359, 0.2162976861000061, -1.7111979722976685, 2.8648180961608887], [-0.08805776387453079, 2.245173215866089, -1.0122742652893066, 1.011324167251587, 0.3566882312297821, -0.2962411940097809, -0.5333958864212036, -0.8242420554161072, 2.0838990211486816, -0.010555128566920757, -0.15987326204776764, -3.0971105098724365, 1.4055906534194946, -1.475055456161499, -0.9648014903068542, 1.3965613842010498, -0.1667882651090622, 0.22176873683929443, -2.0434014797210693, 3.3913209438323975, 0.7063329219818115, -0.6363447308540344, 1.7605884075164795, -1.1367923021316528, 1.6764549016952515, -0.8100994825363159, 0.6609795093536377, -1.5512096881866455, -0.3155432939529419, -0.05998469144105911, -0.09946317225694656, 1.57085382938385], [-1.903181791305542, 0.9194555282592773, -0.5925731658935547, 0.9255438446998596, 2.07731556892395, 0.7241609692573547, 2.1245648860931396, -0.7233591675758362, 0.9193400740623474, 0.9979204535484314, -0.4948239326477051, -0.5854123830795288, 2.783487558364868, 1.8963440656661987, -1.765763521194458, 1.9614299535751343, -2.227510452270508, 1.9941174983978271, -0.6491305828094482, 1.0025267601013184, -0.32531970739364624, -1.354844570159912, 1.0746814012527466, -0.15402022004127502, -0.6178635358810425, -0.9528111815452576, -0.6741927862167358, 1.1832554340362549, -1.4787638187408447, 0.6910713911056519, 4.276060581207275, 0.7163581252098083], [0.20319847762584686, -0.6694189310073853, 0.2304362803697586, -0.2806452512741089, 0.4146188199520111, -0.5309843420982361, 0.12102708965539932, -0.06530489027500153, -0.311084508895874, -0.8476771116256714, 0.45622503757476807, 0.5576675534248352, -0.3868723213672638, 0.2194090187549591, 0.9271358847618103, 0.483182817697525, 0.5966730713844299, -0.21416381001472473, 0.6502508521080017, -0.11312305182218552, 0.36078503727912903, 0.649581253528595, -0.9730730056762695, 0.07139687985181808, 0.30131879448890686, 0.21048644185066223, -0.37960731983184814, -0.5300009846687317, 0.7750323414802551, -0.4920938014984131, 0.2939760684967041, 0.11982934176921844], [-0.6402464509010315, -0.831596314907074, 1.3849643468856812, 0.06839180737733841, 0.30940958857536316, -0.9873731136322021, 0.3138201832771301, -0.4634800851345062, 2.4007632732391357, -0.7710456252098083, 0.9037999510765076, 0.005329557694494724, -0.35618460178375244, 0.755288302898407, 0.883489727973938, -0.22682854533195496, -1.748104214668274, -0.18666690587997437, 0.11748601496219635, 0.09981919080018997, 0.1358727216720581, 1.2064757347106934, -0.5945557951927185, 0.002175396541133523, 0.9379600882530212, -0.39331263303756714, -0.7122529745101929, -0.5118225812911987, 0.19526156783103943, -0.20709478855133057, 0.5519381165504456, 0.5506768226623535], [1.393866777420044, 1.4467865228652954, -5.718252182006836, 0.16419874131679535, -1.8488188982009888, 0.4269907772541046, 1.461665153503418, -1.6263775825500488, 1.93508780002594, 0.9418355822563171, -0.7574381828308105, 1.3429505825042725, -1.3515560626983643, -3.56846284866333, -0.4876483678817749, 0.31021517515182495, -1.3485325574874878, 0.29880645871162415, 1.7334270477294922, -2.5007381439208984, 1.6682803630828857, -2.479990005493164, 0.6280012130737305, -0.36388885974884033, 0.38101425766944885, -0.46314409375190735, -0.34563136100769043, 1.088935375213623, -0.8670477271080017, -0.9446549415588379, -0.1703067421913147, -1.4452157020568848], [-0.4313587546348572, 0.036583248525857925, 0.1644861400127411, -0.1980413794517517, 0.628436267375946, -0.5025524497032166, 0.4123271107673645, 0.02460872195661068, -0.6102085709571838, -0.6962811946868896, 0.12029504776000977, 0.6447516679763794, -0.3369000554084778, -0.2957378625869751, 1.014309048652649, 0.4024839401245117, 0.03572016581892967, -0.17559683322906494, 0.46283233165740967, -0.23966890573501587, 0.3830820620059967, 0.19076912105083466, -0.7476459741592407, 0.3416629433631897, 0.31995218992233276, 0.05688009038567543, -0.4577265977859497, -0.6975801587104797, 0.29095327854156494, -0.753984272480011, -0.015462652780115604, 0.515436053276062], [-1.9855496883392334, 0.7592477202415466, 1.750645637512207, 1.230692982673645, 0.6334447264671326, 0.8422291278839111, -1.3112435340881348, -3.4671967029571533, 0.28748419880867004, 0.34337905049324036, 0.8758761286735535, -0.24312908947467804, 0.1575879007577896, -0.6359198093414307, -0.4505102038383484, 0.5474602580070496, -0.3617939352989197, 1.2236506938934326, -2.6179733276367188, -0.39241287112236023, -2.0045011043548584, -0.25826212763786316, -0.07938019931316376, -1.1243635416030884, 0.5538281798362732, -0.8299969434738159, 0.31395411491394043, -1.3034400939941406, -0.25493305921554565, 0.24881801009178162, -1.1917064189910889, 1.1828711032867432], [1.5224111080169678, 1.4006885290145874, 0.5299924612045288, 1.1845823526382446, -1.788350224494934, 0.6769367456436157, -0.30742111802101135, 1.8469852209091187, 0.5594851970672607, 0.2650621831417084, -0.11764651536941528, -1.515855312347412, -1.3150548934936523, 1.1047391891479492, -0.48674476146698, 0.15013764798641205, 0.20800846815109253, 0.32452356815338135, -2.6477887630462646, 1.4074064493179321, 1.1533433198928833, -0.7222996950149536, 0.4827020764350891, -0.25301122665405273, -0.4823552072048187, 1.4560734033584595, 0.8817291259765625, -1.7883028984069824, 1.9585144519805908, 0.6005541682243347, -1.385252594947815, 2.031723976135254], [2.093003988265991, -1.2729735374450684, 0.9855334758758545, 0.2542482316493988, -1.9702156782150269, 1.9946421384811401, -0.44401124119758606, -0.5578432679176331, -0.39561784267425537, 0.45383819937705994, -0.20253321528434753, 0.3510291278362274, -0.9294403195381165, 0.6192401647567749, -0.1088452860713005, -0.9215322732925415, -3.0729353427886963, -0.0822688564658165, 3.0811376571655273, -0.20025213062763214, 0.923705518245697, 0.14785706996917725, 0.2346849888563156, 2.1571147441864014, -0.6309283971786499, -0.646783173084259, 1.2049652338027954, -3.0318963527679443, 1.7267056703567505, 0.15156494081020355, -2.722588300704956, -0.9618378281593323], [0.4222019910812378, -1.1367042064666748, 0.5281870365142822, -0.4317028224468231, -1.0941897630691528, -1.094412922859192, -1.5969141721725464, -0.3142249286174774, 1.8700112104415894, 0.6870980262756348, -0.15470781922340393, 0.2769286632537842, 0.02512645721435547, 1.6088682413101196, -0.17855672538280487, 0.8415858745574951, -0.5764632821083069, 0.24513188004493713, -1.2314367294311523, 0.9939470291137695, 0.5667905807495117, -0.3069569170475006, 0.03477109596133232, -0.6520532965660095, -0.9232854247093201, 0.48468077182769775, 1.0639476776123047, 0.6809764504432678, 0.2557907998561859, -1.070723295211792, -2.4318602085113525, 1.2195324897766113], [0.3762897253036499, -0.43816155195236206, 0.31029027700424194, -0.39709988236427307, 0.051675647497177124, -0.3076053261756897, -0.28466421365737915, 0.35933154821395874, -0.3033142387866974, -0.6675916910171509, 0.14110219478607178, 0.7751780152320862, 0.03707578778266907, 0.4893503785133362, 0.8504773378372192, 0.3057582974433899, 0.47457000613212585, -0.423488050699234, 0.2644187808036804, -0.22972604632377625, 0.012148113921284676, 0.43540337681770325, -0.7916703820228577, 0.026041246950626373, -0.025551946833729744, 0.6603721976280212, 0.03938842937350273, -0.7836878299713135, 0.8741428256034851, -0.6886786222457886, 0.2822408676147461, 0.4831139147281647], [0.14960572123527527, -0.40256577730178833, 0.051620811223983765, -0.029835499823093414, 0.43926751613616943, -0.39274895191192627, -0.34582585096359253, 0.7153786420822144, -0.6769037246704102, -0.44102200865745544, -0.3792705535888672, 0.34901192784309387, -0.16847142577171326, 0.2983967065811157, 0.6311304569244385, 0.20991362631320953, 0.011091221123933792, -0.47982388734817505, 0.2165561467409134, -0.558203399181366, 0.4457804560661316, 0.5374934673309326, -0.1931343376636505, 0.26087847352027893, 0.18325823545455933, 0.0755009725689888, -0.5596609115600586, 0.31919077038764954, 0.4901218116283417, -0.3384769856929779, 0.34126123785972595, 0.3216284513473511], [1.559521198272705, 0.7595894932746887, 0.2862461507320404, 2.662118911743164, -0.08689932525157928, 0.2702925503253937, -1.2783812284469604, 0.8426069617271423, 1.2878857851028442, -0.08093613386154175, 0.9909220933914185, -0.9466896057128906, -2.066340208053589, 0.28119292855262756, -0.20126661658287048, 0.06483293324708939, 0.2876715362071991, 2.3327322006225586, -2.043151617050171, 1.1285498142242432, 1.1314995288848877, -0.26998981833457947, 1.447934865951538, -1.0731886625289917, 0.7245244979858398, 2.506527900695801, 1.3095721006393433, -1.8422281742095947, -1.0762782096862793, -1.1243230104446411, 0.23546504974365234, -0.2805858254432678], [1.0203913450241089, 0.08116300404071808, -2.9578628540039062, 2.211118459701538, -1.9418376684188843, -0.09966365993022919, -0.022641660645604134, -1.324647068977356, 0.7399631142616272, 0.6133623123168945, -0.6224040985107422, -1.1099853515625, -0.8275735378265381, 0.020790066570043564, -0.17018654942512512, 0.6256363987922668, -0.08584580570459366, 1.9398961067199707, -1.4047842025756836, 0.7531172037124634, -0.4318673312664032, -0.6800236701965332, -0.07847309112548828, -1.1060373783111572, 0.4997415840625763, -0.33110862970352173, -0.9336711168289185, -0.9855186343193054, 0.23036693036556244, -0.41644343733787537, -0.37448805570602417, -0.9069491624832153], [0.325139582157135, -0.36997196078300476, -0.3964407444000244, 0.8596144914627075, -1.1950292587280273, 0.5470436215400696, -1.332574725151062, -1.1166281700134277, -0.038812555372714996, 0.6179280281066895, 0.002577840583398938, -0.12007522583007812, -0.07769477367401123, -0.14741256833076477, -0.22723989188671112, 0.614479660987854, 0.07728923857212067, 2.5028209686279297, -0.21006305515766144, 0.1764557957649231, 0.6337458491325378, -0.10279018431901932, 0.4919472634792328, -1.23777437210083, -0.16769826412200928, 1.5288769006729126, 0.9772942066192627, -0.9702921509742737, -0.13670381903648376, -0.2984834313392639, -0.11938773095607758, -0.9890824556350708], [1.2910845279693604, -0.45430827140808105, -3.3471086025238037, -0.6062141060829163, -2.7928569316864014, 1.8895899057388306, -1.4643402099609375, -1.295335292816162, 0.7429618239402771, -0.04578126221895218, -0.022438278421759605, 0.30866751074790955, -0.07001811265945435, -0.9507893919944763, 0.4257545471191406, 1.2487740516662598, -0.3281843364238739, 0.014582925476133823, 0.08666139841079712, 0.5314390659332275, -1.1901378631591797, 0.6484906673431396, -0.5264922380447388, -0.13499125838279724, -1.2141438722610474, 0.46517860889434814, 1.8022736310958862, 0.7730622291564941, -0.2408168464899063, 0.26492515206336975, -1.2696850299835205, -0.26359236240386963], [0.2862122356891632, -0.3532554805278778, 0.35841798782348633, -0.6149914264678955, 0.25062301754951477, -0.2901110351085663, 0.05234844610095024, 0.08730125427246094, -0.22337661683559418, -0.543410062789917, 0.19490204751491547, 0.3758576512336731, -0.11195462197065353, 0.19763553142547607, 0.358756422996521, 0.09383685886859894, 0.695376455783844, -0.16311997175216675, 0.36556127667427063, -0.21767428517341614, 0.30256250500679016, 0.49445340037345886, -0.6382236480712891, -0.09836570918560028, 0.027357179671525955, -0.2134547084569931, -0.27352699637413025, -0.38062945008277893, 0.2544357180595398, -0.3222840428352356, 0.24194423854351044, 0.3410088121891022], [-0.8467093110084534, -1.103865146636963, -4.3058271408081055, -0.2935290038585663, -2.28499174118042, 0.5654586553573608, -0.3011903464794159, -0.8750443458557129, 0.7564907073974609, -0.016048790886998177, -0.4328446686267853, -0.5591466426849365, -1.687233328819275, 1.6279680728912354, 0.43598565459251404, -1.7601512670516968, 0.004606880713254213, 0.17721843719482422, 2.1051712036132812, 1.5204814672470093, -1.1264629364013672, -1.8566679954528809, 1.1015795469284058, 0.4019816219806671, -0.6254758834838867, 0.7633044719696045, 0.6312760710716248, 0.2352682501077652, -0.769413948059082, 0.17071546614170074, -3.6053836345672607, -2.084780216217041], [1.2629404067993164, -0.7295360565185547, 1.6154602766036987, 0.26634883880615234, -1.5901345014572144, 1.2654024362564087, 0.020451541990041733, -1.1865816116333008, 0.7996358871459961, 0.30600714683532715, -0.9951309561729431, 0.5348158478736877, -0.639706015586853, 0.7384551167488098, -0.22963422536849976, -0.39214473962783813, -1.4729719161987305, 0.1479402780532837, 2.6367337703704834, 0.11261319369077682, 0.8808976411819458, -0.7412393689155579, 0.12562499940395355, -0.7950680255889893, -1.1590991020202637, 0.17224335670471191, 2.8534247875213623, 0.16381876170635223, 0.7205454111099243, -0.038504164665937424, -1.7228240966796875, -0.9050160646438599], [0.48683667182922363, 0.07455246895551682, -0.6758978962898254, 0.7343167662620544, -0.06506853550672531, 0.26160964369773865, 0.2911308705806732, 0.2941732406616211, -0.2617018222808838, -0.09981890767812729, -0.10167785733938217, 0.023398343473672867, 0.15843595564365387, 0.10293055325746536, -0.15216109156608582, -0.44041404128074646, 0.19877423346042633, -0.1730896532535553, -0.0127570116892457, 0.3079589009284973, -0.09847225248813629, 0.08680573105812073, 0.22207246720790863, -0.6941141486167908, 0.30770015716552734, -0.12820519506931305, -0.19595861434936523, 0.21707764267921448, -0.083455890417099, 0.2591541111469269, 0.025465620681643486, 0.12463303655385971], [-0.3349146246910095, 0.22318297624588013, 5.934330940246582, 0.6982473134994507, -0.22119617462158203, 0.9469584822654724, -4.483813285827637, 0.5978264808654785, 1.812488079071045, 0.7621706128120422, 0.42931056022644043, -4.828019142150879, 1.4816367626190186, 0.01699155569076538, -0.7939124703407288, -0.28888365626335144, 0.03423371538519859, 0.36240091919898987, 0.5125297904014587, 1.2393040657043457, -0.47752803564071655, 1.2691510915756226, 1.0993810892105103, 0.3798787295818329, 0.6387662291526794, 1.2260907888412476, 0.19516536593437195, 0.21392206847667694, -1.2831356525421143, 0.6002318263053894, -1.3015167713165283, -1.493577480316162], [1.598172664642334, -0.07510799914598465, -0.9584549069404602, 1.1278947591781616, 0.06195259094238281, -0.031238285824656487, -0.03275297209620476, 0.12032517790794373, 0.22005677223205566, 0.13641634583473206, 0.360873818397522, 0.15766771137714386, 0.12299782037734985, 0.09987379610538483, -0.47701331973075867, -0.2909236550331116, 0.11076658964157104, 0.04177412763237953, 0.7928266525268555, 0.08609563112258911, 0.013869172893464565, 0.07874180376529694, 0.03947250917553902, -1.8630118370056152, -1.495107889175415, -0.025375166907906532, -0.19496208429336548, -0.06875450909137726, -0.06010856106877327, -0.3767531216144562, 0.01677965186536312, 0.1560889482498169], [0.4159999191761017, 0.04949379339814186, -0.4750581681728363, 0.3947749137878418, 0.16843260824680328, -0.04593542218208313, 0.3370857536792755, 0.2980824112892151, -0.18329130113124847, 0.2125442922115326, 0.2738381624221802, 0.23364302515983582, 0.1552451252937317, -0.025325508788228035, -0.3384518325328827, -0.1122506856918335, -0.15642963349819183, -0.32831814885139465, -0.3549814522266388, -0.13146847486495972, 0.01520633976906538, 0.1990358531475067, -0.04903056100010872, -0.11842719465494156, -0.35474085807800293, -0.1646891087293625, -0.09773954749107361, 0.09510102868080139, -0.20155014097690582, 0.23542357981204987, 0.1827540397644043, -0.0074959443882107735], [0.18416908383369446, -0.006611788645386696, -4.682171821594238, 0.07141746580600739, 0.6389104723930359, 0.30284959077835083, 2.136432647705078, 0.30746257305145264, -0.5384502410888672, 0.24070222675800323, -0.3323715329170227, 0.45467880368232727, 0.2607108950614929, -0.0738782286643982, 0.009221652522683144, -0.11153913289308548, 0.23629765212535858, -0.9979405403137207, 0.14771445095539093, 0.5935416221618652, -0.09184106439352036, 0.0005526789464056492, 0.21362051367759705, 0.5589100122451782, -0.44385918974876404, -1.3793745040893555, -0.4536774158477783, 0.3899393081665039, 0.21409231424331665, 0.308078795671463, -0.03169810399413109, -0.010548979043960571], [-0.04094715043902397, 0.06911515444517136, -0.06418035924434662, -0.04344886913895607, -0.08356847614049911, 0.6079105734825134, -0.20903196930885315, 0.5703786015510559, -1.2201383113861084, 0.20269650220870972, -0.20712564885616302, 0.10015667974948883, 0.3111678659915924, -0.08793441206216812, 0.09595096856355667, -0.10079829394817352, 0.18562038242816925, -0.14717328548431396, 0.2789135277271271, -0.10203031450510025, -0.04154700040817261, 0.09720207750797272, 0.3028806149959564, 0.2758336663246155, -0.03194286301732063, 0.08037196844816208, -0.038096021860837936, -0.1473492830991745, -0.16164588928222656, -0.28931379318237305, 0.23141323029994965, -0.03921837732195854], [-1.197111964225769, -0.0957493782043457, -1.1325877904891968, -1.1199392080307007, 0.1766195148229599, 0.07794556766748428, 0.25366613268852234, 0.03684569522738457, -0.27162179350852966, 0.4016198515892029, -0.18994274735450745, 0.019684884697198868, 0.08671341836452484, 0.03128274902701378, -0.28049036860466003, -0.010305694304406643, -0.17305010557174683, 0.19425024092197418, -0.8496240973472595, 0.024127570912241936, 0.05449267104268074, 0.07228586077690125, -0.1648874431848526, 1.5798606872558594, 1.1822092533111572, -0.11417149007320404, -0.2271205484867096, -0.2111552357673645, -0.050737638026475906, 0.36011838912963867, 0.042489659041166306, 0.12962867319583893], [0.09803635627031326, -0.07266714423894882, -1.0819798707962036, 0.17838764190673828, 0.11495448648929596, 0.34251877665519714, 0.34484627842903137, -0.02247740887105465, -0.5955263376235962, 0.27544400095939636, -0.18652068078517914, 0.45716407895088196, 0.29527899622917175, -0.30373793840408325, 0.006146138999611139, -0.22177842259407043, -0.2558298110961914, -0.08667951822280884, -0.20167426764965057, -0.14524275064468384, -0.0893833190202713, 0.1781129688024521, -0.07257063686847687, -0.06852002441883087, -0.1532343477010727, -0.361606240272522, -0.005615365691483021, -0.29910823702812195, 0.057889096438884735, 0.2787044942378998, 0.1183876097202301, -0.06881315261125565], [0.9060626029968262, -0.07303698360919952, 0.03802326321601868, 0.14223332703113556, -0.1447996199131012, -0.37706851959228516, 0.11352979391813278, 0.01629425399005413, 1.0894736051559448, -0.010085524059832096, 0.22187277674674988, 0.025218183174729347, -0.1843900978565216, -0.007664544973522425, 0.1807623654603958, -0.23140960931777954, 0.24681207537651062, 0.024011658504605293, -0.029358798637986183, -0.3139757215976715, 0.16992324590682983, 0.14433838427066803, -0.06753548979759216, 0.32934409379959106, 0.4106687605381012, -0.04201012849807739, 0.17168794572353363, -0.19897480309009552, 0.10775699466466904, 0.8816712498664856, 0.07953410595655441, -0.007129952777177095], [-0.5004594922065735, -0.05300859734416008, 0.1718941628932953, -0.5041196942329407, -0.21505224704742432, 0.04358680546283722, 0.006983104161918163, 0.15843787789344788, 0.034236419945955276, 0.012153384275734425, 0.11753062903881073, -0.24783527851104736, 0.08029299229383469, -0.2552490830421448, 0.039144404232501984, 0.6704311370849609, 0.3596278131008148, 0.5885273814201355, -0.6665343046188354, -0.09943720698356628, 0.09749996662139893, -0.2816397547721863, 0.20380344986915588, 0.8670153021812439, 0.03143253177404404, 0.4984504282474518, 0.20795518159866333, -0.1008390262722969, -0.1907123178243637, -0.020610280334949493, 0.03127473592758179, -0.2855319082736969], [1.094671368598938, -0.06684526056051254, -0.18994656205177307, 0.4209863841533661, -0.2615204453468323, 0.3747340738773346, 0.4070925712585449, 0.41253188252449036, -0.5247490406036377, 0.20234978199005127, 0.8874767422676086, -0.061469241976737976, -0.7831103205680847, 0.5097175240516663, -0.046677302569150925, 0.36705923080444336, -0.23274333775043488, 0.15211167931556702, 0.5025650262832642, -0.15647713840007782, -0.08514542877674103, -0.014070550911128521, 0.22112531960010529, 0.3752128779888153, 0.3492453694343567, 0.11298596113920212, -0.27030518651008606, 0.3697771430015564, -0.03225593641400337, 0.056638531386852264, -0.5017496347427368, -0.6164265275001526], [-0.5155975222587585, -0.018111949786543846, -0.37149104475975037, -0.5286843180656433, -0.5383737087249756, -0.19304950535297394, 0.18057648837566376, 0.2584630250930786, 0.21639564633369446, 0.16085971891880035, -0.34663093090057373, -0.18521979451179504, -0.3890351951122284, 0.23401470482349396, 0.3847459554672241, -0.14874766767024994, 0.21753588318824768, 0.6467743515968323, -0.5667822957038879, -0.027543693780899048, 0.1117340475320816, -0.7969213724136353, -0.03209081292152405, 0.06702138483524323, 0.42364180088043213, 0.1977890282869339, 0.1315464973449707, 0.3233223557472229, 0.07241757959127426, 0.12870994210243225, -0.27924543619155884, -0.7757205963134766], [-0.6377683877944946, -0.09833571314811707, -0.5786325335502625, -0.5378273129463196, -0.5911941528320312, -0.048019684851169586, 0.12356830388307571, 0.22561247646808624, -0.15590070188045502, 0.11822397261857986, 0.015010642819106579, -1.02102530002594, -0.16915740072727203, 0.5927777886390686, 0.4495672285556793, -0.26264652609825134, 0.29544302821159363, 0.7537668943405151, -0.05649802088737488, 0.2371833324432373, 0.40514642000198364, 0.08946852385997772, 0.07410576939582825, 0.07264978438615799, 0.5550432205200195, 0.19602832198143005, 0.14808323979377747, 0.1668769121170044, -0.23939606547355652, 0.04286773130297661, -0.36320504546165466, 0.5216779708862305], [0.5019183158874512, -0.11337578296661377, 4.970820426940918, 0.6079548001289368, -2.3635685443878174, 0.24984131753444672, -2.1276121139526367, 0.3696621358394623, -0.36876991391181946, 0.36082538962364197, 0.12033712863922119, -0.08889178186655045, -0.7609964609146118, -0.022104470059275627, -0.47234687209129333, -0.26190540194511414, -0.41716980934143066, 2.4740805625915527, -0.7725130319595337, -1.262209177017212, 0.7588018774986267, -1.35063898563385, 1.0556578636169434, -0.9686780571937561, -0.7620144486427307, 2.6153554916381836, 1.4539601802825928, -1.0035669803619385, -0.43797072768211365, 0.338606595993042, 0.10947270691394806, -1.2442721128463745], [-0.8234802484512329, -0.1087045669555664, 0.40065962076187134, -0.39099761843681335, -0.2570215165615082, -0.020684778690338135, -0.8514370322227478, -0.08914440125226974, 0.2447139322757721, -0.40979859232902527, -0.0833173617720604, -0.23832248151302338, -0.03893579542636871, 0.16359016299247742, -0.44968023896217346, -0.2099149376153946, 0.2929292619228363, -0.11791905760765076, -0.4925948679447174, -0.033928774297237396, -0.05247403681278229, -0.06230403482913971, -0.0015554634155705571, 0.5466029047966003, 0.4474641680717468, 0.13515134155750275, 0.16452938318252563, -0.09751676768064499, 0.1591150164604187, 0.007025942672044039, -0.12847265601158142, -0.10375289618968964], [-0.10969235002994537, 0.12641118466854095, 0.41402924060821533, -0.5963202714920044, -0.4834884703159332, -0.2564701437950134, -0.4066988229751587, -0.15663135051727295, 0.137844517827034, -0.0581950768828392, 0.28795838356018066, 0.038563717156648636, 0.4247203469276428, -0.1786355823278427, -0.14200802147388458, 0.6663622260093689, 0.2837243378162384, 0.268527626991272, 0.1363634318113327, -0.16140912473201752, 0.07080916315317154, 0.09452392905950546, 0.00019495910964906216, -0.2953004240989685, 0.2444274127483368, 0.3294418156147003, 0.23375871777534485, 0.00523481797426939, 0.037577297538518906, 0.30674251914024353, 0.14360828697681427, -0.1176256462931633], [0.06585875898599625, -0.15497726202011108, 0.37301599979400635, 0.010632836259901524, -0.14339043200016022, 0.02613772079348564, 0.3904401361942291, -0.5370388031005859, -0.16108351945877075, -0.02551335096359253, 0.48682498931884766, 0.2988470196723938, -0.46179792284965515, 0.28076279163360596, -0.08002214878797531, -0.45596012473106384, 0.42624035477638245, -0.213124617934227, -0.3671676218509674, -0.13640530407428741, -0.13727699220180511, -0.08794544637203217, 0.11934784799814224, -0.15513110160827637, -0.24049131572246552, 0.1428648978471756, -0.22960735857486725, 0.3591969907283783, -0.059234023094177246, -0.13402360677719116, -0.2588440179824829, 0.2312120646238327], [0.6891065835952759, 0.324557900428772, 4.413654804229736, 0.4224125146865845, -0.2632714807987213, -0.15008898079395294, -1.6333659887313843, 0.258853554725647, -0.29230114817619324, -0.47829777002334595, 0.07729646563529968, -0.08999808132648468, -0.18246015906333923, -0.418783962726593, -1.1892122030258179, -0.05799119547009468, 0.4593469202518463, -0.8659391403198242, 0.07125091552734375, -0.42732593417167664, -0.018386054784059525, -0.06161392107605934, 0.27388665080070496, -0.013859039172530174, 0.1428636759519577, 0.6788997054100037, 1.0757800340652466, -0.8318067789077759, 0.5048911571502686, -0.6850765347480774, 0.16615056991577148, -0.413600355386734], [-0.03530660271644592, -0.05652351304888725, -0.807847261428833, 0.15140381455421448, 0.3253427743911743, 0.23705869913101196, 0.33758020401000977, -0.2168998271226883, -0.44541189074516296, 0.034619782119989395, -0.08010820299386978, -0.15302638709545135, 0.40807217359542847, 0.010713331401348114, -0.14731593430042267, -0.19188949465751648, -0.4760264754295349, -0.2903805673122406, 0.6225113272666931, 0.20648804306983948, 0.14583609998226166, -0.1281088888645172, -0.008985382504761219, -0.11379615217447281, 0.41581374406814575, 0.05490713566541672, 0.11572235822677612, 0.17627009749412537, -0.11330848932266235, -0.264024555683136, -0.09425833821296692, 0.5172942280769348], [-0.37224847078323364, -0.13518165051937103, -0.4033471345901489, 0.013106810860335827, -0.06417057663202286, -0.2729348838329315, 0.04517126828432083, -0.0022513330914080143, 0.44216254353523254, 0.2584798038005829, -0.14443662762641907, 0.43732815980911255, 0.1453230232000351, -0.004321649670600891, -0.019248487427830696, 0.1283845156431198, -0.06202302873134613, -0.07576322555541992, -0.34809303283691406, 0.1723155528306961, 0.05144617706537247, 0.32377639412879944, 0.2437245398759842, -0.05864203721284866, 0.6871126890182495, -0.28974199295043945, -0.2769124209880829, 0.08006960898637772, -0.014368737116456032, -0.346577525138855, 0.23178830742835999, 0.15306097269058228], [0.0934191569685936, 0.1818658858537674, 3.201897382736206, 0.18591324985027313, -0.16197362542152405, -0.24868464469909668, -0.9877832531929016, -0.19226650893688202, 0.35596588253974915, -0.0644325390458107, 0.6238936185836792, -0.17934754490852356, -0.17168071866035461, 0.3296232223510742, -0.0669340193271637, 0.139468714594841, 0.09228938817977905, 1.216559886932373, -0.3681175410747528, 0.6850694417953491, 0.7525193095207214, 0.03425776585936546, -0.16197845339775085, -0.9093550443649292, -0.20336471498012543, 1.2007243633270264, 0.5050135850906372, -0.15771466493606567, 0.06900271028280258, 0.04190428927540779, -0.1764564961194992, 0.36703139543533325], [0.6926445364952087, 0.18293128907680511, -0.5737043619155884, 0.02170632965862751, -0.0805768221616745, 0.6598237156867981, 0.5737420320510864, 1.4309645891189575, -0.9068337082862854, -0.09023883193731308, -0.2780393064022064, -0.33431151509284973, -0.5664981603622437, 0.054042749106884, 0.24942126870155334, -0.5037844181060791, 0.5396906137466431, 0.3807232975959778, 0.48845040798187256, -0.6396117806434631, 0.17907342314720154, -0.0004119951045140624, -0.21028071641921997, 0.5610836744308472, -0.22735369205474854, 0.6091918349266052, 0.46660539507865906, -0.07813289016485214, -0.016772566363215446, 0.36333903670310974, -0.12726972997188568, -0.6456474661827087], [0.4135209321975708, 0.07790117710828781, -0.17181070148944855, -0.01425489317625761, -0.11611655354499817, -0.012753881514072418, 0.060493551194667816, 0.3841437101364136, 0.0033351073507219553, 0.29245245456695557, 0.16468164324760437, 0.26211148500442505, -0.16874045133590698, 0.12705789506435394, -0.5988024473190308, -0.005398730281740427, 0.021668650209903717, -0.09974770992994308, -0.36921998858451843, 0.2824389338493347, -0.1330268383026123, 0.017550138756632805, 0.3858126103878021, -0.19153933227062225, 0.4001125395298004, -0.0710541158914566, 0.261648029088974, 0.35408782958984375, -0.08641330897808075, -0.12611059844493866, -0.10155060142278671, 0.14379450678825378], [-0.7060255408287048, -0.0596013218164444, 0.5469877123832703, -0.33688345551490784, -0.046105749905109406, 0.037480100989341736, -0.3196929395198822, 0.21569159626960754, 0.03440273553133011, -0.12233777344226837, 0.12111692130565643, -0.17969496548175812, -0.0009915997507050633, 0.24174413084983826, 0.003947000484913588, 0.25106146931648254, 0.17154408991336823, 0.46735382080078125, 0.08106140792369843, -0.05832704156637192, 0.11295125633478165, 0.07871299237012863, -0.13380205631256104, 0.6650223135948181, -0.7617752552032471, 0.5012741088867188, 0.055479876697063446, -0.20662331581115723, 0.05396030843257904, 0.012290440499782562, 0.06639733910560608, 0.054815612733364105], [-0.2571526765823364, -0.16587218642234802, -0.06868667155504227, -0.39232394099235535, 0.0716884434223175, -0.013860518112778664, 0.4345855414867401, 0.061324283480644226, 0.21021832525730133, -0.28718939423561096, 0.3482028841972351, -0.22302031517028809, -0.037147004157304764, 0.17241913080215454, 0.1691543459892273, -0.2884185016155243, -0.0276800449937582, 0.19957023859024048, 0.27799728512763977, -0.2849574685096741, 0.22790376842021942, 0.022491371259093285, -0.13649901747703552, 0.9889930486679077, 0.8435001373291016, -0.18422652781009674, -0.32529306411743164, -0.16021588444709778, 0.09427850693464279, 0.3629394769668579, 0.03882572054862976, 0.10802319645881653], [0.8095639944076538, -0.02884155511856079, 2.040999412536621, 0.35034841299057007, -0.529679000377655, 0.13133463263511658, -0.8551909327507019, -0.11681906878948212, -0.057332225143909454, -0.06815922260284424, 0.06356876343488693, -0.6510096788406372, -0.23777878284454346, -0.1080111563205719, -0.2754455506801605, 0.2226463109254837, 0.06042474880814552, 0.06510134786367416, 0.5780922770500183, -0.0982482060790062, 0.135666161775589, -0.17823931574821472, -0.013786510564386845, -1.1083177328109741, -0.5907093286514282, 0.351778119802475, 0.3410128951072693, -0.09108476340770721, 0.1745201051235199, -0.3765162527561188, -0.0756402239203453, -0.3510262072086334], [0.788557231426239, -0.09929338842630386, 0.22431930899620056, 0.3124215006828308, 0.5120247602462769, 0.08874376118183136, 0.21627506613731384, -0.03653004765510559, -0.08421295881271362, -0.27960944175720215, 0.12801212072372437, 0.21903887391090393, -0.2074676752090454, -0.0937812328338623, -0.04612535238265991, -0.15950295329093933, -0.044121984392404556, -0.4202163815498352, 0.5358186364173889, -0.08791293203830719, -0.04930988699197769, -0.09034010767936707, -0.019593534991145134, -0.47272101044654846, -0.6174443960189819, -0.2733944356441498, 0.25684821605682373, -0.18638499081134796, 0.24788865447044373, -0.18742699921131134, 0.062351152300834656, -0.29651597142219543], [-0.1735927164554596, 0.036903150379657745, -0.4924677908420563, -0.2372516691684723, -0.03175192326307297, -0.10201447457075119, 0.12187118828296661, 0.18735845386981964, 0.15343597531318665, 0.2704012095928192, 0.006905189715325832, 0.36917608976364136, 0.14377179741859436, 0.002820107853040099, 0.08654707670211792, 0.049340613186359406, 0.3643324077129364, 0.11168445646762848, -0.18537308275699615, 0.4642682671546936, 0.19026267528533936, 0.1547049582004547, 0.24843786656856537, 0.09268783032894135, 0.8437899351119995, 0.008835325948894024, -0.031418949365615845, 0.26215898990631104, 0.0011783039662986994, -0.35463500022888184, 0.15274184942245483, 0.24353136122226715], [0.39817485213279724, 0.41906657814979553, -0.4733138978481293, 0.25488507747650146, 0.5597203969955444, 0.046485815197229385, 0.2902098298072815, 0.4583819508552551, 0.15954726934432983, -0.17873968183994293, -0.013501390814781189, 0.01718210242688656, 0.24008594453334808, -0.36653977632522583, -0.08087491244077682, 0.1046447679400444, 0.11973689496517181, -0.7125458717346191, -0.4028443992137909, 0.027198556810617447, -0.3486391305923462, -0.15937986969947815, -0.1046663299202919, -0.31536349654197693, -0.2723587155342102, -0.565645158290863, 0.27012139558792114, -0.29819774627685547, 0.1922043114900589, -0.022087324410676956, 0.1843801736831665, -0.1807616651058197], [-0.8903048634529114, 0.007611805107444525, 0.6797618865966797, -0.4429762363433838, 0.19624640047550201, 0.062324944883584976, -0.4417993426322937, 0.09084215015172958, -0.13377322256565094, -0.08561896532773972, 0.30362290143966675, -0.14524789154529572, 0.1563035100698471, -0.047649819403886795, 0.0444473996758461, -0.5302320122718811, 0.2537732720375061, -0.13398487865924835, 0.3974458873271942, -0.06575034558773041, 0.03490740433335304, -0.12373781204223633, -0.029354136437177658, -0.06903378665447235, -0.14894628524780273, 0.05655691400170326, -0.28039512038230896, -0.20606179535388947, -0.15650922060012817, 0.9469221830368042, 0.09763648360967636, -0.0756249949336052], [-0.8579228520393372, 0.4254016876220703, 0.7034507989883423, -0.15501879155635834, 0.12841585278511047, -0.4320306181907654, 0.105648934841156, -1.5649030208587646, 0.8136321306228638, -0.056200023740530014, -0.11023923754692078, 0.732437789440155, 0.426470547914505, -0.5952095985412598, 0.4059950113296509, 0.2410702109336853, 0.23058123886585236, -0.262544184923172, -0.06982006132602692, 1.128920555114746, -0.9865494966506958, -0.7913128733634949, 0.5576222538948059, -0.36057060956954956, 0.2516725957393646, -0.3832851052284241, -0.7364453673362732, 0.3310149908065796, -0.4470744729042053, -0.43790894746780396, 0.22959813475608826, 0.04180716723203659], [-0.41050681471824646, -0.19838030636310577, 0.0546705536544323, -0.10366513580083847, 0.02175978571176529, -0.3239792287349701, -0.30335450172424316, -0.5197269916534424, 0.634591281414032, 0.22116762399673462, -0.196097731590271, 0.3602965176105499, 0.07139682024717331, -0.11335927248001099, 0.06047052517533302, 0.18280856311321259, -0.4214702248573303, -0.22533181309700012, -0.25434133410453796, 0.052986081689596176, -0.2406345158815384, -0.1444949060678482, 0.09029936790466309, 0.24360887706279755, 0.49345073103904724, -0.37984928488731384, -0.7289654016494751, 0.08744625002145767, 0.011632388457655907, -0.47358423471450806, 0.11994677782058716, 0.29661843180656433]], "rec.bias_ih_l0": [0.26435407996177673, -0.47908738255500793, 1.4823142290115356, 0.08287271857261658, -0.0707971453666687, 0.5710403323173523, 0.6634438633918762, -0.1880977898836136, 0.25177040696144104, 0.20948578417301178, 0.3344116806983948, 0.21422214806079865, 0.19102761149406433, -0.09891416132450104, 0.34911027550697327, 0.4320825934410095, 0.1630438268184662, 0.4755036234855652, -0.05300648882985115, 0.04959079250693321, 0.26776912808418274, 0.1834823042154312, 0.4601801931858063, 0.0192834734916687, 0.04951776936650276, 0.7339175939559937, 0.13744696974754333, 0.23518064618110657, 0.18470226228237152, 0.3112506568431854, 0.3787687122821808, 0.246188685297966, 0.5998678803443909, 0.023252544924616814, -1.2821201086044312, 0.06774550676345825, -0.7969521880149841, 0.155349999666214, -0.9607511162757874, -0.13199540972709656, 0.5510914921760559, -0.23332910239696503, 0.7916809320449829, -0.136793315410614, -0.03779231756925583, 0.37553298473358154, -0.9342947006225586, 0.8912584185600281, 1.2038453817367554, -0.948815107345581, 0.49248063564300537, 0.1729625165462494, -0.5138639807701111, -0.3426569402217865, -0.8620083928108215, 0.7131181359291077, 0.5613006353378296, 0.3491351306438446, -0.8542903661727905, -0.7863082885742188, -0.11683480441570282, 0.6802196502685547, -0.4028181731700897, -0.12812653183937073, 0.185888409614563, 0.796600341796875, -0.017255421727895737, -0.33167967200279236, 0.023559188470244408, -0.1879298835992813, 0.15381038188934326, -0.07606938481330872, -0.2793612480163574, -0.48743951320648193, 0.027059275656938553, -0.10921909660100937, -0.036581218242645264, 1.9407997131347656, 0.17608214914798737, -0.13126930594444275, 0.10606299340724945, -0.19852615892887115, -0.37432625889778137, -0.14023424685001373, 0.03757655993103981, 0.11203935742378235, -0.34455958008766174, -0.1519370824098587, 0.49226078391075134, -0.14956632256507874, -0.3387218713760376, -0.21240732073783875, 0.3337807357311249, -0.11640208214521408, 0.21508152782917023, 0.03482460975646973], "rec.bias_hh_l0": [0.044637322425842285, -0.37722161412239075, 1.372300148010254, -0.07990608364343643, 0.049429744482040405, 0.3997078537940979, 0.8400446772575378, -0.09311121702194214, 0.24719730019569397, 0.26078641414642334, 0.32705965638160706, 0.10193701088428497, 0.17323707044124603, -0.10220444202423096, 0.6148368120193481, 0.5735517740249634, 0.04270438104867935, 0.29688888788223267, -0.12732304632663727, -0.15899887681007385, 0.29042574763298035, -0.023890318349003792, 0.31295594573020935, 0.06622978299856186, 0.02754104509949684, 0.8159016370773315, 0.3344923257827759, 0.22895276546478271, -0.023203745484352112, -0.0007312165107578039, 0.06137806549668312, 0.30531227588653564, 0.7861950993537903, -0.0024603204801678658, -1.228883981704712, 0.13491520285606384, -0.6607304811477661, 0.25246456265449524, -1.0775688886642456, -0.21736890077590942, 0.5151215195655823, -0.37724414467811584, 0.8273219466209412, -0.3279307782649994, -0.10306194424629211, 0.3280797600746155, -1.059187412261963, 0.7545502185821533, 1.1115363836288452, -0.6809467077255249, 0.5386971235275269, -0.0386558398604393, -0.6493081450462341, -0.3273997902870178, -0.7377045154571533, 0.6162409782409668, 0.8507905006408691, 0.3317094147205353, -1.0836411714553833, -0.9245070219039917, -0.0963020995259285, 0.6355432271957397, -0.34746813774108887, 0.0069826641120016575, -0.09147901833057404, -0.7787679433822632, 0.1700914353132248, -0.3242088258266449, 0.2690240442752838, -0.435714989900589, -0.01663566753268242, -0.2179896980524063, -0.03348271921277046, -0.477523535490036, -0.13330389559268951, 0.09828343242406845, -0.13585257530212402, -0.6629652380943298, 0.40446484088897705, -0.14612072706222534, -0.05197976902127266, 0.24998190999031067, -0.045606885105371475, -0.2697639763355255, 0.36281657218933105, 0.09517045319080353, -0.4585427939891815, -0.005817093886435032, 0.13219355046749115, 0.10137908160686493, -0.25839534401893616, -0.2566365897655487, 0.17976592481136322, 0.0953863114118576, -0.01814202032983303, -0.0032386421225965023], "lin.weight": [[-0.22441966831684113, 1.0549513101577759, -0.45326295495033264, 0.11092895269393921, -0.2104412019252777, -0.336963027715683, -0.2965730130672455, 0.24110747873783112, 0.1742447465658188, -0.02149006724357605, 0.016867620870471, -0.25299203395843506, 1.0976580381393433, -1.1156227588653564, -0.09208252280950546, 0.12733659148216248, 0.6378405094146729, -0.0729793906211853, -0.1328788548707962, -0.2247631549835205, -0.3602365255355835, 0.7875292897224426, -0.14854617416858673, -0.21450090408325195, 0.311865895986557, 0.1363573670387268, 0.959476888179779, 0.3593592345714569, -0.5832236409187317, -0.3239559829235077, 0.9614015817642212, 0.22309809923171997]], "lin.bias": [0.2775975167751312]}}