{"model_data": {"model": "RecNet", "skip": 0}, "blocks": {"0": {"block_type": "GRU", "input_size": 1, "output_size": 1, "hidden_size": 32}}, "training_info": {"current_epoch": 485, "training_losses": [0.4847783099908334, 0.4187561220840201, 0.401383131935999, 0.3958995487879623, 0.3880301471073907, 0.38389937386110223, 0.3798156041506823, 0.3746573389931159, 0.3680635099964483, 0.3482089063225241, 0.30083611334202354, 0.2581463455670066, 0.2348386463164896, 0.21765260296789088, 0.20600123490606034, 0.19337987810276552, 0.18431403350036638, 0.17445134320719677, 0.16592750763641548, 0.15770969619708405, 0.15312885422888511, 0.1464879521374385, 0.14106604837897146, 0.13704058198959798, 0.13341867675787053, 0.1294641038886719, 0.12489415511682435, 0.12187019671470702, 0.1196382102229959, 0.11661464406491873, 0.11429089510982685, 0.11174863856285812, 0.10952127634172704, 0.10743201478057866, 0.10577220718872238, 0.1029612406265813, 0.10378508564907234, 0.1016274574998911, 0.09801070752565735, 0.09688815906305205, 0.0947173051233706, 0.09243036227228194, 0.09156200321173513, 0.09060297697153571, 0.08955545175530306, 0.08724713717986432, 0.0879312538868421, 0.08599859531726932, 0.08566546180684649, 0.08395126114248648, 0.08286834464638264, 0.08261218754115042, 0.08116447110357997, 0.08120669766220372, 0.07992112012459085, 0.07913763247212613, 0.07889993892160138, 0.07840464730420478, 0.07832217916797897, 0.07610056003821748, 0.07641503914537562, 0.0756830520407817, 0.07431728806491796, 0.07308123862467608, 0.07225798177472377, 0.07173402256078341, 0.07069334626052674, 0.07015127942038628, 0.06999604108852225, 0.07044722441003308, 0.06850880143147978, 0.06820488538496292, 0.0671409784525923, 0.06623808654968615, 0.06575026409700511, 0.06527888678715794, 0.06478081982244145, 0.06515551017379606, 0.06402488188310103, 0.06403710114975254, 0.06326676985587586, 0.06272602615902176, 0.061340558137018955, 0.0628918329519885, 0.06244424736586871, 0.060683542046115375, 0.06066182830866861, 0.06011917994224599, 0.06078452685267314, 0.05994687068530104, 0.05909827869845095, 0.05865480990886882, 0.05976583515959128, 0.0585793457477801, 0.05853751714208296, 0.05837513704167364, 0.05813125828160095, 0.05746408865799183, 0.05885667854000802, 0.057877198750661184, 0.05653022715289679, 0.05614672042429447, 0.0566159103053634, 0.05657168023602722, 0.055662627162581135, 0.05594263761606697, 0.05506366856589719, 0.05609182981991922, 0.055659812234051816, 0.05471797627336407, 0.05494850134936634, 0.054847371141583515, 0.056473096953584004, 0.055217357836179905, 0.053002073792377834, 0.05388672548261556, 0.053229299555351196, 0.05272337741085462, 0.054114468135665374, 0.053684508554976106, 0.05283314847786512, 0.052636581878238296, 0.05186331209230732, 0.05200665514287237, 0.05261178584406515, 0.05211361113016482, 0.05170815824470542, 0.051811642001395104, 0.05362078761560963, 0.05303338068452749, 0.05106827610039285, 0.05041994041968863, 0.0502690343524922, 0.04980192950914625, 0.05194800606529627, 0.050594906117041386, 0.04949213667204242, 0.049560680664930634, 0.04938802527650804, 0.049699488101986704, 0.049428711427593384, 0.04900127301573172, 0.049579340256992475, 0.048941301726191835, 0.04824335886733969, 0.04856676001150112, 0.048044070601463325, 0.048053727188909594, 0.0483731043875798, 0.04775358772800341, 0.047540088867550935, 0.047743745680366254, 0.04745039216230638, 0.04743398805209376, 0.046963068178866973, 0.04686713591217996, 0.04664061521179974, 0.04749081216075204, 0.04777996946585837, 0.046165579588261334, 0.04634611421059092, 0.046518491931840204, 0.04601911795869856, 0.04613969481683204, 0.04565987556979253, 0.04588451538863895, 0.04599276316872277, 0.045631542148721685, 0.04627940266139129, 0.046027280172550825, 0.04554028893433897, 0.04530194950858494, 0.04542495459076259, 0.0449523608980386, 0.045593897207313556, 0.0446555170490612, 0.04518745446807475, 0.04487165393211045, 0.04429520280765636, 0.04373817602414396, 0.04473132660685036, 0.043634489880173245, 0.04397967301442154, 0.043616214915263386, 0.04413931540140955, 0.044022686486192904, 0.04334835709653213, 0.043275790694230175, 0.04411320980069796, 0.04319307413073136, 0.044470696135532936, 0.13279280045928507, 0.045426890659206486, 0.043345088916286426, 0.043195609166589266, 0.04254564182687697, 0.04276166915857269, 0.0431195110651096, 0.04265911966054277, 0.042686209772024065, 0.04285275133919309, 0.042801670149549255, 0.04267849927985822, 0.04242649646899239, 0.04260346813538631, 0.04190466391805608, 0.04160969160110146, 0.042317707926131695, 0.04188409914843156, 0.04187762253470235, 0.041825677897152184, 0.041659994183906486, 0.04163660948442948, 0.04177219339634304, 0.041724173349098524, 0.04159122915611929, 0.04173710604210372, 0.04121804765921522, 0.041587900793687856, 0.04098282844832095, 0.04107389061457732, 0.041638630526986985, 0.04086694420109708, 0.04038847614587709, 0.04082659989075323, 0.04087136247098543, 0.040535523347532396, 0.04055421138424185, 0.04028648688373242, 0.0402409196226531, 0.03987756008645156, 0.03972109075176057, 0.04033423323401964, 0.03993919879718163, 0.04010662515405806, 0.04063005666188025, 0.03952641246005796, 0.039579122170031844, 0.0397111830942623, 0.04002718748706211, 0.039278322086947697, 0.03931056292630829, 0.039644256143455785, 0.039334524441026635, 0.03910468396875862, 0.039292759032218495, 0.03893916053673276, 0.03956906789272733, 0.038670957542036644, 0.03891446660635629, 0.03921606134042723, 0.03883309543205353, 0.0387539353112799, 0.038493345270852575, 0.03859072929707828, 0.03937839244661684, 0.04074659599777456, 0.03900777924406741, 0.03855651529965461, 0.0387453650420701, 0.038133943196410294, 0.03826839386110569, 0.038227284309006744, 0.03795554891059344, 0.03811083466129062, 0.03752679919049918, 0.03768502783889024, 0.037618808288054605, 0.03780489034539499, 0.037952849163685916, 0.037273992019306326, 0.03767477760284945, 0.03765554704957388, 0.03766240291720764, 0.03687313126472684, 0.036929931651873436, 0.03739512475304209, 0.03709300393661991, 0.03701809164765594, 0.03731255893680183, 0.036903580871422766, 0.03682908060500859, 0.03663746965444321, 0.036916874400521445, 0.03680072052331713, 0.03665579922267465, 0.036460397798301916, 0.036279984901042346, 0.036188773073062494, 0.03660938486323825, 0.036792121479868316, 0.03609809704886919, 0.035923437390766755, 0.03649555049933396, 0.03614350932940551, 0.03560321983675679, 0.036667525952730276, 0.03571884752880152, 0.03572984414126773, 0.036069978545601296, 0.0360661979534893, 0.035419872596061656, 0.03608915276897999, 0.03579594382363093, 0.03553525423449646, 0.035230793361249686, 0.035392496384099706, 0.0354462197389115, 0.03520084291019223, 0.03528842926267293, 0.03482998516894393, 0.03498760944643577, 0.0349281197655704, 0.03486879495299094, 0.035107008964669964, 0.03524233753393803, 0.035425539025674004, 0.034975744792949647, 0.03480967547284899, 0.037346961826400515, 0.03627129245017256, 0.03494504236543623, 0.03498143792853921, 0.03449838754854032, 0.03496687543312353, 0.03424178691000327, 0.034052372160186244, 0.03659962704888992, 0.035311915633546846, 0.03409085278217862, 0.034124933152955464, 0.03413101862027467, 0.03433682694244985, 0.034038387166408744, 0.03556333260320418, 0.035170390170865824, 0.033821124526031025, 0.03362815347258243, 0.03396605647640763, 0.03388755377261089, 0.034086677412103326, 0.03384055711582981, 0.034454248101728695, 0.03356221675050337, 0.03371387168269169, 0.0338342770141876, 0.03401430132919802, 0.03357735408058802, 0.03389879566460073, 0.033578230452106964, 0.034006860563773424, 0.03377765010098939, 0.03367736927753726, 0.03348146602753308, 0.0337312775845458, 0.033212116865029964, 0.03415139334868978, 0.03312874541847737, 0.032933525408485105, 0.03276517198348491, 0.03306263028462599, 0.03289663480510089, 0.03307723598978059, 0.032846483834353936, 0.0338872199509196, 0.033282436986828784, 0.033331937604136275, 0.03298175373332358, 0.032801812094358083, 0.0326731622630319, 0.03293074828620953, 0.03339319603590222, 0.03261310499246147, 0.03306521497086272, 0.03281495352759474, 0.032840397097049404, 0.03259788878721657, 0.032719777627884375, 0.03232879218548633, 0.03512559111786451, 0.03352723255535805, 0.03201568656746154, 0.03223305215829283, 0.032251704390487315, 0.032578310802240266, 0.0325742291268445, 0.03266617326767414, 0.03185777071343324, 0.03223056120302092, 0.03215503339752458, 0.03218728050819368, 0.0325272594995845, 0.032181718746538863, 0.031932283032612946, 0.031995982197778564, 0.03190247843937054, 0.03205886894425789, 0.031570562025435366, 0.03171127996794492, 0.031796176047003896, 0.03191524274139242, 0.03132317289286716, 0.031652927843176505, 0.031563290588364205, 0.03142261545343155, 0.03140497941209318, 0.031253835258932855, 0.031590228298582226, 0.03145685802552511, 0.03145921348243371, 0.031140458086723246, 0.031045076902955767, 0.030898582828291627, 0.031226055986889, 0.03127988489864805, 0.031361185706692274, 0.03089926366137897, 0.030853696608940107, 0.031219360379308652, 0.031080745357125024, 0.030892044544679587, 0.030697599071525524, 0.03085316070536902, 0.03101660805306845, 0.031084380511726652, 0.030780615992602203, 0.030443569533405945, 0.030695534205402848, 0.03058164748181771, 0.03036743691402741, 0.030577654481635658, 0.030609416279506373, 0.03073088617015678, 0.030566623367901356, 0.030472082400380022, 0.031008873080423514, 0.030642672677754192, 0.030095718522834315, 0.030507606789832574, 0.030220555767489523, 0.03045973761986893, 0.03018977835338998, 0.029918091686128023, 0.02991232290779326, 0.03009453062391417, 0.030111729170425563, 0.030429342404830372, 0.030031268614912777, 0.03020517169739809, 0.02965585437796817, 0.029990318291760104, 0.029538000761470822, 0.030404734062393766, 0.030035731842281754, 0.029625950066687223, 0.031148915974326532, 0.02952768142310927, 0.029471645047041504, 0.02924399323725178, 0.029433640823760012, 0.029484450378660845, 0.029092223002490668, 0.029156110397624693, 0.029059309811730466, 0.029091623551272715, 0.029113140755466057, 0.028686452529985803, 0.02956772599877281, 0.029456248788114685, 0.02882076023666599, 0.028981734333293784, 0.028944722452358188, 0.028743189042917897, 0.02937348054528429, 0.028738913851995746, 0.028439336698260397, 0.028882691270804835, 0.028518532490502894, 0.029403263306874153, 0.028570724926380953, 0.028397504010467558, 0.02861840997266209, 0.028715249383822083, 0.02928220309534824, 0.028644750393661], "validation_losses": [0.39377716183662415, 0.35349467396736145, 0.23315377533435822, 0.1738264411687851, 0.16901172697544098, 0.13441690802574158, 0.13478948175907135, 0.11510495096445084, 0.11472691595554352, 0.10711528360843658, 0.09262623637914658, 0.09300999343395233, 0.08316413313150406, 0.09116598963737488, 0.07744941860437393, 0.0746895968914032, 0.0791739746928215, 0.06915415823459625, 0.06806742399930954, 0.06571057438850403, 0.06381796300411224, 0.05918195843696594, 0.06696151942014694, 0.06637676805257797, 0.061318300664424896, 0.06160908564925194, 0.07454663515090942, 0.055716123431921005, 0.05687181279063225, 0.05332593992352486, 0.05342525616288185, 0.0540173277258873, 0.05171159282326698, 0.05225666984915733, 0.05879398435354233, 0.05063091591000557, 0.05081837996840477, 0.051213521510362625, 0.04889058694243431, 0.04752310365438461, 0.0518515482544899, 0.05863053724169731, 0.04766993969678879, 0.04562497138977051, 0.05041741579771042, 0.044307172298431396, 0.04704912379384041, 0.046289365738630295, 0.04314805939793587, 0.04993320256471634, 0.04900380223989487, 0.0482645183801651, 0.044916845858097076, 0.0442032590508461, 0.04373236373066902, 0.04500969126820564, 0.043730273842811584, 0.06934397667646408, 0.04189411178231239, 0.04594571143388748, 0.04591812565922737, 0.04415418952703476, 0.040488336235284805, 0.10549857467412949, 0.048201143741607666, 0.039847251027822495, 0.06616891920566559, 0.0510784387588501, 0.03989844769239426, 0.043962717056274414, 0.038919661194086075, 0.03959035500884056, 0.04817758873105049, 0.038465436547994614, 0.045769933611154556, 0.062016505748033524, 0.04110115393996239, 0.04262501001358032, 0.04021647199988365, 0.04450159892439842, 0.037780918180942535, 0.03925294056534767, 0.04125808924436569, 0.039126910269260406, 0.03766978904604912, 0.03985293209552765, 0.036493852734565735, 0.03593882545828819, 0.03570522367954254, 0.035508885979652405, 0.03498820587992668, 0.03649355471134186, 0.03809818997979164, 0.03561688959598541, 0.035661667585372925, 0.035070229321718216, 0.03426065295934677], "train_epoch_av": 15.801892042160034, "val_epoch_av": 29.215767741203308, "total_time": 2.9003287598159577, "best_val_loss": 0.03426065295934677}, "state_dict": {"layers.block_1.rec.weight_ih_l0": [[1.2296788692474365], [-0.6178411841392517], [2.1732704639434814], [0.3509630560874939], [1.0126515626907349], [-4.6290364265441895], [0.7300304770469666], [2.3437771797180176], [-0.09911391884088516], [0.49492114782333374], [-0.06996212899684906], [-0.31859922409057617], [-0.6105388402938843], [-0.45258772373199463], [-2.189741611480713], [-0.47115057706832886], [-0.9386024475097656], [-1.125082015991211], [-0.42946353554725647], [0.8341556787490845], [0.5874781608581543], [-0.6142252087593079], [3.840906858444214], [0.06762022525072098], [0.9506487250328064], [1.1528459787368774], [-1.7089375257492065], [-3.020838499069214], [-0.07841306179761887], [-0.03552625700831413], [0.32819515466690063], [0.013985314406454563], [-0.22340480983257294], [0.3074265420436859], [-1.162980079650879], [2.6963369846343994], [-1.2352852821350098], [1.65328848361969], [0.9101957082748413], [0.4156017005443573], [-0.2599528729915619], [-1.7783312797546387], [-0.41223397850990295], [0.5753414034843445], [0.4468044638633728], [-0.20836883783340454], [1.576499342918396], [-1.364875078201294], [0.8578888177871704], [2.1712660789489746], [0.0727282464504242], [-0.5385935306549072], [0.4837219715118408], [0.99721360206604], [1.9416593313217163], [-0.576597273349762], [-0.11642313003540039], [0.8376631140708923], [-0.5871975421905518], [-1.543783187866211], [-0.333942174911499], [-0.2963971793651581], [-2.286790370941162], [-0.5047307014465332], [-0.6000686883926392], [-0.5107561349868774], [0.8743359446525574], [-0.11654224991798401], [-1.3202346563339233], [13.201025009155273], [-0.454621821641922], [3.816662311553955], [0.3465208411216736], [0.40248727798461914], [1.0222930908203125], [-1.3126834630966187], [0.17571665346622467], [0.4396795928478241], [1.8986831903457642], [0.6312726140022278], [-0.015904273837804794], [1.1270627975463867], [-0.8906903862953186], [-2.64764666557312], [0.5057812929153442], [0.41279706358909607], [0.20267561078071594], [0.7661016583442688], [-2.2787342071533203], [0.7521580457687378], [1.9864178895950317], [-2.6661038398742676], [0.1313604712486267], [-0.19431336224079132], [-3.877027750015259], [0.7650567293167114]], "layers.block_1.rec.weight_hh_l0": [[2.124570608139038, -1.278303623199463, -1.1558305025100708, 1.084802269935608, -0.7367229461669922, 2.6821062564849854, 1.0468376874923706, 0.05502912029623985, -0.22046694159507751, 0.22339145839214325, 2.483976364135742, 2.7185630798339844, 5.474725723266602, 0.01569453440606594, 0.38100481033325195, -0.27872779965400696, -1.1408339738845825, -2.465031385421753, -0.36755165457725525, -1.349278211593628, -4.6153669357299805, -0.9378631711006165, -3.2240827083587646, -0.8412486910820007, 1.0325689315795898, -0.5605705976486206, -2.5777428150177, 1.4954426288604736, 2.2875070571899414, -3.163987159729004, -2.460415840148926, -0.35431116819381714], [-0.07627703994512558, -0.0692424476146698, -0.24837274849414825, 0.3645552396774292, -0.14906896650791168, -0.0035731990355998278, -0.18497222661972046, -0.4986516237258911, 0.11618245393037796, 0.05866372957825661, -0.18138979375362396, -0.34372618794441223, -0.06436213105916977, -0.2885824739933014, -0.1515577882528305, 0.011087611317634583, 0.07483217120170593, -0.11130908131599426, 0.2699402868747711, -0.1936904489994049, 0.15639063715934753, -0.04831238463521004, -0.004610380157828331, -0.16808585822582245, 0.19682438671588898, 0.19717377424240112, -0.14563660323619843, 0.053854867815971375, -0.11029817909002304, -0.004842060152441263, -0.013496413826942444, 0.8105514645576477], [0.05858714133501053, 0.13561931252479553, 0.058471474796533585, 0.06680826097726822, -0.2911331057548523, 0.2949486970901489, 0.41719555854797363, -0.3894946277141571, 0.07042697072029114, 0.026485268026590347, -0.5211790800094604, -0.46708184480667114, 0.09144015610218048, 0.24459119141101837, -0.02920614928007126, 0.28919491171836853, 0.11181873083114624, 0.006352185271680355, 0.4901636838912964, -0.10846716165542603, -0.13344845175743103, -0.365132600069046, 0.17329342663288116, -0.05925467237830162, -0.17849083244800568, 0.20773780345916748, 0.4808479845523834, -0.6260862350463867, -0.5112288594245911, -0.40932705998420715, -0.31823551654815674, -0.28754255175590515], [-0.27292296290397644, -0.28710314631462097, 0.3057457506656647, 0.15502119064331055, 0.2734163701534271, 0.20700329542160034, -0.9334516525268555, -0.6786399483680725, -0.20671416819095612, -0.26979413628578186, -0.7148791551589966, -0.27669787406921387, -0.6166046857833862, 0.3317851722240448, -0.3269719183444977, 0.09277649968862534, -0.4897805154323578, -0.5113701224327087, -0.5969031453132629, 0.3712303042411804, -1.0896151065826416, -0.24987003207206726, 0.02965722419321537, -0.14569918811321259, 0.061060767620801926, -0.010715414769947529, 0.11244017630815506, -0.1329755336046219, -0.7840651869773865, -0.33511584997177124, -0.28440144658088684, -0.12061105668544769], [0.5062400698661804, 0.09922276437282562, 0.36811304092407227, 0.47775185108184814, 0.11655163019895554, 0.7909970879554749, 0.46262457966804504, -0.10131320357322693, -0.28937461972236633, -0.16464225947856903, -0.5686459541320801, -1.0838016271591187, -0.11566751450300217, -0.04260668531060219, 0.139871284365654, -0.5710543394088745, 0.3144606351852417, -0.6406453847885132, 0.603304922580719, 0.6025032997131348, 0.43976306915283203, -0.737349808216095, -0.13567546010017395, 0.11202774196863174, 1.0011975765228271, 0.12109901756048203, -0.18179923295974731, -0.13222123682498932, 0.24340732395648956, 0.6920998692512512, -1.082745909690857, -0.4998680055141449], [-0.1706128567457199, -0.2881726026535034, -0.7546819448471069, -0.3145621120929718, -0.16746407747268677, 0.4424055218696594, 0.14495530724525452, -0.6876299977302551, -1.1612647771835327, 0.2900879979133606, -1.4360710382461548, -0.8708624243736267, 0.4444955587387085, 0.1574852019548416, -0.6331027746200562, -0.3156284987926483, 0.1539090871810913, 0.12857000529766083, -1.0002434253692627, 0.18073514103889465, -0.08983679115772247, 0.005791149102151394, 0.08918848633766174, 0.05911268666386604, 0.7643528580665588, 0.4271308481693268, 0.09375278651714325, 0.2538291811943054, -0.9463232159614563, -0.10370305925607681, -0.5228601694107056, 1.5050554275512695], [0.6284126043319702, 0.6643538475036621, 0.451556921005249, -0.829412043094635, 0.30317431688308716, -0.17018184065818787, -0.5593587756156921, 0.031624458730220795, 0.2828291356563568, -0.33487507700920105, 0.3972967565059662, -0.38217684626579285, 0.4295482635498047, -0.26109787821769714, -0.056207556277513504, -0.12487265467643738, 0.10529109835624695, -0.23243767023086548, -0.11249393969774246, -0.7094737887382507, 0.07120434939861298, 0.2828736901283264, -0.5061434507369995, -0.00409315200522542, -0.5754144191741943, 0.6828563213348389, -0.04520731046795845, 0.27310290932655334, 0.5587084889411926, -0.6203242540359497, -0.22083334624767303, -0.38848260045051575], [-0.0369180291891098, 0.8247978687286377, 0.7093636393547058, 0.261686772108078, 0.12414078414440155, 0.24142184853553772, 0.0028262236155569553, 0.45149919390678406, 0.439688503742218, -0.14835293591022491, -0.31200820207595825, -0.16997544467449188, 0.14119510352611542, 0.13503780961036682, -0.5469481348991394, 0.26999691128730774, 0.1917276233434677, -0.22937114536762238, 0.20400957763195038, 0.2807404100894928, 0.14586201310157776, 0.33708226680755615, 0.04719957336783409, -0.24894389510154724, -0.41834235191345215, -0.09501229971647263, -0.08222208172082901, -0.4698740243911743, -0.14224094152450562, 0.3703475296497345, 0.288532555103302, 0.09057919681072235], [-0.2236347645521164, -0.9499677419662476, -0.04464238882064819, -1.293669581413269, 0.4612293839454651, -0.10950833559036255, -1.0592396259307861, 0.10793576389551163, -0.34505707025527954, 0.5147979259490967, -0.6882660388946533, 0.047112397849559784, 0.5096794962882996, 0.15931932628154755, -0.20435091853141785, -0.21504084765911102, -0.4098359942436218, -0.12479677051305771, 0.3916199505329132, -0.2847086489200592, 1.4512410163879395, 0.18827788531780243, -0.6145597100257874, -0.13218121230602264, -0.8280813097953796, 0.5224412679672241, -0.2825206220149994, 0.6454797983169556, 0.33893224596977234, -0.7627462148666382, 0.9989380836486816, 0.3477436900138855], [3.062682867050171, -1.208402395248413, -0.7609573602676392, -1.7533081769943237, -0.7935336232185364, 0.21378861367702484, 1.9667882919311523, 0.743854284286499, -0.5473411083221436, 0.0424145944416523, -1.3515855073928833, -1.4391162395477295, -3.2183609008789062, 0.3952399790287018, -1.8610343933105469, 0.2886927127838135, 0.46238160133361816, -0.19019581377506256, -0.5714634656906128, 0.3579251766204834, -1.0276285409927368, 0.25526052713394165, -1.4047387838363647, -0.5965514779090881, 0.8852245211601257, 0.27504536509513855, -1.3777800798416138, 0.11604315042495728, -1.6875231266021729, 0.4364800453186035, -1.0732998847961426, 0.16559159755706787], [-0.09748942404985428, -0.6263867616653442, 0.4545762836933136, -1.632030963897705, 0.9737368226051331, -0.12125823646783829, -0.35574325919151306, 0.06884776800870895, 0.11381714046001434, 0.3179464638233185, 0.8064702153205872, -0.5384258031845093, 0.36735689640045166, 0.13568437099456787, -0.29686182737350464, 0.03490632027387619, 0.10144278407096863, 0.35081717371940613, 0.11961967498064041, 0.6609926819801331, 1.415305495262146, 0.5988006591796875, -0.6366392970085144, -0.22249148786067963, 0.12455975264310837, -0.36964577436447144, -0.5550692677497864, 0.35822227597236633, -0.029409363865852356, -0.36917248368263245, 0.1305900514125824, 0.44347211718559265], [0.22704878449440002, -0.3288858234882355, -0.8161500096321106, -0.5431630611419678, -0.022059451788663864, 0.1635000854730606, 0.47854316234588623, -0.7796443104743958, -0.057688936591148376, 0.09164849668741226, -0.4503462314605713, 0.09326376020908356, 1.3086249828338623, 0.30847403407096863, -0.6608631014823914, -0.605180025100708, -0.31168386340141296, 0.043482180684804916, -0.20660433173179626, -0.5405645966529846, -0.22198845446109772, -0.08419101685285568, 0.26474249362945557, 0.03775296360254288, 0.18809540569782257, -0.8685103058815002, -0.11139257997274399, 0.2519319951534271, -0.3751482665538788, 0.3562725782394409, -0.5630800127983093, -0.0990515798330307], [-0.04562389850616455, -0.716802716255188, 0.3113468587398529, -0.680662214756012, -0.6024041175842285, 0.6225502490997314, -0.5751957297325134, -0.2498849630355835, -0.20548471808433533, 0.3439485728740692, 1.90735924243927, -0.10795550048351288, 1.1527423858642578, 0.0772123634815216, -0.4942432940006256, -0.32385778427124023, -0.5740344524383545, -0.3681199252605438, 0.7581046223640442, 0.30713245272636414, -0.6884906888008118, 0.6475071310997009, 0.4974606931209564, -0.32294973731040955, -0.5406510829925537, 1.2824643850326538, 0.3201335072517395, -0.2117728888988495, 0.2636178433895111, -0.23767796158790588, -0.31972265243530273, 0.5730661749839783], [-0.08149170875549316, -0.1535322666168213, 0.05115123093128204, -0.03715189918875694, -0.13424262404441833, -0.37455567717552185, -0.09063859283924103, 0.03568378463387489, 0.4391988217830658, -0.09472091495990753, 0.2849760949611664, -0.676831841468811, -0.49586397409439087, -0.11784204095602036, -0.5504087805747986, -0.2673861086368561, -0.9039049744606018, -0.10611126571893692, -0.18110041320323944, 0.14906685054302216, 0.3386571407318115, 0.12365331500768661, 0.2241283506155014, -0.07334379106760025, 0.08187726885080338, 0.24296876788139343, 0.1296079158782959, 0.12516891956329346, 0.05561521276831627, -0.18970850110054016, 0.18567056953907013, 1.0131595134735107], [-0.0427207387983799, -0.4636741280555725, 0.041907716542482376, -0.46170929074287415, 0.06812053173780441, -0.10787079483270645, -0.060515183955430984, 0.5681182146072388, 0.21311041712760925, 0.008760643191635609, -0.3532387912273407, -0.19383417069911957, -0.058053579181432724, -0.2309381663799286, -0.1663825809955597, 0.15506954491138458, -0.2048947811126709, -0.16582022607326508, -0.39538687467575073, 0.23209626972675323, -0.033773455768823624, 0.16283322870731354, 0.3332781195640564, -0.06751256436109543, -0.20569132268428802, 0.0335683710873127, 0.5039318799972534, -0.17040349543094635, -0.10013752430677414, 0.01901695318520069, 0.13895735144615173, 0.6332278847694397], [-0.2710692882537842, -0.5070229768753052, -0.26676005125045776, -0.3477494716644287, 0.26791954040527344, -0.8344746232032776, -0.10988160222768784, -0.33174100518226624, 0.05996432900428772, 0.07825244963169098, -0.5139856934547424, -0.2997387945652008, 0.23488639295101166, -0.010706399567425251, -0.5046424865722656, -0.1373816430568695, 0.0911615714430809, 0.08487638831138611, -0.2200928032398224, 0.8194705843925476, 0.408142626285553, 0.06377743184566498, 0.08891519904136658, 0.03981621563434601, 0.6304688453674316, -0.31760483980178833, -0.25670966506004333, 0.00955070462077856, -0.03749405965209007, -0.14830417931079865, 0.2420654445886612, 0.48156142234802246], [-0.024000270292162895, -0.7747548222541809, 0.160925954580307, -0.7411495447158813, -0.26390817761421204, -0.0552847795188427, -0.48925817012786865, -0.6233795285224915, 0.7295705676078796, 0.015887657180428505, -0.18828116357326508, 0.07113772630691528, -0.23566105961799622, 0.1532469093799591, -0.43728727102279663, 0.0006344100111164153, 1.1995282173156738, 0.020717088133096695, 0.47327128052711487, 0.36973243951797485, 0.43457427620887756, -0.1500755250453949, -0.5031982064247131, -0.03439981862902641, -0.20666314661502838, 0.5644910931587219, 0.23489010334014893, -0.03226664289832115, 0.10277468711137772, 0.38814038038253784, -0.26382383704185486, 0.25876736640930176], [0.231414794921875, -0.1205739974975586, -0.41405099630355835, -0.18436937034130096, 0.056043848395347595, -0.37336865067481995, -0.5520988702774048, -0.4530225396156311, -0.2560057044029236, 0.11065927892923355, -0.6204829216003418, 0.23678186535835266, 0.09189610928297043, -0.08258171379566193, 0.5075489282608032, -0.2255343645811081, -0.3147851824760437, -0.12828826904296875, -0.48317062854766846, 0.7296098470687866, 0.44436943531036377, -0.11528804898262024, -0.10709745436906815, 0.04778815060853958, -0.0466875322163105, -0.3872092366218567, -0.1191784217953682, 0.2486601024866104, 0.20588678121566772, -0.28033480048179626, 0.4156879782676697, 0.42503243684768677], [-0.12138187140226364, -0.5242462158203125, 0.0585140660405159, -0.1731286346912384, -0.0865597352385521, -0.3792460262775421, -0.4865706264972687, -0.26552340388298035, -0.6437488198280334, -0.04360263794660568, -0.15209606289863586, -0.2389821708202362, -0.6847964525222778, 0.23541349172592163, -0.13193927705287933, -0.002586672082543373, 0.1526412069797516, 0.3196311593055725, 0.2313563972711563, 0.10272315889596939, 0.3128671944141388, -0.3810286223888397, 0.006643942091614008, -0.05969652906060219, -0.35862427949905396, 0.15918436646461487, 0.6514418721199036, -0.2906298339366913, -0.1389838457107544, -0.02098068967461586, 0.1841094195842743, 0.07409308850765228], [-0.04168012738227844, 0.031574785709381104, 0.9050057530403137, -0.03217804431915283, 0.9760198593139648, 0.7517552375793457, -0.9965598583221436, 1.1273977756500244, -0.3092975914478302, -0.38444334268569946, 0.5286742448806763, 1.4052494764328003, -1.3059196472167969, -0.663745105266571, -0.26313456892967224, -0.47568124532699585, 0.623271107673645, -0.4138944447040558, -0.04679935425519943, 0.6850607991218567, 0.6774107217788696, 0.6510757803916931, 1.0214723348617554, 0.08961115777492523, -1.4275193214416504, -0.3062104880809784, 0.012521308846771717, -0.5918440222740173, 0.4231211841106415, -1.334670901298523, 0.3304602801799774, -0.8241956830024719], [-0.20191003382205963, -0.42235293984413147, 0.3521444499492645, 0.8135053515434265, -0.2816273272037506, 0.5777097344398499, 0.6269397735595703, 0.18898028135299683, -0.1281769871711731, 0.4189547002315521, -0.8566211462020874, 0.014586113393306732, 1.3014265298843384, -0.36569738388061523, 0.2989119291305542, -0.1790464222431183, 0.04871750250458717, 0.20587611198425293, 0.25989750027656555, -0.1765846163034439, -0.6750503182411194, -0.06657080352306366, -0.23612673580646515, -0.08358503133058548, 0.09892144054174423, -0.41210561990737915, -0.027410682290792465, -0.09785651415586472, -0.35076215863227844, 0.38856241106987, -1.012585997581482, -0.0578085221350193], [0.5488370060920715, -0.3711816370487213, -0.11866030097007751, 0.2665244936943054, -0.10420104116201401, 0.17704392969608307, 0.14544539153575897, -0.25813451409339905, 0.043452188372612, 0.03527695685625076, 0.28811562061309814, -0.371537983417511, -0.4810566008090973, -0.3330414295196533, 0.1158892810344696, -0.010966501198709011, 0.2814047336578369, 0.23261170089244843, 0.8635598421096802, -0.17354419827461243, -0.386721134185791, -0.007903175428509712, 0.4748174250125885, 0.07201599329710007, -0.15373161435127258, 0.020477231591939926, -0.1811039298772812, -0.07157386094331741, -0.1469878852367401, -0.26819199323654175, -0.5578517317771912, 0.32784539461135864], [3.502814531326294, -1.4438468217849731, 0.609544038772583, -0.8005023002624512, -2.3331918716430664, 2.815661907196045, 3.861739158630371, 1.673755168914795, 1.5087487697601318, 1.8826266527175903, -0.28832849860191345, -1.8730602264404297, -8.712322235107422, -1.45881187915802, -3.124568462371826, -0.35941752791404724, 0.22334249317646027, 0.19295231997966766, 0.4582565128803253, -2.520742893218994, 1.6678580045700073, -1.0054486989974976, 1.0137039422988892, -0.022144628688693047, 0.6452217102050781, 5.339511871337891, -0.40465566515922546, -1.5347317457199097, -3.4060349464416504, 0.255720317363739, -4.48799991607666, -0.3561626672744751], [0.14389926195144653, 0.3586178421974182, 0.15825726091861725, -0.5835322141647339, 0.4172188341617584, -0.2369641810655594, -0.0773809477686882, 0.5892441868782043, 0.19496634602546692, -0.03248277306556702, 0.2926729917526245, 0.06232669949531555, 0.21980105340480804, -0.0967484563589096, -0.26230448484420776, -0.33813169598579407, 0.21846486628055573, 0.026096200570464134, 0.42703869938850403, -0.0783173143863678, -0.4526098370552063, 0.1014113798737526, 0.10697020590305328, -0.0014302441850304604, 0.16898515820503235, 0.66608726978302, 0.5304561257362366, 0.2770898640155792, -0.07992834597826004, 0.04543660953640938, 0.7274029850959778, -0.2001872956752777], [0.30443263053894043, 0.18298962712287903, 0.3519377112388611, 1.2486591339111328, 0.2232162058353424, -0.17102432250976562, -0.8658866286277771, -0.155130535364151, -0.6850067377090454, -0.24439124763011932, -0.8667730689048767, -0.36535418033599854, -0.38142359256744385, -0.0808902382850647, -0.3145279586315155, -0.32533738017082214, 0.8175482749938965, -0.12696915864944458, -0.5312300324440002, 0.18019500374794006, 0.3316686153411865, -0.2452898770570755, -0.5759453177452087, -0.27881920337677, -0.3013570308685303, -0.07042726874351501, 0.31160637736320496, -0.498962938785553, -0.9083207249641418, -0.3221536874771118, 0.36373171210289, 0.33050772547721863], [0.2360781878232956, 0.6616399884223938, 1.4331413507461548, -0.8359001278877258, -0.2542082369327545, 1.4154475927352905, -0.23500439524650574, 0.30922648310661316, 0.7810271382331848, -0.5940088033676147, 1.7382420301437378, -0.19594718515872955, -0.08345800638198853, -0.603437066078186, -0.8894001245498657, -0.07136034965515137, -0.17716974020004272, -0.5656349062919617, 0.18662840127944946, 1.157883882522583, 0.45950135588645935, 0.05995771288871765, -0.45815062522888184, -0.2884867489337921, -1.351895809173584, 0.47387829422950745, -0.32832175493240356, -0.037610843777656555, -0.10659010708332062, -1.0119259357452393, -0.4793643355369568, 0.35230469703674316], [0.2274259328842163, 0.3431514799594879, -0.38014379143714905, 0.02003590576350689, -0.061561957001686096, 0.4735572934150696, 0.1467902660369873, 0.16153956949710846, 0.034536365419626236, -0.11072739213705063, -0.032079532742500305, 0.15252870321273804, 0.435247004032135, 0.21815519034862518, 0.5528762936592102, 0.21613214910030365, -0.14841032028198242, 0.16430768370628357, -0.0393078550696373, 0.12067611515522003, -0.28328442573547363, -0.42899948358535767, -0.42392590641975403, 0.13380850851535797, -0.007414893247187138, -0.16327306628227234, -0.03667997941374779, 0.3868701159954071, 0.5338272452354431, -0.0625636950135231, 0.3833630681037903, -0.12289879471063614], [-0.036095231771469116, 0.02742896042764187, 0.08389650285243988, -8.475524373352528e-05, 0.13539627194404602, 0.17611512541770935, -0.25847455859184265, 0.30385756492614746, -0.04208315536379814, -0.03010455332696438, 0.08608448505401611, 0.14205558598041534, -0.11690814048051834, 0.6481068730354309, -0.040148958563804626, 0.2033897340297699, -0.07110244035720825, 0.2585526704788208, -0.5940374732017517, -0.15678365528583527, 0.029190856963396072, -0.22789815068244934, -0.06211211159825325, 0.12365544587373734, -0.6082165837287903, -0.04986931011080742, 0.24294047057628632, -0.07638092339038849, 0.12009254097938538, -0.06192309781908989, 0.016528373584151268, 1.0107475519180298], [-0.3851871192455292, -0.41009923815727234, 0.32665693759918213, -0.3797931373119354, -0.5990700721740723, -0.43768593668937683, -0.1353399008512497, 0.2588656544685364, -0.38589149713516235, -0.16134756803512573, 0.21836897730827332, 0.02555195428431034, -0.15498842298984528, 0.06054353341460228, -0.09533572942018509, -0.0016288886545225978, 0.12030083686113358, -0.35909268260002136, 0.3425647020339966, 0.41213127970695496, 0.21026955544948578, 0.44705361127853394, 0.24442601203918457, -0.2220040112733841, -0.34775689244270325, 0.5266463160514832, -0.12287042289972305, 0.2500952184200287, 0.03843223676085472, 0.11220245063304901, 0.2548532783985138, 0.15781806409358978], [-0.16194677352905273, 0.2217380404472351, 0.047160275280475616, -0.4408789873123169, -0.1498149186372757, -0.35999658703804016, -0.5696476697921753, -0.08984249085187912, -0.3118152916431427, -0.14176642894744873, 0.5024678111076355, -0.368398517370224, 0.5500054955482483, -0.264247328042984, 0.119229257106781, -0.03974950686097145, -0.2082243263721466, -0.27147769927978516, -0.12350407987833023, 0.41676434874534607, 0.20647671818733215, -0.04632847011089325, -0.40479451417922974, 0.12781089544296265, 0.29606544971466064, -0.10287333279848099, 0.4558158218860626, 0.6044924855232239, 0.5688524842262268, 0.2839408218860626, -0.5174142122268677, -0.4422338008880615], [-0.4162469804286957, -0.3589659631252289, 2.6764373779296875, 0.7088522911071777, -1.9090903997421265, 2.455747365951538, -0.6422951221466064, -0.8467784523963928, -0.9808151125907898, 0.8008701205253601, 1.7078986167907715, -3.203763008117676, 0.16316817700862885, -1.3883193731307983, -0.4285241365432739, -1.1416741609573364, -0.41590946912765503, -0.2829299867153168, 0.8261021971702576, -0.6089998483657837, 0.43878695368766785, 1.0279881954193115, -0.5409200191497803, -0.8324995040893555, -0.9349715113639832, 0.18140511214733124, 0.5429695844650269, 0.09255002439022064, 1.698387622833252, 0.11242891848087311, -1.8862805366516113, 1.0096027851104736], [-0.04468102008104324, -0.26084598898887634, 0.14622901380062103, 0.13453885912895203, -0.4328356981277466, -0.26545459032058716, -0.17687882483005524, -0.4743913412094116, -0.20669032633304596, -0.17153780162334442, 0.4176638722419739, -0.27640029788017273, 0.004449449945241213, 0.050476107746362686, -0.4153737723827362, -0.1559418886899948, -0.29485705494880676, -0.0005834757466800511, -0.00939943641424179, -0.3314531445503235, 0.39962005615234375, 0.24911680817604065, 0.02135273814201355, 0.0040342784486711025, -0.1100679337978363, 0.5452565550804138, 0.31267833709716797, -0.3326992392539978, 0.029635567218065262, -0.16255702078342438, 0.11232983320951462, 0.4312683641910553], [-0.013586589135229588, 0.5250742435455322, 0.8204014301300049, 1.2082759141921997, 0.4133700430393219, -1.0346035957336426, 0.023633480072021484, 1.0860487222671509, 0.6298959851264954, 0.01478589791804552, -2.1305532455444336, 0.8029861450195312, -1.2928134202957153, 0.801802396774292, -0.7136186957359314, 0.8575775623321533, 0.8872502446174622, -0.47855526208877563, -0.7101202607154846, -0.7750003933906555, 2.936837673187256, -1.3391499519348145, 0.9035519361495972, 0.680930495262146, -0.586391270160675, -1.4577736854553223, -0.28180965781211853, -0.48693591356277466, -2.1020641326904297, -0.7551836371421814, 0.30828437209129333, 0.19605375826358795], [-0.2195960134267807, -0.2596415579319, 0.8976475596427917, -0.00033218879252672195, -0.1618042141199112, 0.13900718092918396, 0.07735640555620193, 0.44596201181411743, -0.027296684682369232, 0.07093652337789536, -0.05319192260503769, -0.5941307544708252, 0.09096267074346542, -0.28508833050727844, -0.6273592710494995, -0.23905818164348602, 0.3036724030971527, -0.7776680588722229, 0.2798267602920532, 0.1465829610824585, -0.1698625683784485, 0.7056097984313965, -0.13760912418365479, -0.6382657289505005, 0.02575628086924553, 0.2177751213312149, -0.41727614402770996, 0.39468082785606384, 0.1818617284297943, -0.5037877559661865, -0.2660159468650818, -0.26895108819007874], [1.0439759492874146, -1.2857917547225952, 0.3027474284172058, 0.5106452107429504, 1.0288368463516235, 1.0599987506866455, 2.239643096923828, -0.0541280098259449, 1.786263346672058, 0.6644667387008667, 0.16036298871040344, 0.8178330659866333, -1.7926368713378906, 0.8760899305343628, -0.7361218929290771, 0.1997693032026291, 0.9145287275314331, 0.045257795602083206, 0.21990613639354706, -0.21462087333202362, -0.7772065997123718, 0.02061524987220764, -0.4064209759235382, -0.30383923649787903, 1.8320587873458862, 0.9661866426467896, 0.044849943369627, -1.154910683631897, -0.5236878991127014, 1.8125934600830078, 1.3321706056594849, 0.6043893694877625], [-1.069177269935608, -1.0971975326538086, 1.3977508544921875, -0.34097349643707275, 4.248506546020508, -0.562798023223877, -0.2046777307987213, -0.9998302459716797, 0.425351083278656, -1.248904824256897, 0.9360139966011047, 0.3295522630214691, -1.2355905771255493, -0.5480465888977051, 2.21608829498291, 0.52744060754776, 0.3974795341491699, -0.00018021516734734178, -0.2696413993835449, -0.18909034132957458, -0.7582409381866455, -0.09059876203536987, -0.37735792994499207, 0.4717153012752533, -0.5865585803985596, 0.3020731806755066, -0.05987107753753662, -0.5994133949279785, 1.1421197652816772, -0.7819587588310242, -0.09362687915563583, 0.4392024874687195], [5.249908447265625, -0.6053761839866638, 0.43895500898361206, -6.327323913574219, -5.205078125, 0.1600305438041687, 4.843836784362793, -1.0455236434936523, 0.37463200092315674, -2.374485731124878, 5.231454849243164, -0.3054966330528259, -1.279066801071167, -0.3221556544303894, 1.5689390897750854, -0.11694604158401489, -0.9153447151184082, 2.108487367630005, 2.0995938777923584, -0.5635576844215393, -0.7753702402114868, -1.1989723443984985, -2.1658785343170166, 0.4066260755062103, 3.225341796875, 1.2207478284835815, -0.5531341433525085, -0.846827507019043, 0.007771669887006283, 2.68137264251709, 1.6927142143249512, -0.1374593824148178], [-0.4496013820171356, 0.332311749458313, -0.8575192093849182, -0.7804346084594727, 1.0956624746322632, 0.649709165096283, -0.7605446577072144, -0.16887521743774414, 1.3375952243804932, -0.582908570766449, -0.3852614462375641, 0.7475154995918274, -0.25804439187049866, 1.2087427377700806, 0.8532088398933411, 0.9510936141014099, 1.6764740943908691, 0.5793256163597107, -0.46854519844055176, -0.22093501687049866, -0.8806087374687195, -1.0410728454589844, 3.063985586166382, 1.6870702505111694, 0.6803993582725525, -2.0368406772613525, 0.8932734727859497, -1.2532944679260254, -1.0571715831756592, -0.6279447674751282, 3.4467053413391113, -0.9860653281211853], [-0.800689697265625, 0.23849056661128998, -1.4448271989822388, 0.8330416679382324, 1.5847026109695435, 1.4731963872909546, 0.03768295794725418, -1.1468864679336548, 0.9430944919586182, -1.1910977363586426, -1.7345716953277588, 0.37966156005859375, 0.7925116419792175, 0.8723763823509216, 1.0272990465164185, -0.031440604478120804, 0.36920589208602905, -1.6867800951004028, 0.21226538717746735, -1.1181200742721558, 3.5571272373199463, -1.8826247453689575, -2.076474189758301, 0.1471381038427353, -0.1707438826560974, -0.2360655665397644, -0.43109628558158875, 0.4834086000919342, -0.934861421585083, 1.6068047285079956, 1.441696047782898, -0.24355970323085785], [0.4112966060638428, 1.1289558410644531, 0.26208558678627014, 0.4001484215259552, 0.8369515538215637, 1.6514843702316284, 0.688040554523468, 0.22783832252025604, 0.6775254607200623, -0.1090078055858612, -2.475733995437622, 0.3752295970916748, -0.9980804920196533, 0.9560511708259583, 0.8027909994125366, 0.9838491678237915, 0.5011245012283325, -0.04580191895365715, -0.2629830241203308, -2.282827854156494, -0.08831355720758438, -0.878968358039856, 1.061231255531311, 0.22946831583976746, 1.550748586654663, -0.4042832851409912, 0.44839516282081604, -2.0911173820495605, -1.1818199157714844, 2.0047879219055176, -0.25092312693595886, -0.739638090133667], [-0.01736925169825554, -1.02572762966156, 0.481410950422287, 0.5796074867248535, -0.2716728746891022, 0.31910237669944763, -0.5090770125389099, 0.9899083971977234, -0.14671023190021515, 0.18389208614826202, 0.0805971622467041, -1.1215094327926636, 0.18956951797008514, -0.1856953203678131, -0.8702833652496338, -0.6046543717384338, 0.6500045657157898, -0.642291247844696, 0.24584680795669556, 0.7670621871948242, 0.5271615982055664, 0.34864720702171326, -0.5882626175880432, -0.37261804938316345, 0.36011216044425964, 0.25747719407081604, -0.7331953048706055, 0.1649658977985382, 0.14387495815753937, -0.27513355016708374, -0.09444758296012878, -0.441819965839386], [4.11388635635376, -1.252236008644104, -1.0042837858200073, -2.070518970489502, -0.13565370440483093, 0.9994624853134155, 6.34030294418335, 0.4312005639076233, 0.6442385315895081, 0.10882454365491867, 5.659534454345703, -0.3309934139251709, 0.23203125596046448, -0.50922030210495, 0.5347740650177002, 0.17412331700325012, -2.4695544242858887, 2.1340155601501465, 2.0139739513397217, 0.8782033324241638, -1.5984536409378052, 1.8581345081329346, -2.0426318645477295, -0.8971021175384521, 1.695107340812683, 5.933210372924805, 0.35213175415992737, -2.3968505859375, 1.1394010782241821, -0.35429146885871887, -1.736751675605774, 0.1397826075553894], [-0.555354118347168, -0.4068261682987213, -0.22945241630077362, 1.9175591468811035, -0.2890010178089142, 0.9072911143302917, -0.3555106520652771, -0.4231921136379242, 0.4240683913230896, -0.03669162094593048, 0.04171490669250488, -0.9258551597595215, 1.327453374862671, -0.5450158715248108, -0.2946511507034302, -0.3119184076786041, -0.26141974329948425, -0.9622588157653809, 0.7110779285430908, 0.3980928957462311, 0.24106276035308838, 0.07963123172521591, -0.7196623086929321, -0.7480517625808716, 0.002661819802597165, 0.036495134234428406, -0.12244459241628647, 0.5245466232299805, 0.5592691898345947, -1.0702471733093262, 0.4119088649749756, 0.9034094214439392], [-0.2686135470867157, -0.07510224729776382, 0.07391659915447235, -0.06908988952636719, 0.4825032949447632, -0.5299897789955139, -0.28485777974128723, 0.1277385652065277, -0.20287464559078217, -0.002963337814435363, 0.11069947481155396, -0.034131746739149094, -0.11132130026817322, 0.3790092170238495, -0.765039324760437, 0.13442541658878326, -0.1545649915933609, 0.06742317229509354, -0.5071799755096436, -0.2358238697052002, -0.27247437834739685, 0.3771401345729828, 0.060060758143663406, -0.3130052089691162, -0.3793530762195587, -0.18694967031478882, 0.11345797777175903, 0.14408646523952484, 0.44894522428512573, -0.6615742444992065, -0.400954931974411, 0.24107466638088226], [-0.06458910554647446, -0.22921320796012878, 0.3156454861164093, 0.24251441657543182, 0.023995304480195045, 0.17909573018550873, 0.06477952748537064, 0.4257298409938812, -0.15156905353069305, 0.1640617996454239, -0.0577644407749176, -0.08490698784589767, -0.3837328553199768, -0.3597101867198944, -0.13447462022304535, -0.5313563346862793, 0.4308443069458008, -0.22959686815738678, -0.1959536075592041, 0.43923425674438477, 0.5559381246566772, 0.3480592370033264, 0.24084889888763428, -0.3783343434333801, -0.3209307789802551, 0.5211201906204224, -0.5185493230819702, -0.05376200005412102, -0.3073608875274658, -0.23500970005989075, -0.133667454123497, -0.17547205090522766], [-0.2238452285528183, 0.15482935309410095, 0.4802806079387665, 0.9543328285217285, -0.4672718346118927, 0.3761834502220154, -0.22672145068645477, 0.10164803266525269, -0.35129034519195557, -0.02006080001592636, 0.16776184737682343, -0.525505006313324, -0.059417713433504105, -0.5598315596580505, -0.46982815861701965, -0.40388399362564087, 0.24887368083000183, -0.22860044240951538, 0.10550341755151749, 0.39089107513427734, 0.2328723967075348, 0.21100890636444092, 0.07661963999271393, -0.4310101866722107, 0.21820248663425446, 0.5775623321533203, -0.3002282977104187, 0.44419193267822266, -0.2240968495607376, -0.14118333160877228, -0.11312215030193329, -0.317562997341156], [2.2376506328582764, 2.2272250652313232, -1.3059782981872559, -1.2855334281921387, -0.07508857548236847, -0.9749741554260254, -0.3066551387310028, -1.5954517126083374, 0.8756850957870483, 0.3393838107585907, -1.2390422821044922, 1.056706190109253, -4.962039947509766, 1.5788729190826416, 3.9894473552703857, 1.4880104064941406, -0.5693016648292542, -0.8012267351150513, -0.41856417059898376, 0.20317772030830383, -0.5669205784797668, -0.5542436838150024, 3.0541205406188965, 1.3606092929840088, -1.7804404497146606, 0.6380616426467896, 1.8200513124465942, -2.325037717819214, -1.232050895690918, 0.6532939076423645, -0.5623035430908203, 1.1024589538574219], [0.13007886707782745, 0.7091060876846313, 0.28370431065559387, 0.6432250738143921, 0.16102710366249084, 0.5111812949180603, 0.036192502826452255, 1.026036262512207, 0.10351460427045822, 0.3478540778160095, 1.004929542541504, 0.17127330601215363, -0.3931417763233185, 0.5841853618621826, -0.6504948735237122, -0.12335926294326782, -0.012865469790995121, -0.29116082191467285, -0.0019897546153515577, 0.45298051834106445, -0.009860450401902199, 0.31395021080970764, -1.284067153930664, -0.26588284969329834, 0.42826440930366516, 0.5576368570327759, 0.1263151615858078, -0.1967466026544571, 1.08220636844635, -0.4938317835330963, -0.14825043082237244, -1.4852725267410278], [-0.3149160146713257, -0.7704647779464722, -0.011591915041208267, 0.6432621479034424, 0.13346150517463684, 0.1776662915945053, -0.07362647354602814, 0.4543170928955078, -0.6610805988311768, 0.04397473856806755, -0.3508654832839966, -0.31063777208328247, 1.0644491910934448, -1.3020533323287964, -0.4376694858074188, -0.6806201338768005, 0.6690385341644287, -0.5075828433036804, -0.12084098160266876, 0.556237518787384, 0.29432061314582825, 0.8395088315010071, 0.018217938020825386, -0.7812320590019226, -0.09828890860080719, 0.7568261623382568, -0.9786841869354248, 0.32991766929626465, 0.6670620441436768, -0.679908037185669, 0.06836967915296555, -0.5567058324813843], [0.39910390973091125, 2.209604024887085, -0.6711549758911133, -2.3135156631469727, -0.9444921612739563, -1.408669114112854, 0.11755217611789703, -1.0085676908493042, 1.4914500713348389, -0.04558650776743889, 0.9644647240638733, 0.4903287887573242, -1.1002552509307861, 1.1829650402069092, 2.47121524810791, 1.43765389919281, -0.7687182426452637, 0.9201356172561646, -1.2009960412979126, -1.4258936643600464, -0.21868151426315308, -0.6004465222358704, -0.948874831199646, 1.0414798259735107, -0.11949549615383148, -1.3894041776657104, -1.9995183944702148, 0.9319998025894165, 2.0190517902374268, 1.7729411125183105, 0.735419511795044, 0.48740601539611816], [-0.14590144157409668, -0.47647911310195923, 0.07809916138648987, 0.8057440519332886, -0.10023780912160873, 0.363252192735672, -0.2744505703449249, 0.25107041001319885, -0.28871944546699524, 0.007161919493228197, 0.0836237445473671, 0.01157307904213667, 0.4433303475379944, -0.5989561080932617, -0.4843493402004242, -0.2372523695230484, 0.35588952898979187, -0.2737419009208679, -0.0938468649983406, 0.43043163418769836, 0.5657197833061218, 0.4179654121398926, -0.11495565623044968, -0.37489238381385803, 0.03300198167562485, 0.34153077006340027, -0.43719878792762756, 0.38012850284576416, 0.18804931640625, -0.06899113953113556, -0.17394781112670898, -0.18326054513454437], [0.26978600025177, -0.3315961956977844, -0.0691748559474945, -0.5672179460525513, 0.6097843050956726, 0.6534978151321411, -0.24706542491912842, 0.6037542819976807, -0.3876648247241974, -0.2227828949689865, -1.1672625541687012, 1.8874499797821045, -0.4599459767341614, 0.4979526996612549, 1.015129804611206, -0.075569748878479, 0.4702872931957245, 0.2687589228153229, -0.22531890869140625, -0.5723124742507935, -1.2782752513885498, 0.4389907419681549, 1.5743989944458008, -0.05573970079421997, -0.39395639300346375, -0.4802922308444977, -0.12238030135631561, -1.218636155128479, -0.6262320280075073, -0.41769081354141235, 1.0103429555892944, 0.0865866020321846], [2.1800994873046875, 2.817443609237671, -1.3979843854904175, -0.45737844705581665, -0.5788144469261169, -0.5108394026756287, -0.2267821729183197, -1.626145839691162, 0.680539608001709, 0.3094364404678345, -0.7494716644287109, -0.43376031517982483, -2.2509472370147705, 1.1411936283111572, -1.9575426578521729, 0.4509730935096741, -1.0752570629119873, 1.4241749048233032, -2.5932114124298096, -2.413954496383667, 0.6756523251533508, -0.17512142658233643, 0.06264051049947739, 0.6146423816680908, 0.10390075296163559, -0.37844884395599365, 0.19080205261707306, -0.4169425666332245, -2.322096347808838, 0.0689677745103836, -1.0705195665359497, 0.6335330009460449], [2.0503828525543213, 0.32085204124450684, 0.18089663982391357, 0.2816241979598999, -0.4280673861503601, 0.3236616849899292, 1.1538008451461792, 0.5804749131202698, 0.2256811261177063, -0.11031991243362427, 1.0787880420684814, -0.04597635939717293, 1.9580498933792114, 0.7291364073753357, 0.39889106154441833, 0.5845457911491394, -0.6477564573287964, 0.028725018724799156, 0.9383357167243958, 0.03313566744327545, 0.2735213339328766, 0.018804607912898064, -0.8010112047195435, 0.31188660860061646, 0.6743395924568176, -0.19077949225902557, 0.7023237943649292, -1.2923991680145264, -1.6289746761322021, 0.7643527984619141, -1.5238673686981201, 0.15038689970970154], [-1.302147626876831, -0.5787047147750854, 2.857414484024048, 0.8415993452072144, 4.284321308135986, -0.05981512367725372, 4.184937000274658, -2.944398880004883, -0.4288555681705475, 4.630613803863525, -1.943204402923584, -1.3737887144088745, -0.3156724274158478, 1.7062886953353882, 0.6469317078590393, 1.4444665908813477, -2.1845335960388184, 2.4662649631500244, 0.6809830069541931, 0.2122601419687271, -3.280414581298828, -0.559851884841919, 2.5290369987487793, 0.17896442115306854, 3.3197052478790283, 3.6931521892547607, -1.9553769826889038, -2.982510805130005, -3.0015816688537598, 3.4133894443511963, -3.5511813163757324, 1.4398736953735352], [0.12190405279397964, -1.4086315631866455, 0.3616647720336914, -1.5445212125778198, 1.5865683555603027, 0.8022854328155518, 2.0586063861846924, 0.01547918003052473, 0.3334253132343292, 0.3198322057723999, 2.5149402618408203, 1.0579520463943481, -0.9195597171783447, -0.39310115575790405, -0.04158893972635269, 0.007423487491905689, 0.16935749351978302, 0.48854973912239075, 0.533467173576355, 0.5340116620063782, -1.6153966188430786, 0.12273622304201126, 1.0917662382125854, -0.06548210233449936, 0.4845866560935974, 0.4642551839351654, 0.6785944104194641, -1.6101070642471313, -0.8063628673553467, 1.0111069679260254, 2.004737138748169, -1.232580542564392], [1.1739104986190796, 1.3158481121063232, 1.3940402269363403, -0.5561342835426331, 0.37203294038772583, 1.3953824043273926, 1.2386863231658936, -0.24195808172225952, 0.6518778204917908, 1.087445855140686, 2.1490554809570312, 1.0686726570129395, 0.9501186013221741, 2.5080223083496094, 2.3488340377807617, 2.2169125080108643, -0.8350169062614441, 4.17861270904541, -1.3282248973846436, -1.7346025705337524, -0.25574901700019836, -0.943979024887085, 1.4024789333343506, 1.9227006435394287, -1.209948182106018, 0.46352702379226685, 3.1951022148132324, -3.557441234588623, 0.6475052237510681, 1.2527188062667847, -0.6062717437744141, 0.8990746736526489], [1.7878543138504028, -0.6137531399726868, -0.5972909331321716, -1.9304897785186768, 1.1528558731079102, 2.0459845066070557, 1.733856201171875, -1.2015663385391235, 1.4421627521514893, 0.5440278053283691, 0.3145444095134735, -0.5025538206100464, 1.1395350694656372, 1.0270847082138062, 1.4453037977218628, 1.5266623497009277, -0.42552414536476135, 2.2619097232818604, 1.947811484336853, -0.1714523583650589, 0.8953686952590942, -0.559350848197937, -0.10895023494958878, 0.4235692322254181, -0.27699175477027893, -1.0687974691390991, 0.6719870567321777, -2.3813366889953613, -1.241364598274231, 2.975517511367798, -0.7402628064155579, 0.9438478946685791], [1.773634672164917, 2.3343913555145264, 0.3330604135990143, -1.8381496667861938, -1.4675250053405762, -2.1317198276519775, 1.3729362487792969, -0.006082336418330669, 0.44354042410850525, -1.6951044797897339, -1.5745066404342651, -0.0836443081498146, 0.47187191247940063, 1.1659526824951172, 0.22079458832740784, 0.8812881708145142, 0.10450125485658646, 1.272263765335083, 0.26839515566825867, 1.1758524179458618, -0.5627988576889038, -0.8010627031326294, -0.05678750202059746, 0.9370140433311462, 1.5591171979904175, -3.376553773880005, -0.5512827038764954, -0.21128463745117188, 1.235067367553711, 2.392428159713745, -0.7342132925987244, 1.3597856760025024], [1.3798558712005615, 2.3702821731567383, 0.775421679019928, -0.6272023916244507, -0.258717805147171, 1.3170984983444214, 0.043281540274620056, -0.16213124990463257, 0.3348926603794098, 2.081768035888672, 3.4031598567962646, 0.15819406509399414, -0.5696488618850708, 0.851043164730072, 2.130018472671509, 1.1264728307724, -0.6758579015731812, 2.375009298324585, -0.9519729018211365, -1.5176137685775757, -0.3058583438396454, -1.146467685699463, 1.7859493494033813, 1.857532262802124, -1.0395101308822632, -0.22637659311294556, 2.287285566329956, -2.1438684463500977, -1.339403748512268, 0.8314525485038757, -1.1023433208465576, 1.124023675918579], [-0.27618446946144104, -0.8453277945518494, 0.3627355098724365, 0.3184148371219635, -0.2862437665462494, 0.08959131687879562, -0.31791412830352783, 0.1656969040632248, -0.2641538679599762, 0.014007926918566227, 0.11342435330152512, -0.4490504562854767, 0.1289418488740921, -0.5030262470245361, -0.7971094846725464, -0.4077044725418091, 0.36279264092445374, -0.44188156723976135, -0.08215480297803879, 0.2439732551574707, 0.41223981976509094, 0.10838852822780609, -0.042689237743616104, -0.5231238603591919, -0.21202413737773895, 0.2878606915473938, -0.30644822120666504, 0.4445509612560272, 0.7389165759086609, -0.5251225233078003, -0.0064695426262915134, -0.2617676556110382], [0.1096019595861435, -0.706623911857605, -0.5958355665206909, -0.09317285567522049, -2.159419536590576, 0.5584664344787598, 2.2408390045166016, -0.45370444655418396, 0.8113791346549988, 0.5850446224212646, 0.33079785108566284, 0.46691372990608215, -0.4698522388935089, 0.3582950532436371, 0.034051623195409775, 1.0222362279891968, -1.070533275604248, 0.4302539527416229, 1.021652102470398, 0.16398365795612335, 1.076388955116272, 0.47532084584236145, 0.2646821141242981, -0.3255837857723236, 0.3313681483268738, 1.0928528308868408, -0.7829918265342712, 0.10329031944274902, -0.530782163143158, 1.0109049081802368, -0.9267128109931946, 0.9631122350692749], [-0.13089865446090698, 1.573743462562561, -2.0956835746765137, -0.55748051404953, 1.5187814235687256, 0.33176368474960327, 0.5394836068153381, -0.433013379573822, 1.4982893466949463, 0.19448252022266388, -2.0803744792938232, -0.4551379084587097, 0.25169265270233154, 1.18919038772583, 0.08158840984106064, 0.02410813234746456, 0.2666436433792114, 0.6309266686439514, -1.0394047498703003, -3.7680513858795166, 1.7573802471160889, -1.10978102684021, 0.13598288595676422, 0.7516709566116333, 2.020023822784424, -0.9079363346099854, 0.06560121476650238, 0.15154848992824554, -1.1071031093597412, 2.487050771713257, -1.7539286613464355, -0.25787389278411865], [-0.09312126040458679, 0.11606214940547943, 0.528348445892334, 0.4787197411060333, -0.19057513773441315, -0.1386253386735916, -0.020954882726073265, 0.27103692293167114, -0.26716887950897217, -0.027462264522910118, 0.04196199029684067, -0.4207405745983124, 0.2509307265281677, -0.2144044041633606, -0.42530572414398193, -0.3989490866661072, 0.22004559636116028, -0.2420201450586319, -0.10577109456062317, 0.04716254770755768, 0.2799009084701538, 0.452751487493515, 0.0502634197473526, -0.690245509147644, 0.008268282748758793, 0.40049800276756287, -0.24891844391822815, 0.4874643087387085, 0.4866160750389099, -0.2754876911640167, -0.03211825713515282, -0.3335917592048645], [0.41405802965164185, 0.844713568687439, 1.5263432264328003, -0.17377543449401855, -0.7259426712989807, 12.38128662109375, 0.2732301950454712, 3.275773286819458, 0.020373456180095673, 1.0345052480697632, 0.4316175878047943, -0.9044308066368103, -1.1023132801055908, -0.3114381730556488, 0.25342828035354614, -0.4141315817832947, -0.2529703676700592, 0.6327440738677979, 0.19000041484832764, -3.907238483428955, 0.6833755373954773, 0.3945222795009613, 0.7909162640571594, -0.2137088030576706, -1.6810827255249023, 1.4047397375106812, 1.3512182235717773, -1.9432601928710938, -0.06699921935796738, -0.7018334269523621, -6.412212371826172, 0.048798661679029465], [-0.05712681636214256, 0.8355434536933899, 0.05820167064666748, 0.21626175940036774, 0.1106475293636322, -0.677646815776825, 0.029359104111790657, -0.051924627274274826, -0.13428014516830444, 0.012382113374769688, -0.014215072616934776, 0.31036826968193054, -0.3686428964138031, 0.008352531120181084, 0.05680128186941147, -0.0011516110971570015, -0.22422349452972412, -0.0404716320335865, -0.2973853349685669, 0.5316048264503479, -0.028524743393063545, -0.10907188057899475, -0.0269632488489151, -0.11075279116630554, -0.10676246136426926, -0.06587814539670944, -0.04207568243145943, -0.15871359407901764, 0.296579509973526, 0.09757792204618454, 0.3437534272670746, 0.22078633308410645], [0.037639837712049484, 0.5620983839035034, 0.24062137305736542, 0.47482970356941223, -0.05714854970574379, -0.1443571001291275, 0.1112227514386177, -0.3716866374015808, -0.11516021937131882, 0.021526938304305077, -0.20614291727542877, 0.18778595328330994, 0.47592681646347046, -0.2650890052318573, -0.20881229639053345, -0.307878702878952, -0.11903586238622665, 0.04175202175974846, 0.6286598443984985, 0.24948722124099731, -0.07589753717184067, -0.23532834649085999, 0.26556655764579773, -0.10564308613538742, 0.1643446832895279, -0.07838813960552216, 0.01143061276525259, -0.31405413150787354, 0.24175101518630981, -0.04860097914934158, -0.2468733936548233, 0.010656828992068768], [0.17059412598609924, 0.729541003704071, 0.2442113310098648, 0.04033332318067551, -0.17010924220085144, -0.34279370307922363, 0.29988381266593933, 0.07564210146665573, 0.08346976339817047, 0.12160538136959076, -0.04075593873858452, -0.07758943736553192, 0.35377180576324463, 0.054099101573228836, -0.18223018944263458, -0.22489188611507416, -0.070233054459095, 0.1312415897846222, -0.10596871376037598, -0.054601531475782394, -0.22804522514343262, -0.19252772629261017, 0.04441075026988983, 0.18573080003261566, 0.6263789534568787, -0.3037237226963043, 0.2763546109199524, 0.08917687833309174, -0.22943657636642456, -0.20523756742477417, -0.19018346071243286, -0.10098529607057571], [-0.47878941893577576, -0.8204334378242493, 0.15194997191429138, 0.31483715772628784, 0.18373258411884308, -0.17860233783721924, 0.10398786514997482, -0.021893450990319252, -0.06539212912321091, -0.0010888646356761456, 0.4751797020435333, -0.30419036746025085, -0.9753472805023193, 0.046352315694093704, -0.214527890086174, 0.1631075143814087, -0.1899210512638092, 0.36637774109840393, 0.22219599783420563, 0.3413063585758209, -0.23292091488838196, 0.3754625618457794, 0.5521338582038879, -0.1407744437456131, 0.49999356269836426, -0.05591806024312973, -0.35353490710258484, 0.5784700512886047, 0.18386290967464447, 0.2170899659395218, 0.26331672072410583, 0.47391602396965027], [-0.09963194280862808, 2.5031163692474365, 0.4301298260688782, 0.11711932718753815, 0.3164266049861908, 0.4813406765460968, -0.03132138401269913, 0.6716122031211853, 0.19289977848529816, 0.00843119714409113, -0.0548824705183506, 0.06434747576713562, -0.5259889960289001, -0.8312089443206787, 0.15087875723838806, -0.4912632703781128, -0.19972150027751923, 0.07451429218053818, 1.7684340476989746, 0.6841194033622742, -0.13643419742584229, 0.06319405138492584, -0.055311061441898346, -0.4927713871002197, -2.0049941539764404, -0.27863556146621704, 0.12943780422210693, -1.003774881362915, -1.2556291818618774, 0.06294475495815277, 0.09122765809297562, -2.3158504962921143], [-0.2766343355178833, 0.008287153206765652, -0.37450936436653137, 0.13440121710300446, 0.3428930938243866, -0.03559594973921776, -0.06067939102649689, -0.394061416387558, -0.1384029984474182, -0.15187644958496094, -0.04568541795015335, -0.04640858620405197, 0.49479034543037415, 0.08616630733013153, -0.575869619846344, -0.030468987300992012, 0.038832955062389374, 0.19985561072826385, -0.14747607707977295, -0.3710011839866638, 0.46749770641326904, 0.23385223746299744, -0.2919253706932068, -0.3329993188381195, 0.30897876620292664, -0.2565162777900696, -0.3403280973434448, -0.08574046194553375, 0.42128658294677734, 0.3893948197364807, 0.07472949475049973, -0.1677214354276657], [0.029217228293418884, 0.8247461318969727, -0.05972755327820778, -0.08686594665050507, -0.2461473047733307, 0.2542981505393982, 0.07903555035591125, 0.1767999678850174, 0.09075133502483368, -0.024310916662216187, 0.10980319231748581, -0.12920759618282318, 0.07504194974899292, 0.09652789682149887, -0.3550310432910919, -0.09321616590023041, -0.2181168794631958, 0.028228193521499634, 0.9372948408126831, 0.19699905812740326, 0.0030069639906287193, -0.049500722438097, -0.05645067244768143, -0.06530529260635376, -0.20148372650146484, -0.06821535527706146, 0.022610429674386978, 0.0982012003660202, -0.6517593264579773, 0.12056467682123184, 0.4963904023170471, -1.2707698345184326], [0.00741845415905118, 0.16425590217113495, -0.3716866970062256, 0.16258805990219116, -0.23560886085033417, -0.7627255916595459, 0.21345418691635132, -0.27693459391593933, 1.1476081609725952, -0.14857110381126404, 0.3470577597618103, -0.16783492267131805, -1.128829002380371, 0.03155658021569252, -0.22748185694217682, 0.04417762532830238, 0.01720539852976799, 0.09497939050197601, -0.38072624802589417, 0.2004348337650299, -0.22480086982250214, 0.08110573142766953, 0.29222697019577026, 0.15066005289554596, 0.3158825933933258, 0.04362260922789574, 0.07335715740919113, -0.1419004201889038, -0.9115492701530457, 0.4064374566078186, -0.18896934390068054, -0.442178338766098], [1.699123740196228, 1.0165082216262817, 0.45184484124183655, 1.8456557989120483, 0.4831666052341461, -0.13752081990242004, 1.469510555267334, -0.5030046701431274, 0.45242106914520264, 0.47690510749816895, -1.4810043573379517, -0.530246913433075, 1.2250778675079346, 0.40684470534324646, 2.1971609592437744, 0.06113763526082039, 0.37551379203796387, 0.17491427063941956, 0.24963325262069702, -1.2996004819869995, -1.3599131107330322, -0.590619683265686, -1.1777938604354858, 0.1942601203918457, 1.16799795627594, -1.9267830848693848, 0.290300190448761, 0.4871658682823181, 0.06906641274690628, -0.4887700378894806, 1.8739937543869019, -0.5432900190353394], [-0.3502628207206726, 0.5363471508026123, -0.12941288948059082, 0.9773613214492798, 0.06826094537973404, -0.0733470618724823, -0.2297891080379486, -0.4515147805213928, -0.2917695939540863, -0.0829387903213501, 1.0036437511444092, -0.35897719860076904, 0.21405240893363953, 0.09702686220407486, 0.06337538361549377, 0.053177621215581894, 0.31197822093963623, -0.06086244806647301, 0.5537970662117004, 0.0029720175080001354, -0.2051624059677124, 0.12413053959608078, 0.06522628664970398, 0.027578869834542274, 0.3650146722793579, -0.3667748272418976, -0.1902412474155426, 0.03210704028606415, -1.2569429874420166, -0.16627831757068634, 0.4055832624435425, 0.08462142944335938], [-0.01496980618685484, -0.05860869958996773, 0.30134621262550354, -0.11786572635173798, -0.015717042610049248, -0.43267613649368286, -0.0771087184548378, -0.19044090807437897, -0.06170731782913208, -0.047032468020915985, -0.11184001713991165, 0.2759205102920532, 0.6305132508277893, 0.2718113958835602, -0.29947972297668457, 0.10775799304246902, -0.05309681594371796, -0.07259146869182587, 0.09442678838968277, 0.12979930639266968, -0.017739631235599518, 0.0900433138012886, -0.09689074009656906, 0.09662565588951111, 0.5586746335029602, 0.00831558182835579, 0.018844638019800186, 0.2526717185974121, 1.022054672241211, -0.032204125076532364, 0.11815018206834793, 0.0427226796746254], [-0.03346223756670952, -0.4599302113056183, 0.352641761302948, -0.13388654589653015, 0.028440451249480247, 0.4443305432796478, 0.236641064286232, 0.4314360022544861, -0.12610992789268494, 0.00017132092034444213, -0.1256886124610901, 0.4564720690250397, 0.6388087868690491, 0.32253509759902954, -0.04218254238367081, 0.05197028070688248, 0.3864188492298126, 0.008502455428242683, 0.02020334079861641, 0.1812281310558319, 0.1128787249326706, 0.11114109307527542, 0.12882521748542786, 0.05518076568841934, -0.21848441660404205, 0.09597229957580566, 0.13012279570102692, -0.4485298693180084, 0.9596404433250427, 0.15975907444953918, -0.13655301928520203, -0.7020662426948547], [0.21911172568798065, -0.4450095295906067, -0.020723477005958557, -0.0851733461022377, -0.13428416848182678, 0.1942596733570099, 0.0016792003298178315, 0.2026805877685547, -0.32990404963493347, -0.05469292029738426, -0.2310502976179123, 0.21308818459510803, 0.43760380148887634, 0.47244566679000854, 0.16893771290779114, 0.34373894333839417, 0.29277005791664124, 0.30469298362731934, -0.23881566524505615, -0.13876105844974518, 0.12391582131385803, -0.09995210915803909, -0.07665348052978516, 0.13729307055473328, 0.1691260039806366, 0.2692559063434601, 0.13599862158298492, 0.05708092823624611, 0.07938879728317261, -0.024303968995809555, -0.06027679517865181, -0.5585302710533142], [0.004886264447122812, 0.6671520471572876, -0.3413642644882202, 0.5098473429679871, 0.017250211909413338, -0.05555664375424385, -0.3632450997829437, -0.46194949746131897, -0.17018914222717285, -0.06906694918870926, -0.1641145646572113, -0.5944763422012329, 0.21816661953926086, -0.3915035128593445, 0.5419211983680725, -0.004101697821170092, 0.2557419538497925, 0.1436772644519806, 0.34603026509284973, -0.01032465510070324, 0.09982806444168091, -0.22731025516986847, -0.10838234424591064, 0.2227994054555893, 0.1970507800579071, -0.04633007571101189, -0.3338117003440857, 0.32974520325660706, -0.1943281888961792, -0.37894564867019653, -0.30413636565208435, -0.8239572048187256], [0.14092405140399933, -0.2733288109302521, -0.01569928228855133, -0.08720951527357101, 0.029822705313563347, 0.21943114697933197, 0.15256744623184204, 0.014933924190700054, -0.4868066608905792, 0.0044347126968204975, 0.08368098735809326, 0.09976454079151154, 0.2656410336494446, 0.7525757551193237, -0.008629994466900826, 0.25557464361190796, 0.20556272566318512, 0.15706926584243774, 0.3724757432937622, 0.034135088324546814, -0.04944014921784401, -0.003372835461050272, -0.17628538608551025, 0.2060277760028839, 0.0534253753721714, 0.08348999172449112, 0.3574333190917969, -0.2048054039478302, -0.44534721970558167, -0.08152186870574951, -0.009297782555222511, 0.286454975605011], [0.09968286752700806, 0.1774318367242813, 0.40854454040527344, -0.2778683006763458, -0.1180969774723053, 0.41046077013015747, -0.11235322803258896, -0.008876284584403038, 0.22625747323036194, 0.030715735629200935, -0.10629640519618988, 0.4934687912464142, 0.6000723242759705, 0.10967729240655899, -0.06489118933677673, 0.058334752917289734, 1.0340420007705688, 0.09017370641231537, -0.1259998232126236, -0.15950797498226166, 0.13619066774845123, -0.1073550432920456, -0.14333374798297882, -0.050692252814769745, 0.16687311232089996, -0.11513018608093262, 0.1399175524711609, 0.24892374873161316, 0.28364065289497375, 0.18645109236240387, -0.8301249742507935, 0.07804771512746811], [0.07142817974090576, -0.1271018534898758, 0.18163971602916718, -0.15678948163986206, -0.009685366414487362, -0.01520673930644989, 0.20742978155612946, 0.3230675458908081, 0.07269839942455292, 0.051061153411865234, 0.05854882672429085, -0.009343245066702366, -0.21117594838142395, -0.1673772931098938, -0.2255994826555252, -0.19711536169052124, -0.0420856848359108, 0.04466576874256134, 0.6839458346366882, -0.33594295382499695, 0.2826104462146759, 0.2415900081396103, 0.10067088156938553, 0.041276510804891586, -0.30819517374038696, 0.23496396839618683, -0.11857429146766663, -0.2161974459886551, 0.42467182874679565, 0.16799233853816986, -0.36890697479248047, -0.5889015793800354], [-0.02051101066172123, 0.7828420996665955, -0.16381001472473145, 0.3166792690753937, 0.05628250911831856, -0.43863365054130554, 0.18573419749736786, -0.24876084923744202, 0.44170239567756653, 0.058132775127887726, -0.06741352379322052, 0.18006256222724915, -0.24513988196849823, -0.42452794313430786, -0.004721198696643114, -0.164704367518425, 0.0029841591604053974, -0.007459823973476887, 0.4474184811115265, -0.1904425173997879, -0.36476922035217285, 0.018052970990538597, 0.02395034022629261, 0.02422551065683365, -0.3759925663471222, -0.019379334524273872, -0.39072439074516296, 0.1884283423423767, 0.0439382866024971, 0.08941223472356796, 0.04742368683218956, -0.5230668187141418], [0.15065112709999084, 0.14881476759910583, -0.7657337188720703, -0.6054463982582092, -0.05209333449602127, -1.7230989933013916, -0.14825819432735443, -1.6633949279785156, 0.31997916102409363, 0.1045607179403305, -0.01188300084322691, 0.3666037917137146, -0.2733936011791229, 0.2756003737449646, -0.238081157207489, 0.3368775248527527, -0.29402416944503784, -0.05816296488046646, 0.1890643984079361, -1.9368788003921509, -0.025089146569371223, 0.04393830895423889, 0.1236247792840004, 0.05933229625225067, 2.1707279682159424, 0.6372120380401611, -0.3503943979740143, 1.1920751333236694, -0.1646629273891449, 0.01682206243276596, -0.0015655452152714133, -0.11649993062019348], [-0.07626941055059433, -0.45922115445137024, 0.23103387653827667, -0.45483478903770447, 0.020413199439644814, 0.7867664098739624, -0.21298901736736298, 0.17196577787399292, -0.021921683102846146, -0.10403146594762802, 0.523595929145813, 0.02779979258775711, -0.16254198551177979, -0.02703670971095562, 0.2340223789215088, -0.03156379237771034, -0.10291734337806702, 0.0576530359685421, 0.322710782289505, 0.024729236960411072, 0.15198490023612976, 0.05952414870262146, -0.13042376935482025, 0.07675578445196152, -0.29707571864128113, -0.18577048182487488, 0.05022517964243889, -0.298704594373703, 0.23180560767650604, -0.29493531584739685, -0.3162781298160553, 0.3003441095352173], [0.1893615573644638, -0.6511470675468445, -0.0462820827960968, 0.10249139368534088, -0.3184378147125244, 0.45688748359680176, -0.0722028911113739, 0.12878933548927307, -0.3547077775001526, 0.11692002415657043, 0.07709615677595139, -0.5382071137428284, -0.416555792093277, -0.2841545045375824, 0.02211104705929756, 0.030531499534845352, 0.11960737407207489, -0.1455637514591217, -0.2756210267543793, 0.027130024507641792, 0.3300752639770508, 0.1394038051366806, 0.06902623176574707, -0.22648067772388458, -0.07785011827945709, 0.3653295338153839, -0.09666120260953903, -0.14999547600746155, -0.09408675879240036, -0.09326943755149841, -0.0035746365319937468, 0.5868569612503052], [0.2698586583137512, -0.7882173657417297, 0.25923749804496765, -0.12325425446033478, -0.35042089223861694, -0.24622252583503723, -0.07452540099620819, 0.548852264881134, 0.0037852248642593622, 0.2662540376186371, 1.2414453029632568, -0.1438332051038742, -0.8489709496498108, -0.7356343269348145, -0.2991996109485626, 0.06217167153954506, -0.12566545605659485, -0.13076841831207275, 0.3156517744064331, 0.00014027832366991788, -0.009267767891287804, 0.35689377784729004, -0.11327135562896729, 0.29061418771743774, -0.18976840376853943, -0.0862848162651062, 0.5481487512588501, -0.2786944508552551, 0.34715884923934937, -0.06614650040864944, 0.07088259607553482, -0.11780381202697754], [0.14038102328777313, -0.12297585606575012, 0.4740907549858093, 0.4155944585800171, -0.18846435844898224, 0.5955129861831665, 0.037393394857645035, 0.14567629992961884, 0.04736495390534401, -0.14368948340415955, -0.19146937131881714, 0.1125091165304184, 0.5284578800201416, 0.16872067749500275, 0.14319729804992676, 0.3877533972263336, 0.08584853261709213, 0.15790238976478577, -0.05090109631419182, 0.12448004633188248, 0.25642427802085876, -0.20196375250816345, 0.1171216145157814, 0.03654175624251366, -0.8226428627967834, -0.10544276237487793, 0.4094792902469635, -0.5322731733322144, 0.39383336901664734, 0.12791085243225098, -0.1553385853767395, -0.32879024744033813], [-0.01180092804133892, -1.0898014307022095, 0.07114902883768082, 0.08244690299034119, 0.12687158584594727, 0.15679164230823517, 0.0452234223484993, 0.24327309429645538, -0.2878532111644745, 0.024000786244869232, -0.09183348715305328, -0.4322403073310852, 0.3019869327545166, 0.4608316421508789, 0.028967907652258873, 0.3060629069805145, 0.09041137993335724, 0.06912337988615036, -0.9767635464668274, 0.24580344557762146, -0.08858684450387955, -0.01174766942858696, 0.00879287626594305, -0.06335583329200745, -0.4018646478652954, -0.11185897886753082, -0.04669039696455002, -0.33486756682395935, 0.5637238621711731, 0.10050995647907257, 0.018053051084280014, 0.8045616745948792], [-0.16375067830085754, -0.75336092710495, -0.05002608522772789, -0.2439335137605667, 0.10744857043027878, 0.7039304375648499, 0.16097520291805267, 0.6038055419921875, -0.002871102187782526, -0.07521379739046097, 0.1990339607000351, -0.05533245578408241, -0.9173631072044373, -0.007946676574647427, 0.07874062657356262, -0.07514368742704391, -0.07362346351146698, 0.08946286886930466, -0.1676991879940033, 1.0588244199752808, -0.3701029419898987, 0.19521865248680115, 0.1454509049654007, -0.2953590750694275, -1.1280758380889893, -0.2851004898548126, 0.4173761010169983, -0.8031824827194214, 0.06484581530094147, 0.013265218585729599, -0.035567205399274826, 0.4132201373577118], [-0.083509661257267, 0.24557934701442719, 0.21081168949604034, -0.21339577436447144, -0.021472398191690445, 0.1298578977584839, 0.2617197632789612, 0.035815753042697906, -0.05482426658272743, 0.30291295051574707, -0.4276477098464966, 0.25913968682289124, 0.1538098007440567, 0.06472957879304886, -0.4090442955493927, 0.016202162951231003, 0.43848901987075806, 0.44990426301956177, 0.1067451536655426, -0.4671156406402588, -0.22943256795406342, 0.1305907815694809, 0.3766271471977234, 0.0009066240745596588, -0.5225686430931091, 0.16479068994522095, 0.29443225264549255, -0.28045472502708435, -0.48101937770843506, 0.36184483766555786, -0.06435053795576096, -0.9013827443122864], [-0.020982693880796432, -1.3087456226348877, 0.18958334624767303, -0.04756566137075424, -0.09339640289545059, 0.3579154908657074, -0.1644248068332672, 0.4896010160446167, -0.1010114774107933, 0.03605977073311806, -0.332002729177475, -0.31791815161705017, 1.0444748401641846, 0.4488762617111206, 0.25017228722572327, 0.06037460267543793, 0.04583025351166725, -0.3506409823894501, -0.9774610996246338, -0.4943985342979431, 0.3893755376338959, 0.14259585738182068, -0.1954539269208908, -0.031473781913518906, -0.1347043365240097, 0.48001375794410706, 0.1799381971359253, 0.16726946830749512, 0.7278631329536438, -0.39174798130989075, -0.016364753246307373, 1.1072033643722534], [-0.0753500908613205, -0.9906870126724243, 0.33936604857444763, -0.11013083904981613, 0.037757281213998795, 0.08918484300374985, -0.22579091787338257, -0.24076062440872192, 0.1104516088962555, 0.04815397784113884, -0.18970361351966858, -0.11209014803171158, 0.16478930413722992, -0.36211979389190674, 0.18726825714111328, -0.07130281627178192, -0.5296108722686768, -0.03849472478032112, -0.28137701749801636, -0.10919851809740067, 0.1857462227344513, 0.16191701591014862, -0.06166119500994682, -0.027913393452763557, -0.3347873091697693, 0.07973449677228928, -0.3617638647556305, -0.1537187546491623, 1.0524128675460815, -0.17746078968048096, 0.22166605293750763, 0.19065909087657928], [-0.3426608443260193, -0.08795009553432465, -0.25878915190696716, 0.053976450115442276, 0.37092047929763794, 0.2677186131477356, 0.08705351501703262, 0.1498923897743225, 0.10611848533153534, 0.13392111659049988, 0.08832722157239914, 0.07995062321424484, -0.31403908133506775, -0.07520325481891632, -0.17576488852500916, 0.10354413837194443, 0.4006131589412689, -0.2055262327194214, -0.25389131903648376, 0.10094089806079865, -0.5706682205200195, 0.07864341139793396, 0.15643031895160675, 0.17567884922027588, 0.3846665620803833, -0.13634784519672394, -0.057974923402071, -0.041191358119249344, 0.17330306768417358, 0.45862987637519836, 0.48782071471214294, -0.20335838198661804], [-0.09032001346349716, -1.1939173936843872, -0.43487969040870667, -0.06751281768083572, 0.45548364520072937, -3.126340627670288, -0.1033526360988617, -0.940291166305542, -0.18958845734596252, 0.02319878526031971, 0.09016696363687515, 0.3625076115131378, -0.5003176927566528, 0.1018868014216423, -0.4561970829963684, 0.2579059898853302, 0.026410290971398354, -0.2143753618001938, -0.37756121158599854, 0.5932756662368774, -0.2402823120355606, 0.17139482498168945, -0.00042536816908977926, 0.1441114991903305, 1.3998513221740723, 0.37407392263412476, -0.1661728471517563, 0.41397958993911743, 0.3318747580051422, 0.08155450969934464, 1.1650495529174805, 0.7988860607147217], [0.02620411291718483, -0.5924086570739746, 0.2777816355228424, 0.11508820950984955, -0.12753720581531525, 0.43995776772499084, 0.14478005468845367, 0.21851201355457306, -0.03534279763698578, 0.009169261902570724, -0.037526052445173264, -0.12793347239494324, 0.5745969414710999, 0.0656953752040863, 0.12205104529857635, 0.15093547105789185, -0.00655053835362196, -0.08150287717580795, -0.08177565038204193, -0.500348687171936, -0.1054784283041954, 0.03646773844957352, -0.12000704556703568, -0.20204387605190277, 0.11320319771766663, 0.012779349461197853, 0.12346941977739334, 0.22666867077350616, -0.4886496663093567, -0.008533582091331482, -0.09171874821186066, 0.4931410253047943]], "layers.block_1.rec.bias_ih_l0": [0.11250348389148712, -0.04237537458539009, 0.23761123418807983, -0.016655676066875458, 0.23713208734989166, 1.1218457221984863, 0.013528315350413322, 0.24203014373779297, 0.2928847074508667, -0.13179168105125427, -0.08759526163339615, 0.37911680340766907, 0.21997877955436707, 0.1505192667245865, 0.12967827916145325, 0.16194771230220795, 0.08170640468597412, 0.25084587931632996, 0.07356125116348267, 0.6519167423248291, -0.225721538066864, 0.16083519160747528, -0.06825254112482071, 0.27889347076416016, 0.8493748903274536, 0.6703042387962341, 0.18973809480667114, 0.39900729060173035, -0.07100483030080795, -0.1790330857038498, 0.8027560710906982, -0.07033004611730576, -0.03558352589607239, 0.5192168951034546, -0.8438331484794617, 0.23512224853038788, -0.885280966758728, -0.19351281225681305, -0.14717119932174683, 0.5237110257148743, 0.7686597108840942, -0.23188938200473785, 0.9560517072677612, 0.16054922342300415, 0.42882269620895386, 0.8537980318069458, -0.00240307510830462, 1.0896443128585815, 0.44496220350265503, 1.399436354637146, 0.8150572776794434, -0.25759178400039673, -0.10411930829286575, 0.05304267629981041, 1.101552963256836, -0.18222293257713318, -2.2845704555511475, 1.480175495147705, 0.6638373136520386, -3.676063299179077, 0.8779898881912231, 0.16464899480342865, 0.10280738025903702, 0.64912348985672, 0.41174063086509705, 0.13816522061824799, 0.10982780903577805, 0.20128320157527924, -0.43947985768318176, 0.7070837616920471, -0.22458410263061523, 0.1504824310541153, 0.028700310736894608, 0.4216468334197998, -0.19914871454238892, -0.34266263246536255, 0.16290396451950073, 0.10366532951593399, -0.12967582046985626, -0.4159851670265198, 0.21320663392543793, -0.18089760839939117, -0.18873485922813416, 0.34934788942337036, 0.16715936362743378, 0.25399836897850037, 0.082094207406044, -0.3076545000076294, 0.09178653359413147, 0.3083828091621399, -0.09486141055822372, -0.17800197005271912, -0.03343045711517334, -0.2910826504230499, -0.14825044572353363, -0.11929554492235184], "layers.block_1.rec.bias_hh_l0": [0.38020768761634827, -0.22928045690059662, 0.11903060227632523, -0.023785166442394257, 0.10071095824241638, 1.0674468278884888, -0.07031286507844925, 0.4644635021686554, 0.33471474051475525, -0.2144860476255417, -0.03472963720560074, 0.31142735481262207, 0.4214816093444824, 0.06268086284399033, 0.0859212875366211, 0.19538013637065887, 0.3132455348968506, 0.31170204281806946, 0.09169577807188034, 0.4860585331916809, -0.1084643080830574, 0.10622911900281906, 0.04040846973657608, 0.4148048758506775, 0.976154625415802, 0.5161263942718506, 0.08328639715909958, 0.4568133056163788, 0.2104846090078354, 0.029332153499126434, 0.8194374442100525, 0.11008983105421066, 0.030792998149991035, 0.7371842861175537, -0.8280513286590576, -0.03456782549619675, -0.8890190124511719, -0.31681832671165466, -0.42407462000846863, 0.6027637124061584, 0.886949896812439, -0.2382834106683731, 1.0220164060592651, 0.23161214590072632, 0.5614938735961914, 0.7163445949554443, 0.020216284319758415, 0.9850046038627625, 0.4356350898742676, 1.2353121042251587, 0.7399243116378784, -0.25607162714004517, -0.1663895845413208, 0.11370059102773666, 1.072125792503357, -0.1316278874874115, -2.3644673824310303, 1.7647418975830078, 0.45271962881088257, -3.6233322620391846, 0.8179089426994324, 0.4023509621620178, 0.4208550751209259, 0.6389102339744568, 0.30402156710624695, -0.1065458208322525, 0.40754613280296326, -0.050411053001880646, -0.18042446672916412, -0.055992044508457184, 0.035410571843385696, 0.37374377250671387, -0.14783154428005219, -0.4479215741157532, -0.17824789881706238, -0.20913571119308472, 0.30339550971984863, -0.08637180179357529, -0.440047949552536, -0.503883421421051, 0.40962207317352295, -0.3876838982105255, -0.4046380817890167, 0.13127386569976807, 0.2123568058013916, 0.03417449817061424, 0.1680922508239746, -0.2983197569847107, 0.09676337987184525, 0.2799372673034668, -0.19004550576210022, 0.39096710085868835, -0.05593313276767731, -0.15890681743621826, -0.23281662166118622, -0.20253919064998627], "layers.block_1.lin.weight": [[-0.31488946080207825, 0.41755321621894836, -0.048894740641117096, 0.8091254830360413, 1.0675657987594604, -0.03362683951854706, -1.2386852502822876, 0.20596107840538025, 0.37176936864852905, 0.33218634128570557, 0.06747452914714813, 0.38049283623695374, 0.35713762044906616, 0.34738022089004517, -0.3005283772945404, -0.047541454434394836, -0.15882508456707, 0.3446791470050812, 0.19975602626800537, -0.0006240498041734099, 0.6674067974090576, -0.2673945724964142, -0.8220051527023315, -0.3627285063266754, -0.4820318818092346, 0.3067077696323395, -0.3408723473548889, 0.506645679473877, 0.27398961782455444, -0.39727896451950073, -0.04613209515810013, -0.055447593331336975]]}}