{"model_data": {"model": "SimpleRNN", "input_size": 1, "skip": 1, "output_size": 1, "unit_type": "LSTM", "num_layers": 1, "hidden_size": 32, "bias_fl": true}, "state_dict": {"rec.weight_ih_l0": [[-0.21494263410568237], [0.3471081852912903], [0.1192106381058693], [-1.4863409996032715], [0.11089533567428589], [-1.3083586692810059], [1.0051850080490112], [1.732704520225525], [-2.3957886695861816], [1.4080716371536255], [-0.1499943882226944], [1.5204150676727295], [0.9368219375610352], [-5.707744598388672], [-0.8858094215393066], [0.046357784420251846], [1.409993052482605], [-5.285612106323242], [-0.7264345288276672], [1.2264726161956787], [-0.8063607811927795], [-0.17406415939331055], [0.12504035234451294], [0.02590920776128769], [-1.1962015628814697], [-0.0917649045586586], [-1.5642443895339966], [-0.038597237318754196], [-0.35556167364120483], [-1.0997236967086792], [0.13489621877670288], [-0.8659920692443848], [0.3329342305660248], [0.3716803789138794], [0.7558531165122986], [-2.0611984729766846], [0.14966215193271637], [-1.3918907642364502], [0.41617992520332336], [1.2779579162597656], [-0.3854791522026062], [1.0992262363433838], [-0.7308693528175354], [1.032513976097107], [0.8981163501739502], [-2.208164691925049], [-0.4756543040275574], [0.16067394614219666], [3.0929126739501953], [-3.1644747257232666], [-0.1477847695350647], [0.31424957513809204], [-0.44938743114471436], [-0.4711349606513977], [-0.6213364005088806], [0.524615466594696], [-0.3045814037322998], [-0.732098400592804], [-1.1789718866348267], [-0.1835722029209137], [-0.44964173436164856], [-1.012263298034668], [0.22791150212287903], [-1.1949901580810547], [-0.3566974997520447], [-0.6988429427146912], [4.529499053955078], [8.733086585998535], [0.5231645107269287], [-0.28579792380332947], [0.3914255201816559], [2.639148712158203], [-1.3762707710266113], [-0.7189855575561523], [2.197827100753784], [2.707423210144043], [2.6339783668518066], [-2.167741298675537], [-3.337275266647339], [-0.7522391676902771], [-1.5037471055984497], [-9.060266494750977], [-0.6884005069732666], [0.03644849732518196], [-1.0048167705535889], [-0.29222601652145386], [-0.3244931697845459], [0.2707079350948334], [0.13073016703128815], [0.1118093878030777], [1.3879379034042358], [-0.07486508041620255], [1.5077152252197266], [0.374558687210083], [1.013314962387085], [-1.007270097732544], [0.08959734439849854], [0.6468713283538818], [0.32405269145965576], [-1.7837188243865967], [0.23440439999103546], [-1.3550631999969482], [0.79794842004776], [2.2560324668884277], [-3.1718666553497314], [1.4641872644424438], [0.7946369647979736], [0.5804780721664429], [1.1294336318969727], [-7.331377029418945], [-0.9701454639434814], [0.21040216088294983], [1.9331235885620117], [-7.672609329223633], [-0.4072546362876892], [2.4806265830993652], [-0.47824826836586], [0.24130570888519287], [-0.21379432082176208], [0.5921406149864197], [-0.16804270446300507], [0.3850187659263611], [-1.1086714267730713], [-0.2019011378288269], [-0.8632859587669373], [-0.6042889356613159], [0.3557029664516449], [-1.0862483978271484]], "rec.weight_hh_l0": [[-0.2469085454940796, -0.06205784156918526, 0.3268396854400635, 0.2292567491531372, 0.8869350552558899, 0.4380178451538086, 0.36008208990097046, -0.08155079185962677, 0.3448430001735687, 0.2546190619468689, 0.27251747250556946, 0.19041073322296143, -0.07064331322908401, -0.017380574718117714, -0.35551580786705017, -0.5195441842079163, 0.013332332484424114, -0.22016289830207825, -0.5248764753341675, -0.4197753369808197, 0.20350484549999237, 0.5297985076904297, -0.08879715949296951, 0.12221698462963104, -0.040522314608097076, 0.0679025873541832, 0.20275062322616577, -0.3438083827495575, -0.6040585041046143, 0.6762007474899292, 0.18059535324573517, -0.42182591557502747], [-0.3843753933906555, -0.1603875309228897, -0.20469991862773895, -0.17787133157253265, 0.11025886982679367, -0.0979829803109169, 0.007039838004857302, -0.8578909635543823, 0.5715523958206177, 0.15144303441047668, -0.05637957900762558, 0.02248327061533928, -0.1330898404121399, -0.29267722368240356, -0.15442509949207306, -0.703729510307312, -0.057769306004047394, 0.010957978665828705, -0.048836711794137955, -0.18320661783218384, 0.25765037536621094, 0.07494964450597763, -0.22217334806919098, 0.23491860926151276, 0.4665600657463074, 0.08557666838169098, 0.07505431026220322, 0.20732352137565613, -0.4841625988483429, 0.13940894603729248, 0.7817034721374512, -0.1570926010608673], [0.23371635377407074, 0.18797437846660614, -0.8806527853012085, -0.12856698036193848, 0.4015703797340393, -0.06711503118276596, 0.3376844525337219, 0.7320591807365417, 0.5613764524459839, 0.13879501819610596, -0.46007031202316284, 0.18361471593379974, -0.05360108241438866, 0.1313638985157013, 0.8841464519500732, -0.0017150540370494127, 0.580622673034668, 0.4938039481639862, 0.8661889433860779, 0.7222096920013428, 0.26275259256362915, 0.2880377173423767, -0.21714742481708527, 0.069955974817276, -0.2785153090953827, 0.06313879042863846, -0.13658225536346436, 0.27327996492385864, -0.33014869689941406, -0.36646997928619385, -0.4298524558544159, 0.6827794313430786], [0.7771933078765869, -0.0754890963435173, 0.015147325582802296, -0.27842313051223755, 0.05881423130631447, 0.0194688830524683, 0.18604816496372223, 0.5581008195877075, 0.39264097809791565, -0.4279031753540039, 0.3533247709274292, 0.45800793170928955, 0.18365590274333954, -0.23620951175689697, 0.5152329802513123, -0.3016904592514038, -0.26942357420921326, 1.0037270784378052, -0.34436655044555664, 0.3295939564704895, 0.5324527025222778, -0.12407375127077103, 0.24473194777965546, 0.4264901876449585, -0.548461377620697, 0.0788077637553215, -0.6717360019683838, -0.2211896777153015, -1.0000659227371216, -0.435308575630188, -0.09759640693664551, 0.7826972007751465], [0.6466996669769287, 0.6158422231674194, -0.11908650398254395, 0.26581066846847534, 0.23843830823898315, -0.4647544324398041, -0.7213051915168762, -0.8378980159759521, -0.4263359606266022, 0.7619374990463257, -0.21961236000061035, 0.18429286777973175, 0.14494578540325165, -0.20459385216236115, -0.3087545335292816, 0.9743937849998474, 0.03578989580273628, 0.10496654361486435, -0.5643907785415649, 0.30593371391296387, -0.7796235680580139, -0.5515279173851013, 0.8623077273368835, 0.2576965093612671, -1.1790987253189087, 0.653724730014801, -0.36521387100219727, -1.040467619895935, 0.7578040957450867, -0.5651825666427612, -1.034170389175415, 0.905613362789154], [-0.436193585395813, -0.14692626893520355, 0.3078845739364624, 0.5131619572639465, -0.29752111434936523, 0.050584081560373306, -0.7579292058944702, -0.897737443447113, -0.6523323655128479, -0.15262049436569214, 0.27844181656837463, 0.10885442048311234, -0.015387051738798618, -0.034085627645254135, 0.09397721290588379, -0.2087363749742508, 0.19918076694011688, 0.2152469903230667, -0.6265520453453064, -0.24941591918468475, -0.0518922321498394, 1.1052571535110474, -0.2663073241710663, -0.07017075270414352, 0.02939954772591591, -0.29526400566101074, 0.2644633948802948, -0.4120576083660126, 0.5773499608039856, -0.4183131158351898, 0.09577295929193497, -0.2240513265132904], [0.05299373343586922, 0.03712387755513191, -0.7807430028915405, -0.2682934105396271, 1.26835036277771, -0.4802066385746002, 0.290718138217926, 0.16316349804401398, 0.4751923084259033, -0.23946930468082428, 1.0896828174591064, -0.07824897766113281, -0.4945125877857208, -0.42832547426223755, 0.335904598236084, -0.49416062235832214, 0.07533580809831619, -0.43988102674484253, 0.26129114627838135, -0.15780864655971527, -0.019390592351555824, -0.15361429750919342, -0.12827938795089722, 0.2898823022842407, 0.18400700390338898, -0.401384174823761, 0.36906155943870544, -0.0939200296998024, -0.4019850492477417, -0.7204316258430481, -0.09244643151760101, 0.1349351555109024], [-0.5343968272209167, -0.3848324716091156, 0.06772225350141525, 0.980156421661377, -0.41915854811668396, -0.7590025663375854, -0.6698998808860779, -0.20793016254901886, -0.6559742093086243, -0.34676074981689453, -0.24735839664936066, 0.8723503351211548, 0.1520540565252304, -0.6668708324432373, 0.019235150888562202, -0.1823268085718155, 0.0043257963843643665, -0.46578875184059143, -0.3513036072254181, -0.14432768523693085, -0.3533919155597687, 1.110774278640747, -0.41982200741767883, 0.040929824113845825, 0.17972488701343536, 0.7039457559585571, 0.30394700169563293, -0.28228917717933655, 1.6519328355789185, -0.19305288791656494, -0.08644843101501465, -0.6983085870742798], [-0.2847954034805298, -0.1021692305803299, -0.7241812944412231, -1.8890087604522705, 1.1372971534729004, -0.40572401881217957, 0.8765525221824646, -0.9700110554695129, 0.2908173203468323, -1.297707438468933, -0.3710939884185791, -0.44159573316574097, -0.7114940881729126, -0.2106904834508896, -0.7268308401107788, -0.42455634474754333, 0.37203824520111084, 1.171704888343811, 0.5302547216415405, 2.331307888031006, -0.37234118580818176, -1.1511256694793701, 0.18353047966957092, -0.2134871631860733, -0.2775334119796753, 0.14207546412944794, -0.23436808586120605, 0.16712883114814758, -0.3142232894897461, 0.5941389799118042, -0.2736133635044098, -0.4229539632797241], [0.06501736491918564, -0.056754615157842636, 0.3722277879714966, -0.2311055064201355, -0.09159653633832932, -0.7683985233306885, -0.05744430795311928, -0.13958166539669037, -0.7651863098144531, -0.5731103420257568, -0.21518491208553314, -0.7781102061271667, -0.39894619584083557, -0.34807127714157104, -0.20117872953414917, 0.6878354549407959, 0.14634646475315094, 0.4593912959098816, -0.09749405086040497, -0.13334967195987701, -0.29318568110466003, -1.5866122245788574, 0.3190726041793823, -0.13753944635391235, -0.04973556101322174, 0.3375577926635742, 0.23320262134075165, 0.16787788271903992, 0.08061710745096207, -1.2382861375808716, -0.3993479311466217, 1.0060100555419922], [0.3957359790802002, -0.5014461874961853, -0.3746280074119568, -0.6625274419784546, 0.8817493915557861, 0.8332391381263733, -0.42516854405403137, 0.43795254826545715, -0.9638721346855164, -0.055648867040872574, -0.05794203281402588, 0.07319393008947372, -0.10404139757156372, -0.17196092009544373, 0.21792732179164886, -0.1029602661728859, 0.19574451446533203, 0.38467517495155334, 0.60386061668396, -1.4567360877990723, 0.017039047554135323, 0.035496730357408524, 0.23033583164215088, -0.3078727424144745, 0.011612732894718647, -0.2984347641468048, -0.06899817287921906, 0.4023366868495941, -1.0229934453964233, 0.25117039680480957, 0.06405595690011978, 0.012642011046409607], [-0.3406584858894348, 0.07085809111595154, 0.6708477735519409, 0.4590007960796356, -0.6029205322265625, -0.8480072021484375, 0.2827257812023163, 1.3251687288284302, -0.8504661321640015, 0.834916353225708, 0.7724609375, 0.3240020275115967, -0.06766673177480698, -0.16265036165714264, -0.4586929380893707, -0.04995044320821762, -0.2988846004009247, 0.12761202454566956, -1.9706764221191406, -0.8075555562973022, 0.13200488686561584, 0.6437283158302307, -0.34119296073913574, -0.39326348900794983, 0.23928502202033997, -0.3478536307811737, 0.5267094969749451, 0.4470873475074768, 0.5029929280281067, 1.0099023580551147, 0.77586430311203, -0.41109487414360046], [-0.07491504400968552, 0.19900600612163544, -0.397394597530365, 0.15909479558467865, 0.11647026240825653, 0.18433833122253418, 0.49877822399139404, -0.05825198069214821, -0.5992459058761597, -0.22087478637695312, -0.0948517844080925, 0.1308126151561737, -0.27936699986457825, -0.17131711542606354, 0.18914930522441864, 0.3923019468784332, 0.4039081037044525, 0.019869940355420113, -0.12337218225002289, -0.28907519578933716, 0.05301910266280174, -0.0899876058101654, -0.1529107391834259, -0.37645214796066284, 0.11295763403177261, -0.18517276644706726, -0.008651242591440678, -0.19599950313568115, 0.026795782148838043, 0.1445263773202896, 0.15135256946086884, -0.20342549681663513], [-0.39058730006217957, -0.6409904956817627, -0.4477991759777069, -1.0544461011886597, 0.3812987804412842, 0.6754012703895569, -0.11492174118757248, 0.734470546245575, -0.4735041558742523, -0.42811286449432373, -0.03900713101029396, -0.40263891220092773, -0.41255828738212585, -0.2866806089878082, 0.43524807691574097, -0.2465156763792038, 0.41419777274131775, 3.1632094383239746, -0.26270660758018494, -0.2347979098558426, 0.29792729020118713, 0.2016419768333435, 0.34864699840545654, -0.521888017654419, -0.030958695337176323, 0.16478824615478516, -0.4163651764392853, 0.4976271688938141, -0.2872747480869293, 0.6153075098991394, 0.4436591863632202, -0.30778026580810547], [0.290416955947876, -0.31750544905662537, -0.20412491261959076, -0.5348821878433228, -0.7144586443901062, 0.07517877221107483, -0.7827984094619751, 0.4316914677619934, -0.7147530913352966, -0.45810869336128235, -0.06245046854019165, 0.03637644276022911, -0.024566996842622757, 0.4218924343585968, -0.11894582211971283, 0.12217780947685242, -0.5540731549263, 0.06859245896339417, -0.046122197061777115, -0.5145801901817322, -0.1519586145877838, -0.5436389446258545, -0.05010639503598213, 0.44014933705329895, -0.3667265772819519, 0.11533619463443756, -0.017210528254508972, 0.3128593862056732, 0.6678739786148071, -0.11385876685380936, -0.33261311054229736, 0.7749930024147034], [-0.20508474111557007, 0.30794084072113037, -0.043917689472436905, 0.19032511115074158, 1.2883591651916504, -0.4509381651878357, -0.5649151802062988, 0.24474695324897766, -0.07743407040834427, -0.392162561416626, -0.1980123072862625, -0.17472490668296814, 0.28770631551742554, -0.2511906027793884, 0.26196831464767456, -0.11429847776889801, 0.4527546763420105, -0.19070877134799957, -0.08204963058233261, 0.2057667374610901, -0.5646932125091553, 0.34507134556770325, 0.08754057437181473, -0.0667329952120781, 0.22501139342784882, 1.0159938335418701, 0.5487692952156067, -0.2507065236568451, -0.2783580422401428, 0.017891863361001015, -0.152839794754982, 0.21036621928215027], [-0.2478167861700058, -0.17843462526798248, 0.15047277510166168, 0.7503342032432556, 0.6037343144416809, 0.20517532527446747, 0.042624834924936295, 0.2824656665325165, -1.9362130165100098, -0.05308358743786812, -0.41081809997558594, -0.42890623211860657, 0.04498085007071495, 0.007444910705089569, 0.3148238956928253, -0.517142117023468, -0.10540023446083069, -0.19733266532421112, -0.352070152759552, -0.01628287322819233, -0.6321091055870056, 0.6550537347793579, -0.20533986389636993, 0.10644087195396423, -0.5645313262939453, -0.13915276527404785, 0.18941430747509003, -0.4547877013683319, -0.6614476442337036, -0.12401565164327621, 0.6397771239280701, 0.4149433672428131], [0.6371422410011292, -1.1353356838226318, -1.2889963388442993, -1.2323687076568604, -0.8595237731933594, 0.8469291925430298, 1.1503524780273438, 0.5662209391593933, 0.23307059705257416, 0.6515091061592102, 1.2000259160995483, 0.04560019075870514, 0.8767961263656616, -0.4259374737739563, 0.8877675533294678, -0.4591861665248871, -0.4694267213344574, 2.954338788986206, 0.9306131601333618, -0.149756520986557, 0.7545984983444214, 0.4390279948711395, -0.2321133017539978, -0.21017712354660034, 0.037265852093696594, -0.4625357985496521, 0.977506697177887, 0.6892684102058411, 0.05392199382185936, 0.11293981224298477, -0.8401013612747192, -0.48393115401268005], [-0.6311625838279724, -0.6356909871101379, -0.07074737548828125, 0.7810688018798828, 1.03657066822052, 0.056757450103759766, 0.7720118761062622, -0.22500582039356232, 0.3061794936656952, 0.41978198289871216, 0.020833492279052734, -0.09174856543540955, 0.47718751430511475, -0.9978513717651367, -0.9388666152954102, -0.7672450542449951, 0.49323102831840515, -0.043412111699581146, -0.24168747663497925, -0.604417085647583, 0.02663196250796318, 0.05816866084933281, -0.7695935964584351, -0.40758365392684937, 0.7681878805160522, -0.7077816128730774, 0.824127197265625, 0.6947484016418457, 0.3536822199821472, 0.4518108069896698, 1.094476342201233, -0.8876906037330627], [-0.037416666746139526, 0.1634887158870697, 1.8206239938735962, 1.3534367084503174, -1.2650227546691895, 0.8533045053482056, -1.212336540222168, 2.7521262168884277, -1.1219136714935303, -0.7304850816726685, 0.07446037232875824, 1.7290676832199097, 1.5281469821929932, 0.4873572885990143, 0.1707204133272171, -0.7360493540763855, -1.257036566734314, 1.3863095045089722, 0.7390251159667969, -0.0838199108839035, 1.042678952217102, 2.620171070098877, 0.1791820228099823, 0.5033426880836487, 0.7236008048057556, -0.04121539369225502, -0.10665558278560638, 0.5566534996032715, 0.7498113512992859, 0.10936358571052551, 1.0258880853652954, -0.15357814729213715], [0.06167079508304596, 0.3491348922252655, 0.12868307530879974, -0.314901739358902, 0.15194551646709442, -0.37809666991233826, 0.3130936026573181, -0.6526591777801514, 0.37693050503730774, 0.47660794854164124, 0.00802533607929945, -0.38620254397392273, 0.070681132376194, 0.3020950257778168, -0.298321008682251, 0.02008432149887085, 0.29851385951042175, 0.21300727128982544, -0.4536276161670685, -1.052363634109497, -0.004120188765227795, -0.7308139801025391, -0.17470350861549377, -0.06588075309991837, -0.033247631043195724, -0.10149771720170975, -0.1342277228832245, -0.15375420451164246, 0.16270209848880768, -0.23130525648593903, 0.026289016008377075, 0.24847422540187836], [0.07927808165550232, 0.2156624048948288, -0.19615373015403748, 0.31652042269706726, 0.3871518671512604, 0.08391522616147995, 0.12712638080120087, 0.42521992325782776, -1.0749837160110474, -0.03174293041229248, 0.9484266042709351, 0.1627834588289261, -0.448063462972641, -0.039348017424345016, 0.36782246828079224, -0.14398600161075592, -0.09002330899238586, 1.1037825345993042, -0.4399038553237915, 0.1063423901796341, 0.05878613144159317, -0.35723555088043213, 0.20563524961471558, -0.20588630437850952, 0.039864860475063324, -0.12166740000247955, -0.3983656167984009, 0.11543354392051697, -0.725977897644043, -0.2868399918079376, 0.02531464211642742, 0.3302209973335266], [0.17391487956047058, 0.00330611621029675, -0.07861712574958801, -0.12521257996559143, 0.713568389415741, -0.7085310816764832, -0.9039847254753113, 0.21191351115703583, 0.3623204827308655, -0.36174359917640686, 0.2910152077674866, 0.25088900327682495, 0.5456275343894958, -0.26494166254997253, -0.38955220580101013, -0.5704448819160461, -0.4171820878982544, 0.3279450535774231, 0.19086679816246033, 0.8079553246498108, -0.3997494876384735, -0.05156112462282181, 0.2268667072057724, 0.9010615348815918, -0.5737653970718384, 0.9712491631507874, 0.10476701706647873, -0.10770567506551743, -0.2875002324581146, -0.5477213263511658, 0.03563205152750015, 0.2603182792663574], [-0.06376013159751892, -0.09816183894872665, 0.009236668236553669, 0.3235572278499603, 0.3174298107624054, -0.02580794133245945, 0.4016857445240021, -0.5701192617416382, -0.12714742124080658, 0.6121703386306763, 0.6498041152954102, -0.2261706292629242, 0.09148184210062027, -0.6438685059547424, -0.36886119842529297, 0.0232455525547266, 0.27017831802368164, -0.2879006862640381, -0.5865787863731384, -0.41731560230255127, -0.35236242413520813, -0.38785338401794434, -0.39577198028564453, -0.38834452629089355, 0.19833014905452728, -0.27934423089027405, 0.37484386563301086, 0.1015135869383812, -0.4431270658969879, 0.028460798785090446, 0.11637350916862488, -0.2062087059020996], [-0.12116740643978119, 0.21192559599876404, -0.9870857000350952, -0.4708161950111389, 1.1867021322250366, 0.10034574568271637, 0.29280170798301697, -0.6055045127868652, -0.39383184909820557, -0.16961152851581573, -0.3735221028327942, -0.3486529290676117, 0.006271836347877979, -0.06090042367577553, 0.6148334741592407, -0.24986723065376282, -0.15761622786521912, -0.11220055818557739, -0.49238836765289307, 0.07909954339265823, -0.017405912280082703, 0.15102826058864594, 0.06159413233399391, 1.1695241928100586, -0.12357161939144135, 0.5869998335838318, -0.009198952466249466, -0.9210983514785767, -1.6153697967529297, -0.27519285678863525, 0.6946224570274353, 0.25349491834640503], [-0.07094833999872208, 0.5737327933311462, -0.5901448726654053, 0.21046143770217896, 0.4923931658267975, -0.6084878444671631, 0.0817871019244194, -0.4954952895641327, -0.20622478425502777, -0.20384256541728973, -0.4924766421318054, 0.016307566314935684, 0.12838450074195862, -0.34871822595596313, 0.7429684996604919, 0.1827870011329651, 0.06600239127874374, -0.001067452016286552, -0.4374842345714569, 0.890347957611084, -0.681054949760437, -0.4900434613227844, -0.009369048289954662, 0.6740803718566895, -0.15012997388839722, 0.23102162778377533, 0.5584487915039062, -0.41896089911460876, 0.1693064272403717, -0.5967350602149963, -0.10837482661008835, 0.9231036305427551], [-0.18168866634368896, -0.44186848402023315, -0.08970314264297485, -0.30976587533950806, 0.47287169098854065, 0.21879726648330688, 0.5278744101524353, -0.23774613440036774, -0.30730316042900085, 0.28213125467300415, 0.61137855052948, -0.6870656609535217, -0.12547342479228973, 0.3009483516216278, -0.7186999917030334, -0.5868596434593201, -0.11543600261211395, 0.40304267406463623, 0.05147577077150345, 0.2740723490715027, -0.0730438306927681, -0.7225344181060791, -0.1641843020915985, -0.19823305308818817, -0.3118073046207428, -0.0063397628255188465, 0.19006958603858948, -0.13890250027179718, -0.48368513584136963, 0.16025426983833313, 0.08372599631547928, -0.04333731532096863], [0.07599787414073944, -0.30070799589157104, -0.6055815815925598, 0.0884864553809166, 0.6768494844436646, -0.4130614995956421, 0.36316797137260437, 0.4905696213245392, 0.01429656334221363, -0.1163519099354744, 0.9096603989601135, 0.20106616616249084, -0.01072698924690485, -0.13820751011371613, -0.08262164145708084, -0.45297062397003174, -0.08515498787164688, -0.09812992066144943, -0.9453946948051453, -0.3010447919368744, 0.27321770787239075, 0.47434258460998535, -0.26479706168174744, 0.6913623213768005, 0.6049397587776184, -1.1456881761550903, 0.5418416261672974, -0.3231850862503052, -0.5957024097442627, 0.10717508941888809, 0.7265962958335876, -0.5641907453536987], [0.21173875033855438, 0.21750769019126892, -0.06941711157560349, 0.09443295001983643, 0.591225266456604, -0.6674442291259766, -0.2068571299314499, -0.08163602650165558, -0.31869426369667053, 0.6902795433998108, 0.26726821064949036, 0.1673954874277115, 0.21890999376773834, -0.25258275866508484, -0.1942053586244583, 0.2301802784204483, 0.7685578465461731, -0.39546144008636475, -0.03240521252155304, -0.23573225736618042, -0.26112571358680725, -0.028309151530265808, -0.43826404213905334, -0.2950935959815979, -0.694470226764679, 0.3911934196949005, 0.5804550051689148, -0.23678156733512878, 2.140228748321533, -0.7175479531288147, -0.9973753690719604, 0.14290916919708252], [-0.528286874294281, -0.13361020386219025, -0.4557562470436096, 0.34948885440826416, 0.4355444014072418, -0.693594753742218, -0.21833105385303497, 0.13805511593818665, 0.9251679182052612, 0.024319738149642944, -0.6119726300239563, -0.511908233165741, 0.38457733392715454, -0.44212600588798523, 0.7341669797897339, 0.17905068397521973, 0.3411826193332672, -0.3268425166606903, 0.4173239767551422, -0.41850876808166504, -0.14151230454444885, -0.3015429973602295, -0.21655021607875824, 0.03605714067816734, 0.24217036366462708, 0.003294549882411957, 0.11320021003484726, 0.250056654214859, -0.04359918832778931, -0.287212073802948, -0.2706414759159088, 0.46258530020713806], [0.14562158286571503, 0.43048757314682007, -0.34050023555755615, -0.19875523447990417, 1.20308256149292, -0.13988561928272247, 0.3449317216873169, 0.05716851353645325, 0.2983759045600891, 0.28603509068489075, -0.41192418336868286, -0.16927176713943481, -0.13118720054626465, -0.3545480966567993, 0.4133826494216919, 0.402072012424469, 0.362941712141037, -0.0933409109711647, -0.3866502642631531, 0.01726575195789337, -0.39099255204200745, 0.10868867486715317, 0.14018233120441437, -0.2366022914648056, -0.5234991908073425, 0.5936189889907837, -0.15897183120250702, -0.7298617362976074, 0.0940353274345398, -0.5484637022018433, -0.09534846246242523, 0.10521811991930008], [-0.2138490378856659, -0.08317039161920547, -0.2582513988018036, 0.12691962718963623, 1.1385704278945923, 0.7048861384391785, 0.10835669934749603, -0.32448631525039673, 0.4688326418399811, 0.29726120829582214, -0.18156741559505463, -0.6344521641731262, -0.19081199169158936, -0.3179858922958374, -0.4477241337299347, -0.4790653884410858, 0.36316704750061035, -0.28641462326049805, -0.6063165068626404, -0.3688018023967743, -0.04720420762896538, -0.0901375338435173, -0.2066979706287384, 0.02862255647778511, -0.06901243329048157, 0.1567712128162384, -0.12422794103622437, -0.21929673850536346, -0.7893131971359253, -0.16476750373840332, -0.02639325149357319, -0.2908913791179657], [-0.5498669147491455, -0.5084278583526611, 0.012224233709275723, 0.6790199875831604, 0.9874396324157715, 0.17910151183605194, -0.20283812284469604, 0.3155975341796875, -0.3073039948940277, -0.2855447828769684, 0.5168323516845703, 0.6476919651031494, 0.5091739296913147, -0.2534657418727875, -0.5613117218017578, -0.654991090297699, 0.13529370725154877, -0.7540083527565002, 0.4511217772960663, -0.14646704494953156, 0.26889559626579285, 0.5305958986282349, -0.21897739171981812, 0.20380890369415283, 0.36674734950065613, -0.04230012744665146, 0.35467997193336487, -0.03976855427026749, 0.22599385678768158, -0.08278144896030426, 0.5719617605209351, -0.2248815894126892], [-0.3827803134918213, 0.07759666442871094, 0.083439402282238, -0.111505888402462, -0.2544375956058502, 0.28575313091278076, -0.0972319170832634, -1.0080080032348633, -0.24993596971035004, 0.6815940737724304, -0.3445166349411011, 0.3441896438598633, 0.1846781224012375, -0.20835091173648834, -0.017211509868502617, -0.2747074067592621, 0.145577535033226, 0.20235413312911987, -0.08750410377979279, -0.013355440460145473, -0.09886817634105682, -0.24625010788440704, -0.07520066201686859, 0.3727288246154785, 0.30541130900382996, 0.28642094135284424, 0.010739442892372608, -0.002610776573419571, -0.18359149992465973, 0.16221778094768524, 0.12882009148597717, -0.13566288352012634], [-0.08884478360414505, 0.052611324936151505, -0.32068899273872375, -0.28833433985710144, -0.18855398893356323, 0.27195069193840027, -0.45367884635925293, 0.4035131633281708, -0.43436023592948914, 0.025660110637545586, -0.37361517548561096, 0.5849980711936951, 0.021920952945947647, 0.23558038473129272, 0.026753393933176994, -0.05278988927602768, 0.057433806359767914, 0.3020433783531189, 0.7678406238555908, 1.3039276599884033, 0.0004765070625580847, 0.47754135727882385, 0.04622890055179596, 0.2167501151561737, -0.09283839911222458, 0.21049468219280243, 0.04294011369347572, 0.07451211661100388, -0.16411642730236053, -0.6836515069007874, 0.009345943108201027, -0.21054141223430634], [-0.29441243410110474, 0.0002083668514387682, 0.2649984061717987, -0.13732658326625824, -0.6165930032730103, 0.2974899411201477, -0.580008327960968, -0.26633283495903015, -0.6896432638168335, 0.2221500724554062, -0.1001911535859108, 0.5840641856193542, -0.15452665090560913, -0.16642390191555023, -0.18482257425785065, 0.051164958626031876, 0.08394864946603775, 0.6617401838302612, -0.4050505459308624, -0.2305428832769394, 0.284941166639328, 0.6968591809272766, -0.12070613354444504, 0.24806402623653412, 0.18982572853565216, 0.19496683776378632, -0.3405768573284149, 0.04148245230317116, -0.17713166773319244, -0.29676705598831177, -0.26297545433044434, 0.014892223291099072], [-1.1030033826828003, -0.8904174566268921, 0.30122312903404236, -0.24998274445533752, 0.4150402545928955, -0.32850489020347595, 0.661047637462616, 0.49501895904541016, 1.0532041788101196, -0.24644352495670319, 1.2424509525299072, 0.9330160617828369, 0.1278747320175171, 0.0982346385717392, -0.6190888285636902, -1.330374002456665, -0.6742614507675171, 0.8710517287254333, 1.1275742053985596, 1.1496617794036865, 0.6336290836334229, 0.28946343064308167, -0.18882687389850616, -0.38052141666412354, 0.8792979121208191, -0.7553220391273499, -0.09019583463668823, 0.40930283069610596, -0.5534481406211853, 0.39688795804977417, 0.8101450800895691, -1.2152928113937378], [-0.5462926030158997, -0.030417095869779587, 0.7209102511405945, 0.030444134026765823, -0.87816321849823, -0.3799301087856293, -0.21400438249111176, -1.743246078491211, -2.227644920349121, -1.03368079662323, -0.10693277418613434, 0.4962119460105896, 0.08584994822740555, 0.3515492379665375, -0.17274467647075653, 0.44007253646850586, -0.257782518863678, 0.22954823076725006, -0.7580046057701111, -0.48755475878715515, 0.06072917953133583, 0.4940052032470703, 0.18145540356636047, -0.24095256626605988, -0.3174734115600586, 0.10738861560821533, -0.06775253266096115, -0.22739239037036896, 1.787117600440979, -0.54115891456604, -0.21728645265102386, -0.4731401205062866], [-0.44321930408477783, -0.09576605260372162, -0.36561644077301025, -0.21940281987190247, 0.8205632567405701, 0.12018962949514389, -0.039452165365219116, 0.2537088990211487, -0.00433602649718523, -0.05187813937664032, 0.7668035626411438, -0.43707728385925293, -0.5487586259841919, 0.061756253242492676, -0.4970846474170685, -0.2013460397720337, 0.1627725213766098, 0.07885664701461792, -0.0913018062710762, -0.5948342680931091, 0.4954410791397095, 0.6226763129234314, -0.02918464131653309, -0.8452978730201721, 0.2778950035572052, -0.012445150874555111, -0.12096027284860611, 0.48251277208328247, -0.3067139685153961, 0.02281809039413929, -0.1177680566906929, -0.4992612898349762], [-0.31639257073402405, 0.0721520259976387, -0.6019288897514343, 0.39259016513824463, -0.2273152768611908, 0.3121109902858734, -0.4189414978027344, -0.38994619250297546, -0.9742044806480408, -0.5567160248756409, -1.0855188369750977, 0.005876500159502029, 0.17315301299095154, -0.2862473428249359, -0.23861946165561676, -0.3653043210506439, 0.27325770258903503, 0.15536805987358093, -0.20937038958072662, -0.09205841273069382, -0.4218016266822815, -0.12339089810848236, -0.131669282913208, 0.015395766124129295, 0.13638806343078613, 1.2199217081069946, -0.3259883522987366, -0.19327527284622192, 0.13044744729995728, -0.10977359116077423, -0.09249956160783768, -0.2125564068555832], [-0.16533660888671875, 0.04286453500390053, -0.600795328617096, 0.3482924997806549, 1.9106969833374023, -1.052563190460205, 0.7554939389228821, 1.2355365753173828, 0.3011868894100189, -0.6902012228965759, 0.7146188020706177, -1.3737118244171143, -0.7236483693122864, -0.3660348057746887, -0.03689010813832283, -0.4710337221622467, 0.5968177914619446, 0.13735367357730865, 0.7889774441719055, 1.5910911560058594, 0.4383547306060791, -1.1732791662216187, -0.42022979259490967, -0.17523597180843353, 0.11389179527759552, -0.5767120718955994, 0.41216591000556946, 0.24772295355796814, -0.7145203948020935, 0.3213939666748047, 0.3320436179637909, 0.23852287232875824], [-0.23378372192382812, 0.10374040901660919, 0.25928565859794617, -0.073332279920578, -0.2771298885345459, -0.8990911245346069, 0.2096938043832779, 0.39699292182922363, -1.9851531982421875, -1.0362145900726318, -0.08539269864559174, -0.3479262888431549, -0.30082711577415466, -0.27160102128982544, -0.4368908107280731, 0.8568904399871826, -0.028049325570464134, 0.11814822256565094, -0.7799089550971985, -0.8106030225753784, -0.4637279510498047, -0.8621266484260559, 0.06526902318000793, -0.39028120040893555, -0.029176045209169388, 0.11766766756772995, 0.3783748149871826, 0.31181517243385315, 0.19976648688316345, -0.5113435983657837, -0.25517064332962036, 0.561744213104248], [0.07263586670160294, -0.029641982167959213, 0.12785419821739197, 0.12667809426784515, 1.315191626548767, 0.7177703380584717, -0.10948142409324646, 0.28898680210113525, -0.0418105348944664, -0.5379241704940796, 0.2667551040649414, -0.9687758088111877, -0.6384506821632385, -0.22974847257137299, 0.6287682056427002, -0.6090049743652344, -0.005365342833101749, 0.2769607603549957, -0.7284755706787109, -0.7154566049575806, 0.11763860285282135, 0.9274904727935791, 0.033679693937301636, -0.07655320316553116, -0.0792822390794754, -0.6796873211860657, -0.21248222887516022, -0.08089575916528702, -0.5577306747436523, 0.05721840634942055, 0.19793832302093506, -0.3711773753166199], [-0.1886264532804489, 0.038196176290512085, 0.4945088326931, 0.6847143769264221, -0.21945232152938843, 0.11344020068645477, -0.703787624835968, 0.17855730652809143, -0.6133699417114258, 0.42923659086227417, 0.18049584329128265, -0.03387609124183655, -0.1625097692012787, 0.009064681828022003, -0.025589028373360634, -0.03564262017607689, -0.11240579187870026, -1.0155531167984009, 0.07673618197441101, 0.10163998603820801, -0.1970260888338089, 0.13279156386852264, 0.05264721438288689, -0.07873120158910751, -0.16899658739566803, 0.29068467020988464, -0.06455070525407791, -0.10495298355817795, 0.5821170210838318, -0.4479122757911682, 0.007372021675109863, 0.2464766949415207], [0.24206310510635376, 0.27043262124061584, -0.4680655300617218, -0.29438576102256775, -0.360395222902298, 0.36010363698005676, 0.052428122609853745, -0.007024687714874744, -0.1427294760942459, 0.05597000569105148, 0.3521583378314972, 0.05428038537502289, -0.16010341048240662, 0.3416910171508789, 0.01174464076757431, 0.4331212341785431, -0.27330613136291504, 0.20224086940288544, -0.12478400021791458, 0.37133508920669556, 0.2891010046005249, -0.37688666582107544, 0.30772829055786133, -0.14822891354560852, 0.05080447718501091, 0.30955058336257935, -0.23683178424835205, -0.14202724397182465, 0.05919265002012253, -0.4765467345714569, -0.04678594321012497, 0.28527477383613586], [-0.3416089415550232, -0.5017857551574707, -0.18940997123718262, 0.37695395946502686, 0.29150357842445374, -0.6966537237167358, 0.23705410957336426, -0.2524352967739105, -0.7445181608200073, -1.3105074167251587, 0.8780534863471985, -0.9392974972724915, 0.16598036885261536, -0.05716630816459656, 0.29252710938453674, -0.29934877157211304, 0.6508397459983826, 0.6197425723075867, -0.5097749829292297, 1.028519868850708, 0.12584663927555084, -1.0561327934265137, -0.11671579629182816, -0.10965342819690704, -0.16728810966014862, -0.021989937871694565, 0.2828100025653839, -0.3283267319202423, 0.4355399012565613, -0.8594057559967041, 0.06785755604505539, 0.7132766842842102], [-0.3808111250400543, -0.023819342255592346, 0.3086395859718323, 0.8326692581176758, -0.12106352299451828, -0.28530147671699524, -0.011076242662966251, 1.0988508462905884, -0.13019278645515442, -0.2877770960330963, 0.16298331320285797, 0.2358326017856598, -0.5671495795249939, -0.409911185503006, -0.36384332180023193, -0.04373936355113983, -0.683673083782196, -0.35310572385787964, -1.3184397220611572, -0.36498960852622986, 0.1509092152118683, 0.7035757899284363, -0.28415003418922424, 0.2453143298625946, -0.043150920420885086, -0.0602596178650856, 0.12406440824270248, 0.051959820091724396, 1.1241204738616943, -0.4561113119125366, 0.12427712231874466, 0.44500571489334106], [-0.4260507822036743, -0.3199964463710785, 0.09820013493299484, 0.38915371894836426, 1.009541630744934, 0.33150234818458557, -0.21482542157173157, 0.6277673244476318, 0.4304341673851013, -0.31002771854400635, 0.21681344509124756, 0.13854797184467316, 0.25682204961776733, -0.1076660230755806, 0.5148949027061462, -0.43091893196105957, 0.3670247495174408, 0.42441973090171814, 0.2850826680660248, 0.41926541924476624, -0.07511801272630692, 0.32486340403556824, -0.4302956163883209, -0.2674621045589447, 0.5215729475021362, 0.21796202659606934, 0.6127768158912659, 0.31013888120651245, -0.7588627338409424, 0.15730257332324982, 0.4630182981491089, -0.5677813291549683], [-0.980805516242981, -0.6023511290550232, 0.8858558535575867, 1.1246799230575562, -0.7378013730049133, -0.13733826577663422, 0.3256543278694153, 0.2693276107311249, -2.277111053466797, -0.4472273886203766, 0.2877836227416992, 0.7544101476669312, 0.8409320116043091, 0.4807490408420563, -0.6906003952026367, -0.951497495174408, -0.960237443447113, 0.2985977828502655, -0.07910464704036713, -0.2502087354660034, -0.3182348310947418, 0.9874809384346008, -0.10751434415578842, 0.050529688596725464, -0.37897542119026184, 0.3615497946739197, -0.13512825965881348, -0.42411109805107117, 0.8330146074295044, -0.11954829096794128, 0.5886049270629883, 0.0930967926979065], [0.2098020315170288, -0.1450280249118805, -0.7892374992370605, -0.32299453020095825, -0.2813422679901123, 0.00012503089965321124, -0.5116274952888489, -0.006470651365816593, -0.33037662506103516, -0.07997769862413406, -0.1957663595676422, 0.08684468269348145, 0.4193178415298462, -0.7610417604446411, 1.348088264465332, -0.06700342148542404, -0.07996784150600433, 0.7580074667930603, 0.45137497782707214, 0.11613325029611588, 0.13874562084674835, 0.27011561393737793, -0.0661856010556221, 0.33326002955436707, -0.09521006047725677, 0.4263984262943268, -0.32028529047966003, 0.2917495369911194, 0.11739634722471237, -0.7594358325004578, -0.6783505082130432, 0.771569013595581], [0.5316594839096069, 0.6331562995910645, 0.6843777298927307, 0.13423366844654083, 0.1181538999080658, -0.787645697593689, -1.0347927808761597, 0.6422866582870483, 0.01589999720454216, -0.388449102640152, -0.6015310287475586, 0.4407309591770172, 0.18255583941936493, 0.2721642255783081, 0.5028306245803833, 0.5969737768173218, -0.788224995136261, 0.03822876140475273, -1.1906917095184326, 0.5581855177879333, -0.395845502614975, 1.174444317817688, 0.7349632382392883, 1.2742090225219727, -0.44151753187179565, 0.9278579950332642, -0.7360569834709167, -0.8257516026496887, 0.5344579219818115, -1.0463049411773682, -0.32689136266708374, 0.7988424897193909], [-0.23413048684597015, 0.46578875184059143, 1.5312230587005615, 0.26561498641967773, 0.2947732210159302, 0.23907054960727692, 1.071847915649414, -2.1043875217437744, 0.3353731632232666, 0.20050735771656036, 0.8096451163291931, -0.7420905232429504, -0.7597890496253967, 0.7174492478370667, -0.14026953279972076, -0.4097946286201477, 0.30958348512649536, -1.0040019750595093, 0.4339715540409088, -2.4440557956695557, 1.295863389968872, 0.33215171098709106, 0.1748187094926834, 0.406400203704834, 0.5568223595619202, 0.6036651730537415, -0.496306449174881, 0.14277157187461853, -0.07956980168819427, 0.6720720529556274, -0.29516783356666565, 0.23246750235557556], [-0.03828541561961174, 0.16067259013652802, 0.04753948748111725, -0.4078150689601898, -0.24249306321144104, 0.3737773597240448, -0.26770493388175964, 0.5601402521133423, -0.8241665363311768, -0.7376630902290344, 0.35193660855293274, 0.06359520554542542, 0.562511146068573, 0.20965564250946045, -0.5193166136741638, -0.28058239817619324, -0.4034322500228882, 0.4990536570549011, 0.15106625854969025, -0.024102896451950073, 0.03623107820749283, -0.6360632181167603, 0.2618520259857178, 0.2802070379257202, 0.14489810168743134, 0.24646148085594177, -0.3314252197742462, 0.2720445990562439, 0.09301985055208206, -0.5609673261642456, 0.16175013780593872, -0.09680277109146118], [-0.06141160801053047, 0.15646235644817352, 0.12534476816654205, 0.6498392224311829, 0.21819736063480377, 0.6094970107078552, -0.13373398780822754, 0.46890297532081604, 1.149459958076477, -0.219817653298378, 1.13840651512146, 0.17340129613876343, -0.44590121507644653, 0.3344825208187103, -0.01177231129258871, -0.2107311338186264, 0.23282094299793243, 0.24337758123874664, -0.1677650511264801, -6.396806838893099e-06, -0.016885023564100266, -0.2987251579761505, -0.09974268823862076, -0.3494737446308136, 0.13519226014614105, -0.44809240102767944, 0.05933918058872223, 0.2640751302242279, -0.7767723798751831, 0.8526883721351624, -0.37733665108680725, -0.272317111492157], [0.08748475462198257, -0.352207750082016, -0.2875080406665802, -0.38020625710487366, 0.7498824596405029, -1.3360662460327148, -0.43120479583740234, -0.00323713687248528, 0.60270094871521, -0.3867742717266083, -0.047645241022109985, 0.16236814856529236, -0.33819207549095154, 0.35813015699386597, 0.5931500792503357, -0.46717891097068787, -0.4126487374305725, 0.8210917711257935, -1.0041207075119019, 0.7826722264289856, 0.5429933667182922, -0.06840330362319946, -0.018881753087043762, 0.7128137946128845, -0.13093610107898712, -0.1567744016647339, 0.3090370297431946, 0.04815703630447388, -0.7199873924255371, 0.2767569422721863, 0.04485420882701874, 0.7520057559013367], [0.727678120136261, 0.7667287588119507, 0.42964932322502136, -0.060054630041122437, -0.2490973174571991, 0.8827235102653503, -0.3077349066734314, 0.24142849445343018, -0.023836053907871246, 0.4489538073539734, 0.025313859805464745, 0.4234681725502014, -0.06233953312039375, 0.2616110146045685, 0.6952388286590576, 0.3132961690425873, -0.5483486652374268, 0.3832276165485382, -1.8076809644699097, 0.3341352641582489, 0.16910113394260406, 0.565511167049408, 0.644860565662384, 0.4373784065246582, -0.6162738800048828, 0.5460858941078186, -0.4258769452571869, -0.7617331743240356, -0.07587867975234985, -0.10118667781352997, -0.49865907430648804, 0.6870876550674438], [0.13495661318302155, -0.31915417313575745, 0.1558283269405365, -0.0949731171131134, -0.004004613496363163, 0.532275378704071, -0.6770190596580505, 0.28702178597450256, 0.3583439290523529, -0.36474844813346863, 0.0316212959587574, 0.4394192695617676, 0.6993775367736816, 0.43694326281547546, 0.17030006647109985, -0.19439560174942017, -0.25802794098854065, 0.47322675585746765, 0.9848029613494873, 0.9998610615730286, 0.616193413734436, -0.02661106176674366, 0.274255633354187, 0.6764460802078247, 0.15144413709640503, 0.9530341625213623, -0.06210234388709068, -0.06772327423095703, -0.4567424952983856, -0.4098171591758728, 0.5354839563369751, -0.07047947496175766], [0.0625733956694603, -0.28220462799072266, -0.16195790469646454, -0.47808635234832764, -0.141657292842865, -0.056788306683301926, 0.38951149582862854, -0.2147609293460846, 0.20182344317436218, -0.6418012380599976, 0.3692479729652405, -0.7752541303634644, 0.13134318590164185, 0.2998301684856415, 0.5929036140441895, 0.8889687657356262, 0.1164444088935852, 0.8294821381568909, -0.4427475929260254, 1.0263644456863403, -0.0144949397072196, -0.4274623990058899, 0.17963063716888428, 0.2639671862125397, -0.03718617931008339, -0.26592621207237244, -0.0012422961881384254, -0.1150704026222229, -0.20110759139060974, -0.023992804810404778, 0.20938806235790253, 0.5545394420623779], [-0.007970877923071384, 0.5255837440490723, 0.49819791316986084, 0.1878509223461151, -0.15526746213436127, 0.7890446186065674, -0.10383069515228271, 0.15122008323669434, -0.551303505897522, 0.9283370971679688, 0.049350108951330185, -0.5264120697975159, -0.06736515462398529, 0.2565736472606659, -0.5751494765281677, 0.08209987729787827, -0.3491925001144409, -0.07430704683065414, -0.14435049891471863, -0.16095787286758423, -0.11871254444122314, -0.5103515982627869, 0.11658094823360443, 0.09424770623445511, -0.49008598923683167, 0.32569772005081177, -0.09677829593420029, -0.2951815724372864, 0.6613260507583618, -0.38702592253685, -0.5383071899414062, 0.06820997595787048], [0.6625229716300964, 0.06431126594543457, 0.8675087094306946, -0.17965680360794067, -0.6488249897956848, 0.7127687335014343, -1.2810471057891846, 0.8212346434593201, 0.1962972730398178, -0.5344744324684143, 0.15401215851306915, 0.433785617351532, 0.6746114492416382, 0.5760329365730286, 0.44866687059402466, 0.4762778878211975, -1.3583918809890747, -0.10227657854557037, -0.13896913826465607, 1.3192496299743652, 0.23533163964748383, 1.1663844585418701, 0.9740886688232422, 0.6214852333068848, -0.4914182424545288, 0.39871054887771606, -0.6388869881629944, -0.36797624826431274, -0.31640079617500305, -0.9913451075553894, -0.4392367899417877, 0.7096965312957764], [-1.0959914922714233, -0.6745431423187256, -0.41254162788391113, -0.1663123220205307, 1.0195021629333496, -0.05921033397316933, 0.5603582262992859, 0.18090684711933136, 0.9202365279197693, -0.2858673930168152, 1.1888943910598755, 0.45641177892684937, 0.1921163648366928, 0.26079002022743225, -0.2803986668586731, -1.2262179851531982, -0.01355706062167883, 0.18205685913562775, 1.6332699060440063, 0.003609362058341503, 0.44838541746139526, 0.5408344268798828, -0.9841600060462952, -0.604767918586731, 1.100535273551941, -0.1224353089928627, 1.1194744110107422, 0.5895037651062012, -0.4314209222793579, -0.3090907335281372, 0.5094300508499146, -1.4077951908111572], [0.1130208671092987, 0.015664437785744667, -0.635581910610199, -0.004439889919012785, -0.20523381233215332, -0.034151483327150345, 0.11784794181585312, 0.22700460255146027, 0.5215097069740295, -0.22032010555267334, -0.5495361089706421, -0.3184356987476349, -0.034250251948833466, -0.07783666998147964, 0.6343303322792053, 0.39778274297714233, -0.17755071818828583, 0.05723700672388077, 0.11484050750732422, 0.0017836590996012092, -0.18050514161586761, -0.018021702766418457, 0.3140312135219574, -0.09619634598493576, -0.2749468684196472, -0.052768003195524216, -0.20088429749011993, 0.08945250511169434, -0.06926578283309937, -0.0060351514257490635, -0.5683131814002991, 0.7839847207069397], [-0.3421827554702759, -0.5781360864639282, -0.05518069863319397, -0.2545577883720398, 0.7149206399917603, 0.7229737639427185, -0.3345116078853607, 0.6392838954925537, 0.5153997540473938, -0.5075788497924805, 0.4278622567653656, -0.07872335612773895, 0.0555332750082016, 0.5262655019760132, 0.09178649634122849, -0.37364381551742554, 0.2283526360988617, 0.44755974411964417, 0.49248412251472473, 0.6654261350631714, 0.6352827548980713, 0.14517703652381897, -0.06986404210329056, -0.8337609171867371, 0.5234631896018982, 0.36824262142181396, -0.31258368492126465, 0.3875594139099121, -0.8036026954650879, -0.028561674058437347, 0.34450283646583557, -0.6299213171005249], [-0.05905558168888092, 0.024345962330698967, -0.1261085867881775, -0.20264551043510437, 0.9581703543663025, 0.6841230392456055, 0.3873400092124939, -0.22159269452095032, 1.351815104484558, 0.5842314958572388, 0.28900736570358276, 0.16514936089515686, 0.34333336353302, -0.08292795717716217, -0.16812460124492645, -0.5662540197372437, -0.07300999760627747, -0.4842146635055542, -0.23637235164642334, -0.18651561439037323, 0.1653098464012146, 0.005399965215474367, 0.1387004405260086, 0.29633691906929016, -0.12536904215812683, 0.029632966965436935, -0.010212615132331848, -0.5907493233680725, -0.890051543712616, -0.4024132490158081, -0.016561930999159813, -0.2291172742843628], [0.609918475151062, -0.013409123755991459, -0.1520681530237198, -0.3301563858985901, -0.32291778922080994, -0.11201531440019608, -0.03865652531385422, -0.06903542578220367, -0.1052369475364685, -0.2416246235370636, 0.18698403239250183, 0.049169812351465225, -0.07448756694793701, 0.3916483521461487, 0.36245474219322205, -0.20105627179145813, 0.004843216389417648, -0.02386421337723732, -0.3048268258571625, 0.21017275750637054, 0.40180760622024536, 0.31476739048957825, 0.10632641613483429, 0.6716277599334717, -0.794874906539917, -0.3891790211200714, -0.7633621692657471, -0.4968855679035187, 0.5346129536628723, 0.18598312139511108, -0.14736755192279816, 0.09641388058662415], [0.6528071165084839, -0.054881688207387924, 0.3083741366863251, 0.4983725845813751, -0.08434990793466568, 0.3913373053073883, 0.2547180950641632, -0.012972366996109486, 0.34965118765830994, -0.300354540348053, -0.02261357195675373, 0.06165383756160736, 0.051954057067632675, 0.4634771943092346, -0.10688041150569916, -0.08074971288442612, -0.545905351638794, -0.5520878434181213, -0.40581709146499634, 0.02801324985921383, 0.49872806668281555, 0.058021027594804764, 0.14478079974651337, -0.010441108606755733, -0.5921535491943359, 0.01000140979886055, -0.01829100400209427, -0.15731848776340485, -0.2116781622171402, 0.39918404817581177, -0.12442288547754288, -0.2058989405632019], [0.15472202003002167, 0.004383317660540342, 0.005792650859802961, 0.03114978037774563, -0.01189385075122118, -0.12366849184036255, 0.13968871533870697, -0.004108835477381945, -0.3963986933231354, -0.10244935750961304, 0.23603752255439758, -0.016318608075380325, 0.13401614129543304, 0.04634224623441696, -0.24194635450839996, 0.005672193132340908, 0.0019132731249555945, 0.18533074855804443, -0.07409419864416122, -0.002326460788026452, 0.12666568160057068, 0.11958906054496765, 0.011337868869304657, 0.08155590295791626, 0.047161445021629333, 0.06245932728052139, 0.16550876200199127, 0.031030183658003807, -0.543250322341919, 0.08970072865486145, -0.03268631175160408, -0.10986652225255966], [-0.08884958922863007, -0.09327690303325653, 0.19549420475959778, -0.1597079485654831, 0.08368240296840668, 0.169206440448761, 0.05481274053454399, -0.20190255343914032, 0.17458797991275787, 0.007391368970274925, 0.05939576402306557, -0.19597145915031433, 0.18196247518062592, 0.05901239067316055, -0.03661961480975151, -0.1252402663230896, -0.059296201914548874, -0.15668822824954987, 0.15875348448753357, -0.1909499317407608, -0.10802600532770157, -0.22845196723937988, 0.07282944768667221, 0.033722344785928726, 0.021601373329758644, 0.05391356348991394, -0.07871956378221512, 0.11244715750217438, -0.43643346428871155, 0.007306219544261694, 0.06299901753664017, -0.109757199883461], [0.18714427947998047, 0.23450809717178345, 0.05118333548307419, -0.023505430668592453, 0.2788572311401367, -0.12990018725395203, -0.15232908725738525, 0.08798200637102127, 0.28270354866981506, 0.3803689777851105, -0.3488093316555023, -0.283288836479187, -0.09308136999607086, -0.05151888355612755, 0.31172627210617065, -0.034300822764635086, 0.16974519193172455, -0.19635403156280518, -0.2954186797142029, -0.7449825406074524, 0.21119827032089233, 0.3054618239402771, -0.8012822270393372, 0.19522099196910858, 0.07617060095071793, -0.3362286686897278, -0.41555505990982056, -0.13809041678905487, -0.5943981409072876, 0.12159568816423416, 0.36599019169807434, -0.08806464821100235], [-0.04840174317359924, -0.11172448098659515, 0.24094276130199432, 0.4488646686077118, 0.3251153230667114, -0.07992926985025406, 0.3405660390853882, -0.1388443261384964, -0.23936644196510315, 0.14589974284172058, 0.43287351727485657, -0.3239988684654236, -0.038690902292728424, 0.23295985162258148, 0.2859058082103729, 0.029535993933677673, 0.5493521690368652, 0.35928288102149963, -0.003789623035117984, -0.03815818578004837, 0.7171096801757812, -0.1371062695980072, -0.20627789199352264, -0.27770042419433594, -0.11354222893714905, -0.21269918978214264, 0.269835501909256, -0.16569775342941284, -0.8262106776237488, 0.5546166896820068, -0.03795396536588669, -0.5153045058250427], [-0.24210911989212036, -0.29070889949798584, -0.5869957208633423, -0.024851003661751747, 0.9671451449394226, -0.6285614967346191, -0.24172326922416687, -0.5549516081809998, 0.21535857021808624, 0.13267207145690918, 1.0390806198120117, 0.14436106383800507, -0.18174050748348236, -0.1482890397310257, -0.8208153247833252, -0.288251668214798, -0.2833506464958191, 0.17802274227142334, 0.9239458441734314, -0.5940218567848206, -0.023266559466719627, -0.748476505279541, -0.02782851830124855, -0.07414447516202927, -0.09449804574251175, -0.515210747718811, -0.1956019252538681, -0.2452545315027237, -0.4403514564037323, -0.16470207273960114, 0.32070422172546387, 0.10800586640834808], [0.1503744274377823, 0.3082638084888458, 0.11507926136255264, 0.6162416338920593, -0.04102892428636551, 0.5319391489028931, 0.23629409074783325, -0.46881359815597534, -0.018877264112234116, 0.032102394849061966, -0.6033545136451721, -0.4117056727409363, -0.061569198966026306, -0.2757684290409088, 0.27157139778137207, -0.16370616853237152, 0.3403254747390747, 0.03475853055715561, -0.3480556011199951, -0.08474991470575333, -0.4105909764766693, 0.38501471281051636, -0.0032147744204849005, 0.11905720829963684, -0.03464493900537491, 0.2037011981010437, -0.27906522154808044, 0.26037469506263733, -0.025308018550276756, 0.019651109352707863, -0.25902384519577026, 0.15569709241390228], [-0.01869095303118229, -0.02035638503730297, 0.42693039774894714, -0.10169237107038498, 0.9745403528213501, 0.46875840425491333, 0.04556925967335701, -0.2929275929927826, -0.9612308740615845, 0.6979140043258667, -0.21599332988262177, 0.6391757130622864, -0.011759602464735508, 0.37452027201652527, 0.03887272998690605, -0.39951130747795105, 0.1866728961467743, -0.4088127017021179, -0.01519962027668953, -0.08980788290500641, 0.09162518382072449, 0.7708831429481506, 0.060996659100055695, 0.15622781217098236, 0.029880570247769356, -0.19331492483615875, -0.08338546752929688, 0.38250142335891724, -0.3685544431209564, 0.731762170791626, -0.034387003630399704, -0.2282497137784958], [-0.3695131838321686, 0.23624305427074432, 0.0970832109451294, -0.11120419949293137, 0.03264514356851578, 0.04977648705244064, 0.06282755732536316, 0.24371536076068878, 1.3935412168502808, -0.33717310428619385, -0.16336646676063538, 0.21646764874458313, -0.3475746214389801, 0.28190603852272034, -0.23321644961833954, -0.4343269169330597, 0.4246712028980255, -0.6782699227333069, -0.6353757381439209, -0.7741885185241699, 0.06639470905065536, 0.0817405954003334, 0.2576926350593567, -0.41637200117111206, -0.5101484656333923, 0.3113093674182892, -0.27451515197753906, 0.03221848979592323, 0.6381874084472656, 0.02553013153374195, -0.08072404563426971, -0.2123924195766449], [-0.027346348389983177, -0.09945785999298096, -0.20433160662651062, -0.020962638780474663, 0.5097687244415283, -0.6264283061027527, -0.23355093598365784, -0.48057225346565247, 0.5024343729019165, 0.3787291944026947, -0.13057035207748413, 0.4301294684410095, -0.39735350012779236, -0.2692964971065521, -0.38844117522239685, -0.34635859727859497, -0.10042298585176468, 0.16388608515262604, -0.005168835632503033, -0.21678878366947174, -0.20590756833553314, -0.1440419703722, -0.0941261276602745, 0.13158364593982697, 0.09041287004947662, -0.24402658641338348, -0.13486292958259583, 0.2562754452228546, -0.43597012758255005, -0.04471641406416893, -0.07101558148860931, 0.2221437245607376], [-0.14390121400356293, 0.10998618602752686, 0.6695740818977356, 0.3352324962615967, 0.08631162345409393, -0.30714014172554016, -0.43133485317230225, -0.3236822485923767, -0.21620969474315643, -0.1635696142911911, 0.16363395750522614, 0.0403268001973629, 0.05406905338168144, 0.18478012084960938, -0.389731764793396, 0.13907144963741302, 0.1959519386291504, -0.3338931202888489, 0.3819360136985779, -0.010495905764400959, -0.14111551642417908, -0.31967979669570923, -0.15059690177440643, 0.12890945374965668, -0.06328997015953064, -0.21923138201236725, 0.1872970312833786, -0.32082584500312805, -0.09406616538763046, 0.20387423038482666, 0.0807395726442337, -0.18843582272529602], [-0.017338888719677925, -0.027376197278499603, 0.38995757699012756, 0.26131531596183777, 0.020344270393252373, -0.029607314616441727, 0.08769720792770386, -0.01336261909455061, 0.2516084909439087, 0.2563037574291229, -0.17501288652420044, 0.31270134449005127, -0.2820502519607544, -0.10249394178390503, 0.2471083700656891, -0.1815555989742279, -0.024531984701752663, 0.23818334937095642, 0.3939407467842102, 0.0524325892329216, -0.1432887315750122, 0.421832799911499, -0.10153470188379288, -0.19529210031032562, 0.19551485776901245, -0.1988389790058136, 0.37351134419441223, -0.2193920910358429, -0.050690460950136185, -0.11066632717847824, -0.12938156723976135, 0.060606565326452255], [0.10466941446065903, -0.23367184400558472, 0.05254589766263962, 0.3576173782348633, -0.5256489515304565, 0.15210092067718506, -0.14632770419120789, 0.2811887264251709, -0.6208381056785583, -0.13516275584697723, 0.7638648152351379, -0.17525845766067505, -0.30730950832366943, 0.08323150873184204, 0.2529146373271942, -0.09163843095302582, 0.2057080715894699, 0.818192720413208, -0.1782667338848114, 0.4002940058708191, -0.0014136084355413914, -0.21928994357585907, 0.12857303023338318, -0.22686336934566498, -0.3800766170024872, -0.10239912569522858, 0.5083799362182617, -0.22397463023662567, -0.5132195949554443, -0.1782577484846115, -0.04701973870396614, 0.4260772466659546], [-0.038080982863903046, 0.006597158964723349, 0.23387059569358826, 0.18502306938171387, -0.17639991641044617, 0.23996300995349884, 0.6286303400993347, -0.08109577745199203, -0.2973558306694031, 0.04985596984624863, 0.6821655631065369, -0.21201692521572113, -0.10754510015249252, -0.11850607395172119, -0.7769343852996826, -0.15565237402915955, 0.14376159012317657, -0.2054624855518341, -0.5136494040489197, -0.14360351860523224, 0.13266892731189728, -0.1609649360179901, 0.12275595963001251, 0.11953733116388321, 0.03099096193909645, 0.055807795375585556, 0.02528812177479267, -0.23661696910858154, 0.034320585429668427, 0.14849403500556946, 0.44911718368530273, -0.239012211561203], [0.47625431418418884, 0.07245464622974396, -0.029485410079360008, -0.2628980278968811, -1.0820345878601074, -0.3825248181819916, 0.31999799609184265, 0.2902357876300812, -0.11931005120277405, -0.3381093442440033, 0.2936514914035797, -0.5579367876052856, 0.18828894197940826, 0.01584983430802822, -0.09106575697660446, 0.32005682587623596, -0.17840321362018585, -0.35650089383125305, 0.055835310369729996, 0.0646565854549408, -0.21541807055473328, -0.18815681338310242, 0.16773957014083862, 0.2262524664402008, -0.2870946228504181, -0.2869696617126465, 0.035191070288419724, 0.10428985208272934, 0.3430425524711609, -0.35008564591407776, -0.24829375743865967, 0.24952761828899384], [-0.10877741128206253, 0.3923529088497162, 0.3376944363117218, -0.3948999345302582, -0.26302117109298706, -0.003861448960378766, -0.7023792862892151, -0.4509596824645996, 0.9340003132820129, 0.032334331423044205, -0.08050557225942612, 0.050788555294275284, 0.029959799721837044, 0.06962191313505173, -0.13707534968852997, 0.42595934867858887, 0.25213244557380676, -0.1061294749379158, 0.16366559267044067, -0.16218191385269165, 0.36129850149154663, -0.4949229955673218, 0.3608308434486389, -0.10831723362207413, 0.4424646198749542, 0.5062076449394226, -0.18634872138500214, 0.1955999732017517, 0.47336041927337646, 0.6006648540496826, -0.1531125158071518, -0.17872540652751923], [-0.10005389153957367, -0.14360778033733368, -0.5402230620384216, -0.6291764974594116, 0.07760564237833023, -0.1365729421377182, -0.1478087157011032, -0.36196771264076233, 0.03172457590699196, 0.1339271366596222, -0.12311461567878723, -0.9591611623764038, -0.48033392429351807, -0.09498301148414612, 0.2893448770046234, 0.0647592544555664, 0.24293863773345947, 0.5467724204063416, -0.6153099536895752, -0.24404723942279816, -0.02447294071316719, -0.14229336380958557, -0.15092869102954865, -0.06371083110570908, 0.027669299393892288, -0.18748223781585693, -0.1555546671152115, 0.043023157864809036, -0.44359806180000305, 0.03486698120832443, -0.22069495916366577, 0.15607976913452148], [-0.14904369413852692, -0.25275561213493347, -0.13941441476345062, -0.12430421262979507, 0.09797734767198563, 0.04347378760576248, -0.20272399485111237, -0.04562895745038986, -0.02210199646651745, 0.6562093496322632, 0.09371902048587799, -0.19441185891628265, 0.012131438590586185, 0.23218296468257904, -0.28019848465919495, -0.3706490993499756, 0.23444578051567078, -0.24885813891887665, 0.4207289218902588, -0.49522173404693604, -0.1544274091720581, 0.254892498254776, -0.1128806322813034, -0.238362655043602, 0.2662177085876465, 0.1401652842760086, -0.0267665795981884, 0.3809686005115509, 0.39466437697410583, 0.04207616671919823, -0.1299162209033966, -0.052186012268066406], [0.021571753546595573, 0.09445787966251373, -0.37762439250946045, 0.023038579151034355, 0.07297232747077942, -0.5357170701026917, -0.2821137011051178, -0.39609000086784363, 0.09075731784105301, -0.1629079133272171, 0.015755150467157364, 0.01636209525167942, -0.27490222454071045, -0.7087066173553467, 0.620781421661377, 0.25157278776168823, 0.36197566986083984, 0.6919695734977722, 0.5755523443222046, -0.9815986156463623, -0.59306401014328, 0.3046886920928955, 0.0364081971347332, 0.08176503330469131, 0.22429630160331726, 0.016418401151895523, 0.299120157957077, 0.02184044010937214, -0.2901918888092041, -0.8006929159164429, -0.16915544867515564, 0.39139920473098755], [-0.048847395926713943, -0.16668185591697693, 0.08287091553211212, 0.09028910100460052, -0.21534645557403564, 0.11301324516534805, 0.22069187462329865, 0.3437859117984772, -0.2138112187385559, 0.021146098151803017, -0.02591044455766678, -0.051211852580308914, -0.3582761883735657, 0.28001701831817627, -0.025084849447011948, -0.2954659163951874, 0.0028746300376951694, 0.299503356218338, 0.054709382355213165, -0.3030174672603607, 0.5469437837600708, 0.004307866562157869, 0.13661837577819824, 0.10146994143724442, 0.2439960390329361, 0.06194937974214554, -0.12503623962402344, 0.01918949745595455, -0.24818161129951477, 0.7364527583122253, 0.2616520822048187, -0.33669206500053406], [0.08445984125137329, -0.11270075291395187, 0.2163478285074234, 0.7750699520111084, 0.20447655022144318, 0.38882243633270264, 0.06668055802583694, -0.14054760336875916, -0.22926071286201477, -0.12411440908908844, 0.6152896285057068, 0.10069292783737183, -0.1796216368675232, 0.3702889084815979, -0.22471307218074799, -0.5620586276054382, 0.0019367508357390761, -0.34193387627601624, -1.048866629600525, 0.13460616767406464, 0.4014911353588104, -0.19485679268836975, 0.09003516286611557, 0.11029970645904541, -0.036966778337955475, 0.10126163810491562, -0.012551129795610905, 0.10037499666213989, -0.14847441017627716, 0.5767939686775208, 0.3609272539615631, -0.15635249018669128], [0.001474108430556953, 0.051256146281957626, -0.0880875289440155, 0.05584590137004852, 0.06246831640601158, 0.06045982614159584, -0.46667221188545227, -0.25558194518089294, -0.0882345512509346, 0.06516613066196442, -0.7916733026504517, 0.02552815154194832, 0.2214505523443222, -0.10084975510835648, -0.025419941172003746, 0.2643420696258545, -0.14914570748806, 0.4925993084907532, 0.24752351641654968, 0.8960592746734619, -0.4126226007938385, -0.559401273727417, 0.36036643385887146, -0.0799139067530632, -0.6601298451423645, 0.3862980604171753, 0.28125569224357605, -0.19871804118156433, 0.5323111414909363, -0.29775211215019226, -0.7294057607650757, 0.40446415543556213], [-0.02492976002395153, 0.20775696635246277, 0.25814270973205566, 0.3239883780479431, 0.13411346077919006, 0.06713664531707764, -0.06012183800339699, -0.5707578063011169, -0.13655990362167358, 0.08505722880363464, -0.19150222837924957, 0.1723785400390625, 0.21599622070789337, -0.03846900165081024, -0.036674488335847855, -0.4207741320133209, 0.08359285444021225, -0.13075119256973267, -1.1263340711593628, -0.1827513575553894, -0.1076810210943222, 0.09100005775690079, -0.05970568582415581, 0.21275067329406738, 0.09973007440567017, -0.37161704897880554, 0.020932022482156754, -0.7493403553962708, -0.14179560542106628, 0.011318884789943695, 0.3742019236087799, 0.172044038772583], [-0.19592222571372986, -0.2722528576850891, 0.06718025356531143, -0.06679236888885498, 0.0960300862789154, 0.08513964712619781, 0.10972460359334946, 0.38553380966186523, 0.24224483966827393, 0.07984966039657593, 0.05033639818429947, -0.3288588523864746, -0.07640496641397476, 0.035487525165081024, -0.2399081587791443, 0.34492430090904236, 0.3571391999721527, -0.06753386557102203, -0.1260395497083664, -0.11190491914749146, 0.27454081177711487, -0.17837411165237427, -0.10421977192163467, -0.247410848736763, 0.9249776601791382, -0.7989771366119385, 0.22252489626407623, 0.5808194279670715, -0.07845072448253632, 0.03254358470439911, 0.30627480149269104, -0.4795295298099518], [-0.5480255484580994, -0.3676658868789673, 0.36623644828796387, 0.2002510279417038, 0.11169905215501785, -0.03820829838514328, 0.17587308585643768, -0.29781949520111084, -0.11417167633771896, -0.4594293534755707, 0.13541051745414734, 0.09413643181324005, 0.5297595858573914, 0.22706271708011627, -0.24182701110839844, -0.3060361444950104, -0.03347596153616905, 0.24991722404956818, 0.1122894138097763, 0.306363046169281, -0.23220430314540863, -0.006475803442299366, 0.01610204204916954, 0.4205814003944397, -0.09459695219993591, 0.06744025647640228, 0.2205820530653, -0.7718630433082581, 0.46733522415161133, -0.4171580672264099, 0.21439556777477264, -0.410410076379776], [0.009268130175769329, 0.014106309972703457, -0.2676401138305664, -0.019134946167469025, -0.1791914999485016, -0.059006188064813614, -0.39498621225357056, 0.021233106032013893, 0.05298852548003197, 0.5663331151008606, -0.4789043068885803, 0.3559925854206085, 0.026758158579468727, -0.5686628818511963, 0.4791727066040039, 0.3785664737224579, -0.1568388193845749, 0.14883610606193542, 0.3374514579772949, -0.03328393027186394, -0.1489272266626358, 0.2169003188610077, -0.0702664703130722, 0.04919727146625519, 0.37692010402679443, -0.18717144429683685, -0.1035534143447876, 0.00488322926685214, 0.30423328280448914, -0.08316700905561447, -0.08187936246395111, -0.11882870644330978], [-0.3149792551994324, -0.43800073862075806, -0.4405316710472107, -0.7286883592605591, 0.033404670655727386, -0.10602834075689316, 0.04079844057559967, -0.10739575326442719, -0.46262845396995544, -0.0007220404222607613, -0.18001030385494232, -0.06262887269258499, -0.4743283689022064, 0.23636285960674286, 0.3226031959056854, 0.05217665806412697, 0.047965724021196365, 0.1944112330675125, 0.36514827609062195, 0.08464382588863373, 0.09346365928649902, -0.294885516166687, -0.023692892864346504, 0.1878325492143631, 0.31863993406295776, -0.06625663489103317, -0.1874275803565979, 0.3741559386253357, 0.1694396436214447, 0.049631256610155106, -0.1602621078491211, 0.19668364524841309], [-0.18042296171188354, -0.053412508219480515, 0.4970938563346863, 0.016234299167990685, -0.9385437369346619, 0.40963268280029297, 0.1474047601222992, 0.5046091675758362, -0.3617739677429199, -0.008597495965659618, -0.2728254497051239, 0.5951329469680786, -0.03963717073202133, 0.07202353328466415, -0.3845995366573334, 0.04110153019428253, -0.17441995441913605, -0.18869192898273468, -0.21402539312839508, -0.1707499772310257, -0.013004238717257977, 0.3387835621833801, 0.2033611387014389, -0.4843505024909973, 0.013176663778722286, -0.2069101184606552, 0.13119693100452423, 0.06252168118953705, 0.13348489999771118, 0.11461446434259415, -0.3202362656593323, -0.2097206860780716], [0.002743680030107498, -0.02694084495306015, -0.5120711326599121, -0.17690113186836243, 0.1498408168554306, -0.1337577849626541, -0.17335085570812225, 0.04555685818195343, -0.31567737460136414, -0.6336638927459717, -0.2315458208322525, 0.24405059218406677, -0.274202436208725, 0.28115314245224, 0.5216236710548401, -0.10189720243215561, 0.25640109181404114, 0.42447444796562195, 0.3342558443546295, -0.31027063727378845, 0.34344369173049927, -0.02143879607319832, 0.03702718764543533, 0.07243899255990982, 0.07902945578098297, 0.011623729951679707, -0.07948481291532516, 0.33578482270240784, -0.8411015868186951, 0.21112282574176788, -0.35672828555107117, 0.03403765335679054], [-0.2652837634086609, -0.14591233432292938, -0.24433794617652893, -0.2873610556125641, 0.12578175961971283, -0.28033220767974854, -0.0879242867231369, -0.16564562916755676, -0.043459802865982056, -0.17679902911186218, -0.07642582058906555, -0.47127485275268555, -0.030263224616646767, -0.088128961622715, 0.12870721518993378, 0.002904367633163929, 0.6466084718704224, 0.0009054383845068514, -0.18359814584255219, -0.28412359952926636, 0.1915646344423294, -0.6460831761360168, -0.30723583698272705, 0.07956664264202118, 0.6600547432899475, -0.30695855617523193, 0.4810231924057007, 0.11254611611366272, -0.4970490336418152, 0.27106720209121704, 0.6001214385032654, -0.12572848796844482], [0.5116314888000488, 0.23860448598861694, -0.5877965688705444, -0.177925705909729, 0.36815252900123596, -0.03418683633208275, 0.2566269636154175, 0.20697271823883057, -0.5620540976524353, -0.2616974115371704, -0.12103143334388733, -0.5048125982284546, -0.21437664330005646, -0.10915123671293259, -0.27177363634109497, 0.48038825392723083, -0.32115438580513, -0.08060060441493988, -0.5777537822723389, -0.11500701308250427, -0.24719002842903137, -0.14562225341796875, 0.18726827204227448, 0.5398399233818054, -0.3240496814250946, -0.4999724328517914, -0.1117854192852974, -0.19400101900100708, -0.0366361066699028, -0.1892624795436859, -0.13680028915405273, 0.4874764680862427], [-0.3979441523551941, -0.22097089886665344, 0.10467080771923065, 0.41090232133865356, 0.8230976462364197, -0.08371928334236145, 0.4241190552711487, 0.09153862297534943, 0.2958381772041321, 0.17355798184871674, 0.4961514174938202, 0.08631487935781479, 0.15699730813503265, -0.35800546407699585, -1.2357258796691895, -0.34489724040031433, 0.06446436047554016, -0.417313814163208, -0.2633180618286133, -0.3127240538597107, 0.012331298552453518, 0.26585906744003296, -0.2574535608291626, -0.15100733935832977, 0.09967435896396637, 0.005401609465479851, 0.4371645152568817, -0.2491186410188675, -0.40881308913230896, 0.799852728843689, 0.13964536786079407, -0.5287092328071594], [-0.2435743361711502, -0.3307296335697174, 0.2289813756942749, 0.35729706287384033, 0.2069050818681717, -0.012934721074998379, 0.026428846642374992, -0.6066863536834717, -0.21293199062347412, 0.5188488364219666, -0.16142301261425018, 0.12934660911560059, 0.3296620547771454, -0.322851300239563, -0.2129690796136856, -0.28208139538764954, 0.40133923292160034, -0.3114585280418396, 0.23245221376419067, -0.08676598221063614, -0.119240403175354, -0.301744282245636, -0.19037671387195587, 0.2631515860557556, 0.4037300944328308, -0.028149118646979332, 0.45250293612480164, 0.19388054311275482, -0.32037582993507385, -0.08458227664232254, 0.2918802797794342, -0.27488476037979126], [-0.07580437511205673, -0.34653347730636597, -0.55795818567276, -0.5002683997154236, -0.13396252691745758, 0.14551523327827454, -0.01235599908977747, 0.22125668823719025, -1.379196286201477, -1.0267671346664429, 0.017190877348184586, 0.2522415220737457, -0.020373621955513954, 0.1833079606294632, 0.4235517084598541, -0.3307223320007324, 0.2923603653907776, 0.4340479075908661, 0.95744389295578, 0.7467582821846008, 0.0027444371953606606, -0.47557100653648376, -0.079573854804039, 0.16590289771556854, -0.3451124429702759, 0.8977881073951721, -0.17428818345069885, 0.3287166953086853, -0.5689035654067993, -0.3373267352581024, -0.3032912611961365, 0.8359251022338867], [0.6985111832618713, -0.3114783465862274, 0.025547944009304047, -0.6582828760147095, -0.1431366205215454, 0.7895642518997192, 0.6095905900001526, 0.36505576968193054, 0.4114333689212799, 0.04566645249724388, 0.6244570016860962, 0.14492498338222504, 0.22224155068397522, 0.1688145399093628, 1.075156331062317, -0.3386914134025574, -0.3379441499710083, 0.9453326463699341, 0.18707826733589172, 0.5913487672805786, 0.9059814214706421, 0.2381681352853775, 0.4839518964290619, 0.4408809244632721, -0.6285415887832642, -0.02262067422270775, -1.3967509269714355, -0.04237489402294159, -0.9288381338119507, -0.322026789188385, -0.20865505933761597, 0.6145559549331665], [-0.3645176589488983, -0.2494416981935501, 0.399461954832077, 0.3193688690662384, 0.24327915906906128, -0.2911083996295929, 0.8670533299446106, 0.1550471931695938, -0.2596508264541626, 0.28198137879371643, 1.480561375617981, 0.8854143023490906, 0.41370248794555664, -0.1078135296702385, -0.4719340205192566, -0.6054088473320007, 0.14661456644535065, 1.0044184923171997, 1.0639877319335938, 0.47977593541145325, 0.37514758110046387, 0.3802659511566162, -0.6206957697868347, -0.6861892342567444, 0.21597598493099213, -0.6306488513946533, 0.6331495046615601, 0.43770864605903625, -0.2014065831899643, 0.15138904750347137, 0.5929930806159973, -0.34245091676712036], [-0.38107627630233765, -0.21243301033973694, 0.5192667245864868, 0.48648253083229065, -0.17256596684455872, -0.13929076492786407, -0.8583635687828064, -0.09438516944646835, 1.508577823638916, -0.6520513892173767, 0.2926018536090851, 0.6738271713256836, 0.19974003732204437, -0.21849191188812256, 0.13494722545146942, -0.054486583918333054, 0.3590535819530487, -0.31336066126823425, -0.10960455983877182, -0.05098189413547516, -0.30470383167266846, 1.2205787897109985, -0.6623097062110901, -0.49014320969581604, 0.17536549270153046, 0.13476374745368958, 0.39359521865844727, -0.35712993144989014, 1.0539214611053467, -0.6207840442657471, 0.31072691082954407, -0.43288707733154297], [-0.670874834060669, -0.12350529432296753, -0.8942011594772339, -0.0354786217212677, 1.0692167282104492, -0.44540688395500183, 0.051616936922073364, 0.1332407295703888, -0.05977864935994148, -0.5503661632537842, 0.7631704807281494, -0.42973920702934265, -0.21526095271110535, -0.6918759346008301, -0.031183842569589615, -0.7739599943161011, 0.40725141763687134, -0.3685937821865082, 1.0376008749008179, 0.4424714148044586, -0.0516275055706501, -0.36958351731300354, -0.09515687078237534, 0.06703057885169983, 0.036144692450761795, -0.05429505929350853, 0.63946533203125, 0.04218936339020729, -0.4494178593158722, -0.7954995036125183, 0.008210835047066212, -0.5194985866546631], [-0.6789369583129883, -0.36588016152381897, 0.8506848812103271, 0.9343297481536865, -0.16577376425266266, -0.511321485042572, -0.5349394679069519, -0.0866478681564331, 0.347934752702713, -0.3731772303581238, -0.32243022322654724, 1.6374008655548096, 0.10373029112815857, -0.635053277015686, -0.41558876633644104, -0.3940182328224182, -0.36409929394721985, -0.30384472012519836, -0.7738600969314575, -0.12251010537147522, -0.20210832357406616, 1.9479868412017822, -0.20150241255760193, 0.9402504563331604, -0.016504280269145966, 0.6188943386077881, 0.5676477551460266, -0.6666970252990723, 1.391495943069458, 0.2805256247520447, -0.1526966691017151, -1.1352946758270264], [-0.6385601758956909, -0.3306257724761963, -0.182928204536438, -0.6854677200317383, 0.4054964780807495, 0.30131667852401733, 1.3462477922439575, -0.21213656663894653, -0.900628387928009, -1.2598375082015991, 0.4158739447593689, 0.30434301495552063, -0.9371422529220581, 0.9462997913360596, -0.34369733929634094, -0.7378849983215332, -0.10592013597488403, 1.8312599658966064, -0.23195749521255493, 1.2637534141540527, -0.02031197026371956, -0.38446667790412903, 0.48134279251098633, 0.35953474044799805, 0.17198827862739563, 0.7753620147705078, -0.5293893218040466, 0.13840313255786896, -0.7665373086929321, 0.35754498839378357, -0.16183970868587494, -0.5438640713691711], [0.3020489811897278, 0.26400133967399597, 0.2817172408103943, -0.14894555509090424, -0.14585541188716888, -0.5894906520843506, 0.18327759206295013, -0.11204402893781662, -0.9242225885391235, -0.06230798363685608, -0.1272491216659546, -0.7559227347373962, -0.598768949508667, -0.4034181833267212, -0.020361127331852913, 0.5394274592399597, 0.12320934981107712, 0.2687751054763794, -0.41852861642837524, -0.5410591959953308, -0.05599445849657059, -1.1347429752349854, 0.46010804176330566, 0.08812069147825241, -0.4105411767959595, 0.005838598124682903, 0.014059726148843765, -0.09746403992176056, 0.3391282558441162, -0.6175066232681274, -0.4282388389110565, 0.6867808699607849], [0.6195704340934753, -0.6030794978141785, -0.25284135341644287, -0.6662304997444153, 1.347926139831543, 0.31948408484458923, -0.09857378900051117, 0.3393406271934509, -0.09521585702896118, -0.6442742347717285, 0.3631189167499542, -0.5363780856132507, -0.556830883026123, 0.058812711387872696, 0.06985392421483994, -0.15154866874217987, 0.23387537896633148, 0.5732706189155579, -0.043805141001939774, -1.355302333831787, 0.0704670324921608, -0.671309232711792, 0.7219131588935852, -0.035730719566345215, -0.20858216285705566, 0.09068213403224945, -0.23324984312057495, 0.010969281196594238, -1.0462393760681152, 0.3736778199672699, 0.1235339567065239, 0.5098950266838074], [-0.13364005088806152, 0.18435579538345337, 0.03626937419176102, 0.4919787347316742, -0.8059619069099426, 0.15495087206363678, -0.029304448515176773, 0.3302226662635803, -0.24606698751449585, 0.39133724570274353, 0.5114320516586304, 0.5398739576339722, 0.07619896531105042, -0.14013154804706573, 0.23664423823356628, 0.02298079803586006, -0.20564481616020203, -0.4866617023944855, -0.15521182119846344, 0.43759453296661377, 0.25005751848220825, 0.7990975379943848, -0.13537390530109406, -0.20857800543308258, -0.08349142223596573, -0.15426206588745117, -0.16535788774490356, -0.24530823528766632, 0.48143213987350464, 0.22659315168857574, 0.3452003002166748, -0.16807489097118378], [0.07043850421905518, 0.1061096116900444, -0.16363337635993958, -0.1977364420890808, -0.5476126670837402, 0.650739312171936, -0.11462340503931046, -0.4659574627876282, -0.844716489315033, -0.5074732899665833, -0.7099408507347107, -0.06401479989290237, -0.2370796501636505, 0.19040150940418243, -0.08924587815999985, 0.3672783672809601, 0.2072841376066208, 0.5707907676696777, -0.1834532916545868, -1.1279624700546265, -0.005103940609842539, -0.3054284453392029, -0.053611740469932556, -0.03842037171125412, -0.06329917162656784, 0.36093753576278687, -0.31471145153045654, -0.10871073603630066, 0.028404396027326584, 0.10332783311605453, -0.07851749658584595, 0.16235138475894928], [-0.3327101469039917, -1.012080192565918, 1.20378839969635, -0.7901756763458252, -0.1367456465959549, 0.9826132655143738, 0.23941831290721893, -0.7771052718162537, -2.21691632270813, -0.5093602538108826, 1.0830925703048706, -1.2726202011108398, 0.5758945941925049, 1.3308610916137695, 0.9644964337348938, -0.9950087666511536, -0.11942259967327118, 1.8037736415863037, -0.6886969804763794, 2.468308687210083, 1.045243501663208, -0.09229394048452377, 0.29176273941993713, -0.31457555294036865, -0.33021438121795654, -0.42001309990882874, 0.10229199379682541, 0.4072200059890747, 0.04132574051618576, 0.6984205842018127, 0.503193736076355, -0.049801941961050034], [0.030916284769773483, -0.43551772832870483, -0.0426524356007576, -0.6675217151641846, -0.31929582357406616, -0.3948405086994171, -0.5249653458595276, 0.5665718913078308, -1.1830233335494995, -1.3605114221572876, 0.4034396708011627, 0.333853542804718, -0.11404262483119965, 0.050380952656269073, 0.3531542718410492, -0.17893275618553162, -0.8932045698165894, -0.13260102272033691, -0.5948012471199036, -0.4610176086425781, 0.18195906281471252, 0.3031938374042511, -0.056817084550857544, 0.5378971099853516, 0.16024330258369446, -0.01702379807829857, -0.2742076516151428, 0.13512283563613892, 0.45012837648391724, -0.4309861660003662, 0.5144622921943665, 0.47797805070877075], [-0.272560179233551, -0.14537309110164642, 0.055797092616558075, 0.10614051669836044, 1.5104584693908691, 0.2843397259712219, 0.32474198937416077, 0.30614736676216125, 0.28108149766921997, -1.0847113132476807, 0.24641837179660797, -0.1938135176897049, 0.1230035200715065, -0.42947712540626526, 0.09595295041799545, -0.35880082845687866, 0.13774175941944122, 0.2211160659790039, 0.29950258135795593, 0.2883378267288208, -0.14329083263874054, 0.4379616379737854, -0.410011351108551, 0.16490259766578674, 0.1979304701089859, 0.2589118778705597, 0.5709039568901062, 0.04708367586135864, -1.1718168258666992, 0.16890721023082733, 0.44160228967666626, -0.4533209800720215], [0.3468741178512573, 0.09692778438329697, 0.15190663933753967, 0.2293931543827057, -0.36333781480789185, -0.3362311124801636, -0.9261219501495361, 0.08714865893125534, -1.2318497896194458, 0.1021948829293251, -0.9607411623001099, -0.17422550916671753, 0.47208279371261597, 0.3529943525791168, -1.1510201692581177, -0.02411152981221676, -0.2955189049243927, 0.23018628358840942, 0.025196028873324394, -1.072739839553833, 0.019702155143022537, -0.02883964590728283, -0.2714358866214752, 0.08751945197582245, -0.4555967152118683, -0.555269181728363, 0.22777177393436432, -0.4015570282936096, 0.129516139626503, 0.154089093208313, 0.19216349720954895, -0.11814270913600922], [1.6034306287765503, -0.4095516800880432, -1.4880006313323975, -2.9355967044830322, -0.910886824131012, 0.5868169069290161, 0.2976274788379669, -0.5123971104621887, 0.49955758452415466, 0.1679079532623291, -0.1033380851149559, -0.10061874240636826, -0.44529885053634644, -0.48809105157852173, 3.671076774597168, 0.03628578409552574, -0.33257123827934265, 3.1704599857330322, -0.4780862033367157, -0.9950389862060547, 0.4705447256565094, 0.13184578716754913, -0.15359686315059662, 0.5710888504981995, -0.2166164368391037, -0.6877933144569397, -0.227036714553833, 0.23406639695167542, -0.9237767457962036, 0.6133888959884644, -1.047508716583252, 0.6868476867675781], [-0.07359274476766586, 0.2518030107021332, -0.057429395616054535, -0.15750153362751007, 0.4513213634490967, 0.3202660083770752, -0.17606498301029205, 1.101219892501831, -0.23600129783153534, -0.2163456231355667, -0.4267508089542389, 0.09094644337892532, -0.025412311777472496, 0.31374889612197876, 0.551999568939209, -1.0492123365402222, -0.9286803007125854, 0.39003339409828186, -1.0361663103103638, 0.7146887183189392, -0.14895856380462646, 0.9011062383651733, 0.5845493674278259, 1.0051443576812744, -0.07933338731527328, 1.045300841331482, -0.36564701795578003, -0.5631864070892334, -0.15986576676368713, -0.6957849264144897, -0.18770425021648407, -0.013367322273552418], [-0.187241792678833, 0.3034702241420746, 0.466020405292511, 0.7702357172966003, 0.7443626523017883, -0.6801519989967346, -0.5417230725288391, 0.9641615152359009, -0.753094494342804, -1.3673741817474365, 0.2434193640947342, 2.661821126937866, 1.2003675699234009, -1.2042186260223389, -0.5668703317642212, -0.2612718939781189, -0.10451686382293701, 0.6550889015197754, 1.6294101476669312, -1.509937047958374, -0.5157054662704468, 1.076603651046753, 0.131389319896698, 0.2184244841337204, 0.4210011065006256, 1.1960229873657227, 0.14372336864471436, 0.10269419103860855, 0.23235060274600983, -1.330815076828003, 0.37187400460243225, -0.27305686473846436], [-0.7175357937812805, -0.150326669216156, -0.18719519674777985, -0.015192615799605846, 0.23715254664421082, -0.37580475211143494, 0.3571828007698059, -0.038189101964235306, -0.07767630368471146, -0.31231051683425903, 0.2208286076784134, 0.11919786036014557, 0.2778617739677429, 0.019564619287848473, -0.01928355172276497, -0.16172897815704346, 0.49610504508018494, 0.061686187982559204, -0.2996037006378174, -0.21029908955097198, -0.2431524246931076, -0.5558896660804749, -0.28422456979751587, 0.14556531608104706, 0.5609496235847473, 0.2228778898715973, 0.03306984156370163, 0.056833259761333466, 0.333802193403244, -0.5469972491264343, 0.6154144406318665, -0.03895948454737663], [-0.15695378184318542, 0.8782373666763306, -0.2438746690750122, 1.5623290538787842, 0.7876541614532471, -0.4695623517036438, -0.6159350872039795, 0.4701133072376251, -1.075280785560608, 0.4593096375465393, -0.11141525954008102, 1.0698566436767578, 0.29047688841819763, -0.8258180618286133, 0.5456852912902832, 0.3425435423851013, -0.023102791979908943, -0.5691625475883484, 0.6775943636894226, -1.0076286792755127, -0.027607671916484833, 0.2128257006406784, -0.3904813230037689, 0.10828258842229843, 0.40115001797676086, -0.16828499734401703, -0.1690206527709961, -0.4028574824333191, -0.6734839677810669, -0.41276416182518005, 0.2627597749233246, 0.04775949940085411], [0.23658692836761475, -0.0755421593785286, -0.10127312690019608, -0.11499682813882828, 1.1685458421707153, -0.33522671461105347, 0.01435162778943777, 0.14274778962135315, 0.43140286207199097, -0.33933237195014954, 0.48511335253715515, -0.05391460657119751, -0.11027821153402328, 0.0588468536734581, 0.06843249499797821, -0.49130842089653015, -0.43583160638809204, 0.38827767968177795, -0.5493884086608887, 0.865878164768219, -0.03549177572131157, -0.3124072849750519, -0.16736644506454468, 0.6534002423286438, -0.398232638835907, -0.45524877309799194, 0.17498260736465454, -0.13586664199829102, -0.5425573587417603, 0.006370265036821365, 0.602085292339325, 0.5532585978507996], [0.3648364543914795, 0.3987864851951599, -0.09179411083459854, 0.1759549379348755, 0.10231026262044907, 0.13094986975193024, 0.35217800736427307, -0.40077105164527893, -0.03273938596248627, 0.7209740281105042, -0.47953909635543823, 0.22075097262859344, -0.03958138823509216, 0.20939850807189941, -0.11431723833084106, 0.15686245262622833, -0.33273330330848694, 0.35713082551956177, -1.50802481174469, 0.0054603624157607555, 0.07913247495889664, 0.23930571973323822, 0.5090222358703613, 0.15390755236148834, -0.5144780874252319, 0.21641550958156586, -0.010116111487150192, -0.6382367610931396, -0.311732679605484, 0.5504274964332581, -0.1846987009048462, 0.2506636381149292], [-0.0653177797794342, -0.09286999702453613, 0.3259369730949402, 0.12834951281547546, 0.4181191325187683, 0.21217970550060272, 0.17763464152812958, -0.344160795211792, 0.20895452797412872, -0.11189332604408264, 0.4775351583957672, 0.19771775603294373, 0.3920288681983948, 0.24538135528564453, -0.22485016286373138, -0.5754517316818237, 0.16336406767368317, 0.3240116834640503, 0.14260481297969818, 0.4490396976470947, 0.3093867301940918, -0.08496157824993134, -0.0005722356145270169, 0.25276026129722595, 0.24475795030593872, 0.18973565101623535, -0.08559770882129669, -0.13496805727481842, -1.2814069986343384, -0.335311621427536, 0.64995276927948, -0.031279806047677994], [-0.08327885717153549, -0.3272877037525177, -0.14857693016529083, 0.041985709220170975, 0.3591352105140686, 0.026489892974495888, 0.6841145157814026, -0.009577722288668156, 0.47846341133117676, -0.08657611906528473, 0.4694536328315735, -0.8195502161979675, 0.5715292096138, -0.481035053730011, -0.2130778729915619, -0.12464559823274612, 0.4897395372390747, 0.6828795671463013, -0.2596132159233093, 0.33408287167549133, -0.11996093392372131, -0.5950071215629578, -0.43213123083114624, -0.6834268569946289, 0.48411819338798523, -0.4993305802345276, 0.529066264629364, 0.5111365914344788, -0.34927886724472046, -0.023576492443680763, 0.579231321811676, -0.07463864237070084], [-0.06531444936990738, -0.041832443326711655, -0.03478354960680008, -0.118967704474926, 0.5241265892982483, 0.4944569766521454, 0.8111354112625122, -0.3472461402416229, -0.045471057295799255, -0.0995950698852539, 0.37979307770729065, 0.38310518860816956, 0.6359674334526062, 0.16929523646831512, -0.31556951999664307, -0.9228855967521667, -0.338392436504364, 0.06890352070331573, -0.2938326597213745, 0.13097482919692993, -0.40288034081459045, -0.764754593372345, 0.14904873073101044, -0.07491913437843323, -0.3076704144477844, 0.2016473263502121, 0.12662388384342194, -0.4657216966152191, -0.12883171439170837, -0.11782845109701157, 0.0677192360162735, 0.01608869433403015], [0.19009464979171753, -0.20605307817459106, 0.29931172728538513, -0.014934362843632698, 0.09313894808292389, 0.3238661289215088, -0.21930457651615143, 0.7014589309692383, 0.13058577477931976, -0.4210500121116638, 0.041801005601882935, 0.03744857385754585, 0.2724958658218384, 0.37519729137420654, 0.08986099064350128, -0.3496630787849426, -0.5870343446731567, 0.14753541350364685, -0.41644272208213806, 0.17291299998760223, 0.23344776034355164, 0.44251009821891785, 0.4699869155883789, 0.6718854904174805, -0.07831387966871262, 0.11553240567445755, -0.06893768161535263, 0.01646786741912365, -0.22107888758182526, -0.008053806610405445, -0.2892257869243622, 0.4158737361431122], [-1.0043237209320068, -0.3979644775390625, -0.007373751141130924, -0.03884562477469444, 0.9438371658325195, -1.5084648132324219, 0.306663453578949, -0.04418908432126045, 0.3473806381225586, -0.5013334155082703, 0.7625527381896973, 0.5969035625457764, 0.04962444677948952, -0.2317095398902893, -0.5581538677215576, -1.0812325477600098, 0.26412832736968994, 0.07510142773389816, 1.0084331035614014, -0.3064987361431122, -0.18744981288909912, -0.26170629262924194, -0.5181511640548706, -0.9147953987121582, 0.3728559613227844, 0.22675131261348724, 0.7732135057449341, 0.6072543263435364, -0.06493410468101501, -0.671608567237854, 0.03234528377652168, -0.3754725456237793], [-0.0831494852900505, -0.02094876579940319, -0.5649226307868958, -0.1844213753938675, 0.20569615066051483, -0.605053722858429, -0.11654897779226303, 0.23692239820957184, 0.8861229419708252, -0.5528523921966553, -0.7468597888946533, -0.7123779058456421, 0.2453206330537796, -0.09190397709608078, 0.4020238220691681, 0.1510205864906311, 0.23120835423469543, -0.19165027141571045, 0.4307955503463745, 0.20802591741085052, -0.1375690996646881, -0.3153705596923828, -0.2093498557806015, 0.0023471075110137463, 0.030376717448234558, -0.14509576559066772, -0.20007312297821045, 0.43493539094924927, -0.08192484825849533, -0.12937867641448975, -0.029745344072580338, 0.48482412099838257], [-0.28590127825737, -0.27683332562446594, -0.032043781131505966, -0.3202379047870636, 1.5337321758270264, 0.15690189599990845, -0.04945969209074974, 0.27316880226135254, 0.4543865919113159, -0.11459842324256897, 0.1442030519247055, -0.19893784821033478, -0.2555600702762604, -0.008173047564923763, 0.05999372527003288, -0.29278305172920227, 0.24497713148593903, 0.13128909468650818, 0.17613646388053894, 0.12824836373329163, 0.20205563306808472, 0.10664160549640656, -0.3756791651248932, -0.5015873908996582, 0.06615786254405975, -0.17660027742385864, 0.35828444361686707, 0.41115936636924744, -0.950218141078949, 0.010253330692648888, 0.5193393230438232, -0.1870342493057251], [0.12225788086652756, 0.13551531732082367, 0.3021171987056732, 0.16181786358356476, 1.351845145225525, 0.1299837976694107, 0.18155835568904877, -0.06487517058849335, 1.0524163246154785, 0.17924903333187103, 0.39369919896125793, -0.6632634401321411, 0.08515013009309769, -0.6150122880935669, 0.2594606876373291, -0.4435308277606964, 0.09561746567487717, -0.6107879877090454, -0.8184270858764648, -0.254404753446579, -0.004149117041379213, 0.3531758487224579, -0.05612438917160034, 0.3256906270980835, 0.1208600252866745, -0.020007941871881485, -0.045363899320364, -0.2616256773471832, -0.7784674763679504, -0.15079127252101898, 0.08095916360616684, -0.24433980882167816]], "rec.bias_ih_l0": [-0.35087379813194275, -0.06523371487855911, -0.12181170284748077, 0.21944017708301544, -0.6909328699111938, -0.3345639407634735, -0.13018399477005005, -0.13457107543945312, -0.5244297385215759, -0.3497106432914734, -0.2327314168214798, -0.4910595417022705, -0.5263233780860901, -0.4753013253211975, -0.04209263622760773, -0.12164685130119324, -0.945629358291626, 0.9031835794448853, -1.1405192613601685, 0.719273030757904, -0.5885390639305115, -0.06455043703317642, -0.027651118114590645, -0.5084919929504395, -0.319016695022583, -0.22346648573875427, -0.17705696821212769, -0.7553259134292603, -1.456222653388977, -0.3139456808567047, -0.3601449429988861, -0.37155231833457947, 0.32073700428009033, 0.2712603509426117, 0.3757186532020569, 0.1821492463350296, 0.5445171594619751, 0.2031911015510559, -0.07863698899745941, -0.15023690462112427, -0.3037347197532654, -0.5892946124076843, -0.043243881314992905, 0.2977900505065918, 0.4008123576641083, 0.13799428939819336, -0.4400652050971985, 0.3296222984790802, 0.18278416991233826, 0.48698222637176514, 0.5166615843772888, -0.17625772953033447, 0.12559877336025238, -0.25101611018180847, 0.23591619729995728, 0.19313988089561462, 1.0674545764923096, 0.3247564435005188, 0.13951832056045532, 1.4061658382415771, 0.8577587604522705, 0.27654579281806946, 0.9612025022506714, 0.12140581011772156, 0.012462757527828217, -0.09350203722715378, -0.11352934688329697, 0.11401789635419846, -0.10822345316410065, 0.21420592069625854, -0.10982422530651093, 0.017203621566295624, 0.11774934083223343, -0.08013223856687546, 0.20945823192596436, 0.04615248739719391, 0.13170287013053894, -0.1648680865764618, 0.1568278968334198, -0.16298715770244598, -0.07317501306533813, 0.01920933648943901, 0.11428792774677277, 0.18418528139591217, -0.12549333274364471, 0.22710831463336945, 0.3434281647205353, -0.056643374264240265, -0.07611699402332306, 0.1167464554309845, -0.00433112308382988, 0.10330503433942795, 0.08034278452396393, -0.29907599091529846, -0.21206100285053253, 0.07939089834690094, -0.27716028690338135, -0.3531380891799927, 0.22015690803527832, 0.21205441653728485, -0.010958168655633926, -0.31584036350250244, -0.06581064313650131, 0.06914430111646652, -0.8144665360450745, -0.3952083885669708, 0.3109179139137268, -0.057181358337402344, -0.12373077124357224, -0.1839289367198944, -0.1973879039287567, 0.13098473846912384, -0.5731042623519897, -0.141215518116951, 0.28433066606521606, 0.4630592465400696, -0.4653264284133911, 0.08699542284011841, -0.013310511596500874, -0.1547551155090332, 0.3470962941646576, -0.19754089415073395, -0.28305238485336304, 0.22296912968158722, 0.27354106307029724, -0.23260095715522766, 0.12073592841625214, -0.22064551711082458], "rec.bias_hh_l0": [-0.3877370357513428, -0.1832069605588913, -0.27709537744522095, -0.006910145282745361, -0.7933183312416077, -0.26119038462638855, -0.2243959754705429, -0.2296445071697235, -0.30039477348327637, -0.27180612087249756, -0.029271509498357773, -0.7640137672424316, -0.5528867840766907, -0.35668930411338806, -0.004936921875923872, -0.1851148009300232, -0.8885615468025208, 0.7217431664466858, -1.0971629619598389, 0.4770330786705017, -0.35466524958610535, 0.018014714121818542, 0.2466145157814026, -0.7345199584960938, -0.35893020033836365, -0.42755481600761414, -0.40182700753211975, -0.6393247246742249, -1.7364264726638794, -0.3147928714752197, -0.17827966809272766, -0.11411785334348679, 0.5213872790336609, -0.01355019211769104, 0.18549349904060364, -0.057210713624954224, 0.8698642253875732, -0.14086832106113434, -0.07635857909917831, -0.13557222485542297, -0.058011673390865326, -0.5131728053092957, 0.19229143857955933, 0.31818971037864685, 0.3398396968841553, 0.4424872398376465, -0.4552789330482483, 0.3391253352165222, 0.19848594069480896, 0.5398011207580566, 0.5696839094161987, -0.16485698521137238, 0.22840189933776855, -0.39106157422065735, -0.009293001145124435, 0.12618859112262726, 1.0139098167419434, 0.3209874629974365, 0.13341887295246124, 1.2795283794403076, 0.8011791110038757, 0.3820045590400696, 0.7707744836807251, 0.26573193073272705, 0.15831780433654785, -0.12394832819700241, 0.17226733267307281, -0.07396391034126282, -0.16916407644748688, 0.3025350570678711, -0.05544229969382286, 0.013604781590402126, 0.10836873948574066, -0.15424379706382751, 0.11459361016750336, -0.018765628337860107, 0.08391904830932617, 0.1142694503068924, -0.020122526213526726, -0.2844502925872803, -0.16651758551597595, -0.007379323709756136, 0.29004788398742676, 0.34534603357315063, -0.0200071781873703, -0.09641186892986298, 0.4339602589607239, -0.023159056901931763, -0.09751154482364655, 0.32904547452926636, 0.01423694472759962, -0.042172983288764954, 0.021882548928260803, -0.2657289505004883, -0.027321582660079002, -0.06128981336951256, -0.18249228596687317, -0.2817624509334564, 0.3159072697162628, 0.19585703313350677, 0.04162800312042236, -0.12121637165546417, -0.3279264271259308, 0.22377626597881317, -0.8795186877250671, -0.3807077705860138, 0.02429576963186264, -0.09830816090106964, -0.2173088937997818, -0.2381306141614914, 0.07058396190404892, 0.2346922606229782, -0.765091598033905, -0.16101056337356567, 0.3851080536842346, 0.4833453595638275, -0.35628747940063477, 0.18253286182880402, -0.09510019421577454, -0.2763518691062927, 0.42035824060440063, -0.3957536220550537, -0.2643393278121948, 0.19071149826049805, 0.1052418202161789, -0.2346150428056717, -0.13921374082565308, -0.12098345160484314], "lin.weight": [[0.136421799659729, 0.15549436211585999, -0.06560884416103363, -0.018491579219698906, -0.04411090165376663, 0.04367295652627945, -0.1231885477900505, -0.3356304466724396, 0.18545664846897125, 0.011442539282143116, -0.24514707922935486, -0.0991513729095459, -0.13123959302902222, -0.430375337600708, 0.25725406408309937, 0.135387122631073, 0.06767702102661133, 0.06373696029186249, 0.1365099996328354, -0.161149263381958, 0.43340644240379333, 0.4500430226325989, -0.047304898500442505, 0.012097617611289024, 0.057153280824422836, -0.04921698942780495, -0.5093315839767456, 0.07926271855831146, 0.02122640609741211, 0.12524637579917908, -0.13365338742733002, 0.06293582171201706]], "lin.bias": [0.09830193966627121]}}