{"model_data": {"model": "SimpleRNN", "input_size": 1, "skip": 1, "output_size": 1, "unit_type": "LSTM", "num_layers": 1, "hidden_size": 32, "bias_fl": true}, "state_dict": {"rec.weight_ih_l0": [[-0.20058903098106384], [0.3776460289955139], [0.12052825093269348], [-1.5071690082550049], [0.1376829892396927], [-1.2577316761016846], [1.015306830406189], [1.5011895895004272], [-2.3731508255004883], [1.369061827659607], [-0.18060137331485748], [1.469405174255371], [0.9231919646263123], [-5.5227460861206055], [-0.8906072974205017], [-0.008413674309849739], [1.4295071363449097], [-5.266624450683594], [-0.7298773527145386], [1.2155166864395142], [-0.7806662321090698], [-0.2248801589012146], [0.15723398327827454], [0.06732684373855591], [-1.1021937131881714], [-0.10025911033153534], [-1.4519597291946411], [-0.039558589458465576], [-0.353818416595459], [-1.071073055267334], [0.1278938353061676], [-0.8419263958930969], [0.32967332005500793], [0.38419780135154724], [0.7528212666511536], [-2.070404291152954], [0.1658642590045929], [-1.3925623893737793], [0.42678242921829224], [1.1501661539077759], [-0.37912046909332275], [1.117307424545288], [-0.7630690336227417], [1.0390950441360474], [0.9028741717338562], [-2.1256654262542725], [-0.4953404366970062], [0.10249697417020798], [2.894625425338745], [-3.128241539001465], [-0.1514115333557129], [0.3442130386829376], [-0.4572327733039856], [-0.527719259262085], [-0.578461229801178], [0.5113639235496521], [-0.30669406056404114], [-0.7493636012077332], [-1.1141258478164673], [-0.18640373647212982], [-0.4417814612388611], [-0.9680172801017761], [0.2438608556985855], [-1.167834758758545], [-0.37044867873191833], [-0.6940969228744507], [4.495238304138184], [8.63504409790039], [0.4962886869907379], [-0.2787802815437317], [0.37235552072525024], [2.5762364864349365], [-1.3816369771957397], [-0.7250242829322815], [2.173264741897583], [2.67350172996521], [2.5930137634277344], [-2.108487844467163], [-3.296133279800415], [-0.7224445939064026], [-1.4794355630874634], [-8.837268829345703], [-0.6861406564712524], [0.0718809962272644], [-0.9853034615516663], [-0.3042353093624115], [-0.3154233396053314], [0.2605130970478058], [0.13860486447811127], [0.09957082569599152], [1.3668532371520996], [-0.07510343194007874], [1.4929556846618652], [0.3903645873069763], [0.9892714023590088], [-0.985956609249115], [0.07958639413118362], [0.6589546203613281], [0.3379122018814087], [-1.786198377609253], [0.23295250535011292], [-1.3650199174880981], [0.8090614676475525], [2.045947790145874], [-3.0544891357421875], [1.4458773136138916], [0.7838428020477295], [0.5756608843803406], [1.1320090293884277], [-7.039527893066406], [-0.9892049431800842], [0.18786261975765228], [1.9043450355529785], [-7.602550506591797], [-0.41227132081985474], [2.4659264087677], [-0.4947238862514496], [0.21977388858795166], [-0.21258413791656494], [0.6157128810882568], [-0.15437766909599304], [0.3899626135826111], [-1.0819733142852783], [-0.1836041510105133], [-0.8616732954978943], [-0.5768371820449829], [0.3522912263870239], [-1.073736310005188]], "rec.weight_hh_l0": [[-0.2616002857685089, -0.06526726484298706, 0.3191653788089752, 0.20318728685379028, 0.8504989147186279, 0.37871453166007996, 0.3492845296859741, -0.08776137232780457, 0.30162376165390015, 0.24364419281482697, 0.30938151478767395, 0.19364620745182037, -0.06971510499715805, -0.010808042250573635, -0.36047762632369995, -0.40102913975715637, -0.004918224178254604, -0.21517516672611237, -0.5583786368370056, -0.3745773732662201, 0.15189994871616364, 0.4787820875644684, -0.0684143453836441, 0.12422291189432144, -0.05283072590827942, 0.12429072707891464, 0.1966836154460907, -0.3471141755580902, -0.5675806403160095, 0.62630695104599, 0.17620448768138885, -0.39229094982147217], [-0.3468063175678253, -0.1424434632062912, -0.1901051253080368, -0.14947986602783203, 0.09355076402425766, -0.11605122685432434, -0.004557685926556587, -0.7989000678062439, 0.5011624097824097, 0.16645002365112305, 0.002640215680003166, 0.045785900205373764, -0.13982342183589935, -0.3042641878128052, -0.16583341360092163, -0.6357884407043457, -0.09844600409269333, 0.0357399620115757, -0.0794176459312439, -0.16853736340999603, 0.19585587084293365, 0.09639406949281693, -0.19549161195755005, 0.22805893421173096, 0.4042709469795227, 0.08188525587320328, 0.06681737303733826, 0.19884184002876282, -0.4680168330669403, 0.11339300870895386, 0.7210350632667542, -0.15882673859596252], [0.2322324961423874, 0.14483195543289185, -0.8531863689422607, -0.12822282314300537, 0.4007802903652191, -0.07751882821321487, 0.342183381319046, 0.7488266229629517, 0.5372917056083679, 0.12505406141281128, -0.46217119693756104, 0.17668385803699493, -0.054554279893636703, 0.1336527168750763, 0.8316503167152405, 0.00973152182996273, 0.5775699615478516, 0.495678573846817, 0.8018993139266968, 0.7113761901855469, 0.2601417005062103, 0.2980078160762787, -0.21399018168449402, 0.05890481173992157, -0.27937158942222595, 0.09151191264390945, -0.13242937624454498, 0.2834286093711853, -0.3115847110748291, -0.3639427721500397, -0.4326588809490204, 0.6747157573699951], [0.764211118221283, -0.08561022579669952, 0.012610518373548985, -0.3080584704875946, 0.040046144276857376, 0.007209603674709797, 0.187778502702713, 0.5545611381530762, 0.4042215049266815, -0.42596033215522766, 0.28359341621398926, 0.45058169960975647, 0.17604896426200867, -0.17657895386219025, 0.5158308744430542, -0.2490176558494568, -0.2546861171722412, 1.023800253868103, -0.3653140962123871, 0.3119276463985443, 0.5351442694664001, -0.11574789881706238, 0.24707618355751038, 0.41896629333496094, -0.551483154296875, 0.10117339342832565, -0.7244200706481934, -0.19037355482578278, -0.9930916428565979, -0.4286164939403534, -0.12524527311325073, 0.7851181626319885], [0.6427756547927856, 0.6316335201263428, -0.11856266111135483, 0.2757774889469147, 0.23824264109134674, -0.47320756316185, -0.7099802494049072, -0.8344555497169495, -0.39311501383781433, 0.740938127040863, -0.24341981112957, 0.1868591010570526, 0.17301805317401886, -0.20562021434307098, -0.30966827273368835, 0.9769600629806519, 0.010382993146777153, 0.10232968628406525, -0.5869893431663513, 0.2594216763973236, -0.7704507112503052, -0.5376124382019043, 0.8246382474899292, 0.2709425985813141, -1.1600472927093506, 0.6166204810142517, -0.3527655601501465, -1.0469603538513184, 0.7298768758773804, -0.5299036502838135, -0.9845659732818604, 0.9359657764434814], [-0.4761722683906555, -0.20669639110565186, 0.3158518373966217, 0.49840620160102844, -0.3359346091747284, 0.015455563552677631, -0.7306178212165833, -0.8329755067825317, -0.6981836557388306, -0.16492867469787598, 0.30540788173675537, 0.18243560194969177, 0.010910561308264732, -0.0337013378739357, 0.02210128866136074, -0.24793224036693573, 0.15383115410804749, 0.2263716608285904, -0.599308967590332, -0.24887610971927643, -0.05223460868000984, 1.1166810989379883, -0.26476073265075684, -0.06864258646965027, 0.02185615710914135, -0.30768290162086487, 0.23880697786808014, -0.41121047735214233, 0.6104740500450134, -0.42708802223205566, 0.10021699219942093, -0.2076665312051773], [0.05742819607257843, 0.012296633794903755, -0.7444466948509216, -0.24241691827774048, 1.271045446395874, -0.5236947536468506, 0.3130458891391754, 0.1576434075832367, 0.40236765146255493, -0.2527797520160675, 1.0481065511703491, -0.06196066737174988, -0.4601549804210663, -0.43310123682022095, 0.3523067533969879, -0.49578240513801575, 0.05326985940337181, -0.42933517694473267, 0.22238649427890778, -0.1645713895559311, -0.0815538763999939, -0.14265510439872742, -0.12758079171180725, 0.28148674964904785, 0.16546274721622467, -0.46933987736701965, 0.39716148376464844, -0.13103288412094116, -0.39639630913734436, -0.6899604797363281, -0.04879732429981232, 0.12551335990428925], [-0.4951811134815216, -0.32294991612434387, 0.07302249222993851, 0.9442816972732544, -0.42307716608047485, -0.7486276626586914, -0.6783980131149292, -0.2144494205713272, -0.612432062625885, -0.4067796766757965, -0.32245585322380066, 0.9303597807884216, 0.24675390124320984, -0.5826568603515625, 0.032424915581941605, -0.1042122021317482, -0.01939522661268711, -0.39305171370506287, -0.3048481345176697, -0.09651892632246017, -0.37333980202674866, 1.0797545909881592, -0.39280882477760315, 0.07748199999332428, 0.15284283459186554, 0.6285303235054016, 0.3188719153404236, -0.30141088366508484, 1.6001925468444824, -0.20297226309776306, -0.12490572780370712, -0.6888476610183716], [-0.3391858637332916, -0.12302624434232712, -0.7197436690330505, -1.8940181732177734, 1.1063553094863892, -0.35735902190208435, 0.8704951405525208, -1.0306552648544312, 0.2646304666996002, -1.3621212244033813, -0.34053534269332886, -0.37513360381126404, -0.6827120780944824, -0.15883710980415344, -0.7099394798278809, -0.44242823123931885, 0.3419053852558136, 1.168988823890686, 0.5504500865936279, 2.3427982330322266, -0.3740600049495697, -1.1548190116882324, 0.18312968313694, -0.21023046970367432, -0.28374388813972473, 0.09490849077701569, -0.21772104501724243, 0.16277514398097992, -0.45635780692100525, 0.5985593795776367, -0.23836655914783478, -0.432697057723999], [0.03807179257273674, -0.04411597177386284, 0.2716117799282074, -0.23209314048290253, -0.084880530834198, -0.7419571280479431, 0.02669571153819561, -0.1992902159690857, -0.8538920283317566, -0.6020914912223816, -0.05034723877906799, -0.7493106722831726, -0.3976878821849823, -0.3569180965423584, -0.2221325933933258, 0.6932190656661987, 0.2500280439853668, 0.43044963479042053, 0.09168080985546112, -0.12974406778812408, -0.2837582230567932, -1.7027961015701294, 0.2860574722290039, -0.19120469689369202, -0.03892921656370163, 0.25672492384910583, 0.2509225010871887, 0.140989750623703, 0.07144442945718765, -1.208186388015747, -0.4239029288291931, 0.9501188397407532], [0.36096757650375366, -0.4510655701160431, -0.3813736140727997, -0.6639864444732666, 0.8441005349159241, 0.787434995174408, -0.4024951756000519, 0.43001940846443176, -0.9543991088867188, -0.04819938540458679, -0.12320291250944138, 0.10603191703557968, -0.11683663725852966, -0.17679265141487122, 0.3354145586490631, -0.05987236648797989, 0.22043445706367493, 0.3792419135570526, 0.6187241673469543, -1.4216268062591553, 0.008392327465116978, 0.03319213166832924, 0.23685148358345032, -0.3030388653278351, -0.010298309847712517, -0.3491692841053009, -0.056402161717414856, 0.39956536889076233, -1.0101627111434937, 0.2653324007987976, 0.04169415682554245, 0.026688264682888985], [-0.3082111179828644, 0.03134865313768387, 0.6776048541069031, 0.45250117778778076, -0.5866012573242188, -0.8069542646408081, 0.2713575065135956, 1.3150849342346191, -0.7898246049880981, 0.7113789319992065, 0.6911621689796448, 0.2994050085544586, -0.09913846105337143, -0.1268984079360962, -0.4607977867126465, -0.07478980720043182, -0.3115982711315155, 0.11630155891180038, -1.876682162284851, -0.799854576587677, 0.2198961079120636, 0.6676300764083862, -0.31751465797424316, -0.3450094163417816, 0.22550256550312042, -0.37122461199760437, 0.47329625487327576, 0.44162115454673767, 0.46818119287490845, 1.0364235639572144, 0.7777082324028015, -0.3864864408969879], [-0.08564373850822449, 0.22175247967243195, -0.38541626930236816, 0.15798911452293396, 0.08520815521478653, 0.20197045803070068, 0.4567621946334839, -0.07500708103179932, -0.5524075031280518, -0.18387892842292786, -0.14204424619674683, 0.1374349147081375, -0.27073004841804504, -0.16228236258029938, 0.19033364951610565, 0.37943118810653687, 0.3820391893386841, 0.026020579040050507, -0.16693657636642456, -0.2871677279472351, 0.05775633826851845, -0.0892522782087326, -0.14121197164058685, -0.36372920870780945, 0.10831096023321152, -0.19096751511096954, -0.00923162791877985, -0.18470974266529083, 0.048708777874708176, 0.15565884113311768, 0.1412869691848755, -0.1775895655155182], [-0.41010022163391113, -0.7215361595153809, -0.43336308002471924, -1.0798609256744385, 0.3895426094532013, 0.6149736642837524, -0.1693694144487381, 0.6992312669754028, -0.41731658577919006, -0.38929563760757446, 0.022784927859902382, -0.4430053234100342, -0.42769232392311096, -0.26254668831825256, 0.4446653723716736, -0.28170639276504517, 0.3751964271068573, 3.172114610671997, -0.28525593876838684, -0.21324297785758972, 0.30897217988967896, 0.24952450394630432, 0.3518431782722473, -0.5055713057518005, -0.025666115805506706, 0.15467700362205505, -0.40864935517311096, 0.5042229294776917, -0.20879174768924713, 0.6174398064613342, 0.45784059166908264, -0.29677122831344604], [0.30030250549316406, -0.30922433733940125, -0.19394385814666748, -0.5275636315345764, -0.7288170456886292, 0.09008898586034775, -0.7591602206230164, 0.481522798538208, -0.6517495512962341, -0.43342864513397217, -0.1580614596605301, 0.04008803516626358, 0.038128286600112915, 0.43776965141296387, -0.08289603888988495, 0.12644290924072266, -0.5472021102905273, 0.07019848376512527, -0.0757453516125679, -0.5289530754089355, -0.14421230554580688, -0.5105522274971008, -0.034195225685834885, 0.4478361904621124, -0.39217865467071533, 0.17859269678592682, -0.04041733592748642, 0.29206547141075134, 0.6422622799873352, -0.12698142230510712, -0.3297913372516632, 0.792572021484375], [-0.17642073333263397, 0.3083256483078003, -0.06965814530849457, 0.14592057466506958, 1.295648455619812, -0.3794142007827759, -0.5807414650917053, 0.2191174477338791, -0.05756306275725365, -0.24822629988193512, -0.2277825027704239, -0.20088063180446625, 0.2761841118335724, -0.20897267758846283, 0.29503124952316284, -0.09916449338197708, 0.42492300271987915, -0.17420713603496552, -0.07932199537754059, 0.15902568399906158, -0.5128306746482849, 0.35198044776916504, 0.09001604467630386, -0.03964804485440254, 0.19494779407978058, 0.9588658809661865, 0.44013842940330505, -0.2846699655056, -0.30446797609329224, 0.019409898668527603, -0.12228212505578995, 0.23661385476589203], [-0.23616348206996918, -0.08479482680559158, 0.22276240587234497, 0.6943270564079285, 0.5132460594177246, 0.18808391690254211, 0.014883107505738735, 0.33187660574913025, -2.0320448875427246, -0.19914363324642181, -0.40415847301483154, -0.34253376722335815, 0.007041572593152523, 0.02187778241932392, 0.2890334725379944, -0.47101595997810364, -0.10355959832668304, -0.1745782345533371, -0.35815808176994324, -0.006584097631275654, -0.6100977063179016, 0.6728262305259705, -0.1967529058456421, 0.1218838095664978, -0.5639881491661072, -0.15174829959869385, 0.21229679882526398, -0.44183945655822754, -0.6570513844490051, -0.12696442008018494, 0.6019849181175232, 0.407831609249115], [0.6402533650398254, -1.1280964612960815, -1.286430835723877, -1.2471728324890137, -0.8409751653671265, 0.8699743747711182, 1.1068534851074219, 0.5586007237434387, 0.2511049509048462, 0.6564012765884399, 1.2583292722702026, 0.06128658354282379, 0.8816959857940674, -0.48045602440834045, 0.8890329003334045, -0.4947911202907562, -0.4880850315093994, 2.9417881965637207, 0.9296152591705322, -0.11752547323703766, 0.7438035607337952, 0.4323922395706177, -0.2307402640581131, -0.20519371330738068, 0.03968607634305954, -0.47975483536720276, 0.9930786490440369, 0.6972812414169312, 0.11042726784944534, 0.11888644844293594, -0.8595332503318787, -0.4859565198421478], [-0.628702700138092, -0.6350501179695129, -0.09105777740478516, 0.7706764340400696, 1.0562835931777954, 0.07973604649305344, 0.751435399055481, -0.22935201227664948, 0.3115145266056061, 0.4218796193599701, -0.027383990585803986, -0.09599174559116364, 0.4501790702342987, -0.9762384295463562, -0.9396600723266602, -0.7952762842178345, 0.498555988073349, -0.04510374367237091, -0.24411016702651978, -0.6152148246765137, 0.014235584065318108, 0.06408561021089554, -0.7567814588546753, -0.389853298664093, 0.7532321214675903, -0.6939713954925537, 0.7852329611778259, 0.6850054860115051, 0.38121360540390015, 0.43360790610313416, 1.0692059993743896, -0.8663995862007141], [-0.053651828318834305, 0.16421064734458923, 1.7762725353240967, 1.3228217363357544, -1.2669674158096313, 0.7938030958175659, -1.1928989887237549, 2.718900203704834, -1.1046481132507324, -0.6445555090904236, 0.03881914168596268, 1.6662514209747314, 1.510237216949463, 0.4825812876224518, 0.23322978615760803, -0.6487588286399841, -1.205975890159607, 1.3814715147018433, 0.7172905802726746, -0.16576100885868073, 1.0012588500976562, 2.5800013542175293, 0.18836484849452972, 0.5012643933296204, 0.7129822969436646, -0.03253965452313423, -0.1010790765285492, 0.5443607568740845, 0.7383564710617065, 0.05834740027785301, 0.9994314312934875, -0.12693707644939423], [0.07973819226026535, 0.3315095901489258, 0.14017795026302338, -0.29423972964286804, 0.13482807576656342, -0.37250766158103943, 0.3159927725791931, -0.584915041923523, 0.3422938287258148, 0.4152859151363373, 0.062623992562294, -0.36408329010009766, 0.0208657905459404, 0.294119656085968, -0.33274534344673157, 0.013494707643985748, 0.29291820526123047, 0.20997339487075806, -0.41002538800239563, -1.0326491594314575, -0.013451219536364079, -0.6922750473022461, -0.17939230799674988, -0.07326121628284454, -0.022051403298974037, -0.11948767304420471, -0.10995965451002121, -0.14807568490505219, 0.06419150531291962, -0.2011873424053192, -0.004407456144690514, 0.22716626524925232], [0.07352644205093384, 0.22203968465328217, -0.1556907296180725, 0.31584692001342773, 0.3644605875015259, 0.12015437334775925, 0.0974416583776474, 0.40979331731796265, -0.860025942325592, -0.03363616764545441, 0.8316465616226196, 0.16505789756774902, -0.45555195212364197, -0.056852374225854874, 0.4301755428314209, -0.10944653302431107, -0.10041079670190811, 1.0846606492996216, -0.3416992127895355, 0.13991880416870117, 0.04908067360520363, -0.36297765374183655, 0.19165320694446564, -0.21256521344184875, 0.029963307082653046, -0.18387122452259064, -0.36388856172561646, 0.1221635639667511, -0.7219322323799133, -0.3074905574321747, 0.013220913708209991, 0.32011842727661133], [0.16944891214370728, 0.014235221780836582, -0.09528796374797821, -0.13714422285556793, 0.7221732139587402, -0.7499948740005493, -0.8419733643531799, 0.16207511723041534, 0.31176772713661194, -0.34315988421440125, 0.37804579734802246, 0.2598823606967926, 0.47533679008483887, -0.27183032035827637, -0.33662939071655273, -0.5266439914703369, -0.42093008756637573, 0.3094100058078766, 0.17707949876785278, 0.8220453858375549, -0.4008324146270752, -0.08335991948843002, 0.24066400527954102, 0.9033523797988892, -0.5720739960670471, 0.9067151546478271, 0.1301833987236023, -0.18693630397319794, -0.3323172628879547, -0.5527727007865906, 0.10192171484231949, 0.2670682668685913], [-0.05589592084288597, -0.06857724487781525, 0.00253466097638011, 0.32681211829185486, 0.2932472229003906, -0.08685504645109177, 0.390449196100235, -0.5534608960151672, -0.08267898112535477, 0.5820852518081665, 0.6047670841217041, -0.21162067353725433, 0.08732066303491592, -0.648082971572876, -0.3519308269023895, 0.05850652605295181, 0.26789623498916626, -0.2728728652000427, -0.5977208614349365, -0.39181196689605713, -0.3278699517250061, -0.38163110613822937, -0.3838585317134857, -0.3679150342941284, 0.1843438446521759, -0.283571720123291, 0.37844809889793396, 0.09780402481555939, -0.4049118459224701, 0.009584108367562294, 0.10595293343067169, -0.1859353929758072], [-0.12424889951944351, 0.19310598075389862, -0.8892410397529602, -0.4401068389415741, 1.1661756038665771, 0.08897004276514053, 0.2707982063293457, -0.531711757183075, -0.3892468214035034, -0.21205416321754456, -0.33475586771965027, -0.30409005284309387, -0.01293792575597763, -0.06843683868646622, 0.5725794434547424, -0.23746401071548462, -0.2712349593639374, -0.12574797868728638, -0.4701167643070221, 0.09483230859041214, -0.012852361425757408, 0.21242578327655792, 0.06301159411668777, 1.190294861793518, -0.11490163207054138, 0.5350394248962402, 0.012407902628183365, -0.8972635269165039, -1.5874780416488647, -0.2702697217464447, 0.682271420955658, 0.2232206165790558], [-0.04199998453259468, 0.5607392191886902, -0.5998203158378601, 0.1913767009973526, 0.4782058000564575, -0.6135852932929993, 0.07525787502527237, -0.4553319215774536, -0.16865228116512299, -0.12431462109088898, -0.48824724555015564, 0.03658238425850868, 0.11889523267745972, -0.3323460817337036, 0.707672655582428, 0.22298647463321686, 0.021547412499785423, 0.012055852450430393, -0.42607924342155457, 0.8393494486808777, -0.6644719839096069, -0.45400121808052063, 0.011448519304394722, 0.6331486701965332, -0.20229953527450562, 0.2084151804447174, 0.5044562816619873, -0.42141103744506836, 0.1780402809381485, -0.5738493204116821, -0.13397596776485443, 0.9291180372238159], [-0.18309040367603302, -0.441264808177948, -0.06229310855269432, -0.31592535972595215, 0.46855857968330383, 0.19972701370716095, 0.5128518342971802, -0.1976691037416458, -0.32573994994163513, 0.26020464301109314, 0.5892214775085449, -0.6853743195533752, -0.11683078855276108, 0.2940317988395691, -0.7168079614639282, -0.5750793218612671, -0.13018836081027985, 0.4024658799171448, 0.039527777582407, 0.2763753831386566, -0.10795995593070984, -0.7190152406692505, -0.16124078631401062, -0.20073023438453674, -0.31719696521759033, -0.010927642695605755, 0.1905365288257599, -0.1482880413532257, -0.43217140436172485, 0.13578490912914276, 0.0751437395811081, -0.025291668251156807], [0.02350667677819729, -0.3112146258354187, -0.5721774101257324, 0.08695220202207565, 0.6590960025787354, -0.38712993264198303, 0.3520587682723999, 0.4579494297504425, 0.05503213033080101, -0.11800873279571533, 0.8940059542655945, 0.16963328421115875, -0.0001491361908847466, -0.13323341310024261, -0.08554533869028091, -0.41339311003685, -0.05460025370121002, -0.09335947036743164, -0.9474165439605713, -0.28254029154777527, 0.27297285199165344, 0.44366025924682617, -0.2981452941894531, 0.6160316467285156, 0.6403382420539856, -1.129395604133606, 0.5435011386871338, -0.15805667638778687, -0.5939173698425293, 0.09117670357227325, 0.739113986492157, -0.5647110939025879], [0.21458175778388977, 0.2202920764684677, -0.08538161963224411, 0.0908588096499443, 0.586127758026123, -0.665718674659729, -0.1887863129377365, -0.06770187616348267, -0.3540433645248413, 0.735593855381012, 0.24923940002918243, 0.16039066016674042, 0.20995943248271942, -0.24122029542922974, -0.19290243089199066, 0.23397287726402283, 0.7808753848075867, -0.3721497058868408, -0.03849075734615326, -0.24414315819740295, -0.2706281542778015, -0.027725020423531532, -0.418070524930954, -0.2747463583946228, -0.6997515559196472, 0.38210633397102356, 0.5843886137008667, -0.24994045495986938, 2.146822452545166, -0.7131097912788391, -0.9868491291999817, 0.15373727679252625], [-0.5064560174942017, -0.13977734744548798, -0.4340474307537079, 0.34109342098236084, 0.4261741042137146, -0.6969751119613647, -0.21635134518146515, 0.1407441794872284, 0.9530698657035828, -0.0348927341401577, -0.5470620393753052, -0.5047158002853394, 0.39177095890045166, -0.4164172112941742, 0.719507098197937, 0.14696770906448364, 0.3298119902610779, -0.3021797239780426, 0.3986769914627075, -0.4189431071281433, -0.10753875970840454, -0.2988130748271942, -0.21163330972194672, 0.048885077238082886, 0.2371554672718048, 0.004961316008120775, 0.11914584040641785, 0.2520984411239624, -0.06287229061126709, -0.26110678911209106, -0.2769637107849121, 0.45684385299682617], [0.14160366356372833, 0.3767085671424866, -0.3508819341659546, -0.20787954330444336, 1.1953434944152832, -0.13190904259681702, 0.3043465316295624, 0.06049858778715134, 0.3412454426288605, 0.28987300395965576, -0.3403873145580292, -0.15828268229961395, -0.14321260154247284, -0.3616907596588135, 0.43551957607269287, 0.3190746307373047, 0.348143607378006, -0.09456726908683777, -0.3335709571838379, 0.05596998706459999, -0.3671446740627289, 0.1190963163971901, 0.15153682231903076, -0.25397226214408875, -0.4869691729545593, 0.5646893978118896, -0.12353038787841797, -0.7166905999183655, 0.11586456745862961, -0.5138063430786133, -0.07955695688724518, 0.06840581446886063], [-0.21042321622371674, -0.0821700170636177, -0.26091447472572327, 0.12554045021533966, 1.0977731943130493, 0.6510915160179138, 0.09847494214773178, -0.2993146777153015, 0.4550441801548004, 0.2859686613082886, -0.176256000995636, -0.6249952912330627, -0.201315775513649, -0.3123786747455597, -0.40444716811180115, -0.38345807790756226, 0.3496474623680115, -0.2822537124156952, -0.646158754825592, -0.35897278785705566, -0.052538592368364334, -0.07988494634628296, -0.1978701800107956, 0.020503319799900055, -0.07679460942745209, 0.15619218349456787, -0.13262586295604706, -0.21384039521217346, -0.6807559728622437, -0.17829641699790955, -0.04411366954445839, -0.2621852159500122], [-0.5527253150939941, -0.4850330352783203, -0.012818737886846066, 0.6436856389045715, 0.9857092499732971, 0.1870143860578537, -0.2065621018409729, 0.3245830237865448, -0.30339816212654114, -0.2424221932888031, 0.5764212012290955, 0.6293845772743225, 0.4954800307750702, -0.22774246335029602, -0.5485672950744629, -0.5656620860099792, 0.12773853540420532, -0.7225605249404907, 0.41731879115104675, -0.14168725907802582, 0.22844131290912628, 0.48925766348838806, -0.22392116487026215, 0.19390085339546204, 0.355247437953949, -0.04230630397796631, 0.3695908188819885, -0.027609722688794136, 0.22246374189853668, -0.10836797207593918, 0.5810204148292542, -0.21988587081432343], [-0.3428681194782257, 0.09598565846681595, 0.08797308802604675, -0.08660079538822174, -0.26325345039367676, 0.2863423824310303, -0.09426644444465637, -0.9520726203918457, -0.23800930380821228, 0.6934857368469238, -0.338285356760025, 0.35212135314941406, 0.18635590374469757, -0.19208097457885742, -0.023717371746897697, -0.23929980397224426, 0.10500094294548035, 0.23234723508358002, -0.1120242029428482, -0.021656973287463188, -0.09891563653945923, -0.22723498940467834, -0.04723789915442467, 0.3601822555065155, 0.24952910840511322, 0.28015854954719543, -0.00578545406460762, -0.002600244479253888, -0.1778087317943573, 0.15318718552589417, 0.0757729783654213, -0.1295137256383896], [-0.10969621688127518, 0.01262250542640686, -0.32345089316368103, -0.2776707410812378, -0.1961783617734909, 0.270494669675827, -0.44086384773254395, 0.41776812076568604, -0.395954430103302, 0.028353562578558922, -0.3479323387145996, 0.5763242244720459, 0.021370287984609604, 0.23383694887161255, 0.006124486681073904, -0.07603774964809418, 0.05863998457789421, 0.30045434832572937, 0.7286405563354492, 1.3081483840942383, -0.009135652333498001, 0.47553983330726624, 0.04442983493208885, 0.19798824191093445, -0.08190508931875229, 0.24504953622817993, 0.05180100351572037, 0.09420379251241684, -0.1473654806613922, -0.6565086841583252, 0.0049293930642306805, -0.21469669044017792], [-0.30604276061058044, -0.022166520357131958, 0.24422013759613037, -0.16059622168540955, -0.6109025478363037, 0.2685486972332001, -0.5792255401611328, -0.27202796936035156, -0.6349353194236755, 0.2394164800643921, -0.1510770320892334, 0.5707080364227295, -0.15864738821983337, -0.17704527080059052, -0.1618610918521881, 0.04305770993232727, 0.10266288369894028, 0.6496267318725586, -0.3895961046218872, -0.24607868492603302, 0.28798314929008484, 0.6971086859703064, -0.1261698454618454, 0.25502631068229675, 0.20783168077468872, 0.18501406908035278, -0.32986822724342346, 0.04870130121707916, -0.17579326033592224, -0.27447637915611267, -0.2574247419834137, 0.026337122544646263], [-1.0862627029418945, -0.8651043176651001, 0.32370516657829285, -0.23367749154567719, 0.4170219898223877, -0.30968528985977173, 0.6588844060897827, 0.4938114285469055, 1.070913314819336, -0.2549891769886017, 1.2159233093261719, 0.9188444018363953, 0.15954765677452087, 0.09013480693101883, -0.607379138469696, -1.3173351287841797, -0.6765520572662354, 0.8591563105583191, 1.0839719772338867, 1.0820016860961914, 0.6286525130271912, 0.31610924005508423, -0.2133338302373886, -0.36770176887512207, 0.8796877861022949, -0.7629982829093933, -0.08648435026407242, 0.39809420704841614, -0.592089056968689, 0.4041891396045685, 0.8332496285438538, -1.1874003410339355], [-0.6060234904289246, -0.07995346933603287, 0.69110107421875, -0.00115196465048939, -0.8269216418266296, -0.34770864248275757, -0.1878626048564911, -1.7471539974212646, -2.2533199787139893, -0.9919690489768982, -0.07904331386089325, 0.4277089834213257, 0.05789748579263687, 0.3517109155654907, -0.17298001050949097, 0.40542152523994446, -0.19442744553089142, 0.23745621740818024, -0.7723570466041565, -0.48523515462875366, 0.07749112695455551, 0.44192492961883545, 0.17703275382518768, -0.24697688221931458, -0.33248716592788696, 0.08241541683673859, -0.1363968700170517, -0.2405397742986679, 1.7764616012573242, -0.5602890253067017, -0.21962150931358337, -0.40351811051368713], [-0.4847872257232666, -0.12213173508644104, -0.2987213730812073, -0.1524360328912735, 0.8429157137870789, 0.05441844090819359, -0.026435701176524162, 0.23258309066295624, -0.0064677344635128975, -0.05318285524845123, 0.6942580938339233, -0.4218316376209259, -0.4520955979824066, -0.03508484736084938, -0.49393725395202637, -0.19303886592388153, 0.13468222320079803, -0.0007221144041977823, -0.11227234452962875, -0.6233879923820496, 0.40838637948036194, 0.6453043222427368, -0.03222084790468216, -0.8504928350448608, 0.26989907026290894, -0.14733707904815674, -0.012827742844820023, 0.4424160122871399, -0.3025926351547241, 0.05990093573927879, -0.0775606706738472, -0.5218265652656555], [-0.34926310181617737, 0.007127557415515184, -0.5562249422073364, 0.3869215250015259, -0.24869300425052643, 0.3765583336353302, -0.41263505816459656, -0.42155957221984863, -0.9974861741065979, -0.6623343825340271, -1.2389425039291382, -0.01786160096526146, 0.18302862346172333, -0.22994855046272278, -0.17880591750144958, -0.2600139379501343, 0.29057323932647705, 0.19366402924060822, -0.054048240184783936, -0.045598018914461136, -0.4199402928352356, -0.16296306252479553, -0.15204226970672607, -0.02022075094282627, 0.1299637407064438, 1.1805661916732788, -0.33186033368110657, -0.20454521477222443, 0.2106066644191742, -0.09497132152318954, -0.15237607061862946, -0.2502100169658661], [-0.23712845146656036, 0.03267417475581169, -0.5373359322547913, 0.35909131169319153, 1.8775863647460938, -0.9971783757209778, 0.819665789604187, 1.1433185338974, 0.2572047710418701, -0.7216230630874634, 0.6646526455879211, -1.2648811340332031, -0.6555514335632324, -0.3559677004814148, -0.08443044126033783, -0.4839800000190735, 0.48742780089378357, 0.12465079128742218, 0.926454484462738, 1.5655343532562256, 0.37877848744392395, -1.153483510017395, -0.409380704164505, -0.23484939336776733, 0.06680359691381454, -0.55960613489151, 0.39601409435272217, 0.16910891234874725, -0.7622682452201843, 0.2959931194782257, 0.33367323875427246, 0.2017168253660202], [-0.2348071187734604, 0.06488454341888428, 0.3159599304199219, -0.09025897085666656, -0.27918049693107605, -0.8684926629066467, 0.24209755659103394, 0.3504984974861145, -1.9697948694229126, -1.0887436866760254, 0.03321615606546402, -0.33756235241889954, -0.3035532534122467, -0.2511278986930847, -0.4764347970485687, 0.8215345144271851, 0.03982168808579445, 0.12373262643814087, -0.49910157918930054, -0.7725465893745422, -0.4170859456062317, -1.0437589883804321, 0.05730588734149933, -0.3951181173324585, -0.012496724724769592, 0.07012408971786499, 0.3423308730125427, 0.2787213921546936, 0.19458819925785065, -0.4854067862033844, -0.2772160768508911, 0.4614967405796051], [0.033582184463739395, -0.008126082830131054, 0.15341241657733917, 0.10793888568878174, 1.282671332359314, 0.6704577207565308, -0.02703120745718479, 0.28621840476989746, -0.06551338732242584, -0.5759342908859253, 0.2521957457065582, -0.934872567653656, -0.6418953537940979, -0.21524383127689362, 0.7107765078544617, -0.5196900963783264, 0.04031581059098244, 0.2767145335674286, -0.6968981027603149, -0.7536047101020813, 0.1195172592997551, 0.9470986723899841, 0.057073015719652176, -0.05689113214612007, -0.12189328670501709, -0.7255297899246216, -0.2150072455406189, -0.10200940817594528, -0.6047341823577881, 0.08529312163591385, 0.18704287707805634, -0.3315541446208954], [-0.17319779098033905, 0.025199858471751213, 0.4877128601074219, 0.7013297080993652, -0.1927211880683899, 0.12482918798923492, -0.7074539065361023, 0.21506302058696747, -0.5428532361984253, 0.3744860887527466, 0.23444105684757233, -0.03688410297036171, -0.16165852546691895, 0.01019655354321003, -0.04480943828821182, -0.07396169751882553, -0.11256944388151169, -1.011756420135498, 0.07096456736326218, 0.09110618382692337, -0.16185469925403595, 0.15415620803833008, 0.053371936082839966, -0.07120003551244736, -0.16203096508979797, 0.2774278223514557, -0.10671114921569824, -0.0975547507405281, 0.5570287704467773, -0.4341059923171997, 0.0138663649559021, 0.2496701031923294], [0.21284011006355286, 0.3096725344657898, -0.4591243863105774, -0.27715057134628296, -0.3577533960342407, 0.4082854986190796, 0.03955118730664253, -0.02140251360833645, -0.1391180008649826, 0.1055365577340126, 0.3115752041339874, 0.06222239509224892, -0.14714643359184265, 0.33694374561309814, 0.024889685213565826, 0.3746034502983093, -0.27648836374282837, 0.19686833024024963, -0.1579306572675705, 0.33277568221092224, 0.2792026996612549, -0.38260385394096375, 0.30109965801239014, -0.14711183309555054, 0.06543722748756409, 0.27875572443008423, -0.23118233680725098, -0.1414150595664978, 0.0717707946896553, -0.4714202582836151, -0.03913698345422745, 0.28608438372612], [-0.34237685799598694, -0.49529221653938293, -0.18308857083320618, 0.384905606508255, 0.3054245412349701, -0.6951509118080139, 0.3011913597583771, -0.24249278008937836, -0.743292510509491, -1.2833024263381958, 0.8748015761375427, -0.8328273892402649, 0.15308929979801178, -0.0597049780189991, 0.27670228481292725, -0.34501659870147705, 0.6447360515594482, 0.6153056621551514, -0.4305330514907837, 1.0051487684249878, 0.10823316872119904, -1.042816400527954, -0.11609049141407013, -0.10239642858505249, -0.1687428057193756, 0.011637198738753796, 0.2681986093521118, -0.3558464050292969, 0.4223824143409729, -0.8604268431663513, 0.07018143683671951, 0.6772575974464417], [-0.4037232995033264, -0.020036522299051285, 0.28944793343544006, 0.7864658832550049, -0.11340001970529556, -0.2740097641944885, 0.007697456516325474, 1.1030398607254028, -0.13580948114395142, -0.23433253169059753, 0.09567145258188248, 0.23865869641304016, -0.5179301500320435, -0.40090563893318176, -0.3455889821052551, -0.03815813362598419, -0.6487929224967957, -0.35030311346054077, -1.314117670059204, -0.39854660630226135, 0.1387598216533661, 0.7001152634620667, -0.2861661911010742, 0.22956104576587677, -0.055422715842723846, -0.024163387715816498, 0.10447441041469574, 0.04961426556110382, 1.098932147026062, -0.4562750458717346, 0.121256023645401, 0.4475131630897522], [-0.41261476278305054, -0.30761995911598206, 0.053424734622240067, 0.3414919674396515, 1.090243935585022, 0.365107923746109, -0.21919137239456177, 0.4937536418437958, 0.42318400740623474, -0.18434418737888336, 0.14717112481594086, 0.06374619156122208, 0.2091829925775528, -0.10713370889425278, 0.5610820651054382, -0.38948705792427063, 0.38834482431411743, 0.42889052629470825, 0.27687254548072815, 0.3425652086734772, -0.06418240070343018, 0.24442505836486816, -0.4639557898044586, -0.254231721162796, 0.49746930599212646, 0.15835385024547577, 0.5062399506568909, 0.27003782987594604, -0.7729153037071228, 0.17506995797157288, 0.48683521151542664, -0.5247551202774048], [-0.9817503690719604, -0.5557575225830078, 0.8691324591636658, 0.9897240400314331, -0.7164931893348694, -0.11508756130933762, 0.3199886977672577, 0.21178646385669708, -2.4145469665527344, -0.47639089822769165, 0.21858271956443787, 0.7477213144302368, 0.799050509929657, 0.47285687923431396, -0.6776281595230103, -0.9477954506874084, -0.9208084344863892, 0.2995491623878479, -0.07922068238258362, -0.25532034039497375, -0.30797117948532104, 0.9599035978317261, -0.11426086723804474, 0.04561877250671387, -0.3731072247028351, 0.34748709201812744, -0.10732414573431015, -0.4180208742618561, 0.6918546557426453, -0.12170571833848953, 0.5967970490455627, 0.08429104834794998], [0.2156253457069397, -0.15822874009609222, -0.7951927185058594, -0.32064515352249146, -0.2963464856147766, 0.005549279507249594, -0.5159648060798645, -0.007139578927308321, -0.30112671852111816, -0.09320439398288727, -0.21823494136333466, 0.09956948459148407, 0.43308183550834656, -0.7607364058494568, 1.3534597158432007, -0.08333408832550049, -0.07902954518795013, 0.7588748335838318, 0.490561842918396, 0.12243464589118958, 0.13759060204029083, 0.2574187219142914, -0.06994906812906265, 0.31883174180984497, -0.07949601113796234, 0.41878998279571533, -0.32190537452697754, 0.2943664789199829, 0.10637755692005157, -0.7632321715354919, -0.6853445172309875, 0.7693307995796204], [0.5167629718780518, 0.5983408689498901, 0.6906858682632446, 0.12825961410999298, 0.14959129691123962, -0.8056526780128479, -1.034879207611084, 0.6396886110305786, 0.09298180043697357, -0.3587956726551056, -0.5923411846160889, 0.4139143228530884, 0.17004846036434174, 0.2636646330356598, 0.5115051865577698, 0.580325186252594, -0.7571519017219543, 0.035765085369348526, -1.1804754734039307, 0.5414278507232666, -0.4043407142162323, 1.1780189275741577, 0.7257717847824097, 1.2701959609985352, -0.4340096116065979, 0.9091688394546509, -0.7364892959594727, -0.8137471675872803, 0.5389442443847656, -1.0336318016052246, -0.3177603781223297, 0.7985088229179382], [-0.27123215794563293, 0.3882884085178375, 1.5563863515853882, 0.298284113407135, 0.2842129170894623, 0.1720515638589859, 1.0600416660308838, -2.021808385848999, 0.2530035674571991, 0.10999990254640579, 0.6588663458824158, -0.7180512547492981, -0.7430251240730286, 0.7354194521903992, -0.14703278243541718, -0.4866749942302704, 0.28062570095062256, -0.966239333152771, 0.4049350619316101, -2.390242338180542, 1.287328839302063, 0.3711194097995758, 0.17501287162303925, 0.41253992915153503, 0.5827730298042297, 0.5960886478424072, -0.51352858543396, 0.09634871780872345, -0.06019427627325058, 0.6569476127624512, -0.224111869931221, 0.23936738073825836], [-0.0076648942194879055, 0.1087937280535698, 0.03823234140872955, -0.3948294222354889, -0.23856350779533386, 0.37051960825920105, -0.2690340280532837, 0.5219038128852844, -0.8359161019325256, -0.6886489987373352, 0.3363972008228302, 0.04908408224582672, 0.5000301599502563, 0.20666027069091797, -0.5019268989562988, -0.2914753556251526, -0.4157397150993347, 0.5100582838058472, 0.19624118506908417, -0.014129328541457653, 0.04303543269634247, -0.6497331261634827, 0.25422608852386475, 0.2675783932209015, 0.1562396138906479, 0.2564009726047516, -0.3312428891658783, 0.2492920458316803, 0.02017170377075672, -0.5196158289909363, 0.17925867438316345, -0.09868322312831879], [-0.0789414644241333, 0.1283757984638214, 0.15308192372322083, 0.6346642971038818, 0.19242379069328308, 0.6421895027160645, -0.15435467660427094, 0.4372754991054535, 1.319077730178833, -0.16863560676574707, 0.9301656484603882, 0.15903007984161377, -0.4345306158065796, 0.3297903835773468, 0.06963063776493073, -0.2004380077123642, 0.232047900557518, 0.2564072906970978, -0.06815768033266068, 0.0070268274284899235, 0.0010063339723274112, -0.31028228998184204, -0.1278262883424759, -0.3751767873764038, 0.13899187743663788, -0.5401899218559265, 0.06254089623689651, 0.2880130112171173, -0.7439844012260437, 0.8183537721633911, -0.3651718497276306, -0.2559066414833069], [0.09261168539524078, -0.33478686213493347, -0.2556564211845398, -0.3705160617828369, 0.7211775779724121, -1.3273433446884155, -0.4053783416748047, -0.010675007477402687, 0.5625743865966797, -0.382388174533844, 0.011626510880887508, 0.17853309214115143, -0.35540449619293213, 0.36643552780151367, 0.5580601692199707, -0.40084460377693176, -0.42428797483444214, 0.8168932199478149, -0.9541282653808594, 0.8129585981369019, 0.5362726449966431, -0.07637672126293182, 0.0012698785867542028, 0.6921559572219849, -0.15322810411453247, -0.16033266484737396, 0.2563362717628479, 0.010140161029994488, -0.7092390060424805, 0.25225311517715454, 0.05758519098162651, 0.7088678479194641], [0.7093729376792908, 0.7662306427955627, 0.4074718654155731, -0.06644561886787415, -0.2569918930530548, 0.9140369296073914, -0.28094130754470825, 0.2543078660964966, 0.031194182112812996, 0.46026211977005005, 0.03541213646531105, 0.3976387083530426, -0.08271396905183792, 0.2660175859928131, 0.7134560346603394, 0.314871221780777, -0.52643883228302, 0.40281936526298523, -1.7945829629898071, 0.3264791667461395, 0.2074839323759079, 0.5368000864982605, 0.6410448551177979, 0.4369473457336426, -0.6156421303749084, 0.5370178818702698, -0.42778873443603516, -0.7476709485054016, -0.04909687116742134, -0.07612369954586029, -0.49909529089927673, 0.6857790946960449], [0.14743630588054657, -0.3198554813861847, 0.16216173768043518, -0.10601580142974854, 0.006234556902199984, 0.5302255153656006, -0.6838075518608093, 0.2561134099960327, 0.3292399048805237, -0.3475208878517151, 0.004995256662368774, 0.43759259581565857, 0.6849281787872314, 0.44178733229637146, 0.16934384405612946, -0.19836606085300446, -0.3092930316925049, 0.4791022837162018, 0.9810835719108582, 0.9863286018371582, 0.6156420111656189, 0.0003641951479949057, 0.27891823649406433, 0.6478553414344788, 0.12604974210262299, 0.9759023785591125, -0.08413351327180862, -0.09553397446870804, -0.46184808015823364, -0.4092085361480713, 0.5269435048103333, -0.03968276455998421], [0.09779518097639084, -0.28912901878356934, -0.17598484456539154, -0.459862619638443, -0.13634982705116272, -0.04325545206665993, 0.43496355414390564, -0.15952354669570923, 0.2463478446006775, -0.5601840615272522, 0.287966787815094, -0.7448424696922302, 0.13648299872875214, 0.2908444106578827, 0.6182926893234253, 0.8395000100135803, 0.06556617468595505, 0.8198968768119812, -0.42850086092948914, 0.9567967057228088, -0.00552411237731576, -0.38546502590179443, 0.16979779303073883, 0.188370943069458, -0.0481216199696064, -0.2612232267856598, -0.023389015346765518, -0.1657174825668335, -0.2126830518245697, 0.03234187886118889, 0.2259451150894165, 0.6089685559272766], [-0.020714055746793747, 0.5217918157577515, 0.5015431046485901, 0.18380649387836456, -0.13448742032051086, 0.7672279477119446, -0.0564604289829731, 0.15276293456554413, -0.5913140773773193, 0.9041650295257568, 0.04019607976078987, -0.5315726399421692, -0.07044311612844467, 0.2420342117547989, -0.5817039012908936, 0.07348176836967468, -0.36224085092544556, -0.07630442827939987, -0.13765573501586914, -0.19615808129310608, -0.13582336902618408, -0.5271207690238953, 0.10661347955465317, 0.08511809259653091, -0.4788114130496979, 0.30229100584983826, -0.09491384029388428, -0.29822489619255066, 0.6624730825424194, -0.37985149025917053, -0.526238739490509, 0.07808279246091843], [0.6567854881286621, 0.0743834599852562, 0.8371993899345398, -0.2111852467060089, -0.626882791519165, 0.709854781627655, -1.2161791324615479, 0.7985365390777588, 0.07630657404661179, -0.4889492094516754, 0.12229246646165848, 0.41476476192474365, 0.65276038646698, 0.5889960527420044, 0.43568605184555054, 0.49097368121147156, -1.3433911800384521, -0.08556798100471497, -0.07917601615190506, 1.2925825119018555, 0.2224779725074768, 1.0728167295455933, 0.979272723197937, 0.6001297831535339, -0.5251496434211731, 0.42997047305107117, -0.6724964380264282, -0.3949873745441437, -0.32171863317489624, -1.0171773433685303, -0.47038283944129944, 0.7042561173439026], [-1.0993163585662842, -0.6909446716308594, -0.41366586089134216, -0.16626101732254028, 1.0220086574554443, -0.058146145194768906, 0.5763562321662903, 0.19726261496543884, 0.8137074112892151, -0.24985775351524353, 1.1749505996704102, 0.4617559611797333, 0.18561695516109467, 0.2540481388568878, -0.28728893399238586, -1.2116910219192505, -0.001961342291906476, 0.21531572937965393, 1.6270841360092163, -0.01438949815928936, 0.4284064471721649, 0.5501305460929871, -0.9925441145896912, -0.5778167247772217, 1.0796905755996704, -0.14972247183322906, 1.0868730545043945, 0.5914296507835388, -0.41370922327041626, -0.287538081407547, 0.5174819231033325, -1.3146532773971558], [0.12450512498617172, 0.01264300849288702, -0.591893196105957, 0.011507013812661171, -0.1862734705209732, -0.0637521892786026, 0.15183186531066895, 0.20966686308383942, 0.5100110769271851, -0.26658719778060913, -0.54679274559021, -0.31672170758247375, -0.01998021826148033, -0.0805961862206459, 0.6067004203796387, 0.38337263464927673, -0.18001718819141388, 0.05608772113919258, 0.12697643041610718, -0.013939994387328625, -0.182193323969841, -0.029129618778824806, 0.3014083802700043, -0.09371576458215714, -0.27792292833328247, -0.033297259360551834, -0.1853405088186264, 0.08853965997695923, -0.101741723716259, 0.004016194026917219, -0.5571480989456177, 0.7727187275886536], [-0.3431033194065094, -0.580481231212616, -0.04365288466215134, -0.24666468799114227, 0.7387166023254395, 0.6773349046707153, -0.34579360485076904, 0.6388539671897888, 0.4962131679058075, -0.4667007029056549, 0.4467112720012665, -0.05601123347878456, 0.0642147958278656, 0.5008665919303894, 0.06826317310333252, -0.39070332050323486, 0.2089557945728302, 0.42584100365638733, 0.513419508934021, 0.6424534320831299, 0.6098302006721497, 0.15133365988731384, -0.09299979358911514, -0.8518715500831604, 0.5217165350914001, 0.3564291298389435, -0.29056107997894287, 0.36356621980667114, -0.8032070994377136, -0.037564873695373535, 0.3527275323867798, -0.6462352275848389], [-0.0581892654299736, 0.01851108856499195, -0.12979112565517426, -0.20451848208904266, 0.94035404920578, 0.6293326020240784, 0.40179041028022766, -0.19119341671466827, 1.3270617723464966, 0.5528103113174438, 0.2916755974292755, 0.17193914949893951, 0.3315807282924652, -0.075687937438488, -0.13087090849876404, -0.49187803268432617, -0.0856020450592041, -0.47422054409980774, -0.2755129337310791, -0.1831420511007309, 0.16394813358783722, 0.019750826060771942, 0.14617635309696198, 0.2914658784866333, -0.13130949437618256, 0.03040389157831669, -0.02152438461780548, -0.5874648094177246, -0.8285266160964966, -0.4086962640285492, -0.03170531988143921, -0.20437058806419373], [0.5974645018577576, 0.03173059597611427, -0.1431577503681183, -0.31628066301345825, -0.32210931181907654, -0.09734886139631271, -0.03961950168013573, -0.06746015697717667, -0.17065376043319702, -0.24309955537319183, 0.17814750969409943, 0.04993266984820366, -0.07993469387292862, 0.3670370578765869, 0.3673925995826721, -0.17178601026535034, 0.014784242957830429, -0.0341518372297287, -0.28881821036338806, 0.20976176857948303, 0.42533761262893677, 0.32988491654396057, 0.09332232922315598, 0.662574291229248, -0.7799005508422852, -0.40514951944351196, -0.6702471971511841, -0.47150030732154846, 0.5265868306159973, 0.17970837652683258, -0.1642439067363739, 0.082358717918396], [0.6279242634773254, -0.058994051069021225, 0.30652564764022827, 0.48508238792419434, -0.08683831989765167, 0.3885786235332489, 0.2735591530799866, -0.01688130386173725, 0.3189055025577545, -0.3163744807243347, -0.04624125733971596, 0.06181018054485321, 0.055111564695835114, 0.44274646043777466, -0.10404948145151138, -0.06769006699323654, -0.5326740741729736, -0.5575193166732788, -0.4008846879005432, 0.00518812658265233, 0.47970861196517944, 0.035592999309301376, 0.1294396072626114, -0.0034432420507073402, -0.5473676323890686, 0.021020881831645966, -0.01858515478670597, -0.16726146638393402, -0.21856410801410675, 0.39247754216194153, -0.10913527011871338, -0.1828288733959198], [0.14885129034519196, 0.009167412295937538, 0.00619913637638092, 0.029578177258372307, -0.016669439151883125, -0.12131761759519577, 0.13565053045749664, 0.0037575005553662777, -0.374578595161438, -0.10431207716464996, 0.2399107664823532, 0.002466710517182946, 0.1257217824459076, 0.048095107078552246, -0.24608255922794342, 0.02397993765771389, 0.0027217227034270763, 0.17988348007202148, -0.0389983244240284, -0.013235899619758129, 0.13040900230407715, 0.11170057207345963, 0.013805421069264412, 0.0889662504196167, 0.03833702951669693, 0.08959440886974335, 0.14996233582496643, 0.02320597507059574, -0.5082380771636963, 0.09269727021455765, -0.0402027927339077, -0.1185859888792038], [-0.09028636664152145, -0.08144505321979523, 0.20790474116802216, -0.1538960486650467, 0.0841851457953453, 0.17175167798995972, 0.05728805065155029, -0.1871352642774582, 0.15867511928081512, 0.0069458018988370895, 0.07129456102848053, -0.1987561136484146, 0.17583702504634857, 0.057377565652132034, -0.054712191224098206, -0.12336567044258118, -0.05076223611831665, -0.1628434956073761, 0.15428012609481812, -0.18937017023563385, -0.1138710081577301, -0.2313234806060791, 0.07348383963108063, 0.033378683030605316, 0.02041126973927021, 0.06496546417474747, -0.07434287667274475, 0.1194099485874176, -0.41569089889526367, 0.007746522314846516, 0.05670971795916557, -0.1169574111700058], [0.18476460874080658, 0.2247534990310669, 0.022009942680597305, -0.024954844266176224, 0.282132089138031, -0.16015790402889252, -0.14287957549095154, 0.05412852019071579, 0.25321635603904724, 0.37419453263282776, -0.3389272391796112, -0.276243656873703, -0.12744733691215515, -0.05647457018494606, 0.32300493121147156, -0.011625533923506737, 0.15979301929473877, -0.19614742696285248, -0.2819983959197998, -0.7102624773979187, 0.1983460932970047, 0.2986297905445099, -0.7802924513816833, 0.1951790302991867, 0.06993073225021362, -0.3409271240234375, -0.3922426998615265, -0.137587308883667, -0.5702241659164429, 0.10679416358470917, 0.3454042971134186, -0.08710982650518417], [-0.03831326216459274, -0.10374525189399719, 0.21208210289478302, 0.43503719568252563, 0.3362930417060852, -0.07293866574764252, 0.3174619674682617, -0.11185087263584137, -0.2967548668384552, 0.20791243016719818, 0.39913687109947205, -0.3322316110134125, -0.02869974449276924, 0.23100104928016663, 0.26904910802841187, 0.05011468380689621, 0.525513231754303, 0.36026573181152344, -0.04659480229020119, -0.05233215168118477, 0.6694483757019043, -0.14210490882396698, -0.21082203090190887, -0.2982650101184845, -0.12282552570104599, -0.23216909170150757, 0.27386239171028137, -0.15548202395439148, -0.8294385075569153, 0.5072422623634338, -0.07573253661394119, -0.4868451654911041], [-0.2167920619249344, -0.24142411351203918, -0.5776376724243164, -0.01837720163166523, 1.0054826736450195, -0.5797773003578186, -0.2906814515590668, -0.5592904090881348, 0.2798019349575043, 0.13287276029586792, 1.0258034467697144, 0.11977852880954742, -0.1753939837217331, -0.15206369757652283, -0.7886413931846619, -0.2435159534215927, -0.24303652346134186, 0.1668604165315628, 0.8044132590293884, -0.5523468255996704, -0.024621669203042984, -0.7122021317481995, -0.021856624633073807, -0.04225781932473183, -0.09853363782167435, -0.5661097764968872, -0.17263300716876984, -0.21351470053195953, -0.4473404288291931, -0.15701912343502045, 0.3017875850200653, 0.12016693502664566], [0.13660863041877747, 0.26388800144195557, 0.13116545975208282, 0.6133306622505188, -0.04563720524311066, 0.5030522346496582, 0.237448051571846, -0.4340159296989441, -0.012391619384288788, 0.020462987944483757, -0.6535240411758423, -0.42930713295936584, -0.06902214139699936, -0.24696211516857147, 0.2871718406677246, -0.16257841885089874, 0.335508793592453, 0.038499172776937485, -0.3149734139442444, -0.07477570325136185, -0.41117990016937256, 0.3912661075592041, -0.007348411716520786, 0.11235462874174118, -0.03388885781168938, 0.19949930906295776, -0.2735231816768646, 0.2705846428871155, -0.023182060569524765, 0.01786433346569538, -0.2560873031616211, 0.1608743518590927], [-0.03571122884750366, -0.010106204077601433, 0.39272448420524597, -0.10648102313280106, 0.9909868240356445, 0.4335617423057556, -0.0010766835184767842, -0.1962958723306656, -0.9501872062683105, 0.706800103187561, -0.17790327966213226, 0.6694833636283875, -0.004785463679581881, 0.3734959661960602, -0.013207769952714443, -0.3634568452835083, 0.16939054429531097, -0.4082522690296173, -0.030894014984369278, -0.09853266179561615, 0.06465619057416916, 0.7861194610595703, 0.05961919575929642, 0.13000790774822235, 0.0028462475165724754, -0.1742892861366272, -0.11074379831552505, 0.36484295129776, -0.33549708127975464, 0.6885403394699097, -0.052693065255880356, -0.20832212269306183], [-0.29687774181365967, 0.2480836659669876, 0.07271288335323334, -0.0657576397061348, 0.021784324198961258, 0.07891629636287689, 0.06431335210800171, 0.22024928033351898, 1.3572813272476196, -0.31876373291015625, -0.10681807994842529, 0.2417464405298233, -0.32022717595100403, 0.2833937406539917, -0.25040245056152344, -0.46481674909591675, 0.3728529214859009, -0.6518492698669434, -0.5897590517997742, -0.7634628415107727, 0.09710106253623962, 0.10698286443948746, 0.256120890378952, -0.41535523533821106, -0.510638415813446, 0.2475118190050125, -0.2665845453739166, 0.04849885031580925, 0.6422193646430969, 0.05329868942499161, -0.07508169859647751, -0.22933708131313324], [-0.032785482704639435, -0.06024663895368576, -0.18731144070625305, -0.03386637568473816, 0.4963269829750061, -0.5881733894348145, -0.1892462819814682, -0.4811451733112335, 0.4659864902496338, 0.39547860622406006, -0.12519080936908722, 0.44290536642074585, -0.3782246708869934, -0.261447012424469, -0.3656895160675049, -0.3077017664909363, -0.13015282154083252, 0.16682572662830353, 0.01674937643110752, -0.21813465654850006, -0.19225385785102844, -0.13433028757572174, -0.08555198460817337, 0.12743568420410156, 0.06020122393965721, -0.22519318759441376, -0.15749973058700562, 0.23929089307785034, -0.4417044520378113, -0.06199244037270546, -0.08284610509872437, 0.2090248316526413], [-0.13436104357242584, 0.09083186089992523, 0.6565501093864441, 0.31744489073753357, 0.07057409733533859, -0.2999129891395569, -0.43026381731033325, -0.3319012224674225, -0.20713861286640167, -0.12311192601919174, 0.14895369112491608, 0.029202155768871307, 0.04396726191043854, 0.2066032588481903, -0.3818572461605072, 0.13269342482089996, 0.2011299431324005, -0.3210791349411011, 0.3676837384700775, -0.01892973482608795, -0.14235392212867737, -0.3272281587123871, -0.1530875265598297, 0.12044952809810638, -0.059844233095645905, -0.19054871797561646, 0.179483100771904, -0.3173043131828308, -0.105941042304039, 0.1970440149307251, 0.07661621272563934, -0.19292068481445312], [-0.010500658303499222, -0.00976506993174553, 0.38824233412742615, 0.25860270857810974, 0.0075050839222967625, -0.019341379404067993, 0.08267875015735626, -0.008103935047984123, 0.24155694246292114, 0.264633446931839, -0.15722815692424774, 0.3165936768054962, -0.28319501876831055, -0.10256809741258621, 0.23401203751564026, -0.17075735330581665, -0.024495035409927368, 0.22926421463489532, 0.39450860023498535, 0.04878182336688042, -0.1407673954963684, 0.409087210893631, -0.10246758162975311, -0.20511554181575775, 0.1917424201965332, -0.14814351499080658, 0.3722844123840332, -0.21305696666240692, -0.026422642171382904, -0.1133122593164444, -0.1506248265504837, 0.05266883224248886], [0.0970584899187088, -0.23645348846912384, 0.055830925703048706, 0.3536774814128876, -0.5207265615463257, 0.12967360019683838, -0.1617167443037033, 0.2795216143131256, -0.5380496382713318, -0.0839061290025711, 0.7260207533836365, -0.1775599867105484, -0.2995441257953644, 0.0891876369714737, 0.24767760932445526, -0.12689624726772308, 0.18799929320812225, 0.8285527229309082, -0.18841534852981567, 0.39929497241973877, -0.016610534861683846, -0.17797303199768066, 0.13217505812644958, -0.23021407425403595, -0.38416555523872375, -0.106074258685112, 0.5064727663993835, -0.20835396647453308, -0.44770047068595886, -0.16881784796714783, -0.05855315923690796, 0.41401153802871704], [-0.020250564441084862, 0.0035414767917245626, 0.2336101233959198, 0.1767994463443756, -0.17155760526657104, 0.21608218550682068, 0.6282603144645691, -0.07041142135858536, -0.3031865358352661, 0.08000656217336655, 0.6836341023445129, -0.20034684240818024, -0.10663935542106628, -0.11542834341526031, -0.7423116564750671, -0.15215888619422913, 0.1321227103471756, -0.20080609619617462, -0.523273766040802, -0.1279081255197525, 0.12974746525287628, -0.15693362057209015, 0.13244862854480743, 0.12963764369487762, 0.02869548089802265, 0.056584857404232025, 0.019001509994268417, -0.24219150841236115, 0.012118020094931126, 0.14774058759212494, 0.43242570757865906, -0.2157163918018341], [0.46211519837379456, 0.06261645257472992, -0.061948396265506744, -0.2590106725692749, -1.057466745376587, -0.39200258255004883, 0.3217434287071228, 0.2641957998275757, -0.05920594558119774, -0.31941714882850647, 0.3568028211593628, -0.5667678117752075, 0.16949693858623505, -0.007792143151164055, -0.08073797076940536, 0.21932464838027954, -0.15113908052444458, -0.3889211118221283, 0.05083625391125679, 0.0936153307557106, -0.2206839919090271, -0.21529217064380646, 0.17224125564098358, 0.22822940349578857, -0.2711772918701172, -0.26992708444595337, 0.03741108253598213, 0.08929741382598877, 0.3253973126411438, -0.3325876295566559, -0.23490893840789795, 0.2332969754934311], [-0.13567394018173218, 0.2977031469345093, 0.3093715012073517, -0.34539660811424255, -0.2440377026796341, 0.012644504196941853, -0.7432001829147339, -0.4461517035961151, 1.0019551515579224, 0.2177344262599945, -0.11211531609296799, 0.01987510174512863, 0.06719958782196045, 0.06415244936943054, -0.13304243981838226, 0.3816472589969635, 0.23869125545024872, -0.12515388429164886, 0.15874215960502625, -0.1636916846036911, 0.3310358226299286, -0.48906099796295166, 0.35196346044540405, -0.14591532945632935, 0.44373029470443726, 0.5414203405380249, -0.19718459248542786, 0.17945539951324463, 0.5065851807594299, 0.5737093091011047, -0.12880942225456238, -0.16269323229789734], [-0.10025521367788315, -0.14237424731254578, -0.5470614433288574, -0.6341687440872192, 0.08653657138347626, -0.14696794748306274, -0.14927327632904053, -0.35205531120300293, 0.03368086367845535, 0.12554095685482025, -0.13405345380306244, -0.9527289867401123, -0.502623438835144, -0.10025352239608765, 0.3031318783760071, 0.07048780471086502, 0.23696990311145782, 0.5512617230415344, -0.6170687079429626, -0.24916471540927887, -0.021044226363301277, -0.11925249546766281, -0.15015451610088348, -0.060216404497623444, 0.026979774236679077, -0.19223086535930634, -0.160378098487854, 0.03568943962454796, -0.4238540530204773, 0.034985799342393875, -0.21729308366775513, 0.16433972120285034], [-0.12686693668365479, -0.2450445294380188, -0.12094210833311081, -0.10131268948316574, 0.08467471599578857, 0.053981296718120575, -0.216483935713768, -0.037131648510694504, -0.01472268346697092, 0.6460765600204468, 0.09675245732069016, -0.1843392252922058, 0.04568972438573837, 0.2408411055803299, -0.28141796588897705, -0.34852373600006104, 0.20874442160129547, -0.25568997859954834, 0.42181432247161865, -0.45842891931533813, -0.18813177943229675, 0.2622321546077728, -0.10299567878246307, -0.24564550817012787, 0.25304317474365234, 0.15232209861278534, -0.02613530308008194, 0.3680146336555481, 0.3953683078289032, 0.03119353950023651, -0.14202336966991425, -0.05655891075730324], [0.019607797265052795, 0.08945541828870773, -0.37011033296585083, 0.019176047295331955, 0.07373175770044327, -0.5479153990745544, -0.2759074866771698, -0.39122214913368225, 0.04528755322098732, -0.1554623544216156, 0.0008967525791376829, 0.025450628250837326, -0.29816699028015137, -0.6931704878807068, 0.5938907265663147, 0.24193476140499115, 0.36423206329345703, 0.6702452301979065, 0.5816304087638855, -0.9893671274185181, -0.5595569014549255, 0.3002769649028778, 0.03854190930724144, 0.08492808043956757, 0.23127469420433044, 0.016350271180272102, 0.2831297218799591, 0.01387882325798273, -0.2886905372142792, -0.7675431966781616, -0.16138148307800293, 0.3754972517490387], [-0.04479043558239937, -0.17237639427185059, 0.11560521274805069, 0.0792667418718338, -0.19370746612548828, 0.1485181450843811, 0.22200749814510345, 0.32589733600616455, -0.22008180618286133, 0.02230260707437992, -0.03975889831781387, -0.05567362159490585, -0.39176303148269653, 0.2709229290485382, -0.0023232600651681423, -0.29259341955184937, -0.0001292921369895339, 0.30194738507270813, 0.041388798505067825, -0.2926037907600403, 0.5328428149223328, 0.02549096941947937, 0.1384788602590561, 0.1113375723361969, 0.23358842730522156, 0.05770104378461838, -0.130970299243927, 0.002482128795236349, -0.25976240634918213, 0.7334134578704834, 0.2635968029499054, -0.3229316473007202], [0.09404821693897247, -0.13048598170280457, 0.23561128973960876, 0.745456337928772, 0.19187302887439728, 0.3693782687187195, 0.06364920735359192, -0.13635662198066711, -0.26874399185180664, -0.07084237784147263, 0.5963099598884583, 0.12053211033344269, -0.17862990498542786, 0.37861329317092896, -0.2133229821920395, -0.5063161253929138, -0.013998211361467838, -0.32174208760261536, -1.0554778575897217, 0.10830140858888626, 0.36656898260116577, -0.1790158450603485, 0.09697138518095016, 0.13595198094844818, -0.049605097621679306, 0.09844078868627548, -0.028310483321547508, 0.09898652881383896, -0.12708225846290588, 0.552295446395874, 0.36726444959640503, -0.12742114067077637], [-0.006743999198079109, 0.06631936877965927, -0.08048992604017258, 0.045979905873537064, 0.06275944411754608, 0.03261711820960045, -0.42870160937309265, -0.26130539178848267, -0.0750550851225853, 0.05479447916150093, -0.7139188647270203, 0.03169466182589531, 0.1985827535390854, -0.09655562043190002, -0.027189571410417557, 0.2810053527355194, -0.16170096397399902, 0.49665567278862, 0.24386566877365112, 0.865281879901886, -0.4129435420036316, -0.5904465317726135, 0.3458126485347748, -0.0872698500752449, -0.6669363379478455, 0.33114299178123474, 0.27340513467788696, -0.21308115124702454, 0.4982110857963562, -0.2844151556491852, -0.7039449214935303, 0.4232538044452667], [-0.035677216947078705, 0.22268937528133392, 0.2377173751592636, 0.31460750102996826, 0.11936290562152863, 0.011664960533380508, -0.033600129187107086, -0.6155623197555542, -0.13759498298168182, 0.04539414122700691, -0.1758440136909485, 0.17630447447299957, 0.19527091085910797, -0.03721565753221512, -0.01974603533744812, -0.3595151901245117, 0.09558428078889847, -0.12125860899686813, -1.0977147817611694, -0.15982389450073242, -0.1195947602391243, 0.04536105692386627, -0.058478932827711105, 0.2129414826631546, 0.09809157252311707, -0.3487110733985901, 0.01917881891131401, -0.7412633895874023, -0.13837651908397675, 0.0027170719113200903, 0.3731851875782013, 0.18144287168979645], [-0.22015658020973206, -0.27757832407951355, 0.05204297974705696, -0.05615418404340744, 0.10334787517786026, 0.05550910532474518, 0.12198090553283691, 0.3883950114250183, 0.23958151042461395, 0.10881553590297699, 0.06447950005531311, -0.2697371244430542, -0.08586332947015762, 0.03371700644493103, -0.22269900143146515, 0.3478182554244995, 0.3777865171432495, -0.07156434655189514, -0.12647134065628052, -0.1088356301188469, 0.2655142545700073, -0.16208794713020325, -0.09960488975048065, -0.2533808648586273, 0.8762674927711487, -0.8004627227783203, 0.21576233208179474, 0.566643238067627, -0.08270522952079773, 0.036870669573545456, 0.3148133158683777, -0.4491397738456726], [-0.5198569297790527, -0.37590062618255615, 0.3489222526550293, 0.19914944469928741, 0.12088433653116226, -0.048110973089933395, 0.1565791368484497, -0.2781657576560974, -0.10783015936613083, -0.4643242359161377, 0.11216716468334198, 0.08867767453193665, 0.5107836723327637, 0.2216380089521408, -0.2149069458246231, -0.3133707344532013, -0.06961168348789215, 0.24319908022880554, 0.10986103117465973, 0.295223593711853, -0.2258651703596115, -0.002211722545325756, 0.01448811125010252, 0.42142537236213684, -0.0768769308924675, 0.0558912567794323, 0.2184552103281021, -0.7901875376701355, 0.4966987669467926, -0.3891410529613495, 0.2093120515346527, -0.32293710112571716], [-0.008944335393607616, -0.00023349530238192528, -0.2704055905342102, -0.017019031569361687, -0.17903007566928864, -0.051639389246702194, -0.3864193856716156, 0.0030058128759264946, 0.05170127749443054, 0.5740116238594055, -0.4663137197494507, 0.34846657514572144, 0.03203986585140228, -0.5553064346313477, 0.4537690281867981, 0.358987957239151, -0.1288941353559494, 0.15214474499225616, 0.3378336727619171, -0.04808163642883301, -0.13678093254566193, 0.20520980656147003, -0.07285918295383453, 0.05373595282435417, 0.38316595554351807, -0.18709175288677216, -0.10895084589719772, 0.017936784774065018, 0.32395413517951965, -0.07332044094800949, -0.07398761063814163, -0.12993194162845612], [-0.2782849371433258, -0.4179432690143585, -0.42847180366516113, -0.6893000602722168, 0.040172360837459564, -0.09854989498853683, 0.02091618999838829, -0.1020144522190094, -0.41831567883491516, -0.02964198775589466, -0.14187197387218475, -0.061659932136535645, -0.46047505736351013, 0.2305358499288559, 0.30793437361717224, 0.02816636487841606, 0.03881675750017166, 0.19122175872325897, 0.3786429166793823, 0.10442262142896652, 0.10812846571207047, -0.2867816388607025, -0.022433439269661903, 0.1944376826286316, 0.3112111985683441, -0.07194357365369797, -0.16697920858860016, 0.393033891916275, 0.17076265811920166, 0.04996897652745247, -0.16237039864063263, 0.17862659692764282], [-0.16257344186306, -0.04550965502858162, 0.4656650424003601, 0.005659959744662046, -0.9317755699157715, 0.409714013338089, 0.12837103009223938, 0.5190176367759705, -0.3474220931529999, -0.02927904948592186, -0.22442011535167694, 0.5447460412979126, -0.047487664967775345, 0.07838110625743866, -0.3739728629589081, 0.03667081147432327, -0.18415062129497528, -0.17688822746276855, -0.2167365849018097, -0.1694554090499878, -0.00836898386478424, 0.3382161259651184, 0.1876658797264099, -0.4678551256656647, 0.009262099862098694, -0.21856853365898132, 0.10793907940387726, 0.05471356585621834, 0.12930238246917725, 0.1108846366405487, -0.3188113272190094, -0.18709954619407654], [0.008027932606637478, -0.017321011051535606, -0.47723332047462463, -0.16775232553482056, 0.10851342231035233, -0.02448541484773159, -0.15648575127124786, 0.06335103511810303, -0.2955121695995331, -0.5326235294342041, -0.22729821503162384, 0.2602892220020294, -0.25684067606925964, 0.28689295053482056, 0.5011746287345886, -0.11961900442838669, 0.24877025187015533, 0.43806058168411255, 0.30755919218063354, -0.3355855941772461, 0.3714618384838104, 0.00747632933780551, 0.030151519924402237, 0.06902895122766495, 0.06149764358997345, 0.010197669267654419, -0.08267132192850113, 0.3489193022251129, -0.8213789463043213, 0.20686866343021393, -0.33826330304145813, 0.02217269316315651], [-0.2857048511505127, -0.14623279869556427, -0.2634938955307007, -0.2908618152141571, 0.12952150404453278, -0.27772578597068787, -0.09704003483057022, -0.12562742829322815, -0.01721348613500595, -0.17605902254581451, -0.09654047340154648, -0.4356602728366852, -0.04192507266998291, -0.08392257988452911, 0.13279537856578827, 0.019054541364312172, 0.6061297059059143, 0.0024880189448595047, -0.1835840344429016, -0.281239777803421, 0.18180635571479797, -0.6393885016441345, -0.28840214014053345, 0.07315121591091156, 0.6293824911117554, -0.3096686899662018, 0.445614755153656, 0.11887387186288834, -0.5200240015983582, 0.2833898067474365, 0.5600257515907288, -0.11039447784423828], [0.5027457475662231, 0.24234145879745483, -0.5782747268676758, -0.17872411012649536, 0.3324645757675171, -0.013671649619936943, 0.22977003455162048, 0.19704310595989227, -0.5713470578193665, -0.2910277545452118, -0.08609454333782196, -0.5103323459625244, -0.22469232976436615, -0.0974993109703064, -0.24888749420642853, 0.4432556629180908, -0.3116971254348755, -0.077480748295784, -0.5188035368919373, -0.020011769607663155, -0.24293643236160278, -0.16437889635562897, 0.19157563149929047, 0.49785882234573364, -0.32326653599739075, -0.43532148003578186, -0.11821097880601883, -0.19612035155296326, -0.05170460045337677, -0.2115168422460556, -0.1545920968055725, 0.4515180289745331], [-0.39923983812332153, -0.21232205629348755, 0.11396831274032593, 0.4097141921520233, 0.7873696088790894, -0.08057763427495956, 0.4020119607448578, 0.09180373698472977, 0.26920509338378906, 0.18755440413951874, 0.486701101064682, 0.0910220742225647, 0.1500888168811798, -0.34284788370132446, -1.1657321453094482, -0.3139559030532837, 0.058202553540468216, -0.406914085149765, -0.2483014613389969, -0.27558737993240356, 0.002413165057078004, 0.25954878330230713, -0.25811368227005005, -0.16239790618419647, 0.09345842897891998, 0.029473507776856422, 0.415951669216156, -0.2504589557647705, -0.38880977034568787, 0.7735936045646667, 0.14447619020938873, -0.5275006294250488], [-0.22228211164474487, -0.32886484265327454, 0.24558965861797333, 0.36945125460624695, 0.19059036672115326, -0.020374299958348274, -0.0005182957975193858, -0.5758927464485168, -0.18613067269325256, 0.5350612998008728, -0.14440825581550598, 0.14831824600696564, 0.3338208496570587, -0.2970973551273346, -0.2189173698425293, -0.2837364673614502, 0.3620274066925049, -0.2802252173423767, 0.21427907049655914, -0.08057603240013123, -0.10741166025400162, -0.283914715051651, -0.15039612352848053, 0.25955358147621155, 0.36364099383354187, -0.01900041475892067, 0.42933088541030884, 0.19885647296905518, -0.30003997683525085, -0.08754599094390869, 0.27562713623046875, -0.272169291973114], [-0.04855973273515701, -0.36479949951171875, -0.5427181124687195, -0.48733919858932495, -0.11786694824695587, 0.13816694915294647, -0.012856581248342991, 0.25323012471199036, -1.3758183717727661, -0.9860743880271912, 0.11926809698343277, 0.2537260949611664, -0.009645181708037853, 0.17547382414340973, 0.40464872121810913, -0.32989737391471863, 0.27327480912208557, 0.42926403880119324, 0.888794481754303, 0.7142201662063599, 0.005408686585724354, -0.43213385343551636, -0.08991782367229462, 0.18133732676506042, -0.32747799158096313, 0.8274844884872437, -0.15495260059833527, 0.3579246699810028, -0.5954856276512146, -0.3264901340007782, -0.2822980284690857, 0.8319747447967529], [0.6863752603530884, -0.3183996379375458, 0.018712081015110016, -0.6682321429252625, -0.14677709341049194, 0.782162606716156, 0.6190366148948669, 0.3669770658016205, 0.42653176188468933, 0.06404827535152435, 0.568324625492096, 0.14226919412612915, 0.2232077717781067, 0.18687975406646729, 1.0483797788619995, -0.3205566704273224, -0.3331276774406433, 0.9621850252151489, 0.18970242142677307, 0.5425659418106079, 0.9125745892524719, 0.24269051849842072, 0.47270768880844116, 0.43183645606040955, -0.6166194677352905, -0.02679099142551422, -1.3751366138458252, -0.020565766841173172, -0.9313139915466309, -0.3128778040409088, -0.2156030535697937, 0.6130620241165161], [-0.3477477729320526, -0.2543553113937378, 0.37759163975715637, 0.32668447494506836, 0.23857156932353973, -0.25317153334617615, 0.8377903699874878, 0.16750282049179077, -0.2367192506790161, 0.2767813205718994, 1.4432642459869385, 0.8845217227935791, 0.4123908579349518, -0.10079153627157211, -0.454291969537735, -0.6654128432273865, 0.1344991773366928, 1.0042343139648438, 1.0307629108428955, 0.5103756785392761, 0.40798115730285645, 0.3938906788825989, -0.6090341806411743, -0.6740749478340149, 0.23390814661979675, -0.6006747484207153, 0.6334806084632874, 0.417463481426239, -0.21954815089702606, 0.18024155497550964, 0.5947613716125488, -0.33126407861709595], [-0.3751339018344879, -0.2571546733379364, 0.47980690002441406, 0.4327172338962555, -0.13271965086460114, -0.17608831822872162, -0.8503691554069519, -0.14268936216831207, 1.2983930110931396, -0.7220086455345154, 0.251135915517807, 0.6672188639640808, 0.20516155660152435, -0.20521347224712372, 0.10977313667535782, -0.058733709156513214, 0.341296911239624, -0.28699150681495667, -0.17932911217212677, -0.08355735242366791, -0.3228422701358795, 1.188551664352417, -0.6274845600128174, -0.4336429238319397, 0.13718432188034058, 0.16213752329349518, 0.3574594557285309, -0.42403391003608704, 1.0810604095458984, -0.6419646739959717, 0.292815238237381, -0.39307108521461487], [-0.6561072468757629, -0.1400327980518341, -0.8443416357040405, 0.0012506551574915648, 1.0678160190582275, -0.4929639399051666, 0.0879647433757782, 0.13246303796768188, -0.10102181881666183, -0.5656353831291199, 0.7448381185531616, -0.4154866635799408, -0.1573568880558014, -0.694350004196167, 0.004408660810440779, -0.7677088379859924, 0.386769562959671, -0.39169076085090637, 0.9697913527488708, 0.42834487557411194, -0.09254893660545349, -0.3519502878189087, -0.09315790981054306, 0.06329699605703354, 0.02441134676337242, -0.11237180978059769, 0.6839537024497986, 0.014083484187722206, -0.44871047139167786, -0.7840172648429871, 0.0556134358048439, -0.5158265233039856], [-0.6870163679122925, -0.29396650195121765, 0.80940842628479, 0.9013168215751648, -0.16995322704315186, -0.4946270287036896, -0.5042659640312195, -0.12178368866443634, 0.3403984606266022, -0.36305680871009827, -0.41831085085868835, 1.634403109550476, 0.13192950189113617, -0.5504155158996582, -0.4064734876155853, -0.3039345145225525, -0.3491992652416229, -0.25705769658088684, -0.7739218473434448, -0.1298249214887619, -0.2054930031299591, 1.8831993341445923, -0.1993894875049591, 0.9540753364562988, -0.014747985638678074, 0.5051141977310181, 0.5573215484619141, -0.655043363571167, 1.330306053161621, 0.2861154079437256, -0.18969228863716125, -1.1105583906173706], [-0.6685001254081726, -0.33182016015052795, -0.1416732519865036, -0.674767792224884, 0.43477413058280945, 0.3326125741004944, 1.3084592819213867, -0.25473862886428833, -0.8838469982147217, -1.267098069190979, 0.40786033868789673, 0.3249189853668213, -0.925387978553772, 0.9640121459960938, -0.3642670512199402, -0.749448299407959, -0.0991469994187355, 1.813560128211975, -0.20351624488830566, 1.2693771123886108, -0.005803678650408983, -0.390982985496521, 0.4787352383136749, 0.3625251352787018, 0.170649915933609, 0.7453575730323792, -0.5503875613212585, 0.12861226499080658, -0.8888182640075684, 0.37129390239715576, -0.14271044731140137, -0.5538068413734436], [0.28381654620170593, 0.25244519114494324, 0.25412827730178833, -0.1410510540008545, -0.14399436116218567, -0.5875851511955261, 0.19689404964447021, -0.14427058398723602, -0.8799330592155457, -0.16632376611232758, -0.03784501552581787, -0.7271159291267395, -0.584754467010498, -0.4142772853374481, -0.03685016557574272, 0.5687108635902405, 0.20487375557422638, 0.23876656591892242, -0.29360994696617126, -0.5194625854492188, -0.05123588815331459, -1.2236504554748535, 0.4494756758213043, 0.08174868673086166, -0.3979944586753845, -0.05395597219467163, 0.032120198011398315, -0.12904594838619232, 0.339976966381073, -0.6169559955596924, -0.44242221117019653, 0.6653909683227539], [0.5800933241844177, -0.5949998497962952, -0.22232592105865479, -0.6580711007118225, 1.3019685745239258, 0.30329403281211853, -0.045425351709127426, 0.35427355766296387, -0.1342591792345047, -0.6280962824821472, 0.31820550560951233, -0.47664791345596313, -0.5349963903427124, 0.03246272727847099, 0.16313526034355164, -0.1409943401813507, 0.22096192836761475, 0.5736017227172852, -0.0199724230915308, -1.3394789695739746, 0.046118177473545074, -0.6543235182762146, 0.7136992812156677, -0.0054808747954666615, -0.225442036986351, 0.004017299506813288, -0.2074493169784546, 0.013453817926347256, -1.0513627529144287, 0.3598829209804535, 0.13184843957424164, 0.5242303609848022], [-0.14524540305137634, 0.1751309484243393, 0.029769642278552055, 0.4851444363594055, -0.8073395490646362, 0.17544925212860107, -0.007862922735512257, 0.33368316292762756, -0.1963169127702713, 0.3391556143760681, 0.48661792278289795, 0.5444362759590149, 0.08479839563369751, -0.13669712841510773, 0.18911468982696533, -0.007609035354107618, -0.19230441749095917, -0.47590067982673645, -0.08561788499355316, 0.385830283164978, 0.2980094850063324, 0.7995954155921936, -0.1562064290046692, -0.2047278881072998, -0.06168939918279648, -0.19516073167324066, -0.14003922045230865, -0.20338325202465057, 0.4852215349674225, 0.2652711570262909, 0.3426443338394165, -0.17580926418304443], [0.06339260935783386, 0.10510508716106415, -0.15311579406261444, -0.18874876201152802, -0.5599440336227417, 0.6804779171943665, -0.15450778603553772, -0.45862266421318054, -0.7512915730476379, -0.4862360656261444, -0.664447009563446, -0.054337527602910995, -0.22949035465717316, 0.18693554401397705, -0.0719987154006958, 0.309110552072525, 0.20296615362167358, 0.5669000744819641, -0.2961280941963196, -1.136490821838379, -0.0026116911321878433, -0.28734472393989563, -0.05459272488951683, 0.009829405695199966, -0.05037625879049301, 0.3145187199115753, -0.29918214678764343, -0.07182826846837997, 0.04323877394199371, 0.1116807609796524, -0.0704793930053711, 0.19489628076553345], [-0.31935447454452515, -1.0319572687149048, 1.1729050874710083, -0.8026731610298157, -0.17204880714416504, 0.9872403144836426, 0.18774810433387756, -0.7449274659156799, -2.3261003494262695, -0.5743840932846069, 1.136877179145813, -1.2445181608200073, 0.4824060797691345, 1.3054145574569702, 0.9043441414833069, -0.9885635375976562, -0.09958376735448837, 1.7985948324203491, -0.645901620388031, 2.4556784629821777, 1.0765317678451538, -0.08769410848617554, 0.28603410720825195, -0.325821191072464, -0.3226778209209442, -0.4087175130844116, 0.1122007742524147, 0.42323508858680725, 0.17689239978790283, 0.6987268924713135, 0.48608288168907166, -0.05184738710522652], [0.013503873720765114, -0.4283837080001831, -0.017764534801244736, -0.6729486584663391, -0.33178287744522095, -0.38124150037765503, -0.5185016989707947, 0.5871593952178955, -1.0744702816009521, -1.216293454170227, 0.26915445923805237, 0.32685622572898865, -0.035981327295303345, 0.05637176334857941, 0.37064793705940247, -0.16562293469905853, -0.8676077127456665, -0.13655343651771545, -0.5908846855163574, -0.447223961353302, 0.17900721728801727, 0.29379528760910034, -0.058830056339502335, 0.5102829933166504, 0.13089340925216675, 0.05210863798856735, -0.29988911747932434, 0.13085444271564484, 0.4342034161090851, -0.4409959614276886, 0.5101619958877563, 0.487185001373291], [-0.27781975269317627, -0.15884341299533844, 0.04921149089932442, 0.05907578021287918, 1.5281161069869995, 0.2835955321788788, 0.3315203785896301, 0.2464856058359146, 0.31890544295310974, -0.9358347654342651, 0.19700869917869568, -0.16876521706581116, 0.11915424466133118, -0.3955070972442627, 0.10789836198091507, -0.3572254478931427, 0.11598929762840271, 0.23232531547546387, 0.3075019121170044, 0.2855321764945984, -0.0997181236743927, 0.4202432632446289, -0.39662015438079834, 0.18842972815036774, 0.17758871614933014, 0.23799635469913483, 0.4654547870159149, 0.02171378582715988, -1.1139628887176514, 0.17824873328208923, 0.44967055320739746, -0.4255340099334717], [0.3177245855331421, 0.10663754492998123, 0.15230277180671692, 0.22137179970741272, -0.37876152992248535, -0.28420761227607727, -0.9448188543319702, 0.10501536726951599, -1.3460724353790283, 0.07377199083566666, -0.9914808869361877, -0.18069133162498474, 0.4408074915409088, 0.2958727478981018, -1.0970208644866943, -0.033524829894304276, -0.2649080157279968, 0.21011684834957123, 0.03240950033068657, -1.0628782510757446, 0.014252148568630219, -0.027620501816272736, -0.2861318588256836, 0.0751027911901474, -0.4353496730327606, -0.5689364075660706, 0.25925174355506897, -0.3872060775756836, 0.14146195352077484, 0.1453283578157425, 0.2048773616552353, -0.11893822997808456], [1.616925835609436, -0.4434222877025604, -1.523717999458313, -2.9881813526153564, -0.9118406176567078, 0.5888886451721191, 0.28852736949920654, -0.5378004312515259, 0.43764111399650574, 0.15109115839004517, -0.10159119963645935, -0.10975278168916702, -0.4431486129760742, -0.4989871084690094, 3.6831750869750977, 0.024727309122681618, -0.31591957807540894, 3.165584087371826, -0.393724650144577, -0.9569635391235352, 0.4572112262248993, 0.11287205666303635, -0.15211889147758484, 0.5589208006858826, -0.19908715784549713, -0.6365198493003845, -0.23152457177639008, 0.22503352165222168, -0.888881266117096, 0.5006860494613647, -1.061295747756958, 0.7569552063941956], [-0.08199337124824524, 0.23807957768440247, -0.05385882779955864, -0.14596153795719147, 0.4827165901660919, 0.28110888600349426, -0.21070975065231323, 1.0433510541915894, -0.18276271224021912, -0.21310211718082428, -0.46997666358947754, 0.07983317226171494, -0.028880907222628593, 0.2812095582485199, 0.561032235622406, -1.0434422492980957, -0.9125679135322571, 0.3633754551410675, -1.028290033340454, 0.6985226273536682, -0.16562439501285553, 0.8956520557403564, 0.5663526654243469, 0.9953701496124268, -0.06751716881990433, 1.0044219493865967, -0.34676429629325867, -0.5524389147758484, -0.14603827893733978, -0.672285795211792, -0.15368257462978363, -0.013683747500181198], [-0.16826140880584717, 0.3563743829727173, 0.4590086340904236, 0.7545952200889587, 0.769223153591156, -0.695397138595581, -0.4870705306529999, 0.9973244667053223, -0.7479673027992249, -1.2795974016189575, 0.1833987683057785, 2.646182060241699, 1.2118852138519287, -1.196955919265747, -0.434725284576416, -0.21206682920455933, -0.15311604738235474, 0.6409435272216797, 1.4958139657974243, -1.5527770519256592, -0.5184701681137085, 1.0967764854431152, 0.1258300095796585, 0.20968954265117645, 0.41179725527763367, 1.131606936454773, 0.13468237221240997, 0.08208033442497253, 0.1931278258562088, -1.3094868659973145, 0.4033566117286682, -0.25631508231163025], [-0.6451950669288635, -0.11625092476606369, -0.18954263627529144, -0.005818219855427742, 0.2231716364622116, -0.35518771409988403, 0.3978905975818634, -0.025771137326955795, -0.07777812331914902, -0.3628717064857483, 0.24666978418827057, 0.12355326861143112, 0.25264400243759155, 0.03607017546892166, -0.05961889773607254, -0.15120524168014526, 0.4887707233428955, 0.10013621300458908, -0.23064272105693817, -0.25758787989616394, -0.2440488040447235, -0.5281401872634888, -0.29792946577072144, 0.15002259612083435, 0.5263922214508057, 0.26254189014434814, 0.02321590669453144, 0.04109296575188637, 0.20669053494930267, -0.5090105533599854, 0.5647940039634705, -0.08041136711835861], [-0.14826181530952454, 0.8900299072265625, -0.23291751742362976, 1.5477368831634521, 0.8078407645225525, -0.47967609763145447, -0.6209783554077148, 0.5089114308357239, -0.9535142183303833, 0.5468488335609436, -0.12855620682239532, 1.0790833234786987, 0.28425872325897217, -0.8300986886024475, 0.5774474143981934, 0.3658427596092224, -0.035403765738010406, -0.5267467498779297, 0.630020022392273, -0.9976046681404114, -0.038409944623708725, 0.2199784368276596, -0.3795572817325592, 0.11861860752105713, 0.3584527373313904, -0.21124489605426788, -0.1597028225660324, -0.4267379343509674, -0.6824237704277039, -0.41694340109825134, 0.2570299506187439, 0.07365669310092926], [0.239088773727417, -0.07366902381181717, -0.10726811736822128, -0.13063301146030426, 1.107730507850647, -0.34010863304138184, 0.03928663954138756, 0.15140658617019653, 0.40094277262687683, -0.3342394530773163, 0.5109699964523315, -0.04595794901251793, -0.13527801632881165, 0.09112736582756042, 0.0916530191898346, -0.46202725172042847, -0.4419268071651459, 0.4155416786670685, -0.49903830885887146, 0.87883460521698, -0.016942979767918587, -0.31380048394203186, -0.0987616702914238, 0.6565999388694763, -0.4667249023914337, -0.4030666947364807, 0.12018152326345444, -0.19761796295642853, -0.552245557308197, 0.008890105411410332, 0.5522907376289368, 0.5475174188613892], [0.32127323746681213, 0.3762374222278595, -0.05192321911454201, 0.173267662525177, 0.08587485551834106, 0.17654529213905334, 0.3294660449028015, -0.37038078904151917, -0.018536701798439026, 0.6805530190467834, -0.49197953939437866, 0.15531736612319946, -0.04167682304978371, 0.2110062539577484, -0.10206551104784012, 0.16332733631134033, -0.2912490665912628, 0.365564227104187, -1.4748632907867432, -0.005591338034719229, 0.08021711558103561, 0.23323553800582886, 0.501920759677887, 0.15305951237678528, -0.512527585029602, 0.1946938931941986, -0.020980851724743843, -0.6242170929908752, -0.307504802942276, 0.5233078002929688, -0.18109917640686035, 0.2540804445743561], [-0.03595113754272461, -0.07110320031642914, 0.31862586736679077, 0.12527784705162048, 0.44503194093704224, 0.19861538708209991, 0.20778793096542358, -0.31771987676620483, 0.16776776313781738, -0.1301788091659546, 0.4509325921535492, 0.21449191868305206, 0.38276854157447815, 0.24361760914325714, -0.18540062010288239, -0.5491518974304199, 0.1269897222518921, 0.32550984621047974, 0.12748655676841736, 0.4354426860809326, 0.2956956923007965, -0.06821443885564804, 0.010994775220751762, 0.2737343907356262, 0.2268991768360138, 0.1906854510307312, -0.10090025514364243, -0.19933542609214783, -1.3059000968933105, -0.35060837864875793, 0.64305579662323, 0.0019149301806464791], [-0.06258927285671234, -0.33281198143959045, -0.1816760003566742, 0.03650825470685959, 0.3555797338485718, -0.010532784275710583, 0.7119218111038208, 0.033929258584976196, 0.47010138630867004, -0.07448915392160416, 0.5078899264335632, -0.7884804010391235, 0.5408245921134949, -0.4777587354183197, -0.19634445011615753, -0.1295587420463562, 0.46168625354766846, 0.6829795241355896, -0.2306719422340393, 0.32483190298080444, -0.1169561818242073, -0.5701385736465454, -0.4130518436431885, -0.6726509928703308, 0.45385491847991943, -0.5147107839584351, 0.5126204490661621, 0.46822649240493774, -0.3307630717754364, -0.004781036637723446, 0.563123345375061, -0.07481743395328522], [-0.06761213392019272, -0.06963526457548141, -0.053362470120191574, -0.13042336702346802, 0.5292271375656128, 0.4664401710033417, 0.8640245199203491, -0.30887743830680847, -0.06576423346996307, -0.12161377817392349, 0.3813282549381256, 0.356622576713562, 0.6103272438049316, 0.18129156529903412, -0.3178964853286743, -0.9126712083816528, -0.30174118280410767, 0.08448628336191177, -0.27357175946235657, 0.1293875128030777, -0.4200696051120758, -0.7888352870941162, 0.1576106995344162, -0.06665625423192978, -0.31382134556770325, 0.21540232002735138, 0.11249414086341858, -0.4838290214538574, -0.1444665491580963, -0.1474304497241974, 0.05455296114087105, 0.02934325858950615], [0.17367228865623474, -0.2313082218170166, 0.2908601462841034, -0.018740810453891754, 0.0875852108001709, 0.29332372546195984, -0.17534111440181732, 0.6575524210929871, 0.1636059731245041, -0.3601357042789459, 0.028056873008608818, 0.030486194416880608, 0.26454126834869385, 0.37960875034332275, 0.10181345790624619, -0.3369213044643402, -0.5568030476570129, 0.16096043586730957, -0.39060911536216736, 0.17348943650722504, 0.2120765596628189, 0.36828526854515076, 0.4657899737358093, 0.652211606502533, -0.08653430640697479, 0.14198443293571472, -0.08445678651332855, 0.01200405228883028, -0.21494199335575104, -0.011498657055199146, -0.28295233845710754, 0.41917356848716736], [-0.9930587410926819, -0.44792500138282776, -0.007009764667600393, -0.03234189376235008, 0.9411914348602295, -1.476832389831543, 0.3073706030845642, -0.032379958778619766, 0.3719087541103363, -0.44341954588890076, 0.7732548713684082, 0.6019710898399353, 0.053645335137844086, -0.1911943554878235, -0.5515702962875366, -1.171077013015747, 0.2699087858200073, 0.1172952950000763, 1.0132805109024048, -0.3104642927646637, -0.142120823264122, -0.23051509261131287, -0.5136439204216003, -0.8830349445343018, 0.3729683756828308, 0.2028237283229828, 0.7310647368431091, 0.5863181352615356, -0.05027186870574951, -0.6505870819091797, 0.050358086824417114, -0.3345126807689667], [-0.06356728821992874, -0.016272079199552536, -0.5476523041725159, -0.16425828635692596, 0.20522809028625488, -0.6468389630317688, -0.09384132921695709, 0.23896951973438263, 0.8965181708335876, -0.5969409942626953, -0.6857845187187195, -0.6956560611724854, 0.2432601898908615, -0.07169710844755173, 0.402346134185791, 0.13206054270267487, 0.21948081254959106, -0.1663968861103058, 0.4110349416732788, 0.20780345797538757, -0.11473043262958527, -0.308830201625824, -0.20126833021640778, 0.01821540668606758, 0.01530850026756525, -0.12345816940069199, -0.19621850550174713, 0.4211146831512451, -0.10438396781682968, -0.1175025925040245, -0.0346088781952858, 0.48707371950149536], [-0.2729235887527466, -0.2789248824119568, -0.048722490668296814, -0.3215634822845459, 1.5207338333129883, 0.19358299672603607, -0.0674062967300415, 0.280803382396698, 0.4550769627094269, -0.10159611701965332, 0.13555778563022614, -0.18141520023345947, -0.25878122448921204, -0.002654688898473978, 0.0900387242436409, -0.30039161443710327, 0.22936001420021057, 0.1349439024925232, 0.2220114916563034, 0.15231889486312866, 0.20276348292827606, 0.10996264964342117, -0.3522143065929413, -0.5138548612594604, 0.04149719327688217, -0.15921550989151, 0.34290623664855957, 0.32901012897491455, -0.9414492845535278, 0.015950197353959084, 0.4946831464767456, -0.1965922713279724], [0.12178315222263336, 0.12498720735311508, 0.29452574253082275, 0.15538501739501953, 1.3172658681869507, 0.07746171206235886, 0.20703089237213135, -0.03580460324883461, 1.0728747844696045, 0.1661750227212906, 0.3681575357913971, -0.6475579142570496, 0.07839899510145187, -0.6098920702934265, 0.27128466963768005, -0.39070549607276917, 0.07712747156620026, -0.6010794639587402, -0.8073298335075378, -0.26552024483680725, -0.004648204427212477, 0.36254483461380005, -0.05095626786351204, 0.319458544254303, 0.11271268874406815, -0.015925055369734764, -0.054790519177913666, -0.26158249378204346, -0.7394838929176331, -0.16328118741512299, 0.06776172667741776, -0.23116464912891388]], "rec.bias_ih_l0": [-0.34374523162841797, -0.04784652218222618, -0.11903249472379684, 0.2273753136396408, -0.6949468851089478, -0.29879164695739746, -0.15038686990737915, -0.1291048377752304, -0.5155985951423645, -0.3626125752925873, -0.2595823407173157, -0.4775814712047577, -0.5078704953193665, -0.4689716100692749, -0.00977453775703907, -0.1489783525466919, -0.9360367655754089, 0.902655839920044, -1.124657154083252, 0.7340642213821411, -0.5735594034194946, -0.06321430206298828, -0.04446377232670784, -0.49266335368156433, -0.3125113844871521, -0.21449077129364014, -0.17036999762058258, -0.7890664339065552, -1.4497456550598145, -0.3062348961830139, -0.34534507989883423, -0.3647788465023041, 0.3081289827823639, 0.270742267370224, 0.3760438859462738, 0.17863334715366364, 0.5296790599822998, 0.20181810855865479, -0.12443681806325912, -0.15065528452396393, -0.29658040404319763, -0.5717913508415222, -0.0335596427321434, 0.29430481791496277, 0.3955986797809601, 0.12952032685279846, -0.43260815739631653, 0.24051550030708313, 0.1677873283624649, 0.48777735233306885, 0.5033942461013794, -0.19007255136966705, 0.12464327365159988, -0.2368677705526352, 0.24416519701480865, 0.19088715314865112, 1.061417579650879, 0.32191982865333557, 0.1268680989742279, 1.3932716846466064, 0.8432533740997314, 0.26058706641197205, 0.9200760722160339, 0.12269727885723114, 0.003497728845104575, -0.10812949389219284, -0.11803174763917923, 0.11107466369867325, -0.11129388213157654, 0.21166785061359406, -0.09892034530639648, 0.016712360084056854, 0.1061895340681076, -0.07206590473651886, 0.1972137689590454, 0.044413406401872635, 0.13142594695091248, -0.15739136934280396, 0.15876397490501404, -0.1396566927433014, -0.06370337307453156, 0.02027341164648533, 0.12301526218652725, 0.1744723618030548, -0.12702396512031555, 0.21972237527370453, 0.3192576467990875, -0.05634208396077156, -0.07317132502794266, 0.10913988202810287, -0.00878392718732357, 0.10914714634418488, 0.09010636061429977, -0.28618311882019043, -0.20771977305412292, 0.10518091917037964, -0.2792896032333374, -0.3403891921043396, 0.21025322377681732, 0.21255642175674438, 0.017084641382098198, -0.29438015818595886, -0.08062013238668442, 0.059323135763406754, -0.8147659301757812, -0.39329689741134644, 0.29101112484931946, -0.05695193633437157, -0.11673829704523087, -0.17534169554710388, -0.17207090556621552, 0.12158103287220001, -0.5892670750617981, -0.12537486851215363, 0.25513756275177, 0.44786396622657776, -0.4413594901561737, 0.07649993151426315, 0.029036350548267365, -0.15936416387557983, 0.3437003195285797, -0.19235262274742126, -0.27549758553504944, 0.2181892842054367, 0.2772170603275299, -0.22901853919029236, 0.14459514617919922, -0.21354563534259796], "rec.bias_hh_l0": [-0.380608469247818, -0.1658201366662979, -0.2743155360221863, 0.0010248763719573617, -0.7973323464393616, -0.22541819512844086, -0.244598850607872, -0.2241782695055008, -0.29156458377838135, -0.28470805287361145, -0.05612226948142052, -0.7505367994308472, -0.534433901309967, -0.35035958886146545, 0.027381282299757004, -0.21244627237319946, -0.8789689540863037, 0.7212154269218445, -1.0813008546829224, 0.49182581901550293, -0.33968785405158997, 0.019351251423358917, 0.2298016995191574, -0.7186926007270813, -0.35242488980293274, -0.4185783863067627, -0.3951423764228821, -0.6730652451515198, -1.7299494743347168, -0.30708208680152893, -0.163480743765831, -0.10734310746192932, 0.5087783932685852, -0.014066701754927635, 0.1858220398426056, -0.06072627007961273, 0.855026125907898, -0.14224131405353546, -0.12215836346149445, -0.13599060475826263, -0.05085710436105728, -0.4956689774990082, 0.20197618007659912, 0.3147044777870178, 0.3346260190010071, 0.43401414155960083, -0.44782188534736633, 0.2500184178352356, 0.1834890991449356, 0.5405930876731873, 0.5564165711402893, -0.17867180705070496, 0.227446511387825, -0.37691590189933777, -0.001044287346303463, 0.12393593043088913, 1.0078728199005127, 0.3181508481502533, 0.12076812982559204, 1.266634225845337, 0.7866737246513367, 0.36604583263397217, 0.7296480536460876, 0.2670242190361023, 0.14935287833213806, -0.13857628405094147, 0.16776572167873383, -0.07690714299678802, -0.17223410308361053, 0.2999972403049469, -0.04453841969370842, 0.013113496825098991, 0.09680891782045364, -0.14617788791656494, 0.1023489236831665, -0.020504822954535484, 0.08364232629537582, 0.12174590677022934, -0.018186133354902267, -0.2611203193664551, -0.1570461541414261, -0.006315270438790321, 0.2987748086452484, 0.3356340527534485, -0.0215378999710083, -0.10379783064126968, 0.4097897410392761, -0.022857949137687683, -0.09456587582826614, 0.3214397430419922, 0.009784108027815819, -0.036331042647361755, 0.031646087765693665, -0.25283607840538025, -0.022981014102697372, -0.035499539226293564, -0.18462271988391876, -0.26901355385780334, 0.30600327253341675, 0.1963590383529663, 0.0696709081530571, -0.09975504130125046, -0.34273865818977356, 0.21395502984523773, -0.8798180818557739, -0.3787962794303894, 0.004389523062855005, -0.09807837009429932, -0.2103176712989807, -0.22954337298870087, 0.0958995372056961, 0.2252885401248932, -0.7812544107437134, -0.14516980946063995, 0.3559149503707886, 0.4681500792503357, -0.33232054114341736, 0.1720375120639801, -0.05275353789329529, -0.28096282482147217, 0.41696226596832275, -0.39056387543678284, -0.2567845284938812, 0.18593165278434753, 0.1089187040925026, -0.2310326248407364, -0.11535464972257614, -0.1138835921883583], "lin.weight": [[0.14036951959133148, 0.14519083499908447, -0.06498432904481888, -0.016918295994400978, -0.04678353667259216, 0.04512433335185051, -0.10975749790668488, -0.32803404331207275, 0.18501482903957367, 0.016215356066823006, -0.24536623060703278, -0.09923861920833588, -0.13048173487186432, -0.42601168155670166, 0.2603234648704529, 0.13557909429073334, 0.06910188496112823, 0.06122612953186035, 0.14599670469760895, -0.1644359529018402, 0.39576998353004456, 0.44327512383461, -0.05448053032159805, 0.017187509685754776, 0.06083850935101509, -0.047386642545461655, -0.5050749778747559, 0.08526261895895004, 0.038987644016742706, 0.1326974630355835, -0.1353064924478531, 0.0578928142786026]], "lin.bias": [0.09651166200637817]}}